{
  "model": {
    "layers": [
      {
        "in_features": 8,
        "out_features": 12,
        "weights": [
          -0.17564643919467926,
          -0.328536719083786,
          -0.2011287957429886,
          0.17923212051391602,
          0.02670387364923954,
          -0.005999045446515083,
          -0.16880066692829132,
          -0.09707473963499069,
          0.26234233379364014,
          0.2033148854970932,
          0.25449779629707336,
          0.4592863619327545,
          0.36616984009742737,
          0.3863004744052887,
          0.2847202718257904,
          0.02629927732050419,
          -0.2196076214313507,
          -0.24310918152332306,
          -0.04771874472498894,
          0.3941008448600769,
          -0.25305667519569397,
          0.18627811968326569,
          -0.04086170718073845,
          0.11088232696056366,
          -0.01909184642136097,
          -0.3020298182964325,
          0.20219598710536957,
          -0.42871323227882385,
          0.0635150671005249,
          -0.4154435694217682,
          -0.26865577697753906,
          -0.3108380138874054,
          -0.009785719215869904,
          0.11125317960977554,
          0.12732979655265808,
          0.09629452973604202,
          -0.36151793599128723,
          0.019938211888074875,
          -0.2732936143875122,
          -0.25207796692848206,
          -0.18118761479854584,
          0.31801989674568176,
          0.15511269867420197,
          0.22256749868392944,
          0.20644636452198029,
          0.030413934960961342,
          -0.21045179665088654,
          0.15006762742996216,
          0.16746142506599426,
          -0.37503165006637573,
          -0.17880943417549133,
          -0.1992550641298294,
          0.30792123079299927,
          0.15952028334140778,
          -0.07391542196273804,
          0.03599982708692551,
          -0.24688531458377838,
          -0.0189292524009943,
          0.004174935165792704,
          0.2805839776992798,
          0.06100662052631378,
          -0.2555631697177887,
          -0.3642839193344116,
          -0.07480514049530029,
          -0.36957743763923645,
          -0.35319992899894714,
          -0.3946891129016876,
          -0.12524759769439697,
          -0.39584141969680786,
          0.2029123604297638,
          -0.159403458237648,
          -0.01950785703957081,
          -0.10363224893808365,
          -0.41426146030426025,
          -0.12142949551343918,
          -0.3285734951496124,
          -0.39515843987464905,
          -0.13627474009990692,
          -0.02240249142050743,
          -0.11172768473625183,
          0.0009609715198166668,
          0.11413571983575821,
          0.07344982028007507,
          0.2737756073474884,
          -0.1869935542345047,
          0.17166586220264435,
          0.38469478487968445,
          -0.2139277458190918,
          0.04389452561736107,
          0.04302121698856354,
          0.25706613063812256,
          -0.18600058555603027,
          -0.04727328196167946,
          0.15600641071796417,
          0.28415894508361816,
          0.13286174833774567
        ],
        "bias": [
          -0.3479434549808502,
          -0.05672631040215492,
          0.011667350307106972,
          0.029866386204957962,
          -0.2525903284549713,
          0.24817943572998047,
          -0.20879684388637543,
          -0.2249610275030136,
          -0.054276157170534134,
          0.05867516249418259,
          0.09471695870161057,
          0.24903959035873413
        ]
      },
      {
        "in_features": 38,
        "out_features": 64,
        "weights": [
          -0.01635669730603695,
          0.1716444045305252,
          -0.11349168419837952,
          0.138638436794281,
          0.09234446287155151,
          0.06703947484493256,
          -0.09674979001283646,
          0.07993505895137787,
          -0.03630734235048294,
          0.009763160720467567,
          -0.029586799442768097,
          -0.08345615118741989,
          -0.03182735666632652,
          -0.17584042251110077,
          -0.07417275011539459,
          0.07113198190927505,
          -0.025972755625844002,
          -0.1512947976589203,
          0.08873996883630753,
          -0.09981150180101395,
          0.13736414909362793,
          -0.04697156324982643,
          0.09922018647193909,
          0.05384619161486626,
          -0.00749449897557497,
          0.029896024614572525,
          -0.06982579082250595,
          -0.0030856074299663305,
          0.07108406722545624,
          0.23617151379585266,
          -0.12786193192005157,
          -0.013536658138036728,
          -0.09065313637256622,
          0.14642000198364258,
          -0.03661587834358215,
          -0.03088693507015705,
          -0.07232528179883957,
          0.17959311604499817,
          -0.01347330678254366,
          0.14852853119373322,
          -0.09582612663507462,
          -0.07428105175495148,
          0.014506432227790356,
          0.01623975858092308,
          -0.009117526933550835,
          -0.0078800730407238,
          -0.021550161764025688,
          0.06922248750925064,
          -0.012973773293197155,
          0.12416309863328934,
          0.03384571522474289,
          0.1537162959575653,
          -0.16260549426078796,
          -0.08629019558429718,
          -0.13602715730667114,
          -0.2226569950580597,
          -0.102846659719944,
          -0.11494863778352737,
          0.20836398005485535,
          0.03767777606844902,
          0.19533564150333405,
          0.036680445075035095,
          0.009919419884681702,
          0.09796354919672012,
          0.14231601357460022,
          -0.10630679875612259,
          -0.08272835612297058,
          -0.13888747990131378,
          0.052152346819639206,
          0.03023747354745865,
          -0.046139441430568695,
          0.023677200078964233,
          0.045227885246276855,
          -0.02481391653418541,
          -0.09882355481386185,
          -0.14027270674705505,
          0.07267100363969803,
          -0.15321628749370575,
          0.06824609637260437,
          0.007721104193478823,
          -0.07553167641162872,
          0.08766033500432968,
          0.07382644712924957,
          -0.13467422127723694,
          -0.007156448904424906,
          -0.009160751476883888,
          -0.024207068607211113,
          0.05685771256685257,
          -0.21771995723247528,
          0.05364588275551796,
          0.14279407262802124,
          -0.24789901077747345,
          0.09853143244981766,
          -0.09698430448770523,
          0.23757539689540863,
          -0.0754835233092308,
          -0.02035212330520153,
          0.21631750464439392,
          -0.050378382205963135,
          0.02517138421535492,
          0.006939165759831667,
          -0.004652405623346567,
          -0.038560252636671066,
          0.13515257835388184,
          0.15963278710842133,
          -0.1630367785692215,
          0.20710593461990356,
          0.050175122916698456,
          0.10926926881074905,
          -0.1935819387435913,
          -0.09403996169567108,
          0.0024970872327685356,
          -0.120005302131176,
          -0.18673256039619446,
          -0.13618338108062744,
          0.02457689307630062,
          0.061748210340738297,
          0.10042837262153625,
          -0.06257669627666473,
          0.04708780720829964,
          -0.0857236236333847,
          -0.01613783836364746,
          -0.029381169006228447,
          0.12290887534618378,
          -0.03672635182738304,
          0.2564416229724884,
          -0.13487066328525543,
          -0.13513298332691193,
          0.3328619599342346,
          0.004724595695734024,
          0.05039851367473602,
          0.23070524632930756,
          -0.11414801329374313,
          -0.1722581386566162,
          0.272934228181839,
          -0.10170703381299973,
          -0.0057182516902685165,
          0.07110393047332764,
          0.03127974271774292,
          0.1713852733373642,
          0.1209787130355835,
          -0.07794123142957687,
          -0.041555315256118774,
          -0.05113569647073746,
          -0.06673949211835861,
          0.05266102775931358,
          0.17094889283180237,
          -0.06729146093130112,
          0.006031022872775793,
          0.029908930882811546,
          -0.10036008805036545,
          -0.04550584405660629,
          -0.1152888834476471,
          -0.14883218705654144,
          0.1224362850189209,
          0.15038470923900604,
          -0.0025434314738959074,
          -0.024746039882302284,
          0.04819504916667938,
          0.01413093600422144,
          0.009222077205777168,
          0.053919270634651184,
          -0.010584903880953789,
          0.13993965089321136,
          -0.15642149746418,
          0.041376013308763504,
          -0.12203714996576309,
          0.1877417415380478,
          -0.03440620377659798,
          -0.16913901269435883,
          0.15237544476985931,
          -0.0440254732966423,
          0.03757673501968384,
          -0.24302008748054504,
          -0.04139434173703194,
          0.00986739806830883,
          0.025936828926205635,
          0.0648578628897667,
          -0.1322142630815506,
          0.0973527729511261,
          0.19743898510932922,
          0.11998193711042404,
          -0.08027876913547516,
          -0.1639222353696823,
          0.10188998281955719,
          -0.11129462718963623,
          -0.20202256739139557,
          0.06198054179549217,
          0.05021155998110771,
          0.16860055923461914,
          0.030534233897924423,
          -0.08462958037853241,
          0.14312085509300232,
          -0.1156451478600502,
          -0.10054587572813034,
          -0.13729259371757507,
          0.07627015560865402,
          0.05522023141384125,
          0.02625109814107418,
          -0.07392474263906479,
          -0.010814416222274303,
          0.10306191444396973,
          0.011816506274044514,
          0.2107565551996231,
          0.08060648292303085,
          -0.11041684448719025,
          0.3300347328186035,
          0.1311062127351761,
          0.04619615897536278,
          0.21411240100860596,
          0.12606453895568848,
          -0.07029411941766739,
          0.2800116240978241,
          -0.018978066742420197,
          0.0069900332018733025,
          -0.09901749342679977,
          0.23483334481716156,
          0.1310076266527176,
          0.06860415637493134,
          0.1490962654352188,
          -0.014634495601058006,
          -0.06960665434598923,
          0.21968050301074982,
          0.15724992752075195,
          0.0996132418513298,
          0.1625533252954483,
          0.06015447527170181,
          -0.0271159540861845,
          0.1417781561613083,
          0.17840829491615295,
          0.031295135617256165,
          0.10116729140281677,
          0.10619969666004181,
          0.20767690241336823,
          0.10414841771125793,
          -0.07945384830236435,
          0.03543288633227348,
          -0.04742097854614258,
          0.08827322721481323,
          0.16864128410816193,
          0.10297927260398865,
          0.022615352645516396,
          0.13770578801631927,
          0.004110992886126041,
          -0.07825997471809387,
          0.022139357402920723,
          0.040759261697530746,
          0.11269532889127731,
          0.04152650386095047,
          -0.08134639263153076,
          0.03316545486450195,
          -0.11042933911085129,
          -0.038167569786310196,
          -0.09554563462734222,
          0.09272774308919907,
          -0.10723893344402313,
          -0.009367445483803749,
          0.0621228851377964,
          0.041897621005773544,
          0.016581587493419647,
          -0.07189612090587616,
          0.1439722776412964,
          0.02592426910996437,
          0.1139533743262291,
          -0.07910256832838058,
          0.0418693833053112,
          0.19638226926326752,
          0.04567008465528488,
          0.06680969893932343,
          0.05902675911784172,
          0.042357880622148514,
          -0.10854429006576538,
          -0.13371963798999786,
          -0.08628028631210327,
          0.0028719387482851744,
          0.019655443727970123,
          0.014120044186711311,
          0.21701295673847198,
          -0.016725577414035797,
          0.018549878150224686,
          -0.20292650163173676,
          0.013646474108099937,
          -0.23345713317394257,
          0.30214986205101013,
          -0.009410738945007324,
          0.07805268466472626,
          -0.045381851494312286,
          0.13280998170375824,
          -0.15043142437934875,
          -0.011745951138436794,
          -0.003437150502577424,
          0.01913815550506115,
          0.258508563041687,
          -0.03748439997434616,
          0.12098818272352219,
          -0.12435398995876312,
          -0.05847599729895592,
          -0.033707424998283386,
          0.14794489741325378,
          -0.00478134723380208,
          0.08320716768503189,
          -0.2875541150569916,
          0.030636366456747055,
          0.03102119453251362,
          -0.10732405632734299,
          -0.04864288493990898,
          0.07143952697515488,
          -0.06864400953054428,
          0.06655453145503998,
          0.03019976243376732,
          -0.05655019357800484,
          0.15724875032901764,
          -0.005877131596207619,
          0.01821735128760338,
          0.010395885445177555,
          0.31484314799308777,
          0.06236933544278145,
          -0.12337304651737213,
          0.2874717116355896,
          0.0581379160284996,
          -0.21157018840312958,
          -0.30917826294898987,
          -0.05892083793878555,
          0.06290756911039352,
          -0.14666225016117096,
          0.07217319309711456,
          0.10108927637338638,
          -0.0019559254869818687,
          -0.005911585874855518,
          0.02302543632686138,
          0.03863994777202606,
          -0.19135352969169617,
          0.12835799157619476,
          0.0897328183054924,
          -0.12955835461616516,
          0.11667298525571823,
          0.08645480126142502,
          0.20289833843708038,
          -0.06810054183006287,
          -0.1531391739845276,
          0.33880433440208435,
          -0.04451587423682213,
          -0.12061997503042221,
          0.10685429722070694,
          0.12791575491428375,
          -0.12095338851213455,
          0.13485506176948547,
          0.020967133343219757,
          0.10483439266681671,
          -0.03442307561635971,
          -0.12285206466913223,
          0.038529958575963974,
          -0.022235624492168427,
          -0.0866699069738388,
          -0.0656508207321167,
          -0.058053597807884216,
          -0.1484784632921219,
          0.022584008052945137,
          -0.11434033513069153,
          0.2623056471347809,
          0.10774747282266617,
          0.21180592477321625,
          0.1783694475889206,
          0.12482766807079315,
          0.17021067440509796,
          0.11653130501508713,
          -0.06261727958917618,
          0.10716509819030762,
          -0.2369677722454071,
          0.001744142035022378,
          0.005961840972304344,
          -0.39776352047920227,
          0.07423191517591476,
          -0.03146698325872421,
          0.2544211447238922,
          -0.030457787215709686,
          0.12149961292743683,
          0.09261036664247513,
          0.009411109611392021,
          0.0055826264433562756,
          -0.036948271095752716,
          0.09233952313661575,
          0.013807039707899094,
          0.13355565071105957,
          0.021947933360934258,
          -0.08202408254146576,
          0.11231791228055954,
          0.07307907193899155,
          0.011313710361719131,
          0.03442792966961861,
          -0.09481360018253326,
          0.04779614135622978,
          0.06432538479566574,
          -0.07269266247749329,
          0.09447626024484634,
          0.07169228047132492,
          0.013601815328001976,
          0.03221016749739647,
          0.003333143424242735,
          -0.03681984543800354,
          -0.013019121252000332,
          0.08356337249279022,
          0.10223516076803207,
          0.0782143846154213,
          0.07387755811214447,
          0.05597853288054466,
          -0.2149171680212021,
          0.1883593052625656,
          0.04566781967878342,
          -0.07674235105514526,
          -0.11713866144418716,
          0.050897154957056046,
          0.16283836960792542,
          0.0035428970586508512,
          0.14001373946666718,
          0.031705714762210846,
          0.10730944573879242,
          0.0740119218826294,
          -0.013679825700819492,
          0.11212018132209778,
          -0.07065611332654953,
          0.039281755685806274,
          -0.09580569714307785,
          0.037103861570358276,
          -0.04378126934170723,
          -0.12729978561401367,
          0.07886718213558197,
          0.02495529130101204,
          0.02186794951558113,
          0.02321472577750683,
          0.0005369553109630942,
          0.07911022752523422,
          -0.2115938514471054,
          0.12207091599702835,
          -0.1334543526172638,
          0.14722944796085358,
          0.08851297944784164,
          -0.20668014883995056,
          0.18507874011993408,
          0.04954427480697632,
          0.2955904006958008,
          -0.07445971667766571,
          0.04842457175254822,
          -0.0066900295205414295,
          0.175618976354599,
          0.2153775990009308,
          0.002824401715770364,
          -0.13415060937404633,
          0.030235115438699722,
          0.09431970119476318,
          -0.15009553730487823,
          -0.03670302405953407,
          0.002130956156179309,
          0.02092568390071392,
          -0.07484015822410583,
          0.12619803845882416,
          0.14956042170524597,
          -0.06265255063772202,
          0.09406763315200806,
          -0.023450734093785286,
          0.06740770488977432,
          -0.09506306052207947,
          -0.08782872557640076,
          -0.03324035927653313,
          0.05295068398118019,
          -0.6135143637657166,
          0.07081931084394455,
          0.02500612847507,
          0.026813803240656853,
          0.03025287203490734,
          0.027541179209947586,
          -0.005453986115753651,
          0.006787591148167849,
          0.008963208645582199,
          -0.0062144361436367035,
          -0.048225726932287216,
          -0.13292741775512695,
          -0.002096757758408785,
          -0.006749941036105156,
          -0.056942932307720184,
          0.029725098982453346,
          0.6043820977210999,
          -0.08573225140571594,
          0.036628443747758865,
          -0.02592753805220127,
          0.02776806801557541,
          0.0799996480345726,
          0.03680533915758133,
          -0.06061761453747749,
          0.06927385181188583,
          -0.05972844362258911,
          0.09720718860626221,
          0.007562414743006229,
          0.06773138791322708,
          0.12159983813762665,
          0.06988145411014557,
          -0.1165204867720604,
          0.1346583217382431,
          0.08957600593566895,
          -0.14805340766906738,
          -0.07398256659507751,
          -0.00798733439296484,
          0.0278241578489542,
          -0.013602634891867638,
          0.12275009602308273,
          0.12629440426826477,
          -0.1253160536289215,
          -0.22089330852031708,
          0.15604610741138458,
          -0.12878188490867615,
          -0.1292608231306076,
          0.18369731307029724,
          -0.1345260888338089,
          -0.202840194106102,
          0.14509570598602295,
          -0.24997180700302124,
          -0.16839006543159485,
          -0.1288907676935196,
          -0.055492665618658066,
          -0.05036840960383415,
          -0.14091628789901733,
          -0.12020839005708694,
          0.14280055463314056,
          -0.19663545489311218,
          -0.1884625405073166,
          0.1854563057422638,
          -0.1936836689710617,
          -0.09864556044340134,
          0.09850240498781204,
          -0.17079992592334747,
          -0.19729170203208923,
          0.05114646628499031,
          0.11117905378341675,
          0.11276570707559586,
          0.11555300652980804,
          -0.006974623538553715,
          0.0008813352324068546,
          -0.05546702444553375,
          0.15692414343357086,
          0.15146268904209137,
          -0.008006789721548557,
          -0.11663378030061722,
          0.0247972272336483,
          -0.226548969745636,
          0.06101221218705177,
          0.024026956409215927,
          -0.08138519525527954,
          -0.07191777974367142,
          -0.19687269628047943,
          0.007114177569746971,
          0.014107873663306236,
          0.048976194113492966,
          0.29001209139823914,
          0.027775684371590614,
          0.02359432354569435,
          -0.03397509083151817,
          -0.048206817358732224,
          -0.14550626277923584,
          -0.06691870838403702,
          0.09761840850114822,
          -0.13325467705726624,
          0.048057105392217636,
          -0.1633826494216919,
          -0.1096721738576889,
          -0.3229255974292755,
          0.19347639381885529,
          -0.012264330871403217,
          -0.08534818142652512,
          -0.09485231339931488,
          -0.003613669192418456,
          -0.021396107971668243,
          0.10386084020137787,
          0.10790673643350601,
          0.05097229778766632,
          -0.012259445153176785,
          0.10570622980594635,
          -0.11630401760339737,
          0.13980452716350555,
          0.004270430654287338,
          0.07938001304864883,
          -0.06808245927095413,
          0.03159787505865097,
          -0.012014808133244514,
          0.09116477519273758,
          0.0058794100768864155,
          0.10165797173976898,
          -0.040886279195547104,
          0.13249370455741882,
          -0.15159600973129272,
          0.19693680107593536,
          -0.15847836434841156,
          0.22773496806621552,
          -0.036403950303792953,
          0.06697779148817062,
          0.06238146871328354,
          0.11304564774036407,
          0.14478395879268646,
          0.05465944856405258,
          -0.025052225217223167,
          -0.25870734453201294,
          0.040109604597091675,
          0.036196913570165634,
          0.08542466163635254,
          -0.06335369497537613,
          0.05518056079745293,
          -0.13130563497543335,
          0.05217691510915756,
          0.12919239699840546,
          0.14177805185317993,
          0.0006139467004686594,
          0.027456598356366158,
          0.049040306359529495,
          0.05974601209163666,
          0.23449818789958954,
          0.05396468937397003,
          0.22975870966911316,
          0.09214890003204346,
          0.09802284091711044,
          0.016808701679110527,
          0.004940386861562729,
          -0.07988929748535156,
          0.14311766624450684,
          -0.034091707319021225,
          -0.07978437840938568,
          0.02173503302037716,
          -0.025463588535785675,
          0.05455513298511505,
          0.09272646903991699,
          -0.13926929235458374,
          -0.08239778876304626,
          0.1442674845457077,
          -0.06996756792068481,
          0.074722521007061,
          0.06644904613494873,
          -0.053708963096141815,
          -0.1218860000371933,
          -0.06815288960933685,
          -0.05498812347650528,
          0.021720213815569878,
          0.13754229247570038,
          0.03363032639026642,
          -0.06807699054479599,
          -0.016300439834594727,
          0.08798310905694962,
          0.13046815991401672,
          0.0339900441467762,
          0.08455508947372437,
          0.04036033898591995,
          0.020296018570661545,
          -0.00905846431851387,
          0.050253164023160934,
          -0.10707559436559677,
          0.13611820340156555,
          0.06627529114484787,
          0.015666022896766663,
          -0.09738118946552277,
          0.004337711725383997,
          0.15734104812145233,
          -0.04813157394528389,
          -0.0023170465137809515,
          0.08231889456510544,
          -0.06525779515504837,
          -0.15463736653327942,
          -0.11204060912132263,
          0.01971176266670227,
          0.009893735870718956,
          -0.08930923044681549,
          -0.006300404667854309,
          0.08107848465442657,
          -0.02926645614206791,
          -0.015680436044931412,
          -0.1324027180671692,
          0.15800520777702332,
          -0.021910900250077248,
          0.049668215215206146,
          -0.03815056011080742,
          -0.13714277744293213,
          -0.06775771826505661,
          -0.22778692841529846,
          0.07553498446941376,
          -0.063687264919281,
          0.1077488586306572,
          0.14772512018680573,
          0.02437066286802292,
          0.053152915090322495,
          -0.1523822695016861,
          -0.03253009542822838,
          0.10987849533557892,
          -0.00024656407185830176,
          0.010466453619301319,
          -0.09476526826620102,
          0.061211396008729935,
          -0.017603673040866852,
          -0.0999554693698883,
          0.04001786187291145,
          0.2796211242675781,
          -0.021409783512353897,
          0.058820370584726334,
          0.0500054769217968,
          -0.013143694028258324,
          -0.16739679872989655,
          -0.21090483665466309,
          0.004434560891240835,
          -0.12129854410886765,
          -0.10802393406629562,
          0.01613904908299446,
          0.16202665865421295,
          -0.036080844700336456,
          -0.059701718389987946,
          -0.12241354584693909,
          0.12005522102117538,
          -0.019979961216449738,
          -0.003848155029118061,
          -0.07586868107318878,
          -0.22641673684120178,
          0.0057258885353803635,
          -0.12496020644903183,
          0.09802532196044922,
          -0.1332203596830368,
          0.1449088752269745,
          0.1770404577255249,
          0.08364133536815643,
          0.0906866267323494,
          0.11856647580862045,
          -0.016154423356056213,
          -0.03054208680987358,
          -0.10082855075597763,
          -0.10789822041988373,
          0.015636803582310677,
          0.007014378905296326,
          0.0264387596398592,
          -0.03363439440727234,
          -0.1223970279097557,
          -0.20969264209270477,
          -0.0955781564116478,
          0.13345012068748474,
          -0.03279294818639755,
          -0.08459323644638062,
          0.203714519739151,
          -0.17324979603290558,
          -0.004915404133498669,
          0.1619245857000351,
          -0.06217718869447708,
          -0.07149170339107513,
          0.12941770255565643,
          0.0813315287232399,
          0.083286352455616,
          -0.03183005377650261,
          -0.01803566887974739,
          0.09461405128240585,
          -0.05740032717585564,
          -0.11119306087493896,
          0.20588281750679016,
          -0.13674061000347137,
          -0.0625176653265953,
          0.11955727636814117,
          0.03569309413433075,
          -0.022453591227531433,
          0.23348872363567352,
          -0.0920577123761177,
          -0.11227670311927795,
          0.1099841296672821,
          0.03728777915239334,
          0.16778255999088287,
          0.1510203629732132,
          -0.08270354568958282,
          0.046709224581718445,
          0.20203343033790588,
          -0.09988784044981003,
          0.05255414918065071,
          0.07019713521003723,
          -0.20052962005138397,
          0.006614869926124811,
          -0.04682231694459915,
          -0.05201612412929535,
          -0.0893472209572792,
          0.00818711519241333,
          0.05308426916599274,
          -0.06325668841600418,
          -0.06520669162273407,
          -0.10943109542131424,
          -0.06585796177387238,
          -0.17838989198207855,
          0.021922966465353966,
          -0.10258941352367401,
          0.09037250280380249,
          0.023228207603096962,
          0.026014702394604683,
          0.04678626358509064,
          0.1577938199043274,
          0.050811927765607834,
          -0.04220644757151604,
          0.033343978226184845,
          0.0835140272974968,
          -0.046562179923057556,
          0.08165981620550156,
          -0.09902695566415787,
          -0.016916362568736076,
          0.11044882237911224,
          0.0126738790422678,
          0.11020270735025406,
          0.11565177887678146,
          -0.039481498301029205,
          -0.08980737626552582,
          0.009796051308512688,
          0.1955711543560028,
          0.051679473370313644,
          0.004296287894248962,
          -0.006982455030083656,
          -0.0038615099620074034,
          0.11967839300632477,
          -0.020892852917313576,
          0.21873396635055542,
          0.012628228403627872,
          0.1381685882806778,
          0.037051863968372345,
          -0.06925199925899506,
          -0.03796412795782089,
          0.09468667209148407,
          -0.05421606823801994,
          -0.006245775148272514,
          -0.033111535012722015,
          0.04378226026892662,
          -0.013837293721735477,
          0.016203293576836586,
          -0.14678660035133362,
          0.04562532156705856,
          -0.04154172167181969,
          -0.05719597637653351,
          0.09057090431451797,
          0.002996220951899886,
          -0.11896153539419174,
          -0.07432404160499573,
          0.11280643194913864,
          0.1627308577299118,
          -0.08976922929286957,
          0.13938333094120026,
          0.11472595483064651,
          0.16032585501670837,
          0.09018006175756454,
          -0.0908273458480835,
          0.1588471531867981,
          0.09812350571155548,
          0.10308697819709778,
          -0.00922420248389244,
          -0.0023383330553770065,
          0.06625034660100937,
          -0.06788310408592224,
          0.0747419223189354,
          -0.14235205948352814,
          0.030825018882751465,
          0.1448066681623459,
          0.025730760768055916,
          0.09223677217960358,
          0.011333530768752098,
          -0.094098299741745,
          0.013450711034238338,
          -0.058988362550735474,
          -0.06166491657495499,
          -0.05103400722146034,
          -0.04707932099699974,
          -0.006946539971977472,
          -0.0921163484454155,
          0.15564823150634766,
          0.08561478555202484,
          -0.11042287945747375,
          -0.07564457505941391,
          0.012446033768355846,
          0.07420255243778229,
          -0.012738818302750587,
          0.01745973527431488,
          0.09827908873558044,
          0.019705846905708313,
          -0.15609563887119293,
          -0.015466227196156979,
          -0.029690280556678772,
          0.009938855655491352,
          -0.048145513981580734,
          0.0024519641883671284,
          0.02184428460896015,
          0.09321215748786926,
          0.011734263971447945,
          0.10805138945579529,
          -0.8637164235115051,
          0.11435666680335999,
          -0.012907265685498714,
          0.010881626978516579,
          0.0416690818965435,
          0.02238927222788334,
          0.05599767714738846,
          -0.022327672690153122,
          -0.05382797122001648,
          0.0014730836264789104,
          -0.01817326992750168,
          0.005849684588611126,
          0.043280791491270065,
          -0.04849805310368538,
          -0.13641147315502167,
          0.0794050544500351,
          0.8930277228355408,
          -0.02484780363738537,
          -0.030648797750473022,
          0.01185745932161808,
          0.01080920547246933,
          0.04297694191336632,
          0.06422190368175507,
          0.05655954033136368,
          -0.026242483407258987,
          0.02934643253684044,
          0.043636538088321686,
          0.04361354187130928,
          0.06083128973841667,
          0.14000843465328217,
          0.15168681740760803,
          -0.07984223961830139,
          0.13509462773799896,
          -0.004773050080984831,
          -0.10732423514127731,
          -0.07368496805429459,
          -0.04580248147249222,
          0.019016660749912262,
          0.08245745301246643,
          -0.07206721603870392,
          0.17834021151065826,
          -0.15650349855422974,
          0.16925399005413055,
          -0.2085258811712265,
          0.05517163127660751,
          0.1001172736287117,
          -0.20337925851345062,
          -0.01708040200173855,
          -0.17996886372566223,
          0.08854535222053528,
          0.10816687345504761,
          -0.1749531626701355,
          0.05968720093369484,
          0.07736038416624069,
          0.10691564530134201,
          0.14821477234363556,
          -0.016336530447006226,
          -0.021934160962700844,
          0.16863122582435608,
          0.1727239042520523,
          0.058068253099918365,
          -0.12952852249145508,
          0.04128667339682579,
          -0.02775752544403076,
          -0.008429990150034428,
          -0.23823188245296478,
          0.06860076636075974,
          0.11622112989425659,
          0.02853069268167019,
          0.02185526303946972,
          0.04943399131298065,
          -0.030956337228417397,
          -0.07126018404960632,
          0.11678905785083771,
          -0.11787498742341995,
          0.08914072811603546,
          0.03599778562784195,
          0.004940578248351812,
          -0.23363693058490753,
          -0.0029469456057995558,
          0.0368945375084877,
          0.15111234784126282,
          0.016372598707675934,
          0.26886123418807983,
          0.2947356402873993,
          -0.09564513713121414,
          0.03470403701066971,
          -0.13103730976581573,
          -5.9083329688292e-05,
          -0.10330412536859512,
          -0.06658359616994858,
          0.06920725852251053,
          0.003180353669449687,
          -0.1642867922782898,
          0.1561971753835678,
          -0.14000502228736877,
          0.09454428404569626,
          0.1404750645160675,
          0.08197344094514847,
          0.04919936880469322,
          -0.18339978158473969,
          -0.07570590823888779,
          -0.2696165442466736,
          -0.21638208627700806,
          -0.06383928656578064,
          0.06440215557813644,
          -0.05696950480341911,
          -0.12645100057125092,
          -0.14130477607250214,
          0.01577373594045639,
          0.03109090030193329,
          0.044115450233221054,
          0.10513956099748611,
          0.0020581090357154608,
          -0.044526342302560806,
          0.022110436111688614,
          -0.197554349899292,
          -0.06826918572187424,
          0.02716761641204357,
          0.22691287100315094,
          0.10561464726924896,
          -0.022448480129241943,
          0.16456998884677887,
          -0.06389864534139633,
          0.08793956786394119,
          -0.3252291977405548,
          -0.017988933250308037,
          -0.09877317398786545,
          -0.02774623967707157,
          -0.022279083728790283,
          -0.060641560703516006,
          -0.1348240226507187,
          0.03901481628417969,
          -0.1797730177640915,
          0.10531460493803024,
          -0.023305783048272133,
          0.21552616357803345,
          0.13863593339920044,
          -0.07553043216466904,
          0.12184025347232819,
          -0.0174559373408556,
          -0.03432527557015419,
          -0.15394863486289978,
          0.08755285292863846,
          0.18610571324825287,
          0.04841146245598793,
          -0.028462061658501625,
          -0.051467373967170715,
          0.008514195680618286,
          0.16401158273220062,
          0.16667786240577698,
          -0.12958842515945435,
          -0.07470788806676865,
          -0.05072135478258133,
          -0.13340310752391815,
          0.05402938649058342,
          -0.1287911981344223,
          0.09988664090633392,
          0.1609198898077011,
          -0.0011635874398052692,
          0.04987354204058647,
          -0.030752187594771385,
          -0.11959785968065262,
          0.0026679164730012417,
          0.09666325151920319,
          0.02106889896094799,
          0.12893325090408325,
          -0.07768576592206955,
          -0.024428237229585648,
          -0.035956013947725296,
          0.017506442964076996,
          -0.217996746301651,
          0.001982973888516426,
          0.19969110190868378,
          -0.15312013030052185,
          0.03074994683265686,
          0.033092331141233444,
          -0.17071335017681122,
          0.07354971766471863,
          0.1342654824256897,
          -0.11216191202402115,
          -0.11435557901859283,
          0.17996200919151306,
          -0.044083960354328156,
          -0.07511189579963684,
          0.15861551463603973,
          0.055153995752334595,
          0.08385802060365677,
          0.17446808516979218,
          0.1277533769607544,
          0.13889077305793762,
          0.0004584423440974206,
          -0.04207368195056915,
          0.05129485949873924,
          0.04186278581619263,
          0.0906980037689209,
          -0.11223185062408447,
          0.10013050585985184,
          0.07285144925117493,
          0.09953704476356506,
          0.07188548892736435,
          -0.07041071355342865,
          -0.08421244472265244,
          -0.037310890853405,
          -0.07626702636480331,
          0.12268280982971191,
          0.112067811191082,
          0.08012835681438446,
          0.21382281184196472,
          0.09914493560791016,
          0.10683854669332504,
          -0.13312368094921112,
          -0.03125440329313278,
          -0.19786329567432404,
          -0.16003835201263428,
          0.0991058349609375,
          -0.1795787662267685,
          0.0010085802059620619,
          -0.1498992145061493,
          -0.04139942675828934,
          0.20672938227653503,
          -0.07279446721076965,
          0.14649862051010132,
          0.13273273408412933,
          -0.038253601640462875,
          0.015621647238731384,
          -0.023165930062532425,
          -0.08502837270498276,
          -0.03153729438781738,
          0.048128642141819,
          0.03519362583756447,
          -0.018992410972714424,
          0.016569895669817924,
          0.08963384479284286,
          0.08057235181331635,
          -0.13171400129795074,
          -0.03758992254734039,
          0.042107950896024704,
          0.06108987331390381,
          0.09137073159217834,
          0.08699218183755875,
          -0.07905256003141403,
          0.017597150057554245,
          -0.09523572772741318,
          -0.011866520158946514,
          0.004812085535377264,
          -0.05537119135260582,
          0.0364607609808445,
          -0.11232011765241623,
          -0.034156009554862976,
          0.07977472245693207,
          -0.15302903950214386,
          -0.025575745850801468,
          -0.019248250871896744,
          0.013951045460999012,
          0.1446802318096161,
          0.1204271987080574,
          -0.1170044094324112,
          -0.03828761726617813,
          -0.10704151540994644,
          0.15879324078559875,
          0.09244727343320847,
          0.07696842402219772,
          0.1293869912624359,
          -0.0605652779340744,
          -0.006990243215113878,
          0.07731285691261292,
          -0.030006473883986473,
          0.0031622315291315317,
          0.17438234388828278,
          -0.0914590135216713,
          0.023694433271884918,
          0.18502433598041534,
          0.10343890637159348,
          0.03245595842599869,
          -0.19032150506973267,
          -0.09528010338544846,
          0.05977153405547142,
          -0.14502379298210144,
          0.07389089465141296,
          0.04229145869612694,
          0.03203170374035835,
          0.10396677255630493,
          0.19805847108364105,
          0.1098547875881195,
          -0.15398749709129333,
          -0.03083818219602108,
          -0.01092186477035284,
          -0.19555729627609253,
          -0.019893134012818336,
          0.04854922369122505,
          0.15446799993515015,
          -0.22802023589611053,
          -0.05186726152896881,
          0.1598321944475174,
          -0.04421151429414749,
          -0.08903596550226212,
          -0.10889261960983276,
          0.15783937275409698,
          0.13324500620365143,
          -0.119850754737854,
          -0.015391925349831581,
          0.1527717113494873,
          -0.10969926416873932,
          0.016322895884513855,
          -0.053689390420913696,
          -0.03187287598848343,
          0.09913356602191925,
          -0.06615037471055984,
          -0.18163585662841797,
          0.09005004912614822,
          -0.06881974637508392,
          0.0010726687032729387,
          0.19661304354667664,
          -0.05198054015636444,
          -0.2446715533733368,
          0.10597451031208038,
          -0.19510048627853394,
          0.1314108818769455,
          -0.041884295642375946,
          0.08348142355680466,
          -0.11805098503828049,
          -0.16591595113277435,
          -0.039833538234233856,
          -0.1388806253671646,
          -0.04501737281680107,
          -0.06560799479484558,
          -0.14162816107273102,
          -0.14000895619392395,
          0.04317967966198921,
          0.04167903587222099,
          -0.03587554767727852,
          0.0020583777222782373,
          -0.05296722799539566,
          -0.09802766144275665,
          -0.07422473281621933,
          0.1091848611831665,
          0.09625758975744247,
          0.08828189224004745,
          -0.030989129096269608,
          0.009304312989115715,
          -0.07970540970563889,
          -0.05364163964986801,
          0.02034866251051426,
          0.21356600522994995,
          0.010667039081454277,
          -0.16181375086307526,
          -0.21869488060474396,
          0.057687126100063324,
          -0.09685667604207993,
          -0.21547096967697144,
          -0.048890139907598495,
          0.124762624502182,
          0.19231124222278595,
          -0.08474018424749374,
          0.23983006179332733,
          0.03486071527004242,
          -0.08082568645477295,
          -0.03533490002155304,
          -0.09894908219575882,
          -0.15739502012729645,
          -0.008804569020867348,
          -0.22493600845336914,
          -0.03193333372473717,
          -0.02420550398528576,
          0.16565348207950592,
          0.17136721312999725,
          -0.0019388715736567974,
          0.07339055091142654,
          -0.06266021728515625,
          -0.013275873847305775,
          0.029185473918914795,
          0.06662473827600479,
          0.11837746202945709,
          0.18856222927570343,
          0.1787058413028717,
          -0.03678625822067261,
          0.033092763274908066,
          -0.1330733448266983,
          -0.1083650290966034,
          -0.028515685349702835,
          -0.04016193374991417,
          0.020574873313307762,
          -0.05104042589664459,
          0.16910462081432343,
          0.005832534749060869,
          -0.13040880858898163,
          -0.08850780874490738,
          0.07164926826953888,
          -0.06259137392044067,
          0.1722908318042755,
          0.1259593963623047,
          -0.015084839425981045,
          0.11481186002492905,
          0.11236050724983215,
          -0.05897464230656624,
          0.02121402509510517,
          -0.1480463743209839,
          0.08149977773427963,
          0.20091331005096436,
          0.054397501051425934,
          0.003922098781913519,
          0.193370521068573,
          -0.20506346225738525,
          0.10957514494657516,
          0.15335878729820251,
          -0.18997398018836975,
          -0.009872125461697578,
          0.2558751702308655,
          0.10389094799757004,
          0.05820837616920471,
          -0.03888372331857681,
          -0.021649178117513657,
          -0.09836658090353012,
          -0.036895547062158585,
          -0.15383128821849823,
          0.09738742560148239,
          -0.015023532323539257,
          -0.01980823278427124,
          -0.07192862778902054,
          -0.05871840938925743,
          0.10154243558645248,
          -0.1389196366071701,
          0.24687011539936066,
          -0.0014368280535563827,
          0.022515611723065376,
          -0.019490713253617287,
          -0.17656202614307404,
          0.19299091398715973,
          -0.21662446856498718,
          0.10979505628347397,
          -0.006711652036756277,
          0.07174447178840637,
          0.027265818789601326,
          -0.005424911621958017,
          -0.2062436193227768,
          -0.06965189427137375,
          0.029451884329319,
          0.060382287949323654,
          -0.14174826443195343,
          0.07228793203830719,
          0.1829957216978073,
          0.001623279880732298,
          -0.13941922783851624,
          -0.07026086002588272,
          0.1426461637020111,
          0.0878165066242218,
          0.0288038682192564,
          0.03908630087971687,
          -0.053122442215681076,
          -0.062185704708099365,
          0.1206444576382637,
          -0.009729634039103985,
          0.00974001083523035,
          0.07479073107242584,
          -0.09778371453285217,
          -0.06388259679079056,
          0.05508420243859291,
          -0.016291102394461632,
          0.048938676714897156,
          0.08297357708215714,
          0.12012149393558502,
          0.0858432948589325,
          -0.1369379311800003,
          0.04593358561396599,
          0.13613736629486084,
          0.1809135228395462,
          0.059462256729602814,
          0.017595581710338593,
          -0.26066917181015015,
          0.01625503972172737,
          -0.1177263855934143,
          -0.049953848123550415,
          0.09898226708173752,
          0.10512369871139526,
          0.11562176048755646,
          -0.048762280493974686,
          -0.10921327769756317,
          0.001630891696549952,
          0.12411621958017349,
          0.03967100754380226,
          -0.006337261293083429,
          -0.0199449323117733,
          0.02135685831308365,
          0.14474527537822723,
          -0.11562518775463104,
          0.17411112785339355,
          -0.03673505783081055,
          0.17061492800712585,
          0.13597628474235535,
          0.03409731015563011,
          -0.06769990175962448,
          -0.04235565662384033,
          0.02526027336716652,
          -0.06129997596144676,
          0.09482783079147339,
          -0.014320875518023968,
          -0.13228510320186615,
          0.1744713932275772,
          -0.19512812793254852,
          -0.13202740252017975,
          0.13984374701976776,
          0.07033902406692505,
          0.08022547513246536,
          -0.2875213623046875,
          0.018864979967474937,
          0.10910021513700485,
          -0.26945436000823975,
          -0.11071603745222092,
          -0.05412595719099045,
          -0.10527230054140091,
          0.13474582135677338,
          0.15266506373882294,
          -0.1263330578804016,
          0.22245849668979645,
          0.16347701847553253,
          -0.06999395787715912,
          -0.02325851283967495,
          -0.16417866945266724,
          0.08506103605031967,
          -0.04254530370235443,
          -0.10491964966058731,
          0.12466050684452057,
          -0.008462711237370968,
          -0.054468490183353424,
          0.16461123526096344,
          -0.08863618969917297,
          -0.008889496326446533,
          0.04229980334639549,
          -0.1391131430864334,
          0.10450028628110886,
          0.05341139808297157,
          -0.054990995675325394,
          -0.03227905556559563,
          0.14104998111724854,
          0.10862014442682266,
          0.07090149074792862,
          0.1906319260597229,
          -0.03474023938179016,
          0.23826266825199127,
          0.2519119083881378,
          0.12205664068460464,
          0.0828690230846405,
          0.1767173558473587,
          -0.05035151168704033,
          0.15884162485599518,
          -0.016832634806632996,
          0.042855266481637955,
          -0.08705907315015793,
          0.10459224879741669,
          -0.17542508244514465,
          -0.1305542141199112,
          0.09951213002204895,
          -0.16464895009994507,
          -0.26193657517433167,
          0.01319164875894785,
          -0.10939251631498337,
          -0.17892462015151978,
          0.177712544798851,
          -0.12450309842824936,
          -0.25619742274284363,
          -0.02857198379933834,
          -0.08892121911048889,
          0.001220185891725123,
          0.06979743391275406,
          -0.05382677912712097,
          -0.10107377171516418,
          0.04140293598175049,
          0.1140865832567215,
          0.03203576058149338,
          -0.023643892258405685,
          0.07537480443716049,
          0.04177788645029068,
          0.14949391782283783,
          -0.20586681365966797,
          0.03321200981736183,
          -0.01717747002840042,
          0.20967502892017365,
          -0.04996781423687935,
          -0.17058157920837402,
          0.11909762769937515,
          -0.02944612316787243,
          0.1330583244562149,
          -0.21013829112052917,
          -0.09325452893972397,
          -0.028542444109916687,
          -0.05868960916996002,
          -0.13616639375686646,
          -0.03312427178025246,
          -0.010463704355061054,
          0.09621725231409073,
          0.11702299863100052,
          0.13768945634365082,
          0.18783383071422577,
          0.12462835013866425,
          -0.07778819650411606,
          -0.052432481199502945,
          -0.13078486919403076,
          0.08156565576791763,
          0.16264158487319946,
          0.06792733818292618,
          0.12355832755565643,
          0.08446909487247467,
          0.051348716020584106,
          0.05021057650446892,
          0.17151875793933868,
          0.1860082447528839,
          0.003846455831080675,
          0.019981609657406807,
          -0.13611195981502533,
          0.04721352085471153,
          0.07535199075937271,
          -0.030493421480059624,
          -0.04749636724591255,
          0.030052321031689644,
          0.08413403481245041,
          -0.07018435001373291,
          -0.06462334841489792,
          -0.020879879593849182,
          0.13779854774475098,
          -0.12647365033626556,
          -0.0824427455663681,
          0.1195438802242279,
          0.0897429883480072,
          0.05001738667488098,
          -0.015513448044657707,
          -0.11335591226816177,
          -0.08742400258779526,
          -0.12418340146541595,
          0.06348182260990143,
          0.02941550873219967,
          -0.10896959900856018,
          -0.034693438559770584,
          0.004553206730633974,
          0.09352552890777588,
          -0.06553038209676743,
          -0.0676245465874672,
          0.2205444574356079,
          -0.09073647856712341,
          -0.09071407467126846,
          0.14285646378993988,
          -0.0025053024291992188,
          -0.07557998597621918,
          0.04316212609410286,
          -0.09090925008058548,
          0.02128315530717373,
          -0.005316113121807575,
          0.06109878048300743,
          -0.13538245856761932,
          -0.040049441158771515,
          -0.17959102988243103,
          -0.2112450897693634,
          -0.0798049196600914,
          -0.15560488402843475,
          -0.09524839371442795,
          -0.09404321759939194,
          -0.10186131298542023,
          -0.16871494054794312,
          -0.12257283180952072,
          -0.061997707933187485,
          -0.06949511170387268,
          -0.023814357817173004,
          -0.028856517747044563,
          -0.11271696537733078,
          0.00195633084513247,
          0.1650778204202652,
          0.06148146465420723,
          0.26100948452949524,
          0.16336104273796082,
          -0.20534463226795197,
          -0.017118167132139206,
          0.09924216568470001,
          -0.050779905170202255,
          0.21689075231552124,
          0.07319620251655579,
          -0.015057948417961597,
          0.1031065583229065,
          0.14877142012119293,
          0.104893259704113,
          -0.035371679812669754,
          0.06613815575838089,
          0.2107563316822052,
          0.2018861472606659,
          0.0092641431838274,
          0.012201421894133091,
          -0.08694633096456528,
          0.07268185168504715,
          -0.0567036047577858,
          0.00791249331086874,
          -0.05629262700676918,
          0.08341298997402191,
          0.015629295259714127,
          -0.13301606476306915,
          0.0961429700255394,
          0.006423990707844496,
          -0.1406669318675995,
          0.18188679218292236,
          0.05800359323620796,
          0.06846635788679123,
          0.06266681104898453,
          0.026295598596334457,
          0.001216201577335596,
          -0.015731267631053925,
          0.0428699292242527,
          -0.07631903141736984,
          0.16251590847969055,
          -0.14284206926822662,
          -0.04000065103173256,
          0.037328485399484634,
          0.03015746921300888,
          -0.10440632700920105,
          -0.14097081124782562,
          -0.0023310177493840456,
          0.08651123940944672,
          0.09892846643924713,
          0.12583541870117188,
          0.07471302151679993,
          0.14778824150562286,
          0.16340981423854828,
          0.1435604691505432,
          0.40253132581710815,
          0.016825566068291664,
          -0.005259976256638765,
          0.06264477223157883,
          -0.018261127173900604,
          0.14289887249469757,
          0.05388526991009712,
          0.10527011752128601,
          0.015421291813254356,
          -0.0373903326690197,
          -0.1428249478340149,
          0.11112907528877258,
          -0.09361271560192108,
          -0.17759662866592407,
          0.12426025420427322,
          -0.102281354367733,
          -0.06808296591043472,
          -0.025373367592692375,
          -0.024134226143360138,
          -0.09075433760881424,
          -0.14414289593696594,
          0.04946928471326828,
          0.26092010736465454,
          -0.029076488688588142,
          0.11792050302028656,
          -0.18650850653648376,
          -0.09297854453325272,
          -0.05953359603881836,
          0.11513219773769379,
          -0.025299087166786194,
          0.03577922284603119,
          0.016580509021878242,
          0.09310782700777054,
          0.03186272457242012,
          0.08038511127233505,
          0.022149518132209778,
          0.20124155282974243,
          0.1717083752155304,
          0.1678808182477951,
          -0.015186245553195477,
          0.060682326555252075,
          -0.02264435775578022,
          -0.055343661457300186,
          -0.12918974459171295,
          -0.07592467218637466,
          0.12986312806606293,
          -0.038975611329078674,
          0.10750184953212738,
          -0.025766288861632347,
          -0.030635066330432892,
          -0.0986190065741539,
          0.1119980588555336,
          -0.1721704602241516,
          0.11473648250102997,
          0.039740025997161865,
          0.020018257200717926,
          0.09030608087778091,
          -0.035768747329711914,
          0.1651652306318283,
          0.046513691544532776,
          0.009360283613204956,
          -0.009274006821215153,
          -0.073451466858387,
          0.08295592665672302,
          -0.024872440844774246,
          0.0517728254199028,
          0.12078358232975006,
          -0.20485015213489532,
          0.021198801696300507,
          0.0568176731467247,
          0.0794825628399849,
          -0.05408823862671852,
          0.17161498963832855,
          -0.062434885650873184,
          0.12962192296981812,
          -0.10771837085485458,
          -0.10111378133296967,
          0.06641585379838943,
          -0.0030153202824294567,
          -0.012300756759941578,
          -0.09697667509317398,
          0.026502106338739395,
          0.18122948706150055,
          0.14531463384628296,
          -0.1225874200463295,
          -0.15637114644050598,
          -0.10366126894950867,
          -0.16644933819770813,
          0.07523397356271744,
          0.1444530487060547,
          -0.0315532386302948,
          -0.18274492025375366,
          -0.03648251295089722,
          0.05223189294338226,
          -0.03259073942899704,
          0.03297044336795807,
          0.16955244541168213,
          -0.08804901689291,
          0.04177376255393028,
          -0.19006136059761047,
          0.0480390340089798,
          0.05981592461466789,
          0.25225916504859924,
          -0.0630258321762085,
          0.09165531396865845,
          -0.2836233675479889,
          -0.08037237077951431,
          0.022050844505429268,
          0.15666796267032623,
          -0.12644191086292267,
          0.11262166500091553,
          -0.05639321357011795,
          0.13122344017028809,
          0.012045423500239849,
          -0.03460681810975075,
          0.03225615620613098,
          0.03931103274226189,
          -0.02109256386756897,
          0.0458342619240284,
          -0.07551253587007523,
          -0.09923505038022995,
          -0.16569004952907562,
          0.027471262961626053,
          0.04818996787071228,
          -0.03949914500117302,
          0.03153889626264572,
          0.1403757780790329,
          0.2488609403371811,
          -0.09595053642988205,
          0.18779845535755157,
          -0.0017282951157540083,
          0.043374910950660706,
          0.03337566927075386,
          -0.19974201917648315,
          -0.14571014046669006,
          -0.07537785917520523,
          -0.08847208321094513,
          0.054808687418699265,
          0.03886488452553749,
          0.05863261595368385,
          0.07105375081300735,
          0.07011592388153076,
          -0.08180113136768341,
          -0.04051541909575462,
          -0.1751689910888672,
          -0.1301642507314682,
          -0.08887804299592972,
          0.1327756941318512,
          -0.04955771565437317,
          -0.14789298176765442,
          -0.12478295713663101,
          0.07559534162282944,
          0.15731702744960785,
          -0.10236314684152603,
          -0.07757637649774551,
          0.017123473808169365,
          0.2790399193763733,
          -0.0256637092679739,
          0.005161382257938385,
          -0.31128206849098206,
          0.08542713522911072,
          0.04141923785209656,
          0.275337278842926,
          -0.015111947432160378,
          0.029574021697044373,
          -0.39456403255462646,
          -0.08512260019779205,
          -0.06986462324857712,
          0.050570301711559296,
          -0.09924285113811493,
          -0.054877206683158875,
          0.27338117361068726,
          -0.030822228640317917,
          0.10638157278299332,
          -0.17845526337623596,
          0.12386774271726608,
          -0.015807263553142548,
          0.2643154561519623,
          -0.04085254296660423,
          0.10747147351503372,
          -0.045959629118442535,
          0.08221614360809326,
          -0.1576732099056244,
          -0.021895110607147217,
          0.11879942566156387,
          0.13782720267772675,
          -0.12703336775302887,
          -0.008341326378285885,
          -0.04795163869857788,
          0.07342555373907089,
          -0.09562882035970688,
          -0.030487854033708572,
          0.0037730135954916477,
          -0.02276907116174698,
          -0.20548994839191437,
          0.12563754618167877,
          -0.10321471095085144,
          -0.2944011390209198,
          0.09036155045032501,
          0.08512850105762482,
          -0.21418744325637817,
          0.02957007847726345,
          -0.06116320565342903,
          -0.28398048877716064,
          0.03240072354674339,
          0.06947813928127289,
          0.042225055396556854,
          -0.004538597073405981,
          0.02467167004942894,
          -0.15788955986499786,
          0.10395370423793793,
          0.029519259929656982,
          -0.22793817520141602,
          0.021283425390720367,
          -0.015209183096885681,
          -0.2075417935848236,
          0.050460342317819595,
          -0.1123327910900116,
          -0.22804221510887146,
          0.027551475912332535,
          -0.09347222000360489,
          -0.1229277029633522,
          0.048536427319049835,
          -0.08806794136762619,
          0.08984924852848053,
          -0.01033550314605236,
          0.1293037384748459,
          -0.05552830547094345,
          -0.004020585212856531,
          0.12753792107105255,
          0.0976782739162445,
          -0.03342961147427559,
          0.22710274159908295,
          -0.16522584855556488,
          0.19551362097263336,
          0.09921816736459732,
          -0.1311422735452652,
          0.13880984485149384,
          0.18894004821777344,
          -0.16354341804981232,
          0.16076695919036865,
          0.057776957750320435,
          -0.1617291271686554,
          0.14539554715156555,
          -0.053213950246572495,
          0.1342843472957611,
          0.07356291264295578,
          0.0689706802368164,
          0.07056114077568054,
          0.18567031621932983,
          0.09123382717370987,
          0.08366318792104721,
          0.20427754521369934,
          0.12842099368572235,
          0.06367921829223633,
          0.20941519737243652,
          0.11945495009422302,
          0.04034388065338135,
          0.18947643041610718,
          0.0621657557785511,
          -0.0772661343216896,
          0.10482626408338547,
          0.10250541567802429,
          0.12297028303146362,
          -0.10989823937416077,
          -0.15126146376132965,
          0.09168592840433121,
          0.23446252942085266,
          -0.8551179766654968,
          0.21665792167186737,
          -0.011854294687509537,
          -0.006343517452478409,
          -0.0006225001998245716,
          0.04144018888473511,
          -0.037022095173597336,
          0.05155184119939804,
          0.009763434529304504,
          0.01554078422486782,
          0.02614227868616581,
          0.1115228682756424,
          0.024246878921985626,
          0.08685809373855591,
          -0.3128431439399719,
          0.11707679182291031,
          0.8862256407737732,
          0.008308803662657738,
          -0.009884833358228207,
          -0.002704042475670576,
          -0.08123547583818436,
          -0.010723629035055637,
          -0.07459273934364319,
          -0.02794969640672207,
          -0.005396690685302019,
          0.00924911629408598,
          -0.1554567962884903,
          0.03230630233883858,
          -0.03628911077976227,
          0.08253124356269836,
          -0.061561278998851776,
          -0.03657812997698784,
          0.08529111742973328,
          0.048904504626989365,
          -0.051533717662096024,
          -0.07362043857574463,
          -0.04610670730471611,
          0.011996968649327755,
          -0.056612975895404816,
          0.062319930642843246,
          0.04188006743788719,
          -0.17141319811344147,
          -0.07139021903276443,
          -0.31117621064186096,
          0.11199415475130081,
          -0.06115315854549408,
          0.10220597684383392,
          -0.14130336046218872,
          -0.19711540639400482,
          -0.33394762873649597,
          0.05663640424609184,
          -0.16985130310058594,
          -0.07175417244434357,
          -0.04224803298711777,
          -0.08761633187532425,
          0.14664244651794434,
          -0.34106096625328064,
          -0.005117460619658232,
          -0.01638384535908699,
          0.1417766809463501,
          0.036398421972990036,
          0.13641522824764252,
          -0.22949634492397308,
          0.03869707137346268,
          -0.008516793139278889,
          0.17294710874557495,
          -0.01564933732151985,
          0.13148432970046997,
          0.012448696419596672,
          -0.0796394869685173,
          0.024407273158431053,
          -0.09053146094083786,
          -0.016528945416212082,
          0.04279700294137001,
          -0.06618249416351318,
          0.003916660789400339,
          -0.060227833688259125,
          -0.02832355536520481,
          -0.20530295372009277,
          0.13390904664993286,
          -0.16953504085540771,
          -0.18545997142791748,
          0.15939228236675262,
          -0.010536125861108303,
          0.23479418456554413,
          -0.115682452917099,
          0.07730427384376526,
          0.11431717872619629,
          -0.11760467290878296,
          0.07769704610109329,
          0.012658988125622272,
          0.005138521548360586,
          -0.07255711406469345,
          -0.041386593133211136,
          -0.07715214043855667,
          -0.04684046283364296,
          -0.09526508301496506,
          0.08752724528312683,
          -0.08952044695615768,
          0.016032753512263298,
          -0.08975641429424286,
          0.10626133531332016,
          0.20006398856639862,
          0.06254331022500992,
          0.12326300889253616,
          -0.04317556321620941,
          -0.048424310982227325,
          0.11577700078487396,
          0.11191169917583466,
          -0.08605100214481354,
          -0.11909891664981842,
          0.11836905032396317,
          -0.055113233625888824,
          -0.019380591809749603,
          0.0003230148577131331,
          0.0020919095259159803,
          -0.18226198852062225,
          -0.24489179253578186,
          0.13070447742938995,
          0.1441301703453064,
          -0.09013666212558746,
          -0.15342877805233002,
          -0.05772300809621811,
          0.11914513260126114,
          0.271655410528183,
          0.19457077980041504,
          0.2044592946767807,
          -0.009371386840939522,
          0.014605454169213772,
          -0.015045156702399254,
          0.008437491953372955,
          0.06300907582044601,
          0.020123442634940147,
          -0.06321502476930618,
          0.12010395526885986,
          -0.15605171024799347,
          0.09681479632854462,
          -0.12243077158927917,
          0.1304650455713272,
          -0.059044547379016876,
          -0.019607480615377426,
          -0.09740231186151505,
          0.04037771373987198,
          -0.03137137368321419,
          -0.060183022171258926,
          -0.05576134845614433,
          0.1187339574098587,
          0.014819876290857792,
          0.1025148555636406,
          0.14982393383979797,
          -0.14838272333145142,
          0.042935606092214584,
          0.03064899519085884,
          -0.0046219234354794025,
          -0.0681024119257927,
          -0.2221965491771698,
          0.20234860479831696,
          -0.15174774825572968,
          -0.11029026657342911,
          0.08896426111459732,
          -0.1463349163532257,
          -0.23418781161308289,
          0.16902172565460205,
          -0.11647623777389526,
          -0.07581500709056854,
          0.1394060105085373,
          -0.023421209305524826,
          0.040431950241327286,
          0.022624613717198372,
          -0.12321479618549347,
          0.15213961899280548,
          -0.03440823778510094,
          -0.11869000643491745,
          0.19363321363925934,
          0.13535305857658386,
          -0.03562388941645622,
          0.12789835035800934,
          -0.014568100683391094,
          -0.17780789732933044,
          0.19388386607170105,
          0.1583416908979416,
          0.09132378548383713,
          -0.0941363200545311,
          -0.049267131835222244,
          -0.131226047873497,
          -0.07574176043272018,
          -0.13241025805473328,
          -0.0647059977054596,
          0.103428415954113,
          0.013623064383864403,
          -0.008685409091413021,
          -0.012885951437056065,
          -0.006879046093672514,
          -0.12084469944238663,
          0.18506841361522675,
          -0.169125497341156,
          0.10246676951646805,
          -0.2480548620223999,
          -0.1842268407344818,
          -0.2140878438949585,
          0.26696494221687317,
          -0.058640006929636,
          0.1119750365614891,
          -0.008117614313960075,
          0.0007320320582948625,
          0.01669861562550068,
          -0.01634502038359642,
          0.03891424462199211,
          0.07692746073007584,
          -0.039413537830114365,
          0.021036794409155846,
          0.14274489879608154,
          0.1199164018034935,
          -0.09206376224756241,
          0.17217235267162323,
          0.04128874093294144,
          -0.12225863337516785,
          0.003682520007714629,
          0.1361694484949112,
          -0.04884381592273712,
          0.033725183457136154,
          0.0023645174223929644,
          0.05956336483359337,
          -0.08197825402021408,
          -0.00641753152012825,
          -0.10869333148002625,
          0.04937095567584038,
          -0.06317605078220367,
          0.08838021010160446,
          -0.03949873521924019,
          -0.12764722108840942,
          0.006930385250598192,
          0.1787051111459732,
          0.12553803622722626,
          0.007639809977263212,
          -0.14084045588970184,
          0.12836824357509613,
          -0.1020180806517601,
          -0.16478149592876434,
          -0.16836772859096527,
          0.06812842190265656,
          0.16317051649093628,
          0.09377455711364746,
          0.0010307894553989172,
          0.14507271349430084,
          -0.06295658648014069,
          0.1780170202255249,
          -0.07244621962308884,
          0.023193739354610443,
          -0.1969047337770462,
          0.08085623383522034,
          0.037131864577531815,
          -0.17962367832660675,
          -0.0413249246776104,
          0.004198876209557056,
          0.14803630113601685,
          0.024725018069148064,
          -0.06652089208364487,
          -0.10545662045478821,
          -0.05526455491781235,
          -0.017232133075594902,
          -0.06714751571416855,
          0.10867146402597427,
          0.13018935918807983,
          0.012817824259400368,
          0.015321880578994751,
          -0.06655046343803406,
          -0.03157820925116539,
          -0.3040882647037506,
          -0.06751717627048492,
          0.15274886786937714,
          -0.011114801280200481,
          0.008924870751798153,
          -0.23105625808238983,
          -0.21384435892105103,
          -0.09144996106624603,
          0.23717495799064636,
          0.05077093467116356,
          0.11761244386434555,
          -0.2318803369998932,
          0.005434224847704172,
          0.01452469639480114,
          -0.08337591588497162,
          0.1481948047876358,
          0.19586214423179626,
          -0.06132611259818077,
          -0.1667119413614273,
          -0.2905719578266144,
          -0.02327926643192768,
          0.008159187622368336,
          0.18748721480369568,
          -0.15490193665027618,
          -0.20523330569267273,
          -0.2034527212381363,
          0.09205979108810425,
          0.13026513159275055,
          0.004639877937734127,
          0.14255291223526,
          -0.027234230190515518,
          -0.09488686174154282,
          -0.046844929456710815,
          0.13277249038219452,
          0.14207829535007477,
          0.018768852576613426,
          -0.009027175605297089,
          -0.02032884769141674,
          0.12841953337192535,
          0.02812138944864273,
          -0.06385217607021332,
          -0.01699785329401493,
          -0.06082380190491676,
          0.1388404369354248,
          -0.07089874148368835,
          -0.06359954923391342,
          0.02376493439078331,
          -0.032575368881225586,
          -0.03238443285226822,
          0.1812583953142166,
          4.370618626126088e-06,
          0.021117085590958595,
          -0.01790885254740715,
          0.04795030131936073,
          -0.04350505396723747,
          -0.11036559194326401,
          0.0075077456422150135,
          0.13508713245391846,
          -0.11171816289424896,
          -0.043905433267354965,
          -0.03808022290468216,
          -0.06877607852220535,
          0.06294959783554077,
          0.10468442738056183,
          -0.14836718142032623,
          -0.04312148317694664,
          -0.09521990269422531,
          0.1047668606042862,
          0.0660298764705658,
          0.05780699849128723,
          -0.03336568921804428,
          0.02207755669951439,
          0.015759531408548355,
          0.0001641640265006572,
          -0.03384105861186981,
          0.1705045849084854,
          0.10920823365449905,
          -0.06582654267549515,
          -0.13893353939056396,
          0.19300106167793274,
          -0.08620189875364304,
          -0.18012432754039764,
          0.10234702378511429,
          0.0331561416387558,
          -0.17763330042362213,
          0.18639999628067017,
          0.0013905367814004421,
          -0.16876517236232758,
          -0.15430022776126862,
          -0.1140584796667099,
          -0.08215557038784027,
          -0.10528440028429031,
          -0.2146846204996109,
          -0.045644067227840424,
          -0.03714786097407341,
          -0.14679139852523804,
          -0.02731574885547161,
          -0.05342564359307289,
          -0.16715587675571442,
          0.09217488765716553,
          -0.029904626309871674,
          -0.13806141912937164,
          0.07568982243537903,
          0.16404913365840912,
          -0.0031192705500870943,
          -0.0018661734648048878,
          -0.12592951953411102,
          -0.11627861857414246,
          -0.13151119649410248,
          0.10352953523397446,
          0.09283198416233063,
          -0.029734190553426743,
          -0.009433492086827755,
          0.011403167620301247,
          0.19630646705627441,
          -0.0020182349253445864,
          -0.03565886989235878,
          0.05213763937354088,
          -0.07152858376502991,
          0.23596873879432678,
          -0.05984177067875862,
          0.024915000423789024,
          -0.04128028452396393,
          0.05723990872502327,
          0.10070709139108658,
          -0.03943609073758125,
          0.01010938547551632,
          -0.030843621119856834,
          -0.0013536801561713219,
          -0.019146380946040154,
          -0.19839589297771454,
          0.025677235797047615,
          0.0946180671453476,
          0.029721977189183235,
          -0.01936693675816059,
          -0.009823554195463657,
          0.2874545454978943,
          -0.0528000183403492,
          -0.35870739817619324,
          -0.006658996921032667,
          -0.025329945608973503,
          0.12707339227199554,
          0.1191580519080162,
          -0.050420209765434265,
          0.11715379357337952,
          0.161451518535614,
          -0.010143142193555832,
          0.13414247334003448,
          -0.04689488559961319,
          -0.03880418837070465,
          0.00890530925244093,
          -0.09269149601459503,
          -0.18758240342140198,
          0.06379979103803635,
          -0.15033644437789917,
          -0.0707196593284607,
          -0.0659085214138031,
          0.09748300909996033,
          0.17507201433181763,
          0.0478605218231678,
          0.047014061361551285,
          0.3061637580394745,
          0.04408258944749832,
          0.06782666593790054,
          0.1116589829325676,
          0.030222972854971886,
          0.04016091674566269,
          -0.12105691432952881,
          -0.12732860445976257,
          0.04669278860092163,
          -0.186588317155838,
          0.16837619245052338,
          -0.167286217212677,
          0.19644713401794434,
          0.2727546989917755,
          0.11509330570697784,
          -0.07486654072999954,
          -0.1880144625902176,
          0.14404618740081787,
          0.006351920310407877,
          0.1385824829339981,
          0.1707453578710556,
          0.15576891601085663,
          -0.1278150975704193,
          0.1227516308426857,
          0.12322033196687698,
          -0.009267131797969341,
          -0.06139042600989342,
          -0.03695273399353027,
          0.0032232538796961308,
          0.0857093557715416,
          -0.14056289196014404,
          0.15349525213241577,
          -0.07739243656396866,
          0.11340760439634323,
          0.012175086885690689,
          0.003184870583936572,
          0.17040681838989258,
          0.20131203532218933,
          -0.0956069827079773,
          -0.02816358581185341,
          -0.046120285987854004,
          0.038163311779499054,
          -0.0529191754758358,
          -0.01545307133346796,
          0.15280939638614655,
          0.02818032167851925,
          0.03594517707824707,
          -0.2650584578514099,
          -0.018738698214292526,
          0.02310895174741745,
          -0.013539391569793224,
          0.16640621423721313,
          0.09672632068395615,
          -0.1825527846813202,
          -0.14866651594638824,
          0.14300769567489624,
          0.18584810197353363,
          -0.01976536214351654,
          -0.03934871405363083,
          0.185338094830513,
          0.03344893455505371,
          0.09538999944925308,
          0.10034004598855972,
          0.04041898995637894,
          -0.04801592603325844,
          -0.02438926324248314,
          0.018380099907517433,
          0.04932894557714462,
          0.01820312812924385,
          0.10737497359514236,
          -0.0033958766143769026,
          -0.10490167886018753,
          0.05877920240163803,
          0.06140238046646118,
          0.008943849243223667,
          0.1542026400566101,
          -0.0119713693857193,
          -0.08965866267681122,
          0.10829818248748779,
          0.015913575887680054,
          -0.0542449988424778,
          -0.026334524154663086,
          -0.04815452918410301,
          -0.0514720156788826,
          0.019512303173542023,
          0.063439279794693,
          0.04266466572880745,
          -0.1356198787689209,
          -0.17062141001224518,
          -0.12605591118335724,
          -0.061730679124593735,
          0.012219306081533432,
          0.0999264121055603,
          0.026620283722877502,
          -0.09257853031158447,
          0.029909366741776466,
          0.13730251789093018,
          0.01701599359512329,
          0.06540093570947647,
          0.15997585654258728,
          -0.1082521304488182,
          -0.1134348213672638,
          -0.0662752017378807,
          -0.07007085531949997,
          -0.06982892006635666,
          0.13392503559589386,
          0.07799504697322845,
          0.14161907136440277,
          0.08327790349721909,
          -0.028683485463261604,
          -0.09973501414060593,
          -0.0419221892952919,
          0.02688661962747574,
          -0.0875643789768219,
          -0.07055176794528961,
          -0.031140683218836784,
          0.058407895267009735,
          0.09921495616436005,
          -0.02312028408050537,
          -0.049566108733415604,
          0.05281640961766243,
          0.08775685727596283,
          0.12265288084745407,
          0.10491735488176346,
          -0.16900946199893951,
          0.06735998392105103,
          -0.18717864155769348,
          -0.01832224242389202,
          -0.046827979385852814,
          -0.04138331860303879,
          0.16094207763671875,
          -0.09693693369626999
        ],
        "bias": [
          0.11775938421487808,
          0.0343911312520504,
          0.00419299490749836,
          0.036525625735521317,
          -0.04876921325922012,
          0.06676266342401505,
          0.07626046240329742,
          -0.056513506919145584,
          -0.01556152943521738,
          -0.1344180554151535,
          -0.03556305542588234,
          0.034409429877996445,
          0.23506620526313782,
          0.03584858402609825,
          0.019950786605477333,
          0.05574532598257065,
          0.18385246396064758,
          -0.04690471664071083,
          -0.06398465484380722,
          -0.003630748251453042,
          0.04039933532476425,
          -0.020727748051285744,
          0.05223185196518898,
          -0.015896521508693695,
          -0.044730328023433685,
          -0.10076289623975754,
          0.06135709956288338,
          0.14636382460594177,
          -0.03126777708530426,
          0.03796447440981865,
          -0.07205017656087875,
          0.01415271032601595,
          0.02681620605289936,
          0.17298007011413574,
          0.042042531073093414,
          -0.04166947305202484,
          -0.14652323722839355,
          -0.08007382601499557,
          0.02026073820888996,
          0.11151669174432755,
          0.02318774349987507,
          -0.0424424447119236,
          0.011918887495994568,
          0.11107654124498367,
          -0.031262945383787155,
          0.02515638992190361,
          0.090835340321064,
          -0.04221184179186821,
          0.0791163221001625,
          -0.08478032052516937,
          0.047989409416913986,
          0.01537708006799221,
          -0.04909990355372429,
          -0.01515119057148695,
          -0.10888860374689102,
          0.05710334703326225,
          0.038985107094049454,
          0.014045310206711292,
          -0.06473991274833679,
          -0.04614349827170372,
          -0.10318281501531601,
          0.0841732770204544,
          -0.014128255657851696,
          0.049216531217098236
        ]
      },
      {
        "in_features": 64,
        "out_features": 64,
        "weights": [
          -0.04961420223116875,
          0.05711544677615166,
          -1.2562505006790161,
          -0.1274585872888565,
          -0.0105735519900918,
          -0.12233226746320724,
          0.1458541303873062,
          -0.32453131675720215,
          0.012001718394458294,
          -0.0015226103132590652,
          -0.07401251047849655,
          0.02561276964843273,
          -0.00013321357255335897,
          0.007151457481086254,
          -0.1445167362689972,
          0.023829368874430656,
          0.04331132397055626,
          0.006001956760883331,
          0.045585062354803085,
          0.05529357120394707,
          0.015167121775448322,
          0.07430799305438995,
          0.0135410251095891,
          -0.005341989919543266,
          0.03225339576601982,
          -0.01927962899208069,
          -0.4168480336666107,
          -0.030572334304451942,
          -0.06866960972547531,
          -0.0661098062992096,
          0.0902162492275238,
          -0.25985968112945557,
          -0.002529493300244212,
          -0.041259750723838806,
          -0.009836236014962196,
          0.1267479658126831,
          0.025217104703187943,
          0.17341837286949158,
          0.0068390341475605965,
          -0.12229198962450027,
          -0.2598094940185547,
          -0.02159884013235569,
          -0.1672447770833969,
          -0.035636674612760544,
          0.04219498857855797,
          0.016420630738139153,
          -0.1651257425546646,
          0.2272539585828781,
          0.08719855546951294,
          0.027475517243146896,
          0.149417445063591,
          0.06943771988153458,
          -0.22432966530323029,
          -0.045301612466573715,
          0.10180449485778809,
          -0.6222027540206909,
          -0.26668986678123474,
          0.028734464198350906,
          0.09456096589565277,
          0.0578790083527565,
          -0.00742927985265851,
          0.17785438895225525,
          -0.012643195688724518,
          -0.05054374411702156,
          0.05525222793221474,
          0.013429837301373482,
          -0.04496554657816887,
          -0.02710096910595894,
          0.0465487465262413,
          0.013531327247619629,
          -0.00959762278944254,
          0.09189431369304657,
          0.0009251313749700785,
          0.13746434450149536,
          0.06550955772399902,
          -0.0666075199842453,
          0.0004088286077603698,
          0.010855792090296745,
          0.06310699135065079,
          0.049708083271980286,
          0.07489164918661118,
          -0.006557154934853315,
          0.228385329246521,
          0.1298036128282547,
          -0.07870657742023468,
          -0.04705829918384552,
          -0.051619719713926315,
          -0.5360814929008484,
          0.1657244861125946,
          0.014630883000791073,
          0.02724512480199337,
          0.05346561223268509,
          -0.2037285566329956,
          -0.014907165430486202,
          -0.03740551322698593,
          0.0066509791649878025,
          0.07983894646167755,
          0.011590396985411644,
          0.022383656352758408,
          0.09822456538677216,
          -0.152736634016037,
          0.005825812462717295,
          0.05604652315378189,
          0.04894061014056206,
          0.044624488800764084,
          -0.051040299236774445,
          -0.0754079818725586,
          -0.0024768817238509655,
          -0.02866339311003685,
          0.06855051964521408,
          -0.0066804285161197186,
          0.01927526481449604,
          -0.012104828841984272,
          0.47304484248161316,
          -0.07937978208065033,
          0.02241838164627552,
          0.028196241706609726,
          -0.15009036660194397,
          -0.2425108402967453,
          0.07628800719976425,
          -0.02327745594084263,
          0.02102261781692505,
          0.028294766321778297,
          -0.06667415797710419,
          0.1279284507036209,
          0.05518805980682373,
          -0.0997290164232254,
          0.018184326589107513,
          0.01639411225914955,
          -0.014814441092312336,
          -0.1170184388756752,
          0.12513265013694763,
          -0.011097580194473267,
          -0.05296768993139267,
          0.11615905910730362,
          0.1739959865808487,
          -0.17653831839561462,
          -0.08173789829015732,
          0.058506034314632416,
          -0.03914619982242584,
          -0.01574002020061016,
          0.216887429356575,
          0.03348555788397789,
          0.04366716742515564,
          -0.012570480816066265,
          -0.07901787012815475,
          0.07297196984291077,
          0.27799057960510254,
          -0.06740735471248627,
          0.05062071979045868,
          -0.046030301600694656,
          0.6592095494270325,
          -0.08318355679512024,
          0.11765606701374054,
          0.06264754384756088,
          0.02679377980530262,
          -0.04920056834816933,
          0.10490558296442032,
          -0.11466727405786514,
          -0.11049988865852356,
          -0.14991208910942078,
          0.054142504930496216,
          -0.025269033387303352,
          -0.07470077276229858,
          0.044131968170404434,
          0.17460966110229492,
          -0.017414961010217667,
          -0.06015334650874138,
          -0.08612219989299774,
          0.1056983470916748,
          0.03651732578873634,
          0.08218613266944885,
          -0.050563547760248184,
          0.12265551835298538,
          0.09998007118701935,
          -0.03018658049404621,
          0.07834634929895401,
          1.1522903442382812,
          -0.11609858274459839,
          0.004657532088458538,
          0.01753373071551323,
          0.06521207839250565,
          -0.008327911607921124,
          -0.14519771933555603,
          -0.14403407275676727,
          0.15169717371463776,
          0.09525900334119797,
          -0.047825515270233154,
          0.03736524656414986,
          -0.013528132811188698,
          -0.019052360206842422,
          0.09887446463108063,
          0.0022206702269613743,
          -0.07526310533285141,
          0.03731786459684372,
          0.12796597182750702,
          -0.18205802142620087,
          0.2182638794183731,
          -0.11250321567058563,
          0.1572027951478958,
          -0.0746598094701767,
          -0.050284307450056076,
          -0.0442839190363884,
          0.11836905032396317,
          -0.07853667438030243,
          0.15481722354888916,
          -0.07627332955598831,
          0.06747628003358841,
          -0.10313835740089417,
          -0.07115859538316727,
          0.258378267288208,
          0.08993598073720932,
          0.12836842238903046,
          0.0012071843957528472,
          0.05545292794704437,
          -1.7105433940887451,
          -0.04545040428638458,
          0.04416860640048981,
          0.10162624716758728,
          -0.05559187009930611,
          0.23933625221252441,
          -0.04020930081605911,
          -0.0022295075468719006,
          -0.024218492209911346,
          0.08375629037618637,
          0.03503337875008583,
          0.094308041036129,
          0.10768238455057144,
          0.07143467664718628,
          0.0525883324444294,
          0.00928803626447916,
          0.15243381261825562,
          0.1818864494562149,
          0.070478655397892,
          0.16047662496566772,
          0.18479347229003906,
          -0.10390003025531769,
          -0.04252864420413971,
          -0.004510471131652594,
          -0.03770890831947327,
          0.0849229246377945,
          -2.098357915878296,
          0.25686323642730713,
          -0.1381472796201706,
          0.18095216155052185,
          -0.09081978350877762,
          0.06343074887990952,
          0.1531171202659607,
          0.0057746246457099915,
          0.024083158001303673,
          -0.026670927181839943,
          0.02377372793853283,
          0.02996950037777424,
          0.08188005536794662,
          0.20098668336868286,
          0.02542613074183464,
          -0.001559874857775867,
          0.012988277710974216,
          0.009559601545333862,
          0.03170354664325714,
          0.019660206511616707,
          -0.007240348495543003,
          0.05399084463715553,
          0.0239800326526165,
          0.013772968202829361,
          0.012739225290715694,
          -0.009753965772688389,
          0.01047126017510891,
          0.6466353535652161,
          -0.007015150971710682,
          -0.050360385328531265,
          -0.03667441010475159,
          -0.0806671753525734,
          -0.010759487748146057,
          -0.010563514195382595,
          -0.032491426914930344,
          -0.07000337541103363,
          -0.06069936230778694,
          0.12352681905031204,
          2.2140302658081055,
          0.021083824336528778,
          -0.01200626976788044,
          0.0161513090133667,
          -0.035937145352363586,
          -0.004183557815849781,
          0.008308756165206432,
          0.012858194299042225,
          0.011973920278251171,
          -0.021356742829084396,
          0.012902531772851944,
          0.009162601083517075,
          0.010078280232846737,
          0.012876300141215324,
          0.04540368914604187,
          0.013618234544992447,
          0.007774850353598595,
          -0.045210566371679306,
          -0.030638501048088074,
          -0.10475073754787445,
          -0.019475514069199562,
          -0.003973023965954781,
          -0.014508271589875221,
          0.0051703848876059055,
          -0.02693367563188076,
          -0.0036484820302575827,
          2.4744198322296143,
          0.004449456464499235,
          0.01512482576072216,
          0.001074574189260602,
          0.0012536728754639626,
          -0.01264027040451765,
          0.01939672790467739,
          -0.0012987226946279407,
          0.01457927655428648,
          0.00122225028462708,
          0.022641588002443314,
          -0.02873929776251316,
          -0.009838939644396305,
          -0.16451485455036163,
          -0.006057014223188162,
          0.09105666726827621,
          0.17848153412342072,
          0.08294400572776794,
          0.1674213856458664,
          0.15324033796787262,
          0.13360615074634552,
          0.035474993288517,
          0.24095474183559418,
          -0.00418685982003808,
          0.022173674777150154,
          0.10653189569711685,
          -0.09935295581817627,
          -0.02208484709262848,
          0.07603631913661957,
          -0.044791657477617264,
          0.1038936898112297,
          -0.12100721150636673,
          0.08596812188625336,
          0.12185319513082504,
          0.08460702002048492,
          0.15202850103378296,
          0.12890368700027466,
          0.014445134438574314,
          0.6015554666519165,
          -0.027626939117908478,
          0.03599400818347931,
          0.05428757146000862,
          0.0965246856212616,
          0.1572524458169937,
          0.046121202409267426,
          0.043742891401052475,
          0.11078310012817383,
          -0.007138832937926054,
          -0.004609792027622461,
          -0.014303774572908878,
          0.09063497185707092,
          0.06013564392924309,
          0.14026349782943726,
          0.037325840443372726,
          -0.007852209731936455,
          0.2776217758655548,
          -0.027413135394454002,
          0.07260628789663315,
          0.0403377041220665,
          0.09183455258607864,
          0.0947582796216011,
          -0.041433557868003845,
          0.11814770847558975,
          0.11087976396083832,
          1.9248226881027222,
          0.005108163692057133,
          0.1410173773765564,
          0.13456717133522034,
          -0.013007092289626598,
          0.19081643223762512,
          0.012596228159964085,
          -0.12086717784404755,
          0.041002217680215836,
          0.09036196768283844,
          0.06802700459957123,
          0.09135917574167252,
          -0.03498106077313423,
          -0.03491829335689545,
          0.06656427681446075,
          -0.06586438417434692,
          0.012765651568770409,
          -0.0854775607585907,
          -0.003573364345356822,
          -0.027335133403539658,
          -0.008044897578656673,
          -0.1138853058218956,
          -0.00010951391595881432,
          0.09414568543434143,
          -0.0027473450172692537,
          0.15112033486366272,
          0.09891331195831299,
          -0.005853021517395973,
          0.03213532269001007,
          0.06979703903198242,
          -0.015446070581674576,
          0.024836938828229904,
          -0.06998562812805176,
          -0.029506932944059372,
          -0.0006405387539416552,
          -0.03840474411845207,
          0.07140200585126877,
          0.18029746413230896,
          -0.25562354922294617,
          0.11268918216228485,
          -0.05209299549460411,
          0.029358558356761932,
          0.11855711042881012,
          -0.10392597317695618,
          0.013689029030501842,
          -0.045862313359975815,
          0.02607627585530281,
          -0.032911643385887146,
          -0.07150918990373611,
          0.06237126141786575,
          -0.03381782025098801,
          0.10207962244749069,
          -0.007154111750423908,
          0.014478492550551891,
          0.040000636130571365,
          0.022166404873132706,
          -0.18729951977729797,
          -0.11046890914440155,
          0.0369715616106987,
          -0.0009343294659629464,
          0.06011991202831268,
          -0.022356312721967697,
          0.018244720995426178,
          -0.01656416431069374,
          -0.6978514194488525,
          -0.05265698954463005,
          0.06779880821704865,
          0.04023011773824692,
          -0.033883459866046906,
          0.11151980608701706,
          -0.05049934610724449,
          -0.12144555896520615,
          -0.09802017360925674,
          -0.03241893649101257,
          -0.1871219128370285,
          -0.012907035648822784,
          0.07282188534736633,
          0.1344781368970871,
          0.0017480143578723073,
          -0.11610512435436249,
          0.16879141330718994,
          -0.18600046634674072,
          0.0090302973985672,
          0.2791038453578949,
          -0.017189668491482735,
          -0.015510255470871925,
          -0.192606121301651,
          -0.03368809074163437,
          -0.034912269562482834,
          -0.08343186974525452,
          -0.06890133023262024,
          0.00043891550740227103,
          0.02514480985701084,
          -0.03623199090361595,
          0.1677066832780838,
          -0.02098647505044937,
          0.004016036633402109,
          -0.04894396290183067,
          -0.0666121393442154,
          -0.0245205145329237,
          0.06063731387257576,
          0.0598750039935112,
          -0.5964844226837158,
          0.007222445216029882,
          0.1205168291926384,
          -0.012696630321443081,
          -0.014724211767315865,
          -0.027223747223615646,
          0.07969539612531662,
          -0.18846556544303894,
          -0.0058239842765033245,
          0.0011001086095348,
          -0.02755116857588291,
          -0.053052641451358795,
          -0.08675694465637207,
          0.00340382126159966,
          0.00993334036320448,
          0.12003166973590851,
          0.011065110564231873,
          0.08585896342992783,
          0.03400517255067825,
          -0.028332706540822983,
          -0.07823627442121506,
          -0.008858228102326393,
          0.05386590212583542,
          0.20788313448429108,
          -0.04549000784754753,
          0.035790976136922836,
          -1.5274622440338135,
          -0.16760586202144623,
          -0.10047668218612671,
          -0.04441675543785095,
          0.03823564574122429,
          0.09175273776054382,
          0.08603508025407791,
          0.2021607905626297,
          -0.03373531624674797,
          0.061095450073480606,
          0.013096186332404613,
          0.04931923747062683,
          0.014013214968144894,
          0.05770903080701828,
          0.07971325516700745,
          0.011870806105434895,
          -0.007363117299973965,
          0.02737179584801197,
          0.14956270158290863,
          0.04309915751218796,
          0.15944530069828033,
          0.01814873330295086,
          0.04171162471175194,
          -0.07996963709592819,
          -0.030482012778520584,
          -0.09740719944238663,
          -0.16381700336933136,
          -0.0011526261223480105,
          0.19514545798301697,
          0.008839169517159462,
          0.0001307693455601111,
          -0.06117705628275871,
          0.0981682762503624,
          0.11838071793317795,
          0.09907305240631104,
          0.023095643147826195,
          -0.03184475749731064,
          0.0003318037197459489,
          -0.15205234289169312,
          -0.16039417684078217,
          0.11640896648168564,
          -0.01222232636064291,
          0.11725298315286636,
          0.06925172358751297,
          -0.07314898073673248,
          0.014005809091031551,
          0.09248901903629303,
          0.11635927855968475,
          -0.09136246144771576,
          -0.15769656002521515,
          0.039320580661296844,
          -0.006247693207114935,
          0.09793544560670853,
          -0.0012834223452955484,
