{
  "model": {
    "layers": [
      {
        "in_features": 8,
        "out_features": 12,
        "weights": [
          -0.2956993281841278,
          0.427519828081131,
          -0.4217745363712311,
          -0.16495265066623688,
          -0.30905357003211975,
          0.02278764359652996,
          -0.07743468880653381,
          -0.36202874779701233,
          0.33349916338920593,
          0.23372523486614227,
          -0.06560598313808441,
          0.09016001224517822,
          -0.16110873222351074,
          0.36234530806541443,
          0.35326555371284485,
          0.4326667785644531,
          0.509387195110321,
          0.42544645071029663,
          0.2995533049106598,
          0.053666699677705765,
          -0.09854918718338013,
          0.18097734451293945,
          -0.006128918379545212,
          0.49837949872016907,
          0.3748001456260681,
          0.3734302818775177,
          0.17836958169937134,
          0.4429108500480652,
          -0.22538064420223236,
          0.7322333455085754,
          0.4090544879436493,
          0.5817816853523254,
          -0.3075490891933441,
          -0.06438574194908142,
          0.28510910272598267,
          -0.23281721770763397,
          0.05911679565906525,
          0.10147184878587723,
          -0.15830907225608826,
          0.11174601316452026,
          0.5060397982597351,
          -0.32321321964263916,
          -0.0567203015089035,
          0.3447659909725189,
          0.3720604479312897,
          0.09443645924329758,
          0.2671376168727875,
          0.12682975828647614,
          -0.35037875175476074,
          -0.17619287967681885,
          -0.13151563704013824,
          -0.20168228447437286,
          0.13082672655582428,
          0.20034334063529968,
          0.15282247960567474,
          0.24423639476299286,
          -0.7168986201286316,
          -0.07583918422460556,
          0.45317375659942627,
          -0.47237518429756165,
          -0.1737518608570099,
          -0.29643067717552185,
          -0.47069278359413147,
          -0.13820256292819977,
          0.3124699890613556,
          -0.0040932027623057365,
          0.3026234805583954,
          0.24215379357337952,
          0.18150417506694794,
          0.5938394665718079,
          0.14206631481647491,
          0.5771065354347229,
          -0.6529163718223572,
          0.22474908828735352,
          -0.7214616537094116,
          0.2017751932144165,
          -0.22974491119384766,
          -0.3502185046672821,
          -0.5915244817733765,
          -0.3591874837875366,
          0.4077689051628113,
          0.2753048539161682,
          0.2195163071155548,
          0.4275154173374176,
          -0.15692122280597687,
          0.0618908628821373,
          -0.20709602534770966,
          0.42531976103782654,
          0.495558500289917,
          0.3230868875980377,
          0.06401898711919785,
          0.6086833477020264,
          0.08710670471191406,
          0.5678802132606506,
          0.09329579025506973,
          0.15840165317058563
        ],
        "bias": [
          -0.28324830532073975,
          0.22971968352794647,
          0.30865001678466797,
          0.1457560956478119,
          0.2369396835565567,
          0.4694196879863739,
          0.21269679069519043,
          -0.47812697291374207,
          -0.0013311626389622688,
          -0.2090435028076172,
          0.3518902361392975,
          0.18523083627223969
        ]
      },
      {
        "in_features": 38,
        "out_features": 64,
        "weights": [
          -0.022198308259248734,
          0.021562550216913223,
          -0.08126317709684372,
          -0.058759961277246475,
          -0.0025745078455656767,
          0.05018433928489685,
          0.09099074453115463,
          0.041092436760663986,
          0.06886525452136993,
          -0.04350665584206581,
          0.031643904745578766,
          -0.015544742345809937,
          0.30585977435112,
          0.12708482146263123,
          -0.23949943482875824,
          -0.06715361773967743,
          0.35862094163894653,
          0.14357098937034607,
          -0.2500360608100891,
          -0.1631673127412796,
          0.1836978793144226,
          0.0292748361825943,
          -0.2135334312915802,
          -0.03870771452784538,
          0.028387656435370445,
          -0.08254273235797882,
          -0.0534014068543911,
          -0.026203680783510208,
          -0.27254918217658997,
          0.13069413602352142,
          0.08294015377759933,
          0.048694733530282974,
          0.08639799803495407,
          0.13620632886886597,
          0.2577114999294281,
          -0.26373082399368286,
          -0.13110193610191345,
          -0.053655531257390976,
          0.050565190613269806,
          0.07710744440555573,
          0.09041052311658859,
          -0.02434053272008896,
          -0.12085001170635223,
          -0.09002764523029327,
          -0.009806668385863304,
          -0.03284263610839844,
          -0.08528214693069458,
          0.0009025376639328897,
          -0.09562042355537415,
          0.04081352427601814,
          0.04767284169793129,
          -0.15173093974590302,
          0.03295427933335304,
          0.2773556411266327,
          0.16337358951568604,
          -0.07368236035108566,
          0.0712716355919838,
          0.18941575288772583,
          0.0700785294175148,
          -0.1710870862007141,
          -0.08051785081624985,
          0.09124927967786789,
          -0.06289422512054443,
          0.043575603514909744,
          -0.20753614604473114,
          -0.09149155765771866,
          0.21431200206279755,
          -0.023196402937173843,
          0.0371391735970974,
          -0.22888652980327606,
          0.17904146015644073,
          0.13945616781711578,
          -0.08989668637514114,
          -0.0339808315038681,
          0.06049468368291855,
          0.3225691318511963,
          -0.034388188272714615,
          -0.041502002626657486,
          -0.09945330768823624,
          -0.03472571074962616,
          0.0882844552397728,
          -0.09709267318248749,
          -0.07685565203428268,
          0.05921449139714241,
          0.08334783464670181,
          0.2535947561264038,
          0.00480498606339097,
          -0.21619226038455963,
          -0.09483195841312408,
          0.10362391918897629,
          -0.21078301966190338,
          0.09848525375127792,
          0.13478219509124756,
          -0.2763628363609314,
          -0.07635686546564102,
          0.10838664323091507,
          -0.20947620272636414,
          0.16543231904506683,
          0.12588168680667877,
          0.026713041588664055,
          0.1658419966697693,
          0.24238836765289307,
          0.3828343451023102,
          0.06955115497112274,
          -0.04836206138134003,
          0.2930552661418915,
          0.02449844963848591,
          -0.152354434132576,
          0.3833123445510864,
          0.035616420209407806,
          -0.014324075542390347,
          0.3130720853805542,
          0.05825710669159889,
          -0.06237102672457695,
          0.02482593059539795,
          -0.006702220067381859,
          0.04488390311598778,
          -0.06825250387191772,
          -0.030787019059062004,
          -0.1702311635017395,
          -0.06193853169679642,
          0.07990643382072449,
          0.19650773704051971,
          0.08546605706214905,
          -0.07312477380037308,
          0.13428330421447754,
          -0.24804697930812836,
          0.17208576202392578,
          -0.08552133291959763,
          0.11427748948335648,
          0.23262198269367218,
          0.18248812854290009,
          -0.23245953023433685,
          -0.0985252633690834,
          -0.11777100712060928,
          0.06837552785873413,
          0.1909288614988327,
          0.0681409016251564,
          0.1586279422044754,
          0.00021758860384579748,
          -0.00582627858966589,
          0.28314709663391113,
          0.3523370027542114,
          0.27720755338668823,
          0.16563090682029724,
          -0.20201869308948517,
          0.23688121140003204,
          0.30457374453544617,
          0.344162255525589,
          0.31080198287963867,
          0.12247942388057709,
          -0.23620259761810303,
          0.05092907324433327,
          0.0009339582175016403,
          0.015516993589699268,
          -0.029665537178516388,
          -0.004991237074136734,
          -0.05883178114891052,
          0.0069543044082820415,
          0.036287572234869,
          0.04029403254389763,
          0.02456294186413288,
          0.13020643591880798,
          0.08066155761480331,
          -0.24090074002742767,
          0.05594782903790474,
          -0.016630390658974648,
          0.23873907327651978,
          0.07486090064048767,
          -0.10813520848751068,
          0.27897635102272034,
          -0.04480891302227974,
          0.14534352719783783,
          -0.3504486680030823,
          -0.04857795313000679,
          -0.11466002464294434,
          0.044425711035728455,
          0.007709218189120293,
          -0.06779616326093674,
          0.1354227066040039,
          0.3296980857849121,
          -0.027441298589110374,
          -0.07413335144519806,
          -0.3669924736022949,
          0.06621202826499939,
          -0.1363377571105957,
          -0.2890932857990265,
          -0.018787560984492302,
          0.110092893242836,
          0.19651155173778534,
          0.09084104001522064,
          -0.014542507007718086,
          0.028375890105962753,
          -0.05607011914253235,
          -0.039314232766628265,
          -0.054715000092983246,
          0.08039449155330658,
          0.1865149438381195,
          0.09509620070457458,
          0.14767742156982422,
          -0.020119212567806244,
          -0.2478961944580078,
          0.27729105949401855,
          0.1926063597202301,
          0.023172635585069656,
          -0.3666130304336548,
          0.119450643658638,
          -0.16292062401771545,
          0.33304622769355774,
          0.14100155234336853,
          0.11253520101308823,
          -0.30413585901260376,
          0.01692291907966137,
          0.03468228876590729,
          0.12485072761774063,
          0.11882159858942032,
          0.18453606963157654,
          -0.08458764106035233,
          -0.4118908643722534,
          0.25481003522872925,
          0.2603904604911804,
          0.24733442068099976,
          0.23026232421398163,
          -0.0051601603627204895,
          -0.3876478374004364,
          0.35460367798805237,
          0.3372392952442169,
          0.271960973739624,
          -0.10875215381383896,
          0.0418575182557106,
          -0.07801684737205505,
          -0.11436127871274948,
          -0.02568727172911167,
          0.01861284114420414,
          0.03291322663426399,
          0.04874661564826965,
          -0.04080982878804207,
          -0.024385618045926094,
          0.034448832273483276,
          0.023815900087356567,
          0.385842889547348,
          -0.004965031053870916,
          0.3887908160686493,
          0.25040650367736816,
          -0.2765078842639923,
          -0.07112328708171844,
          0.4299638569355011,
          0.0017742079216986895,
          0.1514846235513687,
          0.1669476330280304,
          -0.3780566155910492,
          -0.033193886280059814,
          -0.031392671167850494,
          -0.008520899340510368,
          -0.022974392399191856,
          -0.12589384615421295,
          -0.5574278235435486,
          -0.5059052109718323,
          -0.08627781271934509,
          0.019299816340208054,
          -0.010767973028123379,
          -0.16781464219093323,
          -0.4706544876098633,
          -0.4198881983757019,
          -0.28458288311958313,
          0.051567669957876205,
          0.02806924283504486,
          -0.07095711678266525,
          -0.12049626559019089,
          0.027477741241455078,
          0.052191637456417084,
          -0.005665789358317852,
          0.10265040397644043,
          0.02420283854007721,
          -0.02982199564576149,
          -0.036501821130514145,
          0.039252229034900665,
          0.04700161889195442,
          -0.30561503767967224,
          0.10603376477956772,
          -0.07612919062376022,
          -0.33210405707359314,
          0.13722065091133118,
          0.07928325235843658,
          0.3025250732898712,
          -0.25560271739959717,
          0.01675451174378395,
          0.3019464313983917,
          -0.14701750874519348,
          -0.038740746676921844,
          -0.03210423141717911,
          -0.026021236553788185,
          0.20081272721290588,
          0.22067026793956757,
          0.09762470424175262,
          0.18327848613262177,
          0.1219230592250824,
          0.10322284698486328,
          -0.06359601020812988,
          -0.13706085085868835,
          -0.15988940000534058,
          -0.1863078773021698,
          -0.1869608610868454,
          -0.10959431529045105,
          0.06908237934112549,
          0.07229194790124893,
          0.04011492431163788,
          -0.0821857750415802,
          0.07719159126281738,
          -0.004341515246778727,
          -0.12005356699228287,
          0.11513499170541763,
          0.043800823390483856,
          0.03274020180106163,
          -0.07943593710660934,
          0.03134937956929207,
          0.32253625988960266,
          -0.12390606850385666,
          -0.004723676946014166,
          -0.31332215666770935,
          0.18806886672973633,
          -0.10344080626964569,
          -0.21389620006084442,
          0.11135457456111908,
          0.06936577707529068,
          0.14225360751152039,
          -0.09862355887889862,
          0.07275380939245224,
          0.03758512809872627,
          0.014579081907868385,
          -0.20205464959144592,
          -0.1632155328989029,
          -0.14429686963558197,
          0.12479757517576218,
          0.18304821848869324,
          0.1647128462791443,
          0.2160394787788391,
          0.1709142029285431,
          0.26943767070770264,
          -0.2152402400970459,
          -0.2194846123456955,
          -0.3513011634349823,
          0.13667196035385132,
          0.01089826226234436,
          0.022739728912711143,
          0.01113161537796259,
          0.09015323221683502,
          -0.03639521822333336,
          -0.07469123601913452,
          0.03281107544898987,
          0.07291160523891449,
          0.04590122774243355,
          -0.037176452577114105,
          0.010155962780117989,
          0.14639198780059814,
          -0.051133979111909866,
          -0.08156818151473999,
          0.11320708692073822,
          -0.0488332137465477,
          0.33480122685432434,
          -0.018584340810775757,
          0.005258223041892052,
          0.2531627118587494,
          -0.05464758723974228,
          -0.000634904601611197,
          0.03501635417342186,
          0.06606324762105942,
          0.013061746954917908,
          -0.1678907722234726,
          0.272104412317276,
          -0.09181798249483109,
          -0.1474865972995758,
          0.18910536170005798,
          -0.1265171766281128,
          0.19262458384037018,
          0.00706283375620842,
          0.07982000708580017,
          0.20312052965164185,
          -0.07432004064321518,
          0.04771440848708153,
          -0.13339032232761383,
          0.09459920227527618,
          0.16644419729709625,
          -0.22351869940757751,
          0.07039258629083633,
          0.1429734230041504,
          -0.13644756376743317,
          0.006167806684970856,
          -1.4159009456634521,
          0.12433026731014252,
          -0.9372098445892334,
          -0.003646685043349862,
          -0.02801254577934742,
          -0.05133577808737755,
          -0.02795657515525818,
          0.0029567366000264883,
          0.003606801852583885,
          -0.04376305267214775,
          0.0010891491547226906,
          0.07393548637628555,
          0.019380465149879456,
          0.0018380312249064445,
          0.00722316512838006,
          -0.5770551562309265,
          1.1425355672836304,
          -0.27544403076171875,
          0.042548906058073044,
          -0.01862589828670025,
          -0.029780272394418716,
          -0.0019269351614639163,
          -0.01583278365433216,
          0.01809505559504032,
          -0.06291220337152481,
          -0.02415360137820244,
          0.02132386341691017,
          -0.008083620108664036,
          0.013644465245306492,
          -0.00640062103047967,
          0.0228801891207695,
          0.056582484394311905,
          -0.05217497795820236,
          0.0014849964063614607,
          0.09721717238426208,
          0.07318317890167236,
          -0.07410695403814316,
          -0.006373440381139517,
          0.007508867420256138,
          -0.004599578212946653,
          0.03390021249651909,
          0.10344205796718597,
          -0.2557612955570221,
          0.087663434445858,
          0.08903428912162781,
          -0.04454086720943451,
          -0.14724284410476685,
          0.25792813301086426,
          0.38601893186569214,
          -0.048253465443849564,
          -0.10184158384799957,
          -0.0171803031116724,
          0.17205777764320374,
          -0.03262220323085785,
          0.006120653823018074,
          -0.009271444752812386,
          0.0063469912856817245,
          0.19951388239860535,
          0.25598594546318054,
          -0.33827874064445496,
          -0.16528819501399994,
          0.15463733673095703,
          -0.0768943727016449,
          0.09023904800415039,
          -0.302389919757843,
          0.3440842926502228,
          0.13604578375816345,
          -0.19687925279140472,
          0.013791633769869804,
          -0.013524556532502174,
          0.0429546982049942,
          0.015860039740800858,
          -0.024653377011418343,
          -0.08334749191999435,
          -0.05721515789628029,
          0.036117058247327805,
          0.08245155960321426,
          0.031605158001184464,
          -0.029996950179338455,
          -0.12011498212814331,
          -0.1456362009048462,
          0.168397918343544,
          -0.049523238092660904,
          0.16250494122505188,
          0.005225909873843193,
          0.17388112843036652,
          0.28591981530189514,
          -0.21591497957706451,
          -0.02623017691075802,
          -0.33099040389060974,
          -0.2206612378358841,
          0.026686962693929672,
          0.06541238725185394,
          -0.005002353806048632,
          0.260577917098999,
          0.14106200635433197,
          0.05282392352819443,
          0.1658691018819809,
          -0.028250783681869507,
          -0.3424941599369049,
          -0.17523595690727234,
          -0.03958608955144882,
          0.07066307216882706,
          -0.014185602776706219,
          -0.11500401049852371,
          0.19481435418128967,
          0.27209046483039856,
          0.0958428829908371,
          0.1292247474193573,
          0.22853389382362366,
          0.14925573766231537,
          0.3914802670478821,
          0.007489284500479698,
          0.010997582226991653,
          -0.0432417169213295,
          0.021858924999833107,
          -0.005012840963900089,
          -0.3028884828090668,
          0.02997523918747902,
          -0.25638794898986816,
          -0.35316526889801025,
          0.13194049894809723,
          -0.19788134098052979,
          -0.07377241551876068,
          0.0982310026884079,
          -0.17067229747772217,
          -0.20523229241371155,
          0.10080409795045853,
          -0.21797338128089905,
          0.008153550326824188,
          -0.01636962592601776,
          0.044095948338508606,
          -0.10828251391649246,
          0.2674911320209503,
          -0.12681403756141663,
          -0.16544994711875916,
          0.2705686092376709,
          0.03253147006034851,
          -0.18463702499866486,
          0.4483105540275574,
          -0.1600787192583084,
          -0.15997974574565887,
          0.351261168718338,
          -0.07295094430446625,
          -0.06798532605171204,
          0.03451266884803772,
          -0.052254512906074524,
          -0.04095395281910896,
          -0.05774850770831108,
          0.06024414673447609,
          0.09267269819974899,
          -0.12888765335083008,
          -0.01942283660173416,
          -0.03962637484073639,
          -0.1572350561618805,
          -0.12569701671600342,
          0.3224860429763794,
          -0.07894333451986313,
          -0.13439732789993286,
          0.33802831172943115,
          -0.11325550824403763,
          0.05423539876937866,
          -0.45718058943748474,
          0.04380793124437332,
          0.27485471963882446,
          -0.34582218527793884,
          -0.12455906718969345,
          0.13550058007240295,
          -0.03853651136159897,
          -0.03491015359759331,
          0.1546500027179718,
          -0.12348407506942749,
          -0.33115679025650024,
          0.1419503539800644,
          -0.16493698954582214,
          -0.2932024598121643,
          -0.11612570285797119,
          0.04265003651380539,
          0.20657572150230408,
          0.0420345738530159,
          0.21119914948940277,
          0.22721052169799805,
          -0.017158860340714455,
          -0.13864460587501526,
          -0.10854949802160263,
          0.1417447179555893,
          0.10364389419555664,
          0.021748974919319153,
          0.021941784769296646,
          0.04349185526371002,
          -0.05316673591732979,
          0.006591695360839367,
          -0.18971621990203857,
          -0.25483208894729614,
          0.1368730664253235,
          -0.22767969965934753,
          0.08723948895931244,
          -0.007893438450992107,
          0.1798185408115387,
          -0.2899326980113983,
          -0.019287269562482834,
          -0.1269175261259079,
          0.3507192134857178,
          -0.028032882139086723,
          0.07316925376653671,
          0.17246493697166443,
          -0.042203012853860855,
          0.03231974318623543,
          -0.00468235369771719,
          0.2647179961204529,
          0.03403306007385254,
          0.06629764288663864,
          -0.3220400810241699,
          0.19477364420890808,
          -0.1134611964225769,
          0.1793156862258911,
          -0.12246034294366837,
          0.1472213864326477,
          -0.16612595319747925,
          0.039284512400627136,
          0.01604590192437172,
          -1.2189413610030897e-05,
          0.030025186017155647,
          0.017075441777706146,
          -0.012248839251697063,
          0.023731721565127373,
          0.017131492495536804,
          0.012890409678220749,
          0.05053360015153885,
          0.005746717099100351,
          0.10428901016712189,
          -0.2571140229701996,
          0.03969326615333557,
          -0.25237467885017395,
          0.39163264632225037,
          -0.014221711084246635,
          0.1934705376625061,
          0.30375930666923523,
          0.020453687757253647,
          0.2991567850112915,
          -0.32958361506462097,
          0.014596506953239441,
          -0.14013126492500305,
          -0.09477145224809647,
          0.04114558547735214,
          -0.018493589013814926,
          -0.10967805236577988,
          0.4135453999042511,
          -0.1546470671892166,
          0.16103217005729675,
          -0.316297709941864,
          0.11976204067468643,
          0.056892938911914825,
          -0.34980666637420654,
          0.16146515309810638,
          -0.19549918174743652,
          0.3569696247577667,
          -0.11017026752233505,
          0.048347361385822296,
          0.06613201647996902,
          0.044727496802806854,
          -0.05525200068950653,
          -0.11094167083501816,
          0.060375381261110306,
          0.15738891065120697,
          -0.0033695711754262447,
          -0.06260807067155838,
          -0.060136839747428894,
          0.10027004033327103,
          0.18176572024822235,
          0.2839992642402649,
          -0.2411281317472458,
          0.21110861003398895,
          -0.18742451071739197,
          -0.026440713554620743,
          0.009955593384802341,
          0.3828609585762024,
          -0.19016844034194946,
          0.13833309710025787,
          -0.3561509847640991,
          -0.11640442907810211,
          -0.09567686915397644,
          -0.06080557405948639,
          -0.03762322664260864,
          -0.11827809363603592,
          -0.127443328499794,
          -0.29702213406562805,
          -0.2681087255477905,
          0.10056249797344208,
          0.3322690427303314,
          -0.14186184108257294,
          -0.19527271389961243,
          -0.10618670284748077,
          -0.20741426944732666,
          -0.0218404121696949,
          0.18092094361782074,
          0.07894516736268997,
          0.08021359890699387,
          -0.0765334740281105,
          -0.03170781582593918,
          0.028717998415231705,
          0.051193226128816605,
          0.050959452986717224,
          -0.05935223773121834,
          0.03149133920669556,
          0.01835985668003559,
          -0.03589639440178871,
          -0.10022074729204178,
          -0.14512881636619568,
          0.026721321046352386,
          0.2574942708015442,
          -0.25215980410575867,
          -0.18906643986701965,
          0.22119654715061188,
          0.16410711407661438,
          -0.19386813044548035,
          0.003903880948200822,
          0.2394326776266098,
          0.04189382120966911,
          0.03268766775727272,
          0.026343433186411858,
          0.004365245345979929,
          0.35385632514953613,
          0.12317752838134766,
          -0.013404402881860733,
          0.022909849882125854,
          0.13442227244377136,
          0.14738772809505463,
          -0.23177576065063477,
          -0.046507302671670914,
          -0.04083018749952316,
          0.11640366166830063,
          0.019806338474154472,
          -0.2755753993988037,
          0.05108317360281944,
          0.014978303574025631,
          -0.034945275634527206,
          0.0074123297818005085,
          0.0420919805765152,
          0.0015126734506338835,
          -0.0019008342642337084,
          -0.05114847049117088,
          -0.06074872985482216,
          -0.0431477427482605,
          0.015732835978269577,
          0.24769115447998047,
          0.24277043342590332,
          -0.18837721645832062,
          0.03855887055397034,
          0.14255444705486298,
          -0.12302172183990479,
          -0.13604232668876648,
          0.032866220921278,
          0.23493692278862,
          -0.23982511460781097,
          -0.1923338770866394,
          0.3245562016963959,
          -0.016841856762766838,
          -0.05638216808438301,
          -0.017761092633008957,
          -0.297762006521225,
          -0.027059214189648628,
          0.06901921331882477,
          -0.3799497187137604,
          -0.20741057395935059,
          0.10428940504789352,
          0.3033095598220825,
          0.23567593097686768,
          0.17136982083320618,
          0.1895466148853302,
          0.05606229975819588,
          -0.05042347311973572,
          -0.08140236139297485,
          -0.015467989258468151,
          -0.025339946150779724,
          0.08983395248651505,
          0.03869688883423805,
          0.1603149175643921,
          0.028694620355963707,
          -0.08482179045677185,
          -0.08349200338125229,
          -0.06460849195718765,
          0.08039168268442154,
          -0.08689413964748383,
          -0.1567157655954361,
          0.24902071058750153,
          0.06426723301410675,
          -0.2814410328865051,
          0.011025955900549889,
          0.008312634192407131,
          -0.19734930992126465,
          0.19560417532920837,
          -0.09033577889204025,
          -0.2948998212814331,
          0.060280993580818176,
          -0.07582657039165497,
          -0.07790650427341461,
          -0.02946528047323227,
          0.1682623028755188,
          0.2458307296037674,
          0.31064239144325256,
          0.23665814101696014,
          0.2534199059009552,
          0.33417317271232605,
          0.21487465500831604,
          0.28780609369277954,
          0.2130664438009262,
          0.19284626841545105,
          0.151884064078331,
          0.40061110258102417,
          -0.08076687902212143,
          0.0005088084726594388,
          -0.16640892624855042,
          -0.011033589020371437,
          0.011490264907479286,
          0.03569761663675308,
          0.07290393859148026,
          -0.10285323113203049,
          0.0447915755212307,
          -0.02237783744931221,
          0.018697015941143036,
          0.03465370833873749,
          -0.20418672263622284,
          -0.19516457617282867,
          -0.025040023028850555,
          0.22714167833328247,
          -0.017297018319368362,
          -0.1560184508562088,
          0.16446904838085175,
          0.09894373267889023,
          -0.035298943519592285,
          -0.2039424180984497,
          0.14348821341991425,
          -0.02297978103160858,
          0.021518411114811897,
          -0.047704823315143585,
          -0.12110121548175812,
          -0.09821110963821411,
          0.2180142104625702,
          -0.23174133896827698,
          -0.17588631808757782,
          -0.06833400577306747,
          0.20279259979724884,
          -0.006843931507319212,
          -0.21932943165302277,
          0.1438155621290207,
          0.13929587602615356,
          0.14548903703689575,
          -0.06882506608963013,
          0.08182678371667862,
          0.04711544141173363,
          -0.05062156543135643,
          -0.05069556459784508,
          0.09036625921726227,
          -0.006360070314258337,
          -0.07876933366060257,
          0.025340037420392036,
          0.07474518567323685,
          0.027872251346707344,
          0.25906211137771606,
          -0.017327768728137016,
          -0.3306552767753601,
          -0.09896915405988693,
          -0.257848858833313,
          0.06138637289404869,
          -0.1837635040283203,
          0.09158319979906082,
          0.25205281376838684,
          0.12162736803293228,
          0.3350461423397064,
          -0.04931601136922836,
          -0.017031580209732056,
          0.05198589339852333,
          0.07006639987230301,
          -0.14122383296489716,
          -0.03093903325498104,
          0.05094454437494278,
          0.04842188209295273,
          0.028966857120394707,
          0.24884536862373352,
          0.1969309151172638,
          0.10756119340658188,
          0.009440958499908447,
          -0.03028249740600586,
          0.021402813494205475,
          -0.18268921971321106,
          -0.01905960403382778,
          0.022134259343147278,
          -0.03767811879515648,
          -0.027683690190315247,
          0.10309746116399765,
          0.0012277709320187569,
          -0.1261313408613205,
          0.09138927608728409,
          0.03456691652536392,
          0.05720561370253563,
          0.06957609951496124,
          0.21175935864448547,
          -0.010609450750052929,
          -0.18281535804271698,
          0.26689520478248596,
          -0.21139545738697052,
          -0.3256310224533081,
          -0.2229626178741455,
          0.16155296564102173,
          0.2150253802537918,
          -0.2730465233325958,
          0.11673186719417572,
          0.12268054485321045,
          -0.05650387331843376,
          0.05225292965769768,
          0.045837972313165665,
          -0.3196493983268738,
          0.02444661781191826,
          0.41594642400741577,
          -0.2062646597623825,
          -0.05463090538978577,
          0.1956837773323059,
          0.3119259774684906,
          0.06344247609376907,
          -0.24925415217876434,
          0.37964749336242676,
          -0.03808627277612686,
          -0.2920916676521301,
          -0.04162374511361122,
          0.11307921260595322,
          -0.06495831906795502,
          -0.11745263636112213,
          -0.03301890939474106,
          0.09655273705720901,
          0.07595895975828171,
          -0.11704719811677933,
          -0.02188483066856861,
          -0.10255350172519684,
          0.04959355667233467,
          0.17747612297534943,
          -0.3804260492324829,
          -0.05680078640580177,
          0.08355246484279633,
          0.16787293553352356,
          -0.25704795122146606,
          0.2009987086057663,
          -0.28879010677337646,
          -0.03816234692931175,
          0.2128811627626419,
          0.2010369896888733,
          -0.35636675357818604,
          -0.05933788791298866,
          -0.05553595349192619,
          -0.10079085826873779,
          -0.057154711335897446,
          0.1402270644903183,
          0.32305291295051575,
          -0.3616219460964203,
          -0.22345396876335144,
          0.11604234576225281,
          -0.05564572662115097,
          0.19987475872039795,
          0.422471821308136,
          -0.28325900435447693,
          -0.13516880571842194,
          0.08029010891914368,
          0.24414381384849548,
          0.5650286674499512,
          0.30688995122909546,
          0.2655978798866272,
          0.5476810932159424,
          -0.06076391041278839,
          0.3933410346508026,
          0.17173278331756592,
          -0.0908002108335495,
          0.025860264897346497,
          0.0174730084836483,
          -0.017552092671394348,
          -0.09826206415891647,
          -0.032267604023218155,
          -0.10442715883255005,
          -0.017692040652036667,
          -0.054240889847278595,
          0.048119816929101944,
          0.06647858023643494,
          0.11971304565668106,
          -0.18274371325969696,
          0.14511623978614807,
          -0.07537159323692322,
          -0.0016831690445542336,
          -0.054331500083208084,
          0.07616951316595078,
          -0.01314125768840313,
          0.0766209214925766,
          0.007854146882891655,
          -0.055353324860334396,
          0.009672868996858597,
          0.013449558988213539,
          -0.1611327826976776,
          0.13611553609371185,
          0.010194171220064163,
          0.04644806683063507,
          0.021194614470005035,
          0.02369476482272148,
          0.12099286913871765,
          0.12574613094329834,
          0.07846786081790924,
          -0.06748594343662262,
          -0.01022421009838581,
          0.03204146400094032,
          -0.039169792085886,
          0.09050410985946655,
          0.11202014237642288,
          -0.15998348593711853,
          -0.03046237863600254,
          0.18279485404491425,
          -0.2604472041130066,
          -0.2591593265533447,
          -0.07200643420219421,
          -0.16218405961990356,
          0.3281180262565613,
          0.21181944012641907,
          -0.17111031711101532,
          -0.2896463871002197,
          -0.1809912919998169,
          -0.3287590444087982,
          0.27786266803741455,
          0.0001808340020943433,
          0.0002495985827408731,
          -0.2323424369096756,
          -0.13455568253993988,
          -0.01107273530215025,
          0.30474796891212463,
          0.18464352190494537,
          0.2628999948501587,
          0.18338167667388916,
          -0.11672163754701614,
          0.03447914123535156,
          0.3971312940120697,
          0.23071469366550446,
          0.12523147463798523,
          0.03698441758751869,
          0.021027108654379845,
          0.3674280047416687,
          0.11333717405796051,
          0.33255940675735474,
          0.47998741269111633,
          -0.08945606648921967,
          0.31738004088401794,
          0.16220778226852417,
          -0.10658062994480133,
          -0.014131291769444942,
          -0.13454975187778473,
          -0.017805464565753937,
          0.18191216886043549,
          -0.0007591748144477606,
          0.032690417021512985,
          0.10185808688402176,
          0.03677152842283249,
          0.12415167689323425,
          -0.019953250885009766,
          0.019511915743350983,
          -0.02416452020406723,
          -0.054622258991003036,
          -0.07502307742834091,
          0.12648679316043854,
          -0.08629828691482544,
          0.039138372987508774,
          -0.0910835713148117,
          -0.04297427833080292,
          0.03896426036953926,
          -0.019754471257328987,
          0.05092344433069229,
          0.05423436686396599,
          -0.030479049310088158,
          0.0886354148387909,
          -0.0073435804806649685,
          0.04561730846762657,
          -0.04968190938234329,
          0.019694019109010696,
          0.04614793881773949,
          0.19483314454555511,
          -0.24229609966278076,
          0.1412288099527359,
          -0.08396498113870621,
          -0.06319820135831833,
          -0.08804036676883698,
          -0.016604561358690262,
          -1.4200847148895264,
          0.1191171258687973,
          -0.9040952324867249,
          0.002464110031723976,
          0.0019515794701874256,
          0.13598181307315826,
          -0.03441355749964714,
          0.02956278994679451,
          0.05022937431931496,
          0.019751297309994698,
          0.009114287793636322,
          0.06373396515846252,
          -0.02012154459953308,
          0.026298005133867264,
          0.07617849856615067,
          -0.5582590103149414,
          1.0656518936157227,
          -0.24168530106544495,
          -0.12155427038669586,
          0.01061558723449707,
          -0.0004840908804908395,
          -0.03769207000732422,
          -0.006206945516169071,
          0.05033072829246521,
          -0.0563555583357811,
          0.02051197923719883,
          -0.0007109830039553344,
          -0.06241459771990776,
          0.0014960744883865118,
          0.03991074860095978,
          0.06311718374490738,
          -0.010550819337368011,
          0.030873117968440056,
          0.05511298030614853,
          0.060605719685554504,
          0.00732916546985507,
          -0.08054427802562714,
          0.09211757779121399,
          0.03073284775018692,
          -0.2602420449256897,
          -0.03128155693411827,
          0.00943848304450512,
          0.08350738137960434,
          0.031799592077732086,
          -0.09418903291225433,
          -0.12254364043474197,
          0.030245965346693993,
          0.11933425813913345,
          -0.09927476197481155,
          -0.05604469031095505,
          0.07877058535814285,
          -0.14563575387001038,
          -0.080978624522686,
          -0.00991505105048418,
          -0.09733925759792328,
          -0.30720090866088867,
          -0.14195756614208221,
          0.11502298712730408,
          -0.09369035810232162,
          0.12758229672908783,
          -0.16466744244098663,
          0.06870593875646591,
          0.12482071667909622,
          -0.06059031933546066,
          -0.00028319997363723814,
          -0.08525098115205765,
          0.064951092004776,
          -0.31700241565704346,
          -0.05052834749221802,
          -0.08047586679458618,
          -0.11457155644893646,
          0.08916077762842178,
          0.05495341122150421,
          0.057539720088243484,
          0.060636185109615326,
          -0.11225967109203339,
          0.02198689430952072,
          0.0253284964710474,
          0.04893935099244118,
          0.3219010829925537,
          -0.026938270777463913,
          0.10405056923627853,
          0.2643958032131195,
          -0.026006460189819336,
          0.2136126607656479,
          0.27663296461105347,
          0.00032675929833203554,
          0.2620840072631836,
          0.24783258140087128,
          -0.052995793521404266,
          0.11012598127126694,
          -0.04210228845477104,
          0.029408246278762817,
          0.016618752852082253,
          0.22843794524669647,
          -0.23751607537269592,
          0.10606968402862549,
          0.13909345865249634,
          -0.25407305359840393,
          0.10308512300252914,
          0.09185931086540222,
          -0.24587349593639374,
          0.15681934356689453,
          0.22967153787612915,
          -0.2825222611427307,
          0.08025791496038437,
          -0.05351190268993378,
          -0.06568162143230438,
          0.0031099256593734026,
          -0.015975400805473328,
          -0.0861235111951828,
          -0.04612142965197563,
          0.1063806414604187,
          0.0910835936665535,
          0.13722094893455505,
          -0.1110258400440216,
          0.0045822374522686005,
          0.2661312222480774,
          -0.0025247351732105017,
          0.17590206861495972,
          -0.07241489738225937,
          0.029551299288868904,
          -0.24904367327690125,
          0.17002905905246735,
          -0.023289663717150688,
          0.2496761679649353,
          -0.20595937967300415,
          -0.050623685121536255,
          -0.043388672173023224,
          -0.02835335209965706,
          0.04173612222075462,
          -0.19168300926685333,
          0.17912518978118896,
          -0.16118761897087097,
          0.09189070016145706,
          -0.13172172009944916,
          0.2906441390514374,
          -0.153712198138237,
          0.11619608104228973,
          -0.22699971497058868,
          0.11584455519914627,
          -0.3144850730895996,
          0.18230415880680084,
          -0.17927290499210358,
          -0.24819421768188477,
          0.04837306961417198,
          -0.05937225744128227,
          -0.14547039568424225,
          -0.00374968140386045,
          0.14365984499454498,
          -0.026640355587005615,
          0.12448225915431976,
          0.009557521902024746,
          0.08222418278455734,
          0.10145851224660873,
          0.14581087231636047,
          0.11647451668977737,
          0.13758793473243713,
          -0.060367435216903687,
          0.040009915828704834,
          -0.1675776094198227,
          -0.23087933659553528,
          -0.09531762450933456,
          -0.26374953985214233,
          0.2097640484571457,
          -0.03594005107879639,
          0.06961781531572342,
          -0.08016945421695709,
          0.04866931959986687,
          0.0864771381020546,
          0.09993458539247513,
          -0.0922558531165123,
          0.10890921950340271,
          -0.013621145859360695,
          0.22803768515586853,
          -0.028020450845360756,
          0.01860310323536396,
          0.050305649638175964,
          -0.07829423248767853,
          0.10422557592391968,
          -0.14517547190189362,
          -0.024209201335906982,
          0.010712112300097942,
          -0.06532340496778488,
          -0.0729043185710907,
          0.01666385307908058,
          0.08703965693712234,
          0.019851693883538246,
          0.01339241024106741,
          0.2130962610244751,
          -0.021215051412582397,
          0.04534873738884926,
          -0.03674979507923126,
          0.08114872872829437,
          0.22389037907123566,
          -0.14928440749645233,
          -0.12494301795959473,
          0.20149189233779907,
          0.06491842865943909,
          -0.10929898172616959,
          -0.20826458930969238,
          0.14529085159301758,
          -0.023833898827433586,
          -0.2532523274421692,
          -0.09522654861211777,
          0.0390167199075222,
          0.006889871787279844,
          0.059174247086048126,
          -0.21102842688560486,
          -0.11661596596240997,
          -0.0334719754755497,
          0.203067809343338,
          -0.008901495486497879,
          -0.19146478176116943,
          0.19038152694702148,
          0.11035241186618805,
          0.05308565869927406,
          -0.14531882107257843,
          -0.12584008276462555,
          0.21404103934764862,
          0.07095842808485031,
          0.09624021500349045,
          -0.11589731276035309,
          -0.157683864235878,
          0.23733654618263245,
          0.15977251529693604,
          -0.09520252794027328,
          -0.05486767739057541,
          -1.4786202907562256,
          0.03361861780285835,
          -0.8401418924331665,
          0.0825929194688797,
          0.05257276073098183,
          0.022789210081100464,
          -0.019814347848296165,
          -0.015843994915485382,
          0.047944165766239166,
          0.00586670683696866,
          0.010335714556276798,
          0.07536672800779343,
          -0.011593909002840519,
          -0.03384823724627495,
          -0.1372481882572174,
          -0.6807315349578857,
          1.0972886085510254,
          -0.3480898141860962,
          -0.020779911428689957,
          0.07752542197704315,
          0.019094912335276604,
          -0.04229285940527916,
          -0.016159920021891594,
          -0.01141047477722168,
          -0.06943130493164062,
          0.013175410218536854,
          0.010460874997079372,
          0.11884890496730804,
          -0.030611956492066383,
          -0.03495316952466965,
          -0.10784602910280228,
          -0.1392880231142044,
          -0.1030147448182106,
          0.14523892104625702,
          0.021050740033388138,
          -0.0002678766322787851,
          0.043084997683763504,
          -0.09099376201629639,
          -0.05272136628627777,
          -0.055959220975637436,
          -0.048134103417396545,
          0.16951707005500793,
          0.06569777429103851,
          -0.3203287720680237,
          -0.29234448075294495,
          -0.13524673879146576,
          0.29854950308799744,
          -0.23740173876285553,
          -0.09952943027019501,
          0.12917496263980865,
          0.22028666734695435,
          0.12045148015022278,
          -0.20649570226669312,
          0.03799990937113762,
          -0.061211708933115005,
          -0.03673139214515686,
          -0.20897872745990753,
          -0.13075639307498932,
          0.03709730878472328,
          0.2264574021100998,
          0.02838062308728695,
          -0.024879762902855873,
          0.37673741579055786,
          0.06809067726135254,
          -0.05675195902585983,
          -0.30432263016700745,
          -0.08263364434242249,
          0.05717868730425835,
          0.022920910269021988,
          0.11776231229305267,
          0.11218288540840149,
          -0.02446121722459793,
          -0.13348384201526642,
          0.11147427558898926,
          0.07272183895111084,
          -0.014874720014631748,
          0.032314497977495193,
          0.07539813965559006,
          -0.06383118778467178,
          -0.07099318504333496,
          0.12754829227924347,
          0.16875649988651276,
          0.1732265204191208,
          0.0713844746351242,
          -0.2012811154127121,
          0.10010558366775513,
          -0.13871952891349792,
          -0.1382114291191101,
          -0.09561758488416672,
          -0.13445858657360077,
          0.21286194026470184,
          0.06495127826929092,
          0.05038650706410408,
          0.06715139001607895,
          0.18705247342586517,
          0.07917934656143188,
          -0.22812224924564362,
          -0.23641178011894226,
          -0.11229195445775986,
          -0.08978009223937988,
          -0.2287551760673523,
          -0.08304823935031891,
          0.1953197866678238,
          0.2218383550643921,
          0.15186168253421783,
          -0.020049117505550385,
          -0.09541112184524536,
          -0.035434212535619736,
          -0.12444425374269485,
          0.07959495484828949,
          0.0058881849981844425,
          0.11892416328191757,
          0.08238716423511505,
          -0.05432135984301567,
          -0.09655290096998215,
          -0.19002974033355713,
          -0.008008291013538837,
          0.03307154029607773,
          0.08441787213087082,
          -0.25849631428718567,
          0.11589895933866501,
          0.22104132175445557,
          -0.11436416208744049,
          0.11850477755069733,
          0.13335803151130676,
          -0.1560160368680954,
          0.0011655498528853059,
          0.1310461163520813,
          -0.17582234740257263,
          -0.017087632790207863,
          -0.14460206031799316,
          -0.16832025349140167,
          -0.3228541314601898,
          -0.277907133102417,
          0.019542016088962555,
          -0.2761975824832916,
          -0.18918785452842712,
          -0.27935004234313965,
          -0.41692647337913513,
          -0.19369421899318695,
          0.03742595016956329,
          -0.22389625012874603,
          -0.3076692521572113,
          -0.32713598012924194,
          0.026848219335079193,
          0.17107431590557098,
          0.08807289600372314,
          -0.05806712061166763,
          -0.0724334791302681,
          0.0578063428401947,
          -0.06564494222402573,
          -0.024981245398521423,
          -0.09134040027856827,
          0.0495816133916378,
          1.3867844245396554e-05,
          -0.20710384845733643,
          0.0965038388967514,
          0.17483553290367126,
          0.1749114990234375,
          -0.19943414628505707,
          0.019216284155845642,
          0.08983594924211502,
          0.04070431739091873,
          -0.21900582313537598,
          0.09288936108350754,
          0.36649444699287415,
          0.07420816272497177,
          0.011835036799311638,
          -0.03816311061382294,
          0.09976619482040405,
          0.2805212140083313,
          0.12209554016590118,
          0.026384636759757996,
          0.033313408493995667,
          0.18004649877548218,
          0.18625245988368988,
          -0.2273273766040802,
          -0.10066209733486176,
          0.17170614004135132,
          -0.09300161898136139,
          0.032184626907110214,
          -0.10936783254146576,
          -0.004327449016273022,
          0.0060905092395842075,
          -0.009635934606194496,
          -0.11335879564285278,
          0.009038778021931648,
          -0.11463621258735657,
          -0.04169141873717308,
          0.043702878057956696,
          -0.10533709079027176,
          -0.013100473210215569,
          -0.06799902766942978,
          0.11738282442092896,
          0.23433291912078857,
          -0.07144006341695786,
          0.08714926987886429,
          -0.14697030186653137,
          -0.14271675050258636,
          0.00026438437635079026,
          -0.08265908062458038,
          0.031584590673446655,
          0.06666455417871475,
          0.056665439158678055,
          -0.04186432063579559,
          0.062299199402332306,
          -0.07395143806934357,
          0.03617056459188461,
          0.15183164179325104,
          0.07050326466560364,
          0.03348082676529884,
          0.07507943361997604,
          -0.09865318238735199,
          -0.15419697761535645,
          -0.06671595573425293,
          0.09738278388977051,
          0.09281670302152634,
          0.07620102912187576,
          0.11169836670160294,
          -0.011477885767817497,
          -0.04391351342201233,
          -0.053432829678058624,
          0.028454739600419998,
          0.09960917383432388,
          -0.009511078707873821,
          0.06260158121585846,
          0.020710863173007965,
          -0.05271304026246071,
          0.09421877562999725,
          0.06617821753025055,
          -0.025178484618663788,
          -0.06640860438346863,
          0.37206339836120605,
          0.08782891929149628,
          -0.31052112579345703,
          0.10333778709173203,
          0.10568904131650925,
          0.06816859543323517,
          -0.27277860045433044,
          0.031804848462343216,
          0.14553993940353394,
          -0.11629603058099747,
          -0.13544994592666626,
          0.028304068371653557,
          0.08709603548049927,
          0.027568314224481583,
          -0.10200626403093338,
          -0.04568146541714668,
          -0.04452287033200264,
          0.3105308413505554,
          -0.017708979547023773,
          0.017399022355675697,
          0.037130020558834076,
          0.13274911046028137,
          0.1881299614906311,
          -0.31232771277427673,
          -0.1371525228023529,
          0.011506408452987671,
          -0.07643254101276398,
          0.0961269736289978,
          0.048710934817790985,
          -0.06602940708398819,
          -0.0964898020029068,
          -0.004123530350625515,
          -0.0643213540315628,
          -0.0320771299302578,
          -0.1267438679933548,
          0.028404368087649345,
          0.08865197747945786,
          -0.06967000663280487,
          -0.197402685880661,
          0.04060664400458336,
          0.02104266919195652,
          0.17063315212726593,
          -0.1144440621137619,
          0.06999356299638748,
          0.014640391804277897,
          -0.1770693063735962,
          0.04583360254764557,
          0.13443328440189362,
          -0.03761374205350876,
          -0.0714733675122261,
          -0.06593906134366989,
          0.095062755048275,
          -0.058914653956890106,
          0.07623804360628128,
          0.13528062403202057,
          0.08365759253501892,
          -0.1499011516571045,
          -0.07760791480541229,
          -0.033364199101924896,
          0.16346502304077148,
          0.24418261647224426,
          -0.12310411781072617,
          -0.14339914917945862,
          0.03413532301783562,
          -0.022530484944581985,
          -0.08605313301086426,
          0.07471813261508942,
          -0.03137485682964325,
          -0.09182289987802505,
          0.007783089764416218,
          0.16716261208057404,
          0.1259559988975525,
          0.06145969405770302,
          -0.04926441237330437,
          0.02978159300982952,
          -0.18992173671722412,
          -0.13898320496082306,
          0.20348453521728516,
          -0.06011536717414856,
          -0.3369409441947937,
          -0.036961279809474945,
          0.12595614790916443,
          0.20916979014873505,
          -0.1455516815185547,
          -0.05821935087442398,
          0.27933505177497864,
          -0.015941262245178223,
          -0.03677297756075859,
          0.021541647613048553,
          -0.08460262417793274,
          0.21717096865177155,
          0.05177806317806244,
          -0.031115802004933357,
          0.020583976060152054,
          -0.01006366591900587,
          0.19904324412345886,
          -0.25298872590065,
          -0.07603564113378525,
          0.15788649022579193,
          0.020185114815831184,
          -0.07701234519481659,
          -0.22030432522296906,
          -0.1300908625125885,
          0.11493124812841415,
          0.0003776664088945836,
          -0.15188053250312805,
          -0.044259242713451385,
          0.034144170582294464,
          -0.03280806168913841,
          -0.06033620238304138,
          0.1571936011314392,
          0.03826628625392914,
          -0.045779384672641754,
          0.27824050188064575,
          0.24483954906463623,
          -0.2182299941778183,
          -0.008040140382945538,
          0.3632592558860779,
          0.0745198130607605,
          0.2090511918067932,
          0.1930960863828659,
          -0.34695398807525635,
          0.09127020835876465,
          0.3546547591686249,
          0.0007039133342914283,
          0.037232425063848495,
          0.11786007136106491,
          -0.0357598178088665,
          -0.4526592493057251,
          -0.04498879238963127,
          0.22491006553173065,
          -0.02512199431657791,
          -0.09177623689174652,
          -0.4640718400478363,
          -0.33423253893852234,
          -0.11964619159698486,
          0.19014547765254974,
          0.028903689235448837,
          -0.03574148938059807,
          -0.5095702409744263,
          -0.06812627613544464,
          0.0376737080514431,
          -0.12470097094774246,
          -0.11952061951160431,
          0.027338406071066856,
          -0.022919349372386932,
          0.006880522705614567,
          0.012682240456342697,
          -0.04149070382118225,
          -0.22098103165626526,
          -0.03616873174905777,
          0.13096539676189423,
          0.15518130362033844,
          -0.2592814862728119,
          0.13593295216560364,
          -0.4113111197948456,
          -0.06445200741291046,
          0.19591090083122253,
          0.11197194457054138,
          -0.29989030957221985,
          0.028373371809720993,
          -0.3696855902671814,
          -0.05161042883992195,
          0.004199684597551823,
          -0.12522581219673157,
          -0.22271041572093964,
          -0.3419613540172577,
          -0.14181910455226898,
          0.21484139561653137,
          -0.15481509268283844,
          0.027180196717381477,
          0.26800337433815,
          -0.30559709668159485,
          -0.11304423958063126,
          0.14642995595932007,
          -0.16415484249591827,
          -0.03202992305159569,
          0.359333872795105,
          0.02574915625154972,
          0.09595589339733124,
          0.0041479673236608505,
          -0.08750265836715698,
          0.11408314108848572,
          0.13546696305274963,
          -0.07940714806318283,
          0.1066901832818985,
          -0.04461396113038063,
          0.007444682996720076,
          -0.012667440809309483,
          -0.08456173539161682,
          0.043047141283750534,
          0.08508538454771042,
          -0.10377146303653717,
          0.2911059856414795,
          0.06466696411371231,
          0.2290525883436203,
          0.03883851319551468,
          -0.29904377460479736,
          0.18191075325012207,
          -0.22750599682331085,
          -0.10927028208971024,
          0.013647062703967094,
          -0.02629009261727333,
          0.029139526188373566,
          0.33032307028770447,
          0.16056852042675018,
          -0.10577262192964554,
          0.10424605011940002,
          -0.03061508946120739,
          -0.10579857230186462,
          -0.1688188910484314,
          -0.006557829212397337,
          0.1123618334531784,
          -0.022749176248908043,
          0.07067115604877472,
          0.1517072468996048,
          0.12983830273151398,
          0.021148409694433212,
          0.02493240311741829,
          0.03500580042600632,
          0.13661256432533264,
          0.023501241579651833,
          -0.10845036804676056,
          0.18176347017288208,
          -0.021666856482625008,
          -0.05059937387704849,
          0.06430921703577042,
          -0.6950559020042419,
          0.02690197341144085,
          -0.45345166325569153,
          -0.5798000693321228,
          0.10420504212379456,
          -0.5067980289459229,
          -0.7230221629142761,
          -0.00656539760529995,
          -0.422246515750885,
          -0.5744639039039612,
          0.12045063823461533,
          -0.45507335662841797,
          -0.06246161460876465,
          -0.033675700426101685,
          -0.04614764824509621,
          -0.29560795426368713,
          0.47654789686203003,
          -0.25145360827445984,
          -0.25096333026885986,
          0.5688880681991577,
          -0.17267030477523804,
          -0.3232088088989258,
          0.4462120831012726,
          -0.2730911374092102,
          -0.2952985167503357,
          0.5809494256973267,
          -0.15718631446361542,
          -0.27086541056632996,
          -0.09580393880605698,
          0.10235561430454254,
          0.03484569117426872,
          0.13669699430465698,
          0.3773285746574402,
          0.001199638471007347,
          0.002853984013199806,
          -1.2908868789672852,
          0.10067344456911087,
          -0.8162649273872375,
          -0.055631425231695175,
          -0.022107157856225967,
          -0.06276228278875351,
          -0.04725363478064537,
          0.03498664125800133,
          0.02561604417860508,
          -0.06403765082359314,
          -0.0065068737603724,
          -0.037430889904499054,
          -0.11019738018512726,
          -0.0003396120446268469,
          0.026733752340078354,
          -0.5285906791687012,
          0.9884207844734192,
          -0.24421468377113342,
          0.05490277707576752,
          -0.05125480890274048,
          -0.002124943071976304,
          -0.021267879754304886,
          -0.015088111162185669,
          0.053806371986866,
          0.03351603448390961,
          -0.04911985248327255,
          0.01928878016769886,
          -0.02465570718050003,
          -0.07098449766635895,
          0.047773201018571854,
          -0.060527585446834564,
          -0.09506642073392868,
          -0.06303568929433823,
          0.057054780423641205,
          -0.017359444871544838,
          -0.02707214653491974,
          0.09186270087957382,
          -0.11773249506950378,
          -0.0681174099445343,
          0.252765953540802,
          0.045091379433870316,
          -0.16435079276561737,
          0.09661407768726349,
          0.44131991267204285,
          0.04089382290840149,
          0.4591768682003021,
          -0.15881076455116272,
          -0.10032644122838974,
          0.10331960767507553,
          0.25552791357040405,
          0.07456161826848984,
          0.3792039453983307,
          -0.1529139280319214,
          -0.003184944624081254,
          0.06963812559843063,
          0.3121464252471924,
          0.30182620882987976,
          0.22417427599430084,
          -0.3112802505493164,
          -0.13784201443195343,
          -0.21704398095607758,
          -0.3655928373336792,
          0.4642815589904785,
          0.25510555505752563,
          -0.3323493003845215,
          -0.15634818375110626,
          -0.22789366543293,
          -0.4762498438358307,
          0.11869321763515472,
          0.08902695775032043,
          -0.036856357008218765,
          -0.03333147615194321,
          0.12245967239141464,
          0.0637301653623581,
          -0.04827376455068588,
          -0.10185040533542633,
          0.01428565289825201,
          0.3934500813484192,
          0.16263477504253387,
          -0.12850208580493927,
          0.2913641035556793,
          0.03109772503376007,
          -0.05281069129705429,
          0.2429867386817932,
          0.16206397116184235,
          0.03526250272989273,
          0.3460279703140259,
          0.03777209296822548,
          -0.1410558968782425,
          0.21676978468894958,
          0.17762862145900726,
          -0.09264920651912689,
          0.19098883867263794,
          0.4280144274234772,
          -0.08587603271007538,
          -0.23267321288585663,
          -0.430808961391449,
          0.32691875100135803,
          0.18459448218345642,
          -0.2760452330112457,
          -0.09313829988241196,
          -0.10421917587518692,
          -0.44717469811439514,
          0.3146425783634186,
          0.11831469088792801,
          -0.26362526416778564,
          -0.01796591468155384,
          0.02432378940284252,
          -0.07205389440059662,
          -0.05254684388637543,
          -0.032342329621315,
          0.02611881121993065,
          0.09567054361104965,
          -0.04627928510308266,
          -0.08672488480806351,
          -0.09186199307441711,
          -0.1600632667541504,
          -0.21434184908866882,
          0.22480648756027222,
          0.2168925553560257,
          0.26013442873954773,
          -0.21915164589881897,
          -0.22246026992797852,
          0.21127581596374512,
          -0.2978634834289551,
          -0.17001250386238098,
          -0.25347602367401123,
          0.21063750982284546,
          0.1578822284936905,
          0.13505800068378448,
          -0.10573688894510269,
          -0.05969621613621712,
          0.2091812640428543,
          0.004201242700219154,
          -0.32156309485435486,
          -0.2283002734184265,
          0.005941000301390886,
          0.2794952094554901,
          -0.2551872432231903,
          -0.0034523329231888056,
          0.23140983283519745,
          0.2834756374359131,
          -0.04385656490921974,
          -0.2798658311367035,
          0.06084836274385452,
          0.101120725274086,
          0.0035523008555173874,
          -0.08040183782577515,
          -0.07073204964399338,
          0.040634773671627045,
          0.10642940551042557,
          -0.09632932394742966,
          -0.04679301381111145,
          -0.011111725121736526,
          0.05964045599102974,
          0.20105084776878357,
          0.14618831872940063,
          -0.10130368918180466,
          -0.20804886519908905,
          0.17258252203464508,
          0.0821148157119751,
          0.07462044060230255,
          -0.24007931351661682,
          0.14942848682403564,
          0.14778012037277222,
          -0.17122887074947357,
          -0.10060374438762665,
          -0.052526071667671204,
          -0.03175884857773781,
          0.010035638697445393,
          -0.212032288312912,
          -0.09292276948690414,
          -0.3419286608695984,
          0.2882758378982544,
          0.001966178184375167,
          -0.15810641646385193,
          0.1516978144645691,
          0.23426243662834167,
          0.09047150611877441,
          -0.28268980979919434,
          -0.04029456898570061,
          0.19904179871082306,
          -0.05330033227801323,
          0.10325432568788528,
          0.006775155197829008,
          -0.11358923465013504,
          -0.020343396812677383,
          0.09862375259399414,
          -0.01674574986100197,
          0.15738286077976227,
          0.08190900087356567,
          -0.017376789823174477,
          -0.045073531568050385,
          0.2135123610496521,
          -0.30204617977142334,
          -0.10015369951725006,
          -0.024350708350539207,
          -0.2432280033826828,
          0.19470727443695068,
          -0.03170241788029671,
          0.22109784185886383,
          -0.1215149462223053,
          -0.06294040381908417,
          0.1061411052942276,
          -0.20694664120674133,
          0.03323414921760559,
          0.04256981238722801,
          -0.05980028957128525,
          -0.01579056680202484,
          0.10697250068187714,
          0.0658760741353035,
          0.15366147458553314,
          0.1265137791633606,
          -0.09874856472015381,
          0.18519482016563416,
          -0.04148707911372185,
          -0.2341010868549347,
          -0.14579662680625916,
          -0.2430199533700943,
          -0.020777923986315727,
          0.013456130400300026,
          0.07016216963529587,
          -0.006017415784299374,
          -0.10810516029596329,
          -0.01689031347632408,
          -0.07984734326601028,
          -0.04537678882479668,
          0.014408466406166553,
          -0.09907832741737366,
          0.027847010642290115,
          0.01419202983379364,
          -0.12951457500457764,
          -0.2651499807834625,
          0.14797763526439667,
          -0.35863879323005676,
          0.13602954149246216,
          0.21514269709587097,
          -0.014807360246777534,
          0.42891064286231995,
          0.1197645291686058,
          0.173086479306221,
          -0.03534486144781113,
          -0.19180242717266083,
          -0.0038827676326036453,
          -0.05013752728700638,
          0.07900965958833694,
          0.005820444319397211,
          0.05129217728972435,
          0.3175085783004761,
          0.18823803961277008,
          -0.04237769544124603,
          0.08787661790847778,
          -0.20024853944778442,
          -0.04024992138147354,
          -0.07164042443037033,
          -0.18960948288440704,
          -0.04211169853806496,
          0.12446501851081848,
          0.09417108446359634,
          0.12755745649337769,
          0.1393895298242569,
          -0.11486750841140747,
          -0.09804730862379074,
          0.00996621698141098,
          0.024020830169320107,
          0.06633578985929489,
          0.01479463279247284,
          0.017101075500249863,
          -0.06135192885994911,
          -0.0981905460357666,
          0.27847573161125183,
          0.10602252185344696,
          0.07493723183870316,
          -0.12199755758047104,
          0.22015859186649323,
          0.11830098927021027,
          -0.25355660915374756,
          -0.12420308589935303,
          0.09690447896718979,
          0.18385696411132812,
          -0.08457133919000626,
          0.055451832711696625,
          0.013820454478263855,
          0.011291173286736012,
          0.1042209267616272,
          0.003502641338855028,
          -0.20976875722408295,
          0.2213851809501648,
          0.2726917564868927,
          -0.00883459486067295,
          -0.10490335524082184,
          0.0285451989620924,
          0.2233220785856247,
          -0.31016111373901367,
          -0.14827992022037506,
          0.0034641192760318518,
          0.0942874476313591,
          0.12280716747045517,
          0.08528058975934982,
          -0.0821438655257225,
          0.030083630234003067,
          0.013410576619207859,
          -0.10321992635726929,
          0.042669523507356644,
          0.07112684100866318,
          -0.0020944420248270035,
          -0.010815281420946121,
          -0.4029395878314972,
          0.06382312625646591,
          -0.12334251403808594,
          0.3111836612224579,
          -0.05423704534769058,
          0.13820849359035492,
          0.15527048707008362,
          -0.11237932741641998,
          0.23049049079418182,
          -0.1864853799343109,
          0.10155124962329865,
          -0.004797841422259808,
          0.005340768489986658,
          0.04584108293056488,
          -0.037419822067022324,
          -0.16657984256744385,
          0.12266557663679123,
          -0.050965629518032074,
          0.1506187915802002,
          -0.17512278258800507,
          0.11921703815460205,
          0.06890711933374405,
          -0.30142027139663696,
          0.1144215539097786,
          -0.26797136664390564,
          0.28837642073631287,
          -0.12056566774845123,
          -0.11103348433971405,
          -0.058804262429475784,
          -0.0532897487282753,
          -0.02781996876001358,
          0.03417588397860527,
          0.011695698834955692,
          -0.0020374020095914602,
          0.039041996002197266,
          0.12599895894527435,
          0.402449369430542,
          -0.01599765755236149,
          0.010397749952971935,
          0.218496635556221,
          0.04891923815011978,
          -0.2181786596775055,
          0.05558909848332405,
          0.06055963784456253,
          -0.2527066171169281,
          0.09190557897090912,
          0.22604472935199738,
          -0.18608005344867706,
          0.08250442147254944,
          0.15401987731456757,
          0.059858325868844986,
          0.25745704770088196,
          0.38721808791160583,
          0.2071944624185562,
          0.08949493616819382,
          -0.28116753697395325,
          0.23136313259601593,
          -0.09142757952213287,
          -0.3049428462982178,
          0.05410486087203026,
          -0.12043366581201553,
          -0.2886994183063507,
          0.14529702067375183,
          -0.05725301802158356,
          -0.29214873909950256,
          0.02360239438712597,
          0.05118370056152344,
          0.0661654844880104,
          -0.03945763781666756,
          0.005086962599307299,
          -0.010559339076280594,
          -0.07947676628828049,
          0.0361144132912159,
          0.019634170457720757,
          0.010661487467586994,
          -0.07383539527654648,
          -0.37910783290863037,
          0.02489556185901165,
          -0.14044451713562012,
          -0.3587002158164978,
          -0.026608973741531372,
          -0.2785697877407074,
          0.3363480269908905,
          0.00902414508163929,
          0.3065130114555359,
          0.26133716106414795,
          -0.04148832708597183,
          0.23003549873828888,
          0.06648782640695572,
          0.012503495439887047,
          0.0022629154846072197,
          -0.2360372543334961,
          0.4017610251903534,
          -0.1409827023744583,
          -0.15725792944431305,
          0.3176582157611847,
          -0.2508661150932312,
          0.13003255426883698,
          -0.33874595165252686,
          0.24643740057945251,
          0.15861070156097412,
          -0.4843922257423401,
          0.17463554441928864,
          -0.0780404582619667,
          0.05257479101419449,
          0.06357699632644653,
          -0.09113883972167969,
          -0.052750732749700546,
          0.022978724911808968,
          -0.023824330419301987,
          0.007674847729504108,
          -0.05204632133245468,
          -0.03493831306695938,
          -0.015903310850262642,
          0.14658400416374207,
          -0.17505896091461182,
          -0.22095972299575806,
          0.12578684091567993,
          0.41408297419548035,
          -0.05176525563001633,
          -0.022145969793200493,
          0.06498398631811142,
          0.09574250876903534,
          -0.052714042365550995,
          -0.2743180990219116,
          0.1574932485818863,
          0.012241411954164505,
          -0.0493738129734993,
          -0.013215086422860622,
          -0.25121232867240906,
          -0.12480618059635162,
          0.09449408203363419,
          -0.14811860024929047,
          0.010327084921300411,
          -0.05149620771408081,
          0.3560597598552704,
          0.15025238692760468,
          -0.2869713008403778,
          0.04827827587723732,
          0.10611539334058762,
          0.17722105979919434,
          0.05767354741692543,
          -0.03326192498207092,
          0.03388823941349983,
          0.0041984147392213345,
          -0.032338522374629974,
          0.004425623454153538,
          0.09298502653837204,
          0.12569960951805115,
          0.026501977816224098,
          0.02766484208405018,
          -0.0243422482162714,
          0.318009614944458,
          -0.10017792135477066,
          0.29312416911125183,
          0.21469582617282867,
          0.025913450866937637,
          0.2804846167564392,
          -0.1747259497642517,
          -0.03809743747115135,
          -0.12326658517122269,
          -0.29540377855300903,
          0.09124886244535446,
          -0.18742689490318298,
          0.024504519999027252,
          0.027376588433980942,
          0.017884498462080956,
          0.2166946679353714,
          -0.3234401345252991,
          0.09564727544784546,
          0.2259884923696518,
          -0.39560142159461975,
          0.24010317027568817,
          -0.3662779629230499,
          0.4135342240333557,
          -0.2668960690498352,
          -0.30841439962387085,
          0.32514524459838867,
          -0.12216504663228989,
          0.08513327687978745,
          -0.07085974514484406,
          -0.08754945546388626,
          0.1616547703742981,
          0.10283739864826202,
          0.06931069493293762,
          0.05098269134759903,
          -0.09584524482488632,
          -0.09766165167093277,
          -0.1357984095811844,
          0.1550614982843399,
          0.112726129591465,
          -0.19389699399471283,
          -0.05879853665828705,
          0.061153434216976166,
          -0.15615427494049072,
          0.06732127070426941,
          -0.0007971871527843177,
          -0.15762051939964294,
          -0.004143104422837496,
          0.06821812689304352,
          -0.18108414113521576,
          -0.1364116072654724,
          -0.14883768558502197,
          -0.11583010107278824,
          -0.10120783746242523,
          0.11179858446121216,
          0.1645779013633728,
          0.16896618902683258,
          -0.13834619522094727,
          0.08144258707761765,
          0.28411146998405457,
          0.08397039026021957,
          0.1129014790058136,
          0.26449617743492126,
          0.031512148678302765,
          0.05713058263063431,
          0.2605654001235962,
          -0.0005781420622952282,
          0.05220670625567436,
          -0.04195799306035042,
          -0.027695588767528534,
          -0.008492004126310349,
          0.0633997917175293,
          0.042706772685050964,
          -0.07896974682807922,
          -0.17546877264976501,
          -0.06395617872476578,
          -0.13162221014499664,
          -0.21675118803977966,
          -0.23145969212055206,
          0.28130608797073364,
          0.22291705012321472,
          -0.17581868171691895,
          -0.2695787250995636,
          -0.14152312278747559,
          -0.2342355102300644,
          0.39480462670326233,
          0.21721918880939484,
          -0.2766956388950348,
          -0.23675531148910522,
          0.12037577480077744,
          -0.15055355429649353,
          0.016046827659010887,
          0.3617532253265381,
          0.17281140387058258,
          0.07965931296348572,
          -0.2625206410884857,
          -0.025176141411066055,
          0.3794914186000824,
          0.23780421912670135,
          0.21703453361988068,
          0.04241568595170975,
          -0.29063907265663147,
          -0.06133276969194412,
          0.2566142678260803,
          0.11068615317344666,
          0.016550743952393532,
          0.022649796679615974,
          -0.06310535222291946,
          -0.047914162278175354,
          0.008661351166665554,
          0.13066045939922333,
          0.12255622446537018,
          -0.10843349248170853,
          -0.1927070915699005,
          0.09746965765953064,
          0.05274273827672005,
          -0.08093449473381042,
          -0.08985564857721329,
          -0.05803625285625458,
          -0.10614566504955292,
          -0.27932801842689514,
          0.15265002846717834,
          -0.22077859938144684,
          -0.1549060344696045,
          0.07094959914684296,
          0.026936160400509834,
          -0.22549867630004883,
          -0.10443105548620224,
          -0.14933934807777405,
          -0.16237464547157288,
          -0.2490634024143219,
          -0.07336683571338654,
          0.24921183288097382,
          -0.1381140649318695,
          -0.25484251976013184,
          0.10235777497291565,
          -0.22197598218917847,
          -0.07982704788446426,
          0.024625811725854874,
          -0.16827432811260223,
          -0.1029127836227417,
          0.20531335473060608,
          0.0761764869093895,
          0.06013312190771103,
          0.06230955198407173,
          -0.05683881416916847,
          0.036502592265605927,
          -0.004809246864169836,
          -0.07693172991275787,
          0.1339116245508194,
          0.05738074705004692,
          -0.012563548982143402,
          -0.048692766577005386,
          0.21522480249404907,
          -0.04071276634931564,
          0.2401571422815323,
          -0.206597700715065,
          0.03458728641271591,
          -0.31586161255836487,
          -0.3631363809108734,
          0.04410149157047272,
          -0.3452545404434204,
          0.3927164077758789,
          -0.02680603228509426,
          0.30497488379478455,
          0.0384228378534317,
          0.02853134460747242,
          -0.042387377470731735,
          0.265384316444397,
          -0.3559589087963104,
          0.19640900194644928,
          -0.19755896925926208,
          0.3564096689224243,
          -0.2054407149553299,
          -0.1784520298242569,
          0.26182976365089417,
          -0.16034837067127228,
          0.21255721151828766,
          -0.23869165778160095,
          0.16373874247074127
        ],
        "bias": [
          -0.020335840061306953,
          0.04291796311736107,
          0.07523403316736221,
          0.07769525051116943,
          0.0008016024949029088,
          -0.09652875363826752,
          0.09313411265611649,
          -0.0389254093170166,
          -0.052499279379844666,
          -0.12063229829072952,
          0.08319756388664246,
          -0.058646492660045624,
          0.02825487032532692,
          0.1857445240020752,
          0.08246217668056488,
          -0.06314121931791306,
          -0.04046226292848587,
          -0.06523782759904861,
          -0.053422123193740845,
          -0.02157234400510788,
          -0.029380369931459427,
          0.0468212254345417,
          0.04082592576742172,
          -0.0001353173138340935,
          0.055920522660017014,
          0.194930762052536,
          -0.13125750422477722,
          0.11345499753952026,
          -0.0010461745550855994,
          -0.08679171651601791,
          -0.15036721527576447,
          0.023603515699505806,
          0.08049555867910385,
          -0.12202651053667068,
          -0.04208584502339363,
          0.06558451056480408,
          -0.08625640720129013,
          -0.00631995964795351,
          -0.03402592986822128,
          0.0954873189330101,
          -0.021603336557745934,
          0.06619490683078766,
          -0.047128427773714066,
          0.1559809148311615,
          0.09958288818597794,
          -0.11939755082130432,
          0.18430647253990173,
          -0.022911489009857178,
          0.08441033214330673,
          -0.06402667611837387,
          0.03802644461393356,
          -0.005494613200426102,
          -0.05474869906902313,
          0.07714950293302536,
          -0.09439720958471298,
          -0.061096712946891785,
          0.062261100858449936,
          -0.008737201802432537,
          0.0699988305568695,
          -0.09914326667785645,
          -0.11052177846431732,
          -0.016137620434165,
          -0.12236570566892624,
          -0.08693370223045349
        ]
      },
      {
        "in_features": 64,
        "out_features": 64,
        "weights": [
          0.15966789424419403,
          -0.3869543671607971,
          -0.14781655371189117,
          0.30328255891799927,
          -0.04321848973631859,
          -0.05200536549091339,
          0.27003878355026245,
          0.04095940291881561,
          -0.044891588389873505,
          -0.0225035659968853,
          0.11428282409906387,
          0.22420740127563477,
          0.07128424942493439,
          0.017631296068429947,
          -0.11055917292833328,
          -0.029983170330524445,
          -0.008815892040729523,
          0.11036459356546402,
          -0.09038162231445312,
          0.007243453525006771,
          -0.15229098498821259,
          0.030706359073519707,
          -0.051451969891786575,
          -0.04504853114485741,
          0.22043447196483612,
          -0.003918649163097143,
          -0.008133327588438988,
          0.007707433775067329,
          0.003078992245718837,
          -0.01119361724704504,
          0.01634751260280609,
          -0.04739879444241524,
          0.016277356073260307,
          0.1532464623451233,
          0.33640623092651367,
          -0.03535524383187294,
          0.08797429502010345,
          -0.21574345231056213,
          -0.22176481783390045,
          0.011951633729040623,
          0.0658528283238411,
          0.003016067435964942,
          -0.12879425287246704,
          -0.19329354166984558,
          -0.25916045904159546,
          -0.1571769118309021,
          -0.012313772924244404,
          -0.07431311905384064,
          -0.338472843170166,
          0.27960124611854553,
          0.08051211386919022,
          0.12169957906007767,
          0.047358445823192596,
          0.15217384696006775,
          -0.03884619101881981,
          0.023356515914201736,
          0.1471976488828659,
          0.005414558108896017,
          0.011393936350941658,
          -0.002504092175513506,
          0.09192115068435669,
          -0.008250389248132706,
          0.10619606822729111,
          -0.0010834253625944257,
          0.31853315234184265,
          -0.07870850712060928,
          -0.05681835860013962,
          0.01647249422967434,
          -0.018470941111445427,
          0.04724663868546486,
          0.20088177919387817,
          0.0009210174903273582,
          -0.0693904384970665,
          -0.010122525505721569,
          1.541110634803772,
          0.4431052505970001,
          -0.04059730842709541,
          0.01572340913116932,
          0.04320862889289856,
          -0.021268505603075027,
          0.006215247325599194,
          0.01354848500341177,
          -0.17507244646549225,
          0.03767474368214607,
          -0.03470873087644577,
          -0.031948499381542206,
          -0.01652839221060276,
          -0.04075225815176964,
          0.19934393465518951,
          0.2033013254404068,
          0.13063113391399384,
          -0.227415069937706,
          1.2623997926712036,
          -0.0045103165321052074,
          0.04722397401928902,
          -0.005156964994966984,
          -0.013506700284779072,
          0.147495299577713,
          0.02728530950844288,
          0.00729089230298996,
          0.008602234534919262,
          -0.028303250670433044,
          -0.19303229451179504,
          -0.008906101807951927,
          -0.06355743855237961,
          0.009783660992980003,
          -0.24762114882469177,
          -0.1917848140001297,
          -0.18280157446861267,
          -0.07132455706596375,
          -0.021305544301867485,
          0.33319970965385437,
          -0.13172994554042816,
          0.07676202058792114,
          0.03364858031272888,
          -0.3346104025840759,
          0.07989416271448135,
          0.049777377396821976,
          0.3716936409473419,
          -0.013584836386144161,
          0.058575719594955444,
          0.007958201691508293,
          -0.025423627346754074,
          -0.0015592476120218635,
          -0.004676368553191423,
          -0.11972906440496445,
          0.008735602721571922,
          0.002326829358935356,
          -0.0016429685056209564,
          0.003629534738138318,
          0.44144096970558167,
          -0.3115431070327759,
          0.02130609005689621,
          -0.20379965007305145,
          -0.03750896826386452,
          -0.025230901315808296,
          0.030590182170271873,
          -1.6874010562896729,
          -0.1107858270406723,
          -0.04815886542201042,
          0.0674070492386818,
          0.00981948897242546,
          -0.06991811096668243,
          0.2962230145931244,
          -0.025094958022236824,
          -0.13963298499584198,
          0.014734041877090931,
          -0.10247833281755447,
          0.2981899678707123,
          -0.005436398554593325,
          0.0643410012125969,
          -0.035724032670259476,
          0.3869873583316803,
          -0.049233417958021164,
          -0.288876473903656,
          0.04997202381491661,
          -0.620797336101532,
          0.03712574020028114,
          0.004947822540998459,
          0.12490256130695343,
          0.022754056379199028,
          -0.11014106869697571,
          -0.10482800006866455,
          -0.024538500234484673,
          0.07423631101846695,
          0.37041786313056946,
          -0.14587849378585815,
          -0.24833105504512787,
          -0.0025356458500027657,
          -0.6455180644989014,
          4.639116377802566e-05,
          -0.2992718517780304,
          0.22807449102401733,
          -0.0019507660763338208,
          -0.008852772414684296,
          0.12027527391910553,
          0.041081782430410385,
          0.14643804728984833,
          0.07506005465984344,
          0.043300941586494446,
          -0.028222372755408287,
          0.10202513635158539,
          -0.015047602355480194,
          0.028215020895004272,
          -0.43852096796035767,
          -7.968105316162109,
          -0.005623448174446821,
          0.02822900377213955,
          0.4349324405193329,
          -0.498407244682312,
          -0.6060563325881958,
          -0.0018420580308884382,
          0.13838031888008118,
          0.07052826881408691,
          -0.038950368762016296,
          -0.0215783528983593,
          0.14009639620780945,
          0.2284977287054062,
          -0.10030670464038849,
          -0.4157285988330841,
          0.12594205141067505,
          -0.10637485235929489,
          1.2216347455978394,
          0.1996467113494873,
          0.03147932514548302,
          0.15069815516471863,
          -0.32208994030952454,
          0.07607899606227875,
          0.22107823193073273,
          -0.026815583929419518,
          0.040918365120887756,
          -0.24968376755714417,
          0.042831700295209885,
          0.12216438353061676,
          0.140999898314476,
          -0.3718963861465454,
          0.1661670207977295,
          0.202192485332489,
          -0.146833598613739,
          -0.16089139878749847,
          0.2673802673816681,
          0.00919706467539072,
          -0.06418167054653168,
          -0.016894768923521042,
          0.134901762008667,
          0.13250844180583954,
          -0.09666953980922699,
          0.14087215065956116,
          0.1688680350780487,
          0.0798986554145813,
          0.032451532781124115,
          0.10409453511238098,
          -0.0855962485074997,
          0.017151599749922752,
          0.04043188318610191,
          0.2723970413208008,
          -0.11852238327264786,
          -0.10517668724060059,
          -0.04187814146280289,
          -0.4792155623435974,
          -0.088166244328022,
          0.20230475068092346,
          0.15277916193008423,
          0.05555056780576706,
          -0.012266550213098526,
          0.09346616268157959,
          0.04772188887000084,
          0.07133421301841736,
          0.013445064425468445,
          -0.5552918910980225,
          0.09776929765939713,
          -0.637561559677124,
          0.086582712829113,
          0.22539910674095154,
          0.11837345361709595,
          0.20111188292503357,
          -0.008489594794809818,
          0.027625586837530136,
          0.17310532927513123,
          0.16138342022895813,
          -0.16107536852359772,
          -0.20260563492774963,
          0.24434338510036469,
          0.22693632543087006,
          -0.20738302171230316,
          0.016390731558203697,
          2.1673240661621094,
          -0.05213034898042679,
          0.06432775408029556,
          0.04129624366760254,
          0.06691135466098785,
          -0.31344616413116455,
          -0.22815290093421936,
          0.10799393057823181,
          0.1281881481409073,
          0.17714938521385193,
          -0.021046098321676254,
          0.07646450400352478,
          0.1078835129737854,
          0.018339011818170547,
          -0.2517731189727783,
          -0.012228632345795631,
          0.13542789220809937,
          0.04633169248700142,
          1.4268336296081543,
          0.029615717008709908,
          -0.08126426488161087,
          -0.24986693263053894,
          0.3448086380958557,
          0.2487512081861496,
          1.2259091138839722,
          -0.16955770552158356,
          -0.05091485381126404,
          -0.1061689704656601,
          -0.005488757509738207,
          -0.042415495961904526,
          0.07536795735359192,
          0.06535491347312927,
          -0.0011046197032555938,
          -0.012590267695486546,
          0.2037491500377655,
          -0.0659155324101448,
          0.0629669800400734,
          0.17149093747138977,
          0.15828834474086761,
          -0.19207628071308136,
          -0.03067520260810852,
          -0.0014762724749743938,
          -0.0477171316742897,
          0.021202094852924347,
          -0.06548234820365906,
          0.005132985766977072,
          0.0021167139057070017,
          0.08956173807382584,
          -0.08876628428697586,
          0.05760659649968147,
          -0.048887986689805984,
          0.09444763511419296,
          -0.06468100100755692,
          -0.3658668100833893,
          0.2661748230457306,
          -0.06137015298008919,
          -0.1875719577074051,
          -0.058180440217256546,
          -0.07906557619571686,
          0.33041852712631226,
          0.03519051894545555,
          0.027836408466100693,
          -0.03561713919043541,
          0.007535648997873068,
          -0.5285009145736694,
          -0.05825303494930267,
          -0.027418168261647224,
          0.028496623039245605,
          0.14466096460819244,
          -0.0015279664658010006,
          0.009860094636678696,
          -0.20405292510986328,
          -0.07009254395961761,
          -0.15506719052791595,
          -0.022768886759877205,
          0.280664324760437,
          0.015486175194382668,
          -0.020239053294062614,
          0.13529686629772186,
          -0.04967872425913811,
          0.25315117835998535,
          0.06188290938735008,
          -0.5032542943954468,
          0.010838297195732594,
          -0.0025095611345022917,
          -0.03543490916490555,
          0.003495921613648534,
          -0.15863639116287231,
          -1.7589963674545288,
          0.019614428281784058,
          -0.025974303483963013,
          0.0031022517941892147,
          0.009876372292637825,
          0.0176024679094553,
          -0.17743387818336487,
          -0.019493015483021736,
          -0.06647244095802307,
          0.006535444874316454,
          -0.06852754950523376,
          -0.050071701407432556,
          -0.00025310489581897855,
          -0.37884148955345154,
          0.3081587553024292,
          -0.22068315744400024,
          0.006574783939868212,
          -0.32657742500305176,
          0.10950235277414322,
          -0.023767095059156418,
          0.2846176326274872,
          -0.002593264216557145,
          -0.11625741422176361,
          0.008002911694347858,
          0.2877492904663086,
          0.011362249031662941,
          -0.09634967148303986,
          -0.1709362268447876,
          0.08048684149980545,
          0.006070318166166544,
          -0.050212230533361435,
          -0.06266579777002335,
          -0.12146760523319244,
          0.0024749068543314934,
          0.003206150606274605,
          0.04683399200439453,
          0.021977541968226433,
          0.21406760811805725,
          0.11402721703052521,
          0.21158215403556824,
          -3.9363584518432617,
          0.022943967953324318,
          0.08367892354726791,
          0.15803538262844086,
          0.1424257457256317,
          0.07931087166070938,
          0.021222949028015137,
          0.024452921003103256,
          -0.03091486543416977,
          0.21381640434265137,
          0.0053148712031543255,
          -0.025277165696024895,
          0.15825489163398743,
          0.13467299938201904,
          -0.020633887499570847,
          0.1693914532661438,
          0.03756212070584297,
          0.13397248089313507,
          -1.826521396636963,
          0.04031677916646004,
          -0.06601958721876144,
          0.08738596737384796,
          0.12078038603067398,
          -0.05023840814828873,
          0.2004142552614212,
          0.05749491602182388,
          0.17450280487537384,
          -0.046183038502931595,
          -0.0693734809756279,
          0.019875720143318176,
          -0.03341322019696236,
          -0.028180358931422234,
          -0.16683760285377502,
          0.024962682276964188,
          -0.10721153020858765,
          0.17059366405010223,
          0.23261979222297668,
          -0.015505262650549412,
          0.04974554851651192,
          -0.06742357462644577,
          0.2123004049062729,
          -0.20123161375522614,
          0.1896679699420929,
          0.20475924015045166,
          -0.002577465260401368,
          0.09404405951499939,
          -0.07322331517934799,
          0.13195669651031494,
          0.04093518853187561,
          0.1364412009716034,
          -0.13477884232997894,
          0.06339722126722336,
          0.020261863246560097,
          0.13159890472888947,
          0.0355181060731411,
          -0.10495582222938538,
          0.1588929444551468,
          0.33868837356567383,
          -0.2961956858634949,
          -0.2484554797410965,
          0.23675140738487244,
          -0.026517735794186592,
          -0.4210487902164459,
          -0.0038796374574303627,
          0.009973079897463322,
          -0.17306075990200043,
          -0.0728764459490776,
          -0.0930786207318306,
          0.04348287358880043,
          0.24062052369117737,
          0.007276782765984535,
          0.3688367009162903,
          0.027887970209121704,
          0.013587754219770432,
          0.03345917910337448,
          -0.05045120045542717,
          0.031675297766923904,
          0.07603633403778076,
          -0.14712759852409363,
          0.03235095366835594,
          0.263485312461853,
          -0.014907033182680607,
          -0.6319907307624817,
          -0.017703814432024956,
          -0.06821154803037643,
          0.14350561797618866,
          0.14674103260040283,
          0.045309919863939285,
          0.629172682762146,
          -0.23450914025306702,
          -0.1093144342303276,
          -0.10425788909196854,
          -0.02182844467461109,
          0.08225786685943604,
          0.12802830338478088,
          -0.0632503405213356,
          0.06809435039758682,
          -0.11071419715881348,
          0.25174087285995483,
          -0.1000354140996933,
          0.14701618254184723,
          0.440187007188797,
          0.32198652625083923,
          -0.07418728619813919,
          -0.2891751229763031,
          -0.09653399139642715,
          0.041160162538290024,
          -0.031872138381004333,
          0.07057663053274155,
          -0.14357297122478485,
          0.10334841907024384,
          -0.004394304472953081,
          0.05971198529005051,
          0.0034051674883812666,
          0.060040730983018875,
          -0.2156902402639389,
          0.09095127135515213,
          -0.16434445977210999,
          0.1367124319076538,
          0.15007677674293518,
          -0.0002174414839828387,
          -0.044271934777498245,
          -0.010603813454508781,
          -0.0002715125447139144,
          -0.06894394010305405,
          -0.014322462491691113,
          0.007942507043480873,
          -0.033647991716861725,
          0.846215009689331,
          0.30930987000465393,
          0.08127392083406448,
          -0.04066914692521095,
          -0.05744186416268349,
          0.08135659247636795,
          -0.07280123978853226,
          0.07272323220968246,
          0.11651448905467987,
          -0.02467111311852932,
          0.09076473116874695,
          0.059536807239055634,
          0.01901986636221409,
          -0.03454316779971123,
          0.030127083882689476,
          -0.014581098221242428,
          -0.04416321590542793,
          -0.01926574297249317,
          0.526390552520752,
          -0.038369107991456985,
          -0.02019437402486801,
          0.1598137468099594,
          -0.09769413620233536,
          0.16411295533180237,
          0.3021296262741089,
          -0.0353148952126503,
          0.021026035770773888,
          0.013746566139161587,
          0.17159442603588104,
          -0.012178590521216393,
          0.004287757910788059,
          -0.032513782382011414,
          0.17934761941432953,
          0.043328724801540375,
          -0.05510888993740082,
          -0.03392750769853592,
          0.23035746812820435,
          0.5666195154190063,
