{
  "model": {
    "input": 3,
    "output": 3,
    "layers": [
      {
        "type": "linear",
        "in_features": 3,
        "out_features": 32,
        "weights": [
          -0.035389527678489685,
          0.09766484797000885,
          0.09259241074323654,
          -0.25393572449684143,
          0.5581950545310974,
          -0.17654070258140564,
          -2.114706039428711,
          0.004310126416385174,
          0.005293960217386484,
          0.07697853446006775,
          0.575312614440918,
          0.006359402555972338,
          0.31214040517807007,
          0.6127387881278992,
          -0.09821049124002457,
          0.02859778329730034,
          -0.11006175726652145,
          0.15768089890480042,
          -0.4405171275138855,
          0.6591448783874512,
          -0.20501472055912018,
          -0.34918418526649475,
          0.27468812465667725,
          -0.03378493711352348,
          -0.025794677436351776,
          0.6366917490959167,
          0.7680941224098206,
          -0.47321099042892456,
          -0.012013171799480915,
          0.4877617061138153,
          0.78968346118927,
          -0.676253080368042,
          0.2416285276412964,
          -0.011045931838452816,
          -0.19779819250106812,
          0.7529917359352112,
          0.07673751562833786,
          0.4105908274650574,
          -0.4637024700641632,
          0.660705029964447,
          0.0663791075348854,
          -0.030043691396713257,
          0.1380559802055359,
          0.6614915132522583,
          -0.19225603342056274,
          -0.20109373331069946,
          -0.3343663811683655,
          0.215805321931839,
          0.0692564845085144,
          -0.2628324329853058,
          -0.29549792408943176,
          -0.014195537194609642,
          0.026044951751828194,
          -0.5338191390037537,
          0.3633602261543274,
          -0.12449386715888977,
          0.6815191507339478,
          0.670272171497345,
          0.6181126832962036,
          0.2540103793144226,
          -0.21922406554222107,
          -0.4174228310585022,
          0.22794467210769653,
          0.6894897818565369,
          0.739171028137207,
          0.3311280608177185,
          0.4481859505176544,
          0.3217098116874695,
          -0.5297654867172241,
          0.4200418293476105,
          0.7975730895996094,
          0.3266148865222931,
          0.10456569492816925,
          0.07395927608013153,
          0.24279753863811493,
          -0.47449588775634766,
          0.19446979463100433,
          -0.19904448091983795,
          -0.3835395574569702,
          0.3415692150592804,
          0.3147244453430176,
          0.7366759777069092,
          0.23678827285766602,
          0.7496079206466675,
          -0.036568786948919296,
          -0.10311176627874374,
          -0.09269406646490097,
          -0.2924537658691406,
          0.41084814071655273,
          0.5564101338386536,
          0.2851350009441376,
          0.06481784582138062,
          -0.4099087715148926,
          0.4836876690387726,
          0.11276551336050034,
          0.19913609325885773
        ],
        "bias": [
          -0.24438872933387756,
          0.39313197135925293,
          0.29522109031677246,
          -0.006404291372746229,
          0.06986910849809647,
          -0.185386061668396,
          0.5882948040962219,
          0.3673892021179199,
          0.1705598384141922,
          0.4750901758670807,
          0.6459088325500488,
          0.19725582003593445,
          -0.46579790115356445,
          0.0062837013974785805,
          0.17089524865150452,
          0.5118039846420288,
          0.6682941913604736,
          -0.39083409309387207,
          0.6915429830551147,
          -0.06760522723197937,
          -0.376132607460022,
          -0.07120387256145477,
          0.4860636591911316,
          -0.050597772002220154,
          -0.4298194944858551,
          -0.5718768835067749,
          0.35253846645355225,
          -0.06141484156250954,
          -0.004717094358056784,
          0.25628477334976196,
          0.3883672058582306,
          0.3707459568977356
        ]
      },
      {
        "type": "sigmoid"
      },
      {
        "type": "linear",
        "in_features": 32,
        "out_features": 32,
        "weights": [
          -0.05645405873656273,
          -0.0761338323354721,
          -0.17102664709091187,
          -0.02991119585931301,
          0.012434563599526882,
          -0.16365106403827667,
          0.06497208774089813,
          -0.09883728623390198,
          -0.1425294131040573,
          -0.05437668412923813,
          -0.06439109146595001,
          -0.13722969591617584,
          0.003301362507045269,
          0.05816321820020676,
          -0.0862395316362381,
          -0.16345050930976868,
          -0.143509179353714,
          0.09457135200500488,
          -0.09518730640411377,
          -0.014563295058906078,
          0.16081669926643372,
          0.023320799693465233,
          -0.14110134541988373,
          -0.03606849163770676,
          -0.041808389127254486,
          -0.10766945779323578,
          -0.018765462562441826,
          -0.015949653461575508,
          -0.14025568962097168,
          0.002149510197341442,
          0.018266085535287857,
          0.15241147577762604,
          0.026196204125881195,
          -0.12603773176670074,
          -0.1717313826084137,
          0.09901326894760132,
          0.14037376642227173,
          -0.1669980138540268,
          -0.06658373773097992,
          0.11603885143995285,
          -0.13862447440624237,
          -0.13247641921043396,
          -0.13001565635204315,
          -0.11222413927316666,
          0.0734081119298935,
          -0.11669929325580597,
          0.01889006979763508,
          0.16009986400604248,
          0.008975150063633919,
          0.025373181328177452,
          -0.06878114491701126,
          0.07034091651439667,
          0.14039041101932526,
          0.08145838975906372,
          0.00836775079369545,
          -0.07590208947658539,
          -0.10241412371397018,
          -0.10606227070093155,
          -0.12361603230237961,
          0.15027973055839539,
          -0.026053348556160927,
          0.012432540766894817,
          -0.14367780089378357,
          0.005098377820104361,
          0.08002788573503494,
          0.30396559834480286,
          1.4417939186096191,
          0.4207068681716919,
          -0.07569792866706848,
          0.13240893185138702,
          0.20912277698516846,
          0.3513682782649994,
          0.29150891304016113,
          0.1288730800151825,
          -0.2877892255783081,
          0.030873563140630722,
          -0.02241682820022106,
          -0.1338168829679489,
          0.19719751179218292,
          0.2609425187110901,
          0.09764029830694199,
          -0.0009736553765833378,
          0.17404887080192566,
          -0.04973055049777031,
          -0.0005026643630117178,
          0.030009590089321136,
          -0.22581322491168976,
          0.17668257653713226,
          -0.08945479243993759,
          -0.13665683567523956,
          0.3663114011287689,
          0.011006050743162632,
          -0.08848492801189423,
          0.2432280331850052,
          -0.006049819756299257,
          0.005472469609230757,
          0.11329793184995651,
          -0.3172501027584076,
          -0.29275619983673096,
          -0.3291304111480713,
          -0.03359181806445122,
          -0.0840529054403305,
          -0.20897768437862396,
          -0.05396188050508499,
          0.17263585329055786,
          0.23198464512825012,
          0.24992066621780396,
          0.11459533870220184,
          0.13621725142002106,
          0.09749548882246017,
          -0.2759600579738617,
          0.3944300711154938,
          0.04414728283882141,
          -0.1310524344444275,
          0.2787979543209076,
          0.13866211473941803,
          0.028049128130078316,
          0.3065083920955658,
          -0.30043351650238037,
          -0.07673978805541992,
          0.11418865621089935,
          -0.06311248242855072,
          0.002196161076426506,
          0.28716883063316345,
          -0.1339704543352127,
          0.33226528763771057,
          -0.011552566662430763,
          0.30996525287628174,
          0.025621594861149788,
          0.05107658728957176,
          -0.5359700322151184,
          0.3726117014884949,
          0.32568681240081787,
          0.035526566207408905,
          0.17354878783226013,
          -0.22056446969509125,
          0.08704341948032379,
          -0.012643913738429546,
          -0.14298014342784882,
          -0.202079638838768,
          0.030084051191806793,
          0.17236855626106262,
          0.3079432249069214,
          -0.20897242426872253,
          -0.07944786548614502,
          0.08396878838539124,
          0.21056127548217773,
          0.2877696752548218,
          -0.16134990751743317,
          0.2359437346458435,
          0.15971536934375763,
          0.38691699504852295,
          0.1633651703596115,
          0.05313299223780632,
          -0.10690558701753616,
          0.02233484946191311,
          0.09592574089765549,
          0.32425302267074585,
          -0.2117830514907837,
          0.18730098009109497,
          0.1312953531742096,
          0.3057768642902374,
          0.7546960115432739,
          0.2977529466152191,
          -0.09174457937479019,
          0.05634256824851036,
          0.11526838690042496,
          0.3324228823184967,
          0.25381675362586975,
          0.37139952182769775,
          -0.09134765714406967,
          0.15547801554203033,
          -0.060171112418174744,
          -0.04114644601941109,
          0.09325588494539261,
          0.12049750983715057,
          -0.2833242416381836,
          -0.1670437455177307,
          0.11209798604249954,
          -0.04253252223134041,
          0.12340632826089859,
          0.25468960404396057,
          -0.2545583248138428,
          0.38048386573791504,
          -0.15070614218711853,
          0.13206559419631958,
          0.3557991683483124,
          0.1218687891960144,
          -0.10822992026805878,
          0.3338566720485687,
          -0.13017334043979645,
          0.001961426343768835,
          0.007868627086281776,
          0.018060171976685524,
          0.9629849195480347,
          -0.17397017776966095,
          -0.06281611323356628,
          -0.012628165073692799,
          0.21094316244125366,
          0.16080772876739502,
          0.01486295647919178,
          0.41803959012031555,
          0.37828993797302246,
          0.08394914120435715,
          -0.17270338535308838,
          -0.3175686001777649,
          -0.07931988686323166,
          0.2960275709629059,
          0.2606334388256073,
          -0.11732972413301468,
          0.2270403504371643,
          -0.2524421513080597,
          -0.1316111981868744,
          -0.25435197353363037,
          -0.12205721437931061,
          -0.1632753163576126,
          -0.07744017243385315,
          0.11186325550079346,
          0.13761498034000397,
          0.04707140848040581,
          0.10308396071195602,
          0.17138473689556122,
          -0.2727625072002411,
          0.34016767144203186,
          -0.0028394751716405153,
          0.30159470438957214,
          1.5151076316833496,
          0.04771615192294121,
          -0.10828469693660736,
          -0.07947392016649246,
          0.12528668344020844,
          0.3491142988204956,
          0.2953434884548187,
          0.16567720472812653,
          -0.028739605098962784,
          0.3692454397678375,
          -0.04734470695257187,
          -0.31371620297431946,
          -0.06556689739227295,
          0.20641088485717773,
          0.18863818049430847,
          0.1698051393032074,
          0.36829739809036255,
          -0.16071873903274536,
          0.0317421592772007,
          0.02897251956164837,
          -0.25962764024734497,
          -0.0248777624219656,
          0.040371596813201904,
          -0.1502590924501419,
          0.08395877480506897,
          0.11320821195840836,
          -0.15388484299182892,
          0.22681263089179993,
          -0.2921432554721832,
          -0.16256597638130188,
          0.019695790484547615,
          0.08136439323425293,
          0.02581056021153927,
          0.15834257006645203,
          0.15040016174316406,
          -0.10251611471176147,
          -0.1125941351056099,
          0.060554008930921555,
          -0.041063886135816574,
          0.005854567512869835,
          0.000863694294821471,
          0.07831504195928574,
          0.02575267292559147,
          0.10862791538238525,
          0.031122522428631783,
          0.007672287989407778,
          0.11482658237218857,
          0.05664974823594093,
          -0.07726786285638809,
          -0.17964966595172882,
          0.018758045509457588,
          -0.07986171543598175,
          0.0942441076040268,
          -0.11336018145084381,
          -0.170218825340271,
          0.17616643011569977,
          0.0636473298072815,
          0.045903660356998444,
          -0.12689855694770813,
          -0.06795666366815567,
          0.07549459487199783,
          -0.11792290955781937,
          0.12413167953491211,
          -0.026413829997181892,
          0.0849616602063179,
          0.13763131201267242,
          0.10619408637285233,
          -0.0667712464928627,
          -0.003747381502762437,
          0.04536014422774315,
          -0.08941801637411118,
          -0.0678524598479271,
          -0.16995760798454285,
          -0.14294081926345825,
          -0.11044088006019592,
          0.10128041356801987,
          0.0016124119283631444,
          0.04940369352698326,
          -0.06168287992477417,
          0.16622763872146606,
          -0.06949475407600403,
          -0.16246271133422852,
          -0.1203061118721962,
          0.049511417746543884,
          -0.14668771624565125,
          0.07490042597055435,
          -0.020963968709111214,
          0.11238623410463333,
          0.04629945009946823,
          0.06317993998527527,
          0.13482119143009186,
          0.06800433993339539,
          0.07210059463977814,
          -0.04599175602197647,
          -0.1619596928358078,
          -0.08724682033061981,
          0.0050563993863761425,
          -0.07742314785718918,
          -0.0451311394572258,
          -0.023434637114405632,
          0.10925238579511642,
          -0.0309983529150486,
          -0.057284098118543625,
          -0.1470685452222824,
          -0.08140172809362411,
          -0.14421840012073517,
          0.09042410552501678,
          -0.1331520527601242,
          0.08599215000867844,
          0.054937656968832016,
          0.058107417076826096,
          -0.03353005275130272,
          -0.069412462413311,
          -0.12892906367778778,
          -0.015904365107417107,
          -0.09371524304151535,
          0.07410553842782974,
          -0.12381257861852646,
          0.06156973913311958,
          0.06443998217582703,
          -0.03587929531931877,
          0.11207527667284012,
          0.042471885681152344,
          0.09604187309741974,
          -0.024067409336566925,
          0.15071021020412445,
          0.15364201366901398,
          0.04718116670846939,
          -0.8064520359039307,
          0.3361811637878418,
          0.2122841328382492,
          -0.05767396092414856,
          0.23877377808094025,
          -0.21375593543052673,
          0.040128108114004135,
          -0.15881110727787018,
          0.2820718288421631,
          -0.3307696580886841,
          0.06678041815757751,
          0.3393124043941498,
          0.31414705514907837,
          -0.0027269013226032257,
          0.2654650807380676,
          -0.15014471113681793,
          0.13787049055099487,
          0.35030174255371094,
          0.008491368032991886,
          0.2130659967660904,
          0.2573838233947754,
          0.25634637475013733,
          0.04236244782805443,
          0.06369037926197052,
          -0.024985872209072113,
          0.06927622109651566,
          0.16427601873874664,
          -0.22181378304958344,
          0.41595640778541565,
          0.12691280245780945,
          -0.06240767985582352,
          0.36169835925102234,
          1.17372727394104,
          -0.03030885010957718,
          0.19432516396045685,
          0.10277219861745834,
          0.13807012140750885,
          0.25601887702941895,
          -0.16949054598808289,
          0.24518433213233948,
          -0.036673713475465775,
          0.009047103114426136,
          0.11135528236627579,
          -0.24439385533332825,
          0.2807776629924774,
          0.3775482177734375,
          0.3749396502971649,
          0.1523301750421524,
          0.10403672605752945,
          -0.22453683614730835,
          0.10850615054368973,
          -0.053545042872428894,
          0.3259308338165283,
          -0.06107242405414581,
          0.030295681208372116,
          0.05011375993490219,
          0.1484237164258957,
          -0.24815602600574493,
          0.1560218185186386,
          0.029887869954109192,
          0.31482231616973877,
          -0.1520751565694809,
          0.023195454850792885,
          0.21752333641052246,
          -0.1569216549396515,
          0.41448289155960083,
          0.36801859736442566,
          0.023844221606850624,
          0.15486003458499908,
          0.2122543603181839,
          0.09264036267995834,
          0.05834990739822388,
          -0.20351861417293549,
          -0.3259061276912689,
          -0.1513102799654007,
          -0.0313604399561882,
          0.33680278062820435,
          -0.3000020980834961,
          -0.11531102657318115,
          0.010465294122695923,
          -0.042145729064941406,
          0.22629840672016144,
          0.15457899868488312,
          0.30719223618507385,
          0.02425510622560978,
          0.16489887237548828,
          -0.05331868305802345,
          0.10618982464075089,
          0.08788080513477325,
          0.16241899132728577,
          0.08788932859897614,
          0.3684955835342407,
          -0.21460017561912537,
          0.2346487045288086,
          -0.07873943448066711,
          0.10914162546396255,
          0.15856842696666718,
          0.1649542897939682,
          -0.12488327920436859,
          -0.023665834218263626,
          0.17641405761241913,
          0.10968422144651413,
          -0.05130495876073837,
          -0.043130386620759964,
          -0.031668782234191895,
          0.08587643504142761,
          -0.018737519159913063,
          -0.014456642791628838,
          0.09396559745073318,
          0.041112206876277924,
          0.10119239240884781,
          -0.06894459575414658,
          -0.14745230972766876,
          -0.17221233248710632,
          -0.11252398788928986,
          0.011389047838747501,
          -0.0814407542347908,
          0.022991947829723358,
          0.05801030993461609,
          -0.11214671283960342,
          -0.17224499583244324,
          -0.17061318457126617,
          0.13025261461734772,
          -0.056979820132255554,
          0.06763336062431335,
          -0.09408923238515854,
          -0.04121963679790497,
          0.07221512496471405,
          0.07738860696554184,
          -0.08891236037015915,
          -0.15785372257232666,
          0.08495375514030457,
          -0.056471824645996094,
          0.09639453887939453,
          -0.04979599639773369,
          0.06896490603685379,
          -0.10883983224630356,
          -0.13112953305244446,
          0.028853626921772957,
          0.03655562549829483,
          0.08635120093822479,
          0.0915299504995346,
          -0.13468414545059204,
          0.09852390736341476,
          -0.1579318642616272,
          -0.12265750765800476,
          0.16366609930992126,
          -0.12530376017093658,
          0.0830300897359848,
          -0.14751504361629486,
          -0.15747220814228058,
          0.019420044496655464,
          -0.010461310856044292,
          -0.15105238556861877,
          0.1716288924217224,
          -0.11607737094163895,
          0.0627206414937973,
          0.16239091753959656,
          0.07001246511936188,
          -0.3574719727039337,
          0.25921040773391724,
          -0.3699227273464203,
          -0.10228265821933746,
          -0.15368130803108215,
          -0.1979619413614273,
          -0.10047534108161926,
          0.17336729168891907,
          0.19093936681747437,
          0.40747934579849243,
          0.12336219102144241,
          -0.09251507371664047,
          -0.17128437757492065,
          -0.050408657640218735,
          0.1916692852973938,
          0.19178840517997742,
          0.0919732078909874,
          0.3913109302520752,
          -0.0530083104968071,
          0.08375164866447449,
          0.033247120678424835,
          -0.08134517818689346,
          -0.03904106840491295,
          0.08601649850606918,
          -0.03949471563100815,
          0.3124900460243225,
          0.15561330318450928,
          -0.09643152356147766,
          0.38314586877822876,
          -0.14547619223594666,
          0.09329409897327423,
          0.07314277440309525,
          0.27505314350128174,
          0.18242505192756653,
          -0.0756731778383255,
          0.08300574123859406,
          -0.09154767543077469,
          0.07057896256446838,
          0.23979417979717255,
          -0.17317646741867065,
          0.21715788543224335,
          0.19506850838661194,
          -0.1857939064502716,
          -0.11369141936302185,
          0.01641656830906868,
          0.09517406672239304,
          0.1876562237739563,
          0.31848829984664917,
          0.14704491198062897,
          0.2527685761451721,
          -0.19857114553451538,
          0.1024579331278801,
          -0.13740020990371704,
          0.19609011709690094,
          -0.27478426694869995,
          0.06262562423944473,
          0.11766257882118225,
          0.06339706480503082,
          -0.3029104471206665,
          -0.15722331404685974,
          -0.15233685076236725,
          0.4386742115020752,
          0.05405321717262268,
          0.0176618043333292,
          0.03808896616101265,
          -0.8248457312583923,
          -0.16315533220767975,
          0.058542605489492416,
          -0.10609639436006546,
          -0.08945383131504059,
          -0.36235782504081726,
          -0.0790565013885498,
          -0.06724374741315842,
          0.3469667434692383,
          -0.15533870458602905,
          0.0410127118229866,
          0.13106626272201538,
          -0.03527389466762543,
          0.008354654535651207,
          0.11185158789157867,
          0.05060116946697235,
          0.15976542234420776,
          0.23502418398857117,
          -0.11503246426582336,
          0.20872880518436432,
          0.25567126274108887,
          -0.1318291425704956,
          -0.01908373087644577,
          -0.09192992746829987,
          -0.3057670593261719,
          0.23122753202915192,
          0.09319447726011276,
          -0.12183279544115067,
          0.37696731090545654,
          0.3085894286632538,
          -0.04201069101691246,
          -0.029326576739549637,
          0.16149434447288513,
          -0.055900733917951584,
          0.004509038291871548,
          -0.043831564486026764,
          -0.00867072306573391,
          -0.08135298639535904,
          -0.06382358074188232,
          0.01707337237894535,
          0.13137003779411316,
          0.08065260946750641,
          -0.004303277470171452,
          -0.17502790689468384,
          0.04270581901073456,
          0.023599453270435333,
          -0.13127584755420685,
          0.021517841145396233,
          -0.15803980827331543,
          -0.12297957390546799,
          -0.11579134315252304,
          -0.05076313763856888,
          -0.03681354224681854,
          0.0041512539610266685,
          -0.029980063438415527,
          -0.03366907313466072,
          -0.04130064323544502,
          0.10162658989429474,
          0.16918286681175232,
          -0.02323366142809391,
          0.1655910611152649,
          0.05019046738743782,
          0.10667455941438675,
          -0.1010931208729744,
          -0.06032336875796318,
          -0.1212027370929718,
          0.10010342299938202,
          -0.04926382750272751,
          0.10294771194458008,
          0.05046163126826286,
          0.14555677771568298,
          -0.012646415270864964,
          -0.16812536120414734,
          0.0532369501888752,
          0.030806604772806168,
          0.04777154326438904,
          0.06850922852754593,
          -0.08988578617572784,
          0.0294916070997715,
          0.16336844861507416,
          -0.09750691056251526,
          0.10316510498523712,
          -0.17493951320648193,
          -0.16082331538200378,
          0.00935105886310339,
          0.09637192636728287,
          -0.14587004482746124,
          0.04252536967396736,
          -0.1364750862121582,
          -0.1306033581495285,
          -0.12968061864376068,
          -0.10019642114639282,
          -0.04487183690071106,
          0.008825315162539482,
          -0.1693549007177353,
          -0.014280730858445168,
          -0.8533331751823425,
          0.22604292631149292,
          0.35864558815956116,
          -0.16977538168430328,
          -0.09542129188776016,
          -0.3109132647514343,
          -0.1472538560628891,
          -0.013777120970189571,
          0.3258117735385895,
          -0.1696850061416626,
          -0.1285863071680069,
          0.2686271667480469,
          0.22913837432861328,
          -0.05857395753264427,
          0.3246079981327057,
          0.07120534777641296,
          0.03867669403553009,
          0.10429582744836807,
          -0.14998607337474823,
          0.29493120312690735,
          0.12223149836063385,
          0.013149085454642773,
          0.06146525591611862,
          0.08279280364513397,
          -0.2530815601348877,
          0.14374172687530518,
          0.049436017870903015,
          -0.3162845969200134,
          0.12473682314157486,
          0.3655809164047241,
          0.023229066282510757,
          0.1981581747531891,
          1.1054481267929077,
          0.39381468296051025,
          0.09806174784898758,
          0.0007831095135770738,
          0.34991803765296936,
          0.06779266893863678,
          0.31677359342575073,
          0.34183359146118164,
          -0.2681037187576294,
          -0.14796678721904755,
          -0.03972022980451584,
          -0.15517060458660126,
          0.32733458280563354,
          -0.031074516475200653,
          -0.17234015464782715,
          -0.15521997213363647,
          -0.021864401176571846,
          0.35686808824539185,
          0.12959599494934082,
          0.18982382118701935,
          -0.11413291096687317,
          0.16183236241340637,
          -0.03434131294488907,
          -0.003770730923861265,
          0.24482470750808716,
          0.24821369349956512,
          0.08728555589914322,
          0.14786297082901,
          -0.29063236713409424,
          0.16511929035186768,
          0.14942605793476105,
          0.148407980799675,
          -0.10539387911558151,
          0.008443278260529041,
          -0.16145184636116028,
          0.17334812879562378,
          -0.10184124112129211,
          0.12059292197227478,
          -0.009732002392411232,
          -0.03594588860869408,
          0.00527920899912715,
          -0.0024173324927687645,
          0.0817546620965004,
          -0.14379307627677917,
          -0.09145203977823257,
          -0.11035466939210892,
          -0.06685632467269897,
          -0.03609447553753853,
          0.05629853531718254,
          -0.05051017180085182,
          -0.04979312792420387,
          0.13805995881557465,
          -0.13801604509353638,
          -0.02273133397102356,
          0.008844262920320034,
          0.12534093856811523,
          0.010878733359277248,
          -0.1693231463432312,
          0.13742321729660034,
          -0.10120189189910889,
          -0.16624058783054352,
          0.0833083838224411,
          -0.14307931065559387,
          0.3831290602684021,
          0.8393476605415344,
          0.07699345797300339,
          0.057855308055877686,
          0.03538788482546806,
          0.30964386463165283,
          0.380400151014328,
          -0.05968484282493591,
          0.2870415449142456,
          0.040094245225191116,
          -0.2915755808353424,
          0.1439937949180603,
          0.04235036298632622,
          0.1817052811384201,
          0.3401254415512085,
          0.42630067467689514,
          0.06367497146129608,
          0.20654404163360596,
          -0.31482309103012085,
          -0.11562690883874893,
          -0.20675450563430786,
          0.19858886301517487,
          -0.22082774341106415,
          -0.12878477573394775,
          0.03918246924877167,
          0.1823391616344452,
          -0.23037338256835938,
          -0.05749434977769852,
          -0.0556238517165184,
          0.17369623482227325,
          -0.0018482562154531479,
          0.1574563831090927,
          0.34027644991874695,
          0.9933221340179443,
          -0.11920341104269028,
          -0.16883549094200134,
          0.02425014227628708,
          0.370085209608078,
          0.3714125156402588,
          0.0013950868742540479,
          0.09615737199783325,
          0.11423397809267044,
          0.08558924496173859,
          -0.09889736026525497,
          -0.09665883332490921,
          0.12213708460330963,
          0.11890622228384018,
          0.18319544196128845,
          -0.10518363118171692,
          -0.09605170786380768,
          -0.14569532871246338,
          -0.07098446041345596,
          -0.11254402250051498,
          0.34244608879089355,
          -0.23411263525485992,
          0.12455113232135773,
          0.08172522485256195,
          0.1890389621257782,
          -0.2978028655052185,
          -0.15879853069782257,
          -0.14419785141944885,
          0.4480244815349579,
          0.10410767793655396,
          -0.056885577738285065,
          0.20213735103607178,
          -0.2000967562198639,
          0.2818714678287506,
          0.3180384933948517,
          0.0772147998213768,
          0.08909585326910019,
          -0.23661597073078156,
          0.2947813868522644,
          0.11523007601499557,
          -0.026648884639143944,
          -0.007057434879243374,
          -0.12863878905773163,
          0.07754451781511307,
          0.04495232552289963,
          -0.20979872345924377,
          -0.20228256285190582,
          0.0796973928809166,
          0.24366463720798492,
          0.147016242146492,
          0.04215843975543976,
          0.29389283061027527,
          -0.16222810745239258,
          0.40927672386169434,
          -0.10351180285215378,
          -0.1613289713859558,
          0.20121963322162628,
          0.2030707746744156,
          0.11770415306091309,
          0.40214821696281433,
          -0.36373794078826904,
          0.20043452084064484,
          0.020632419735193253,
          -0.33993688225746155,
          -0.3597368597984314,
          -0.11453171819448471,
          -0.12148997187614441,
          -0.021465996280312538,
          -0.2930118441581726,
          -0.3324897885322571,
          0.028448227792978287,
          0.3656662702560425,
          0.37315940856933594,
          0.12072956562042236,
          0.03628215566277504,
          0.2131020426750183,
          -0.18322128057479858,
          0.4125824272632599,
          0.08071161061525345,
          0.08114083856344223,
          0.33463600277900696,
          0.24541255831718445,
          0.12386874109506607,
          0.24586491286754608,
          -0.06514358520507812,
          0.09665267914533615,
          0.03768257796764374,
          -0.06635551154613495,
          0.14948858320713043,
          0.3281440734863281,
          -0.0460306815803051,
          0.039059482514858246,
          -0.11928211897611618,
          0.17943301796913147,
          0.023151831701397896,
          -0.2221582978963852,
          0.1459237039089203,
          -0.3743782639503479,
          -0.03178127482533455,
          -0.1207624152302742,
          0.03924883157014847,
          -0.28292083740234375,
          0.05143052712082863,
          0.19430363178253174,
          0.29979926347732544,
          0.24061132967472076,
          0.14401014149188995,
          0.05078909546136856,
          -0.17477348446846008,
          0.325784832239151,
          0.28050655126571655,
          0.03187583014369011,
          0.3691072463989258,
          -0.08655349165201187,
          -0.13732090592384338,
          -0.24019892513751984,
          -0.11619199067354202,
          -0.2296258807182312,
          0.0751773789525032,
          -0.05624532699584961,
          0.10076773166656494,
          0.3602951169013977,
          -0.11394733190536499,
          0.3731224238872528,
          -0.04590466246008873,
          0.10625199228525162,
          0.11365987360477448,
          0.38063591718673706,
          0.9382621645927429,
          0.28526541590690613,
          0.3728185296058655,
          0.15411774814128876,
          0.27560195326805115,
          0.17044028639793396,
          0.005743751302361488,
          0.1475217044353485,
          -0.2400503307580948,
          -0.11807019263505936,
          -0.16488218307495117,
          -0.3414680063724518,
          0.09913261234760284,
          0.040049899369478226,
          0.18317635357379913,
          0.10663595050573349,
          -0.13731080293655396,
          -0.09548013657331467,
          -0.05804910510778427,
          0.0001330257364315912,
          0.26959800720214844,
          0.2612801194190979,
          0.15964281558990479,
          -0.08845904469490051,
          0.10809618979692459,
          -0.12337558716535568,
          -0.0759691447019577,
          0.08137056231498718,
          0.22226424515247345,
          0.14247408509254456,
          0.08862512558698654,
          0.1130201667547226,
          -0.1265275627374649,
          0.12625627219676971,
          0.11194999516010284,
          -0.03726744279265404,
          -0.1693972796201706,
          -0.11888112872838974,
          -0.1546918749809265,
          -0.02509452775120735,
          -0.03484703600406647,
          -0.08648806810379028,
          0.05875247344374657,
          0.028237396851181984,
          0.12227782607078552,
          -0.02588796429336071,
          0.1016947403550148,
          -0.15162169933319092,
          -0.09898924827575684,
          -0.02547094225883484,
          -0.13363538682460785,
          0.10590177029371262,
          -0.1691339910030365,
          -0.1290249526500702,
          0.049983274191617966,
          0.12476412951946259,
          -0.12256604433059692,
          -0.04494822397828102,
          -0.022301414981484413,
          1.430885458830744e-05,
          0.12908723950386047,
          -0.0972215011715889,
          -0.055706437677145004,
          0.18684513866901398,
          -0.5588653087615967,
          0.08369801193475723,
          0.3871918320655823,
          -0.03591052442789078,
          0.21567969024181366,
          0.1953752040863037,
          -0.05547251179814339,
          -0.2367759644985199,
          0.03775482624769211,
          -0.21971572935581207,
          0.13288788497447968,
          0.10828417539596558,
          -0.04782264679670334,
          0.1879062056541443,
          0.07266129553318024,
          0.14369052648544312,
          0.07023885101079941,
          0.18905213475227356,
          -0.010827482677996159,
          0.05690702423453331,
          0.26495862007141113,
          -0.03178594261407852,
          0.13790608942508698,
          0.1093652993440628,
          0.01876300387084484,
          0.09081725776195526,
          0.1207754984498024,
          -0.10641370713710785,
          0.542182981967926,
          0.09257208555936813
        ],
        "bias": [
          0.11715156584978104,
          -0.04000941291451454,
          0.0805647075176239,
          0.19619134068489075,
          -0.011023948900401592,
          -0.0025019808672368526,
          0.2796853482723236,
          0.10365064442157745,
          -0.09940105676651001,
          -0.026469947770237923,
          -0.11005452275276184,
          -0.08948791772127151,
          0.10570532828569412,
          -0.03586365282535553,
          -0.10956987738609314,
          -0.10510106384754181,
          -0.007320750039070845,
          0.3999023139476776,
          0.2571621537208557,
          -0.10119744390249252,
          -0.007026301231235266,
          0.2594405710697174,
          -0.05797725170850754,
          -0.13079698383808136,
          0.15464557707309723,
          0.3187028169631958,
          -0.10778526216745377,
          0.18951500952243805,
          0.23181280493736267,
          0.2833765745162964,
          -0.012672945857048035,
          0.033646877855062485
        ]
      },
      {
        "type": "sigmoid"
      },
      {
        "type": "linear",
        "in_features": 32,
        "out_features": 3,
        "weights": [
          -0.1504499763250351,
          0.16951921582221985,
          -0.3646063804626465,
          0.20546892285346985,
          0.2981022894382477,
          -0.27611690759658813,
          -0.2849295437335968,
          -0.3862244188785553,
          -0.17183363437652588,
          0.05253676325082779,
          0.0550900399684906,
          0.3735893964767456,
          -0.38798388838768005,
          0.09520380944013596,
          0.024006802588701248,
          -0.005134539678692818,
          -0.018736377358436584,
          -0.21708115935325623,
          0.3596583604812622,
          0.09271370619535446,
          -0.13408543169498444,
          0.362959086894989,
          -0.2182777225971222,
          -0.1262209117412567,
          -0.3067355453968048,
          -0.3259579539299011,
          0.17518585920333862,
          0.19247734546661377,
          -0.05311180651187897,
          -0.3056715130805969,
          0.15930910408496857,
          0.27447330951690674,
          0.09831755608320236,
          -0.01827879250049591,
          0.17336836457252502,
          -0.2949291169643402,
          0.3523201644420624,
          0.27232739329338074,
          -0.28531613945961,
          -0.1122356653213501,
          -0.016574840992689133,
          0.09906475245952606,
          0.10672062635421753,
          0.1940925419330597,
          -0.08788223564624786,
          0.30871284008026123,
          0.024067619815468788,
          -0.002579977037385106,
          -0.27807578444480896,
          -0.3116200864315033,
          -0.3008061349391937,
          0.10144023597240448,
          0.02171028032898903,
          -0.12268267571926117,
          0.2515132427215576,
          -0.1452452689409256,
          -0.20105382800102234,
          -0.19157324731349945,
          0.35669511556625366,
          -0.2119566798210144,
          -0.35280847549438477,
          0.2848075330257416,
          -0.02389960177242756,
          0.006888698786497116,
          -0.03218093141913414,
          0.007200725842267275,
          0.08427178114652634,
          0.33802613615989685,
          0.11278153955936432,
          0.3316551446914673,
          0.056616462767124176,
          0.17572090029716492,
          0.13022452592849731,
          0.15893925726413727,
          -0.07150998711585999,
          -0.30753466486930847,
          -0.43373358249664307,
          0.05222102999687195,
          -0.12175609171390533,
          -0.051351550966501236,
          0.2508770823478699,
          -0.44741231203079224,
          -0.24516479671001434,
          -0.08432640135288239,
          0.1439916044473648,
          -0.2911587059497833,
          0.1535782516002655,
          -0.053600337356328964,
          -0.429162859916687,
          -0.34524860978126526,
          0.32482364773750305,
          0.2769755721092224,
          0.2605755925178528,
          -0.23768113553524017,
          -0.10929872840642929,
          -0.4349932074546814
        ],
        "bias": [
          0.014379075728356838,
          -0.18415823578834534,
          -0.1747017353773117
        ]
      },
      {
        "type": "sigmoid"
      }
    ]
  }
}