{
  "model": {
    "input": 3,
    "output": 3,
    "layers": [
      {
        "type": "linear",
        "in_features": 3,
        "out_features": 32,
        "weights": [
          1.110228180885315,
          1.9359934329986572,
          -0.9943532943725586,
          -1.3861091136932373,
          -1.030714988708496,
          1.2686020135879517,
          2.720595359802246,
          0.7241424918174744,
          -0.7009386420249939,
          2.2967305183410645,
          -0.8312848806381226,
          0.06949761509895325,
          0.2804862856864929,
          -1.3549846410751343,
          -1.318487286567688,
          1.5909242630004883,
          -1.7044464349746704,
          -0.6895899772644043,
          1.0886939764022827,
          -1.170026421546936,
          2.1434690952301025,
          -1.5805755853652954,
          -0.9503557682037354,
          -0.4004928171634674,
          -0.9867842793464661,
          -0.9305241703987122,
          2.26084041595459,
          -0.10322195291519165,
          1.083954930305481,
          2.4842402935028076,
          1.688293695449829,
          -1.4194005727767944,
          -1.232768177986145,
          -1.303627848625183,
          1.860113501548767,
          -1.1754956245422363,
          0.8336794972419739,
          -1.7465434074401855,
          -0.8445559740066528,
          -1.5993980169296265,
          -0.7809014916419983,
          1.661792278289795,
          -1.325213074684143,
          0.2950422465801239,
          -1.5372148752212524,
          -0.5603474378585815,
          2.742469072341919,
          -1.072343111038208,
          0.8673228025436401,
          2.137233018875122,
          -1.3652440309524536,
          0.09713027626276016,
          1.834355115890503,
          1.3814105987548828,
          -1.652271032333374,
          1.8865381479263306,
          1.842309594154358,
          1.7626855373382568,
          -0.7475977540016174,
          1.6213449239730835,
          -0.5787656307220459,
          1.6432381868362427,
          1.3453893661499023,
          0.7087451815605164,
          1.722918152809143,
          1.380553960800171,
          1.9675770998001099,
          1.42485773563385,
          -0.8563366532325745,
          -1.5165181159973145,
          -1.1434657573699951,
          -0.045674607157707214,
          -1.6738417148590088,
          1.110273003578186,
          -0.8287369012832642,
          2.6781792640686035,
          -1.3463493585586548,
          0.5669702887535095,
          -1.485952377319336,
          0.046359024941921234,
          -1.2820712327957153,
          0.2990543246269226,
          -1.640288233757019,
          1.837151288986206,
          2.000452995300293,
          0.14255906641483307,
          1.2705910205841064,
          -1.7039411067962646,
          -1.4062360525131226,
          -0.05862358212471008,
          1.8372811079025269,
          -0.4742036759853363,
          -1.8470717668533325,
          0.31294259428977966,
          -0.9084095358848572,
          -1.7347475290298462
        ],
        "bias": [
          -0.5860186815261841,
          0.7171950340270996,
          -0.36672335863113403,
          -0.2065105140209198,
          0.9622142910957336,
          0.6936956644058228,
          -0.07423505932092667,
          1.2891596555709839,
          0.5516546964645386,
          -0.46278104186058044,
          1.0506398677825928,
          1.175706386566162,
          0.9554117321968079,
          0.8096094131469727,
          1.2952971458435059,
          0.5980373620986938,
          -0.06752703338861465,
          -0.9413561820983887,
          0.11112750321626663,
          -0.6036689281463623,
          -0.6845375299453735,
          -1.1273609399795532,
          -0.6725853681564331,
          1.1796444654464722,
          0.9524330496788025,
          0.33840715885162354,
          1.3730359077453613,
          0.21801453828811646,
          -0.9827205538749695,
          1.8671215772628784,
          0.8944621086120605,
          1.1303164958953857
        ]
      },
      {
        "type": "sigmoid"
      },
      {
        "type": "linear",
        "in_features": 32,
        "out_features": 32,
        "weights": [
          0.3573148846626282,
          0.0379292331635952,
          0.05782562121748924,
          -0.043845824897289276,
          -0.6600872278213501,
          -0.6404306888580322,
          0.42475947737693787,
          -0.18800611793994904,
          0.31252193450927734,
          0.6790363788604736,
          -0.6011744737625122,
          0.09230108559131622,
          -0.4965073764324188,
          0.0923362523317337,
          -0.44886457920074463,
          0.36154547333717346,
          0.31409600377082825,
          0.7813081741333008,
          0.53868168592453,
          0.4753275513648987,
          0.7141793966293335,
          0.8931716680526733,
          0.26560384035110474,
          -0.4078775644302368,
          0.04066580906510353,
          0.01361616887152195,
          -0.36695265769958496,
          0.36983299255371094,
          0.33812668919563293,
          -0.3922657370567322,
          -0.33231279253959656,
          -0.6017757058143616,
          -0.3809354305267334,
          0.23885679244995117,
          -0.5908945798873901,
          -0.428260862827301,
          0.44533368945121765,
          -0.1434321105480194,
          -0.8520228266716003,
          0.5311131477355957,
          -0.10596944391727448,
          -0.32348787784576416,
          0.09853736311197281,
          0.25397297739982605,
          0.1985243260860443,
          0.3220840096473694,
          0.5900861024856567,
          -0.12967069447040558,
          -0.2570643126964569,
          -0.4641319811344147,
          -0.21001368761062622,
          -0.8579009771347046,
          -0.3018954396247864,
          -0.45243266224861145,
          -0.5824721455574036,
          0.3671703636646271,
          0.6876724362373352,
          -0.5885841250419617,
          0.7355412840843201,
          -0.48195743560791016,
          -0.9202843904495239,
          0.47900286316871643,
          -0.1355370581150055,
          0.3741304576396942,
          0.3632616400718689,
          -0.23230230808258057,
          0.2958797216415405,
          0.162541463971138,
          -0.3174903392791748,
          -0.2771517336368561,
          -0.0402742475271225,
          -0.6257375478744507,
          -0.4565814435482025,
          0.07406295090913773,
          -0.19912372529506683,
          -0.06571526825428009,
          -0.495234876871109,
          -0.39943650364875793,
          -0.5915312767028809,
          0.18585865199565887,
          0.29069286584854126,
          0.2511422336101532,
          0.1482582986354828,
          0.1328665018081665,
          0.3987950086593628,
          0.3224621117115021,
          0.47154998779296875,
          -0.5714883208274841,
          -0.3865502178668976,
          0.0185940470546484,
          -0.5770509243011475,
          -0.12521037459373474,
          0.5284474492073059,
          -0.6405156254768372,
          -0.35622352361679077,
          -0.41105979681015015,
          -1.2314807176589966,
          0.42780086398124695,
          -0.4429064095020294,
          0.19979681074619293,
          -0.5985346436500549,
          -0.06934855133295059,
          0.811385989189148,
          -0.34524258971214294,
          0.7829680442810059,
          0.2869058847427368,
          -0.31195592880249023,
          -1.4206631183624268,
          -0.1568688303232193,
          0.6237269639968872,
          -1.587287187576294,
          -1.2123048305511475,
          -1.522023320198059,
          -0.06208750605583191,
          0.05870199203491211,
          0.8281958103179932,
          -0.1679316759109497,
          -0.12137196958065033,
          -0.7162250280380249,
          0.14115987718105316,
          -1.3914185762405396,
          0.30427393317222595,
          -1.2981725931167603,
          0.9988074898719788,
          0.6447829008102417,
          -0.06909400969743729,
          -1.0704385042190552,
          -1.156907081604004,
          -0.33120155334472656,
          0.3720223009586334,
          -0.5504423975944519,
          -0.4137057065963745,
          0.636680006980896,
          -0.18125689029693604,
          -0.30479010939598083,
          1.1617029905319214,
          0.34900370240211487,
          -0.28176528215408325,
          0.2807330787181854,
          0.7714108228683472,
          0.3654697835445404,
          0.5923393964767456,
          1.317306399345398,
          0.34801867604255676,
          0.10119141638278961,
          -0.5491774082183838,
          0.19339613616466522,
          -0.5362603068351746,
          -0.13044512271881104,
          -0.4642276167869568,
          -0.5460285544395447,
          1.1229697465896606,
          1.1863796710968018,
          -0.28715500235557556,
          1.4868555068969727,
          -0.13178911805152893,
          -0.6758993864059448,
          1.1007665395736694,
          0.1422293484210968,
          0.9855213761329651,
          -0.34144338965415955,
          0.44891372323036194,
          -0.3774234652519226,
          -0.3877468705177307,
          -0.8677465319633484,
          -0.6750820279121399,
          0.08462823182344437,
          0.04531750828027725,
          0.6713932752609253,
          0.5499082803726196,
          -0.5566568970680237,
          0.14882661402225494,
          -0.5345266461372375,
          0.5905241966247559,
          -0.20394356548786163,
          0.11745355278253555,
          -0.2566169798374176,
          0.5219901204109192,
          0.6963332295417786,
          -0.10733942687511444,
          0.6658649444580078,
          0.5175569653511047,
          -0.5309725403785706,
          0.12631747126579285,
          0.25584837794303894,
          -0.5141544938087463,
          -0.0057984949089586735,
          0.3621663749217987,
          -0.2248908132314682,
          0.16452011466026306,
          -0.7220914959907532,
          -0.9194017648696899,
          0.6743192672729492,
          -0.3682881295681,
          1.0333739519119263,
          0.9699093103408813,
          1.0025004148483276,
          1.0669914484024048,
          -0.052141331136226654,
          -0.29538694024086,
          -0.7549980282783508,
          -0.2824679911136627,
          1.3112354278564453,
          -0.10317878425121307,
          1.2310130596160889,
          -0.9132761359214783,
          0.43958333134651184,
          -0.04405030235648155,
          0.7390379905700684,
          -0.6659789681434631,
          -0.7390627264976501,
          0.49141159653663635,
          -0.7291992902755737,
          -0.37150895595550537,
          0.7399085760116577,
          -0.06003153696656227,
          -0.27728691697120667,
          0.7419945597648621,
          0.058564234524965286,
          -0.23072049021720886,
          0.42334872484207153,
          -0.2746790945529938,
          1.3518766164779663,
          1.1641284227371216,
          0.12965965270996094,
          -0.3208783268928528,
          0.06951814144849777,
          -0.10861364752054214,
          -0.7911281585693359,
          -0.5402518510818481,
          0.3860456645488739,
          -0.721993088722229,
          0.06750502437353134,
          0.36824432015419006,
          -0.3361605107784271,
          -0.27165672183036804,
          -0.5014828443527222,
          -0.09028419852256775,
          -0.624153196811676,
          -0.026094907894730568,
          0.12217813730239868,
          0.4646456837654114,
          0.3508950173854828,
          0.2545406222343445,
          0.5709360241889954,
          0.4507937729358673,
          0.22382549941539764,
          -0.6386155486106873,
          -0.36176934838294983,
          0.014391530305147171,
          -0.8962808847427368,
          0.014719261787831783,
          0.5155795216560364,
          -0.7767963409423828,
          -0.40825486183166504,
          -0.9616867899894714,
          0.8334237337112427,
          -0.31658610701560974,
          0.20934541523456573,
          -0.24019964039325714,
          -0.18233603239059448,
          -0.5851818919181824,
          -0.7396209836006165,
          0.09479960054159164,
          -0.7243723273277283,
          0.19704413414001465,
          -0.3424912989139557,
          0.8235527276992798,
          -0.5801399946212769,
          -0.37652334570884705,
          0.8682456016540527,
          0.6527453660964966,
          0.9081810116767883,
          0.5935312509536743,
          0.5859567523002625,
          -0.7583174705505371,
          0.328418105840683,
          0.30499503016471863,
          0.6078725457191467,
          -0.17965005338191986,
          0.8968811631202698,
          -0.417062908411026,
          0.653478741645813,
          -0.7431925535202026,
          -0.5824338793754578,
          -0.24040596187114716,
          0.3871561586856842,
          0.23236116766929626,
          1.706599235534668,
          -1.2608236074447632,
          0.3096235990524292,
          -0.8428069353103638,
          -2.2679431438446045,
          -2.243492603302002,
          -1.0637623071670532,
          -1.9044160842895508,
          -1.3246973752975464,
          0.4379361569881439,
          -1.993666648864746,
          1.0269412994384766,
          -2.6548218727111816,
          -1.1499704122543335,
          0.12157688289880753,
          1.4088971614837646,
          1.614936113357544,
          1.3427642583847046,
          0.9005209803581238,
          -0.7339434623718262,
          1.3948966264724731,
          1.2999873161315918,
          1.0776457786560059,
          -2.009674549102783,
          0.9018388986587524,
          -1.2671951055526733,
          -0.20861180126667023,
          -2.042614221572876,
          -0.07402919977903366,
          -2.304732084274292,
          -0.9945815205574036,
          -1.9467297792434692,
          -0.831425666809082,
          1.4505327939987183,
          -0.4259958565235138,
          -0.0162432249635458,
          -0.9704971313476562,
          -0.6388769745826721,
          1.849408745765686,
          -0.003026754129678011,
          2.220975637435913,
          1.725050687789917,
          -0.8233346939086914,
          -0.5203245878219604,
          -0.7574876546859741,
          1.7469295263290405,
          -1.51233971118927,
          -0.366564005613327,
          -0.8118562698364258,
          1.471726417541504,
          1.5787111520767212,
          1.4618489742279053,
          1.5673962831497192,
          1.3870927095413208,
          -0.7283943295478821,
          0.5817550420761108,
          -0.26322510838508606,
          0.28399014472961426,
          -0.8934954404830933,
          1.916973352432251,
          0.9661683440208435,
          0.6012323498725891,
          -0.9324405789375305,
          -1.532546877861023,
          -1.0405371189117432,
          0.66222083568573,
          -1.3353490829467773,
          -0.5192058682441711,
          -0.07142379134893417,
          -0.3523317575454712,
          -0.04627276584506035,
          0.7466397285461426,
          0.8329750299453735,
          -0.08388259261846542,
          -0.7814434170722961,
          -0.3048868179321289,
          -0.110628642141819,
          0.978417158126831,
          0.35210734605789185,
          -0.6195247173309326,
          -1.1442244052886963,
          -0.5533505082130432,
          -0.11745043098926544,
          -0.40438807010650635,
          -0.1455209106206894,
          -0.6829046010971069,
          -1.4555236101150513,
          0.8005437850952148,
          0.18847091495990753,
          -0.5217401385307312,
          0.39394864439964294,
          0.4491751492023468,
          -0.9540656208992004,
          0.8218691945075989,
          -0.7989708781242371,
          -0.4182492196559906,
          1.318977952003479,
          -1.4875788688659668,
          0.5288922786712646,
          -0.31764528155326843,
          -1.0382287502288818,
          -0.9806663393974304,
          -1.1427502632141113,
          -1.3395041227340698,
          -1.6298887729644775,
          0.10827358067035675,
          -0.7835540771484375,
          0.36598870158195496,
          -1.1793876886367798,
          -1.7899454832077026,
          -0.3719644844532013,
          0.7780290842056274,
          1.1596766710281372,
          0.8210110664367676,
          0.12721021473407745,
          -0.5484341382980347,
          0.4414674937725067,
          0.6769400835037231,
          1.1467708349227905,
          -1.7259303331375122,
          0.08006484806537628,
          -0.5391704440116882,
          -0.6332675814628601,
          -1.6685459613800049,
          0.19972236454486847,
          -1.8685302734375,
          0.1392459124326706,
          -0.7120330333709717,
          -0.291064977645874,
          -0.5370906591415405,
          0.3914419412612915,
          0.5150731205940247,
          0.5357316136360168,
          0.5233403444290161,
          0.03816107660531998,
          -0.4819507300853729,
          -0.3601306676864624,
          -0.46889808773994446,
          0.41997620463371277,
          -0.6005174517631531,
          0.500798225402832,
          -0.6779174208641052,
          -0.565208375453949,
          -0.7418248653411865,
          -0.31555449962615967,
          -0.4656573534011841,
          -0.8878017663955688,
          0.5314269065856934,
          -0.6038878560066223,
          -0.4648212194442749,
          0.41042616963386536,
          -0.2749137282371521,
          -0.7678973078727722,
          0.32839930057525635,
          -0.827494740486145,
          0.3334745466709137,
          0.4338279962539673,
          -0.7193427681922913,
          0.6048101782798767,
          0.38824936747550964,
          0.3590018153190613,
          -0.20177052915096283,
          0.4978284239768982,
          0.15820780396461487,
          -0.3003649413585663,
          -0.11585021764039993,
          0.39395400881767273,
          -0.6562434434890747,
          -0.008935490623116493,
          0.4485604763031006,
          -0.18639922142028809,
          -0.199711412191391,
          -0.10275523364543915,
          -0.2774667739868164,
          -0.579342782497406,
          -0.12487997859716415,
          0.035609208047389984,
          0.4026244878768921,
          0.16250723600387573,
          0.41717764735221863,
          0.27103906869888306,
          0.558891773223877,
          0.5049598217010498,
          -0.6559610366821289,
          -0.6485484838485718,
          0.3880530297756195,
          -0.8926547169685364,
          0.386374294757843,
          0.5229328870773315,
          -0.4710935652256012,
          0.09468192607164383,
          -0.46827900409698486,
          0.20349441468715668,
          0.4613732397556305,
          -0.38950541615486145,
          -0.6350101232528687,
          0.23311886191368103,
          -0.4532800316810608,
          -0.40310147404670715,
          0.9950048327445984,
          0.09248325228691101,
          -0.021242965012788773,
          -0.21358142793178558,
          1.1194769144058228,
          -0.1789526343345642,
          0.6420117616653442,
          1.3171011209487915,
          0.7101179361343384,
          0.39942386746406555,
          -0.07996778190135956,
          0.5173265337944031,
          -0.6953765749931335,
          0.2369157373905182,
          -0.1586982011795044,
          -0.12480673938989639,
          0.8365104794502258,
          1.0497488975524902,
          -0.3996729254722595,
          1.1432082653045654,
          -0.3077859878540039,
          -0.6946995854377747,
          0.8634158968925476,
          -0.10186629742383957,
          0.5000823140144348,
          0.6867963671684265,
          -1.7897003889083862,
          1.1320120096206665,
          1.438335657119751,
          -0.027831431478261948,
          1.0973516702651978,
          0.6013827919960022,
          -3.0242083072662354,
          -1.4432287216186523,
          -0.04207705706357956,
          1.0716264247894287,
          -1.849108099937439,
          0.2917075455188751,
          -2.3879106044769287,
          -2.5081629753112793,
          -1.0329455137252808,
          0.19119109213352203,
          0.03707480803132057,
          -1.4347124099731445,
          1.3285285234451294,
          -0.4610370993614197,
          0.44863075017929077,
          1.195825457572937,
          -2.722517251968384,
          -2.487985134124756,
          0.8755298852920532,
          -2.969381093978882,
          -0.07359957695007324,
          1.286441683769226,
          -2.955183982849121,
          0.9663902521133423,
          -0.17438679933547974,
          0.6177221536636353,
          -0.5606303811073303,
          0.23074372112751007,
          0.25017374753952026,
          0.4346788227558136,
          0.23415838181972504,
          -0.5242735147476196,
          -0.14094696938991547,
          -0.6437475681304932,
          -0.7052420973777771,
          0.45221203565597534,
          -0.05623428896069527,
          0.28110313415527344,
          -0.6919012069702148,
          0.5553364157676697,
          0.04585043713450432,
          0.6294345855712891,
          -0.46214938163757324,
          -0.6546913981437683,
          -0.3992185890674591,
          -0.6785264611244202,
          -0.5789878964424133,
          0.4686836302280426,
          -0.3411842882633209,
          -0.11338530480861664,
          -0.13269521296024323,
          0.256910115480423,
          -0.9062175154685974,
          -0.18366511166095734,
          -0.6399498581886292,
          0.39998456835746765,
          0.6024801731109619,
          -1.6369942426681519,
          1.2617491483688354,
          -0.5519896149635315,
          0.5770961046218872,
          2.6444482803344727,
          2.361874580383301,
          0.7985697388648987,
          2.270453929901123,
          1.2884637117385864,
          -0.8631390929222107,
          1.9576510190963745,
          -0.6957619786262512,
          2.7269434928894043,
          1.417722463607788,
          0.8134005069732666,
          -1.3896420001983643,
          -1.4770452976226807,
          -1.5722618103027344,
          -1.0269560813903809,
          0.35570162534713745,
          -1.4318110942840576,
          -1.265964388847351,
          -1.1819519996643066,
          2.1178338527679443,
          -0.4771333634853363,
          1.0408883094787598,
          1.0518534183502197,
          1.79107666015625,
          -0.7138475775718689,
          2.566955804824829,
          0.9350618720054626,
          2.029306411743164,
          -0.3333394229412079,
          0.09596550464630127,
          -0.2505442798137665,
          -0.2318522036075592,
          0.4419953227043152,
          0.26353946328163147,
          -0.11436092108488083,
          0.40198975801467896,
          0.2299998253583908,
          -0.31595954298973083,
          0.14845292270183563,
          -0.1086239144206047,
          0.47364944219589233,
          0.1614045947790146,
          0.8019809722900391,
          -0.19964280724525452,
          -0.4646834433078766,
          -0.5251414775848389,
          -0.13769476115703583,
          -0.29733434319496155,
          -0.4623103737831116,
          -0.3905724585056305,
          -0.4978974461555481,
          0.6413934826850891,
          0.4104543626308441,
          -0.1255173236131668,
          0.501670241355896,
          0.2027219831943512,
          -0.6919419765472412,
          0.6152327656745911,
          0.16138458251953125,
          0.6110557913780212,
          0.3842622935771942,
          -0.0010055814636871219,
          -0.13319602608680725,
          -0.47098827362060547,
          -0.44161373376846313,
          -0.6315398216247559,
          -0.4980020821094513,
          0.22293022274971008,
          -0.499636709690094,
          -0.04039788991212845,
          -0.60597825050354,
          0.4027060866355896,
          -0.5456498265266418,
          0.08254970610141754,
          0.5984372496604919,
          0.45785772800445557,
          0.6059924364089966,
          0.30779221653938293,
          0.25662875175476074,
          -0.5755565166473389,
          0.47577357292175293,
          0.07350847125053406,
          0.1596381664276123,
          -0.14706222712993622,
          0.6911942362785339,
          -0.386833131313324,
          0.6978527307510376,
          -0.7072781920433044,
          -0.45235997438430786,
          0.0033671155106276274,
          -0.3082902133464813,
          -0.030466558411717415,
          -0.9661560654640198,
          1.8584872484207153,
          -1.3395520448684692,
          -1.2882120609283447,
          0.18369026482105255,
          -1.0792567729949951,
          -0.10843195021152496,
          2.6355159282684326,
          1.5352157354354858,
          0.21451719105243683,
          -1.0909589529037476,
          1.6246960163116455,
          -0.43947646021842957,
          2.2837936878204346,
          2.194397449493408,
          0.7169066667556763,
          -0.3532276153564453,
          0.1010790467262268,
          1.2599552869796753,
          -0.847542941570282,
          0.5497564077377319,
          -0.43326491117477417,
          -1.36493980884552,
          2.6676907539367676,
          2.1461496353149414,
          -0.6819543838500977,
          2.5697803497314453,
          0.33021411299705505,
          -1.1036951541900635,
          2.7909650802612305,
          -0.8115905523300171,
          -0.13163790106773376,
          -0.6428123116493225,
          0.1411353051662445,
          -0.3715883195400238,
          0.14421199262142181,
          0.5992304682731628,
          0.7350497245788574,
          -0.12632523477077484,
          0.2774863839149475,
          -0.2620290219783783,
          -0.95940762758255,
          0.4593476951122284,
          -0.526922881603241,
          0.8249243497848511,
          -0.16224297881126404,
          0.17860443890094757,
          -1.0262932777404785,
          -0.647541344165802,
          -1.233443021774292,
          -1.244123101234436,
          -0.07208255678415298,
          -1.183549165725708,
          -1.2554597854614258,
          -0.4786188304424286,
          0.5693191885948181,
          -0.540253758430481,
          0.1862599402666092,
          0.25122320652008057,
          0.23482048511505127,
          -0.6530400514602661,
          0.6973398327827454,
          0.3595065176486969,
          0.5557264089584351,
          -0.88006991147995,
          1.0118076801300049,
          -0.4679006040096283,
          -0.003212586510926485,
          -2.2874135971069336,
          -1.0889878273010254,
          1.3053151369094849,
          -1.418636441230774,
          1.667695164680481,
          0.9557870626449585,
          -1.7919511795043945,
          -1.8162891864776611,
          -1.5296945571899414,
          1.2497987747192383,
          -2.939755439758301,
          -1.4036526679992676,
          -1.645336389541626,
          1.0680568218231201,
          0.6758681535720825,
          1.4284002780914307,
          1.25856614112854,
          1.2402207851409912,
          -0.7692404389381409,
          -0.7783706188201904,
          -1.5419166088104248,
          0.09901708364486694,
          -2.729846477508545,
          1.5598411560058594,
          1.203935980796814,
          -0.8799447417259216,
          -2.219440460205078,
          -2.9393410682678223,
          -0.6676379442214966,
          0.44365862011909485,
          -0.7197853922843933,
          -0.28108736872673035,
          -1.7025911808013916,
          -1.0445373058319092,
          0.6017831563949585,
          -0.8766176700592041,
          1.0358636379241943,
          0.8660922050476074,
          -1.573654294013977,
          -1.112855315208435,
          -1.3706097602844238,
          0.7071799635887146,
          -1.6974331140518188,
          -0.8340392708778381,
          -0.9962547421455383,
          1.0840100049972534,
          0.6114444732666016,
          0.675843358039856,
          1.0797652006149292,
          0.6642861366271973,
          -0.8049070239067078,
          -0.5035468339920044,
          -0.5788367986679077,
          -0.3391338884830475,
          -1.6257582902908325,
          0.9276242256164551,
          0.5381430387496948,
          -0.40282002091407776,
          -1.574059009552002,
          -2.1757805347442627,
          -0.4170788526535034,
          0.09519405663013458,
          0.5825923681259155,
          0.8207970857620239,
          0.34922677278518677,
          0.6070592999458313,
          0.7007123827934265,
          -0.341418981552124,
          0.48184525966644287,
          0.18574616312980652,
          0.7345631718635559,
          -0.5663313269615173,
          0.7098370790481567,
          0.061625637114048004,
          -0.6055997610092163,
          -0.5588883757591248,
          -0.21918709576129913,
          -0.14139394462108612,
          -0.18720903992652893,
          0.7590374946594238,
          -0.23729251325130463,
          -0.11149542778730392,
          0.2278733104467392,
          -0.026731867343187332,
          -0.815595269203186,
          0.5622537732124329,
          -0.6850927472114563,
          0.5060056447982788,
          0.952960193157196,
          -0.16815721988677979,
          0.524283766746521,
          0.35005611181259155,
          -0.8110880255699158,
          0.7567063570022583,
          -0.2546488046646118,
          0.10779416561126709,
          0.10324452817440033,
          0.37154969573020935,
          0.7489729523658752,
          0.6245083212852478,
          1.0206366777420044,
          0.22575393319129944,
          0.07651577889919281,
          -0.47908836603164673,
          0.5065557360649109,
          0.7918614745140076,
          -0.722751259803772,
          -0.4652462601661682,
          -0.7170449495315552,
          -0.012360407039523125,
          0.2935810685157776,
          0.4965370297431946,
          0.12170244753360748,
          0.02104242891073227,
          -0.4737454652786255,
          0.7137760519981384,
          -0.32626965641975403,
          0.2362966388463974,
          -0.3157603144645691,
          1.014054775238037,
          0.17781250178813934,
          0.9275016784667969,
          -0.38466063141822815,
          -0.5580828785896301,
          1.5797803401947021,
          -1.7468807697296143,
          3.4695117473602295,
          3.1442131996154785,
          0.2661930322647095,
          2.29658842086792,
          1.6872849464416504,
          -2.8361928462982178,
          -0.944308340549469,
          0.251010537147522,
          2.364928960800171,
          -1.195110559463501,
          1.361695408821106,
          -1.8298283815383911,
          -2.244083881378174,
          -0.2744561433792114,
          1.0892682075500488,
          0.187141552567482,
          -0.9826950430870056,
          2.9303362369537354,
          -0.4853023588657379,
          1.0596529245376587,
          2.808687210083008,
          -2.607999801635742,
          -1.983581304550171,
          2.9010848999023438,
          -2.4941353797912598,
          0.5222735404968262,
          3.0975441932678223,
          -2.5852959156036377,
          2.4422621726989746,
          0.11889543384313583,
          1.0063655376434326,
          -0.8173407912254333,
          1.43274986743927,
          1.309015154838562,
          -0.08337509632110596,
          0.8776620626449585,
          0.5710203647613525,
          -1.2688789367675781,
          -0.7224569320678711,
          0.4480316936969757,
          0.8970849514007568,
          -0.24650350213050842,
          0.4752616882324219,
          -0.8823723196983337,
          -1.0834815502166748,
          0.0718545913696289,
          0.9939677715301514,
          0.5375362038612366,
          -0.07241777330636978,
          1.1701791286468506,
          0.21225808560848236,
          0.6816086173057556,
          1.4788442850112915,
          -1.2682037353515625,
          -0.867313802242279,
          1.0208563804626465,
          -1.0644770860671997,
          0.04864870756864548,
          1.397992730140686,
          -1.0497803688049316,
          1.129468560218811,
          0.07668528705835342,
          0.6495709419250488,
          -0.5010551810264587,
          0.463727205991745,
          0.11233703792095184,
          -0.0726667270064354,
          0.05512920394539833,
          -0.5964385271072388,
          -0.35525813698768616,
          -0.7049746513366699,
          -0.009290036745369434,
          0.05478527396917343,
          0.40134304761886597,
          -0.02444816194474697,
          -0.7234377264976501,
          0.3758772015571594,
          0.437595009803772,
          0.6802679300308228,
          0.05147961899638176,
          -0.0296122208237648,
          -0.38745254278182983,
          0.1616208702325821,
          0.3993007242679596,
          0.7932078838348389,
          -0.7382850646972656,
          0.14214938879013062,
          -0.06736220419406891,
          -0.10855826735496521,
          -0.7903432250022888,
          0.17011617124080658,
          -0.7876507639884949,
          0.640191912651062,
          0.4656539857387543,
          0.8416580557823181,
          -1.5709623098373413,
          0.3227315843105316,
          -0.4052042067050934,
          1.8027236461639404,
          0.5432678461074829,
          -2.3154296875,
          0.38805803656578064,
          -2.5923221111297607,
          -2.294912338256836,
          0.9713423252105713,
          0.6309345364570618,
          0.5817329287528992,
          -1.9942960739135742,
          2.0924787521362305,
          0.6670473217964172,
          0.9068464040756226,
          -1.700950026512146,
          -1.7612920999526978,
          -2.167623281478882,
          -1.3840852975845337,
          -1.610832929611206,
          0.6854140162467957,
          -0.19159099459648132,
          0.8923532366752625,
          -0.7307118773460388,
          1.7396442890167236,
          -2.461611270904541,
          -1.5815500020980835,
          -0.3900213837623596,
          1.0938385725021362,
          2.2130799293518066,
          -2.8679983615875244,
          0.9475533366203308,
          -1.1220672130584717,
          0.528936505317688,
          1.7547059059143066,
          1.5168468952178955,
          0.9323624968528748,
          1.3980510234832764,
          0.8818405866622925,
          -1.2899117469787598,
          1.2798559665679932,
          -2.1229209899902344,
          1.6737027168273926,
          0.7584370970726013,
          -0.9294331669807434,
          -2.936352491378784,
          -2.951282501220703,
          -2.4887490272521973,
          -2.1600143909454346,
          0.7742785215377808,
          -2.3339884281158447,
          -2.1818623542785645,
          -2.1023685932159424,
          1.4773072004318237,
          -1.8587754964828491,
          0.5374994277954102,
          -0.548413872718811,
          1.4002333879470825,
          -0.0952412560582161,
          1.4111765623092651,
          0.3471618592739105,
          1.1289597749710083
        ],
        "bias": [
          0.23936264216899872,
          -0.2257503718137741,
          -0.18864552676677704,
          -0.27768272161483765,
          0.36141788959503174,
          0.006477616261690855,
          -0.002880723914131522,
          0.019961388781666756,
          0.21508680284023285,
          0.11083408445119858,
          0.09352589398622513,
          -0.08241268992424011,
          0.029733775183558464,
          -0.15876922011375427,
          0.08838291466236115,
          0.29150813817977905,
          -0.11094902455806732,
          -0.26783832907676697,
          0.11149802803993225,
          0.013639213517308235,
          0.08980198204517365,
          0.23229634761810303,
          -0.20783574879169464,
          -0.15210406482219696,
          0.02283470146358013,
          -0.08398059010505676,
          0.03618293255567551,
          0.019818153232336044,
          0.04794779047369957,
          -0.028427915647625923,
          -0.11878306418657303,
          -0.37002474069595337
        ]
      },
      {
        "type": "sigmoid"
      },
      {
        "type": "linear",
        "in_features": 32,
        "out_features": 3,
        "weights": [
          0.026402518153190613,
          -1.1710015535354614,
          0.5550812482833862,
          0.07460740953683853,
          -0.8199613690376282,
          -0.9947892427444458,
          0.7888720631599426,
          0.5007652640342712,
          -0.32329434156417847,
          -0.5006608963012695,
          -0.4979062080383301,
          -1.743760347366333,
          0.6413708925247192,
          1.2536735534667969,
          0.7768454551696777,
          -1.001496434211731,
          4.221731185913086,
          0.7733651399612427,
          -0.3762986660003662,
          -0.7642550468444824,
          -0.9080035090446472,
          -1.4494537115097046,
          -0.1274133026599884,
          0.2249184548854828,
          -0.7685107588768005,
          0.8151146173477173,
          -0.14267438650131226,
          1.947499394416809,
          0.8400229215621948,
          0.534659743309021,
          -0.2988685965538025,
          0.028421593829989433,
          0.7323344349861145,
          -0.1656654179096222,
          0.7446736693382263,
          -1.154120683670044,
          -0.3256881833076477,
          0.47667738795280457,
          -0.4021865427494049,
          0.6948380470275879,
          1.0033490657806396,
          4.362746715545654,
          -0.02665265090763569,
          -0.8718599677085876,
          2.7155239582061768,
          -0.8407011032104492,
          0.39805397391319275,
          0.2201167345046997,
          -0.0037971865385770798,
          0.1445043683052063,
          -1.2642377614974976,
          -0.7062011957168579,
          1.0460541248321533,
          -0.05400675907731056,
          -1.4949743747711182,
          0.04475025087594986,
          0.41314077377319336,
          -0.8235801458358765,
          -0.6735429763793945,
          -0.147825688123703,
          0.6027159094810486,
          0.7850852608680725,
          0.01757889613509178,
          -4.7816057205200195,
          0.6872801184654236,
          -0.8446347117424011,
          0.1949964463710785,
          1.688640832901001,
          -0.5944251418113708,
          1.1122344732284546,
          -1.0061368942260742,
          0.9808967113494873,
          -0.6996067762374878,
          -0.13375017046928406,
          1.165886402130127,
          0.536398708820343,
          -0.502426266670227,
          -0.5151338577270508,
          0.6019997000694275,
          -0.5677589178085327,
          0.23470133543014526,
          -1.5118579864501953,
          -0.26509031653404236,
          -0.5161394476890564,
          -0.45651116967201233,
          0.3791407644748688,
          -0.9752596616744995,
          4.563594341278076,
          2.7122373580932617,
          0.33668744564056396,
          0.7153407335281372,
          0.07124112546443939,
          -0.06467751413583755,
          -0.7220781445503235,
          -4.39009428024292,
          0.18514806032180786
        ],
        "bias": [
          0.0697234719991684,
          0.07446694374084473,
          -0.2566094994544983
        ]
      },
      {
        "type": "sigmoid"
      }
    ]
  }
}