{
  "model": {
    "input": 30,
    "layers": [
      {
        "bias": [
          0.0948486328125,
          -0.0251312255859375,
          0.1400146484375,
          -0.057037353515625,
          -0.06494140625,
          -0.06024169921875,
          -0.060302734375,
          0.0916748046875,
          0.12384033203125,
          0.062744140625,
          0.052215576171875,
          -0.057891845703125,
          0.07171630859375,
          -0.061309814453125,
          -0.057769775390625,
          -0.0633544921875,
          0.0704345703125,
          -0.05963134765625,
          -0.069580078125,
          0.0675048828125,
          -0.056365966796875,
          0.07470703125,
          -0.035675048828125,
          -0.055084228515625,
          -0.0635986328125,
          -0.052215576171875,
          0.0665283203125,
          0.030731201171875,
          -0.0667724609375,
          -0.0660400390625,
          -0.0635986328125,
          -0.060516357421875
        ],
        "in_features": 30,
        "out_features": 32,
        "type": "linear",
        "weights": [
          0.280029296875,
          -0.1114501953125,
          -0.0570068359375,
          -0.1337890625,
          0.1998291015625,
          -0.80224609375,
          0.1436767578125,
          -0.1578369140625,
          0.1424560546875,
          0.01715087890625,
          -0.201416015625,
          -0.1627197265625,
          0.2236328125,
          -0.038604736328125,
          0.328125,
          0.0222320556640625,
          -0.79638671875,
          0.34765625,
          0.1552734375,
          0.276123046875,
          -0.352294921875,
          -0.08416748046875,
          -0.135498046875,
          -0.275634765625,
          0.259521484375,
          0.143310546875,
          -0.09283447265625,
          0.16455078125,
          -0.52734375,
          -0.26806640625,
          0.1500244140625,
          -0.2235107421875,
          -0.2156982421875,
          0.634765625,
          -0.1395263671875,
          0.083740234375,
          0.0548095703125,
          -0.6162109375,
          -0.1007080078125,
          0.25146484375,
          0.61767578125,
          -0.0187530517578125,
          0.193359375,
          0.1611328125,
          -0.08953857421875,
          -0.174072265625,
          -0.1533203125,
          -0.43212890625,
          0.09075927734375,
          0.309326171875,
          0.349365234375,
          -0.451416015625,
          0.456787109375,
          0.26171875,
          0.08929443359375,
          0.0418701171875,
          -0.0083465576171875,
          -0.301513671875,
          -0.255615234375,
          0.133056640625,
          0.480224609375,
          -0.33935546875,
          -0.3212890625,
          -0.120361328125,
          -0.41845703125,
          -0.3251953125,
          -0.08740234375,
          -0.0294189453125,
          -0.501953125,
          -0.311279296875,
          0.07080078125,
          -0.325439453125,
          0.3642578125,
          -0.1900634765625,
          -0.276123046875,
          -0.0302581787109375,
          0.10687255859375,
          -0.0135650634765625,
          -0.326416015625,
          -0.2386474609375,
          0.11749267578125,
          -0.132080078125,
          -0.203369140625,
          0.29150390625,
          0.452880859375,
          0.1357421875,
          -0.2398681640625,
          -0.3486328125,
          -0.6279296875,
          -0.324951171875,
          0.062286376953125,
          -0.09735107421875,
          -0.1141357421875,
          -0.2158203125,
          -0.012786865234375,
          -0.2442626953125,
          -0.430419921875,
          -0.22900390625,
          0.1954345703125,
          0.1480712890625,
          0.2152099609375,
          0.36328125,
          -0.08642578125,
          0.10693359375,
          0.4013671875,
          -0.2305908203125,
          0.33642578125,
          0.01806640625,
          -0.1973876953125,
          -0.69873046875,
          0.06793212890625,
          0.2037353515625,
          0.02813720703125,
          0.019287109375,
          0.191650390625,
          -0.0200042724609375,
          0.281494140625,
          0.3525390625,
          -0.041839599609375,
          -0.1676025390625,
          -0.171630859375,
          0.10003662109375,
          0.239501953125,
          -0.419189453125,
          0.08563232421875,
          -0.141357421875,
          -0.345458984375,
          0.1556396484375,
          -0.264892578125,
          0.00615692138671875,
          0.35302734375,
          0.10284423828125,
          -0.03460693359375,
          -0.599609375,
          0.037384033203125,
          0.374267578125,
          -0.04217529296875,
          0.240478515625,
          0.203369140625,
          -0.281982421875,
          0.42724609375,
          -0.0005788803100585938,
          -0.103271484375,
          -0.0478515625,
          0.1650390625,
          -0.222900390625,
          -0.392578125,
          -0.1611328125,
          0.01078033447265625,
          0.332275390625,
          -0.3125,
          0.056304931640625,
          0.260498046875,
          -0.290283203125,
          -0.30126953125,
          -0.432861328125,
          -0.360595703125,
          0.0225830078125,
          -0.252685546875,
          0.0198974609375,
          -0.2093505859375,
          0.303955078125,
          0.3701171875,
          -0.03204345703125,
          -0.84033203125,
          -0.30419921875,
          0.2249755859375,
          -0.36474609375,
          -0.3408203125,
          0.376220703125,
          -0.107666015625,
          -0.0160369873046875,
          0.2265625,
          -0.494873046875,
          0.0144805908203125,
          -0.2430419921875,
          -0.035003662109375,
          -0.054840087890625,
          0.1390380859375,
          0.638671875,
          0.2978515625,
          0.013397216796875,
          0.51220703125,
          0.01509857177734375,
          0.251708984375,
          0.266357421875,
          0.133544921875,
          -0.0081939697265625,
          -0.169189453125,
          -0.400390625,
          -0.01390838623046875,
          -0.01450347900390625,
          0.2303466796875,
          -0.31494140625,
          0.0262298583984375,
          0.2344970703125,
          -0.0025577545166015625,
          -0.211669921875,
          0.1805419921875,
          -0.30859375,
          0.1297607421875,
          0.27978515625,
          0.8330078125,
          0.200439453125,
          -0.00685882568359375,
          -0.11859130859375,
          -0.046539306640625,
          0.11083984375,
          -0.2373046875,
          0.01506805419921875,
          0.155029296875,
          0.12127685546875,
          0.307373046875,
          0.44189453125,
          0.279541015625,
          -0.16455078125,
          -0.2203369140625,
          0.039581298828125,
          0.4580078125,
          0.322998046875,
          -0.08990478515625,
          0.0576171875,
          0.0670166015625,
          0.007091522216796875,
          0.09173583984375,
          0.086181640625,
          -0.04229736328125,
          0.6669921875,
          -0.2423095703125,
          0.1378173828125,
          -0.395751953125,
          -0.0237579345703125,
          0.2305908203125,
          -0.368408203125,
          0.043487548828125,
          0.089111328125,
          -0.11419677734375,
          -0.6123046875,
          -0.369384765625,
          0.355712890625,
          0.235595703125,
          0.3623046875,
          -0.03643798828125,
          -0.444091796875,
          0.054443359375,
          0.2069091796875,
          0.17529296875,
          0.1107177734375,
          0.384521484375,
          0.365234375,
          0.3349609375,
          0.3154296875,
          -0.0975341796875,
          -0.02008056640625,
          0.0231781005859375,
          0.29150390625,
          0.2529296875,
          0.211181640625,
          0.26904296875,
          0.00792694091796875,
          -0.1953125,
          -0.06884765625,
          0.36181640625,
          0.0028667449951171875,
          -0.11138916015625,
          -0.08538818359375,
          0.56298828125,
          -0.548828125,
          -0.1185302734375,
          0.1395263671875,
          -0.06512451171875,
          -0.22412109375,
          0.0616455078125,
          -0.65673828125,
          0.161865234375,
          -0.2408447265625,
          0.52734375,
          0.0190582275390625,
          -0.35498046875,
          -0.6259765625,
          0.175048828125,
          0.10498046875,
          0.2783203125,
          -0.46044921875,
          0.193603515625,
          -0.273681640625,
          0.06707763671875,
          -0.39208984375,
          0.327880859375,
          -0.1702880859375,
          -0.2587890625,
          -0.16796875,
          0.338623046875,
          -0.10760498046875,
          0.2161865234375,
          -0.193359375,
          -0.05908203125,
          -0.1397705078125,
          -0.54248046875,
          0.1112060546875,
          0.1776123046875,
          0.288330078125,
          0.10479736328125,
          -0.4580078125,
          -0.334228515625,
          0.271240234375,
          0.06683349609375,
          -0.340576171875,
          0.07220458984375,
          -0.119384765625,
          -0.15478515625,
          -0.11279296875,
          0.059539794921875,
          -0.1600341796875,
          -0.015045166015625,
          -0.0733642578125,
          0.5576171875,
          -0.43408203125,
          0.12841796875,
          -0.197509765625,
          -0.350341796875,
          -0.330078125,
          -0.04425048828125,
          -0.125732421875,
          -0.33837890625,
          0.2415771484375,
          0.1868896484375,
          0.04278564453125,
          -0.184814453125,
          -0.06964111328125,
          0.22021484375,
          -0.09783935546875,
          -0.497314453125,
          -0.373291015625,
          0.08416748046875,
          0.341796875,
          0.1361083984375,
          0.36865234375,
          0.1697998046875,
          0.0321044921875,
          -0.1396484375,
          -0.0880126953125,
          0.0787353515625,
          -0.1837158203125,
          -0.1627197265625,
          -0.057891845703125,
          0.36279296875,
          0.109619140625,
          -0.0025787353515625,
          0.109130859375,
          0.064697265625,
          -0.0212554931640625,
          0.49072265625,
          -0.0655517578125,
          -0.427490234375,
          -0.0853271484375,
          -0.06671142578125,
          -0.032928466796875,
          -0.1480712890625,
          0.418701171875,
          -0.08746337890625,
          0.2724609375,
          0.525390625,
          0.26025390625,
          0.10650634765625,
          0.2308349609375,
          0.298583984375,
          0.06646728515625,
          -0.177001953125,
          -0.0005002021789550781,
          0.0016374588012695312,
          -0.00830078125,
          0.48583984375,
          -0.47265625,
          -0.08892822265625,
          -0.489990234375,
          -0.358642578125,
          0.153564453125,
          -0.33740234375,
          -0.26318359375,
          -0.04644775390625,
          0.1676025390625,
          -0.3828125,
          -0.2049560546875,
          -0.0350341796875,
          -0.0250244140625,
          -0.237548828125,
          0.00284576416015625,
          0.005565643310546875,
          -0.0966796875,
          -0.279296875,
          -0.03155517578125,
          0.0035419464111328125,
          -0.338134765625,
          0.058258056640625,
          0.006374359130859375,
          -0.279296875,
          -0.164794921875,
          -0.10308837890625,
          -0.1591796875,
          -0.005680084228515625,
          0.2142333984375,
          -0.20458984375,
          0.39111328125,
          -0.00794219970703125,
          0.1341552734375,
          -0.224853515625,
          -0.032958984375,
          -0.1605224609375,
          0.21826171875,
          0.129638671875,
          -0.111328125,
          -0.175537109375,
          -0.057037353515625,
          -0.23681640625,
          0.1754150390625,
          0.1510009765625,
          -0.374755859375,
          0.031402587890625,
          -0.06463623046875,
          0.400146484375,
          0.1884765625,
          0.155029296875,
          -0.58837890625,
          0.2220458984375,
          0.251220703125,
          0.1387939453125,
          -0.05712890625,
          0.37548828125,
          0.180908203125,
          0.1005859375,
          -0.1651611328125,
          -0.050628662109375,
          -0.0233154296875,
          0.061920166015625,
          0.2509765625,
          0.01074981689453125,
          0.151123046875,
          -0.5419921875,
          0.4931640625,
          -0.383544921875,
          -0.251220703125,
          0.16015625,
          0.229248046875,
          0.263671875,
          -0.203369140625,
          0.1070556640625,
          -0.055633544921875,
          0.081787109375,
          -0.1907958984375,
          0.1488037109375,
          0.0193023681640625,
          0.05084228515625,
          0.271240234375,
          -0.35546875,
          0.2451171875,
          0.1356201171875,
          0.0282135009765625,
          -0.1282958984375,
          -0.04901123046875,
          0.318359375,
          0.1044921875,
          0.52099609375,
          -0.016357421875,
          -0.10089111328125,
          -0.451171875,
          0.7099609375,
          -0.12890625,
          0.09857177734375,
          0.34326171875,
          0.50537109375,
          0.0955810546875,
          0.1629638671875,
          -0.0209503173828125,
          -0.34765625,
          -0.046875,
          0.143798828125,
          0.050323486328125,
          0.52197265625,
          0.28955078125,
          0.06097412109375,
          -0.1923828125,
          -0.1923828125,
          0.04779052734375,
          0.315185546875,
          -0.6162109375,
          0.4267578125,
          0.0484619140625,
          0.61328125,
          -0.0789794921875,
          -0.114501953125,
          -0.5830078125,
          0.491455078125,
          -0.4443359375,
          0.08160400390625,
          0.05938720703125,
          0.244873046875,
          -0.1767578125,
          -0.0185394287109375,
          0.09759521484375,
          -0.08251953125,
          -0.1466064453125,
          0.0535888671875,
          0.147216796875,
          0.032989501953125,
          -0.375244140625,
          -0.35205078125,
          -0.01464080810546875,
          0.164306640625,
          0.1572265625,
          -0.13720703125,
          0.2237548828125,
          -0.291015625,
          0.363037109375,
          -0.00693511962890625,
          0.480224609375,
          -0.316650390625,
          0.136962890625,
          0.1776123046875,
          0.00799560546875,
          -0.2210693359375,
          0.14501953125,
          -0.4580078125,
          0.2178955078125,
          0.31640625,
          -0.369384765625,
          0.181640625,
          -0.281982421875,
          -0.1546630859375,
          -0.058135986328125,
          0.333984375,
          -0.281494140625,
          0.045989990234375,
          0.131591796875,
          -0.26611328125,
          0.11376953125,
          0.10498046875,
          -0.117919921875,
          0.029754638671875,
          0.08807373046875,
          0.01375579833984375,
          -0.28662109375,
          0.271728515625,
          0.228759765625,
          0.208984375,
          -0.1585693359375,
          -0.165283203125,
          0.10809326171875,
          0.25,
          0.1749267578125,
          0.229248046875,
          -0.0272216796875,
          0.015869140625,
          0.0277862548828125,
          0.228515625,
          -0.20361328125,
          0.10943603515625,
          -0.020477294921875,
          -0.33056640625,
          -0.01605224609375,
          -0.385986328125,
          0.12939453125,
          -0.032135009765625,
          -0.316650390625,
          -0.5390625,
          -0.483154296875,
          -0.07806396484375,
          0.2239990234375,
          -0.0650634765625,
          0.55419921875,
          0.384521484375,
          -0.0968017578125,
          0.5,
          0.052978515625,
          0.2486572265625,
          -0.140380859375,
          -0.11968994140625,
          -0.1669921875,
          0.04180908203125,
          0.09710693359375,
          -0.354736328125,
          0.12109375,
          -0.0014257431030273438,
          -0.40283203125,
          -0.48388671875,
          0.0086212158203125,
          -0.250244140625,
          0.227783203125,
          -0.10565185546875,
          0.28173828125,
          -0.34130859375,
          0.288330078125,
          -0.493896484375,
          0.35791015625,
          -0.269775390625,
          -0.443359375,
          -0.252197265625,
          -0.02423095703125,
          -0.28759765625,
          -0.314697265625,
          0.036651611328125,
          0.10174560546875,
          -0.130126953125,
          0.04296875,
          -0.0191192626953125,
          0.169921875,
          -0.316650390625,
          -0.432861328125,
          0.0706787109375,
          -0.250244140625,
          0.1990966796875,
          -0.259521484375,
          0.1484375,
          -0.315673828125,
          0.09649658203125,
          -0.07354736328125,
          0.5078125,
          -0.38330078125,
          0.0133209228515625,
          -0.06634521484375,
          0.261474609375,
          -0.168212890625,
          0.002788543701171875,
          0.061279296875,
          -0.323486328125,
          0.2000732421875,
          -0.0816650390625,
          0.1898193359375,
          0.146240234375,
          0.334228515625,
          -0.07550048828125,
          -0.65185546875,
          0.114501953125,
          0.01552581787109375,
          0.287109375,
          0.002727508544921875,
          0.08563232421875,
          0.1483154296875,
          -0.06573486328125,
          0.41015625,
          0.11468505859375,
          0.0814208984375,
          -0.01407623291015625,
          -0.297119140625,
          -0.041168212890625,
          0.1358642578125,
          -0.0968017578125,
          0.31298828125,
          -0.3173828125,
          -0.2099609375,
          0.307861328125,
          0.46875,
          -0.25048828125,
          -0.0226287841796875,
          -0.2490234375,
          -0.313720703125,
          -0.35693359375,
          -0.62646484375,
          -0.305908203125,
          -0.312255859375,
          0.06976318359375,
          -0.042694091796875,
          0.2491455078125,
          -0.4072265625,
          0.4638671875,
          -0.1951904296875,
          -0.203125,
          -0.296142578125,
          -0.373779296875,
          -0.0226287841796875,
          -0.0831298828125,
          -0.004840850830078125,
          0.4853515625,
          -0.64111328125,
          0.15673828125,
          0.23681640625,
          -0.1697998046875,
          0.32421875,
          -0.0201416015625,
          0.03582763671875,
          -0.05084228515625,
          0.05291748046875,
          0.391845703125,
          0.1409912109375,
          0.043365478515625,
          -0.0191802978515625,
          0.2103271484375,
          0.10369873046875,
          0.1390380859375,
          0.03680419921875,
          0.1507568359375,
          0.40283203125,
          -0.2294921875,
          0.611328125,
          0.1650390625,
          -0.11407470703125,
          -0.57275390625,
          -0.1546630859375,
          0.2059326171875,
          -0.30126953125,
          -0.1339111328125,
          0.251953125,
          -0.1744384765625,
          0.1395263671875,
          0.301513671875,
          -0.1025390625,
          -0.51416015625,
          -0.1754150390625,
          0.37939453125,
          0.2275390625,
          0.1199951171875,
          0.361083984375,
          -0.466064453125,
          -0.05694580078125,
          -0.318603515625,
          -0.11114501953125,
          -0.1087646484375,
          -0.404052734375,
          -0.0626220703125,
          -0.2607421875,
          0.08966064453125,
          0.07427978515625,
          -0.1346435546875,
          -0.130615234375,
          -0.06951904296875,
          -0.1993408203125,
          0.377685546875,
          0.1552734375,
          -0.26171875,
          -0.062225341796875,
          0.2177734375,
          -0.64208984375,
          0.270751953125,
          0.1800537109375,
          0.1451416015625,
          -0.27490234375,
          0.264892578125,
          0.1864013671875,
          -0.042449951171875,
          -0.42431640625,
          -0.048004150390625,
          0.2724609375,
          -0.139404296875,
          -0.0103912353515625,
          -0.2095947265625,
          0.12384033203125,
          0.04986572265625,
          0.219482421875,
          -0.1392822265625,
          0.025390625,
          -0.4970703125,
          -0.0775146484375,
          0.07379150390625,
          0.06109619140625,
          0.11041259765625,
          0.038299560546875,
          0.329833984375,
          0.50732421875,
          0.43994140625,
          0.1605224609375,
          -0.040557861328125,
          0.1688232421875,
          0.163818359375,
          0.24755859375,
          -0.16845703125,
          0.011474609375,
          0.027679443359375,
          -0.06951904296875,
          0.1343994140625,
          -0.2037353515625,
          0.1527099609375,
          0.245849609375,
          -0.050628662109375,
          -0.01505279541015625,
          0.076904296875,
          -0.47509765625,
          0.708984375,
          0.115966796875,
          -0.52978515625,
          0.33837890625,
          -0.306884765625,
          -0.08697509765625,
          0.6083984375,
          -0.48974609375,
          -0.30810546875,
          0.084716796875,
          -0.007778167724609375,
          0.1585693359375,
          -0.26513671875,
          0.257080078125,
          -0.09796142578125,
          0.318603515625,
          -0.27490234375,
          -0.263671875,
          0.17724609375,
          0.2198486328125,
          0.020751953125,
          0.09967041015625,
          -0.04437255859375,
          -0.2744140625,
          -0.2113037109375,
          -0.1943359375,
          -0.3369140625,
          0.06646728515625,
          0.01500701904296875,
          -0.1671142578125,
          -0.0028438568115234375,
          0.213134765625,
          0.1385498046875,
          0.57421875,
          -0.116943359375,
          0.06964111328125,
          0.505859375,
          0.28076171875,
          0.03912353515625,
          0.201904296875,
          -0.0035533905029296875,
          -0.112548828125,
          0.1800537109375,
          0.1827392578125,
          0.45654296875,
          0.298095703125,
          -0.0168304443359375,
          0.0537109375,
          0.059539794921875,
          -0.159912109375,
          0.1766357421875,
          0.7470703125,
          0.0625,
          0.11834716796875,
          0.1920166015625,
          0.431884765625,
          -0.1224365234375,
          -0.28466796875,
          -0.360595703125,
          0.51806640625,
          0.259521484375,
          0.2447509765625,
          -0.427978515625,
          0.26318359375,
          0.2734375,
          0.059600830078125,
          0.10650634765625,
          -0.003444671630859375,
          0.444580078125,
          -0.1578369140625,
          0.304443359375,
          0.291748046875,
          0.36181640625,
          -0.358154296875,
          -0.02471923828125,
          0.258544921875,
          -0.5,
          -0.354248046875,
          -0.2435302734375,
          -0.0982666015625,
          0.136474609375,
          0.10638427734375,
          -0.630859375,
          -0.212890625,
          0.1749267578125,
          -0.05279541015625,
          -0.363525390625,
          -0.057952880859375,
          0.2098388671875,
          -0.1424560546875,
          -0.04644775390625,
          0.3134765625,
          0.338134765625,
          -0.27880859375,
          -0.11895751953125,
          -0.10791015625,
          0.27001953125,
          0.04071044921875,
          0.48583984375,
          0.37158203125,
          0.10211181640625,
          -0.08355712890625,
          0.11614990234375,
          0.05828857421875,
          0.06085205078125,
          0.2193603515625,
          -0.287841796875,
          0.1939697265625,
          0.03076171875,
          0.1185302734375,
          0.2462158203125,
          -0.030609130859375,
          0.07720947265625,
          -0.166259765625,
          0.05120849609375,
          -0.379150390625,
          -0.146728515625,
          0.029052734375,
          -0.07196044921875,
          0.0020751953125,
          0.1475830078125,
          -0.2073974609375,
          0.28271484375,
          0.233642578125,
          0.190185546875,
          0.470458984375,
          -0.016204833984375,
          -0.29443359375,
          -0.0123748779296875,
          0.1650390625,
          -0.10540771484375,
          -0.047088623046875,
          -0.03411865234375,
          0.06646728515625,
          -0.1275634765625,
          0.5322265625,
          -0.2108154296875,
          -0.258056640625,
          -0.4150390625,
          -0.05401611328125,
          0.2529296875,
          -0.07574462890625,
          0.31787109375,
          0.09710693359375,
          -0.00555419921875,
          -0.284423828125,
          -0.03887939453125,
          0.1768798828125,
          0.15234375,
          -0.275634765625,
          -0.1251220703125,
          -0.01511383056640625,
          0.059326171875,
          -0.5859375,
          0.1431884765625,
          0.2325439453125,
          0.09368896484375,
          0.040008544921875,
          -0.2330322265625,
          0.2939453125,
          0.10986328125,
          -0.146484375,
          -0.1878662109375,
          0.2008056640625,
          -0.307373046875,
          -0.254638671875,
          -0.051910400390625,
          -0.360107421875,
          -0.1644287109375,
          0.75146484375,
          0.1463623046875,
          0.298095703125,
          0.2479248046875,
          0.459228515625,
          -0.051300048828125,
          -0.180908203125,
          0.0816650390625,
          -0.0036869049072265625,
          0.16015625,
          -0.490966796875,
          0.2484130859375,
          -0.425048828125,
          -0.1505126953125,
          -0.210693359375
        ]
      },
      {
        "bias": [
          0.061920166015625,
          0.05987548828125,
          -0.06097412109375,
          -0.10076904296875,
          -0.0565185546875,
          0.066650390625,
          -0.07415771484375,
          0.0787353515625,
          -0.06475830078125,
          0.07830810546875,
          -0.055023193359375,
          0.05670166015625,
          -0.000014007091522216797,
          -0.0682373046875,
          0.06622314453125,
          -0.0648193359375,
          0.06707763671875,
          0.063232421875,
          -0.06121826171875,
          0.09674072265625,
          0.1494140625,
          -0.05908203125,
          -0.0535888671875,
          -0.05999755859375,
          0.189697265625,
          -0.04461669921875,
          -0.06048583984375,
          -0.0787353515625,
          -0.0606689453125,
          0.08306884765625,
          0.06439208984375,
          -0.060455322265625
        ],
        "in_features": 32,
        "out_features": 32,
        "type": "linear",
        "weights": [
          -0.018402099609375,
          0.4638671875,
          0.416748046875,
          0.2041015625,
          -0.23291015625,
          0.08929443359375,
          0.423828125,
          0.151611328125,
          -0.25830078125,
          0.767578125,
          0.476806640625,
          -0.09881591796875,
          0.576171875,
          -0.30078125,
          -0.122802734375,
          0.393310546875,
          0.426513671875,
          0.1944580078125,
          -0.11346435546875,
          0.061798095703125,
          0.110595703125,
          -0.1632080078125,
          -0.2032470703125,
          0.2435302734375,
          -0.19970703125,
          0.0906982421875,
          0.1031494140625,
          -0.05303955078125,
          0.1630859375,
          -0.2061767578125,
          -0.01580810546875,
          -0.30810546875,
          -0.00026035308837890625,
          0.296142578125,
          0.072021484375,
          0.09228515625,
          -0.10394287109375,
          0.39013671875,
          0.183837890625,
          -0.2137451171875,
          0.00408935546875,
          0.06793212890625,
          0.1092529296875,
          0.346435546875,
          -0.7099609375,
          -0.0192413330078125,
          -0.250244140625,
          0.2484130859375,
          -0.0450439453125,
          0.11578369140625,
          0.069091796875,
          0.32080078125,
          0.00603485107421875,
          0.1773681640625,
          0.2021484375,
          -0.1279296875,
          -0.0712890625,
          -0.20703125,
          0.14697265625,
          -0.2330322265625,
          -0.00328826904296875,
          -0.0888671875,
          -0.034027099609375,
          0.128662109375,
          -0.292724609375,
          0.318359375,
          -0.406494140625,
          0.0751953125,
          -0.2337646484375,
          -0.271728515625,
          -0.259765625,
          -0.21728515625,
          -0.326171875,
          -0.12255859375,
          -0.14404296875,
          -0.04595947265625,
          -0.036712646484375,
          0.55322265625,
          -0.07861328125,
          0.1810302734375,
          -0.00841522216796875,
          -0.03656005859375,
          -0.07684326171875,
          0.00885009765625,
          0.1373291015625,
          0.06134033203125,
          0.1123046875,
          0.276123046875,
          0.1636962890625,
          -0.1583251953125,
          -0.377197265625,
          -0.798828125,
          0.092529296875,
          -0.247314453125,
          -0.1297607421875,
          -0.061859130859375,
          -0.048553466796875,
          0.1129150390625,
          -0.3798828125,
          -0.1240234375,
          -0.333251953125,
          -0.1429443359375,
          0.16748046875,
          -0.0841064453125,
          -0.1839599609375,
          0.23388671875,
          0.0821533203125,
          -0.2264404296875,
          -0.2171630859375,
          0.352294921875,
          0.1494140625,
          -0.0726318359375,
          -0.1446533203125,
          0.1632080078125,
          0.01351165771484375,
          0.1319580078125,
          -0.06634521484375,
          0.1798095703125,
          -0.042510986328125,
          -0.2626953125,
          -0.336669921875,
          -0.18798828125,
          -0.011871337890625,
          -0.0555419921875,
          0.234130859375,
          -0.0264129638671875,
          -0.1458740234375,
          -0.01149749755859375,
          0.48876953125,
          0.179443359375,
          -0.300048828125,
          0.058837890625,
          -0.224365234375,
          0.01824951171875,
          0.5673828125,
          -0.28662109375,
          -0.12890625,
          0.253662109375,
          -0.322998046875,
          -0.65771484375,
          -0.344970703125,
          0.20068359375,
          -0.1600341796875,
          -0.495361328125,
          -0.2403564453125,
          -0.0159149169921875,
          -0.0224761962890625,
          -0.10272216796875,
          0.1591796875,
          0.347412109375,
          -0.051605224609375,
          -0.2457275390625,
          -0.432373046875,
          -0.04486083984375,
          0.01023101806640625,
          0.07208251953125,
          -0.2313232421875,
          -0.25830078125,
          0.10308837890625,
          -0.302001953125,
          -0.24658203125,
          0.10321044921875,
          0.062408447265625,
          -0.059539794921875,
          0.1268310546875,
          -0.284423828125,
          0.324462890625,
          1.0078125,
          0.035400390625,
          0.62841796875,
          0.3681640625,
          -0.034423828125,
          0.4033203125,
          -0.183349609375,
          0.36865234375,
          0.42919921875,
          -0.269287109375,
          0.06121826171875,
          -0.06817626953125,
          0.2191162109375,
          -0.09515380859375,
          0.2222900390625,
          0.1739501953125,
          -0.39599609375,
          -0.09625244140625,
          0.14599609375,
          0.4521484375,
          -0.1956787109375,
          0.2037353515625,
          -0.4755859375,
          -0.254638671875,
          0.17236328125,
          0.5439453125,
          -0.61572265625,
          0.400634765625,
          -0.6904296875,
          0.126953125,
          -0.34912109375,
          -0.59716796875,
          -0.026824951171875,
          -0.08819580078125,
          -0.232666015625,
          0.1943359375,
          -0.338623046875,
          -0.298828125,
          -0.0023632049560546875,
          0.12054443359375,
          0.11541748046875,
          -0.5673828125,
          0.151611328125,
          0.1082763671875,
          -0.326171875,
          0.27294921875,
          -0.29248046875,
          -0.274169921875,
          0.25341796875,
          -0.121826171875,
          -0.54150390625,
          -0.59521484375,
          -0.1363525390625,
          -0.31494140625,
          0.2998046875,
          -0.04022216796875,
          -0.195068359375,
          -0.07781982421875,
          0.64013671875,
          0.408935546875,
          -0.417236328125,
          0.1068115234375,
          0.365234375,
          0.06268310546875,
          -0.0137176513671875,
          0.1810302734375,
          -0.10772705078125,
          0.2269287109375,
          0.0245208740234375,
          0.1610107421875,
          -0.202880859375,
          -0.07281494140625,
          -0.0287628173828125,
          -0.2076416015625,
          0.2293701171875,
          -0.5517578125,
          0.11370849609375,
          -0.36376953125,
          0.362548828125,
          0.207275390625,
          0.1802978515625,
          0.2315673828125,
          -0.07501220703125,
          0.392822265625,
          0.35791015625,
          -0.0791015625,
          0.326171875,
          0.2021484375,
          -0.1676025390625,
          -0.0279388427734375,
          -0.07037353515625,
          -0.1572265625,
          -0.0765380859375,
          -0.2025146484375,
          -0.03802490234375,
          0.07989501953125,
          0.08758544921875,
          -0.054534912109375,
          -0.273193359375,
          -0.295654296875,
          0.169677734375,
          -0.247314453125,
          -0.413818359375,
          -0.47216796875,
          -0.0986328125,
          -0.281494140625,
          -0.0085601806640625,
          -0.1436767578125,
          0.258544921875,
          -0.07537841796875,
          -0.328369140625,
          -0.370361328125,
          0.0180206298828125,
          -0.466064453125,
          -0.5068359375,
          0.147705078125,
          -0.18212890625,
          0.3837890625,
          -0.3681640625,
          -0.16015625,
          0.429443359375,
          0.11865234375,
          0.43701171875,
          0.3076171875,
          -0.260009765625,
          0.10894775390625,
          -0.21484375,
          -0.1888427734375,
          0.0013952255249023438,
          0.2044677734375,
          -0.383056640625,
          0.09051513671875,
          0.26171875,
          0.03564453125,
          0.1038818359375,
          0.193603515625,
          0.401611328125,
          -0.388671875,
          0.23193359375,
          -0.1436767578125,
          0.1192626953125,
          0.07745361328125,
          0.1580810546875,
          -0.195068359375,
          0.230224609375,
          0.1883544921875,
          -0.1949462890625,
          0.22265625,
          0.059600830078125,
          0.2783203125,
          -0.0880126953125,
          0.338134765625,
          -0.2025146484375,
          0.30908203125,
          0.06787109375,
          0.11883544921875,
          0.177978515625,
          -0.2734375,
          0.251708984375,
          -0.256591796875,
          -0.1695556640625,
          -0.140869140625,
          0.07745361328125,
          -0.0611572265625,
          0.305908203125,
          -0.1983642578125,
          0.1788330078125,
          0.074462890625,
          -0.127197265625,
          -0.06884765625,
          -0.1795654296875,
          -0.279541015625,
          0.09576416015625,
          -0.1290283203125,
          0.138916015625,
          0.0582275390625,
          0.42578125,
          0.481201171875,
          0.05517578125,
          -0.3369140625,
          0.2705078125,
          -0.07818603515625,
          0.0013113021850585938,
          0.1793212890625,
          0.307373046875,
          0.2362060546875,
          0.12078857421875,
          -0.396728515625,
          0.378173828125,
          0.35888671875,
          -0.273681640625,
          -0.50244140625,
          -0.050872802734375,
          -0.194580078125,
          0.146484375,
          0.03350830078125,
          0.09356689453125,
          0.08074951171875,
          0.1434326171875,
          -0.7783203125,
          0.219482421875,
          -0.020416259765625,
          0.20458984375,
          0.00994110107421875,
          0.175048828125,
          0.126953125,
          0.263427734375,
          0.3291015625,
          0.3017578125,
          -0.07843017578125,
          -0.0189208984375,
          0.219970703125,
          0.1649169921875,
          0.2607421875,
          0.439697265625,
          0.2349853515625,
          -0.1920166015625,
          0.176025390625,
          0.1573486328125,
          0.455810546875,
          -0.216064453125,
          -0.204345703125,
          0.0638427734375,
          0.1949462890625,
          0.37744140625,
          0.331298828125,
          0.020660400390625,
          0.291748046875,
          -0.09259033203125,
          0.10400390625,
          -0.364990234375,
          0.18798828125,
          -0.5263671875,
          -0.35888671875,
          -0.1644287109375,
          -0.26953125,
          0.406005859375,
          0.11041259765625,
          -0.2347412109375,
          -0.019927978515625,
          -0.354248046875,
          0.01371002197265625,
          0.0396728515625,
          -0.362548828125,
          0.39404296875,
          -0.287353515625,
          -0.51611328125,
          -0.1646728515625,
          0.07305908203125,
          -0.041717529296875,
          -0.2008056640625,
          -0.49951171875,
          -0.135986328125,
          -0.52978515625,
          -0.1268310546875,
          -0.024871826171875,
          0.0699462890625,
          -0.52734375,
          -0.273681640625,
          -0.265380859375,
          0.1317138671875,
          0.1875,
          -0.183837890625,
          -0.34912109375,
          0.0875244140625,
          -0.043121337890625,
          -0.055572509765625,
          -0.2464599609375,
          0.330322265625,
          -0.075927734375,
          0.1278076171875,
          -0.60546875,
          0.08209228515625,
          0.1405029296875,
          -0.268798828125,
          -0.06524658203125,
          -0.54638671875,
          -0.126953125,
          -0.2132568359375,
          0.0194854736328125,
          -0.405029296875,
          0.189208984375,
          0.00583648681640625,
          0.0208892822265625,
          0.183349609375,
          -0.3076171875,
          -0.42919921875,
          0.306884765625,
          0.2232666015625,
          0.190673828125,
          0.41845703125,
          -0.33447265625,
          -0.160888671875,
          -0.08001708984375,
          0.343994140625,
          0.1295166015625,
          -0.0771484375,
          0.182373046875,
          -0.146728515625,
          -0.0014753341674804688,
          0.509765625,
          0.0662841796875,
          0.1824951171875,
          0.2239990234375,
          0.056640625,
          -0.35498046875,
          0.207275390625,
          0.22314453125,
          0.3525390625,
          -0.06109619140625,
          0.074462890625,
          -0.0394287109375,
          0.2347412109375,
          -0.111572265625,
          -0.4638671875,
          -0.017730712890625,
          0.1396484375,
          0.2059326171875,
          -0.2200927734375,
          -0.0169830322265625,
          0.259521484375,
          -0.207763671875,
          0.07550048828125,
          0.047454833984375,
          -0.0911865234375,
          -0.0089569091796875,
          -0.252197265625,
          0.1109619140625,
          0.01438140869140625,
          -0.065673828125,
          0.395751953125,
          0.1204833984375,
          0.04193115234375,
          -0.158203125,
          -0.5849609375,
          -0.198486328125,
          0.11077880859375,
          -0.2293701171875,
          0.0048065185546875,
          -0.08721923828125,
          -0.2481689453125,
          0.11541748046875,
          -0.2342529296875,
          0.305908203125,
          0.477294921875,
          0.2978515625,
          0.320556640625,
          -0.11212158203125,
          0.294677734375,
          0.0885009765625,
          0.0014696121215820312,
          -0.126220703125,
          0.2213134765625,
          0.7041015625,
          -0.03582763671875,
          0.054901123046875,
          0.26953125,
          0.282958984375,
          0.045867919921875,
          -0.0273895263671875,
          0.26416015625,
          0.62255859375,
          0.34033203125,
          -0.124755859375,
          -0.2841796875,
          0.1591796875,
          -0.0033397674560546875,
          0.291015625,
          0.037689208984375,
          -0.1876220703125,
          0.396728515625,
          -0.039398193359375,
          0.18017578125,
          0.314208984375,
          -0.1358642578125,
          -0.1732177734375,
          0.212646484375,
          -0.210693359375,
          0.32666015625,
          -0.15234375,
          0.286865234375,
          -0.1612548828125,
          0.280517578125,
          -0.384765625,
          0.230712890625,
          0.26611328125,
          0.0172882080078125,
          0.2147216796875,
          -0.4091796875,
          0.1651611328125,
          0.333984375,
          0.302490234375,
          0.45947265625,
          -0.21728515625,
          0.07220458984375,
          0.04095458984375,
          0.35791015625,
          0.10565185546875,
          -0.25244140625,
          -0.234130859375,
          0.28125,
          0.160888671875,
          0.1005859375,
          0.38720703125,
          -0.1827392578125,
          0.61376953125,
          -0.220703125,
          0.04925537109375,
          0.1763916015625,
          -0.250244140625,
          0.56005859375,
          -0.138427734375,
          -0.1749267578125,
          -0.0016584396362304688,
          -0.414794921875,
          0.1695556640625,
          0.498291015625,
          -0.06671142578125,
          0.33935546875,
          -0.0251007080078125,
          0.2083740234375,
          0.045684814453125,
          0.1661376953125,
          0.1092529296875,
          0.2861328125,
          -0.1087646484375,
          0.04193115234375,
          -0.1612548828125,
          -0.150634765625,
          -0.184814453125,
          -0.231689453125,
          -0.047515869140625,
          -0.415771484375,
          -0.015380859375,
          0.1666259765625,
          -0.08660888671875,
          -0.283447265625,
          0.2305908203125,
          -0.2421875,
          0.13037109375,
          0.289794921875,
          0.50390625,
          -0.1866455078125,
          -0.32080078125,
          0.049652099609375,
          0.2099609375,
          0.036773681640625,
          -0.234130859375,
          -0.0123443603515625,
          0.192626953125,
          0.69970703125,
          0.07806396484375,
          -0.138427734375,
          0.27734375,
          0.254638671875,
          -0.270263671875,
          0.2059326171875,
          0.251953125,
          0.505859375,
          0.08941650390625,
          0.556640625,
          -0.204345703125,
          0.114990234375,
          -0.365234375,
          0.35546875,
          0.10321044921875,
          -0.26513671875,
          0.17724609375,
          0.1839599609375,
          0.36669921875,
          -0.166259765625,
          0.25048828125,
          -0.1275634765625,
          0.36279296875,
          2.08984375,
          0.292724609375,
          0.07879638671875,
          0.019805908203125,
          0.12115478515625,
          -0.08831787109375,
          0.241943359375,
          0.57275390625,
          0.1865234375,
          0.005008697509765625,
          0.01160430908203125,
          0.9248046875,
          -0.02606201171875,
          0.042388916015625,
          -0.258056640625,
          0.833984375,
          0.27880859375,
          0.220458984375,
          -0.2476806640625,
          0.666015625,
          0.10467529296875,
          -0.0372314453125,
          0.2315673828125,
          0.1439208984375,
          0.41796875,
          -0.063232421875,
          0.1773681640625,
          -0.0011692047119140625,
          0.01128387451171875,
          -0.3447265625,
          0.0335693359375,
          -0.22216796875,
          0.28515625,
          0.1815185546875,
          0.01024627685546875,
          -0.1329345703125,
          0.300048828125,
          0.1368408203125,
          -0.378173828125,
          -0.05133056640625,
          -0.2357177734375,
          -0.1044921875,
          0.479736328125,
          -0.01441192626953125,
          -0.031890869140625,
          -0.215087890625,
          0.029083251953125,
          0.058319091796875,
          0.359375,
          -0.61767578125,
          -0.2481689453125,
          0.04388427734375,
          -0.174560546875,
          0.06903076171875,
          0.146484375,
          -0.09588623046875,
          0.1658935546875,
          0.39697265625,
          -0.06597900390625,
          0.0743408203125,
          0.10009765625,
          -0.14208984375,
          0.08648681640625,
          0.3134765625,
          -0.394775390625,
          -0.0943603515625,
          0.457763671875,
          -0.0031833648681640625,
          -0.42919921875,
          0.2744140625,
          0.367919921875,
          0.074951171875,
          0.0418701171875,
          -0.00927734375,
          0.1920166015625,
          0.1446533203125,
          -0.08917236328125,
          -0.020111083984375,
          -0.390380859375,
          0.26318359375,
          0.2314453125,
          0.7763671875,
          0.0309906005859375,
          -0.00971221923828125,
          0.11181640625,
          -0.020721435546875,
          -0.08935546875,
          -0.64111328125,
          0.10931396484375,
          -0.19775390625,
          -0.09136962890625,
          0.072998046875,
          -0.361328125,
          -0.139404296875,
          -0.495849609375,
          -0.180908203125,
          0.46728515625,
          -0.0096435546875,
          -0.401611328125,
          0.1563720703125,
          -0.0537109375,
          0.385986328125,
          -0.267822265625,
          0.054962158203125,
          -0.18017578125,
          -0.2001953125,
          -0.39453125,
          -0.095458984375,
          0.0267333984375,
          -0.391357421875,
          -0.08929443359375,
          -0.103271484375,
          -0.276123046875,
          0.1962890625,
          0.384765625,
          -0.27392578125,
          -0.26904296875,
          -0.354248046875,
          -0.34423828125,
          0.284423828125,
          -0.0218048095703125,
          -0.4814453125,
          -0.261962890625,
          -0.05206298828125,
          0.0250701904296875,
          -0.076171875,
          -0.1304931640625,
          0.66650390625,
          -0.61328125,
          0.447265625,
          0.83154296875,
          0.47705078125,
          -0.08502197265625,
          -0.00640106201171875,
          0.4091796875,
          0.82470703125,
          0.202880859375,
          -0.041046142578125,
          -0.04473876953125,
          0.33740234375,
          0.290771484375,
          -0.0262603759765625,
          -0.12225341796875,
          0.1688232421875,
          0.10003662109375,
          -0.194091796875,
          -0.27197265625,
          -0.16455078125,
          0.1339111328125,
          0.043975830078125,
          -0.033538818359375,
          -0.189208984375,
          -0.080322265625,
          -0.135986328125,
          -0.09649658203125,
          -0.068115234375,
          -0.09893798828125,
          -0.29541015625,
          0.6025390625,
          0.12457275390625,
          0.2430419921875,
          0.36669921875,
          -0.06494140625,
          0.0148773193359375,
          -0.2425537109375,
          -0.0797119140625,
          -0.07830810546875,
          -0.455810546875,
          0.393798828125,
          -0.346435546875,
          0.0286407470703125,
          -0.1568603515625,
          -0.253662109375,
          -0.444580078125,
          0.156005859375,
          -0.0275421142578125,
          0.01027679443359375,
          -0.185546875,
          -0.037628173828125,
          -0.17333984375,
          -0.020904541015625,
          -0.703125,
          0.01678466796875,
          0.19677734375,
          0.1181640625,
          -0.298828125,
          -0.1910400390625,
          0.1815185546875,
          -0.29052734375,
          -0.06524658203125,
          -0.279052734375,
          -0.04071044921875,
          -0.11236572265625,
          -0.2734375,
          -0.2442626953125,
          0.0106353759765625,
          0.07379150390625,
          -0.031829833984375,
          -0.1248779296875,
          -0.08709716796875,
          0.045074462890625,
          0.0112152099609375,
          -0.26171875,
          -0.32373046875,
          -0.35009765625,
          0.16015625,
          0.59130859375,
          -0.28466796875,
          0.012176513671875,
          0.07696533203125,
          0.05218505859375,
          -0.1505126953125,
          -0.2489013671875,
          -0.2357177734375,
          0.080078125,
          0.240478515625,
          -0.10858154296875,
          -0.049896240234375,
          -0.2103271484375,
          -0.1529541015625,
          -0.01415252685546875,
          0.1497802734375,
          0.07647705078125,
          -0.101318359375,
          0.08953857421875,
          -0.09906005859375,
          0.10009765625,
          -0.2396240234375,
          0.0269927978515625,
          0.066162109375,
          -0.286865234375,
          0.1224365234375,
          0.335693359375,
          0.12548828125,
          -0.66259765625,
          0.1319580078125,
          -0.0264739990234375,
          -0.06768798828125,
          0.0012941360473632812,
          -0.1990966796875,
          0.1549072265625,
          -0.249267578125,
          -0.378662109375,
          -0.1832275390625,
          0.016510009765625,
          -0.0101470947265625,
          -0.08935546875,
          -0.2271728515625,
          0.0621337890625,
          -0.0018320083618164062,
          -0.34716796875,
          -0.144287109375,
          0.37548828125,
          -0.2005615234375,
          0.05950927734375,
          -0.068603515625,
          0.03558349609375,
          0.2181396484375,
          0.013580322265625,
          -0.302734375,
          -0.00724029541015625,
          0.03631591796875,
          -0.29931640625,
          0.1248779296875,
          0.270263671875,
          -0.259033203125,
          -0.23095703125,
          -0.434326171875,
          0.09588623046875,
          -0.3349609375,
          0.10919189453125,
          -0.0102386474609375,
          -0.2371826171875,
          -0.315673828125,
          -0.07147216796875,
          -0.036041259765625,
          0.1441650390625,
          0.337890625,
          -0.1448974609375,
          -0.376953125,
          -0.33447265625,
          -0.06524658203125,
          -0.039459228515625,
          0.53466796875,
          -0.35302734375,
          -0.2430419921875,
          0.057861328125,
          -0.1685791015625,
          -0.181640625,
          0.2047119140625,
          0.0447998046875,
          -0.0904541015625,
          -0.17919921875,
          -0.10174560546875,
          0.3173828125,
          -0.1427001953125,
          0.386474609375,
          -0.11444091796875,
          0.223876953125,
          0.306640625,
          0.039520263671875,
          0.1156005859375,
          0.1416015625,
          0.7626953125,
          -0.1986083984375,
          0.1805419921875,
          0.07025146484375,
          0.47705078125,
          0.280517578125,
          -0.2666015625,
          0.160400390625,
          -0.09124755859375,
          -0.032135009765625,
          -0.02593994140625,
          0.16796875,
          -0.60498046875,
          0.56591796875,
          -0.1998291015625,
          0.279052734375,
          0.01419830322265625,
          0.227294921875,
          0.040252685546875,
          -0.1531982421875,
          -0.369384765625,
          -0.09344482421875,
          0.2646484375,
          -0.071044921875,
          -0.157958984375,
          0.27685546875,
          0.0455322265625,
          0.232421875,
          0.32861328125,
          0.1859130859375,
          -0.0196380615234375,
          -0.08099365234375,
          0.023284912109375,
          0.29150390625,
          -0.002323150634765625,
          0.275390625,
          -0.1295166015625,
          0.0550537109375,
          0.1839599609375,
          -0.072021484375,
          0.359619140625,
          -0.321533203125,
          0.145263671875,
          -0.311279296875,
          0.13330078125,
          -0.1011962890625,
          -0.06390380859375,
          0.244384765625,
          -0.240478515625,
          -0.04364013671875,
          -0.2020263671875,
          -0.01031494140625,
          -0.490478515625,
          -0.2037353515625,
          0.1986083984375,
          -0.340087890625,
          0.28564453125,
          0.11676025390625,
          0.0386962890625,
          0.052215576171875,
          -0.063720703125,
          0.11962890625,
          -0.1634521484375,
          0.1241455078125,
          -0.04248046875,
          0.03094482421875,
          0.004093170166015625,
          -0.0115814208984375,
          0.1063232421875,
          -0.0166015625,
          0.406005859375,
          0.418701171875,
          -0.28759765625,
          0.2149658203125,
          -0.0034770965576171875,
          0.5048828125,
          -0.36279296875,
          -0.0295257568359375,
          -0.283203125,
          0.03839111328125
        ]
      },
      {
        "bias": [
          0.06884765625,
          0.05963134765625,
          -0.060516357421875,
          -0.060211181640625,
          -0.061798095703125,
          -0.058807373046875,
          0.011932373046875,
          0.05950927734375,
          -0.060546875,
          0.07080078125,
          0.0677490234375,
          -0.05999755859375,
          0.0745849609375,
          0.0770263671875,
          0.059906005859375,
          0.0867919921875,
          -0.059417724609375,
          -0.064697265625,
          -0.06414794921875,
          -0.061614990234375,
          -0.060333251953125,
          0.05718994140625,
          -0.05743408203125,
          0.04498291015625,
          0.0290679931640625,
          -0.031463623046875,
          -0.06036376953125,
          0.069091796875,
          -0.06451416015625,
          0.0888671875,
          0.056182861328125,
          0.06817626953125
        ],
        "in_features": 32,
        "out_features": 32,
        "type": "linear",
        "weights": [
          0.195068359375,
          0.06787109375,
          -0.01690673828125,
          -0.18701171875,
          -0.1175537109375,
          0.1883544921875,
          0.117919921875,
          0.55224609375,
          -0.46728515625,
          0.441162109375,
          0.055145263671875,
          -0.06671142578125,
          0.2218017578125,
          -0.434326171875,
          0.458740234375,
          0.359619140625,
          0.251220703125,
          0.43798828125,
          -0.131591796875,
          0.080078125,
          0.2330322265625,
          0.0687255859375,
          0.3212890625,
          0.13720703125,
          0.25244140625,
          0.042022705078125,
          0.266845703125,
          0.1781005859375,
          0.10662841796875,
          0.73876953125,
          0.403076171875,
          0.17724609375,
          0.276123046875,
          -0.07867431640625,
          0.2373046875,
          -0.03253173828125,
          -0.0279083251953125,
          -0.36767578125,
          0.323974609375,
          0.47900390625,
          -0.31884765625,
          0.49365234375,
          -0.0760498046875,
          0.2376708984375,
          -0.05938720703125,
          0.1883544921875,
          0.143798828125,
          0.3837890625,
          -0.44384765625,
          0.0396728515625,
          -0.01580810546875,
          0.00717926025390625,
          0.59423828125,
          0.30615234375,
          -0.2215576171875,
          0.091796875,
          0.53271484375,
          -0.041046142578125,
          -0.053497314453125,
          -0.0684814453125,
          0.29443359375,
          -0.08251953125,
          -0.047576904296875,
          -0.10260009765625,
          0.466064453125,
          -0.01535797119140625,
          0.07159423828125,
          -0.50146484375,
          -0.049407958984375,
          -0.26904296875,
          0.07891845703125,
          0.1253662109375,
          -0.0221099853515625,
          -0.1387939453125,
          0.040283203125,
          0.06634521484375,
          0.01861572265625,
          -0.326416015625,
          -0.271484375,
          -0.046966552734375,
          -0.03167724609375,
          -0.08758544921875,
          0.3271484375,
          0.0116424560546875,
          -0.4111328125,
          -0.111083984375,
          0.334228515625,
          -0.147216796875,
          0.1796875,
          -0.1253662109375,
          -0.205078125,
          -0.1824951171875,
          0.302978515625,
          0.11224365234375,
          0.002655029296875,
          -0.0020084381103515625,
          -0.71044921875,
          -0.0066375732421875,
          0.474365234375,
          -0.379638671875,
          0.380615234375,
          0.087646484375,
          -0.055755615234375,
          -0.48876953125,
          -0.422119140625,
          -0.57568359375,
          0.058441162109375,
          -0.00011408329010009766,
          0.27294921875,
          0.2249755859375,
          -0.3486328125,
          0.10223388671875,
          -0.06890869140625,
          -0.03485107421875,
          0.3193359375,
          -0.348388671875,
          0.337890625,
          0.48095703125,
          -0.057220458984375,
          0.437255859375,
          0.297119140625,
          -0.132568359375,
          -0.04730224609375,
          0.01453399658203125,
          -0.07666015625,
          -0.1202392578125,
          0.054473876953125,
          -0.058990478515625,
          -0.361328125,
          -0.1607666015625,
          -0.07879638671875,
          -0.1805419921875,
          0.1846923828125,
          0.2459716796875,
          0.1959228515625,
          0.06591796875,
          0.0294647216796875,
          -0.08343505859375,
          0.06854248046875,
          -0.11376953125,
          -0.10113525390625,
          -0.0255126953125,
          -0.50732421875,
          -0.370361328125,
          -0.153564453125,
          0.150390625,
          -0.09716796875,
          -0.41015625,
          0.22119140625,
          0.061370849609375,
          -0.20361328125,
          -0.10504150390625,
          0.375,
          0.44921875,
          0.196533203125,
          -0.250732421875,
          -0.392822265625,
          -0.05987548828125,
          -0.262939453125,
          0.1939697265625,
          -0.51708984375,
          -0.004093170166015625,
          -0.0120849609375,
          0.19921875,
          -0.449951171875,
          -0.05023193359375,
          -0.1951904296875,
          0.7060546875,
          -0.1654052734375,
          0.055999755859375,
          -0.46533203125,
          -0.36572265625,
          -0.28125,
          -0.429443359375,
          -0.388671875,
          0.384521484375,
          -0.51611328125,
          -0.290283203125,
          -0.421875,
          -0.17919921875,
          -0.174560546875,
          -0.1668701171875,
          0.403076171875,
          -0.313232421875,
          0.1492919921875,
          -0.3203125,
          -0.30322265625,
          -0.251708984375,
          -0.070068359375,
          0.158203125,
          -0.1483154296875,
          -0.07525634765625,
          0.044036865234375,
          0.07037353515625,
          0.1756591796875,
          -0.130859375,
          -0.158203125,
          0.0167999267578125,
          0.2734375,
          0.0653076171875,
          0.2763671875,
          0.0286102294921875,
          -0.156005859375,
          -0.28662109375,
          0.315185546875,
          -0.10260009765625,
          -0.11468505859375,
          -0.3486328125,
          -0.1318359375,
          -0.5283203125,
          0.277587890625,
          -0.310302734375,
          0.350341796875,
          -0.1046142578125,
          -0.1900634765625,
          0.0731201171875,
          0.0916748046875,
          0.242431640625,
          -0.25927734375,
          -0.2047119140625,
          0.1888427734375,
          -0.197021484375,
          -0.27978515625,
          -0.5048828125,
          0.051666259765625,
          0.06689453125,
          0.36962890625,
          -0.061309814453125,
          0.1485595703125,
          0.1925048828125,
          0.13720703125,
          0.1192626953125,
          -0.2115478515625,
          0.1712646484375,
          -0.1279296875,
          0.251708984375,
          -0.15478515625,
          -0.08013916015625,
          0.34521484375,
          0.05499267578125,
          0.311279296875,
          0.1505126953125,
          0.271484375,
          -0.10467529296875,
          0.56884765625,
          0.0980224609375,
          0.05999755859375,
          -0.0513916015625,
          0.228515625,
          0.185791015625,
          0.00567626953125,
          0.2247314453125,
          -0.009857177734375,
          -0.08880615234375,
          0.039215087890625,
          -0.1417236328125,
          -0.352783203125,
          -0.12286376953125,
          -0.05181884765625,
          -0.43115234375,
          -0.443603515625,
          -0.1915283203125,
          -0.171142578125,
          0.11346435546875,
          -0.41064453125,
          -0.200927734375,
          0.1839599609375,
          -0.035614013671875,
          0.2283935546875,
          -0.293701171875,
          -0.463623046875,
          -0.08062744140625,
          0.0701904296875,
          0.020355224609375,
          -0.07598876953125,
          -0.1409912109375,
          0.106689453125,
          0.061126708984375,
          -0.2457275390625,
          -0.473388671875,
          -0.64599609375,
          -0.134765625,
          -0.0615234375,
          -0.3154296875,
          -0.3037109375,
          0.203857421875,
          0.06988525390625,
          -0.047454833984375,
          0.0294647216796875,
          0.468505859375,
          0.369873046875,
          0.311767578125,
          -0.232421875,
          0.5048828125,
          -0.1470947265625,
          -0.04302978515625,
          -0.10040283203125,
          0.10357666015625,
          0.28076171875,
          -0.0615234375,
          0.145751953125,
          -0.142578125,
          -0.0838623046875,
          0.052520751953125,
          0.1767578125,
          -0.165771484375,
          -0.04071044921875,
          0.6376953125,
          -0.36376953125,
          0.352783203125,
          0.1878662109375,
          0.169677734375,
          0.58251953125,
          -0.1527099609375,
          -0.2373046875,
          -0.1612548828125,
          0.09326171875,
          -0.26708984375,
          0.47265625,
          0.053466796875,
          -0.04290771484375,
          -0.0302886962890625,
          0.25341796875,
          -0.04388427734375,
          -0.15869140625,
          0.253173828125,
          -0.31103515625,
          0.2293701171875,
          -0.0992431640625,
          -0.3115234375,
          0.40283203125,
          -0.12420654296875,
          0.19091796875,
          -0.014923095703125,
          0.143310546875,
          0.43896484375,
          0.00913238525390625,
          -0.02435302734375,
          0.12939453125,
          -0.395751953125,
          0.4501953125,
          -0.437744140625,
          -0.057037353515625,
          -0.164794921875,
          0.36669921875,
          0.273681640625,
          0.3095703125,
          0.1396484375,
          -0.30126953125,
          -0.37060546875,
          0.284423828125,
          -0.392578125,
          -0.406982421875,
          -0.21533203125,
          0.1751708984375,
          0.035797119140625,
          -0.277587890625,
          -0.302001953125,
          -0.08123779296875,
          -0.296875,
          -0.048980712890625,
          -0.422607421875,
          -0.224609375,
          -0.40087890625,
          0.267333984375,
          -0.345458984375,
          0.00946044921875,
          -0.12493896484375,
          -0.390625,
          -0.5,
          0.2159423828125,
          0.35693359375,
          0.2103271484375,
          -0.036895751953125,
          0.06982421875,
          0.037078857421875,
          -0.374267578125,
          -0.06494140625,
          0.2271728515625,
          -0.1805419921875,
          0.4638671875,
          0.03302001953125,
          -0.329345703125,
          -0.110595703125,
          -0.046539306640625,
          0.10089111328125,
          -0.0987548828125,
          0.1263427734375,
          -0.09490966796875,
          -0.31201171875,
          -0.07513427734375,
          0.2225341796875,
          0.059051513671875,
          0.18505859375,
          0.152587890625,
          -0.1861572265625,
          0.09375,
          0.1588134765625,
          0.2489013671875,
          0.291259765625,
          0.407958984375,
          -0.237060546875,
          -0.294921875,
          0.2373046875,
          -0.19287109375,
          0.1826171875,
          -0.1475830078125,
          0.1864013671875,
          0.3359375,
          0.2105712890625,
          -0.033721923828125,
          0.0191497802734375,
          -0.078125,
          -0.0255584716796875,
          0.46533203125,
          0.4697265625,
          0.27978515625,
          0.07867431640625,
          0.1396484375,
          -0.1845703125,
          0.339111328125,
          0.13427734375,
          -0.326171875,
          -0.09014892578125,
          -0.0970458984375,
          0.0875244140625,
          0.036865234375,
          0.1566162109375,
          0.326171875,
          0.1668701171875,
          0.381591796875,
          -0.59033203125,
          0.26904296875,
          -0.02264404296875,
          0.51513671875,
          0.31689453125,
          0.245849609375,
          0.37158203125,
          0.30322265625,
          -0.05487060546875,
          0.43603515625,
          0.36962890625,
          0.08624267578125,
          -0.10137939453125,
          -0.039276123046875,
          0.1240234375,
          0.346435546875,
          0.275146484375,
          -0.374267578125,
          -0.2646484375,
          0.06671142578125,
          -0.12249755859375,
          -0.0626220703125,
          0.247314453125,
          -0.10516357421875,
          -0.122802734375,
          0.468505859375,
          0.246337890625,
          0.301025390625,
          0.239013671875,
          -0.495849609375,
          -0.26220703125,
          -0.039764404296875,
          -0.038665771484375,
          -0.12225341796875,
          -0.2220458984375,
          -0.07049560546875,
          0.31982421875,
          0.037261962890625,
          -0.215087890625,
          0.0958251953125,
          -0.53271484375,
          0.1798095703125,
          0.1920166015625,
          0.464599609375,
          0.11181640625,
          0.5869140625,
          0.6611328125,
          0.287353515625,
          -0.031982421875,
          0.495361328125,
          0.34326171875,
          0.0322265625,
          0.125732421875,
          0.44677734375,
          -0.2169189453125,
          0.214111328125,
          -0.0142059326171875,
          0.10992431640625,
          0.177490234375,
          0.148193359375,
          -0.022003173828125,
          -0.1573486328125,
          0.06549072265625,
          0.220703125,
          -0.08184814453125,
          -0.2705078125,
          0.29345703125,
          0.016845703125,
          0.09307861328125,
          0.11810302734375,
          0.42626953125,
          0.1971435546875,
          0.034820556640625,
          0.0631103515625,
          -0.0107421875,
          -0.1475830078125,
          0.1090087890625,
          -0.056671142578125,
          -0.46728515625,
          -0.0458984375,
          0.386474609375,
          -0.265869140625,
          -0.0166168212890625,
          -0.2392578125,
          -0.56005859375,
          -0.2119140625,
          -0.03497314453125,
          -0.37548828125,
          -0.1181640625,
          -0.07525634765625,
          0.0267486572265625,
          0.2210693359375,
          0.388671875,
          0.0083770751953125,
          0.0099029541015625,
          -0.451416015625,
          -0.1466064453125,
          -0.14111328125,
          0.126708984375,
          0.0513916015625,
          0.0291748046875,
          0.0217132568359375,
          -0.2232666015625,
          0.1629638671875,
          0.33154296875,
          0.1051025390625,
          0.08905029296875,
          0.15771484375,
          -0.1651611328125,
          -0.2210693359375,
          -0.056365966796875,
          -0.39404296875,
          -0.41455078125,
          -0.1602783203125,
          0.10076904296875,
          -0.045501708984375,
          -0.400390625,
          -0.3505859375,
          0.224609375,
          -0.1982421875,
          -0.11370849609375,
          -0.113525390625,
          -0.1505126953125,
          0.1265869140625,
          -0.437744140625,
          -0.06549072265625,
          0.31396484375,
          -0.75732421875,
          0.2432861328125,
          0.1561279296875,
          -0.07843017578125,
          0.07684326171875,
          -0.06939697265625,
          -0.07373046875,
          0.08282470703125,
          -0.038299560546875,
          -0.193359375,
          -0.44287109375,
          -0.277587890625,
          0.12298583984375,
          -0.162109375,
          -0.08099365234375,
          0.02642822265625,
          0.01219940185546875,
          -0.08856201171875,
          -0.212646484375,
          -0.2332763671875,
          0.74658203125,
          0.06976318359375,
          -0.11444091796875,
          -0.231689453125,
          -0.0523681640625,
          0.1024169921875,
          0.0272216796875,
          -0.2734375,
          0.1710205078125,
          -0.33935546875,
          -0.06451416015625,
          0.20654296875,
          -0.36669921875,
          0.0694580078125,
          0.04071044921875,
          -0.1817626953125,
          -0.09552001953125,
          -0.09698486328125,
          0.01491546630859375,
          0.1953125,
          0.261962890625,
          -0.1317138671875,
          -0.167236328125,
          0.1209716796875,
          0.398681640625,
          0.312744140625,
          -0.283935546875,
          -0.19580078125,
          0.2308349609375,
          0.1307373046875,
          0.1827392578125,
          -0.35888671875,
          -0.0755615234375,
          0.2236328125,
          -0.1842041015625,
          0.11676025390625,
          -0.01264190673828125,
          -0.41845703125,
          -0.087890625,
          -0.1622314453125,
          0.1019287109375,
          0.1510009765625,
          0.1334228515625,
          0.051971435546875,
          0.310546875,
          0.1531982421875,
          -0.1728515625,
          -0.59765625,
          0.1966552734375,
          -0.141845703125,
          -0.2130126953125,
          -0.0811767578125,
          0.092529296875,
          0.024627685546875,
          0.2724609375,
          0.0726318359375,
          -0.286865234375,
          -0.18115234375,
          -0.05865478515625,
          -0.685546875,
          0.0288543701171875,
          -0.2021484375,
          -0.096435546875,
          -0.2314453125,
          -0.254150390625,
          0.051025390625,
          -0.0263824462890625,
          0.12841796875,
          0.10223388671875,
          -0.2415771484375,
          -0.123046875,
          0.1859130859375,
          -0.3125,
          -0.44384765625,
          0.08697509765625,
          -0.13916015625,
          -0.378173828125,
          -0.07012939453125,
          -0.10736083984375,
          -0.07525634765625,
          -0.0567626953125,
          0.1724853515625,
          0.46826171875,
          0.1580810546875,
          0.06597900390625,
          0.3388671875,
          0.0279693603515625,
          -0.226806640625,
          -0.2396240234375,
          -0.044921875,
          -0.046661376953125,
          -0.393798828125,
          0.06964111328125,
          -0.257080078125,
          0.2734375,
          -0.058013916015625,
          -0.1014404296875,
          0.2315673828125,
          0.1751708984375,
          -0.060760498046875,
          0.158203125,
          0.039215087890625,
          0.1439208984375,
          -0.09527587890625,
          -0.245361328125,
          0.14013671875,
          -0.1348876953125,
          0.343994140625,
          0.30517578125,
          0.33056640625,
          -0.97265625,
          0.331787109375,
          0.405517578125,
          0.263427734375,
          0.050750732421875,
          0.06414794921875,
          -0.1295166015625,
          0.13232421875,
          1.212890625,
          0.028472900390625,
          0.003925323486328125,
          0.11614990234375,
          -0.84521484375,
          0.342041015625,
          -0.08709716796875,
          -0.1280517578125,
          -0.2474365234375,
          -0.16162109375,
          0.00016927719116210938,
          0.2152099609375,
          0.38037109375,
          -0.135986328125,
          0.179931640625,
          0.125244140625,
          0.2008056640625,
          0.0791015625,
          -0.392578125,
          -0.2149658203125,
          -0.213623046875,
          0.334228515625,
          -0.0810546875,
          -0.2247314453125,
          -0.6640625,
          0.24462890625,
          -0.03656005859375,
          0.1485595703125,
          -0.2012939453125,
          0.32275390625,
          -0.195556640625,
          -0.24658203125,
          0.1805419921875,
          -0.27685546875,
          0.387939453125,
          0.028106689453125,
          -0.1904296875,
          0.51806640625,
          -0.196533203125,
          -0.1707763671875,
          -0.102783203125,
          0.49462890625,
          -0.37890625,
          0.5048828125,
          -0.21142578125,
          0.052154541015625,
          0.088134765625,
          -0.525390625,
          -0.016754150390625,
          0.16015625,
          -0.126953125,
          -0.131591796875,
          0.188232421875,
          -0.59326171875,
          0.35205078125,
          0.1849365234375,
          -0.07330322265625,
          0.07666015625,
          0.332763671875,
          -0.388671875,
          0.3955078125,
          -0.08343505859375,
          0.349609375,
          0.2247314453125,
          0.32373046875,
          -0.49462890625,
          0.09613037109375,
          0.296142578125,
          0.212646484375,
          0.114501953125,
          0.417236328125,
          -0.00811004638671875,
          0.583984375,
          0.055633544921875,
          0.41357421875,
          0.0046844482421875,
          0.3408203125,
          0.6484375,
          -0.35888671875,
          0.1212158203125,
          -0.0469970703125,
          -0.06903076171875,
          -0.10406494140625,
          -0.1051025390625,
          0.08233642578125,
          0.349365234375,
          -0.01470184326171875,
          -0.061981201171875,
          -0.0833740234375,
          0.38623046875,
          0.384521484375,
          0.11700439453125,
          -0.04034423828125,
          -0.045379638671875,
          -0.09588623046875,
          0.28173828125,
          -0.1190185546875,
          -0.29443359375,
          -0.394775390625,
          0.18212890625,
          0.1754150390625,
          -0.021759033203125,
          0.0131072998046875,
          -0.1058349609375,
          -0.53515625,
          -0.058349609375,
          0.2178955078125,
          0.41552734375,
          0.046600341796875,
          0.39599609375,
          -0.642578125,
          -0.1959228515625,
          0.466552734375,
          4.7265625,
          -0.227294921875,
          0.063232421875,
          0.333984375,
          0.0587158203125,
          0.34912109375,
          -0.270751953125,
          -0.2264404296875,
          0.00836944580078125,
          -0.2269287109375,
          -0.050567626953125,
          12.046875,
          -0.382568359375,
          -0.349853515625,
          -0.0013523101806640625,
          0.13720703125,
          0.11627197265625,
          0.19287109375,
          -0.10137939453125,
          0.06170654296875,
          0.89794921875,
          -0.00969696044921875,
          -0.09674072265625,
          0.25244140625,
          -0.1448974609375,
          -0.6484375,
          -0.1395263671875,
          -0.408935546875,
          0.1304931640625,
          -0.47412109375,
          -0.04412841796875,
          -0.005096435546875,
          -0.1290283203125,
          -0.004940032958984375,
          0.004566192626953125,
          -0.206787109375,
          -0.08990478515625,
          -0.59375,
          0.0257720947265625,
          -0.0240325927734375,
          -0.162109375,
          -0.1270751953125,
          -0.52734375,
          -0.09393310546875,
          0.045440673828125,
          0.2237548828125,
          0.0195770263671875,
          0.1473388671875,
          -0.44580078125,
          0.33935546875,
          0.07366943359375,
          0.1422119140625,
          -0.1844482421875,
          -0.473876953125,
          -0.1368408203125,
          -0.0814208984375,
          0.1622314453125,
          0.271484375,
          0.01490020751953125,
          0.57568359375,
          0.393798828125,
          0.455810546875,
          -0.0177459716796875,
          0.229736328125,
          -0.0999755859375,
          0.2200927734375,
          -0.1287841796875,
          -0.235107421875,
          0.27880859375,
          0.422607421875,
          0.22998046875,
          -0.0662841796875,
          0.1922607421875,
          0.0298919677734375,
          0.1556396484375,
          -0.10992431640625,
          0.06109619140625,
          -0.05511474609375,
          0.263916015625,
          0.080322265625,
          -0.01381683349609375,
          0.04779052734375,
          -0.211181640625,
          -0.2315673828125,
          0.440185546875,
          0.189697265625,
          -0.25341796875,
          -0.003692626953125,
          0.17724609375,
          0.019989013671875,
          -0.261962890625,
          -0.0648193359375,
          0.07781982421875,
          0.0161285400390625,
          -0.1903076171875,
          -0.07293701171875,
          0.0088653564453125,
          -0.2269287109375,
          -0.06060791015625,
          -0.47802734375,
          0.0379638671875,
          0.376220703125,
          0.27099609375,
          -0.1383056640625,
          -0.25341796875,
          0.0111236572265625,
          -0.3525390625,
          0.1964111328125,
          -0.2039794921875,
          -0.08111572265625,
          -0.2039794921875,
          -0.05572509765625,
          -0.040802001953125,
          -0.0924072265625,
          -0.1754150390625,
          0.28271484375,
          0.01001739501953125,
          -0.023590087890625,
          0.18798828125,
          -0.09881591796875,
          0.152587890625,
          0.382568359375,
          0.0055999755859375,
          0.14013671875,
          0.256591796875,
          -0.1419677734375,
          0.060211181640625,
          0.1627197265625,
          4.62890625,
          -0.10699462890625,
          -0.0006008148193359375,
          0.68505859375,
          0.16748046875,
          0.2568359375,
          0.286376953125,
          0.487548828125,
          0.6171875,
          0.084228515625,
          0.5703125,
          0.859375,
          -0.5703125,
          -0.0254364013671875,
          0.033721923828125,
          0.316650390625,
          -0.0121612548828125,
          -0.264892578125,
          0.415283203125,
          -0.385009765625,
          0.6591796875,
          0.2626953125,
          0.300537109375,
          0.043548583984375,
          -0.11114501953125,
          -0.1739501953125,
          0.0016469955444335938,
          0.078369140625,
          0.129150390625,
          -0.020660400390625,
          0.05963134765625,
          -0.011138916015625,
          0.89404296875,
          0.069091796875,
          0.142333984375,
          0.1353759765625,
          -0.0843505859375,
          -0.3359375,
          -0.36865234375,
          -0.00922393798828125,
          -0.39208984375,
          -0.0313720703125,
          0.173583984375,
          0.32568359375,
          0.22119140625,
          0.20751953125,
          0.470458984375,
          0.04083251953125,
          0.112548828125,
          -0.039581298828125,
          0.2685546875,
          -0.06378173828125,
          -0.29150390625,
          -0.1451416015625,
          0.1636962890625,
          0.1441650390625,
          0.257568359375,
          -0.368896484375,
          -0.1046142578125,
          -0.36279296875,
          0.135986328125,
          0.0645751953125,
          0.837890625,
          -0.094970703125,
          -0.2071533203125,
          0.10784912109375,
          0.059112548828125,
          0.347900390625,
          0.0830078125,
          0.253173828125,
          -0.10235595703125,
          0.3154296875,
          -0.2939453125,
          0.412841796875,
          -0.1458740234375,
          0.36865234375,
          -0.005062103271484375,
          0.4482421875,
          0.0110015869140625,
          -0.1478271484375,
          0.323974609375,
          0.10888671875,
          -0.232177734375,
          0.200927734375,
          0.66650390625,
          0.5078125,
          0.12286376953125
        ]
      },
      {
        "bias": [
          -0.18408203125,
          -0.065673828125,
          -0.0792236328125,
          -0.11724853515625
        ],
        "in_features": 32,
        "out_features": 4,
        "type": "linear",
        "weights": [
          -0.302734375,
          -0.4228515625,
          -0.77001953125,
          -0.362060546875,
          0.02850341796875,
          -0.45263671875,
          -0.301513671875,
          -0.382568359375,
          -0.1575927734375,
          0.178466796875,
          -0.68310546875,
          -0.038665771484375,
          -1.5634765625,
          -0.347900390625,
          -0.2476806640625,
          -0.52587890625,
          -0.56396484375,
          0.1964111328125,
          -0.544921875,
          0.044769287109375,
          -0.41259765625,
          -0.1907958984375,
          -0.00946044921875,
          -0.28564453125,
          -0.0643310546875,
          -0.2939453125,
          -0.11492919921875,
          0.378173828125,
          -0.051605224609375,
          -0.403564453125,
          -0.2095947265625,
          -0.5771484375,
          -0.383056640625,
          -0.2415771484375,
          0.043212890625,
          0.280517578125,
          0.25537109375,
          0.14404296875,
          -0.178466796875,
          -0.496826171875,
          0.262451171875,
          -0.134765625,
          -0.235595703125,
          0.51904296875,
          -0.1702880859375,
          -0.1929931640625,
          -0.2132568359375,
          -0.0726318359375,
          0.06317138671875,
          -0.0214385986328125,
          0.383544921875,
          0.1998291015625,
          0.1922607421875,
          -0.04412841796875,
          0.0132904052734375,
          -0.2362060546875,
          -0.12359619140625,
          -0.1876220703125,
          0.12408447265625,
          -0.250732421875,
          0.246826171875,
          -0.25537109375,
          -0.2003173828125,
          -0.26318359375,
          -0.496826171875,
          0.03460693359375,
          0.2030029296875,
          -0.386962890625,
          0.1766357421875,
          -0.210205078125,
          0.1981201171875,
          0.1552734375,
          -0.09307861328125,
          -0.2222900390625,
          0.0867919921875,
          -0.2484130859375,
          0.0288543701171875,
          -0.37451171875,
          -0.413330078125,
          -0.040435791015625,
          -0.036407470703125,
          0.465087890625,
          0.07928466796875,
          0.1956787109375,
          -0.286865234375,
          -0.371826171875,
          0.17041015625,
          0.055572509765625,
          -0.1397705078125,
          -0.243896484375,
          -0.01666259765625,
          0.350341796875,
          0.07342529296875,
          -0.1890869140625,
          -0.280517578125,
          -0.0609130859375,
          -0.50244140625,
          0.2060546875,
          -0.2298583984375,
          -0.23193359375,
          -0.27001953125,
          -0.335693359375,
          0.09228515625,
          0.2261962890625,
          -0.3818359375,
          -0.233154296875,
          -0.2261962890625,
          -0.10595703125,
          -0.12115478515625,
          -0.441650390625,
          0.111083984375,
          -0.2237548828125,
          -0.37646484375,
          -0.19970703125,
          0.457763671875,
          -0.283935546875,
          -0.01317596435546875,
          -0.00809478759765625,
          -0.51904296875,
          0.489501953125,
          0.212158203125,
          -0.370849609375,
          -0.2122802734375,
          -0.4013671875,
          -0.0031032562255859375,
          -0.1602783203125,
          0.1893310546875,
          -0.33544921875
        ]
      }
    ],
    "output": 4
  }
}