{
  "model": {
    "input": 30,
    "layers": [
      {
        "bias": [
          -0.9072265625,
          2.17578125,
          0.75244140625,
          1.771484375,
          -2.37890625,
          -4.57421875,
          -3.0,
          -2.38671875,
          -0.548828125,
          3.0546875,
          -2.654296875,
          3.65625,
          -1.998046875,
          0.459228515625,
          -1.6572265625,
          -2.162109375,
          10.375,
          -4.85546875,
          -3.552734375,
          1.251953125,
          1.021484375,
          -1.3251953125,
          0.15576171875,
          0.26953125,
          -0.2398681640625,
          1.19140625,
          2.611328125,
          -2.669921875,
          -6.25390625,
          -1.2646484375,
          1.6083984375,
          -0.84375
        ],
        "in_features": 30,
        "out_features": 32,
        "weights": [
          -2.142578125,
          -1.7333984375,
          0.12744140625,
          -0.60791015625,
          -0.020782470703125,
          -0.050628662109375,
          -2.1328125,
          -1.7314453125,
          0.1331787109375,
          -0.603515625,
          -0.0186004638671875,
          -0.050048828125,
          -0.0885009765625,
          0.01849365234375,
          -1.0576171875,
          -0.153076171875,
          -0.0751953125,
          -0.076416015625,
          1.2353515625,
          4.125,
          -0.5283203125,
          -0.1932373046875,
          -0.045562744140625,
          -0.132080078125,
          3.12109375,
          -2.896484375,
          1.3740234375,
          -0.2578125,
          0.0858154296875,
          -0.23046875,
          -7.0859375,
          2.390625,
          0.352783203125,
          1.2548828125,
          -1.435546875,
          -1.26953125,
          -7.06640625,
          2.384765625,
          0.366455078125,
          1.2548828125,
          -1.4375,
          -1.2744140625,
          -14.0703125,
          3.6328125,
          -3.283203125,
          -1.951171875,
          1.146484375,
          -6.0546875,
          0.0299835205078125,
          -3.333984375,
          0.9921875,
          -1.0,
          -0.2236328125,
          -0.130615234375,
          -0.26220703125,
          1.26953125,
          -0.65283203125,
          0.828125,
          0.163818359375,
          0.148193359375,
          -0.1973876953125,
          0.125732421875,
          -0.03070068359375,
          0.0931396484375,
          0.032135009765625,
          0.042877197265625,
          -0.19091796875,
          0.12744140625,
          -0.0257720947265625,
          0.09552001953125,
          0.03057861328125,
          0.04620361328125,
          -97.875,
          -4.00390625,
          14.5859375,
          0.72509765625,
          18.703125,
          -0.13916015625,
          0.4638671875,
          0.343505859375,
          -0.17529296875,
          -0.2958984375,
          -0.047027587890625,
          -0.1065673828125,
          3.462890625,
          -2.529296875,
          1.244140625,
          0.947265625,
          0.131103515625,
          -0.087890625,
          -0.423095703125,
          -1.333984375,
          0.251220703125,
          -0.1376953125,
          0.005214691162109375,
          -0.025146484375,
          -0.424072265625,
          -1.333984375,
          0.2509765625,
          -0.13720703125,
          0.00696563720703125,
          -0.0246124267578125,
          -2.513671875,
          -1.787109375,
          0.29248046875,
          0.341552734375,
          0.1259765625,
          0.169921875,
          -0.273193359375,
          3.22265625,
          -0.73828125,
          -0.028045654296875,
          -0.0755615234375,
          0.0214691162109375,
          -2.060546875,
          -2.630859375,
          1.59765625,
          0.6279296875,
          0.07586669921875,
          -0.144775390625,
          0.79345703125,
          0.260009765625,
          -0.026519775390625,
          0.353515625,
          0.0127105712890625,
          0.034454345703125,
          0.79443359375,
          0.259765625,
          -0.02471923828125,
          0.353759765625,
          0.01409149169921875,
          0.034515380859375,
          3.921875,
          0.5166015625,
          0.388671875,
          -0.322998046875,
          0.06817626953125,
          -0.25830078125,
          0.177978515625,
          -1.9638671875,
          0.53271484375,
          -0.294189453125,
          -0.033599853515625,
          -0.0035190582275390625,
          -0.10504150390625,
          2.6796875,
          -0.90283203125,
          -1.2392578125,
          -0.1605224609375,
          -0.139404296875,
          2.484375,
          -1.390625,
          0.75146484375,
          0.53662109375,
          0.10687255859375,
          0.00031375885009765625,
          2.474609375,
          -1.3935546875,
          0.7529296875,
          0.53173828125,
          0.10711669921875,
          0.0003800392150878906,
          8.4921875,
          2.166015625,
          -1.8701171875,
          2.923828125,
          -0.2138671875,
          0.488037109375,
          -1.18359375,
          0.202880859375,
          -0.317626953125,
          -0.24755859375,
          -0.036407470703125,
          0.01593017578125,
          -3.095703125,
          7.37109375,
          -2.5078125,
          0.8583984375,
          -0.406494140625,
          0.282958984375,
          0.60498046875,
          -0.1839599609375,
          0.1461181640625,
          0.07501220703125,
          0.01177978515625,
          -0.0101470947265625,
          0.60791015625,
          -0.18359375,
          0.1451416015625,
          0.0770263671875,
          0.01165008544921875,
          -0.00949859619140625,
          4.609375,
          1.046875,
          -0.6259765625,
          1.88671875,
          -0.0977783203125,
          0.2183837890625,
          -1.087890625,
          -0.3203125,
          -0.125244140625,
          -0.2239990234375,
          -0.02862548828125,
          -0.020599365234375,
          0.189208984375,
          0.79833984375,
          -0.97705078125,
          -0.48193359375,
          -0.0968017578125,
          0.160400390625,
          1.4873046875,
          -0.449462890625,
          0.367431640625,
          0.17041015625,
          0.03350830078125,
          -0.024078369140625,
          1.490234375,
          -0.44970703125,
          0.36865234375,
          0.170654296875,
          0.033538818359375,
          -0.0232391357421875,
          8.09375,
          1.115234375,
          -1.166015625,
          2.1015625,
          -0.2059326171875,
          0.277099609375,
          -0.35986328125,
          -1.791015625,
          0.388427734375,
          -0.1649169921875,
          0.00232696533203125,
          -0.03924560546875,
          -1.6513671875,
          10.0078125,
          -2.837890625,
          0.69580078125,
          -0.036865234375,
          0.2042236328125,
          0.307373046875,
          -0.5654296875,
          0.14892578125,
          -0.018524169921875,
          0.005908966064453125,
          -0.0035839080810546875,
          0.304931640625,
          -0.56396484375,
          0.1478271484375,
          -0.02313232421875,
          0.00609588623046875,
          -0.002696990966796875,
          2.22265625,
          2.060546875,
          -1.30859375,
          0.70654296875,
          -0.2064208984375,
          0.251708984375,
          0.05230712890625,
          0.51806640625,
          -0.1851806640625,
          0.1300048828125,
          0.0216064453125,
          0.0085296630859375,
          -0.7578125,
          -2.16796875,
          0.982421875,
          -0.10565185546875,
          0.0277099609375,
          -0.0038585662841796875,
          -0.75830078125,
          0.986328125,
          -0.259521484375,
          -0.1712646484375,
          -0.044158935546875,
          -0.0189666748046875,
          -0.76318359375,
          0.9873046875,
          -0.26025390625,
          -0.1715087890625,
          -0.041961669921875,
          -0.018280029296875,
          -0.83203125,
          -2.177734375,
          0.5029296875,
          -0.247314453125,
          0.0301361083984375,
          -0.08837890625,
          -0.7060546875,
          3.626953125,
          -0.52783203125,
          0.4580078125,
          -0.1024169921875,
          -0.0031795501708984375,
          0.99609375,
          -0.5380859375,
          0.297119140625,
          0.130126953125,
          0.011505126953125,
          -0.06524658203125,
          -1.1025390625,
          -3.361328125,
          0.52685546875,
          -0.91357421875,
          -0.09466552734375,
          -0.094482421875,
          -1.115234375,
          -3.357421875,
          0.52392578125,
          -0.9189453125,
          -0.09344482421875,
          -0.0966796875,
          4.05078125,
          1.400390625,
          -9.1640625,
          -0.53173828125,
          -0.85205078125,
          2.892578125,
          -3.625,
          0.79541015625,
          -0.45751953125,
          -2.55859375,
          -0.458984375,
          -0.1466064453125,
          -2.318359375,
          4.99609375,
          -1.6279296875,
          0.5419921875,
          0.16259765625,
          -0.227294921875,
          -0.9150390625,
          1.861328125,
          -0.489501953125,
          -0.055328369140625,
          -0.0300140380859375,
          0.038482666015625,
          -0.91845703125,
          1.859375,
          -0.4931640625,
          -0.0548095703125,
          -0.025421142578125,
          0.036468505859375,
          -9.109375,
          -1.0751953125,
          -0.300537109375,
          -3.513671875,
          -0.12548828125,
          -0.4130859375,
          0.73388671875,
          -2.56640625,
          0.4775390625,
          0.11260986328125,
          0.06549072265625,
          -0.03009033203125,
          -0.703125,
          -3.189453125,
          0.8779296875,
          -1.203125,
          0.03515625,
          -0.31982421875,
          -0.72802734375,
          0.5810546875,
          -0.234130859375,
          -0.2484130859375,
          0.005550384521484375,
          0.0193939208984375,
          -0.7255859375,
          0.576171875,
          -0.233642578125,
          -0.2451171875,
          0.0079345703125,
          0.016326904296875,
          4.64453125,
          1.4248046875,
          -0.7724609375,
          1.5615234375,
          -0.037506103515625,
          0.1402587890625,
          1.5654296875,
          0.04974365234375,
          -0.09375,
          0.365966796875,
          0.04742431640625,
          -0.029052734375,
          -1.830078125,
          1.2177734375,
          -0.7275390625,
          -0.352783203125,
          -0.035430908203125,
          0.08538818359375,
          -4.1640625,
          3.484375,
          -1.3798828125,
          -1.1923828125,
          -0.2271728515625,
          -0.023895263671875,
          -4.16015625,
          3.484375,
          -1.3759765625,
          -1.1875,
          -0.2247314453125,
          -0.0238189697265625,
          -0.640625,
          -3.107421875,
          0.428955078125,
          -0.6142578125,
          -0.052703857421875,
          -0.1336669921875,
          -1.970703125,
          -2.57421875,
          0.0455322265625,
          -0.87158203125,
          -0.0572509765625,
          -0.060638427734375,
          1.302734375,
          2.5078125,
          0.92041015625,
          -1.2724609375,
          0.69482421875,
          -0.38525390625,
          0.2313232421875,
          -3.021484375,
          0.5927734375,
          -0.2056884765625,
          0.0226287841796875,
          -0.041107177734375,
          0.229736328125,
          -3.021484375,
          0.5927734375,
          -0.2061767578125,
          0.022247314453125,
          -0.040802001953125,
          5.63671875,
          3.16796875,
          -4.44140625,
          -1.1259765625,
          -0.9169921875,
          0.413818359375,
          0.55029296875,
          -0.075439453125,
          0.3466796875,
          0.409423828125,
          0.055755615234375,
          -0.0168304443359375,
          -0.6240234375,
          -2.185546875,
          1.869140625,
          1.76171875,
          0.232421875,
          0.03436279296875,
          0.051361083984375,
          0.1356201171875,
          -0.05108642578125,
          0.0179290771484375,
          0.00455474853515625,
          0.005741119384765625,
          0.049041748046875,
          0.135009765625,
          -0.049774169921875,
          0.01580810546875,
          0.0033702850341796875,
          0.005615234375,
          1.1513671875,
          -0.82421875,
          0.4775390625,
          -0.28857421875,
          0.09796142578125,
          0.007129669189453125,
          0.43896484375,
          -0.81689453125,
          0.33154296875,
          0.07830810546875,
          0.0101776123046875,
          -0.028594970703125,
          0.76220703125,
          -1.30859375,
          1.24609375,
          -1.1513671875,
          -0.0008320808410644531,
          -0.3466796875,
          -15.078125,
          3.341796875,
          0.468505859375,
          -7.6015625,
          0.7666015625,
          -0.5458984375,
          -14.3671875,
          4.078125,
          0.11798095703125,
          -7.6171875,
          0.76708984375,
          -0.568359375,
          0.48388671875,
          -0.51220703125,
          0.1456298828125,
          0.252685546875,
          0.055572509765625,
          0.0280609130859375,
          2.90234375,
          0.5234375,
          0.35791015625,
          0.75390625,
          0.1204833984375,
          0.1319580078125,
          0.424072265625,
          -0.050750732421875,
          0.05224609375,
          0.210205078125,
          0.03460693359375,
          0.0300750732421875,
          3.857421875,
          0.3603515625,
          -0.09906005859375,
          1.2978515625,
          -0.0672607421875,
          0.172607421875,
          3.86328125,
          0.36083984375,
          -0.10308837890625,
          1.3076171875,
          -0.07318115234375,
          0.1727294921875,
          0.1614990234375,
          2.240234375,
          -0.68359375,
          -0.40283203125,
          -0.148193359375,
          -0.46240234375,
          1.67578125,
          -1.3427734375,
          0.64501953125,
          0.3330078125,
          0.07305908203125,
          -0.01258087158203125,
          -2.427734375,
          3.052734375,
          -0.77197265625,
          0.076416015625,
          -0.156982421875,
          0.1519775390625,
          -0.39208984375,
          0.243408203125,
          -0.07342529296875,
          -0.1279296875,
          -0.00951385498046875,
          -0.014556884765625,
          -0.393310546875,
          0.2445068359375,
          -0.073486328125,
          -0.13232421875,
          -0.0173797607421875,
          -0.01456451416015625,
          3.513671875,
          -0.7060546875,
          -3.90625,
          3.6875,
          1.076171875,
          1.224609375,
          -0.1715087890625,
          -0.019317626953125,
          -0.1290283203125,
          -0.031585693359375,
          -0.016632080078125,
          0.047393798828125,
          -2.298828125,
          0.266357421875,
          -0.34130859375,
          -0.9658203125,
          -0.1129150390625,
          -0.09100341796875,
          -0.853515625,
          1.2392578125,
          -0.2509765625,
          0.0416259765625,
          -0.004665374755859375,
          0.007717132568359375,
          -0.86083984375,
          1.240234375,
          -0.251953125,
          0.03936767578125,
          -0.004039764404296875,
          0.007411956787109375,
          -10.15625,
          -5.3046875,
          3.20703125,
          -0.484619140625,
          0.99658203125,
          -0.10516357421875,
          1.3232421875,
          4.48046875,
          -1.05859375,
          0.053009033203125,
          -0.06231689453125,
          0.060516357421875,
          1.0107421875,
          2.376953125,
          -2.107421875,
          -2.349609375,
          -0.2418212890625,
          -0.058685302734375,
          -0.8154296875,
          -1.5498046875,
          0.037872314453125,
          -0.192138671875,
          0.0023403167724609375,
          0.0031528472900390625,
          -0.8134765625,
          -1.5498046875,
          0.03656005859375,
          -0.1939697265625,
          0.0009503364562988281,
          0.004123687744140625,
          1.7080078125,
          2.005859375,
          -0.1949462890625,
          0.6376953125,
          -0.0007038116455078125,
          -0.0496826171875,
          1.0390625,
          4.86328125,
          -0.54541015625,
          -1.220703125,
          0.09844970703125,
          -0.0265350341796875,
          0.5751953125,
          0.017791748046875,
          0.08868408203125,
          0.293212890625,
          0.03839111328125,
          0.049530029296875,
          -3.4296875,
          3.7421875,
          -1.1318359375,
          -1.2705078125,
          -0.1085205078125,
          -0.10443115234375,
          -3.423828125,
          3.740234375,
          -1.130859375,
          -1.265625,
          -0.11279296875,
          -0.10107421875,
          0.6875,
          -2.953125,
          0.7568359375,
          0.07244873046875,
          0.0205078125,
          -0.019134521484375,
          2.591796875,
          -3.123046875,
          1.01953125,
          -0.3095703125,
          0.039764404296875,
          -0.12225341796875,
          -1.0673828125,
          0.498779296875,
          -0.278076171875,
          -0.2890625,
          -0.042144775390625,
          -0.00023651123046875,
          0.305908203125,
          -0.3310546875,
          0.408447265625,
          -0.11212158203125,
          0.04107666015625,
          -0.033203125,
          0.297119140625,
          -0.330810546875,
          0.413818359375,
          -0.11993408203125,
          0.040771484375,
          -0.0361328125,
          -770.5,
          -1.4189453125,
          97.9375,
          0.426513671875,
          162.5,
          1.25,
          -0.388427734375,
          0.88037109375,
          -0.8125,
          0.310302734375,
          -0.063232421875,
          0.0882568359375,
          1.7939453125,
          -1.0625,
          0.5537109375,
          0.38134765625,
          0.0423583984375,
          -0.00524139404296875,
          -2.1328125,
          1.9462890625,
          -0.84619140625,
          -0.5732421875,
          -0.178955078125,
          -0.01113128662109375,
          -2.130859375,
          1.94921875,
          -0.8486328125,
          -0.57177734375,
          -0.1763916015625,
          -0.00677490234375,
          -2.2734375,
          -1.3857421875,
          -0.08917236328125,
          -0.87109375,
          -0.2166748046875,
          -0.255615234375,
          0.8740234375,
          -2.373046875,
          0.6337890625,
          0.26611328125,
          0.02142333984375,
          0.02850341796875,
          -1.4755859375,
          -3.748046875,
          0.572265625,
          -2.15625,
          -0.443603515625,
          0.15966796875,
          -0.5478515625,
          -0.350830078125,
          -0.07794189453125,
          -0.07000732421875,
          0.002193450927734375,
          0.019805908203125,
          -0.54345703125,
          -0.35205078125,
          -0.0765380859375,
          -0.06683349609375,
          0.0022182464599609375,
          0.018768310546875,
          -9.703125,
          -3.22265625,
          -0.0205535888671875,
          0.3486328125,
          3.091796875,
          -1.07421875,
          0.80712890625,
          1.501953125,
          -0.1243896484375,
          0.46630859375,
          0.05462646484375,
          0.0289764404296875,
          0.39404296875,
          2.265625,
          0.30712890625,
          -1.51953125,
          -0.028106689453125,
          0.1962890625,
          -0.8720703125,
          1.12109375,
          -0.364990234375,
          -0.463134765625,
          -0.06060791015625,
          -0.0552978515625,
          -0.8779296875,
          1.1220703125,
          -0.3642578125,
          -0.464599609375,
          -0.05828857421875,
          -0.050537109375,
          -2.224609375,
          2.18359375,
          -3.2890625,
          -1.4423828125,
          -0.72021484375,
          0.68408203125,
          -1.548828125,
          -3.287109375,
          0.5546875,
          -0.4326171875,
          0.1322021484375,
          -0.195068359375,
          -2.318359375,
          -3.208984375,
          0.8291015625,
          -0.876953125,
          0.232177734375,
          0.066162109375,
          -1.275390625,
          -1.3154296875,
          0.00554656982421875,
          -0.337646484375,
          -0.02099609375,
          -0.01018524169921875,
          -1.27734375,
          -1.3154296875,
          0.0054931640625,
          -0.337646484375,
          -0.020111083984375,
          -0.0086517333984375,
          1.5126953125,
          1.05859375,
          0.1771240234375,
          0.51806640625,
          -0.0062103271484375,
          -0.12353515625,
          0.1973876953125,
          1.6181640625,
          -0.0706787109375,
          0.47265625,
          -0.009033203125,
          0.0183563232421875,
          0.787109375,
          -0.10791015625,
          0.1744384765625,
          0.339111328125,
          0.0362548828125,
          0.0057830810546875,
          0.08062744140625,
          0.2734375,
          -0.080078125,
          0.05108642578125,
          -0.00560760498046875,
          0.0186004638671875,
          0.0849609375,
          0.27392578125,
          -0.07818603515625,
          0.050506591796875,
          -0.013092041015625,
          0.0115509033203125,
          1.5341796875,
          -0.95458984375,
          1.6484375,
          1.22265625,
          0.2352294921875,
          -0.276611328125,
          0.07000732421875,
          0.45361328125,
          -0.03643798828125,
          0.13720703125,
          0.0260009765625,
          0.00681304931640625,
          1.3466796875,
          0.84716796875,
          -1.01171875,
          0.599609375,
          0.269287109375,
          0.2080078125,
          0.00118255615234375,
          -0.2030029296875,
          0.09893798828125,
          -0.1883544921875,
          -0.031005859375,
          -0.0341796875,
          -0.003665924072265625,
          -0.2012939453125,
          0.0994873046875,
          -0.1900634765625,
          -0.035552978515625,
          -0.0302734375,
          5.50390625,
          0.84228515625,
          0.382568359375,
          1.779296875,
          0.0762939453125,
          0.11053466796875,
          1.4404296875,
          -1.416015625,
          0.6455078125,
          0.369873046875,
          0.11053466796875,
          -0.05804443359375,
          2.482421875,
          3.693359375,
          -1.34765625,
          0.0888671875,
          0.1190185546875,
          0.09832763671875,
          -0.8798828125,
          -0.619140625,
          -0.103515625,
          -0.0870361328125,
          0.006717681884765625,
          0.0211334228515625,
          -0.87939453125,
          -0.6181640625,
          -0.104248046875,
          -0.087158203125,
          0.007534027099609375,
          0.0210418701171875,
          -39.65625,
          -2.96484375,
          3.212890625,
          -1.1494140625,
          4.15625,
          -0.86279296875,
          1.1640625,
          2.921875,
          -0.331787109375,
          0.444580078125,
          0.0222930908203125,
          0.044403076171875,
          -0.1588134765625,
          6.359375,
          3.376953125,
          -3.921875,
          0.22119140625,
          0.634765625,
          0.8115234375,
          -0.9765625,
          0.27001953125,
          0.174560546875,
          0.006916046142578125,
          0.0215606689453125,
          0.81201171875,
          -0.97607421875,
          0.26904296875,
          0.175537109375,
          0.0082550048828125,
          0.025543212890625,
          0.87939453125,
          1.56640625,
          0.2276611328125,
          0.158935546875,
          -0.0270538330078125,
          -0.023529052734375,
          -0.269775390625,
          3.58203125,
          -0.58447265625,
          0.53125,
          -0.0031604766845703125,
          0.040802001953125,
          0.1932373046875,
          0.11297607421875,
          -0.0263519287109375,
          0.14111328125,
          0.036651611328125,
          0.0269012451171875,
          -0.1007080078125,
          0.53955078125,
          -0.16015625,
          0.09735107421875,
          -0.006465911865234375,
          0.012542724609375,
          -0.10040283203125,
          0.53759765625,
          -0.1595458984375,
          0.10162353515625,
          -0.005886077880859375,
          0.0121917724609375,
          -1.353515625,
          5.61328125,
          -2.970703125,
          -0.60107421875,
          -0.227783203125,
          -0.27197265625,
          0.126708984375,
          -1.060546875,
          0.323974609375,
          -0.00447845458984375,
          0.0125885009765625,
          -0.019744873046875,
          2.1953125,
          -0.517578125,
          0.2457275390625,
          0.85498046875,
          0.03668212890625,
          0.0767822265625
        ]
      },
      {
        "bias": [
          -0.35009765625,
          -0.350830078125,
          -0.46337890625,
          0.2447509765625,
          -1.9833984375,
          -0.1502685546875,
          -0.405517578125,
          -10.5625,
          -3.458984375,
          1.1103515625,
          -21.484375,
          -0.09649658203125,
          -1.4443359375,
          -1.73046875,
          1.052734375,
          1.4208984375,
          -1.0791015625,
          1.0986328125,
          -9.0234375,
          2.791015625,
          -7.109375,
          0.1669921875,
          -1.314453125,
          -5.0234375,
          -12.9375,
          -1.32421875,
          0.57421875,
          -2.560546875,
          1.3525390625,
          -0.47705078125,
          -0.939453125,
          -7.22265625
        ],
        "in_features": 32,
        "out_features": 32,
        "weights": [
          -0.225830078125,
          0.154296875,
          -0.0003604888916015625,
          -0.6005859375,
          -0.363037109375,
          -0.1236572265625,
          -0.0980224609375,
          -0.72412109375,
          -0.357666015625,
          -0.58837890625,
          -0.04498291015625,
          -0.10662841796875,
          -0.57080078125,
          -0.11956787109375,
          -0.51416015625,
          -0.06634521484375,
          -0.3974609375,
          -0.2744140625,
          -0.481689453125,
          -0.50830078125,
          0.1453857421875,
          0.12139892578125,
          -0.01053619384765625,
          -0.1702880859375,
          -0.447021484375,
          -0.31103515625,
          -0.0821533203125,
          -0.55859375,
          -0.172119140625,
          0.088134765625,
          0.1016845703125,
          -0.1817626953125,
          -0.1412353515625,
          -0.10614013671875,
          -0.264892578125,
          -0.357177734375,
          -0.328369140625,
          0.153076171875,
          0.1141357421875,
          -0.58447265625,
          -0.29833984375,
          -0.182861328125,
          0.1917724609375,
          -0.1544189453125,
          0.038543701171875,
          -0.1075439453125,
          -0.49609375,
          -0.55224609375,
          0.1025390625,
          -0.313720703125,
          -0.350341796875,
          -0.2255859375,
          -0.002048492431640625,
          -0.08099365234375,
          0.03485107421875,
          -0.04888916015625,
          -0.583984375,
          -0.27490234375,
          -0.1337890625,
          -0.159912109375,
          -0.1649169921875,
          -0.205810546875,
          -0.38525390625,
          -0.4716796875,
          0.1995849609375,
          0.896484375,
          0.007648468017578125,
          -0.0557861328125,
          0.054168701171875,
          -0.1199951171875,
          -0.01560211181640625,
          0.01413726806640625,
          -0.01317596435546875,
          -0.291015625,
          -0.045318603515625,
          0.403564453125,
          0.14501953125,
          -0.10919189453125,
          0.049407958984375,
          0.0148162841796875,
          -0.065185546875,
          0.12176513671875,
          0.32666015625,
          0.01383209228515625,
          0.0953369140625,
          0.2423095703125,
          0.036346435546875,
          0.393310546875,
          -3.41015625,
          -0.022735595703125,
          -0.456298828125,
          0.1126708984375,
          0.0418701171875,
          -1.791015625,
          0.52294921875,
          1.12890625,
          -0.1861572265625,
          -0.77392578125,
          0.043212890625,
          0.42919921875,
          0.3193359375,
          1.302734375,
          0.14501953125,
          0.6220703125,
          -0.32421875,
          -0.2425537109375,
          0.228759765625,
          -0.035797119140625,
          -0.1810302734375,
          0.044097900390625,
          0.5810546875,
          0.81689453125,
          -0.1297607421875,
          1.1025390625,
          0.043304443359375,
          0.332275390625,
          -0.007442474365234375,
          0.0253753662109375,
          -0.03314208984375,
          -0.1722412109375,
          -0.978515625,
          -0.256103515625,
          0.47705078125,
          -0.4912109375,
          0.64501953125,
          -0.1993408203125,
          0.465576171875,
          0.060089111328125,
          -0.54541015625,
          -1.162109375,
          0.5693359375,
          -2.240234375,
          0.330810546875,
          -1.4501953125,
          -1.015625,
          1.837890625,
          -0.433349609375,
          -0.133544921875,
          0.1689453125,
          0.283935546875,
          0.3388671875,
          -0.59521484375,
          -0.0833740234375,
          -1.482421875,
          -0.08721923828125,
          -0.342041015625,
          0.206787109375,
          0.169189453125,
          -0.0341796875,
          0.03106689453125,
          0.044281005859375,
          0.445068359375,
          -0.34423828125,
          0.08245849609375,
          0.154541015625,
          0.64501953125,
          -0.91357421875,
          -0.37890625,
          0.1580810546875,
          -0.1705322265625,
          0.0026874542236328125,
          -0.065185546875,
          0.0261993408203125,
          -0.035186767578125,
          -0.1702880859375,
          0.120361328125,
          -0.3564453125,
          -0.1717529296875,
          0.02020263671875,
          -0.2227783203125,
          0.0850830078125,
          0.184814453125,
          -0.002849578857421875,
          -0.2034912109375,
          -0.250244140625,
          -0.09722900390625,
          -0.031951904296875,
          0.2392578125,
          -0.0523681640625,
          -0.14892578125,
          -0.2254638671875,
          -0.22265625,
          -0.509765625,
          -0.00835418701171875,
          -0.2391357421875,
          -0.363037109375,
          -0.232666015625,
          0.1771240234375,
          0.22216796875,
          -0.0838623046875,
          -0.70654296875,
          -0.371337890625,
          -1.1171875,
          -0.0723876953125,
          -0.07550048828125,
          -0.470947265625,
          -0.8212890625,
          0.11029052734375,
          0.0160675048828125,
          -0.058868408203125,
          -0.5322265625,
          -0.34033203125,
          0.041229248046875,
          0.151611328125,
          -0.066162109375,
          0.1063232421875,
          -0.118896484375,
          -0.483154296875,
          -0.279052734375,
          0.2271728515625,
          -0.482666015625,
          -0.61669921875,
          0.056854248046875,
          -0.220458984375,
          -0.1607666015625,
          -0.450927734375,
          -0.101318359375,
          -0.23095703125,
          -1.01953125,
          -0.720703125,
          0.05157470703125,
          -0.0501708984375,
          -0.397705078125,
          -0.79833984375,
          1.80078125,
          3.068359375,
          -0.0745849609375,
          -2.865234375,
          -0.2249755859375,
          -1.50390625,
          0.6044921875,
          0.207275390625,
          0.28564453125,
          0.54931640625,
          4.04296875,
          2.130859375,
          1.5234375,
          -0.00974273681640625,
          -3.419921875,
          -0.11456298828125,
          2.080078125,
          -0.791015625,
          -8.609375,
          -0.54296875,
          -0.64501953125,
          -0.91552734375,
          -4.015625,
          1.3134765625,
          -5.88671875,
          -0.609375,
          4.5390625,
          -1.3447265625,
          -0.6298828125,
          3.3828125,
          -3.73828125,
          0.285400390625,
          0.181884765625,
          0.1337890625,
          0.0294952392578125,
          0.1436767578125,
          0.5986328125,
          0.4990234375,
          1.09765625,
          0.1798095703125,
          0.70703125,
          -0.11932373046875,
          -0.1484375,
          -0.9658203125,
          -0.6826171875,
          0.0056915283203125,
          -0.904296875,
          -0.03338623046875,
          -0.07891845703125,
          2.740234375,
          0.362548828125,
          0.6826171875,
          -0.09808349609375,
          -0.1546630859375,
          0.0222930908203125,
          -0.06768798828125,
          0.260986328125,
          -0.4990234375,
          0.93359375,
          -1.3994140625,
          -1.634765625,
          1.2353515625,
          0.1937255859375,
          -1.6416015625,
          -0.126708984375,
          0.21533203125,
          -0.5625,
          0.27734375,
          -0.0560302734375,
          -0.05657958984375,
          -0.8115234375,
          0.07879638671875,
          -0.0101318359375,
          0.293212890625,
          -0.0211181640625,
          0.1524658203125,
          0.00982666015625,
          0.035247802734375,
          -0.1927490234375,
          -0.2080078125,
          0.036651611328125,
          -0.041229248046875,
          -1.7041015625,
          0.16015625,
          0.15087890625,
          -0.285400390625,
          0.07672119140625,
          0.032318115234375,
          0.01983642578125,
          -0.17822265625,
          0.1556396484375,
          0.0377197265625,
          0.80908203125,
          -0.0194854736328125,
          -1.060546875,
          -0.08587646484375,
          -11.0390625,
          2.384765625,
          -11.75,
          1.1650390625,
          0.2059326171875,
          0.61962890625,
          -40.125,
          -1.6123046875,
          -1.6181640625,
          2.0390625,
          -0.331787109375,
          1.9130859375,
          4.2421875,
          -0.6865234375,
          -1.7060546875,
          -1.9794921875,
          0.156982421875,
          -2.83203125,
          -1.5068359375,
          -2.240234375,
          -2.7421875,
          -0.4443359375,
          -0.336669921875,
          0.75634765625,
          -10.484375,
          0.176025390625,
          2.20703125,
          -5.2578125,
          0.55322265625,
          -1.1240234375,
          -5.91015625,
          -0.58154296875,
          0.287109375,
          -0.943359375,
          0.0068359375,
          -0.07318115234375,
          0.034332275390625,
          0.368408203125,
          0.1090087890625,
          -0.129150390625,
          0.67529296875,
          -0.061004638671875,
          0.1595458984375,
          -0.04510498046875,
          -0.5087890625,
          0.2174072265625,
          -0.328369140625,
          0.439453125,
          -0.050018310546875,
          0.3046875,
          -0.0718994140625,
          1.2978515625,
          -0.049041748046875,
          -0.032958984375,
          0.0200042724609375,
          -0.2431640625,
          0.2462158203125,
          0.0157623291015625,
          0.2193603515625,
          0.7841796875,
          -0.465087890625,
          0.31396484375,
          0.0016965866088867188,
          -3.60546875,
          0.359375,
          0.57177734375,
          0.8076171875,
          0.921875,
          1.134765625,
          0.52001953125,
          -4.26953125,
          0.0931396484375,
          -0.17919921875,
          -0.96728515625,
          -0.1932373046875,
          -0.15625,
          -2.9765625,
          -0.0032520294189453125,
          -0.68212890625,
          -0.205078125,
          -0.085693359375,
          0.498779296875,
          -0.2440185546875,
          0.59423828125,
          -0.273681640625,
          0.0362548828125,
          0.833984375,
          0.034759521484375,
          0.033843994140625,
          1.146484375,
          0.29150390625,
          -0.0626220703125,
          -6.22265625,
          0.0195770263671875,
          0.7685546875,
          -8.0703125,
          0.2452392578125,
          -0.183349609375,
          -0.265625,
          1.1044921875,
          0.873046875,
          -0.434814453125,
          0.47265625,
          0.0308074951171875,
          0.86279296875,
          0.1292724609375,
          -0.66015625,
          0.33349609375,
          0.349365234375,
          -0.06842041015625,
          -0.3857421875,
          -0.135986328125,
          0.2442626953125,
          -0.15869140625,
          -0.435791015625,
          0.197998046875,
          -0.052154541015625,
          0.006977081298828125,
          -0.00909423828125,
          -0.160888671875,
          -0.26611328125,
          0.220703125,
          0.134765625,
          0.3056640625,
          -1.1796875,
          0.12109375,
          -0.410888671875,
          -0.256103515625,
          -0.435791015625,
          2.42578125,
          -0.049530029296875,
          -0.27734375,
          -0.27001953125,
          -0.52099609375,
          0.357177734375,
          -0.2430419921875,
          1.2158203125,
          0.1790771484375,
          -0.408935546875,
          -0.372802734375,
          -0.1123046875,
          -0.498291015625,
          -0.7119140625,
          0.8271484375,
          0.0291595458984375,
          -1.3759765625,
          -9.71875,
          -0.6572265625,
          0.047637939453125,
          0.378173828125,
          0.1253662109375,
          0.296875,
          -3.470703125,
          0.451171875,
          -0.1514892578125,
          0.88525390625,
          -0.724609375,
          -4.40234375,
          -0.55615234375,
          0.360595703125,
          -0.76708984375,
          -4.50390625,
          0.060577392578125,
          0.201904296875,
          0.1553955078125,
          -0.07403564453125,
          0.1651611328125,
          -0.1956787109375,
          -3.83984375,
          0.54296875,
          0.095458984375,
          0.464111328125,
          -1.4677734375,
          -0.0958251953125,
          0.4814453125,
          -0.54638671875,
          0.53662109375,
          0.56396484375,
          0.79638671875,
          -1.029296875,
          -0.0084075927734375,
          0.193603515625,
          -0.06884765625,
          0.5087890625,
          -1.33203125,
          -1.2236328125,
          -1.0927734375,
          -0.5546875,
          -0.47509765625,
          2.294921875,
          -0.1484375,
          0.2388916015625,
          -1.3603515625,
          -0.5810546875,
          -0.06524658203125,
          0.170166015625,
          -0.08453369140625,
          -0.1458740234375,
          -3.154296875,
          -1.998046875,
          -0.42431640625,
          0.214599609375,
          0.09490966796875,
          0.94287109375,
          0.38037109375,
          0.0103759765625,
          -0.5224609375,
          -3.615234375,
          0.15087890625,
          -0.38720703125,
          -1.0751953125,
          0.1141357421875,
          -0.455322265625,
          0.29345703125,
          -0.0294342041015625,
          0.2484130859375,
          -0.73876953125,
          -0.6181640625,
          0.459716796875,
          -0.491455078125,
          0.0887451171875,
          -4.59375,
          -0.52734375,
          -4.68359375,
          0.1650390625,
          0.4638671875,
          -0.0269622802734375,
          0.038665771484375,
          -0.038909912109375,
          0.0192108154296875,
          -0.181640625,
          0.029632568359375,
          0.0095672607421875,
          -0.05963134765625,
          -0.039947509765625,
          -0.004169464111328125,
          -0.1925048828125,
          0.021087646484375,
          -0.06298828125,
          -0.1048583984375,
          0.05230712890625,
          -0.071044921875,
          -0.325927734375,
          0.02105712890625,
          0.8759765625,
          -0.1339111328125,
          0.0164947509765625,
          0.031463623046875,
          0.02313232421875,
          0.049652099609375,
          -0.802734375,
          0.0628662109375,
          -0.01837158203125,
          -0.004360198974609375,
          0.0078582763671875,
          -0.097412109375,
          -2.587890625,
          -2.228515625,
          0.689453125,
          1.73046875,
          -10.578125,
          -8.7734375,
          -1.07421875,
          0.8828125,
          -23.0625,
          0.9560546875,
          1.0029296875,
          -2.5078125,
          -26.0,
          0.97216796875,
          0.01312255859375,
          0.59619140625,
          0.78076171875,
          -0.0002491474151611328,
          0.396484375,
          -2.08984375,
          0.05560302734375,
          -0.360595703125,
          0.08575439453125,
          -0.56640625,
          0.325927734375,
          -1.951171875,
          -2.798828125,
          0.1513671875,
          -0.26171875,
          2.80078125,
          0.82373046875,
          -2.63671875,
          0.257080078125,
          0.1138916015625,
          -0.11773681640625,
          -0.80517578125,
          -0.6845703125,
          -1.1083984375,
          -1.10546875,
          -0.62060546875,
          0.48486328125,
          0.876953125,
          -2.189453125,
          0.05389404296875,
          -0.34765625,
          -0.346435546875,
          -1.189453125,
          -2.232421875,
          0.021392822265625,
          0.45068359375,
          -0.00567626953125,
          -0.7294921875,
          -0.1651611328125,
          -0.09588623046875,
          -0.036224365234375,
          0.54736328125,
          1.91796875,
          -0.85693359375,
          -0.93310546875,
          0.445556640625,
          -8.546875,
          -0.450927734375,
          -0.2354736328125,
          -6.94140625,
          1.1845703125,
          -6.25390625,
          -2.412109375,
          -0.63916015625,
          -2.193359375,
          0.92724609375,
          5.86328125,
          0.11865234375,
          -0.1300048828125,
          0.97021484375,
          -3.376953125,
          0.5732421875,
          0.49365234375,
          -0.03173828125,
          0.740234375,
          -0.432373046875,
          0.10589599609375,
          2.80859375,
          2.970703125,
          -0.60009765625,
          -0.1807861328125,
          -0.475341796875,
          7.66015625,
          -0.50341796875,
          -0.10162353515625,
          0.01059722900390625,
          -0.89501953125,
          -0.583984375,
          4.06640625,
          0.004512786865234375,
          -2.091796875,
          -7.96875,
          -1.0732421875,
          -0.6416015625,
          -0.07843017578125,
          -0.095703125,
          0.057037353515625,
          -0.1861572265625,
          -0.348388671875,
          -0.048583984375,
          1.17578125,
          -0.5732421875,
          0.56298828125,
          -0.0350341796875,
          -0.91259765625,
          0.73388671875,
          -0.734375,
          0.291259765625,
          0.2398681640625,
          2.849609375,
          0.01715087890625,
          0.455078125,
          0.09954833984375,
          0.57861328125,
          -0.0074310302734375,
          -0.52685546875,
          -2.15234375,
          -10.7890625,
          0.8037109375,
          -0.833984375,
          -4.171875,
          1.9658203125,
          0.74755859375,
          -5.6484375,
          -0.2236328125,
          -0.404052734375,
          -0.032867431640625,
          -0.039703369140625,
          0.037261962890625,
          -0.023406982421875,
          0.170654296875,
          -0.0299530029296875,
          0.026763916015625,
          1.30859375,
          0.0845947265625,
          0.01386260986328125,
          0.356201171875,
          0.0003037452697753906,
          0.097412109375,
          0.14453125,
          -0.0221710205078125,
          0.1224365234375,
          0.388916015625,
          -0.0440673828125,
          0.10357666015625,
          0.255859375,
          -0.01435089111328125,
          -0.026641845703125,
          -0.03662109375,
          -0.08172607421875,
          -0.142822265625,
          -0.125732421875,
          0.0251922607421875,
          0.01085662841796875,
          0.5419921875,
          0.3076171875,
          1.31640625,
          0.68408203125,
          0.07135009765625,
          1.6005859375,
          -0.7236328125,
          -6.70703125,
          -1.302734375,
          -1.333984375,
          0.513671875,
          -0.7919921875,
          -1.1279296875,
          1.1279296875,
          1.658203125,
          0.2076416015625,
          -0.426513671875,
          -0.66796875,
          0.00861358642578125,
          -2.6171875,
          1.6044921875,
          0.279296875,
          0.337890625,
          -0.10748291015625,
          -0.04278564453125,
          -0.36572265625,
          0.226318359375,
          0.81396484375,
          -1.3701171875,
          0.03302001953125,
          -2.525390625,
          0.401611328125,
          1.58984375,
          0.73583984375,
          0.2220458984375,
          -3.712890625,
          3.0390625,
          -2.0234375,
          -1.3125,
          2.685546875,
          -2.08203125,
          0.005023956298828125,
          0.2314453125,
          0.86767578125,
          -2.392578125,
          0.220458984375,
          -24.984375,
          0.01558685302734375,
          1.48046875,
          -0.04571533203125,
          0.1334228515625,
          -1.65625,
          2.14453125,
          -1.1806640625,
          0.305419921875,
          -0.396240234375,
          -0.970703125,
          0.29296875,
          0.236328125,
          -1.73828125,
          -0.5390625,
          -0.11163330078125,
          -16.078125,
          0.0280609130859375,
          0.8134765625,
          -2.6953125,
          0.08612060546875,
          -0.2288818359375,
          0.0022945404052734375,
          0.0094146728515625,
          0.050048828125,
          -0.29296875,
          -0.513671875,
          0.0966796875,
          0.267578125,
          -0.0118408203125,
          0.240234375,
          -0.162109375,
          -1.4541015625,
          -0.2294921875,
          -0.095947265625,
          0.053680419921875,
          2.658203125,
          0.022705078125,
          -0.537109375,
          -0.0386962890625,
          0.485595703125,
          -0.9970703125,
          0.04010009765625,
          -0.291748046875,
          0.00824737548828125,
          0.01983642578125,
          -1.3349609375,
          0.185302734375,
          0.52099609375,
          0.038360595703125,
          0.2034912109375,
          0.111083984375,
          0.04071044921875,
          -0.295166015625,
          0.01480865478515625,
          0.0221710205078125,
          0.00011473894119262695,
          0.00926971435546875,
          0.021759033203125,
          -0.01314544677734375,
          0.012725830078125,
          0.072998046875,
          -0.0168914794921875,
          -0.1064453125,
          0.3984375,
          0.07135009765625,
          -0.020904541015625,
          0.02630615234375,
          0.447509765625,
          0.0010347366333007812,
          0.1981201171875,
          -0.0167236328125,
          0.1490478515625,
          0.541015625,
          -0.031707763671875,
          -0.0556640625,
          -0.046539306640625,
          0.01392364501953125,
          0.70556640625,
          -0.035400390625,
          0.00688934326171875,
          0.0023345947265625,
          -0.462158203125,
          -0.11993408203125,
          -0.7412109375,
          0.5126953125,
          0.01739501953125,
          -0.54833984375,
          -0.55859375,
          -0.0269927978515625,
          -0.357421875,
          0.273681640625,
          2.0078125,
          -1.08984375,
          0.482177734375,
          -0.313232421875,
          -1.25390625,
          0.55029296875,
          -1.728515625,
          2.259765625,
          -0.10418701171875,
          -3.048828125,
          -0.80078125,
          1.123046875,
          -0.1217041015625,
          0.59912109375,
          -0.0650634765625,
          -0.298828125,
          -2.029296875,
          1.0263671875,
          1.4326171875,
          -0.30322265625,
          1.5,
          0.05902099609375,
          1.2998046875,
          0.1536865234375,
          0.28662109375,
          0.41845703125,
          -0.069580078125,
          -1.2421875,
          0.0506591796875,
          -11.9140625,
          1.8388671875,
          -2.349609375,
          -0.402099609375,
          0.09765625,
          0.052276611328125,
          -0.1339111328125,
          -0.09503173828125,
          -0.09454345703125,
          0.07208251953125,
          -0.68994140625,
          0.1251220703125,
          -0.469970703125,
          -0.92919921875,
          -0.154296875,
          -0.10833740234375,
          -0.451416015625,
          -8.484375,
          0.0838623046875,
          0.1263427734375,
          0.1806640625,
          -0.049224853515625,
          -0.373291015625,
          0.876953125,
          -16.65625,
          0.045166015625,
          -0.78271484375,
          0.03375244140625,
          -0.06829833984375,
          -0.12127685546875,
          0.1474609375,
          0.1263427734375,
          -0.3388671875,
          -0.1566162109375,
          -0.07049560546875,
          -0.70068359375,
          -0.64794921875,
          -0.08721923828125,
          -0.25390625,
          -0.32666015625,
          -0.6943359375,
          -0.54345703125,
          -0.199951171875,
          -0.28271484375,
          -0.394775390625,
          0.08477783203125,
          -0.32373046875,
          -0.274169921875,
          -0.30517578125,
          -0.1329345703125,
          -0.70263671875,
          -0.306396484375,
          0.182373046875,
          -0.509765625,
          -0.35498046875,
          0.0215301513671875,
          -0.30322265625,
          0.0194549560546875,
          -0.59765625,
          0.09716796875,
          -0.324951171875,
          0.0169219970703125,
          0.291748046875,
          1.1806640625,
          1.9482421875,
          -0.441650390625,
          -0.278076171875,
          1.4931640625,
          0.094482421875,
          0.250732421875,
          -0.439453125,
          0.154541015625,
          -0.09515380859375,
          -0.43505859375,
          -1.4072265625,
          0.028778076171875,
          -1.28125,
          -1.19140625,
          -0.414794921875,
          0.017547607421875,
          -0.168701171875,
          -0.0343017578125,
          0.08880615234375,
          -4.41796875,
          0.035003662109375,
          0.2020263671875,
          0.17919921875,
          -0.2509765625,
          4.03125,
          -0.492919921875,
          0.403076171875,
          -0.027679443359375,
          0.287841796875,
          -0.01812744140625,
          1.9384765625,
          -0.482421875,
          1.19921875,
          -2.59765625,
          0.0726318359375,
          -4.46875,
          0.2174072265625,
          0.81298828125,
          -0.888671875,
          0.43408203125,
          3.595703125,
          0.4140625,
          1.751953125,
          -0.023101806640625,
          -0.255859375,
          0.943359375,
          -0.38916015625,
          0.46044921875,
          0.0616455078125,
          0.036773681640625,
          -4.40625,
          4.4296875,
          3.3359375,
          -1.3134765625,
          -0.408203125,
          1.767578125,
          -3.451171875,
          -0.2144775390625,
          0.625
        ]
      },
      {
        "bias": [
          -0.31640625,
          -0.51416015625,
          -0.342529296875,
          -0.052642822265625,
          -5.51953125,
          -2.78515625,
          -0.307861328125,
          -0.97607421875,
          -0.7431640625,
          0.1268310546875,
          -0.1358642578125,
          -0.448974609375,
          -0.451171875,
          -0.716796875,
          -4.6171875,
          -0.218505859375,
          -0.41845703125,
          -0.72900390625,
          0.1202392578125,
          -0.1676025390625,
          -0.378173828125,
          -2.564453125,
          -1.2509765625,
          0.018951416015625,
          -1.0830078125,
          -0.91650390625,
          -0.491943359375,
          2.130859375,
          -0.036529541015625,
          -0.6044921875,
          -1.7060546875,
          -2.708984375
        ],
        "in_features": 32,
        "out_features": 32,
        "weights": [
          -0.2088623046875,
          0.263427734375,
          0.41650390625,
          -0.039520263671875,
          0.08203125,
          0.288330078125,
          -0.062469482421875,
          1.537109375,
          -0.0192108154296875,
          -1.0810546875,
          0.04766845703125,
          0.00750732421875,
          0.12115478515625,
          -0.0175628662109375,
          -1.2802734375,
          0.17724609375,
          -0.0799560546875,
          0.1856689453125,
          -0.1265869140625,
          -0.06463623046875,
          -0.31787109375,
          -0.019805908203125,
          0.11883544921875,
          -0.04522705078125,
          -0.98876953125,
          -0.0018167495727539062,
          -0.01776123046875,
          -0.0181884765625,
          0.01100921630859375,
          0.093994140625,
          0.2099609375,
          0.032379150390625,
          -0.30419921875,
          -0.49365234375,
          -0.54296875,
          -0.51123046875,
          -0.0038967132568359375,
          -0.06719970703125,
          -0.23486328125,
          -0.43798828125,
          -0.354736328125,
          -0.331298828125,
          -0.09893798828125,
          -0.1322021484375,
          -0.2471923828125,
          -0.1900634765625,
          -0.06268310546875,
          -0.456787109375,
          -0.2105712890625,
          -0.59130859375,
          -0.205810546875,
          -0.205078125,
          0.08935546875,
          -0.296630859375,
          -0.404541015625,
          0.1717529296875,
          -0.255859375,
          -0.2205810546875,
          -0.46337890625,
          -0.2235107421875,
          -0.204833984375,
          0.152587890625,
          -0.339111328125,
          0.09014892578125,
          0.250244140625,
          -0.0165863037109375,
          0.007633209228515625,
          -0.01306915283203125,
          0.485107421875,
          0.369384765625,
          0.0108642578125,
          -1.7255859375,
          0.262939453125,
          -0.129150390625,
          -0.0882568359375,
          -0.0733642578125,
          -4.77734375,
          0.08087158203125,
          -0.062469482421875,
          -0.09283447265625,
          -0.031341552734375,
          -0.055877685546875,
          0.151611328125,
          -0.10943603515625,
          0.0452880859375,
          0.00955963134765625,
          0.013397216796875,
          -0.365966796875,
          -0.66015625,
          -0.07647705078125,
          -0.06353759765625,
          0.05810546875,
          -0.0005249977111816406,
          0.1629638671875,
          0.45751953125,
          -0.08197021484375,
          -0.200927734375,
          0.09576416015625,
          -0.173583984375,
          -0.186279296875,
          -0.233154296875,
          -0.3359375,
          -0.04742431640625,
          0.1231689453125,
          -0.09619140625,
          -0.09014892578125,
          -0.1610107421875,
          -0.1671142578125,
          -0.352294921875,
          -0.1859130859375,
          -0.214599609375,
          -0.009765625,
          -0.0111236572265625,
          -0.318603515625,
          0.128662109375,
          -0.09844970703125,
          0.2039794921875,
          -0.180908203125,
          -0.441650390625,
          -0.1358642578125,
          -0.68115234375,
          -0.44482421875,
          -0.2822265625,
          -0.17138671875,
          0.0252227783203125,
          0.376953125,
          -0.34375,
          -0.436279296875,
          -0.0655517578125,
          0.1484375,
          -1.39453125,
          -0.368408203125,
          -0.07904052734375,
          -0.39794921875,
          -0.1453857421875,
          -0.82763671875,
          0.03155517578125,
          -2.28515625,
          0.6083984375,
          -0.11834716796875,
          1.0712890625,
          -0.03533935546875,
          1.6982421875,
          -0.353271484375,
          -0.395751953125,
          -0.184814453125,
          0.165283203125,
          -0.226806640625,
          -1.58984375,
          0.02392578125,
          0.239013671875,
          -0.242919921875,
          -3.53515625,
          0.040313720703125,
          0.288818359375,
          -0.169189453125,
          2.1328125,
          -0.304443359375,
          -0.1949462890625,
          0.040130615234375,
          -0.2359619140625,
          0.052978515625,
          -0.1673583984375,
          -0.27880859375,
          -0.36962890625,
          0.08282470703125,
          0.1761474609375,
          -0.1905517578125,
          -28.546875,
          0.287353515625,
          -3.142578125,
          -0.236083984375,
          -0.1136474609375,
          0.59033203125,
          -3.70703125,
          -0.1737060546875,
          -0.372314453125,
          0.29833984375,
          -0.03387451171875,
          -1.302734375,
          -0.417724609375,
          0.94580078125,
          -0.058074951171875,
          -2.197265625,
          -0.15478515625,
          0.123046875,
          -1.1494140625,
          0.240478515625,
          -0.11053466796875,
          -0.159423828125,
          -0.62890625,
          -0.41259765625,
          0.380615234375,
          0.0232391357421875,
          -0.40283203125,
          -0.33154296875,
          -0.333251953125,
          0.1282958984375,
          -0.222412109375,
          -0.285888671875,
          -0.1563720703125,
          -0.265625,
          0.1578369140625,
          -0.230712890625,
          -0.79150390625,
          -0.36572265625,
          -0.266845703125,
          -0.623046875,
          -0.6796875,
          -0.9287109375,
          0.0226287841796875,
          0.00592803955078125,
          0.45556640625,
          -0.20654296875,
          -0.74951171875,
          -0.1126708984375,
          0.315185546875,
          -0.30322265625,
          -0.345458984375,
          -0.08209228515625,
          -0.083984375,
          -0.0294342041015625,
          -0.266845703125,
          -0.1302490234375,
          0.1204833984375,
          0.230712890625,
          -0.12237548828125,
          -0.2900390625,
          0.1666259765625,
          -0.32666015625,
          0.364501953125,
          -0.10302734375,
          0.0859375,
          -0.47705078125,
          -3.673828125,
          -0.298583984375,
          -1.1279296875,
          -0.70751953125,
          -22.265625,
          -0.0330810546875,
          0.0565185546875,
          -0.2119140625,
          0.006839752197265625,
          -0.08843994140625,
          -1.8212890625,
          0.087646484375,
          0.1502685546875,
          -24.265625,
          0.48388671875,
          -0.763671875,
          -0.20751953125,
          -0.38330078125,
          0.00873565673828125,
          0.298828125,
          -0.03057861328125,
          -0.09967041015625,
          -0.1768798828125,
          -0.053985595703125,
          -0.81787109375,
          -0.7353515625,
          -0.233642578125,
          -0.11370849609375,
          0.2196044921875,
          -0.189697265625,
          0.1448974609375,
          -0.5087890625,
          -0.371337890625,
          -0.63232421875,
          -0.026214599609375,
          -0.69189453125,
          -0.734375,
          -0.2041015625,
          -0.43701171875,
          -0.888671875,
          -0.362548828125,
          -0.0975341796875,
          -0.256103515625,
          -0.373779296875,
          -0.1904296875,
          0.00446319580078125,
          -0.2236328125,
          -0.06072998046875,
          -0.6943359375,
          0.1904296875,
          -0.113037109375,
          0.071533203125,
          -0.426513671875,
          -0.027130126953125,
          -0.1943359375,
          -0.189697265625,
          -0.875,
          -0.07763671875,
          0.016326904296875,
          0.0740966796875,
          -0.0150909423828125,
          -0.2235107421875,
          0.49658203125,
          -0.01511383056640625,
          -0.167724609375,
          0.66650390625,
          -0.0010824203491210938,
          -0.0050506591796875,
          -0.3544921875,
          0.09429931640625,
          -0.27197265625,
          -0.039276123046875,
          0.72216796875,
          0.333740234375,
          0.002681732177734375,
          0.1781005859375,
          0.0129852294921875,
          -0.02520751953125,
          0.004436492919921875,
          0.00041556358337402344,
          0.06463623046875,
          0.1793212890625,
          -0.033233642578125,
          0.022216796875,
          0.11859130859375,
          0.127685546875,
          -0.2120361328125,
          0.006771087646484375,
          -0.2264404296875,
          -0.153076171875,
          -0.01202392578125,
          -0.0240936279296875,
          0.203857421875,
          -0.421875,
          -0.1446533203125,
          0.117919921875,
          -0.199951171875,
          -0.1842041015625,
          -0.08135986328125,
          -0.3701171875,
          -0.050567626953125,
          -0.0190277099609375,
          0.0018987655639648438,
          -0.8154296875,
          0.100341796875,
          0.0159912109375,
          -0.27734375,
          0.297607421875,
          -0.334228515625,
          0.109130859375,
          0.069091796875,
          -0.1512451171875,
          -0.794921875,
          -0.3505859375,
          0.1524658203125,
          0.25439453125,
          -0.1749267578125,
          -0.164306640625,
          0.0093994140625,
          -0.27880859375,
          -0.217529296875,
          -0.3447265625,
          -0.029754638671875,
          0.27294921875,
          0.254638671875,
          -0.22216796875,
          0.03131103515625,
          -0.384765625,
          -0.375244140625,
          -0.366943359375,
          -0.1375732421875,
          0.04510498046875,
          0.07733154296875,
          -0.59130859375,
          -0.328125,
          -0.89111328125,
          0.108154296875,
          -0.08642578125,
          -0.268310546875,
          -0.48876953125,
          0.1497802734375,
          -0.307861328125,
          -0.331298828125,
          -0.414794921875,
          -0.300048828125,
          -0.0499267578125,
          -0.2327880859375,
          0.1729736328125,
          -0.328369140625,
          -0.0897216796875,
          0.94775390625,
          -0.373779296875,
          -1.1611328125,
          0.01953125,
          -0.283935546875,
          -0.497314453125,
          0.25048828125,
          -0.2265625,
          -0.26708984375,
          0.040740966796875,
          -0.133544921875,
          0.03662109375,
          0.08770751953125,
          0.2685546875,
          -0.74462890625,
          0.1202392578125,
          -0.1839599609375,
          0.024658203125,
          -0.255859375,
          0.045135498046875,
          -0.09259033203125,
          -0.0267486572265625,
          0.0175323486328125,
          0.7265625,
          0.01311492919921875,
          -0.022430419921875,
          -0.0225982666015625,
          -0.11260986328125,
          -0.4072265625,
          -0.11578369140625,
          -0.043304443359375,
          0.0162506103515625,
          0.23046875,
          -0.465087890625,
          -0.517578125,
          -0.434814453125,
          -0.155517578125,
          -0.157958984375,
          -0.05029296875,
          -0.58740234375,
          0.2484130859375,
          -0.62646484375,
          -0.1724853515625,
          -0.47216796875,
          -0.55517578125,
          -0.349609375,
          -0.41357421875,
          -0.1734619140625,
          -0.1776123046875,
          -0.78662109375,
          -0.53173828125,
          -0.5263671875,
          0.397216796875,
          -0.316650390625,
          -0.51806640625,
          -0.09332275390625,
          -0.018280029296875,
          -0.2230224609375,
          -0.7470703125,
          -0.28955078125,
          -0.44921875,
          0.1444091796875,
          -0.469482421875,
          -0.042694091796875,
          -0.3076171875,
          -0.233642578125,
          0.456298828125,
          -0.82421875,
          -0.6220703125,
          0.06634521484375,
          -0.144287109375,
          0.783203125,
          -0.78076171875,
          0.0755615234375,
          -0.22216796875,
          -4.125,
          -4.17578125,
          -0.8193359375,
          0.1455078125,
          0.10467529296875,
          -2.3671875,
          -0.122314453125,
          -0.150146484375,
          -2.7265625,
          1.12890625,
          -0.47119140625,
          -0.55078125,
          -5.3359375,
          -3.78515625,
          0.8740234375,
          0.10406494140625,
          -1.2666015625,
          0.1953125,
          -0.156005859375,
          -0.88720703125,
          -1.166015625,
          0.1512451171875,
          0.228271484375,
          -0.068603515625,
          0.0160064697265625,
          0.0015974044799804688,
          -0.52197265625,
          -0.1915283203125,
          -0.033111572265625,
          0.0021114349365234375,
          -0.104248046875,
          0.01898193359375,
          -0.0138702392578125,
          -0.04998779296875,
          -0.0030803680419921875,
          0.0084686279296875,
          -0.001415252685546875,
          -0.00946807861328125,
          0.708984375,
          -0.00377655029296875,
          -0.0009145736694335938,
          -0.0474853515625,
          -0.0078125,
          0.41845703125,
          0.003620147705078125,
          -0.01157379150390625,
          -0.0125274658203125,
          -0.09332275390625,
          0.0036220550537109375,
          0.003719329833984375,
          0.5693359375,
          -0.000028848648071289062,
          0.0015468597412109375,
          0.00887298583984375,
          -0.445068359375,
          -0.400146484375,
          -0.62255859375,
          -0.42333984375,
          -0.1290283203125,
          0.094482421875,
          0.0743408203125,
          0.1092529296875,
          -0.55908203125,
          -0.30859375,
          -0.2822265625,
          -0.23193359375,
          -0.1439208984375,
          -1.0419921875,
          -0.437744140625,
          -0.408447265625,
          -0.448974609375,
          -0.87841796875,
          -0.4892578125,
          -0.00688934326171875,
          -0.27294921875,
          -0.27392578125,
          0.1640625,
          -0.56640625,
          -0.34521484375,
          -0.385986328125,
          -0.361083984375,
          0.17822265625,
          0.490478515625,
          -0.149169921875,
          -0.3876953125,
          0.034881591796875,
          0.1085205078125,
          -0.97216796875,
          -0.48291015625,
          -0.18017578125,
          0.042236328125,
          0.3896484375,
          -0.11749267578125,
          -0.76025390625,
          -0.4658203125,
          -0.1480712890625,
          0.0628662109375,
          -0.255615234375,
          -0.64306640625,
          -0.129638671875,
          -0.0022335052490234375,
          -0.6669921875,
          -0.6005859375,
          -0.5927734375,
          -0.5166015625,
          -0.2403564453125,
          -0.515625,
          -0.047515869140625,
          -0.396728515625,
          0.447509765625,
          -0.460693359375,
          -0.88232421875,
          -0.52587890625,
          0.043670654296875,
          0.0751953125,
          -0.71142578125,
          0.0296783447265625,
          0.042205810546875,
          0.1298828125,
          0.0955810546875,
          0.0180206298828125,
          -0.0273895263671875,
          -0.10797119140625,
          0.00856781005859375,
          -0.0308685302734375,
          -0.0012083053588867188,
          0.0242156982421875,
          0.3466796875,
          -0.006053924560546875,
          0.004375457763671875,
          0.00496673583984375,
          0.031768798828125,
          -0.0116424560546875,
          -0.01422882080078125,
          -0.371826171875,
          -0.00884246826171875,
          0.03717041015625,
          -0.0033740997314453125,
          0.00331878662109375,
          -0.43896484375,
          -0.05194091796875,
          0.01416015625,
          -1.26953125,
          0.06402587890625,
          0.0169525146484375,
          0.034759521484375,
          -0.402099609375,
          -0.0299224853515625,
          -0.01529693603515625,
          -0.276611328125,
          0.221435546875,
          -0.01528167724609375,
          -0.89208984375,
          0.51171875,
          0.2431640625,
          0.08349609375,
          0.018096923828125,
          0.296630859375,
          0.359619140625,
          -0.00736236572265625,
          -0.1986083984375,
          -0.162841796875,
          -0.340576171875,
          -0.0271453857421875,
          -2.775390625,
          -32.5,
          -0.3564453125,
          2.556640625,
          -0.92626953125,
          -0.0323486328125,
          -0.8779296875,
          0.467041015625,
          0.439453125,
          0.3369140625,
          -0.10662841796875,
          0.0653076171875,
          0.0584716796875,
          0.7119140625,
          0.359130859375,
          -0.1270751953125,
          0.132080078125,
          0.5341796875,
          0.0218353271484375,
          -0.416015625,
          -0.61474609375,
          -0.0867919921875,
          -0.1666259765625,
          -0.58984375,
          -0.229736328125,
          -0.0828857421875,
          -0.4169921875,
          -1.244140625,
          -0.138916015625,
          -0.01189422607421875,
          -0.11260986328125,
          -0.53564453125,
          -0.505859375,
          -0.041534423828125,
          -0.48486328125,
          -0.0462646484375,
          -0.250732421875,
          -0.11212158203125,
          -0.25634765625,
          -0.1092529296875,
          -0.036224365234375,
          -0.1107177734375,
          -0.291748046875,
          -1.03125,
          -0.1041259765625,
          -0.31982421875,
          -0.004878997802734375,
          -0.0992431640625,
          -0.214111328125,
          -0.1739501953125,
          0.41455078125,
          -0.361328125,
          -1.0341796875,
          0.26318359375,
          -0.177734375,
          0.3662109375,
          -0.66259765625,
          -0.5,
          -0.5830078125,
          -0.218017578125,
          -0.53271484375,
          -0.1998291015625,
          -1.77734375,
          -3.1015625,
          -0.11346435546875,
          0.7158203125,
          -0.828125,
          0.017669677734375,
          0.0509033203125,
          -0.37841796875,
          -0.11669921875,
          -0.75732421875,
          0.9814453125,
          0.5380859375,
          -0.360107421875,
          -1.0830078125,
          -0.451416015625,
          -0.0667724609375,
          0.1058349609375,
          -0.21826171875,
          -0.2939453125,
          0.2159423828125,
          -0.1212158203125,
          -0.039703369140625,
          0.67919921875,
          0.184326171875,
          0.2120361328125,
          -0.0645751953125,
          -0.036041259765625,
          0.1044921875,
          -0.0433349609375,
          -0.343994140625,
          -0.00044155120849609375,
          -0.020965576171875,
          0.12646484375,
          0.20458984375,
          -0.022918701171875,
          -0.2216796875,
          0.085693359375,
          -4.90234375,
          0.299072265625,
          0.0305023193359375,
          -0.03863525390625,
          -0.1419677734375,
          -0.22216796875,
          -0.006175994873046875,
          -0.0252685546875,
          0.05389404296875,
          0.01971435546875,
          0.095947265625,
          -0.055694580078125,
          0.1710205078125,
          -0.0260467529296875,
          0.147705078125,
          -0.0643310546875,
          -47.4375,
          -0.82666015625,
          -0.277099609375,
          0.032623291015625,
          -0.1341552734375,
          -0.5947265625,
          0.63330078125,
          -0.1861572265625,
          -1.775390625,
          -0.074951171875,
          -0.0672607421875,
          0.04541015625,
          -15.5078125,
          0.8798828125,
          -24.890625,
          -0.489501953125,
          -1.6201171875,
          -1.4970703125,
          0.0241546630859375,
          0.200439453125,
          0.254150390625,
          0.177490234375,
          -0.025848388671875,
          0.038787841796875,
          -0.270263671875,
          -9.140625,
          -3.119140625,
          -0.2337646484375,
          1.0888671875,
          -0.0245361328125,
          0.0732421875,
          0.24755859375,
          -0.76318359375,
          -0.822265625,
          -0.488037109375,
          -0.005062103271484375,
          0.10797119140625,
          0.10858154296875,
          -0.002349853515625,
          -0.34228515625,
          -0.6376953125,
          -0.346435546875,
          -0.51025390625,
          -0.88037109375,
          -0.9140625,
          -0.6572265625,
          -0.498046875,
          -1.041015625,
          -0.890625,
          -0.490478515625,
          -0.494873046875,
          -0.041412353515625,
          -0.96875,
          -0.23046875,
          -0.1778564453125,
          -0.1611328125,
          -1.2265625,
          -0.1644287109375,
          0.1129150390625,
          0.2257080078125,
          -1.1279296875,
          0.01029205322265625,
          0.05096435546875,
          0.1025390625,
          -1.015625,
          -0.84619140625,
          -0.291015625,
          -0.156982421875,
          0.1171875,
          -0.1719970703125,
          -0.2333984375,
          -0.39404296875,
          -0.44873046875,
          -0.056396484375,
          -0.456787109375,
          -0.472412109375,
          -0.79736328125,
          0.1361083984375,
          -0.7578125,
          -0.77392578125,
          0.010406494140625,
          -0.6142578125,
          -0.2330322265625,
          0.0130157470703125,
          -0.50634765625,
          -0.46044921875,
          0.0389404296875,
          -0.85986328125,
          -0.83203125,
          -0.304443359375,
          -0.343505859375,
          -0.12152099609375,
          -0.6328125,
          -0.12469482421875,
          -0.1561279296875,
          0.10284423828125,
          -0.001880645751953125,
          -0.48388671875,
          -0.0411376953125,
          -0.270263671875,
          -0.020843505859375,
          -0.109619140625,
          -0.25439453125,
          -0.462890625,
          -0.25244140625,
          -0.130126953125,
          -0.84228515625,
          -1.091796875,
          -0.042938232421875,
          -0.2666015625,
          -0.7421875,
          -1.0576171875,
          -0.32568359375,
          -0.424560546875,
          -0.2017822265625,
          -0.1314697265625,
          -0.31103515625,
          -0.33837890625,
          -0.35791015625,
          -0.5322265625,
          -0.67041015625,
          -0.316650390625,
          -0.07562255859375,
          -0.279541015625,
          -0.787109375,
          -0.2093505859375,
          0.10797119140625,
          0.2467041015625,
          0.303955078125,
          -0.004871368408203125,
          -0.0115509033203125,
          0.0738525390625,
          0.58349609375,
          0.142822265625,
          0.00350189208984375,
          -0.036224365234375,
          0.086669921875,
          -0.0302886962890625,
          -0.00415802001953125,
          0.00096893310546875,
          0.1710205078125,
          -0.0123291015625,
          -0.01018524169921875,
          -0.0174560546875,
          0.0108642578125,
          -0.00243377685546875,
          0.01959228515625,
          0.00337982177734375,
          0.06500244140625,
          0.0241851806640625,
          0.040496826171875,
          -0.3251953125,
          -0.734375,
          0.01160430908203125,
          -0.0008802413940429688,
          0.2548828125,
          -0.01132965087890625,
          -0.0079193115234375,
          -0.29150390625,
          -0.1854248046875,
          0.09576416015625,
          0.0038776397705078125,
          0.015533447265625,
          0.07623291015625,
          0.443359375,
          -0.09808349609375,
          -0.15625,
          0.68701171875,
          0.026763916015625,
          -0.1455078125,
          0.6572265625,
          0.049652099609375,
          0.134033203125,
          -0.044952392578125,
          0.178466796875,
          -0.2108154296875,
          -0.200927734375,
          -0.060394287109375,
          0.39599609375,
          -0.04254150390625,
          0.52197265625,
          -0.0341796875,
          0.326904296875,
          0.011749267578125,
          -0.0162506103515625,
          -0.01910400390625,
          -0.055450439453125,
          0.142333984375,
          -0.04608154296875,
          -0.04827880859375,
          -0.0234222412109375,
          -0.354248046875,
          -0.2491455078125,
          -1.03515625,
          0.107177734375,
          -0.11322021484375,
          -0.57080078125,
          -0.66015625,
          -0.28759765625,
          -0.40966796875,
          -0.14697265625,
          -0.5791015625,
          0.044097900390625,
          0.1396484375,
          -0.418701171875,
          -0.9443359375,
          -0.347412109375,
          -0.80712890625,
          0.0087432861328125,
          -0.52734375,
          -0.29052734375,
          0.09307861328125,
          -0.44580078125,
          -0.1787109375,
          -0.1754150390625,
          -0.34375,
          -0.480224609375,
          -0.331787109375,
          -0.1634521484375,
          -0.34716796875,
          -0.56591796875,
          -0.07403564453125,
          0.11126708984375,
          0.192138671875,
          0.2210693359375,
          0.1724853515625,
          0.57568359375,
          0.10845947265625,
          0.29296875,
          -0.3623046875,
          -0.315673828125,
          -0.1788330078125,
          -2.716796875,
          -0.2998046875,
          0.0248565673828125,
          0.5224609375,
          -3.900390625,
          -0.11761474609375,
          -11.7890625,
          0.1051025390625,
          -0.279541015625,
          -8.765625,
          -0.016937255859375,
          -0.55322265625,
          -0.0235137939453125,
          0.26025390625,
          -0.85107421875,
          -0.65673828125,
          -0.51611328125,
          0.2127685546875,
          0.184326171875,
          0.13916015625,
          -0.955078125,
          -0.1826171875,
          0.0631103515625,
          -0.08404541015625,
          -13.0546875,
          -0.68310546875,
          -0.333984375,
          -0.1678466796875,
          0.2685546875,
          -3.12890625,
          -0.04193115234375,
          -1.048828125,
          2.037109375,
          -0.25244140625,
          -0.285888671875,
          -0.900390625,
          0.335693359375,
          -1.173828125,
          0.093017578125,
          -1.3349609375,
          0.02001953125,
          -3.09765625,
          -0.0269012451171875,
          -0.3623046875,
          -0.02569580078125,
          -0.196044921875,
          -0.1632080078125,
          -0.2091064453125,
          0.626953125,
          -1.6611328125,
          -0.331787109375,
          0.004222869873046875,
          -1.0078125,
          -0.1651611328125
        ]
      },
      {
        "bias": [
          -1.5830078125,
          -1.43359375,
          -5.37890625,
          -6.96484375
        ],
        "in_features": 32,
        "out_features": 4,
        "weights": [
          0.027862548828125,
          0.079345703125,
          0.00254058837890625,
          0.0100860595703125,
          0.00278472900390625,
          -0.1318359375,
          -0.076171875,
          -0.128173828125,
          -0.0843505859375,
          -0.0023822784423828125,
          -0.399658203125,
          -0.279052734375,
          -0.01508331298828125,
          0.2081298828125,
          0.439208984375,
          0.045562744140625,
          -0.06463623046875,
          0.1614990234375,
          0.008026123046875,
          -0.00118255615234375,
          0.150146484375,
          0.3046875,
          0.005462646484375,
          0.0002524852752685547,
          -0.048126220703125,
          -0.5126953125,
          -0.1629638671875,
          0.400390625,
          -0.007495880126953125,
          0.059234619140625,
          -0.00559234619140625,
          0.0108795166015625,
          -0.00201416015625,
          -0.048492431640625,
          -0.0732421875,
          -0.0020618438720703125,
          0.0007042884826660156,
          -0.1239013671875,
          -0.244384765625,
          -0.06463623046875,
          -0.16015625,
          0.2135009765625,
          -0.0295867919921875,
          0.1077880859375,
          -0.0911865234375,
          -0.36865234375,
          -0.053070068359375,
          0.022369384765625,
          -0.1763916015625,
          0.1395263671875,
          0.0025920867919921875,
          0.057098388671875,
          -0.1195068359375,
          -0.28173828125,
          -0.232177734375,
          0.068115234375,
          -0.201904296875,
          -0.0672607421875,
          0.30859375,
          0.00028634071350097656,
          -0.004085540771484375,
          -0.2266845703125,
          -0.049163818359375,
          -0.059783935546875,
          0.005947113037109375,
          -0.235595703125,
          0.016448974609375,
          -4.203125,
          -0.01192474365234375,
          0.1661376953125,
          -0.0251922607421875,
          -0.287353515625,
          0.1522216796875,
          0.03240966796875,
          -0.01322174072265625,
          -0.0262298583984375,
          0.0014276504516601562,
          0.09515380859375,
          0.06304931640625,
          0.87451171875,
          0.367431640625,
          0.34326171875,
          -11.3046875,
          0.0017976760864257812,
          -0.0802001953125,
          -0.08160400390625,
          -0.0216827392578125,
          0.005199432373046875,
          -0.002025604248046875,
          0.2340087890625,
          -0.276123046875,
          -0.046905517578125,
          0.08721923828125,
          -0.2259521484375,
          0.00006574392318725586,
          0.186279296875,
          0.12188720703125,
          0.1102294921875,
          0.1365966796875,
          -5.2890625,
          0.08978271484375,
          0.11273193359375,
          -0.2320556640625,
          -0.6318359375,
          -0.295166015625,
          0.2264404296875,
          -0.03167724609375,
          -0.08660888671875,
          0.052734375,
          0.11181640625,
          -0.00196075439453125,
          0.06298828125,
          0.359375,
          0.163818359375,
          -0.0024738311767578125,
          0.01274871826171875,
          -0.058563232421875,
          -0.146240234375,
          -0.09649658203125,
          0.003925323486328125,
          0.12432861328125,
          0.2607421875,
          -0.032440185546875,
          0.0027923583984375,
          0.6826171875,
          -0.019256591796875,
          0.026580810546875,
          -0.157470703125
        ]
      }
    ],
    "output": 4
  }
}