{
  "model": {
    "input": 30,
    "layers": [
      {
        "bias": [
          0.71533203125,
          -1.9013671875,
          0.469970703125,
          2.798828125,
          -0.435791015625,
          0.2218017578125,
          -0.78759765625,
          -0.1783447265625,
          0.29833984375,
          -0.6845703125,
          -2.62109375,
          0.43798828125,
          -1.0234375,
          0.5234375,
          1.5205078125,
          -0.5810546875,
          -1.083984375,
          -0.23828125,
          0.404296875,
          0.5771484375,
          0.2646484375,
          2.359375,
          -0.12890625,
          -0.13623046875,
          0.580078125,
          -2.306640625,
          -1.1865234375,
          1.318359375,
          -3.392578125,
          0.8154296875,
          -1.1533203125,
          0.8837890625
        ],
        "in_features": 30,
        "out_features": 32,
        "type": "linear",
        "weights": [
          -0.73046875,
          -2.01953125,
          0.50537109375,
          -0.6533203125,
          0.05224609375,
          -0.11199951171875,
          -0.71630859375,
          -2.01953125,
          0.501953125,
          -0.6484375,
          0.04901123046875,
          -0.10430908203125,
          -5.65234375,
          9.3828125,
          -6.0234375,
          -3.607421875,
          -1.2412109375,
          0.218505859375,
          -0.453125,
          -2.748046875,
          1.064453125,
          -0.7939453125,
          -0.26025390625,
          -0.032470703125,
          2.109375,
          -1.4873046875,
          0.0994873046875,
          0.880859375,
          0.11407470703125,
          0.16796875,
          4.1953125,
          -2.23046875,
          1.173828125,
          1.017578125,
          0.143310546875,
          0.0194244384765625,
          4.19921875,
          -2.232421875,
          1.177734375,
          1.0234375,
          0.145751953125,
          0.0224609375,
          0.252685546875,
          4.69140625,
          -3.2109375,
          -0.72412109375,
          -0.51171875,
          -0.1279296875,
          -1.7919921875,
          0.91552734375,
          -0.68994140625,
          -0.50439453125,
          -0.1036376953125,
          0.03802490234375,
          -0.787109375,
          6.82421875,
          -1.25390625,
          2.357421875,
          0.0770263671875,
          0.07220458984375,
          -0.377685546875,
          1.3779296875,
          -0.374267578125,
          -0.072509765625,
          -0.0289306640625,
          -0.0269927978515625,
          -0.379638671875,
          1.375,
          -0.382568359375,
          -0.067138671875,
          -0.024505615234375,
          -0.018096923828125,
          -13.1015625,
          -0.67236328125,
          -4.9453125,
          0.966796875,
          0.035888671875,
          -0.490966796875,
          0.306640625,
          -1.4794921875,
          0.445068359375,
          0.1705322265625,
          -0.02392578125,
          -0.10479736328125,
          -2.6484375,
          -1.9599609375,
          0.978515625,
          -1.1572265625,
          0.0628662109375,
          -0.462158203125,
          -0.19482421875,
          0.09844970703125,
          -0.044036865234375,
          -0.03826904296875,
          -0.002574920654296875,
          -0.00826263427734375,
          -0.1927490234375,
          0.09698486328125,
          -0.04150390625,
          -0.03802490234375,
          -0.00356292724609375,
          -0.0103912353515625,
          -10.734375,
          -0.61572265625,
          0.260498046875,
          1.2275390625,
          0.9501953125,
          -2.751953125,
          -0.08392333984375,
          0.013946533203125,
          0.06890869140625,
          -0.043121337890625,
          -0.004116058349609375,
          -0.02154541015625,
          0.28173828125,
          -1.1767578125,
          0.427978515625,
          0.470458984375,
          -0.176513671875,
          -0.244140625,
          -0.89208984375,
          1.0771484375,
          -0.2919921875,
          -0.0008563995361328125,
          -0.0261383056640625,
          0.01192474365234375,
          -0.888671875,
          1.076171875,
          -0.28955078125,
          0.00026154518127441406,
          -0.0261993408203125,
          0.0117340087890625,
          -6.41796875,
          -3.41796875,
          2.291015625,
          -0.6298828125,
          0.463134765625,
          -0.380126953125,
          0.9365234375,
          1.119140625,
          -0.306396484375,
          0.061859130859375,
          0.06695556640625,
          -0.006683349609375,
          0.548828125,
          3.21484375,
          -2.166015625,
          -2.572265625,
          -0.436279296875,
          -0.347412109375,
          0.33984375,
          -1.1767578125,
          0.251953125,
          0.005519866943359375,
          0.01428985595703125,
          -0.0254058837890625,
          0.335205078125,
          -1.1728515625,
          0.248779296875,
          0.005382537841796875,
          0.013519287109375,
          -0.0249786376953125,
          2.212890625,
          -0.474853515625,
          -1.5732421875,
          -0.2314453125,
          -0.354248046875,
          0.087890625,
          -1.5869140625,
          -0.332275390625,
          0.63525390625,
          0.088134765625,
          -0.08355712890625,
          0.0794677734375,
          -0.4169921875,
          -1.1533203125,
          0.8662109375,
          0.814453125,
          0.073486328125,
          0.082763671875,
          1.0517578125,
          -0.89111328125,
          0.00099945068359375,
          0.44873046875,
          -0.0011453628540039062,
          0.0684814453125,
          1.0634765625,
          -0.89013671875,
          -0.002323150634765625,
          0.451904296875,
          -0.0036449432373046875,
          0.0654296875,
          3.16796875,
          2.958984375,
          0.76953125,
          1.765625,
          0.30712890625,
          -0.1085205078125,
          0.94970703125,
          1.6708984375,
          -0.18310546875,
          0.1824951171875,
          -0.03631591796875,
          -0.03277587890625,
          -0.71044921875,
          -0.01297760009765625,
          -0.1107177734375,
          -0.440185546875,
          -0.114501953125,
          -0.0267486572265625,
          -0.27978515625,
          0.2054443359375,
          -0.150146484375,
          0.094482421875,
          0.02276611328125,
          0.0214691162109375,
          -0.2822265625,
          0.20703125,
          -0.1531982421875,
          0.09490966796875,
          0.023284912109375,
          0.0231170654296875,
          -20.5625,
          -1.6318359375,
          -0.61572265625,
          0.83251953125,
          4.00390625,
          1.0498046875,
          1.453125,
          0.60498046875,
          0.1376953125,
          0.390869140625,
          0.01294708251953125,
          0.059295654296875,
          0.0440673828125,
          2.123046875,
          0.99951171875,
          -0.83740234375,
          -0.74267578125,
          0.2015380859375,
          -2.716796875,
          2.9453125,
          -1.3037109375,
          -0.7119140625,
          -0.167236328125,
          0.0272979736328125,
          -2.712890625,
          2.943359375,
          -1.3056640625,
          -0.7138671875,
          -0.1629638671875,
          0.034515380859375,
          -0.364013671875,
          -1.4072265625,
          -0.09649658203125,
          0.2066650390625,
          -0.09197998046875,
          0.2408447265625,
          -1.8291015625,
          -1.064453125,
          -0.397705078125,
          -0.77099609375,
          -0.06475830078125,
          -0.048370361328125,
          0.77734375,
          0.33837890625,
          1.3193359375,
          -0.96044921875,
          0.30322265625,
          -0.333984375,
          -0.047607421875,
          -0.25390625,
          0.0267181396484375,
          -0.162841796875,
          -0.0282745361328125,
          -0.01012420654296875,
          -0.052276611328125,
          -0.256591796875,
          0.0271759033203125,
          -0.16552734375,
          -0.0281829833984375,
          -0.00933074951171875,
          -0.09027099609375,
          0.04388427734375,
          -2.701171875,
          -0.2318115234375,
          -2.6015625,
          1.0478515625,
          -3.228515625,
          -0.708984375,
          -0.2069091796875,
          -0.8486328125,
          -0.043853759765625,
          -0.114013671875,
          -1.1669921875,
          1.5234375,
          -0.177001953125,
          0.765625,
          -0.1968994140625,
          -0.13671875,
          1.54296875,
          -1.1328125,
          0.435302734375,
          0.317138671875,
          0.0567626953125,
          0.00909423828125,
          1.5419921875,
          -1.1298828125,
          0.434326171875,
          0.31591796875,
          0.051239013671875,
          0.0098876953125,
          4.19140625,
          2.236328125,
          -0.82666015625,
          0.4052734375,
          -0.0914306640625,
          -0.24951171875,
          -0.42529296875,
          -0.3359375,
          -0.06414794921875,
          -0.250732421875,
          -0.066650390625,
          -0.00896453857421875,
          -1.3291015625,
          3.681640625,
          0.1455078125,
          -0.4287109375,
          -0.1556396484375,
          0.10760498046875,
          -0.25341796875,
          0.1990966796875,
          -0.07855224609375,
          0.0499267578125,
          0.0080718994140625,
          0.010101318359375,
          -0.25341796875,
          0.1995849609375,
          -0.0809326171875,
          0.04913330078125,
          0.0078582763671875,
          0.0097198486328125,
          -10.390625,
          -2.267578125,
          -1.9677734375,
          0.50537109375,
          2.76953125,
          -0.135986328125,
          1.1513671875,
          0.41162109375,
          0.002498626708984375,
          0.40625,
          0.05230712890625,
          0.068603515625,
          0.9267578125,
          1.4365234375,
          -0.50439453125,
          -0.68505859375,
          0.127685546875,
          0.1806640625,
          -0.287841796875,
          0.1954345703125,
          -0.10430908203125,
          -0.11602783203125,
          -0.01253509521484375,
          -0.057525634765625,
          -0.29052734375,
          0.19775390625,
          -0.10296630859375,
          -0.114990234375,
          -0.015045166015625,
          -0.052734375,
          2.529296875,
          0.6630859375,
          -0.44921875,
          0.34619140625,
          -0.0283660888671875,
          0.080810546875,
          -2.6015625,
          -1.8408203125,
          -0.619140625,
          -1.1494140625,
          0.0035610198974609375,
          0.1639404296875,
          -1.3837890625,
          -1.15625,
          0.303955078125,
          -0.3876953125,
          0.027618408203125,
          0.0089874267578125,
          -2.8828125,
          2.62890625,
          -1.0390625,
          -1.5712890625,
          -0.0260009765625,
          -0.305908203125,
          1.60546875,
          -1.248046875,
          0.419189453125,
          0.236328125,
          0.052825927734375,
          0.00911712646484375,
          0.66943359375,
          0.1640625,
          -0.054840087890625,
          0.341064453125,
          -0.01763916015625,
          0.06439208984375,
          -1.041015625,
          0.548828125,
          -0.28955078125,
          -0.374267578125,
          -0.047088623046875,
          -0.06182861328125,
          -0.268798828125,
          0.229736328125,
          -0.07586669921875,
          -0.07598876953125,
          0.003604888916015625,
          -0.00015413761138916016,
          -0.51416015625,
          1.34765625,
          -0.228759765625,
          -0.1534423828125,
          0.0244598388671875,
          -0.00811004638671875,
          -0.490234375,
          1.3564453125,
          -0.2379150390625,
          -0.1448974609375,
          0.0198822021484375,
          -0.0085296630859375,
          -5.19140625,
          1.5634765625,
          -0.93212890625,
          -1.3642578125,
          -0.203125,
          -0.10211181640625,
          -0.499755859375,
          -0.88232421875,
          0.26025390625,
          -0.225830078125,
          -0.055908203125,
          -0.04779052734375,
          1.3251953125,
          -1.591796875,
          0.4501953125,
          0.263427734375,
          0.050537109375,
          -0.051055908203125,
          0.14111328125,
          -0.1556396484375,
          -0.0538330078125,
          -0.1356201171875,
          -0.021820068359375,
          0.005680084228515625,
          0.148681640625,
          -0.1551513671875,
          -0.054046630859375,
          -0.1339111328125,
          -0.0218048095703125,
          0.005001068115234375,
          0.328125,
          -0.2003173828125,
          -4.5625,
          0.28564453125,
          -0.8955078125,
          0.98193359375,
          -2.421875,
          0.07550048828125,
          0.01349639892578125,
          -0.1539306640625,
          -0.10601806640625,
          -0.06109619140625,
          -0.87548828125,
          2.865234375,
          -1.216796875,
          1.357421875,
          0.36328125,
          0.28369140625,
          -2.48828125,
          2.37109375,
          -0.8349609375,
          -0.498046875,
          -0.11053466796875,
          -0.03515625,
          -2.490234375,
          2.373046875,
          -0.8330078125,
          -0.497314453125,
          -0.10821533203125,
          -0.03240966796875,
          -1.3330078125,
          -3.0390625,
          0.85205078125,
          -1.052734375,
          0.033233642578125,
          -0.09320068359375,
          0.8759765625,
          -4.7265625,
          0.82080078125,
          -0.497802734375,
          0.056671142578125,
          0.02532958984375,
          0.5458984375,
          -1.2197265625,
          0.52392578125,
          0.06903076171875,
          0.05084228515625,
          -0.04345703125,
          1.0439453125,
          -0.681640625,
          0.2490234375,
          0.07550048828125,
          0.01666259765625,
          -0.004474639892578125,
          1.0419921875,
          -0.68115234375,
          0.2489013671875,
          0.07440185546875,
          0.0167083740234375,
          -0.004364013671875,
          4.484375,
          3.6328125,
          -1.4755859375,
          -0.57861328125,
          -0.4931640625,
          -0.116455078125,
          -0.63037109375,
          -2.18359375,
          0.356689453125,
          -0.266845703125,
          -0.0264129638671875,
          -0.02227783203125,
          0.3056640625,
          7.5,
          -2.314453125,
          0.1368408203125,
          0.0251312255859375,
          0.11602783203125,
          1.6015625,
          -1.2451171875,
          0.417236328125,
          0.2364501953125,
          0.051544189453125,
          0.0119171142578125,
          -2.73828125,
          2.716796875,
          -1.09765625,
          -1.5517578125,
          -0.0278472900390625,
          -0.306640625,
          0.6591796875,
          0.1671142578125,
          -0.05615234375,
          0.337646484375,
          -0.019866943359375,
          0.061614990234375,
          -1.041015625,
          0.55029296875,
          -0.290771484375,
          -0.374267578125,
          -0.050262451171875,
          -0.061920166015625,
          -0.24853515625,
          0.2174072265625,
          -0.06866455078125,
          -0.07110595703125,
          0.00362396240234375,
          0.00299835205078125,
          -0.544921875,
          0.62158203125,
          -0.2357177734375,
          0.035980224609375,
          -0.027435302734375,
          0.029541015625,
          -0.5361328125,
          0.62158203125,
          -0.2408447265625,
          0.0309906005859375,
          -0.0269622802734375,
          0.0235137939453125,
          -1.5625,
          -1.6923828125,
          0.61962890625,
          -0.96728515625,
          -0.06427001953125,
          0.08544921875,
          -0.59423828125,
          1.3125,
          -0.004055023193359375,
          -1.05078125,
          0.205810546875,
          -0.08306884765625,
          -2.1484375,
          -2.78125,
          0.61572265625,
          -1.1162109375,
          0.1304931640625,
          -0.121337890625,
          0.06500244140625,
          -0.203369140625,
          0.044891357421875,
          -0.041351318359375,
          -0.006542205810546875,
          -0.0017490386962890625,
          0.06573486328125,
          -0.203857421875,
          0.044830322265625,
          -0.041412353515625,
          -0.004802703857421875,
          -0.0023174285888671875,
          2.669921875,
          1.4296875,
          0.3984375,
          0.11798095703125,
          -0.30859375,
          -0.12237548828125,
          -0.33837890625,
          0.014495849609375,
          -0.0836181640625,
          -0.07037353515625,
          -0.024261474609375,
          0.0251922607421875,
          0.1019287109375,
          1.107421875,
          -0.8916015625,
          -0.1212158203125,
          0.05218505859375,
          0.1051025390625,
          -0.587890625,
          0.91357421875,
          -0.22900390625,
          -0.113525390625,
          -0.0211334228515625,
          -0.0088043212890625,
          -0.583984375,
          0.91259765625,
          -0.228271484375,
          -0.1112060546875,
          -0.0218505859375,
          -0.00864410400390625,
          -0.444091796875,
          -1.375,
          0.64697265625,
          0.2161865234375,
          -0.048858642578125,
          -0.0208740234375,
          -0.150390625,
          3.697265625,
          -0.279296875,
          0.3427734375,
          -0.112060546875,
          0.061676025390625,
          1.7978515625,
          -0.6015625,
          0.425537109375,
          0.43359375,
          0.073974609375,
          -0.022918701171875,
          0.2392578125,
          -0.314208984375,
          0.083251953125,
          0.007694244384765625,
          0.00408935546875,
          -0.002185821533203125,
          0.243408203125,
          -0.315673828125,
          0.0845947265625,
          0.00855255126953125,
          0.004199981689453125,
          -0.003299713134765625,
          1.29296875,
          0.40673828125,
          -1.6474609375,
          -0.11883544921875,
          -0.1470947265625,
          0.11358642578125,
          -0.44677734375,
          0.221435546875,
          -0.0447998046875,
          -0.1695556640625,
          -0.014678955078125,
          -0.0185089111328125,
          0.157958984375,
          -0.34375,
          0.90087890625,
          0.064697265625,
          -0.08294677734375,
          -0.03387451171875,
          0.0728759765625,
          -0.921875,
          0.1524658203125,
          -0.008453369140625,
          0.0196380615234375,
          -0.012298583984375,
          0.07244873046875,
          -0.92138671875,
          0.153076171875,
          -0.006649017333984375,
          0.020477294921875,
          -0.01123046875,
          2.36328125,
          0.93603515625,
          -1.228515625,
          -0.324462890625,
          0.3662109375,
          0.006450653076171875,
          -0.28271484375,
          1.1865234375,
          -0.5107421875,
          0.0977783203125,
          -0.00286865234375,
          -0.00231170654296875,
          0.30224609375,
          -0.364013671875,
          0.1234130859375,
          0.2269287109375,
          -0.07806396484375,
          -0.0017652511596679688,
          -0.010833740234375,
          -0.9775390625,
          0.161865234375,
          -0.0728759765625,
          0.0028629302978515625,
          0.0014314651489257812,
          -0.00939178466796875,
          -0.97802734375,
          0.1622314453125,
          -0.07330322265625,
          0.00295257568359375,
          0.0009474754333496094,
          1.03515625,
          -1.15625,
          -1.7646484375,
          0.499755859375,
          -0.305908203125,
          0.2200927734375,
          -1.1171875,
          1.796875,
          -0.4248046875,
          -0.1517333984375,
          -0.0321044921875,
          0.0017681121826171875,
          -2.693359375,
          -2.86328125,
          1.7900390625,
          0.16015625,
          0.1636962890625,
          0.150146484375,
          0.9111328125,
          -0.484130859375,
          0.343994140625,
          0.1292724609375,
          0.0386962890625,
          -0.0292510986328125,
          0.90869140625,
          -0.48486328125,
          0.3408203125,
          0.1260986328125,
          0.03717041015625,
          -0.032012939453125,
          4.8984375,
          4.25390625,
          -2.32421875,
          3.4375,
          -0.406005859375,
          0.505859375,
          -0.56640625,
          -0.1048583984375,
          -0.1094970703125,
          -0.07818603515625,
          0.028472900390625,
          0.062744140625,
          -0.353515625,
          3.1171875,
          -0.474609375,
          0.7470703125,
          -0.1309814453125,
          -0.067626953125,
          1.68359375,
          -0.2010498046875,
          0.344482421875,
          0.2431640625,
          0.03240966796875,
          -0.01070404052734375,
          1.6953125,
          -0.2020263671875,
          0.345458984375,
          0.249755859375,
          0.033905029296875,
          -0.0093841552734375,
          3.08203125,
          1.9130859375,
          -2.78125,
          0.09979248046875,
          -0.6689453125,
          0.3759765625,
          -1.119140625,
          -1.484375,
          0.239501953125,
          -0.346435546875,
          0.00945281982421875,
          -0.02911376953125,
          -0.34423828125,
          7.50390625,
          0.01079559326171875,
          1.1875,
          0.321044921875,
          0.2978515625,
          1.22265625,
          -2.8125,
          0.396484375,
          0.436279296875,
          -0.007049560546875,
          0.04290771484375,
          1.2216796875,
          -2.8125,
          0.399169921875,
          0.43603515625,
          -0.00910186767578125,
          0.04541015625,
          1.240234375,
          4.703125,
          -0.9287109375,
          0.4931640625,
          0.039581298828125,
          0.02105712890625,
          0.85107421875,
          5.21484375,
          -0.9228515625,
          0.323486328125,
          -0.08062744140625,
          0.040985107421875,
          0.09967041015625,
          -0.258056640625,
          0.19482421875,
          -0.041839599609375,
          -0.01151275634765625,
          -0.00614166259765625,
          0.093017578125,
          0.432373046875,
          -0.07708740234375,
          0.0819091796875,
          0.003978729248046875,
          0.01094818115234375,
          0.0955810546875,
          0.430419921875,
          -0.08184814453125,
          0.08135986328125,
          -0.0002562999725341797,
          0.003200531005859375,
          -0.08428955078125,
          -0.54248046875,
          0.278564453125,
          1.7705078125,
          0.1044921875,
          0.00513458251953125,
          0.52978515625,
          -0.18505859375,
          0.0535888671875,
          0.037506103515625,
          0.0614013671875,
          0.0389404296875,
          2.197265625,
          1.125,
          -0.7119140625,
          1.7197265625,
          0.0477294921875,
          0.087890625,
          -0.51025390625,
          0.10577392578125,
          -0.08099365234375,
          0.02838134765625,
          0.0161590576171875,
          0.0230865478515625,
          -0.51123046875,
          0.10595703125,
          -0.07989501953125,
          0.028228759765625,
          0.0185699462890625,
          0.0232696533203125,
          -52.21875,
          -2.060546875,
          4.58203125,
          0.93408203125,
          11.0625,
          0.73388671875,
          1.3076171875,
          1.6611328125,
          -0.23486328125,
          0.36083984375,
          -0.00006467103958129883,
          0.0016393661499023438,
          1.388671875,
          0.377685546875,
          1.208984375,
          -0.3447265625,
          -0.50732421875,
          0.01209259033203125,
          1.4189453125,
          0.994140625,
          0.052093505859375,
          0.3994140625,
          0.036773681640625,
          0.023101806640625,
          1.419921875,
          0.99365234375,
          0.052032470703125,
          0.398681640625,
          0.036590576171875,
          0.0201873779296875,
          0.019744873046875,
          0.42333984375,
          -0.08563232421875,
          0.06341552734375,
          -0.03802490234375,
          0.016021728515625,
          0.4501953125,
          -1.103515625,
          0.302978515625,
          -0.31103515625,
          -0.0244140625,
          -0.01259613037109375,
          -0.477294921875,
          0.1055908203125,
          -0.156494140625,
          -0.1181640625,
          -0.00933074951171875,
          0.00887298583984375,
          -0.06427001953125,
          0.15966796875,
          -0.1170654296875,
          -0.03173828125,
          0.1334228515625,
          -0.1334228515625,
          -0.07012939453125,
          0.1630859375,
          -0.11383056640625,
          -0.034576416015625,
          0.1280517578125,
          -0.131103515625,
          -421.25,
          -0.384521484375,
          52.125,
          1.1005859375,
          97.4375,
          0.95654296875,
          0.40087890625,
          -0.2469482421875,
          0.27294921875,
          0.211669921875,
          -0.23974609375,
          0.279052734375,
          0.62109375,
          -0.435302734375,
          0.260986328125,
          0.08709716796875,
          0.006000518798828125,
          -0.0377197265625
        ]
      },
      {
        "bias": [
          0.0021686553955078125,
          -0.364990234375,
          -3.826171875,
          2.5703125,
          -2.13671875,
          -7.76171875,
          0.250732421875,
          -0.91748046875,
          -0.9072265625,
          -0.85205078125,
          -0.1839599609375,
          -7.59375,
          2.88671875,
          -6.453125,
          0.27783203125,
          0.27734375,
          1.09375,
          -0.14013671875,
          0.032318115234375,
          -0.73388671875,
          1.259765625,
          0.95947265625,
          0.0031948089599609375,
          0.11358642578125,
          -0.359130859375,
          -0.78564453125,
          -3.759765625,
          -0.7978515625,
          -1.076171875,
          -0.5927734375,
          -2.337890625,
          -1.8896484375
        ],
        "in_features": 32,
        "out_features": 32,
        "type": "linear",
        "weights": [
          -0.2357177734375,
          1.7509765625,
          0.46484375,
          0.275390625,
          0.447265625,
          0.471435546875,
          0.27685546875,
          -0.25439453125,
          -0.285888671875,
          0.205322265625,
          1.3603515625,
          -0.58154296875,
          -0.0268707275390625,
          -0.10040283203125,
          0.007541656494140625,
          0.1900634765625,
          -0.07635498046875,
          0.8173828125,
          -0.10235595703125,
          0.1195068359375,
          0.3017578125,
          -0.2271728515625,
          0.0936279296875,
          0.457275390625,
          0.227783203125,
          0.06549072265625,
          0.2047119140625,
          0.2332763671875,
          0.358642578125,
          0.055908203125,
          -0.3408203125,
          0.00995635986328125,
          -3.888671875,
          0.1575927734375,
          -0.237548828125,
          -0.3203125,
          0.336181640625,
          -0.069091796875,
          -16.421875,
          -0.1695556640625,
          0.1959228515625,
          0.76611328125,
          1.0625,
          1.07421875,
          -5.08984375,
          0.074462890625,
          -0.67236328125,
          -0.363525390625,
          0.257568359375,
          -0.32275390625,
          0.0731201171875,
          -0.27783203125,
          0.63818359375,
          0.1409912109375,
          -0.388671875,
          -0.53759765625,
          0.042449951171875,
          -0.2381591796875,
          -0.05810546875,
          -0.042083740234375,
          -0.1202392578125,
          -0.06976318359375,
          0.251953125,
          0.04193115234375,
          -3.57421875,
          -0.045654296875,
          2.9296875,
          0.168212890625,
          -1.3994140625,
          -0.031585693359375,
          -7.36328125,
          1.0322265625,
          0.68994140625,
          0.6171875,
          -0.767578125,
          -3.36328125,
          -4.9765625,
          0.045806884765625,
          2.951171875,
          -5.1015625,
          -20.453125,
          0.1341552734375,
          0.0229949951171875,
          -2.978515625,
          -0.35546875,
          0.07666015625,
          0.9287109375,
          -7.078125,
          -4.2109375,
          -5.9296875,
          0.96533203125,
          -1.4697265625,
          1.0166015625,
          2.95703125,
          0.041229248046875,
          0.0312347412109375,
          0.2081298828125,
          0.08319091796875,
          0.5693359375,
          0.340087890625,
          -0.040863037109375,
          -0.102783203125,
          -0.25830078125,
          0.85595703125,
          -0.290771484375,
          -0.2103271484375,
          -0.11663818359375,
          -1.1962890625,
          -0.266357421875,
          -0.020660400390625,
          1.0869140625,
          -0.0404052734375,
          0.11322021484375,
          0.18310546875,
          -0.0191192626953125,
          -0.3134765625,
          -0.9140625,
          -0.0173797607421875,
          -1.0703125,
          -0.1844482421875,
          -0.418212890625,
          -0.32421875,
          0.0382080078125,
          -0.03314208984375,
          0.2080078125,
          -0.4482421875,
          0.029937744140625,
          0.036224365234375,
          -3.4375,
          -7.359375,
          1.2763671875,
          0.59130859375,
          0.3447265625,
          0.15673828125,
          -0.6123046875,
          0.75927734375,
          0.340087890625,
          0.6962890625,
          -0.44189453125,
          -1.177734375,
          -1.52734375,
          0.2359619140625,
          -0.45263671875,
          0.1484375,
          -8.984375,
          0.0816650390625,
          0.18994140625,
          -1.2041015625,
          -1.8837890625,
          -0.34423828125,
          1.2783203125,
          -2.216796875,
          -1.0185546875,
          -1.26171875,
          0.2396240234375,
          -1.42578125,
          0.6298828125,
          0.97119140625,
          0.2325439453125,
          -0.056121826171875,
          -11.3203125,
          -0.10205078125,
          0.04962158203125,
          -2.025390625,
          0.1417236328125,
          -0.10107421875,
          -30.453125,
          1.388671875,
          0.034912109375,
          -0.5400390625,
          -1.314453125,
          -1.986328125,
          -4.5390625,
          -0.365478515625,
          0.398193359375,
          1.255859375,
          -0.205810546875,
          -0.0199737548828125,
          -0.496826171875,
          -0.005916595458984375,
          -30.265625,
          0.5634765625,
          0.0693359375,
          0.9248046875,
          -0.481689453125,
          0.455810546875,
          -0.026824951171875,
          0.42041015625,
          -0.154052734375,
          -2.03125,
          -0.52001953125,
          6.48046875,
          0.200439453125,
          -1.5615234375,
          0.467041015625,
          1.0,
          -0.099853515625,
          -0.07598876953125,
          -0.6591796875,
          -0.161376953125,
          -0.0261077880859375,
          -0.358154296875,
          -7.65234375,
          -0.033050537109375,
          -0.332763671875,
          0.01010894775390625,
          0.93310546875,
          -0.2396240234375,
          -0.2325439453125,
          -0.64697265625,
          0.009063720703125,
          0.10076904296875,
          0.58837890625,
          0.09033203125,
          -1.2568359375,
          0.2763671875,
          0.79150390625,
          -8.2109375,
          -4.9140625,
          -0.335693359375,
          -0.6162109375,
          -0.0899658203125,
          -0.0201416015625,
          -0.0239105224609375,
          -0.50830078125,
          -0.97998046875,
          0.2021484375,
          0.01515960693359375,
          -0.0390625,
          -0.1544189453125,
          -20.5,
          -0.3134765625,
          -0.0179443359375,
          -0.1898193359375,
          -0.1649169921875,
          0.340087890625,
          0.281982421875,
          -0.11676025390625,
          0.270263671875,
          -0.1826171875,
          -0.48193359375,
          0.9951171875,
          -0.1129150390625,
          0.486572265625,
          -1.0009765625,
          -0.04193115234375,
          -0.7744140625,
          -0.52734375,
          0.81591796875,
          3.404296875,
          -0.2119140625,
          -0.802734375,
          -0.359130859375,
          0.0948486328125,
          0.06658935546875,
          -0.0135955810546875,
          0.1683349609375,
          -4.3984375,
          0.447265625,
          -0.8828125,
          -1.2119140625,
          0.111328125,
          -0.47900390625,
          0.105224609375,
          -0.310546875,
          -0.2890625,
          4.09765625,
          0.466796875,
          -0.21875,
          -0.1351318359375,
          0.25341796875,
          0.44091796875,
          -0.261962890625,
          -2.5234375,
          -0.13525390625,
          0.270263671875,
          2.66015625,
          -0.1820068359375,
          0.70458984375,
          0.5,
          -0.90771484375,
          0.96630859375,
          1.009765625,
          -0.150390625,
          -1.7587890625,
          -0.251708984375,
          -0.2509765625,
          0.0892333984375,
          -0.390869140625,
          -0.0219879150390625,
          0.007598876953125,
          0.1639404296875,
          0.290771484375,
          -0.0789794921875,
          -0.07049560546875,
          0.063232421875,
          0.06683349609375,
          0.22265625,
          0.212646484375,
          0.11322021484375,
          0.19384765625,
          -0.06597900390625,
          -0.2325439453125,
          0.133544921875,
          -0.150146484375,
          0.033172607421875,
          -0.06488037109375,
          -0.046966552734375,
          -0.09661865234375,
          1.1943359375,
          -0.137939453125,
          0.397705078125,
          -0.0111083984375,
          -0.07696533203125,
          -0.049285888671875,
          -0.62548828125,
          0.09613037109375,
          -0.0947265625,
          -0.3603515625,
          0.00991058349609375,
          -0.56103515625,
          -1.9306640625,
          -0.65087890625,
          0.01432037353515625,
          0.94921875,
          -0.01345062255859375,
          -2.283203125,
          0.80322265625,
          0.478515625,
          -0.1573486328125,
          1.7421875,
          0.00885009765625,
          -0.0030117034912109375,
          -0.01019287109375,
          -1.244140625,
          -0.2005615234375,
          0.1654052734375,
          -0.74072265625,
          -0.0135955810546875,
          -0.4013671875,
          1.1005859375,
          -0.0212249755859375,
          -0.53173828125,
          -0.496826171875,
          0.56201171875,
          1.1953125,
          -0.346923828125,
          0.82421875,
          -0.90478515625,
          -0.17041015625,
          0.1348876953125,
          -0.0018587112426757812,
          -0.29931640625,
          0.11309814453125,
          -0.45556640625,
          0.21142578125,
          -0.00969696044921875,
          0.13623046875,
          0.486572265625,
          0.1171875,
          -0.0239410400390625,
          0.29638671875,
          0.1571044921875,
          -0.19189453125,
          -0.77685546875,
          1.4560546875,
          0.77685546875,
          -0.1402587890625,
          0.157958984375,
          0.12548828125,
          1.4677734375,
          0.388671875,
          0.541015625,
          0.7978515625,
          0.301025390625,
          0.541015625,
          -0.1611328125,
          0.34765625,
          -0.1168212890625,
          -0.5673828125,
          -0.37744140625,
          -0.01113128662109375,
          -0.0095062255859375,
          0.01123809814453125,
          -5.3359375,
          2.78515625,
          0.08270263671875,
          0.0430908203125,
          -0.5625,
          -0.265625,
          -3.02734375,
          -0.6708984375,
          -0.14404296875,
          -0.342041015625,
          -2.322265625,
          -0.8046875,
          -3.66015625,
          0.1805419921875,
          1.447265625,
          -0.127685546875,
          0.01314544677734375,
          -0.572265625,
          0.1800537109375,
          0.20751953125,
          -1.6904296875,
          0.0548095703125,
          -1.13671875,
          -0.94580078125,
          -0.771484375,
          -0.861328125,
          -0.08135986328125,
          1.5087890625,
          -0.06744384765625,
          0.1549072265625,
          0.3603515625,
          0.03271484375,
          4.3359375,
          0.7255859375,
          0.7587890625,
          -0.91455078125,
          -0.87158203125,
          -2.759765625,
          0.50048828125,
          -0.0301666259765625,
          1.3291015625,
          2.615234375,
          -0.888671875,
          1.3125,
          -1.23828125,
          0.791015625,
          1.4521484375,
          -0.8271484375,
          0.20703125,
          -0.3974609375,
          0.79833984375,
          -1.3623046875,
          -2.765625,
          0.36328125,
          1.3154296875,
          -1.73828125,
          1.0166015625,
          0.12335205078125,
          0.0202789306640625,
          0.11395263671875,
          0.56591796875,
          -0.11187744140625,
          0.29638671875,
          -2.916015625,
          0.52197265625,
          -1.8984375,
          -0.0821533203125,
          -0.96875,
          -0.104736328125,
          0.281005859375,
          -0.82373046875,
          -1.6015625,
          0.063232421875,
          0.28369140625,
          0.8203125,
          -0.282470703125,
          -1.3056640625,
          0.134033203125,
          0.042205810546875,
          -0.84375,
          0.34619140625,
          -0.284912109375,
          0.1317138671875,
          0.08953857421875,
          0.34765625,
          -0.351806640625,
          -0.363525390625,
          0.176025390625,
          -0.10211181640625,
          -0.184814453125,
          0.125,
          -0.826171875,
          0.081787109375,
          2.48828125,
          0.2239990234375,
          -1.421875,
          -0.0230712890625,
          -0.023681640625,
          -1.7919921875,
          0.0007152557373046875,
          0.09527587890625,
          -0.041473388671875,
          0.224609375,
          0.4921875,
          -0.0743408203125,
          0.1417236328125,
          0.0084991455078125,
          -0.8203125,
          0.339599609375,
          -0.070068359375,
          0.488525390625,
          -0.0304107666015625,
          0.0443115234375,
          -0.01036834716796875,
          -0.073486328125,
          -0.029388427734375,
          0.11627197265625,
          -0.311767578125,
          0.0034465789794921875,
          0.04425048828125,
          -0.01294708251953125,
          0.049774169921875,
          -0.00873565673828125,
          -0.70263671875,
          -0.39013671875,
          -0.254638671875,
          0.1612548828125,
          -0.0265350341796875,
          1.0732421875,
          -1.0947265625,
          -0.451171875,
          -0.1903076171875,
          -1.6435546875,
          -1.4658203125,
          -0.49462890625,
          0.347412109375,
          0.2318115234375,
          -0.321044921875,
          1.41015625,
          0.1279296875,
          1.111328125,
          0.1904296875,
          0.5009765625,
          0.9404296875,
          0.0255889892578125,
          -0.4892578125,
          0.1929931640625,
          0.59228515625,
          0.06634521484375,
          -0.060089111328125,
          -0.22265625,
          0.2164306640625,
          -0.26708984375,
          -0.78857421875,
          -0.148681640625,
          0.04339599609375,
          -0.06451416015625,
          -0.1826171875,
          0.491455078125,
          -0.0006222724914550781,
          -0.032470703125,
          -2.2265625,
          -0.1929931640625,
          -1.255859375,
          0.708984375,
          0.2119140625,
          0.180419921875,
          -0.423583984375,
          -0.39404296875,
          -0.1497802734375,
          -0.60302734375,
          -0.497314453125,
          -0.1551513671875,
          -0.059173583984375,
          -1.0244140625,
          -0.0294189453125,
          -0.259521484375,
          -0.6943359375,
          -0.060546875,
          -0.45263671875,
          0.37548828125,
          -0.317626953125,
          -0.50439453125,
          0.2083740234375,
          0.2049560546875,
          0.34814453125,
          2.005859375,
          0.23388671875,
          1.115234375,
          0.259033203125,
          0.02655029296875,
          -0.0860595703125,
          0.03436279296875,
          0.0121612548828125,
          -0.03857421875,
          0.005615234375,
          -0.059326171875,
          -0.0209197998046875,
          -0.132568359375,
          0.01898193359375,
          -0.0791015625,
          -0.0221099853515625,
          -0.01299285888671875,
          -0.124755859375,
          -0.09613037109375,
          -0.2176513671875,
          0.134521484375,
          -0.00826263427734375,
          0.21484375,
          -0.005283355712890625,
          -0.2169189453125,
          0.050750732421875,
          -0.0252227783203125,
          0.11767578125,
          0.06512451171875,
          0.0022945404052734375,
          0.002414703369140625,
          -0.044830322265625,
          -0.0003821849822998047,
          0.327392578125,
          -0.12646484375,
          0.0203399658203125,
          1.236328125,
          -0.014556884765625,
          -0.0361328125,
          -0.36669921875,
          0.09033203125,
          0.1297607421875,
          -0.07110595703125,
          -0.28125,
          -0.1103515625,
          -0.27734375,
          -0.256591796875,
          0.2109375,
          -0.10107421875,
          -0.416259765625,
          0.1395263671875,
          0.273193359375,
          -0.2291259765625,
          -0.20703125,
          -0.06982421875,
          0.032623291015625,
          0.08306884765625,
          0.27587890625,
          -0.49658203125,
          -0.31396484375,
          0.260498046875,
          -0.7333984375,
          -0.261962890625,
          -0.5009765625,
          -0.587890625,
          -0.0775146484375,
          -0.301025390625,
          -0.2880859375,
          -0.62939453125,
          -0.00962066650390625,
          0.2283935546875,
          -0.10845947265625,
          -0.01316070556640625,
          -0.40673828125,
          -0.07989501953125,
          0.03955078125,
          -0.25244140625,
          -0.09332275390625,
          -0.0016393661499023438,
          -0.1400146484375,
          -0.025360107421875,
          -0.229736328125,
          -0.2568359375,
          -0.0264739990234375,
          -0.2255859375,
          0.117919921875,
          -0.137939453125,
          -0.0238494873046875,
          -0.0248870849609375,
          -0.11669921875,
          -0.0545654296875,
          0.112060546875,
          0.1298828125,
          -0.08258056640625,
          -0.03131103515625,
          -0.0556640625,
          -0.0048980712890625,
          0.1685791015625,
          -0.137451171875,
          -0.0677490234375,
          -0.10748291015625,
          0.0302581787109375,
          -0.25390625,
          0.270263671875,
          0.058258056640625,
          0.08673095703125,
          -0.034149169921875,
          -0.307373046875,
          -0.499755859375,
          0.11932373046875,
          -0.380859375,
          0.0819091796875,
          -6.265625,
          -0.144775390625,
          -0.44580078125,
          -0.1876220703125,
          0.26123046875,
          -0.248046875,
          -0.144775390625,
          -0.1512451171875,
          -0.1871337890625,
          -0.36328125,
          0.39892578125,
          0.312744140625,
          -1.333984375,
          -0.056671142578125,
          -0.3837890625,
          0.426513671875,
          -0.39794921875,
          -0.465576171875,
          -0.962890625,
          -0.02642822265625,
          -0.356201171875,
          0.006504058837890625,
          0.2452392578125,
          -0.43896484375,
          -0.92431640625,
          -5.25390625,
          0.0222625732421875,
          -0.250732421875,
          0.45068359375,
          0.322021484375,
          -0.145751953125,
          -0.4267578125,
          1.1083984375,
          -0.42236328125,
          -0.257568359375,
          -0.55029296875,
          -0.32568359375,
          -0.335693359375,
          -0.404541015625,
          1.4462890625,
          -0.5537109375,
          -4.33984375,
          -2.658203125,
          0.50732421875,
          -1.5009765625,
          -0.53515625,
          -0.4599609375,
          -0.31787109375,
          -0.216796875,
          -0.2249755859375,
          -4.65625,
          0.53125,
          -0.30126953125,
          0.22216796875,
          0.151123046875,
          -0.168212890625,
          -1.1767578125,
          -3.24609375,
          -1.9296875,
          -0.2685546875,
          1.01953125,
          -0.26416015625,
          -0.053192138671875,
          0.205810546875,
          -2.251953125,
          -0.300537109375,
          0.298583984375,
          0.05596923828125,
          -1.4697265625,
          0.417724609375,
          -0.1343994140625,
          1.6220703125,
          0.05731201171875,
          0.1727294921875,
          -2.560546875,
          0.05975341796875,
          0.0142059326171875,
          -0.2218017578125,
          -0.60009765625,
          0.2607421875,
          0.26513671875,
          0.203857421875,
          -0.53125,
          -0.1893310546875,
          -0.007465362548828125,
          -0.09716796875,
          0.1239013671875,
          0.0276947021484375,
          -0.105224609375,
          0.08367919921875,
          0.01509857177734375,
          0.08306884765625,
          -0.1534423828125,
          0.040313720703125,
          0.042633056640625,
          0.033416748046875,
          0.0511474609375,
          -0.056304931640625,
          -0.23193359375,
          1.244140625,
          0.0955810546875,
          -0.01219940185546875,
          -0.48046875,
          0.048492431640625,
          1.2451171875,
          0.03515625,
          -0.113525390625,
          0.07330322265625,
          -0.17724609375,
          -0.061767578125,
          -0.0290069580078125,
          -0.07666015625,
          -0.005023956298828125,
          0.7021484375,
          -0.0285186767578125,
          0.0012607574462890625,
          -0.0919189453125,
          -0.051025390625,
          -12.1953125,
          -0.58740234375,
          -0.080322265625,
          0.58544921875,
          -0.040435791015625,
          -0.01302337646484375,
          -45.59375,
          -0.427490234375,
          0.0789794921875,
          0.69580078125,
          0.73681640625,
          0.2249755859375,
          -0.6513671875,
          0.128173828125,
          -0.019744873046875,
          0.153564453125,
          0.390380859375,
          -0.33984375,
          0.133544921875,
          -0.1861572265625,
          0.83935546875,
          -0.07916259765625,
          0.2232666015625,
          -0.900390625,
          0.13134765625,
          0.65380859375,
          -0.0968017578125,
          0.21826171875,
          -0.29345703125,
          0.33203125,
          0.3583984375,
          1.8896484375,
          2.123046875,
          0.09857177734375,
          -4.45703125,
          0.52880859375,
          -2.353515625,
          -0.10223388671875,
          -2.87109375,
          0.6796875,
          -0.8408203125,
          -5.546875,
          1.1806640625,
          1.251953125,
          -2.01953125,
          -0.65234375,
          -2.33203125,
          -4.49609375,
          0.58056640625,
          -0.73828125,
          -0.64892578125,
          -2.8359375,
          -1.0283203125,
          1.578125,
          0.356201171875,
          -4.1484375,
          -0.193603515625,
          0.06365966796875,
          -1.353515625,
          -0.82080078125,
          -2.505859375,
          -0.06634521484375,
          -2.103515625,
          -0.27392578125,
          -0.106201171875,
          -0.490234375,
          0.06951904296875,
          -0.1064453125,
          0.43212890625,
          -0.1607666015625,
          0.1226806640625,
          -0.429443359375,
          0.0438232421875,
          -0.119140625,
          -1.2861328125,
          0.0853271484375,
          0.109619140625,
          0.07318115234375,
          -0.4580078125,
          -0.166259765625,
          0.279541015625,
          1.345703125,
          0.07257080078125,
          0.153076171875,
          -1.35546875,
          -0.059234619140625,
          -0.196533203125,
          -0.50244140625,
          0.52978515625,
          -0.02685546875,
          -0.14208984375,
          0.47119140625,
          -0.96875,
          0.15966796875,
          0.165283203125,
          -0.039459228515625,
          0.324462890625,
          -0.01947021484375,
          0.249267578125,
          -0.2919921875,
          -0.00855255126953125,
          1.4130859375,
          -5.18359375,
          -0.17041015625,
          -12.1875,
          -0.275146484375,
          0.005855560302734375,
          -0.30517578125,
          -0.4541015625,
          0.2900390625,
          -2.02734375,
          -1.2516975402832031e-6,
          -0.304931640625,
          0.059234619140625,
          0.2919921875,
          -0.4345703125,
          -0.34130859375,
          0.154052734375,
          0.055877685546875,
          -1.845703125,
          -0.5751953125,
          -0.2308349609375,
          0.043853759765625,
          0.501953125,
          -0.007190704345703125,
          0.1776123046875,
          -0.95458984375,
          -0.031646728515625,
          0.75146484375,
          0.1514892578125,
          -0.08465576171875,
          -0.0394287109375,
          -0.48388671875,
          -0.0164031982421875,
          0.06915283203125,
          -0.14501953125,
          0.01430511474609375,
          -0.65087890625,
          -0.395263671875,
          0.2474365234375,
          -0.282958984375,
          0.1044921875,
          0.171875,
          -0.09295654296875,
          0.121337890625,
          -0.051727294921875,
          0.10272216796875,
          0.238037109375,
          0.2276611328125,
          0.2401123046875,
          0.44677734375,
          -0.300537109375,
          0.1109619140625,
          0.202880859375,
          0.0716552734375,
          1.240234375,
          0.221923828125,
          0.0185546875,
          -0.317138671875,
          0.0224456787109375,
          0.2763671875,
          0.049713134765625,
          0.544921875,
          -0.09722900390625,
          0.22314453125,
          0.09649658203125,
          0.56005859375,
          -0.1036376953125,
          -0.17041015625,
          -0.95703125,
          0.314697265625,
          0.513671875,
          -0.07275390625,
          -0.3408203125,
          0.99072265625,
          -7.48828125,
          1.1240234375,
          -0.0225677490234375,
          -0.34130859375,
          -0.04571533203125,
          0.15234375,
          -0.74169921875,
          -0.1829833984375,
          0.2181396484375,
          0.0479736328125,
          0.07196044921875,
          -0.185546875,
          -0.52685546875,
          -0.318359375,
          -0.05255126953125,
          0.62939453125,
          -0.008270263671875,
          -8.3125,
          0.264404296875,
          -0.273193359375,
          0.1630859375,
          -0.2091064453125,
          -0.053802490234375,
          -3.330078125,
          0.1724853515625,
          -0.01788330078125,
          -0.0367431640625,
          -0.057403564453125,
          0.92822265625,
          -9.7734375,
          -0.268798828125,
          -0.3359375,
          0.26708984375,
          -0.46630859375,
          0.3603515625,
          -0.275146484375,
          -0.06243896484375,
          -3.40625,
          0.296630859375,
          -0.3515625,
          -0.07196044921875,
          0.361328125,
          0.264892578125,
          -0.1356201171875,
          0.472412109375,
          -0.09637451171875,
          0.67431640625,
          -0.30078125,
          1.1748046875
        ]
      },
      {
        "bias": [
          1.427734375,
          -0.91455078125,
          -2.234375,
          -0.22265625,
          -0.295166015625,
          -10.8359375,
          3.08984375,
          0.12347412109375,
          -2.087890625,
          -0.266845703125,
          1.666015625,
          -0.1044921875,
          -4.39453125,
          -8.28125,
          -0.013458251953125,
          -1.732421875,
          -0.44140625,
          2.357421875,
          0.171630859375,
          -2.08984375,
          -0.58251953125,
          -0.7998046875,
          -0.55322265625,
          0.62255859375,
          -0.054443359375,
          -2.458984375,
          0.28125,
          -2.234375,
          -0.58642578125,
          -0.493896484375,
          -0.052703857421875,
          0.1885986328125
        ],
        "in_features": 32,
        "out_features": 32,
        "type": "linear",
        "weights": [
          -0.26611328125,
          -1.134765625,
          -3.685546875,
          -0.389892578125,
          -2.681640625,
          0.525390625,
          -0.03460693359375,
          0.006256103515625,
          -0.051849365234375,
          0.4287109375,
          -0.055206298828125,
          0.2164306640625,
          0.0008115768432617188,
          -0.272705078125,
          -0.32421875,
          0.412841796875,
          0.09832763671875,
          -0.134033203125,
          -0.394287109375,
          -0.397705078125,
          -0.338134765625,
          0.356689453125,
          0.01462554931640625,
          -0.02252197265625,
          -0.302490234375,
          0.0276641845703125,
          -0.53515625,
          0.1319580078125,
          0.0301055908203125,
          -0.0809326171875,
          -12.8046875,
          -1.107421875,
          -2.294921875,
          -2.1640625,
          -0.54296875,
          -0.5703125,
          -0.9462890625,
          -1.0146484375,
          -0.77294921875,
          0.97265625,
          -2.361328125,
          -2.10546875,
          1.1171875,
          0.439208984375,
          -0.168701171875,
          -0.375,
          -2.94921875,
          -0.9599609375,
          1.970703125,
          -0.23681640625,
          -4.49609375,
          -3.306640625,
          -12.359375,
          -1.28125,
          -0.4453125,
          -4.48046875,
          1.138671875,
          -1.287109375,
          1.515625,
          -0.74462890625,
          -0.94677734375,
          0.73486328125,
          -3.45703125,
          -1.9404296875,
          -0.693359375,
          -0.7265625,
          0.1796875,
          -0.30810546875,
          0.2060546875,
          -0.360107421875,
          -1.025390625,
          0.5458984375,
          0.1761474609375,
          -0.06103515625,
          0.69189453125,
          -2.14453125,
          -1.0283203125,
          -2.423828125,
          -0.130615234375,
          -1.26171875,
          -1.58984375,
          -0.51708984375,
          -1.3818359375,
          2.328125,
          -2.466796875,
          1.0849609375,
          -2.654296875,
          -0.7021484375,
          -0.5068359375,
          -0.01263427734375,
          -2.62109375,
          -4.046875,
          0.63134765625,
          -1.5380859375,
          0.3076171875,
          -0.74560546875,
          -0.269775390625,
          -0.2100830078125,
          -0.28271484375,
          -0.2235107421875,
          -0.306396484375,
          -0.38623046875,
          -0.275146484375,
          -0.0924072265625,
          -0.249755859375,
          -0.35693359375,
          -0.2296142578125,
          -0.2958984375,
          -0.16650390625,
          0.052215576171875,
          -0.324951171875,
          -0.007709503173828125,
          -0.10260009765625,
          -0.275390625,
          -0.2303466796875,
          -0.251708984375,
          -0.1646728515625,
          -0.244384765625,
          -0.1416015625,
          -0.2216796875,
          -0.2301025390625,
          -0.320068359375,
          -0.127197265625,
          -0.1114501953125,
          -0.319580078125,
          -0.1585693359375,
          -0.12078857421875,
          -0.384521484375,
          -0.366455078125,
          -0.279052734375,
          -6.15234375,
          -0.23291015625,
          -0.837890625,
          0.2059326171875,
          0.0189971923828125,
          0.140625,
          0.1551513671875,
          -0.0836181640625,
          -0.12060546875,
          0.004619598388671875,
          -0.000392913818359375,
          -0.5966796875,
          -0.43408203125,
          -0.74609375,
          -0.10491943359375,
          -0.12469482421875,
          -0.541015625,
          0.94775390625,
          -0.251220703125,
          0.1588134765625,
          0.1798095703125,
          -0.440185546875,
          -0.399658203125,
          0.361572265625,
          -0.37353515625,
          -0.2052001953125,
          -0.400146484375,
          -0.487548828125,
          -0.1212158203125,
          -0.45263671875,
          0.2393798828125,
          -0.7060546875,
          -0.14990234375,
          1.076171875,
          0.11883544921875,
          -2.02734375,
          -1.427734375,
          0.8369140625,
          0.19921875,
          0.150146484375,
          0.1058349609375,
          2.044921875,
          -0.406005859375,
          -2.84375,
          0.05828857421875,
          4.6328125,
          -0.1053466796875,
          0.2076416015625,
          -0.168212890625,
          0.40380859375,
          -16.265625,
          -0.211181640625,
          -0.12744140625,
          1.4990234375,
          -0.80029296875,
          1.822265625,
          -0.410400390625,
          0.53076171875,
          -0.10491943359375,
          0.39111328125,
          -2.4375,
          0.1005859375,
          0.2293701171875,
          -1.9814453125,
          -0.336181640625,
          -0.52099609375,
          -0.81591796875,
          0.0400390625,
          -0.89453125,
          -0.74609375,
          0.143798828125,
          0.31787109375,
          0.5283203125,
          0.0999755859375,
          -0.373046875,
          0.2099609375,
          -0.0242462158203125,
          -41.1875,
          -14.2265625,
          0.26171875,
          0.173095703125,
          0.4208984375,
          -5.64453125,
          -0.441650390625,
          -19.4375,
          0.059783935546875,
          0.11395263671875,
          -0.488525390625,
          -0.2958984375,
          -3.205078125,
          -0.174072265625,
          -2.796875,
          -1.8271484375,
          0.78515625,
          -0.048858642578125,
          0.525390625,
          0.72119140625,
          0.007717132568359375,
          0.452392578125,
          0.09564208984375,
          -0.416748046875,
          -0.2022705078125,
          -0.0284576416015625,
          0.43505859375,
          0.3759765625,
          -0.01690673828125,
          0.458984375,
          0.09564208984375,
          -0.0257720947265625,
          -12.28125,
          0.02349853515625,
          -0.1468505859375,
          -0.0643310546875,
          0.298095703125,
          -0.58740234375,
          0.243896484375,
          -0.0467529296875,
          -0.09771728515625,
          0.0452880859375,
          -0.156982421875,
          0.0008044242858886719,
          0.23583984375,
          -0.1915283203125,
          -0.416259765625,
          -0.234619140625,
          0.2381591796875,
          0.09210205078125,
          -0.65380859375,
          2.474609375,
          0.226806640625,
          -2.767578125,
          -0.0174560546875,
          -4.39453125,
          0.053924560546875,
          -0.10394287109375,
          0.76171875,
          -0.5048828125,
          -0.54296875,
          -0.037445068359375,
          -0.0897216796875,
          -0.033935546875,
          -0.515625,
          -0.44873046875,
          0.22412109375,
          -1.3251953125,
          -0.1180419921875,
          -1.2060546875,
          -1.056640625,
          0.2235107421875,
          0.1624755859375,
          0.8681640625,
          -0.063232421875,
          2.37109375,
          0.355224609375,
          -0.2183837890625,
          0.0220794677734375,
          0.76953125,
          0.37744140625,
          -0.60546875,
          -0.69873046875,
          -1.01953125,
          -0.76025390625,
          -0.36328125,
          0.59765625,
          -0.1156005859375,
          -0.1937255859375,
          -0.1036376953125,
          -0.54052734375,
          -0.396728515625,
          -0.09747314453125,
          -0.275634765625,
          -0.00469207763671875,
          0.0648193359375,
          -0.318115234375,
          -1.65234375,
          -0.1142578125,
          -0.611328125,
          0.5390625,
          -1.1181640625,
          0.8193359375,
          -0.0604248046875,
          -1.1318359375,
          -0.23291015625,
          -0.73681640625,
          -0.283203125,
          0.08380126953125,
          -0.78662109375,
          -0.2476806640625,
          -0.701171875,
          -0.1849365234375,
          -0.2451171875,
          -0.99365234375,
          -0.58349609375,
          -0.2449951171875,
          -0.166259765625,
          0.0028629302978515625,
          -0.47705078125,
          -0.262939453125,
          -0.347900390625,
          0.1346435546875,
          0.42041015625,
          -0.016815185546875,
          -5.19140625,
          0.077392578125,
          0.0364990234375,
          -9.3359375,
          -3.689453125,
          0.179443359375,
          0.025238037109375,
          -0.46875,
          -1.7587890625,
          -0.27880859375,
          0.54248046875,
          -14.265625,
          0.11370849609375,
          -0.246826171875,
          -0.1710205078125,
          -0.58935546875,
          0.06298828125,
          -0.81884765625,
          -2.34375,
          0.43408203125,
          -0.003570556640625,
          -0.7548828125,
          -0.248779296875,
          0.1510009765625,
          -1.044921875,
          0.204345703125,
          -0.01113128662109375,
          -0.1260986328125,
          -0.0005993843078613281,
          -0.05828857421875,
          0.0307464599609375,
          -0.07586669921875,
          -0.416259765625,
          0.183349609375,
          0.0216522216796875,
          0.060760498046875,
          0.0625,
          -0.01462554931640625,
          0.07208251953125,
          -0.1568603515625,
          -0.02484130859375,
          -0.239501953125,
          0.0223846435546875,
          -0.02197265625,
          -0.0080108642578125,
          -1.3505859375,
          0.349853515625,
          0.03167724609375,
          -2.953125,
          -0.033111572265625,
          0.76123046875,
          -0.0198822021484375,
          -0.026519775390625,
          -0.27197265625,
          0.04766845703125,
          -0.2447509765625,
          -0.0560302734375,
          0.73046875,
          -0.113525390625,
          -0.2061767578125,
          0.055572509765625,
          0.091552734375,
          -0.2144775390625,
          0.96826171875,
          -0.183837890625,
          -0.20703125,
          -0.1343994140625,
          0.1505126953125,
          -0.28173828125,
          0.0556640625,
          -0.0634765625,
          0.364501953125,
          -0.01198577880859375,
          -0.1419677734375,
          -0.1732177734375,
          -0.09149169921875,
          0.07012939453125,
          -0.19677734375,
          -0.68994140625,
          0.3076171875,
          0.0977783203125,
          -0.33740234375,
          0.0061798095703125,
          -0.1043701171875,
          0.1259765625,
          -0.13134765625,
          0.01000213623046875,
          0.24462890625,
          -0.035308837890625,
          -0.953125,
          -0.405029296875,
          0.37060546875,
          1.1708984375,
          -0.1162109375,
          -0.1119384765625,
          0.460205078125,
          -0.232177734375,
          0.0281219482421875,
          2.955078125,
          -1.3330078125,
          0.00514984130859375,
          -0.1630859375,
          -0.0306243896484375,
          -0.6796875,
          0.65380859375,
          0.319580078125,
          0.60498046875,
          -8.7890625,
          -0.483642578125,
          0.84765625,
          -0.041717529296875,
          0.00988006591796875,
          -0.008453369140625,
          -0.020263671875,
          -4.0625,
          0.314697265625,
          0.008514404296875,
          0.0148162841796875,
          -0.281982421875,
          -0.005245208740234375,
          -0.0007257461547851562,
          -0.21044921875,
          -0.0400390625,
          -0.0032444000244140625,
          -0.000911712646484375,
          -0.06280517578125,
          0.050994873046875,
          -0.031768798828125,
          -0.001064300537109375,
          -0.13818359375,
          0.004817962646484375,
          0.306884765625,
          0.0033702850341796875,
          -0.0006623268127441406,
          -0.08770751953125,
          -0.1951904296875,
          0.1878662109375,
          0.00682830810546875,
          0.01113128662109375,
          -0.021697998046875,
          -0.0382080078125,
          -0.050537109375,
          -0.024200439453125,
          0.0213775634765625,
          0.037628173828125,
          -0.005908966064453125,
          -0.10888671875,
          -0.048828125,
          -0.215087890625,
          0.293701171875,
          -0.58349609375,
          0.401123046875,
          1.2578125,
          0.4853515625,
          0.3671875,
          0.002902984619140625,
          -0.123779296875,
          0.310302734375,
          -0.62548828125,
          0.06634521484375,
          -0.75439453125,
          1.126953125,
          -0.7314453125,
          -0.3037109375,
          -0.419189453125,
          0.046478271484375,
          -0.360107421875,
          0.262939453125,
          1.419921875,
          -0.658203125,
          -0.2166748046875,
          0.0982666015625,
          -0.027557373046875,
          0.0843505859375,
          1.041015625,
          -0.27392578125,
          0.10125732421875,
          -1.1875,
          -1.736328125,
          -0.306884765625,
          -0.72607421875,
          -11.8203125,
          -0.1864013671875,
          -0.85546875,
          -2.310546875,
          -0.67041015625,
          -1.126953125,
          0.1890869140625,
          -2.291015625,
          -0.63916015625,
          1.03515625,
          -1.8984375,
          -4.6171875,
          -0.10906982421875,
          -0.7080078125,
          0.8486328125,
          -0.71923828125,
          0.492919921875,
          -2.921875,
          -0.318603515625,
          -16.421875,
          0.273193359375,
          -2.404296875,
          -2.677734375,
          0.880859375,
          0.15625,
          0.70947265625,
          -0.434326171875,
          -1.802734375,
          -0.28173828125,
          -2.623046875,
          -10.046875,
          -1.3544921875,
          -6.0078125,
          -16.765625,
          -0.09136962890625,
          -0.01519012451171875,
          -9.2421875,
          -0.72607421875,
          -0.018646240234375,
          -0.387451171875,
          0.287109375,
          -3.3125,
          -0.58642578125,
          -0.456298828125,
          0.125732421875,
          -1.7294921875,
          -0.2001953125,
          -0.454345703125,
          -0.1644287109375,
          -0.33544921875,
          0.46044921875,
          -1.9296875,
          -2.53125,
          -0.63134765625,
          0.53125,
          -0.09124755859375,
          -3.37890625,
          0.1427001953125,
          0.58837890625,
          -0.14599609375,
          -0.578125,
          -0.352294921875,
          -3.185546875,
          0.47119140625,
          -0.356201171875,
          -0.6953125,
          -0.1348876953125,
          -0.0061492919921875,
          -0.10186767578125,
          0.12164306640625,
          0.1363525390625,
          0.07843017578125,
          -0.1187744140625,
          0.2091064453125,
          0.0276336669921875,
          -0.1585693359375,
          -0.0263519287109375,
          0.044158935546875,
          0.0107269287109375,
          0.11212158203125,
          0.0880126953125,
          0.0126495361328125,
          -0.28173828125,
          0.032318115234375,
          -0.10760498046875,
          0.08770751953125,
          0.1351318359375,
          -0.029083251953125,
          0.0830078125,
          -0.1563720703125,
          0.0921630859375,
          0.08648681640625,
          -0.052215576171875,
          0.0193634033203125,
          -0.11712646484375,
          -0.7626953125,
          0.99853515625,
          -1.26953125,
          0.66748046875,
          1.82421875,
          -0.027496337890625,
          0.4306640625,
          0.08099365234375,
          -0.1270751953125,
          0.058441162109375,
          -0.6572265625,
          -0.1041259765625,
          -0.697265625,
          -0.74072265625,
          -0.0091705322265625,
          -4.7734375,
          0.259033203125,
          -0.060455322265625,
          -0.34033203125,
          -0.607421875,
          1.4853515625,
          -0.2205810546875,
          -0.134765625,
          -0.27587890625,
          -0.06597900390625,
          0.320068359375,
          0.406494140625,
          -0.7734375,
          -0.233642578125,
          0.290283203125,
          -15.71875,
          -0.4306640625,
          0.006832122802734375,
          0.348388671875,
          0.10064697265625,
          -0.050994873046875,
          -0.472412109375,
          0.2322998046875,
          -0.8798828125,
          -0.5234375,
          -0.222900390625,
          -0.1409912109375,
          -0.0242767333984375,
          -1.3984375,
          -0.0265960693359375,
          0.038604736328125,
          0.04388427734375,
          -0.45849609375,
          -0.294921875,
          0.46826171875,
          0.05792236328125,
          0.8076171875,
          -0.55224609375,
          0.1829833984375,
          0.51708984375,
          0.51416015625,
          0.0225982666015625,
          -0.004364013671875,
          -1.109375,
          -0.92578125,
          -0.001651763916015625,
          0.053497314453125,
          0.14892578125,
          -0.257080078125,
          -0.0091400146484375,
          -0.232421875,
          -0.0085601806640625,
          0.1265869140625,
          -0.045654296875,
          -0.05877685546875,
          -0.08404541015625,
          -0.0235443115234375,
          0.0005621910095214844,
          0.427490234375,
          0.01300048828125,
          -0.1356201171875,
          -0.345947265625,
          0.365966796875,
          -0.0196533203125,
          -8.9453125,
          0.242431640625,
          -0.1094970703125,
          -0.2509765625,
          -0.310302734375,
          0.57421875,
          -0.0240325927734375,
          -0.0008568763732910156,
          0.0596923828125,
          -0.322265625,
          -0.033599853515625,
          0.0304718017578125,
          -0.08978271484375,
          -0.15283203125,
          0.21142578125,
          -12.0390625,
          0.022247314453125,
          0.034637451171875,
          -0.1494140625,
          0.8203125,
          -0.025238037109375,
          -0.77734375,
          -1.1318359375,
          -0.19189453125,
          -0.060821533203125,
          0.035186767578125,
          0.139404296875,
          0.1448974609375,
          -0.0458984375,
          -0.07867431640625,
          -0.0477294921875,
          -0.84716796875,
          0.1279296875,
          -0.068115234375,
          -0.055328369140625,
          0.1241455078125,
          0.034820556640625,
          -0.1705322265625,
          0.090087890625,
          0.2359619140625,
          0.043670654296875,
          -0.0181884765625,
          -0.250732421875,
          0.034759521484375,
          0.194091796875,
          -0.1671142578125,
          0.3330078125,
          -0.09808349609375,
          -0.419921875,
          -0.0237274169921875,
          0.0791015625,
          0.0021381378173828125,
          0.0032596588134765625,
          0.0033893585205078125,
          0.040008544921875,
          -0.0101470947265625,
          -0.01031494140625,
          -0.0012826919555664062,
          -0.396484375,
          0.01029205322265625,
          -2.8125,
          0.01428985595703125,
          -0.0899658203125,
          0.021759033203125,
          0.048919677734375,
          0.003574371337890625,
          0.0012350082397460938,
          -0.454833984375,
          0.01032257080078125,
          -0.329345703125,
          0.00034809112548828125,
          -0.021270751953125,
          -0.0041351318359375,
          -0.44140625,
          0.017547607421875,
          0.00930023193359375,
          -0.01934814453125,
          0.233642578125,
          -0.051544189453125,
          -5.0859375,
          0.020263671875,
          -0.00664520263671875,
          -0.11279296875,
          -0.194091796875,
          -0.048431396484375,
          -0.1597900390625,
          1.087890625,
          0.265625,
          0.10284423828125,
          -0.00676727294921875,
          0.52978515625,
          -0.296630859375,
          0.1239013671875,
          0.0833740234375,
          -0.1802978515625,
          0.57373046875,
          0.90966796875,
          -0.07989501953125,
          0.09613037109375,
          -0.06915283203125,
          -0.28271484375,
          -0.6630859375,
          -0.1595458984375,
          -0.09136962890625,
          0.007476806640625,
          0.1376953125,
          0.56298828125,
          -0.0343017578125,
          -0.10076904296875,
          -0.2078857421875,
          -0.048980712890625,
          -1.029296875,
          0.435791015625,
          -0.1519775390625,
          0.66943359375,
          0.02398681640625,
          -0.004680633544921875,
          0.07623291015625,
          -0.36279296875,
          1.208984375,
          -1.072265625,
          -1.9482421875,
          -0.286376953125,
          -0.203369140625,
          -0.00823211669921875,
          0.06756591796875,
          0.0703125,
          -0.70068359375,
          -0.77685546875,
          -0.05169677734375,
          -0.022674560546875,
          0.166748046875,
          -0.7724609375,
          -1.66796875,
          -0.1658935546875,
          -8.4921875,
          -4.4765625,
          0.046295166015625,
          -0.51611328125,
          0.08929443359375,
          0.09027099609375,
          0.1463623046875,
          -0.236083984375,
          -4.515625,
          0.376220703125,
          -1.154296875,
          -1.181640625,
          -0.290771484375,
          -1.375,
          -0.322265625,
          -0.77783203125,
          0.03472900390625,
          0.66796875,
          -0.7626953125,
          -1.0263671875,
          0.671875,
          1.048828125,
          -0.84716796875,
          -0.171142578125,
          0.31396484375,
          -0.5595703125,
          0.2039794921875,
          -0.202392578125,
          -0.56103515625,
          0.1956787109375,
          -0.58740234375,
          -0.30419921875,
          -0.042327880859375,
          -0.1722412109375,
          -0.54736328125,
          -1.3134765625,
          -0.7353515625,
          -1.5166015625,
          -0.408203125,
          -1.8515625,
          -0.3623046875,
          -1.4541015625,
          0.011566162109375,
          0.303466796875,
          -0.1700439453125,
          0.0282745361328125,
          0.045867919921875,
          -0.56640625,
          0.134033203125,
          -0.0260009765625,
          -0.0156707763671875,
          0.04742431640625,
          0.1075439453125,
          0.0252838134765625,
          0.13427734375,
          0.050506591796875,
          -0.990234375,
          0.8525390625,
          0.003887176513671875,
          0.08392333984375,
          0.52392578125,
          -0.1456298828125,
          0.2215576171875,
          -0.09527587890625,
          -0.10906982421875,
          -0.068359375,
          0.09588623046875,
          -0.283447265625,
          -0.010284423828125,
          -0.060089111328125,
          -5.22265625,
          0.359130859375,
          -0.875,
          -0.284423828125,
          0.038818359375,
          -0.0177001953125,
          -0.0144195556640625,
          0.00955963134765625,
          0.008087158203125,
          -0.123046875,
          -0.018768310546875,
          0.011474609375,
          0.00870513916015625,
          0.332275390625,
          0.0161895751953125,
          -0.2384033203125,
          -0.05255126953125,
          0.056121826171875,
          -0.034759521484375,
          -0.418701171875,
          0.028076171875,
          -0.0056915283203125,
          0.59814453125,
          -0.08038330078125,
          0.272705078125,
          -0.033416748046875,
          -0.0015993118286132812,
          0.0012989044189453125,
          -0.084716796875,
          -0.016357421875,
          -0.01165008544921875,
          0.006244659423828125,
          -0.4541015625,
          0.2098388671875,
          -0.1396484375,
          -0.07373046875,
          0.0084991455078125,
          0.0242462158203125,
          0.0013866424560546875,
          0.0222930908203125,
          0.01678466796875,
          -0.0311279296875,
          0.021331787109375,
          0.0017576217651367188,
          0.0029277801513671875,
          0.1624755859375,
          0.00481414794921875,
          0.6171875,
          -0.0325927734375,
          0.0850830078125,
          -0.01203155517578125,
          -0.254638671875,
          0.051361083984375,
          -0.01259613037109375,
          -0.37255859375,
          0.720703125,
          0.34228515625,
          -0.05767822265625,
          -0.00800323486328125,
          -0.00421142578125,
          0.5244140625,
          0.0626220703125,
          0.03790283203125,
          0.00962066650390625,
          -2.9609375,
          0.184326171875,
          -0.10107421875,
          -0.07305908203125,
          -0.2039794921875,
          -0.0587158203125,
          -0.273193359375,
          -0.2122802734375,
          -0.26416015625,
          -0.36328125,
          -0.036163330078125,
          0.24609375,
          -0.252685546875,
          -0.25,
          0.0172271728515625,
          -0.2269287109375,
          -0.07666015625,
          -0.0295867919921875,
          -0.1680908203125,
          -0.2415771484375,
          0.062744140625,
          -0.2066650390625,
          -0.355712890625,
          -0.1806640625,
          -0.1871337890625,
          -0.174072265625,
          -0.193603515625,
          -0.484375,
          -0.2451171875,
          -0.134521484375,
          0.1873779296875,
          -0.283447265625,
          -0.03228759765625,
          -0.2359619140625,
          -0.130126953125,
          -0.30712890625,
          -0.00446319580078125,
          0.0684814453125,
          -0.125244140625,
          0.0275115966796875,
          -1.2587890625,
          -2.337890625,
          -0.02728271484375,
          0.0007796287536621094,
          0.00022780895233154297,
          -0.241455078125,
          0.0276947021484375,
          -0.1483154296875,
          0.029388427734375,
          0.78271484375,
          -0.0142669677734375,
          0.576171875,
          -0.083251953125,
          0.01515960693359375,
          0.5205078125,
          0.40478515625,
          -0.259033203125,
          0.0008759498596191406,
          -0.04052734375,
          0.0109100341796875,
          -0.435546875,
          0.0298919677734375,
          0.08074951171875,
          -0.0189208984375,
          -0.77392578125,
          -0.262451171875,
          -0.82421875,
          -0.5703125
        ]
      },
      {
        "bias": [
          -1.2158203125,
          -1.2529296875,
          -5.375,
          -6.125
        ],
        "in_features": 32,
        "out_features": 4,
        "type": "linear",
        "weights": [
          -0.00616455078125,
          0.08624267578125,
          0.11334228515625,
          -0.041748046875,
          -0.0736083984375,
          -0.007419586181640625,
          0.005008697509765625,
          0.006412506103515625,
          -0.0006117820739746094,
          0.0938720703125,
          -0.0036411285400390625,
          0.28271484375,
          -0.0235443115234375,
          -0.00022661685943603516,
          0.0008716583251953125,
          -0.0031490325927734375,
          0.309814453125,
          -0.281494140625,
          -0.00482940673828125,
          0.004161834716796875,
          0.001861572265625,
          0.030731201171875,
          0.00919342041015625,
          -0.35400390625,
          0.0117034912109375,
          -0.00237274169921875,
          -0.2294921875,
          0.03619384765625,
          0.1431884765625,
          -0.23486328125,
          -0.10107421875,
          0.178955078125,
          0.0489501953125,
          0.415283203125,
          -0.07373046875,
          0.0297393798828125,
          0.06951904296875,
          0.00982666015625,
          0.055572509765625,
          0.2474365234375,
          0.0714111328125,
          0.1676025390625,
          0.09893798828125,
          0.002532958984375,
          0.238037109375,
          0.002197265625,
          0.0003101825714111328,
          0.036773681640625,
          -0.2379150390625,
          0.021820068359375,
          -0.274658203125,
          0.0518798828125,
          -0.042572021484375,
          0.0477294921875,
          -0.0130157470703125,
          0.0007977485656738281,
          -0.0129241943359375,
          -0.0192718505859375,
          -0.2705078125,
          -0.005496978759765625,
          0.02215576171875,
          0.01788330078125,
          -0.016571044921875,
          0.0022716522216796875,
          0.00901031494140625,
          0.1588134765625,
          0.026885986328125,
          -0.468994140625,
          -0.01438140869140625,
          -0.0380859375,
          0.006500244140625,
          0.04510498046875,
          -0.0067596435546875,
          -0.09197998046875,
          0.01203155517578125,
          -0.32861328125,
          -0.0035037994384765625,
          -0.0027618408203125,
          -5.26953125,
          -0.0196685791015625,
          0.39990234375,
          0.1495361328125,
          -0.0897216796875,
          -0.011077880859375,
          0.0085906982421875,
          -0.1343994140625,
          0.01947021484375,
          -4.34765625,
          0.08184814453125,
          -0.0017309188842773438,
          -0.2086181640625,
          -0.1422119140625,
          0.984375,
          0.33154296875,
          -2.00390625,
          -0.304931640625,
          0.026824951171875,
          -0.06195068359375,
          0.08056640625,
          -4.25,
          0.09466552734375,
          0.1431884765625,
          -0.02301025390625,
          0.138671875,
          0.01450347900390625,
          -0.2230224609375,
          -0.0144805908203125,
          0.0806884765625,
          0.2315673828125,
          0.12310791015625,
          -2.75390625,
          0.00957489013671875,
          0.279541015625,
          -0.189208984375,
          -0.078125,
          0.007167816162109375,
          0.0081329345703125,
          0.2236328125,
          0.398193359375,
          0.1529541015625,
          0.525390625,
          0.23583984375,
          0.1644287109375,
          0.240478515625,
          0.09942626953125,
          -0.00634765625,
          -3.421875,
          -0.254150390625
        ]
      }
    ],
    "output": 4
  }
}