{
  "model": {
    "input": 30,
    "layers": [
      {
        "bias": [
          -1.72265625,
          -2.22265625,
          0.87158203125,
          -5.96875,
          1.431640625,
          -0.4951171875,
          -0.088134765625,
          -0.31689453125,
          -1.2490234375,
          -0.493896484375,
          0.266357421875,
          0.006992340087890625,
          1.873046875,
          0.88330078125,
          -0.5263671875,
          0.0258941650390625,
          -1.955078125,
          -0.3662109375,
          -1.5185546875,
          1.1611328125,
          0.365966796875,
          0.0276641845703125,
          -0.442626953125,
          -1.12890625,
          -0.11627197265625,
          1.126953125,
          0.765625,
          4.34765625,
          0.7509765625,
          1.6328125,
          -0.8642578125,
          -2.193359375
        ],
        "in_features": 30,
        "out_features": 32,
        "weights": [
          0.253662109375,
          -0.12548828125,
          0.05133056640625,
          0.041229248046875,
          0.0078582763671875,
          -0.0074005126953125,
          0.2587890625,
          -0.1260986328125,
          0.051177978515625,
          0.042083740234375,
          0.007427215576171875,
          -0.005035400390625,
          4.03125,
          0.71435546875,
          -0.3671875,
          1.2373046875,
          -0.11474609375,
          0.020660400390625,
          -0.37060546875,
          -0.3828125,
          0.0284271240234375,
          -0.1329345703125,
          -0.016876220703125,
          -0.005908966064453125,
          -0.74169921875,
          1.40234375,
          -0.8291015625,
          -0.59033203125,
          0.09124755859375,
          0.1365966796875,
          -0.154541015625,
          0.81982421875,
          -0.1658935546875,
          -0.12060546875,
          -0.01009368896484375,
          -0.010833740234375,
          -0.153564453125,
          0.81787109375,
          -0.165771484375,
          -0.12255859375,
          -0.01064300537109375,
          -0.0105133056640625,
          1.0859375,
          -0.8837890625,
          -1.998046875,
          0.26513671875,
          -0.51171875,
          0.5390625,
          -0.431640625,
          -1.15234375,
          0.13232421875,
          -0.2008056640625,
          0.042938232421875,
          -0.053741455078125,
          -0.1695556640625,
          -0.10931396484375,
          0.0095977783203125,
          -0.126708984375,
          -0.0699462890625,
          -0.033294677734375,
          -0.72509765625,
          0.1591796875,
          -0.195556640625,
          -0.04132080078125,
          -0.00592803955078125,
          0.01184844970703125,
          -0.71875,
          0.1568603515625,
          -0.1920166015625,
          -0.039215087890625,
          -0.005126953125,
          0.01092529296875,
          -14.109375,
          -1.9814453125,
          4.58984375,
          1.1865234375,
          5.3359375,
          -0.57763671875,
          1.142578125,
          2.15234375,
          -0.329345703125,
          0.2017822265625,
          -0.01239776611328125,
          0.033599853515625,
          1.5517578125,
          1.509765625,
          1.3359375,
          -1.439453125,
          -0.3642578125,
          -0.051361083984375,
          5.515625,
          1.935546875,
          -1.251953125,
          2.02734375,
          -0.252685546875,
          0.125,
          5.51953125,
          1.9404296875,
          -1.2568359375,
          2.025390625,
          -0.254150390625,
          0.125244140625,
          0.3564453125,
          -0.25244140625,
          0.1319580078125,
          0.10565185546875,
          0.015777587890625,
          0.004238128662109375,
          -0.8564453125,
          0.10015869140625,
          -0.033477783203125,
          -0.357421875,
          -0.0007076263427734375,
          -0.054595947265625,
          -2.380859375,
          1.201171875,
          -0.75732421875,
          -0.58203125,
          -0.0841064453125,
          0.014068603515625,
          -0.1915283203125,
          1.1640625,
          -0.2349853515625,
          -0.04022216796875,
          -0.018463134765625,
          0.0005221366882324219,
          -0.1868896484375,
          1.166015625,
          -0.2384033203125,
          -0.03570556640625,
          -0.022369384765625,
          0.00508880615234375,
          -5.671875,
          -1.1083984375,
          -0.744140625,
          -2.041015625,
          -0.1492919921875,
          -0.1727294921875,
          0.12890625,
          -1.130859375,
          0.09344482421875,
          -0.00867462158203125,
          0.01947021484375,
          0.00653839111328125,
          -2.37890625,
          -3.431640625,
          0.86767578125,
          -1.8037109375,
          -0.2388916015625,
          -0.1773681640625,
          -0.09912109375,
          -0.09173583984375,
          0.0153656005859375,
          -0.0027332305908203125,
          -0.0026607513427734375,
          -0.01483917236328125,
          -0.095703125,
          -0.09246826171875,
          0.0166778564453125,
          -0.003070831298828125,
          -0.0008206367492675781,
          -0.0155181884765625,
          1.6953125,
          0.77734375,
          -0.0219573974609375,
          0.18017578125,
          0.149658203125,
          -0.0811767578125,
          0.390625,
          0.451171875,
          -0.1951904296875,
          0.2415771484375,
          -0.0166168212890625,
          0.048370361328125,
          -0.1251220703125,
          -0.51025390625,
          -0.1324462890625,
          -0.399169921875,
          -0.053436279296875,
          -0.123046875,
          -0.787109375,
          -0.419677734375,
          0.04437255859375,
          -0.08355712890625,
          0.000461578369140625,
          -0.00965118408203125,
          -0.787109375,
          -0.419677734375,
          0.0440673828125,
          -0.08416748046875,
          0.0008172988891601562,
          -0.0091705322265625,
          -2.673828125,
          -2.296875,
          1.28515625,
          0.9326171875,
          1.1025390625,
          -0.2958984375,
          1.970703125,
          3.8125,
          -0.6318359375,
          0.456298828125,
          -0.00030040740966796875,
          0.0433349609375,
          0.2381591796875,
          0.8076171875,
          -1.03515625,
          -1.5927734375,
          -0.03179931640625,
          0.185546875,
          -0.326416015625,
          -1.08203125,
          0.1383056640625,
          -0.062225341796875,
          0.00368499755859375,
          -0.0135650634765625,
          -0.325927734375,
          -1.08203125,
          0.1380615234375,
          -0.06195068359375,
          0.00395965576171875,
          -0.0153045654296875,
          1.416015625,
          0.1962890625,
          -1.33984375,
          0.8408203125,
          -0.307373046875,
          0.4658203125,
          -0.53564453125,
          0.94580078125,
          -0.1728515625,
          0.1844482421875,
          0.045257568359375,
          0.08612060546875,
          -0.634765625,
          0.483154296875,
          -0.316162109375,
          -0.1759033203125,
          -0.035980224609375,
          0.007678985595703125,
          0.236572265625,
          -1.6435546875,
          0.32177734375,
          -0.0247802734375,
          0.0216522216796875,
          -0.0148773193359375,
          0.2420654296875,
          -1.6455078125,
          0.324462890625,
          -0.0241546630859375,
          0.0218505859375,
          -0.01442718505859375,
          -0.1905517578125,
          0.239013671875,
          -4.2890625,
          0.82080078125,
          -0.7509765625,
          0.9580078125,
          -0.58154296875,
          0.81787109375,
          0.018310546875,
          0.0211639404296875,
          -0.037139892578125,
          0.01800537109375,
          -2.60546875,
          -0.54833984375,
          0.1671142578125,
          0.98388671875,
          0.07012939453125,
          0.0306243896484375,
          1.5341796875,
          -2.00390625,
          0.5244140625,
          0.355224609375,
          0.05975341796875,
          0.1649169921875,
          1.537109375,
          -2.013671875,
          0.52392578125,
          0.355224609375,
          0.0550537109375,
          0.1671142578125,
          0.0238800048828125,
          5.94140625,
          -1.189453125,
          0.3291015625,
          0.355224609375,
          0.035247802734375,
          0.44775390625,
          2.62109375,
          -0.231201171875,
          0.1380615234375,
          -0.057861328125,
          -0.0494384765625,
          0.463134765625,
          0.81494140625,
          -0.0396728515625,
          0.026275634765625,
          0.0080108642578125,
          0.09173583984375,
          0.43359375,
          -0.537109375,
          0.10870361328125,
          -0.03289794921875,
          0.005146026611328125,
          0.00020170211791992188,
          0.42529296875,
          -0.537109375,
          0.1083984375,
          -0.035247802734375,
          0.005184173583984375,
          -0.0008282661437988281,
          2.99609375,
          1.3818359375,
          -2.005859375,
          -0.86328125,
          -0.292724609375,
          -0.1602783203125,
          -0.79052734375,
          -1.43359375,
          0.267578125,
          0.203857421875,
          0.06561279296875,
          0.0145263671875,
          0.289306640625,
          0.0670166015625,
          0.1632080078125,
          1.095703125,
          -0.159912109375,
          -0.12396240234375,
          -0.11212158203125,
          -1.2900390625,
          0.282470703125,
          0.04034423828125,
          0.02972412109375,
          0.006847381591796875,
          -0.1156005859375,
          -1.2900390625,
          0.281005859375,
          0.03326416015625,
          0.0330810546875,
          0.00433349609375,
          -0.673828125,
          0.94140625,
          -0.4658203125,
          -1.12109375,
          0.46923828125,
          -0.282470703125,
          2.2421875,
          2.9140625,
          -0.673828125,
          0.42822265625,
          -0.017669677734375,
          -0.00800323486328125,
          0.8974609375,
          -0.326171875,
          0.163818359375,
          0.10577392578125,
          0.01131439208984375,
          0.0005736351013183594,
          -2.92578125,
          1.021484375,
          -0.8076171875,
          -0.7841796875,
          -0.1197509765625,
          -0.01062774658203125,
          -2.923828125,
          1.0224609375,
          -0.8076171875,
          -0.78173828125,
          -0.1158447265625,
          -0.01058197021484375,
          3.4609375,
          -0.54638671875,
          0.53662109375,
          1.2822265625,
          -0.04058837890625,
          0.1414794921875,
          -0.37939453125,
          0.6787109375,
          -0.2012939453125,
          -0.255126953125,
          0.01110076904296875,
          0.01241302490234375,
          0.564453125,
          -0.1707763671875,
          0.2200927734375,
          0.138427734375,
          0.0267486572265625,
          -0.04144287109375,
          0.92919921875,
          -0.11944580078125,
          0.389892578125,
          -0.0570068359375,
          -0.01049041748046875,
          -0.0276336669921875,
          0.91845703125,
          -0.11767578125,
          0.383056640625,
          -0.06097412109375,
          -0.008056640625,
          -0.02740478515625,
          -343.75,
          -1.8330078125,
          49.03125,
          0.9677734375,
          64.375,
          1.7109375,
          -1.3759765625,
          0.46728515625,
          -0.73095703125,
          0.256591796875,
          0.043548583984375,
          0.053985595703125,
          0.236083984375,
          -0.049072265625,
          0.0173492431640625,
          0.00533294677734375,
          -0.01261138916015625,
          -0.0003261566162109375,
          0.68603515625,
          -0.385986328125,
          0.17919921875,
          0.0228271484375,
          0.0004227161407470703,
          -0.01184844970703125,
          0.69580078125,
          -0.38720703125,
          0.181396484375,
          0.0254364013671875,
          0.0008993148803710938,
          -0.0117034912109375,
          5.15234375,
          2.263671875,
          -2.291015625,
          1.1103515625,
          -0.63916015625,
          0.2783203125,
          -0.5107421875,
          -1.0556640625,
          0.2060546875,
          -0.1405029296875,
          -0.0297393798828125,
          -0.006084442138671875,
          -0.37158203125,
          8.96875,
          -2.65234375,
          1.4267578125,
          0.1663818359375,
          0.39892578125,
          1.7578125,
          -0.56396484375,
          0.1383056640625,
          0.78857421875,
          0.1214599609375,
          0.318603515625,
          1.7509765625,
          -0.5634765625,
          0.13330078125,
          0.787109375,
          0.12127685546875,
          0.31103515625,
          0.154052734375,
          1.115234375,
          0.1033935546875,
          0.1287841796875,
          0.165283203125,
          -0.12066650390625,
          -3.1328125,
          2.01953125,
          -1.3134765625,
          -0.232666015625,
          -0.038116455078125,
          -0.19189453125,
          -0.5498046875,
          0.44091796875,
          -0.33154296875,
          0.00461578369140625,
          -0.040130615234375,
          0.1043701171875,
          0.71484375,
          -0.37353515625,
          0.2099609375,
          -0.0855712890625,
          -0.0030956268310546875,
          -0.03070068359375,
          0.70263671875,
          -0.3701171875,
          0.207763671875,
          -0.089111328125,
          -0.0033721923828125,
          -0.03082275390625,
          -2.421875,
          3.52734375,
          -6.609375,
          0.4130859375,
          -4.4375,
          2.396484375,
          -4.578125,
          -0.7314453125,
          -0.75830078125,
          -0.92724609375,
          -0.075439453125,
          -0.0323486328125,
          -0.93017578125,
          4.73046875,
          -0.09136962890625,
          0.544921875,
          -0.0157623291015625,
          0.41162109375,
          0.304443359375,
          -0.560546875,
          0.10736083984375,
          0.045196533203125,
          0.00616455078125,
          -0.002796173095703125,
          0.3037109375,
          -0.56005859375,
          0.10699462890625,
          0.04541015625,
          0.005702972412109375,
          -0.002124786376953125,
          2.607421875,
          3.99609375,
          -1.099609375,
          -0.06805419921875,
          0.07061767578125,
          -0.22265625,
          1.1845703125,
          -0.414794921875,
          0.341064453125,
          0.265380859375,
          -0.0244140625,
          -0.0189056396484375,
          0.97412109375,
          2.77734375,
          -0.10028076171875,
          -0.56005859375,
          -0.0234222412109375,
          -0.074462890625,
          2.986328125,
          -1.31640625,
          0.57177734375,
          0.884765625,
          0.06903076171875,
          0.08648681640625,
          2.978515625,
          -1.3154296875,
          0.56787109375,
          0.8798828125,
          0.06646728515625,
          0.08062744140625,
          -0.10455322265625,
          3.86328125,
          -0.99169921875,
          -1.3857421875,
          0.470947265625,
          -0.57958984375,
          0.11639404296875,
          0.491455078125,
          -0.171875,
          -0.0693359375,
          -0.0670166015625,
          -0.02508544921875,
          -1.3203125,
          4.234375,
          -0.736328125,
          -0.282470703125,
          -0.348388671875,
          0.10223388671875,
          -0.332275390625,
          -0.158203125,
          -0.032257080078125,
          -0.07769775390625,
          -0.005954742431640625,
          -0.007293701171875,
          -0.3291015625,
          -0.157470703125,
          -0.031707763671875,
          -0.076904296875,
          -0.00557708740234375,
          -0.007720947265625,
          -0.2244873046875,
          0.2587890625,
          0.0369873046875,
          -0.1365966796875,
          -0.016998291015625,
          -0.026123046875,
          0.51806640625,
          0.46630859375,
          -0.0638427734375,
          0.1866455078125,
          0.01036834716796875,
          0.00226593017578125,
          -0.429931640625,
          -2.0,
          0.578125,
          0.1602783203125,
          -0.081298828125,
          -0.01166534423828125,
          0.24755859375,
          2.208984375,
          -0.289306640625,
          -0.072998046875,
          -0.018463134765625,
          -0.012481689453125,
          0.2427978515625,
          2.208984375,
          -0.29052734375,
          -0.074462890625,
          -0.0191497802734375,
          -0.01168060302734375,
          -3.37890625,
          3.580078125,
          -2.9140625,
          -0.75048828125,
          -0.4345703125,
          -0.1295166015625,
          -0.5556640625,
          -2.931640625,
          0.250732421875,
          -0.220458984375,
          -0.0654296875,
          -0.08697509765625,
          0.13623046875,
          -0.308349609375,
          0.06524658203125,
          0.033233642578125,
          -0.00778961181640625,
          0.0181121826171875,
          -0.9326171875,
          -1.0888671875,
          0.0357666015625,
          -0.214111328125,
          -0.005260467529296875,
          -0.00717926025390625,
          -0.93115234375,
          -1.0888671875,
          0.036895751953125,
          -0.212646484375,
          -0.00408172607421875,
          -0.006801605224609375,
          -1.8681640625,
          -1.337890625,
          -1.119140625,
          1.19921875,
          1.4033203125,
          1.177734375,
          0.058502197265625,
          3.931640625,
          -0.77294921875,
          0.2156982421875,
          -0.048583984375,
          0.039337158203125,
          -2.662109375,
          -2.25,
          1.78125,
          -2.361328125,
          0.047821044921875,
          -0.19482421875,
          0.00319671630859375,
          0.8779296875,
          -0.18017578125,
          -0.04913330078125,
          -0.016265869140625,
          -0.0014591217041015625,
          0.00034117698669433594,
          0.87939453125,
          -0.181640625,
          -0.0458984375,
          -0.017974853515625,
          -0.001800537109375,
          1.2724609375,
          -0.28369140625,
          0.18408203125,
          0.122314453125,
          0.06744384765625,
          0.0269012451171875,
          -0.17724609375,
          -1.3095703125,
          0.1619873046875,
          -0.057586669921875,
          -0.006389617919921875,
          -0.01025390625,
          -0.63427734375,
          0.29150390625,
          -0.27294921875,
          -0.058349609375,
          -0.042266845703125,
          -0.012725830078125,
          1.244140625,
          -0.07958984375,
          0.203125,
          0.247314453125,
          0.035797119140625,
          0.00994110107421875,
          1.251953125,
          -0.07720947265625,
          0.203369140625,
          0.251220703125,
          0.03704833984375,
          0.00914764404296875,
          -0.225830078125,
          1.373046875,
          -2.666015625,
          0.2020263671875,
          -0.460205078125,
          0.61083984375,
          0.10858154296875,
          -0.66015625,
          0.12237548828125,
          0.0908203125,
          0.034271240234375,
          0.0157318115234375,
          -0.9189453125,
          3.646484375,
          -1.115234375,
          0.06329345703125,
          -0.1392822265625,
          0.02728271484375,
          -0.39453125,
          -0.986328125,
          0.10723876953125,
          -0.0782470703125,
          0.005573272705078125,
          -0.01418304443359375,
          -0.391845703125,
          -0.98828125,
          0.10968017578125,
          -0.076171875,
          0.005092620849609375,
          -0.01390838623046875,
          -0.67919921875,
          -1.2685546875,
          0.5029296875,
          -0.419677734375,
          0.246337890625,
          -0.270751953125,
          2.203125,
          2.216796875,
          -0.384765625,
          0.10791015625,
          -0.040802001953125,
          0.10504150390625,
          0.7197265625,
          0.67822265625,
          -0.65576171875,
          0.2369384765625,
          -0.1080322265625,
          0.0714111328125,
          -0.48828125,
          -1.064453125,
          0.1673583984375,
          -0.09625244140625,
          0.004444122314453125,
          -0.01165008544921875,
          -0.487548828125,
          -1.0634765625,
          0.1708984375,
          -0.09539794921875,
          0.0024967193603515625,
          -0.0147552490234375,
          -8.4609375,
          -3.212890625,
          0.60107421875,
          -0.113525390625,
          1.142578125,
          -0.91552734375,
          0.41845703125,
          2.63671875,
          -0.529296875,
          0.1441650390625,
          -0.0250091552734375,
          0.017852783203125,
          -1.7373046875,
          -2.958984375,
          1.3701171875,
          0.87939453125,
          0.364501953125,
          0.1314697265625,
          -0.37939453125,
          1.091796875,
          -0.374267578125,
          -0.1197509765625,
          -0.01160430908203125,
          -0.014434814453125,
          -0.37890625,
          1.091796875,
          -0.374755859375,
          -0.118408203125,
          -0.015289306640625,
          -0.01537322998046875,
          -2.828125,
          -0.32568359375,
          1.2197265625,
          -1.6591796875,
          0.270263671875,
          -0.480712890625,
          0.900390625,
          -0.18994140625,
          0.0262908935546875,
          0.0024013519287109375,
          0.036773681640625,
          0.0031147003173828125,
          0.132080078125,
          -1.6298828125,
          0.38916015625,
          -0.6796875,
          0.0031261444091796875,
          -0.1322021484375,
          -10.3203125,
          0.418701171875,
          1.1083984375,
          -5.23046875,
          0.448974609375,
          -0.469970703125,
          -10.203125,
          0.428955078125,
          1.212890625,
          -5.23046875,
          0.626953125,
          -0.46044921875,
          -0.297119140625,
          0.03778076171875,
          0.28564453125,
          -0.377685546875,
          0.31884765625,
          -0.30419921875,
          6.69921875,
          1.7890625,
          -1.31640625,
          1.787109375,
          -0.521484375,
          -0.1942138671875,
          -0.41162109375,
          -0.26513671875,
          -0.30712890625,
          0.1473388671875,
          0.3212890625,
          0.26025390625,
          0.72119140625,
          -0.53076171875,
          0.1644287109375,
          0.126708984375,
          0.005710601806640625,
          0.004253387451171875,
          0.712890625,
          -0.53125,
          0.164794921875,
          0.12310791015625,
          0.007122039794921875,
          0.000682830810546875,
          1.66015625,
          1.734375,
          -0.68701171875,
          0.59326171875,
          -0.1114501953125,
          0.0811767578125,
          -0.494873046875,
          1.7841796875,
          -0.07366943359375,
          -0.8740234375,
          0.0537109375,
          0.02117919921875,
          -0.145263671875,
          -0.037017822265625,
          0.04559326171875,
          -0.006103515625,
          -0.0141448974609375,
          -0.004611968994140625,
          -0.25634765625,
          0.8642578125,
          -0.1903076171875,
          -0.0001621246337890625,
          -0.01442718505859375,
          0.004467010498046875,
          -0.255615234375,
          0.865234375,
          -0.1904296875,
          0.00012946128845214844,
          -0.0159149169921875,
          0.00745391845703125,
          0.29150390625,
          -1.6787109375,
          0.434814453125,
          0.006988525390625,
          0.035675048828125,
          0.032745361328125,
          -1.00390625,
          2.30078125,
          -0.12744140625,
          0.2281494140625,
          -0.050201416015625,
          -0.005245208740234375,
          0.625,
          0.053955078125,
          0.03131103515625,
          0.311279296875,
          0.033660888671875,
          0.002227783203125,
          0.318359375,
          0.2261962890625,
          -0.1282958984375,
          0.05450439453125,
          -0.01268768310546875,
          -0.00324249267578125,
          0.318603515625,
          0.226806640625,
          -0.129638671875,
          0.054290771484375,
          -0.01233673095703125,
          -0.0017261505126953125,
          -1.3642578125,
          0.97705078125,
          -7.25,
          0.331298828125,
          -1.53515625,
          2.02734375,
          -0.75634765625,
          -0.44091796875,
          0.2327880859375,
          -0.16015625,
          0.018280029296875,
          -0.002044677734375,
          -0.74462890625,
          0.488525390625,
          -0.29931640625,
          -0.126220703125,
          -0.028045654296875,
          0.029632568359375,
          1.4111328125,
          -0.8974609375,
          0.40185546875,
          0.2261962890625,
          0.046478271484375,
          -0.005878448486328125,
          1.416015625,
          -0.8984375,
          0.403076171875,
          0.2275390625,
          0.0474853515625,
          -0.00592803955078125,
          5.29296875,
          3.111328125,
          -1.8876953125,
          0.85009765625,
          -0.394287109375,
          -0.0458984375,
          -0.5322265625,
          -0.92529296875,
          0.10626220703125,
          -0.263916015625,
          -0.003772735595703125,
          0.00844573974609375,
          -1.83203125,
          5.4765625,
          -0.0386962890625,
          0.081787109375,
          0.0546875,
          0.218505859375
        ]
      },
      {
        "bias": [
          -11.5078125,
          -0.16259765625,
          1.529296875,
          0.09747314453125,
          -6.89453125,
          0.15478515625,
          -1.6181640625,
          -0.37158203125,
          0.396240234375,
          -0.1234130859375,
          0.313720703125,
          1.4150390625,
          2.94921875,
          -0.423828125,
          -2.2578125,
          -0.0758056640625,
          -0.2440185546875,
          -2.140625,
          -1.0595703125,
          0.41064453125,
          -0.325927734375,
          -5.640625,
          -0.242431640625,
          -4.6015625,
          -0.1422119140625,
          0.43701171875,
          -0.1346435546875,
          -0.99462890625,
          -0.7734375,
          -1.8466796875,
          0.225830078125,
          -1.505859375
        ],
        "in_features": 32,
        "out_features": 32,
        "weights": [
          -5.328125,
          -2.923828125,
          -0.031829833984375,
          0.2327880859375,
          -0.0501708984375,
          -0.69970703125,
          -0.0186004638671875,
          0.044189453125,
          0.035186767578125,
          -21.265625,
          -0.024505615234375,
          0.26513671875,
          0.1051025390625,
          2.51171875,
          0.06890869140625,
          0.10760498046875,
          -0.3212890625,
          -0.249267578125,
          -0.3134765625,
          0.053741455078125,
          -0.1005859375,
          -0.006885528564453125,
          -0.2122802734375,
          -0.058013916015625,
          -0.3134765625,
          -0.0189361572265625,
          -0.011871337890625,
          0.029541015625,
          0.047943115234375,
          -0.20068359375,
          1.2861328125,
          -0.1358642578125,
          0.779296875,
          -0.1728515625,
          -0.1868896484375,
          -0.095703125,
          0.3046875,
          0.7470703125,
          -0.2476806640625,
          0.0797119140625,
          0.54736328125,
          0.6513671875,
          0.495849609375,
          0.1063232421875,
          -0.0025482177734375,
          -0.0130157470703125,
          0.2283935546875,
          -0.00908660888671875,
          0.52197265625,
          0.415283203125,
          0.3251953125,
          0.032928466796875,
          -0.2744140625,
          -0.073486328125,
          0.58203125,
          0.436767578125,
          -0.505859375,
          0.79248046875,
          -0.11297607421875,
          0.3671875,
          0.091064453125,
          -0.460205078125,
          0.2333984375,
          1.37890625,
          -4.19921875,
          1.1474609375,
          -0.004337310791015625,
          0.0179443359375,
          0.0064849853515625,
          -10.9296875,
          0.0240478515625,
          0.1400146484375,
          0.00249481201171875,
          -3.021484375,
          -0.01861572265625,
          0.44091796875,
          0.06640625,
          -0.35791015625,
          0.0118255615234375,
          0.12396240234375,
          0.80419921875,
          -0.63232421875,
          -1.6865234375,
          0.036956787109375,
          -0.2440185546875,
          0.0104217529296875,
          -0.26708984375,
          0.0053863525390625,
          0.0858154296875,
          0.00995635986328125,
          -0.03399658203125,
          0.028656005859375,
          0.78515625,
          0.121826171875,
          -3.416015625,
          1.26953125,
          -0.08746337890625,
          -0.3984375,
          -0.0235748291015625,
          -0.007694244384765625,
          0.00998687744140625,
          0.0411376953125,
          -0.00959014892578125,
          -0.15087890625,
          0.0203399658203125,
          -0.08575439453125,
          -0.0867919921875,
          0.2127685546875,
          0.018157958984375,
          -0.0260009765625,
          -0.02374267578125,
          0.0145111083984375,
          -0.0157623291015625,
          0.033599853515625,
          0.01332855224609375,
          0.0099334716796875,
          -0.10302734375,
          0.0264129638671875,
          0.042755126953125,
          0.016845703125,
          0.00397491455078125,
          -0.034698486328125,
          -0.05023193359375,
          -0.28173828125,
          1.181640625,
          0.1885986328125,
          0.199462890625,
          0.04498291015625,
          0.705078125,
          -14.625,
          -0.0311279296875,
          0.07666015625,
          0.55517578125,
          -0.6171875,
          -0.282470703125,
          -62.75,
          -1.28515625,
          0.9599609375,
          0.1251220703125,
          0.147216796875,
          0.2191162109375,
          -0.1048583984375,
          0.1771240234375,
          0.118408203125,
          1.5224609375,
          -0.10498046875,
          -0.26171875,
          -0.5576171875,
          0.33837890625,
          -0.2210693359375,
          0.712890625,
          2.060546875,
          0.11962890625,
          0.62158203125,
          1.4365234375,
          -0.047576904296875,
          0.418212890625,
          0.114013671875,
          0.75830078125,
          0.06085205078125,
          -0.478271484375,
          -0.27001953125,
          -0.07696533203125,
          0.65966796875,
          -0.449462890625,
          -2.65625,
          0.2432861328125,
          0.4169921875,
          0.7998046875,
          -2.0234375,
          -0.70361328125,
          0.021759033203125,
          -0.10455322265625,
          -0.2861328125,
          0.037445068359375,
          0.125,
          -0.048919677734375,
          1.1728515625,
          -0.03857421875,
          2.43359375,
          0.2442626953125,
          -0.52880859375,
          -0.317138671875,
          1.6123046875,
          0.1795654296875,
          -2.13671875,
          0.21435546875,
          -0.1971435546875,
          0.10321044921875,
          0.1639404296875,
          -0.93408203125,
          -2.64453125,
          0.1641845703125,
          0.28369140625,
          0.034820556640625,
          -4.6328125,
          0.11602783203125,
          -0.0205535888671875,
          -0.04327392578125,
          0.509765625,
          -0.1619873046875,
          -0.09393310546875,
          0.07781982421875,
          0.28759765625,
          0.9580078125,
          0.0889892578125,
          0.1160888671875,
          0.09283447265625,
          0.0112762451171875,
          -0.0662841796875,
          0.11431884765625,
          -0.0501708984375,
          0.3056640625,
          -0.03277587890625,
          -0.50244140625,
          -0.294677734375,
          -0.301513671875,
          -0.0013666152954101562,
          0.477294921875,
          3.43359375,
          -0.453857421875,
          0.43115234375,
          0.0114288330078125,
          -0.0161895751953125,
          -0.2076416015625,
          0.085205078125,
          -0.71826171875,
          0.007568359375,
          -0.10028076171875,
          -0.42431640625,
          0.073974609375,
          -0.1712646484375,
          -0.2230224609375,
          -0.11138916015625,
          -0.60546875,
          0.1416015625,
          -0.307373046875,
          -0.52197265625,
          -0.0012531280517578125,
          0.033905029296875,
          -0.46435546875,
          -0.225341796875,
          -0.433837890625,
          -0.65966796875,
          -0.140625,
          -0.026397705078125,
          -0.50244140625,
          -0.18896484375,
          0.05804443359375,
          0.31640625,
          -0.2174072265625,
          0.1358642578125,
          -0.44580078125,
          -0.5625,
          -0.59912109375,
          -0.09991455078125,
          0.160400390625,
          0.4296875,
          -0.02606201171875,
          -0.63525390625,
          0.1590576171875,
          -0.060333251953125,
          -0.03466796875,
          0.07366943359375,
          0.11883544921875,
          0.268310546875,
          0.0229949951171875,
          -0.1705322265625,
          0.3056640625,
          0.462890625,
          0.0836181640625,
          -0.36572265625,
          0.13623046875,
          0.0123138427734375,
          0.052886962890625,
          0.07464599609375,
          -0.06683349609375,
          -0.0290069580078125,
          -0.236572265625,
          0.08782958984375,
          0.172119140625,
          0.2138671875,
          0.06414794921875,
          1.2666015625,
          -0.307861328125,
          0.53076171875,
          -0.3330078125,
          0.25732421875,
          0.0309600830078125,
          0.416748046875,
          0.0018091201782226562,
          0.955078125,
          0.132080078125,
          0.225341796875,
          -0.007152557373046875,
          0.160400390625,
          -0.08203125,
          0.203857421875,
          0.06378173828125,
          -0.38720703125,
          -0.59619140625,
          -0.020111083984375,
          0.038848876953125,
          0.568359375,
          -0.028045654296875,
          0.0250244140625,
          0.0628662109375,
          -0.05401611328125,
          0.2091064453125,
          -0.058624267578125,
          -0.4794921875,
          -0.04595947265625,
          -0.110107421875,
          0.06011962890625,
          0.1192626953125,
          -0.9365234375,
          0.2900390625,
          0.96728515625,
          -0.280029296875,
          -0.06524658203125,
          -0.0289459228515625,
          -0.006145477294921875,
          -0.0164337158203125,
          -2.447265625,
          -0.0751953125,
          -0.06317138671875,
          -0.015472412109375,
          0.814453125,
          0.036590576171875,
          -0.919921875,
          -0.0220947265625,
          -0.200439453125,
          0.022552490234375,
          -0.04913330078125,
          0.01444244384765625,
          -0.029693603515625,
          0.02178955078125,
          -0.009246826171875,
          0.036224365234375,
          0.00782012939453125,
          -4.48046875,
          0.049530029296875,
          0.01293182373046875,
          -0.04168701171875,
          -0.0208892822265625,
          -0.0214080810546875,
          -0.462890625,
          -0.343994140625,
          0.216064453125,
          -0.2484130859375,
          -0.184814453125,
          -0.01515960693359375,
          -0.9404296875,
          1.1474609375,
          -0.521484375,
          -0.134521484375,
          1.396484375,
          -0.47314453125,
          -0.04412841796875,
          0.0638427734375,
          -0.51220703125,
          -0.84912109375,
          0.6083984375,
          -0.26806640625,
          -0.041046142578125,
          -6.33203125,
          0.408203125,
          -0.06463623046875,
          -0.0013437271118164062,
          0.03167724609375,
          -0.322998046875,
          -1.12890625,
          0.004924774169921875,
          -1.6689453125,
          -1.609375,
          -0.7685546875,
          0.2337646484375,
          0.323974609375,
          0.406494140625,
          1.328125,
          -0.06915283203125,
          0.1279296875,
          -0.6728515625,
          -0.1474609375,
          0.1422119140625,
          -0.474853515625,
          -0.67431640625,
          0.465087890625,
          1.9287109375,
          -3.232421875,
          -0.732421875,
          -0.97705078125,
          -12.15625,
          -0.56689453125,
          -2.27734375,
          1.9765625,
          0.190673828125,
          -16.015625,
          0.0360107421875,
          -0.0870361328125,
          2.099609375,
          -0.35009765625,
          -7.84765625,
          -2.9140625,
          -0.41357421875,
          2.2265625,
          -107.25,
          -0.88134765625,
          -0.478759765625,
          -0.3486328125,
          -0.822265625,
          -0.2509765625,
          0.36767578125,
          0.2310791015625,
          -0.45556640625,
          -1.02734375,
          0.08111572265625,
          -0.380859375,
          -0.0282135009765625,
          -0.6845703125,
          -0.2210693359375,
          -0.134033203125,
          -0.3837890625,
          -0.4580078125,
          -0.24951171875,
          -0.48876953125,
          -0.7099609375,
          -0.07586669921875,
          -0.00555419921875,
          -0.556640625,
          -0.9482421875,
          -0.2430419921875,
          -0.2178955078125,
          -0.53173828125,
          0.087890625,
          -0.73486328125,
          -0.58642578125,
          -0.228759765625,
          0.01068115234375,
          -0.54638671875,
          -0.465576171875,
          -0.65380859375,
          -0.159423828125,
          -0.08843994140625,
          -0.57275390625,
          -0.40966796875,
          -0.04559326171875,
          0.037200927734375,
          -3.443359375,
          -4.8984375,
          0.1727294921875,
          0.17138671875,
          -0.07525634765625,
          -0.80224609375,
          0.80859375,
          -37.375,
          -6.06640625,
          0.12078857421875,
          -0.70068359375,
          4.8359375,
          3.994140625,
          -7.5703125,
          0.8017578125,
          -22.65625,
          0.09893798828125,
          -2.1328125,
          -1.2548828125,
          -1.5986328125,
          0.378662109375,
          0.970703125,
          -3.314453125,
          0.74267578125,
          -24.40625,
          -1.1904296875,
          2.845703125,
          -1.7978515625,
          -5.4609375,
          -3.95703125,
          9.75,
          -0.61474609375,
          -0.052978515625,
          -0.482666015625,
          0.043365478515625,
          -1.2548828125,
          0.12408447265625,
          0.0017642974853515625,
          0.09100341796875,
          -0.1282958984375,
          -0.040740966796875,
          -0.44970703125,
          0.003459930419921875,
          0.093994140625,
          0.95166015625,
          -1.681640625,
          -0.0264739990234375,
          -0.33203125,
          0.020355224609375,
          -0.0211944580078125,
          -0.01044464111328125,
          0.045562744140625,
          -0.09979248046875,
          0.1336669921875,
          0.04705810546875,
          -0.0355224609375,
          0.18017578125,
          0.05657958984375,
          -0.1114501953125,
          0.423828125,
          0.10150146484375,
          0.287109375,
          0.1849365234375,
          0.06787109375,
          0.191650390625,
          0.375732421875,
          -0.11798095703125,
          -0.46044921875,
          0.06854248046875,
          0.52490234375,
          0.01071929931640625,
          -0.37744140625,
          -0.10760498046875,
          -0.197021484375,
          -0.252197265625,
          0.027008056640625,
          -0.038482666015625,
          -2.685546875,
          0.10565185546875,
          0.2327880859375,
          -0.0193023681640625,
          -0.0263214111328125,
          0.047515869140625,
          0.51318359375,
          0.927734375,
          -0.021881103515625,
          0.810546875,
          0.1644287109375,
          -0.0775146484375,
          -0.08441162109375,
          0.059783935546875,
          0.5498046875,
          0.06097412109375,
          -0.27294921875,
          0.0302886962890625,
          -0.018829345703125,
          -2.119140625,
          0.6845703125,
          -0.031494140625,
          1.046875,
          0.92919921875,
          0.0012722015380859375,
          -0.02154541015625,
          -0.2939453125,
          0.2215576171875,
          1.1796875,
          0.30859375,
          -0.02227783203125,
          -0.51025390625,
          -0.1856689453125,
          1.7509765625,
          0.268310546875,
          -0.0714111328125,
          -1.2646484375,
          0.8818359375,
          -1.3759765625,
          -0.238037109375,
          0.0206451416015625,
          1.22265625,
          -0.56689453125,
          0.58203125,
          0.74609375,
          1.7734375,
          -1.4912109375,
          -0.25830078125,
          0.0013284683227539062,
          0.340087890625,
          0.50439453125,
          -0.53662109375,
          -0.047607421875,
          1.052734375,
          0.2220458984375,
          -0.403564453125,
          -0.08062744140625,
          0.054443359375,
          0.212158203125,
          -0.0185089111328125,
          -1.4462890625,
          -0.0282135009765625,
          0.145263671875,
          0.196533203125,
          0.0021915435791015625,
          0.056976318359375,
          -0.070556640625,
          -0.2420654296875,
          -0.1932373046875,
          -5.4140625,
          -0.231689453125,
          -0.69970703125,
          -0.55126953125,
          1.5146484375,
          -0.0836181640625,
          -0.67431640625,
          0.1976318359375,
          0.0001621246337890625,
          0.303955078125,
          0.2275390625,
          -0.0255889892578125,
          0.2325439453125,
          0.387451171875,
          -0.07647705078125,
          0.76416015625,
          -0.373291015625,
          0.82275390625,
          -0.57421875,
          -1.9248046875,
          -0.418212890625,
          0.08258056640625,
          -0.470947265625,
          -0.611328125,
          -0.0035190582275390625,
          -0.01456451416015625,
          -0.6435546875,
          -0.80517578125,
          -0.634765625,
          -0.6416015625,
          -0.286376953125,
          0.353759765625,
          -0.7734375,
          0.564453125,
          0.210205078125,
          -0.1383056640625,
          -0.80224609375,
          -0.337890625,
          -1.0029296875,
          -0.61328125,
          -0.49462890625,
          0.162841796875,
          -0.357177734375,
          -0.412841796875,
          -1.046875,
          -0.85400390625,
          0.1671142578125,
          -0.431884765625,
          -0.43310546875,
          -0.325927734375,
          0.9462890625,
          -1.068359375,
          0.29345703125,
          0.0506591796875,
          -1.15234375,
          1.5537109375,
          0.77734375,
          0.12322998046875,
          -0.1771240234375,
          -0.1611328125,
          0.39208984375,
          0.175048828125,
          -0.64697265625,
          -0.673828125,
          -1.3173828125,
          0.61962890625,
          0.30419921875,
          -0.4033203125,
          -2.376953125,
          -0.9326171875,
          0.077880859375,
          -0.41064453125,
          0.5458984375,
          -0.30078125,
          -0.01617431640625,
          -0.08953857421875,
          0.0029239654541015625,
          1.19921875,
          -0.2200927734375,
          0.146728515625,
          -1.3876953125,
          0.120849609375,
          0.91259765625,
          1.126953125,
          -0.4013671875,
          -0.184326171875,
          0.151123046875,
          3.44140625,
          0.00029277801513671875,
          1.8955078125,
          -0.1343994140625,
          0.0335693359375,
          0.82275390625,
          0.039947509765625,
          0.10321044921875,
          0.02593994140625,
          0.1309814453125,
          1.173828125,
          -0.75830078125,
          -1.2734375,
          2.1328125,
          -0.6943359375,
          -1.7265625,
          0.56396484375,
          1.1650390625,
          0.64404296875,
          -0.308349609375,
          -1.4775390625,
          1.1943359375,
          -0.3388671875,
          -0.7548828125,
          0.1708984375,
          0.29931640625,
          0.139404296875,
          -1.001953125,
          -0.14501953125,
          0.9970703125,
          -0.1318359375,
          0.125732421875,
          -0.99560546875,
          -0.02783203125,
          -0.9033203125,
          0.07891845703125,
          0.0060272216796875,
          -0.341552734375,
          0.0325927734375,
          -0.286865234375,
          -0.346435546875,
          0.375732421875,
          0.07672119140625,
          -3.16796875,
          0.376708984375,
          0.67138671875,
          -0.202392578125,
          0.247802734375,
          -0.84619140625,
          -0.6025390625,
          0.2364501953125,
          -0.0235595703125,
          0.420166015625,
          -0.3115234375,
          -0.80615234375,
          -13.625,
          4.22265625,
          1.798828125,
          -0.71435546875,
          1.4130859375,
          -8.5,
          -1.7119140625,
          -0.1728515625,
          0.07568359375,
          -2.61328125,
          0.138916015625,
          1.478515625,
          -0.11090087890625,
          0.050079345703125,
          0.0457763671875,
          0.1724853515625,
          0.546875,
          -0.9931640625,
          -0.87841796875,
          -5.59765625,
          -18.875,
          -0.07073974609375,
          -5.91796875,
          0.201904296875,
          0.1990966796875,
          2.337890625,
          -0.86279296875,
          -0.387939453125,
          -0.0177764892578125,
          0.413818359375,
          -1.5322265625,
          0.90185546875,
          0.01515960693359375,
          -0.037384033203125,
          -0.1982421875,
          -0.1629638671875,
          0.2374267578125,
          -0.447265625,
          -0.2286376953125,
          -0.2081298828125,
          0.152099609375,
          -0.338623046875,
          -0.06085205078125,
          0.1986083984375,
          -0.0221710205078125,
          0.040069580078125,
          -0.1092529296875,
          -0.447021484375,
          0.035400390625,
          -0.21484375,
          0.361328125,
          -0.126708984375,
          -0.1995849609375,
          -0.12646484375,
          -0.1873779296875,
          0.040618896484375,
          -0.2431640625,
          -0.135498046875,
          -0.10345458984375,
          -0.05462646484375,
          0.407470703125,
          -0.353271484375,
          -0.3671875,
          -0.60009765625,
          0.11224365234375,
          0.329345703125,
          -0.0159454345703125,
          -1.787109375,
          0.10894775390625,
          0.61767578125,
          0.34814453125,
          0.23974609375,
          -0.086669921875,
          -0.435546875,
          -0.22607421875,
          -0.11236572265625,
          0.52978515625,
          -0.0112762451171875,
          -0.059417724609375,
          -0.5048828125,
          -0.158935546875,
          -0.32958984375,
          0.1083984375,
          0.337158203125,
          0.60986328125,
          -0.52490234375,
          -0.1334228515625,
          -1.201171875,
          -0.6650390625,
          -0.235595703125,
          -0.331298828125,
          3.45703125,
          -0.359619140625,
          -0.298095703125,
          -0.192626953125,
          -0.08056640625,
          -0.1109619140625,
          -0.457763671875,
          -0.1683349609375,
          -0.1416015625,
          0.0596923828125,
          -0.6181640625,
          -0.0638427734375,
          -0.150146484375,
          0.263427734375,
          -0.06597900390625,
          -0.14697265625,
          0.2120361328125,
          -0.1221923828125,
          -0.039337158203125,
          -0.1575927734375,
          -0.2474365234375,
          -0.10809326171875,
          0.1478271484375,
          0.30029296875,
          -0.34521484375,
          -0.03436279296875,
          -0.1142578125,
          0.023406982421875,
          0.289306640625,
          -0.23779296875,
          -0.35595703125,
          -0.1712646484375,
          0.0574951171875,
          0.114013671875,
          -0.220458984375,
          -0.252197265625,
          -0.20556640625,
          0.254638671875,
          -20.53125,
          -0.0206298828125,
          -1.4189453125,
          1.021484375,
          -0.64453125,
          0.0242462158203125,
          -32.28125,
          -4.3515625,
          -0.411865234375,
          0.3974609375,
          -5.6328125,
          0.50244140625,
          3.2265625,
          -0.1431884765625,
          -0.371826171875,
          -0.6259765625,
          -0.336181640625,
          0.583984375,
          -0.427734375,
          0.73291015625,
          -3.8046875,
          -0.8359375,
          -0.406494140625,
          -19.40625,
          -2.958984375,
          0.57763671875,
          2.380859375,
          -0.432861328125,
          0.1688232421875,
          1.8466796875,
          -0.317626953125,
          -1.0283203125,
          -0.104736328125,
          0.09039306640625,
          -0.66796875,
          -0.83056640625,
          -2.75,
          0.42041015625,
          0.751953125,
          -0.46435546875,
          -1.0849609375,
          0.435302734375,
          -0.150634765625,
          -0.290283203125,
          -0.01390838623046875,
          0.548828125,
          0.1546630859375,
          -0.64501953125,
          2.306640625,
          -0.29833984375,
          -0.9052734375,
          -0.32080078125,
          -3.318359375,
          -0.21240234375,
          -0.06201171875,
          0.2335205078125,
          -0.16162109375,
          1.0146484375,
          -1.6845703125,
          0.0224456787109375,
          -0.5712890625,
          0.412841796875,
          -3.3046875,
          -0.052642822265625,
          -1.6923828125,
          -0.458984375,
          0.5849609375,
          -1.423828125,
          -3.447265625,
          0.142578125,
          0.1455078125,
          -1.4892578125,
          -0.3193359375,
          -0.12042236328125,
          -0.32275390625,
          0.38427734375,
          -88.5625,
          0.978515625,
          0.05120849609375,
          1.03515625,
          -0.227294921875,
          2.4140625,
          1.77734375,
          0.286376953125,
          0.049285888671875,
          -0.2286376953125,
          -0.96240234375,
          -0.1893310546875,
          -0.21484375,
          -1.3759765625,
          -11.3203125,
          0.40478515625,
          -0.0576171875,
          0.2705078125,
          -0.9599609375,
          -9.9921875,
          4.35546875,
          0.1436767578125,
          -0.224853515625,
          0.1964111328125,
          -7.27734375,
          0.3388671875,
          -60.90625,
          -0.035308837890625,
          -18.5625,
          -4.8203125,
          2.349609375,
          0.349609375,
          0.354248046875,
          -0.07037353515625,
          0.390869140625,
          -2.611328125,
          2.357421875,
          -0.39501953125,
          0.19482421875,
          0.546875,
          -0.3662109375,
          0.732421875,
          0.0806884765625,
          -0.346923828125,
          0.14013671875,
          -0.0157928466796875,
          -0.5732421875,
          0.99169921875,
          -0.1917724609375,
          -5.08203125,
          -9.2734375,
          0.6357421875,
          -1.931640625,
          -0.169189453125,
          -0.97802734375,
          -6.73046875,
          -1.1640625,
          -0.489013671875,
          -0.2259521484375,
          -0.08709716796875,
          0.9443359375,
          -0.10009765625,
          -0.0703125,
          2.037109375,
          0.42724609375,
          0.876953125,
          -0.12249755859375,
          -0.1978759765625,
          -0.7666015625,
          0.07196044921875,
          -5.3359375,
          0.1710205078125,
          0.19189453125,
          0.517578125,
          0.350341796875,
          0.1795654296875,
          2.22265625,
          -0.22265625,
          0.39794921875,
          -0.283203125,
          0.3271484375,
          -0.116943359375,
          -0.180419921875
        ]
      },
      {
        "bias": [
          0.35400390625,
          -0.28759765625,
          -4.46875,
          2.158203125,
          -0.50732421875,
          -0.224365234375,
          -0.161865234375,
          0.004711151123046875,
          0.293701171875,
          -1.201171875,
          -0.323974609375,
          -0.76123046875,
          0.043212890625,
          0.08172607421875,
          3.5,
          0.26904296875,
          -0.29638671875,
          -2.3515625,
          -0.0556640625,
          -0.21240234375,
          0.299560546875,
          0.27734375,
          0.76416015625,
          -0.7392578125,
          -0.87548828125,
          -5.0,
          -0.2330322265625,
          -0.4287109375,
          -0.193115234375,
          0.673828125,
          -0.466552734375,
          -2.365234375
        ],
        "in_features": 32,
        "out_features": 32,
        "weights": [
          -0.00040721893310546875,
          -0.344482421875,
          0.10089111328125,
          -0.6982421875,
          0.1549072265625,
          -0.07501220703125,
          -1.7958984375,
          -0.2384033203125,
          0.0751953125,
          0.1536865234375,
          0.58251953125,
          -0.7041015625,
          -2.759765625,
          0.00666046142578125,
          0.1353759765625,
          -0.141845703125,
          -0.480224609375,
          -0.275146484375,
          -1.18359375,
          -0.60009765625,
          0.483642578125,
          -0.6162109375,
          -0.0772705078125,
          -0.1697998046875,
          0.1070556640625,
          -0.94580078125,
          0.0296478271484375,
          -0.5703125,
          -0.6396484375,
          0.51123046875,
          -0.07012939453125,
          -0.93701171875,
          -0.006069183349609375,
          -0.008026123046875,
          0.039794921875,
          -0.042266845703125,
          -0.46630859375,
          0.080810546875,
          0.07672119140625,
          0.09515380859375,
          0.0284576416015625,
          -0.034881591796875,
          0.0026187896728515625,
          -0.001117706298828125,
          0.10186767578125,
          -0.18505859375,
          0.045196533203125,
          -0.0230712890625,
          0.0015516281127929688,
          0.00432586669921875,
          0.261962890625,
          -0.32861328125,
          -0.0102386474609375,
          0.0211181640625,
          -0.057342529296875,
          1.400390625,
          -0.41015625,
          -0.2274169921875,
          -0.410888671875,
          -10.765625,
          -0.00997161865234375,
          0.035675048828125,
          0.012969970703125,
          0.1961669921875,
          -0.80712890625,
          -0.2193603515625,
          2.1328125,
          -1.3359375,
          1.0439453125,
          -0.2095947265625,
          -11.2890625,
          -0.051788330078125,
          0.00608062744140625,
          -1.453125,
          -0.2078857421875,
          -0.216552734375,
          -0.69287109375,
          0.43603515625,
          -2.857421875,
          -0.98486328125,
          0.267822265625,
          -0.100830078125,
          -0.1983642578125,
          -0.6708984375,
          -0.79736328125,
          -0.0528564453125,
          -0.3134765625,
          -0.33837890625,
          -0.5283203125,
          -0.006366729736328125,
          -0.029693603515625,
          -5.76953125,
          -0.181396484375,
          -1.625,
          -0.06719970703125,
          -0.320556640625,
          -1.3818359375,
          -0.01446533203125,
          -1.5107421875,
          1.216796875,
          -7.33203125,
          -0.257080078125,
          0.0755615234375,
          0.12371826171875,
          0.1268310546875,
          -0.169921875,
          -0.04437255859375,
          -5.5,
          -3.755859375,
          0.0897216796875,
          -2.49609375,
          -38.875,
          -12.3359375,
          -0.02508544921875,
          0.006175994873046875,
          -0.04888916015625,
          -3.16015625,
          -0.09674072265625,
          0.003963470458984375,
          -0.0252685546875,
          0.060211181640625,
          -0.0168609619140625,
          0.0570068359375,
          -3.4765625,
          -1.78515625,
          -4.26171875,
          -0.233154296875,
          0.00032401084899902344,
          -0.572265625,
          0.0051727294921875,
          -9.03125,
          -0.01422882080078125,
          0.0670166015625,
          -0.08868408203125,
          -0.5263671875,
          -0.040863037109375,
          -0.40869140625,
          0.1839599609375,
          -0.27001953125,
          -0.4091796875,
          0.1265869140625,
          -0.1739501953125,
          -0.52783203125,
          0.07879638671875,
          -0.038848876953125,
          0.5751953125,
          -0.306396484375,
          -0.192626953125,
          0.2998046875,
          -0.003509521484375,
          0.0210113525390625,
          -12.3515625,
          -0.3203125,
          0.189453125,
          -0.208251953125,
          -2.228515625,
          0.01123809814453125,
          -0.10870361328125,
          -20.125,
          0.0960693359375,
          -0.246826171875,
          0.54296875,
          0.01959228515625,
          -0.044403076171875,
          -0.263427734375,
          0.063232421875,
          -0.03631591796875,
          0.168701171875,
          0.07470703125,
          -0.029510498046875,
          0.0888671875,
          0.12078857421875,
          0.125732421875,
          0.00316619873046875,
          -0.013641357421875,
          -0.0291290283203125,
          0.0030841827392578125,
          0.166015625,
          -0.09466552734375,
          0.21337890625,
          0.07281494140625,
          -0.0535888671875,
          -0.1226806640625,
          -0.1971435546875,
          -0.35009765625,
          -0.0258026123046875,
          0.1844482421875,
          -0.0126190185546875,
          0.08782958984375,
          0.189453125,
          -0.005115509033203125,
          -0.139404296875,
          -0.18310546875,
          -0.132568359375,
          -13.71875,
          -0.1546630859375,
          -6.48046875,
          -0.035186767578125,
          0.259765625,
          0.223876953125,
          -0.388427734375,
          0.294189453125,
          -0.640625,
          0.207763671875,
          -6.55078125,
          0.125,
          0.153564453125,
          0.283203125,
          0.0850830078125,
          0.16845703125,
          0.287841796875,
          -0.214599609375,
          0.62255859375,
          -0.060760498046875,
          -6.26953125,
          -3.095703125,
          -0.494140625,
          -0.1170654296875,
          0.2041015625,
          -1.8251953125,
          -0.1253662109375,
          -0.418701171875,
          -0.16455078125,
          -0.42138671875,
          -5.5390625,
          -0.0172271728515625,
          -0.0670166015625,
          0.212158203125,
          -0.314208984375,
          -0.04644775390625,
          -0.52294921875,
          0.050018310546875,
          -0.0301666259765625,
          0.08746337890625,
          0.0323486328125,
          0.1182861328125,
          0.0745849609375,
          -0.2244873046875,
          1.9384765625,
          -0.321044921875,
          -0.1534423828125,
          0.015625,
          -0.055145263671875,
          0.018890380859375,
          -0.03009033203125,
          0.00896453857421875,
          0.048583984375,
          -0.203369140625,
          -0.302001953125,
          -0.096435546875,
          -0.01308441162109375,
          -1.1943359375,
          -0.0272674560546875,
          -0.00244140625,
          -0.89013671875,
          -0.123779296875,
          -0.00891876220703125,
          -0.311279296875,
          -0.0625,
          -0.07098388671875,
          -2.859375,
          -0.21533203125,
          0.043487548828125,
          0.327392578125,
          0.0088958740234375,
          0.1744384765625,
          -0.038055419921875,
          0.2406005859375,
          0.1597900390625,
          -0.2261962890625,
          -1.2490234375,
          0.048675537109375,
          -0.5029296875,
          0.0028438568115234375,
          -0.55517578125,
          -0.324462890625,
          -0.04376220703125,
          -5.65625,
          0.07659912109375,
          -3.646484375,
          -0.25927734375,
          0.469970703125,
          0.4423828125,
          -1.275390625,
          -0.0162200927734375,
          0.004962921142578125,
          -0.1868896484375,
          -0.032958984375,
          5.22265625,
          -0.10162353515625,
          1.2587890625,
          -0.7333984375,
          -1.4736328125,
          -0.0562744140625,
          0.02362060546875,
          -0.347900390625,
          0.5126953125,
          -0.265869140625,
          -0.5419921875,
          -0.09002685546875,
          -0.01122283935546875,
          -0.2091064453125,
          -6.09765625,
          -0.430908203125,
          -0.2091064453125,
          0.056060791015625,
          0.059234619140625,
          0.0307769775390625,
          -0.046539306640625,
          0.037689208984375,
          0.0472412109375,
          -0.015838623046875,
          -0.0031585693359375,
          -0.034942626953125,
          0.15478515625,
          0.07928466796875,
          0.57421875,
          0.814453125,
          -0.333251953125,
          0.007747650146484375,
          -0.3701171875,
          -3.392578125,
          -11.0390625,
          -0.638671875,
          -1.0078125,
          -8.2734375,
          1.265625,
          -0.06365966796875,
          -0.7880859375,
          -2.642578125,
          -4.6328125,
          0.66162109375,
          4.25,
          -0.401611328125,
          -1.6923828125,
          -12.7890625,
          -1.99609375,
          -4.97265625,
          -17.4375,
          -6.21484375,
          -0.873046875,
          -12.1953125,
          -1.98828125,
          -0.50830078125,
          0.39111328125,
          -2.314453125,
          -0.47802734375,
          -3.490234375,
          -5.0546875,
          0.57275390625,
          -4.3203125,
          -8.1171875,
          -0.01369476318359375,
          -0.05523681640625,
          0.0711669921875,
          0.038909912109375,
          -0.07403564453125,
          0.75,
          0.12237548828125,
          0.58544921875,
          -0.00835418701171875,
          -0.163818359375,
          0.2313232421875,
          -0.268798828125,
          -0.6025390625,
          -0.352783203125,
          -0.253173828125,
          -0.197998046875,
          -0.1083984375,
          0.32421875,
          -0.08905029296875,
          0.63232421875,
          0.241455078125,
          -0.039703369140625,
          0.1541748046875,
          -29.015625,
          0.24169921875,
          -0.1383056640625,
          -0.26806640625,
          -0.365234375,
          -0.011505126953125,
          0.331787109375,
          -0.0123138427734375,
          0.019378662109375,
          0.005558013916015625,
          -0.186279296875,
          -0.005207061767578125,
          -0.11920166015625,
          -1.203125,
          -0.002208709716796875,
          0.025848388671875,
          -0.291748046875,
          0.06903076171875,
          -0.026336669921875,
          0.257080078125,
          0.26171875,
          -0.07470703125,
          0.0290069580078125,
          -1.5634765625,
          -0.0567626953125,
          -0.291015625,
          0.2418212890625,
          0.469970703125,
          0.93310546875,
          -0.15185546875,
          -51.75,
          -0.0460205078125,
          -1.0107421875,
          0.07952880859375,
          1.5048828125,
          0.10467529296875,
          -39.03125,
          0.06402587890625,
          -0.316162109375,
          -0.144775390625,
          -0.06536865234375,
          -3.208984375,
          -0.54345703125,
          -7.19140625,
          -1.591796875,
          -1.25,
          -3.859375,
          -1.0185546875,
          -0.1563720703125,
          -0.81005859375,
          -2.521484375,
          0.052398681640625,
          -1.03515625,
          -0.95947265625,
          0.06817626953125,
          0.78564453125,
          -1.783203125,
          -0.449462890625,
          -0.408447265625,
          -0.65673828125,
          1.302734375,
          -0.5751953125,
          -5.734375,
          -0.2281494140625,
          -0.223876953125,
          0.328857421875,
          -0.30126953125,
          0.6259765625,
          -0.60205078125,
          0.047393798828125,
          -12.890625,
          0.71240234375,
          0.00672149658203125,
          -0.09515380859375,
          -1.3505859375,
          -2.40625,
          0.50390625,
          -2.521484375,
          0.53271484375,
          -6.48828125,
          -0.10455322265625,
          -1.2802734375,
          0.051666259765625,
          -1.7236328125,
          -13.5546875,
          -10.4375,
          0.77734375,
          -2.48046875,
          -37.90625,
          -16.234375,
          -0.0640869140625,
          0.26220703125,
          0.08984375,
          -3.27734375,
          -17.390625,
          -1.2568359375,
          -0.9072265625,
          0.57177734375,
          -1.0,
          0.11279296875,
          -32.9375,
          1.123046875,
          -0.01010894775390625,
          0.09442138671875,
          0.236572265625,
          0.1536865234375,
          0.0272369384765625,
          0.0172882080078125,
          0.1285400390625,
          0.029876708984375,
          0.0089263916015625,
          -0.2203369140625,
          0.102783203125,
          -0.11083984375,
          0.41845703125,
          -0.69091796875,
          -0.0252532958984375,
          0.0264739990234375,
          -0.2149658203125,
          0.1611328125,
          -0.159912109375,
          0.423095703125,
          -0.005664825439453125,
          0.0015964508056640625,
          0.30517578125,
          -0.01428985595703125,
          -0.01374053955078125,
          0.005306243896484375,
          0.00328826904296875,
          0.40625,
          0.1807861328125,
          0.1361083984375,
          0.4560546875,
          -0.00037980079650878906,
          0.0157928466796875,
          -0.054351806640625,
          -0.01922607421875,
          -0.0249176025390625,
          -0.0325927734375,
          0.013397216796875,
          0.105224609375,
          -0.0645751953125,
          -0.0029296875,
          0.49462890625,
          -0.087646484375,
          0.151123046875,
          -0.0804443359375,
          0.81787109375,
          0.01485443115234375,
          0.01218414306640625,
          -0.31005859375,
          -0.2315673828125,
          -0.02178955078125,
          -0.0083465576171875,
          -0.0008873939514160156,
          -0.009490966796875,
          -0.1480712890625,
          0.01776123046875,
          0.0131378173828125,
          0.034210205078125,
          0.00548553466796875,
          0.3525390625,
          -0.11248779296875,
          0.2919921875,
          -0.056671142578125,
          0.00107574462890625,
          -0.0025272369384765625,
          -0.1446533203125,
          0.022796630859375,
          -0.060455322265625,
          0.3583984375,
          0.068359375,
          -0.2431640625,
          -1.9150390625,
          0.22412109375,
          0.1778564453125,
          -0.25927734375,
          -0.169189453125,
          -0.05133056640625,
          -0.9443359375,
          -0.85986328125,
          -0.21826171875,
          0.19921875,
          -0.336181640625,
          0.12353515625,
          -9.6484375,
          -0.11553955078125,
          2.0703125,
          -0.20703125,
          -1.6826171875,
          -8.46875,
          -0.313720703125,
          -1.1787109375,
          0.1497802734375,
          0.3271484375,
          -0.250244140625,
          -8.8671875,
          0.353515625,
          -7.15234375,
          -0.0667724609375,
          -0.32568359375,
          0.23388671875,
          -0.09796142578125,
          -0.035491943359375,
          -0.021514892578125,
          -1.166015625,
          -0.0511474609375,
          -0.036651611328125,
          0.52099609375,
          -0.07269287109375,
          -0.0025386810302734375,
          -0.155517578125,
          -0.0621337890625,
          0.1019287109375,
          0.00176239013671875,
          -0.1080322265625,
          0.01117706298828125,
          -0.09564208984375,
          -0.1978759765625,
          0.169921875,
          0.063720703125,
          0.194091796875,
          -15.546875,
          0.822265625,
          0.2017822265625,
          -0.309814453125,
          -0.2022705078125,
          0.299560546875,
          -13.1328125,
          0.00667572021484375,
          -0.1180419921875,
          0.055419921875,
          0.1729736328125,
          0.07403564453125,
          -0.32275390625,
          -0.48681640625,
          -0.47607421875,
          -0.281005859375,
          -0.53076171875,
          -0.303955078125,
          -0.08538818359375,
          -0.138427734375,
          -0.7001953125,
          -0.10723876953125,
          -0.1549072265625,
          -0.332763671875,
          0.022308349609375,
          -0.250244140625,
          0.08001708984375,
          -0.17626953125,
          -0.2626953125,
          -0.31689453125,
          -0.0291595458984375,
          -0.1678466796875,
          -0.061279296875,
          -0.35693359375,
          -0.09527587890625,
          -0.302978515625,
          0.052459716796875,
          -0.0055694580078125,
          -0.79296875,
          -0.08074951171875,
          -0.033935546875,
          -0.05194091796875,
          -0.24072265625,
          -0.79052734375,
          0.0450439453125,
          -0.03887939453125,
          -0.0550537109375,
          0.0093841552734375,
          0.0007071495056152344,
          0.00994873046875,
          0.103759765625,
          -0.22216796875,
          -0.033538818359375,
          -0.00254058837890625,
          -0.003124237060546875,
          -0.006763458251953125,
          -0.05523681640625,
          -0.288330078125,
          0.049530029296875,
          -0.0275115966796875,
          -0.00600433349609375,
          -0.013427734375,
          -0.2154541015625,
          0.00733184814453125,
          0.0020580291748046875,
          -0.03179931640625,
          0.003582000732421875,
          -0.1485595703125,
          0.003498077392578125,
          -0.1876220703125,
          -0.00014603137969970703,
          -0.0004172325134277344,
          0.004688262939453125,
          -1.7802734375,
          -0.004177093505859375,
          -44.0,
          -0.0095977783203125,
          -0.09747314453125,
          0.64404296875,
          0.057373046875,
          -0.00620269775390625,
          0.1448974609375,
          0.06695556640625,
          0.01727294921875,
          -0.1121826171875,
          -0.65185546875,
          -0.01043701171875,
          -0.0098419189453125,
          -0.08135986328125,
          -0.1671142578125,
          0.0120086669921875,
          -0.042724609375,
          -0.0026416778564453125,
          -0.0153350830078125,
          0.198486328125,
          0.01546478271484375,
          -0.00777435302734375,
          0.00372314453125,
          0.0013790130615234375,
          0.0252532958984375,
          -0.045928955078125,
          0.127197265625,
          -0.022552490234375,
          0.00457000732421875,
          0.0134429931640625,
          -0.191162109375,
          0.007022857666015625,
          0.0238494873046875,
          -2.3515625,
          0.1953125,
          0.272705078125,
          -0.919921875,
          -0.11895751953125,
          0.1138916015625,
          -0.203857421875,
          -0.08795166015625,
          0.0401611328125,
          -0.283447265625,
          -0.373291015625,
          -0.400390625,
          0.25146484375,
          -3.27734375,
          0.005237579345703125,
          -1.0576171875,
          -0.37060546875,
          -0.105712890625,
          -0.86962890625,
          -0.183837890625,
          0.374755859375,
          -0.62109375,
          -0.270751953125,
          0.384521484375,
          0.087158203125,
          0.2039794921875,
          -3.587890625,
          -0.275390625,
          0.275146484375,
          0.06298828125,
          -0.055938720703125,
          -0.481201171875,
          -0.76318359375,
          -0.325439453125,
          -0.521484375,
          -0.15673828125,
          0.0838623046875,
          -0.28564453125,
          -0.1175537109375,
          -0.74267578125,
          -0.36328125,
          -0.453369140625,
          -0.02947998046875,
          -0.12054443359375,
          -0.609375,
          -0.080322265625,
          0.209716796875,
          -0.018218994140625,
          -0.564453125,
          -0.4951171875,
          0.0240936279296875,
          -0.2435302734375,
          -0.148193359375,
          -0.962890625,
          -0.393310546875,
          -0.262939453125,
          -0.38037109375,
          -0.30322265625,
          -0.07342529296875,
          -0.03399658203125,
          0.02435302734375,
          0.06298828125,
          0.1630859375,
          -1.642578125,
          -0.1949462890625,
          0.340576171875,
          -0.44873046875,
          -0.0196990966796875,
          0.0197906494140625,
          0.01084136962890625,
          0.060394287109375,
          0.943359375,
          0.9482421875,
          0.2578125,
          0.05615234375,
          0.0302276611328125,
          0.07830810546875,
          0.1624755859375,
          0.2303466796875,
          0.046295166015625,
          0.0267791748046875,
          0.0298309326171875,
          -0.0178375244140625,
          -0.01096343994140625,
          0.0413818359375,
          0.05328369140625,
          0.03216552734375,
          0.1192626953125,
          0.0005168914794921875,
          -0.5361328125,
          -0.07061767578125,
          -0.006702423095703125,
          -0.00817108154296875,
          0.427734375,
          -0.0156707763671875,
          0.0760498046875,
          -0.75341796875,
          -0.93017578125,
          -2.21484375,
          -2.400390625,
          1.6328125,
          0.72119140625,
          -0.0379638671875,
          -1.3505859375,
          -0.93310546875,
          -0.55126953125,
          -1.068359375,
          2.001953125,
          0.223388671875,
          -2.154296875,
          -6.0,
          -5.19140625,
          -0.9765625,
          -0.91064453125,
          -0.82470703125,
          -1.0634765625,
          -4.52734375,
          -1.1787109375,
          0.75830078125,
          0.39697265625,
          -1.4736328125,
          -0.1629638671875,
          -1.53515625,
          -3.734375,
          -0.17578125,
          0.853515625,
          1.083984375,
          0.002590179443359375,
          -0.1573486328125,
          -0.067138671875,
          -0.130615234375,
          -0.54345703125,
          -0.1640625,
          0.01532745361328125,
          -0.42626953125,
          -0.12286376953125,
          -0.01296234130859375,
          0.365234375,
          0.08197021484375,
          0.13232421875,
          0.140625,
          0.18994140625,
          -0.0297698974609375,
          0.058746337890625,
          0.262451171875,
          0.724609375,
          -0.359375,
          0.1300048828125,
          -2.97265625,
          0.2431640625,
          -1.17578125,
          0.244384765625,
          -0.5458984375,
          -0.160400390625,
          -1.60546875,
          -0.1114501953125,
          -0.038299560546875,
          -0.0928955078125,
          -0.061004638671875,
          -0.431884765625,
          -0.487548828125,
          -0.11572265625,
          0.07666015625,
          -0.26416015625,
          -0.2286376953125,
          0.1461181640625,
          0.186767578125,
          -0.2362060546875,
          -0.349609375,
          -0.3330078125,
          -0.23193359375,
          -0.521484375,
          0.042327880859375,
          -0.517578125,
          -0.303466796875,
          0.1263427734375,
          -0.293701171875,
          -0.4765625,
          0.110107421875,
          -0.62255859375,
          -0.148681640625,
          -0.6796875,
          -0.078857421875,
          -0.2470703125,
          -0.458984375,
          -0.1363525390625,
          0.1446533203125,
          -0.175537109375,
          -0.0296173095703125,
          -0.67431640625,
          -0.1878662109375,
          -0.104736328125,
          -0.15185546875,
          -0.1639404296875,
          -0.059783935546875,
          -0.0386962890625,
          -0.27490234375,
          -0.10595703125,
          0.0310821533203125,
          -0.5126953125,
          -0.155517578125,
          0.0249481201171875,
          -0.286376953125,
          -0.125732421875,
          0.1171875,
          -0.0220489501953125,
          -0.284423828125,
          -0.1856689453125,
          0.006282806396484375,
          -0.470703125,
          0.1202392578125,
          -0.114990234375,
          -0.1600341796875,
          -0.003246307373046875,
          -0.10797119140625,
          0.2220458984375,
          -0.354248046875,
          -0.324462890625,
          0.08709716796875,
          -0.2900390625,
          0.06158447265625,
          -0.19189453125,
          -0.244873046875,
          -0.05364990234375,
          -0.30078125,
          0.06414794921875,
          0.07421875,
          -0.97314453125,
          -0.1121826171875,
          -0.0038051605224609375,
          0.251953125,
          0.158203125,
          0.043212890625,
          0.3017578125,
          0.481201171875,
          0.035675048828125,
          0.50634765625,
          -0.451416015625,
          -0.080322265625,
          -0.341796875,
          0.052215576171875,
          -0.82421875,
          -0.0596923828125,
          -0.170654296875,
          -0.154052734375,
          -0.01348114013671875,
          1.2021484375,
          -0.15625,
          -0.3271484375,
          -0.45556640625,
          -1.501953125,
          -0.11285400390625,
          0.07452392578125,
          -0.0679931640625,
          -0.016815185546875,
          -0.0035572052001953125,
          -0.027557373046875,
          -0.420654296875,
          -0.0762939453125,
          -0.184814453125,
          0.038330078125,
          -0.008697509765625,
          0.12457275390625,
          -0.546875,
          0.076904296875,
          0.0858154296875,
          0.063232421875,
          -0.1588134765625,
          -0.343994140625,
          -0.240234375,
          0.01221466064453125,
          -0.1739501953125,
          0.193115234375,
          -6.8515625,
          -0.56005859375,
          -0.25927734375,
          0.0986328125,
          0.120849609375,
          -14.140625,
          0.26708984375,
          0.448974609375,
          0.408203125,
          -0.014495849609375,
          0.54541015625,
          -0.80078125,
          -2.326171875,
          0.1807861328125,
          -2.90625,
          -0.259765625,
          -4.00390625,
          3.228515625,
          -2.5546875,
          -0.88232421875,
          -0.03643798828125,
          -0.0911865234375,
          1.40625,
          -1.0556640625,
          0.78125,
          -11.1953125,
          -2.31640625,
          -0.2237548828125,
          -1.537109375,
          -51.84375,
          -13.109375,
          0.27783203125,
          0.0222320556640625,
          -0.36572265625,
          -7.140625,
          0.058135986328125,
          0.138916015625,
          -0.0115203857421875,
          -0.2578125,
          0.08099365234375,
          -0.275390625,
          -6.5,
          -2.119140625,
          -3.0,
          -0.027587890625,
          -0.0111541748046875
        ]
      },
      {
        "bias": [
          -1.294921875,
          -1.212890625,
          -6.63671875,
          -4.97265625
        ],
        "in_features": 32,
        "out_features": 4,
        "weights": [
          -0.00659942626953125,
          -0.006153106689453125,
          0.06689453125,
          0.00637054443359375,
          0.0087127685546875,
          -0.005245208740234375,
          -0.0030345916748046875,
          0.1087646484375,
          0.00020122528076171875,
          0.0033779144287109375,
          -0.230224609375,
          -0.00171661376953125,
          -0.01519775390625,
          0.1458740234375,
          -0.182861328125,
          0.320556640625,
          -0.271240234375,
          -0.0013980865478515625,
          0.00322723388671875,
          -0.0726318359375,
          0.00171661376953125,
          0.04058837890625,
          0.00421142578125,
          -0.51953125,
          0.0117340087890625,
          0.3037109375,
          0.00634765625,
          0.2037353515625,
          -0.08856201171875,
          0.0067291259765625,
          -0.0020694732666015625,
          0.0015306472778320312,
          0.0364990234375,
          0.260986328125,
          -0.1378173828125,
          -0.0006737709045410156,
          -0.061279296875,
          -0.27978515625,
          -0.0285491943359375,
          0.00939178466796875,
          0.062164306640625,
          -0.01105499267578125,
          -0.55810546875,
          -0.03399658203125,
          0.09307861328125,
          -0.144775390625,
          0.200439453125,
          0.0024890899658203125,
          0.00960540771484375,
          0.07696533203125,
          0.29541015625,
          -0.1348876953125,
          0.002986907958984375,
          -0.0010890960693359375,
          0.06695556640625,
          -0.23095703125,
          0.009185791015625,
          0.16357421875,
          0.1380615234375,
          0.11590576171875,
          -0.054534912109375,
          0.06976318359375,
          -0.040557861328125,
          -0.0008149147033691406,
          -2.623046875,
          -0.047576904296875,
          -1.0302734375,
          -0.32568359375,
          -0.003406524658203125,
          -0.0226898193359375,
          0.00890350341796875,
          -0.00855255126953125,
          -0.035858154296875,
          0.116455078125,
          -0.198974609375,
          0.0035858154296875,
          -0.04095458984375,
          -1.302734375,
          0.10516357421875,
          0.02880859375,
          -0.452880859375,
          0.0128326416015625,
          0.09039306640625,
          0.0281829833984375,
          -2.7734375,
          1.474609375,
          0.006671905517578125,
          0.191650390625,
          0.44970703125,
          -0.28759765625,
          -0.035247802734375,
          -0.56640625,
          0.2265625,
          0.00835418701171875,
          -0.0078125,
          0.0841064453125,
          0.02874755859375,
          -0.035064697265625,
          0.0163421630859375,
          0.404541015625,
          -0.037689208984375,
          0.0013952255249023438,
          0.00910186767578125,
          -0.0207672119140625,
          -0.039398193359375,
          0.428955078125,
          -0.02301025390625,
          0.01494598388671875,
          -0.0022449493408203125,
          -0.1416015625,
          -0.10357666015625,
          -0.045867919921875,
          0.034393310546875,
          0.01511383056640625,
          0.081298828125,
          0.23974609375,
          -5.12890625,
          -0.14501953125,
          -0.004993438720703125,
          -0.333740234375,
          0.51318359375,
          -0.3369140625,
          -0.037322998046875,
          -0.420654296875,
          -0.24365234375,
          0.0240936279296875,
          -0.07904052734375,
          0.1844482421875
        ]
      }
    ],
    "output": 4
  }
}