{
  "model": {
    "input": 30,
    "layers": [
      {
        "bias": [
          -0.061737060546875,
          0.100830078125,
          0.04534912109375,
          0.02532958984375,
          -0.054718017578125,
          -0.057952880859375,
          -0.05889892578125,
          0.07110595703125,
          0.1033935546875,
          0.0802001953125,
          -0.05841064453125,
          -0.0286865234375,
          -0.06292724609375,
          -0.06988525390625,
          0.0899658203125,
          -0.060577392578125,
          -0.058258056640625,
          0.041015625,
          -0.059234619140625,
          0.12115478515625,
          -0.0762939453125,
          -0.0670166015625,
          -0.04296875,
          -0.03839111328125,
          0.10296630859375,
          -0.06982421875,
          0.04791259765625,
          0.05792236328125,
          0.0633544921875,
          -0.059600830078125,
          -0.025665283203125,
          0.11328125
        ],
        "in_features": 30,
        "out_features": 32,
        "type": "linear",
        "weights": [
          -0.0015859603881835938,
          0.280517578125,
          -0.164794921875,
          -0.419677734375,
          0.09857177734375,
          0.1949462890625,
          0.245361328125,
          0.3515625,
          -0.176025390625,
          -0.26953125,
          0.09466552734375,
          0.1304931640625,
          0.38671875,
          0.53369140625,
          -0.299560546875,
          -0.38720703125,
          -0.2333984375,
          0.26611328125,
          -0.3583984375,
          -0.26220703125,
          -0.134765625,
          0.1085205078125,
          -0.05023193359375,
          -0.0218505859375,
          -0.041778564453125,
          0.1683349609375,
          -0.33740234375,
          0.7109375,
          0.476318359375,
          -0.65478515625,
          -0.253173828125,
          0.3779296875,
          0.105712890625,
          0.03643798828125,
          0.142822265625,
          0.056640625,
          0.052490234375,
          0.1141357421875,
          0.47021484375,
          0.4169921875,
          0.1373291015625,
          -0.165283203125,
          -0.2314453125,
          0.096923828125,
          0.37158203125,
          0.2149658203125,
          -0.3798828125,
          -0.2008056640625,
          0.057281494140625,
          -0.12469482421875,
          -0.004062652587890625,
          -0.25732421875,
          0.4306640625,
          -0.283935546875,
          -0.01154327392578125,
          0.46630859375,
          0.05908203125,
          -0.320068359375,
          -0.11822509765625,
          -0.08917236328125,
          0.4326171875,
          -0.2763671875,
          0.357666015625,
          0.0416259765625,
          -0.3427734375,
          -0.055694580078125,
          -0.409912109375,
          -0.06402587890625,
          -0.52001953125,
          -0.1478271484375,
          0.2291259765625,
          0.40576171875,
          0.3115234375,
          -0.0002486705780029297,
          -0.48779296875,
          -0.303955078125,
          -0.082275390625,
          -0.22998046875,
          -0.161376953125,
          -0.156005859375,
          0.1595458984375,
          0.2509765625,
          -0.277099609375,
          -0.06591796875,
          0.07275390625,
          0.202880859375,
          -0.3427734375,
          -0.53271484375,
          0.0033702850341796875,
          -0.1767578125,
          0.1124267578125,
          -0.159912109375,
          -0.383056640625,
          -0.09503173828125,
          -0.062408447265625,
          0.43310546875,
          0.0025119781494140625,
          0.10430908203125,
          -0.362060546875,
          0.28466796875,
          -0.254150390625,
          -0.10467529296875,
          -0.198486328125,
          -0.1597900390625,
          -0.17333984375,
          -0.1727294921875,
          0.09393310546875,
          0.31640625,
          -0.01084136962890625,
          -0.2410888671875,
          -0.307861328125,
          0.177490234375,
          -0.1927490234375,
          -0.12176513671875,
          0.0278167724609375,
          -0.10626220703125,
          -0.250732421875,
          0.44482421875,
          0.2470703125,
          0.1776123046875,
          0.357421875,
          0.10174560546875,
          0.4541015625,
          -0.11724853515625,
          -0.0411376953125,
          -0.270263671875,
          0.76708984375,
          0.063232421875,
          -0.501953125,
          -0.039093017578125,
          -0.1763916015625,
          -0.08514404296875,
          -0.11651611328125,
          0.09820556640625,
          -0.1878662109375,
          0.03863525390625,
          0.265380859375,
          0.182861328125,
          -0.044830322265625,
          -0.01403045654296875,
          0.0654296875,
          -0.2227783203125,
          -0.194091796875,
          0.139892578125,
          -0.010986328125,
          0.2081298828125,
          0.005908966064453125,
          0.08184814453125,
          0.439208984375,
          0.03131103515625,
          -0.55224609375,
          -0.306640625,
          0.1634521484375,
          -0.2440185546875,
          0.2373046875,
          -0.224853515625,
          -0.035980224609375,
          -0.3564453125,
          -0.244873046875,
          0.388427734375,
          0.2724609375,
          0.37890625,
          0.047393798828125,
          0.157958984375,
          0.0771484375,
          0.256103515625,
          -0.1173095703125,
          0.22900390625,
          -0.100341796875,
          0.036529541015625,
          0.061798095703125,
          -0.15869140625,
          0.01922607421875,
          0.265869140625,
          -0.1136474609375,
          -0.257080078125,
          -0.1326904296875,
          0.285888671875,
          -0.0712890625,
          -0.21826171875,
          -0.292236328125,
          0.0672607421875,
          0.0165863037109375,
          -0.25439453125,
          0.22607421875,
          0.165771484375,
          -0.3876953125,
          0.032867431640625,
          -0.650390625,
          0.27783203125,
          0.1959228515625,
          0.1513671875,
          0.1904296875,
          0.41748046875,
          0.043426513671875,
          -0.07379150390625,
          -0.03594970703125,
          -0.3681640625,
          -0.30126953125,
          -0.14306640625,
          0.2186279296875,
          -0.1812744140625,
          -0.2091064453125,
          0.103759765625,
          -0.190185546875,
          0.060333251953125,
          0.045074462890625,
          -0.171142578125,
          0.12255859375,
          -0.2841796875,
          0.06439208984375,
          0.028961181640625,
          -0.1866455078125,
          0.27294921875,
          0.08758544921875,
          -0.0830078125,
          -0.2489013671875,
          0.1201171875,
          0.263916015625,
          0.251708984375,
          0.0887451171875,
          0.229736328125,
          0.143798828125,
          -0.38720703125,
          -0.3310546875,
          -0.0204010009765625,
          -0.2578125,
          -0.1898193359375,
          0.01131439208984375,
          0.0472412109375,
          -0.463134765625,
          0.155029296875,
          -0.2391357421875,
          0.79541015625,
          0.09521484375,
          0.063232421875,
          0.2254638671875,
          -0.143798828125,
          -0.4306640625,
          0.260498046875,
          0.115966796875,
          0.405517578125,
          -0.2073974609375,
          0.3681640625,
          0.1646728515625,
          -0.67822265625,
          0.166259765625,
          0.2435302734375,
          0.220947265625,
          -0.036712646484375,
          -0.251220703125,
          -0.42578125,
          -0.2110595703125,
          -0.300537109375,
          0.0775146484375,
          -0.02789306640625,
          0.1595458984375,
          0.2646484375,
          0.287841796875,
          1.0029296875,
          -0.27490234375,
          -0.2568359375,
          -0.1712646484375,
          -0.259765625,
          0.2235107421875,
          0.15234375,
          0.142578125,
          -0.0662841796875,
          -0.3408203125,
          0.146484375,
          -0.146240234375,
          0.0804443359375,
          -0.2220458984375,
          -0.509765625,
          0.10931396484375,
          0.086669921875,
          0.1702880859375,
          -0.5185546875,
          -0.401123046875,
          -0.1083984375,
          0.1851806640625,
          0.00814056396484375,
          -0.24853515625,
          -0.09393310546875,
          0.2064208984375,
          -0.385986328125,
          0.46875,
          -0.173583984375,
          -0.091064453125,
          0.06793212890625,
          -0.421875,
          -0.17626953125,
          -0.0645751953125,
          0.0946044921875,
          0.3203125,
          -0.016204833984375,
          0.2266845703125,
          0.00494384765625,
          -0.11639404296875,
          0.221435546875,
          0.200439453125,
          0.2218017578125,
          0.484619140625,
          0.2301025390625,
          0.1734619140625,
          0.161376953125,
          -0.087890625,
          0.28857421875,
          0.4443359375,
          0.038787841796875,
          -0.10699462890625,
          0.27880859375,
          -0.09503173828125,
          -0.289306640625,
          0.76708984375,
          -0.005367279052734375,
          -0.07183837890625,
          -0.2396240234375,
          -0.13232421875,
          -0.2176513671875,
          0.10540771484375,
          -0.1224365234375,
          -0.26953125,
          -0.137939453125,
          0.1434326171875,
          0.572265625,
          -0.164306640625,
          0.2003173828125,
          -0.4345703125,
          0.55419921875,
          -0.17724609375,
          -0.10479736328125,
          0.403076171875,
          -0.02777099609375,
          0.1719970703125,
          -0.25244140625,
          -0.1719970703125,
          -0.158447265625,
          0.057373046875,
          -0.0467529296875,
          -0.07781982421875,
          -0.09808349609375,
          -0.358642578125,
          0.1209716796875,
          0.1971435546875,
          0.2421875,
          -0.08050537109375,
          0.234130859375,
          -0.0849609375,
          0.65771484375,
          0.2291259765625,
          0.112548828125,
          -0.0207061767578125,
          -0.118896484375,
          0.310546875,
          -0.09136962890625,
          0.10235595703125,
          -0.0828857421875,
          -0.257568359375,
          0.23779296875,
          0.1641845703125,
          -0.1456298828125,
          -0.235107421875,
          0.1573486328125,
          -0.033233642578125,
          0.304931640625,
          -0.0179290771484375,
          0.0523681640625,
          -0.1617431640625,
          0.31884765625,
          -0.387451171875,
          0.2135009765625,
          0.0187530517578125,
          0.166259765625,
          0.1378173828125,
          0.44287109375,
          -0.2021484375,
          -0.10546875,
          -0.07586669921875,
          0.1646728515625,
          -0.0169525146484375,
          0.0160064697265625,
          0.12261962890625,
          0.2449951171875,
          0.0016326904296875,
          0.19140625,
          0.2310791015625,
          0.3173828125,
          -0.1689453125,
          0.17041015625,
          -0.1617431640625,
          0.36669921875,
          0.09063720703125,
          0.712890625,
          -0.197998046875,
          -0.0109405517578125,
          -0.396240234375,
          0.1641845703125,
          0.13916015625,
          0.32958984375,
          0.045257568359375,
          -0.1400146484375,
          -0.5185546875,
          0.091796875,
          -0.0726318359375,
          0.252197265625,
          -0.400634765625,
          -0.28662109375,
          -0.177490234375,
          0.18798828125,
          -0.12396240234375,
          0.1910400390625,
          0.16650390625,
          -0.242919921875,
          -0.1705322265625,
          0.16748046875,
          -0.06658935546875,
          0.126220703125,
          -0.179931640625,
          0.041534423828125,
          0.0108795166015625,
          0.336181640625,
          0.363525390625,
          0.044921875,
          0.1483154296875,
          -0.3798828125,
          -0.1297607421875,
          0.2200927734375,
          0.038909912109375,
          -0.0037689208984375,
          -0.51806640625,
          0.076171875,
          -0.10040283203125,
          0.185546875,
          -0.0263824462890625,
          0.0235595703125,
          0.207763671875,
          -0.147705078125,
          -0.0191192626953125,
          -0.030792236328125,
          -0.86669921875,
          -0.29443359375,
          0.25244140625,
          0.04248046875,
          0.033233642578125,
          -0.30029296875,
          -0.1309814453125,
          0.329345703125,
          -0.1881103515625,
          -0.213623046875,
          -0.1500244140625,
          -0.0191192626953125,
          -0.439453125,
          -0.0694580078125,
          -0.35205078125,
          0.07147216796875,
          0.455810546875,
          -0.401123046875,
          0.07171630859375,
          0.335693359375,
          0.302490234375,
          -0.473876953125,
          0.434326171875,
          -0.12744140625,
          0.1163330078125,
          -0.031494140625,
          -0.0045928955078125,
          0.056121826171875,
          -0.01337432861328125,
          -0.1793212890625,
          0.124755859375,
          -0.00896453857421875,
          -0.07196044921875,
          0.229248046875,
          0.5673828125,
          -0.14794921875,
          0.11688232421875,
          -0.162353515625,
          0.0880126953125,
          0.3212890625,
          0.26171875,
          -0.1605224609375,
          0.1591796875,
          0.126708984375,
          -0.017242431640625,
          -0.28173828125,
          0.0270843505859375,
          -0.06610107421875,
          -0.25048828125,
          -0.334716796875,
          -0.064453125,
          0.26220703125,
          0.5703125,
          -0.055389404296875,
          0.090576171875,
          0.130859375,
          -0.1602783203125,
          -0.300537109375,
          -0.481201171875,
          0.494140625,
          -0.350830078125,
          -0.3681640625,
          -0.022857666015625,
          -0.1728515625,
          -0.477783203125,
          -0.192138671875,
          0.1693115234375,
          0.51513671875,
          -0.0218505859375,
          -0.02362060546875,
          -0.1268310546875,
          0.4384765625,
          0.230224609375,
          -0.2119140625,
          0.1329345703125,
          0.004291534423828125,
          0.2215576171875,
          -0.291015625,
          -0.378662109375,
          0.07000732421875,
          -0.09124755859375,
          0.345947265625,
          -0.0869140625,
          0.4365234375,
          0.2978515625,
          0.41650390625,
          -0.0265350341796875,
          0.0107421875,
          0.69189453125,
          0.393310546875,
          -0.286376953125,
          0.01041412353515625,
          0.0121917724609375,
          -0.26318359375,
          0.0286407470703125,
          -0.11431884765625,
          -0.079345703125,
          0.2056884765625,
          -0.10302734375,
          -0.044677734375,
          -0.314697265625,
          -0.2578125,
          -0.1376953125,
          -0.0136871337890625,
          0.1171875,
          -0.1693115234375,
          0.12017822265625,
          0.268798828125,
          -0.1387939453125,
          -0.175537109375,
          0.0208587646484375,
          -0.107421875,
          0.288818359375,
          0.2958984375,
          -0.245849609375,
          0.56884765625,
          0.09942626953125,
          -0.25927734375,
          -0.267822265625,
          -0.11785888671875,
          -0.53173828125,
          0.06695556640625,
          0.057952880859375,
          0.182373046875,
          -0.14501953125,
          0.0758056640625,
          0.07794189453125,
          -0.1982421875,
          0.30810546875,
          -0.0628662109375,
          -0.19091796875,
          0.058074951171875,
          0.1251220703125,
          0.53125,
          0.0016498565673828125,
          0.260009765625,
          -0.26953125,
          0.1943359375,
          -0.451904296875,
          -0.096923828125,
          -0.1619873046875,
          0.340087890625,
          0.10791015625,
          0.564453125,
          0.039398193359375,
          0.17578125,
          -0.20751953125,
          0.264404296875,
          0.1976318359375,
          0.2144775390625,
          -0.00153350830078125,
          0.1810302734375,
          0.5439453125,
          0.29150390625,
          0.1326904296875,
          -0.36962890625,
          0.3203125,
          -0.293701171875,
          -0.09381103515625,
          0.3046875,
          0.1932373046875,
          -0.14306640625,
          0.39208984375,
          -0.52734375,
          0.1529541015625,
          0.0888671875,
          0.364501953125,
          -0.09112548828125,
          0.0460205078125,
          -0.211669921875,
          0.05584716796875,
          0.1304931640625,
          0.072021484375,
          0.66796875,
          -0.19921875,
          -0.0171051025390625,
          0.2142333984375,
          0.1639404296875,
          -0.2646484375,
          0.031280517578125,
          -0.02215576171875,
          -0.02142333984375,
          -0.1265869140625,
          -0.11273193359375,
          -0.2049560546875,
          0.2978515625,
          -0.288818359375,
          -0.23388671875,
          -0.1990966796875,
          0.421630859375,
          -0.587890625,
          -0.174072265625,
          0.3232421875,
          -0.061126708984375,
          0.182861328125,
          -0.382568359375,
          -0.0836181640625,
          0.1429443359375,
          0.1893310546875,
          -0.05889892578125,
          -0.4453125,
          -0.042083740234375,
          0.306640625,
          -0.043609619140625,
          0.345703125,
          0.3349609375,
          0.10089111328125,
          -0.051910400390625,
          -0.29052734375,
          -0.24658203125,
          0.043792724609375,
          0.0120391845703125,
          0.1405029296875,
          -0.30078125,
          -0.2086181640625,
          0.349365234375,
          0.1566162109375,
          -0.061492919921875,
          0.2398681640625,
          0.06658935546875,
          -0.91259765625,
          -0.10333251953125,
          -0.059722900390625,
          0.266357421875,
          0.2115478515625,
          0.19873046875,
          0.072265625,
          -0.134521484375,
          -0.01512908935546875,
          0.437744140625,
          -0.293212890625,
          0.044219970703125,
          -0.11517333984375,
          0.10577392578125,
          0.146484375,
          -0.4384765625,
          0.1168212890625,
          0.10223388671875,
          -0.2587890625,
          0.275634765625,
          0.2115478515625,
          0.1417236328125,
          0.388427734375,
          0.005229949951171875,
          0.2288818359375,
          0.240478515625,
          0.1427001953125,
          -0.1903076171875,
          0.41357421875,
          0.159912109375,
          0.06341552734375,
          0.138427734375,
          0.63818359375,
          0.185546875,
          0.06573486328125,
          -0.1683349609375,
          -0.2177734375,
          -0.060333251953125,
          -0.369384765625,
          0.22216796875,
          -0.270263671875,
          -0.0333251953125,
          0.436279296875,
          0.1500244140625,
          0.479736328125,
          0.13818359375,
          0.087646484375,
          0.09228515625,
          -0.82958984375,
          0.1654052734375,
          0.2198486328125,
          -0.05743408203125,
          0.187255859375,
          0.2220458984375,
          0.1358642578125,
          -0.2890625,
          -0.2154541015625,
          -0.050872802734375,
          0.06854248046875,
          0.52099609375,
          0.0170745849609375,
          0.03631591796875,
          -0.3447265625,
          0.1439208984375,
          0.10772705078125,
          -0.189697265625,
          0.01483917236328125,
          0.27001953125,
          -0.0584716796875,
          0.237548828125,
          0.314697265625,
          -0.062225341796875,
          0.13232421875,
          -0.068359375,
          -0.3427734375,
          0.09393310546875,
          -0.434814453125,
          0.2203369140625,
          -0.278076171875,
          -0.087890625,
          -0.10113525390625,
          -0.12127685546875,
          -0.060699462890625,
          0.06817626953125,
          0.279052734375,
          0.0692138671875,
          0.0654296875,
          0.052886962890625,
          -0.1868896484375,
          -0.8408203125,
          -0.13671875,
          -0.30859375,
          0.318359375,
          -0.1751708984375,
          -0.08721923828125,
          -0.09735107421875,
          0.2344970703125,
          0.10516357421875,
          0.27001953125,
          0.2108154296875,
          0.380859375,
          0.216796875,
          -0.1368408203125,
          0.283447265625,
          0.176513671875,
          -0.481201171875,
          -0.1329345703125,
          -0.4560546875,
          0.5078125,
          0.054901123046875,
          -0.415283203125,
          0.1553955078125,
          -0.039031982421875,
          -0.241943359375,
          -0.1376953125,
          0.05059814453125,
          0.29345703125,
          -0.2103271484375,
          0.473388671875,
          0.09954833984375,
          -0.01441192626953125,
          -0.40234375,
          -0.037200927734375,
          0.154296875,
          -0.10626220703125,
          0.309814453125,
          -0.1358642578125,
          0.23046875,
          0.23974609375,
          0.65234375,
          -0.264892578125,
          0.215087890625,
          -0.09246826171875,
          0.329833984375,
          0.1318359375,
          -0.1552734375,
          0.039581298828125,
          -0.2176513671875,
          0.38037109375,
          0.35595703125,
          0.487548828125,
          0.10211181640625,
          -0.09637451171875,
          0.305908203125,
          0.2373046875,
          0.04498291015625,
          0.03277587890625,
          -0.26513671875,
          0.0279693603515625,
          0.46728515625,
          0.025360107421875,
          -0.0400390625,
          0.4228515625,
          -0.1507568359375,
          -0.18310546875,
          -0.07391357421875,
          0.062042236328125,
          -0.0491943359375,
          -0.3408203125,
          -0.487060546875,
          0.4345703125,
          0.006038665771484375,
          -0.0149688720703125,
          0.143798828125,
          0.33642578125,
          -0.193359375,
          0.51513671875,
          0.0887451171875,
          -0.01397705078125,
          0.044921875,
          0.304443359375,
          0.04010009765625,
          -0.056365966796875,
          0.259033203125,
          -0.59130859375,
          -0.1302490234375,
          0.398681640625,
          0.58837890625,
          -0.169677734375,
          -0.16357421875,
          0.40380859375,
          0.5380859375,
          -0.1595458984375,
          -0.128173828125,
          0.06671142578125,
          0.1595458984375,
          -0.3740234375,
          0.173828125,
          0.11895751953125,
          0.36083984375,
          -0.1170654296875,
          -0.31787109375,
          0.0020599365234375,
          0.28125,
          -0.110595703125,
          -0.11004638671875,
          -0.5771484375,
          -0.54541015625,
          -0.51171875,
          -0.40478515625,
          0.166748046875,
          -0.07745361328125,
          -0.38916015625,
          -0.016937255859375,
          0.5126953125,
          0.409423828125,
          -0.179931640625,
          0.10430908203125,
          -0.075927734375,
          0.3291015625,
          -0.044158935546875,
          0.10198974609375,
          -0.1639404296875,
          -0.2239990234375,
          -0.4228515625,
          0.1881103515625,
          -0.31787109375,
          0.53662109375,
          -0.54736328125,
          -0.130859375,
          -0.188720703125,
          0.037933349609375,
          -0.003650665283203125,
          -0.0004391670227050781,
          -0.07489013671875,
          -0.290283203125,
          -0.336181640625,
          -0.1614990234375,
          -0.244140625,
          0.397216796875,
          0.06268310546875,
          0.34716796875,
          -0.268798828125,
          0.2362060546875,
          -0.17919921875,
          -0.0186614990234375,
          0.1961669921875,
          -0.1363525390625,
          0.05938720703125,
          -0.0029087066650390625,
          0.2607421875,
          0.362060546875,
          0.09075927734375,
          0.3271484375,
          -0.3505859375,
          0.3798828125,
          -0.1671142578125,
          -0.07220458984375,
          0.021484375,
          -0.28857421875,
          0.1942138671875,
          0.07373046875,
          -0.2313232421875,
          0.0694580078125,
          0.2401123046875,
          0.11895751953125,
          0.08843994140625,
          -0.009307861328125,
          0.329833984375,
          -0.12939453125,
          0.03106689453125,
          -0.0076904296875,
          -0.05645751953125,
          -0.12225341796875,
          0.0804443359375,
          -0.2998046875,
          -0.083984375,
          -0.1317138671875,
          1.0986328125,
          -0.1236572265625,
          0.06170654296875,
          0.0892333984375,
          0.0897216796875,
          0.5966796875,
          0.1412353515625,
          0.4208984375,
          0.145263671875,
          0.2327880859375,
          -0.31591796875,
          0.4853515625,
          -0.1488037109375,
          -0.2249755859375,
          -0.28173828125,
          -0.317138671875,
          -0.370849609375,
          0.07769775390625,
          0.18310546875,
          0.368408203125,
          0.177734375,
          0.4482421875,
          -0.052978515625,
          0.131103515625,
          0.599609375,
          0.0772705078125,
          0.1158447265625,
          0.07977294921875,
          -0.193359375,
          -0.185546875,
          -0.44140625,
          0.50390625
        ]
      },
      {
        "bias": [
          -0.06982421875,
          -0.06396484375,
          -0.06817626953125,
          -0.0621337890625,
          0.12384033203125,
          -0.049041748046875,
          0.111328125,
          0.07171630859375,
          0.077392578125,
          0.1185302734375,
          0.11859130859375,
          -0.05474853515625,
          0.1064453125,
          -0.07635498046875,
          -0.049530029296875,
          -0.054779052734375,
          0.19677734375,
          0.06622314453125,
          -0.0628662109375,
          -0.05792236328125,
          -0.07928466796875,
          0.11474609375,
          0.05108642578125,
          -0.0714111328125,
          0.061004638671875,
          0.11328125,
          -0.067138671875,
          -0.0938720703125,
          -0.0261993408203125,
          0.17724609375,
          0.12200927734375,
          0.074951171875
        ],
        "in_features": 32,
        "out_features": 32,
        "type": "linear",
        "weights": [
          -0.09271240234375,
          -0.1495361328125,
          0.2349853515625,
          -0.0892333984375,
          -0.295654296875,
          0.28369140625,
          0.1787109375,
          -0.0843505859375,
          -0.37060546875,
          0.041900634765625,
          -0.2208251953125,
          -0.37451171875,
          -0.31640625,
          -0.3212890625,
          0.306640625,
          -0.1162109375,
          0.42822265625,
          -0.1785888671875,
          0.30126953125,
          -0.03704833984375,
          0.2122802734375,
          0.08599853515625,
          -0.09002685546875,
          0.27001953125,
          -0.56640625,
          -0.466552734375,
          -0.1875,
          0.0343017578125,
          0.37890625,
          -0.152587890625,
          0.2431640625,
          -0.282958984375,
          -0.30224609375,
          0.05914306640625,
          -0.080078125,
          -0.1455078125,
          -0.217529296875,
          -0.142333984375,
          -0.1419677734375,
          0.0889892578125,
          -0.33642578125,
          -0.06402587890625,
          -0.288330078125,
          -0.10107421875,
          -0.1275634765625,
          -0.18115234375,
          0.529296875,
          0.0955810546875,
          -0.2318115234375,
          0.1424560546875,
          -0.2115478515625,
          -0.0416259765625,
          0.16845703125,
          -0.297119140625,
          0.11639404296875,
          -0.1451416015625,
          0.07342529296875,
          0.0546875,
          -0.2880859375,
          -0.2232666015625,
          -0.189697265625,
          0.257568359375,
          0.264404296875,
          0.190185546875,
          0.06329345703125,
          -0.185546875,
          0.1632080078125,
          0.03778076171875,
          -0.018646240234375,
          -0.2235107421875,
          -0.29931640625,
          0.050079345703125,
          -0.14111328125,
          -0.456298828125,
          -0.07171630859375,
          0.090087890625,
          -0.296142578125,
          -0.17041015625,
          -0.08868408203125,
          0.296875,
          -0.29345703125,
          0.0118255615234375,
          -0.37939453125,
          -0.2578125,
          -0.2406005859375,
          0.2186279296875,
          0.14501953125,
          -0.091064453125,
          -0.319580078125,
          -0.07879638671875,
          -0.44189453125,
          0.01377105712890625,
          -0.08160400390625,
          -0.31005859375,
          -0.4619140625,
          -0.06378173828125,
          0.1400146484375,
          -0.0252227783203125,
          0.07684326171875,
          -0.181396484375,
          -0.369140625,
          0.07012939453125,
          -0.09112548828125,
          0.206298828125,
          -0.140869140625,
          0.353515625,
          0.1767578125,
          0.1949462890625,
          -0.44189453125,
          -0.06793212890625,
          -0.138916015625,
          0.0528564453125,
          -0.214599609375,
          0.07562255859375,
          -0.13525390625,
          -0.0228271484375,
          -0.3583984375,
          0.09735107421875,
          -0.349609375,
          -0.4619140625,
          -0.1578369140625,
          -0.55615234375,
          -0.279541015625,
          -0.1094970703125,
          -0.0134429931640625,
          -0.45458984375,
          0.1614990234375,
          -0.3662109375,
          -0.21826171875,
          0.12152099609375,
          -0.3603515625,
          0.295166015625,
          0.154541015625,
          -0.052642822265625,
          -0.52783203125,
          0.3310546875,
          -0.1820068359375,
          -0.002376556396484375,
          0.267822265625,
          0.2059326171875,
          0.254638671875,
          0.427978515625,
          0.30859375,
          0.0051727294921875,
          -0.0247650146484375,
          0.00832366943359375,
          0.142578125,
          0.050628662109375,
          -0.281005859375,
          -0.0234832763671875,
          -0.181884765625,
          0.441650390625,
          0.1732177734375,
          -0.186767578125,
          0.098876953125,
          -0.029815673828125,
          0.09625244140625,
          -0.049591064453125,
          -0.1910400390625,
          0.446044921875,
          -0.334228515625,
          0.377197265625,
          -0.07781982421875,
          -0.344970703125,
          -0.2308349609375,
          -0.04620361328125,
          0.0863037109375,
          0.2666015625,
          0.2122802734375,
          -0.10491943359375,
          0.043792724609375,
          0.23974609375,
          -0.2208251953125,
          0.050201416015625,
          0.2093505859375,
          -0.052398681640625,
          -0.47021484375,
          -0.21484375,
          0.0173797607421875,
          -0.322509765625,
          -0.34912109375,
          0.287353515625,
          -0.3134765625,
          0.0968017578125,
          0.1749267578125,
          -0.32373046875,
          -0.287353515625,
          -0.146728515625,
          -0.328125,
          0.0024127960205078125,
          0.1199951171875,
          -0.2001953125,
          0.11749267578125,
          0.068603515625,
          0.41015625,
          -0.0238037109375,
          0.261474609375,
          0.0574951171875,
          0.2744140625,
          -0.0048675537109375,
          -0.05853271484375,
          -0.022308349609375,
          -0.1370849609375,
          0.416015625,
          -0.181640625,
          0.24755859375,
          0.40869140625,
          -0.1773681640625,
          0.426513671875,
          0.34423828125,
          0.2391357421875,
          0.2509765625,
          0.1517333984375,
          0.391845703125,
          0.2274169921875,
          0.26171875,
          0.08941650390625,
          -0.0740966796875,
          0.525390625,
          -0.1097412109375,
          -0.2496337890625,
          0.2108154296875,
          0.425537109375,
          -0.065185546875,
          0.444580078125,
          0.1212158203125,
          0.2476806640625,
          0.1507568359375,
          0.6298828125,
          0.07867431640625,
          -0.153076171875,
          0.0183868408203125,
          0.01033782958984375,
          0.02606201171875,
          -0.6611328125,
          -0.09478759765625,
          -0.1375732421875,
          0.45458984375,
          -0.06597900390625,
          0.4345703125,
          0.1656494140625,
          0.52294921875,
          0.049468994140625,
          -0.31640625,
          0.343505859375,
          -0.1263427734375,
          0.057952880859375,
          -0.0897216796875,
          0.36669921875,
          -0.1729736328125,
          -0.0268096923828125,
          -0.0005621910095214844,
          0.363525390625,
          0.1527099609375,
          -0.1629638671875,
          0.391357421875,
          0.29736328125,
          0.1942138671875,
          0.2481689453125,
          0.2255859375,
          -0.0163726806640625,
          0.39501953125,
          -0.314208984375,
          -0.53466796875,
          0.232177734375,
          0.33154296875,
          -0.361328125,
          -0.358154296875,
          -0.030364990234375,
          0.0288848876953125,
          0.0170440673828125,
          0.30322265625,
          -0.03369140625,
          0.09881591796875,
          0.53955078125,
          0.430419921875,
          -0.215576171875,
          0.03265380859375,
          -0.42822265625,
          0.57568359375,
          0.1473388671875,
          0.339599609375,
          0.037994384765625,
          0.19482421875,
          0.1328125,
          0.03973388671875,
          -0.32470703125,
          -0.004039764404296875,
          -0.04461669921875,
          -0.3232421875,
          -0.14453125,
          -0.049041748046875,
          0.1744384765625,
          0.1331787109375,
          0.251708984375,
          0.1806640625,
          0.42529296875,
          0.433837890625,
          0.302001953125,
          0.2435302734375,
          0.412841796875,
          -0.1427001953125,
          -0.0888671875,
          -0.2037353515625,
          0.0099029541015625,
          0.39599609375,
          0.373779296875,
          0.03692626953125,
          0.13720703125,
          0.30419921875,
          0.424072265625,
          -0.2294921875,
          -0.004596710205078125,
          0.1578369140625,
          0.0021152496337890625,
          0.42626953125,
          0.2724609375,
          0.268798828125,
          0.0841064453125,
          0.4072265625,
          -0.04754638671875,
          -0.08251953125,
          0.395263671875,
          0.2318115234375,
          0.25048828125,
          0.2381591796875,
          0.140625,
          0.031036376953125,
          0.00618743896484375,
          -0.072265625,
          0.281005859375,
          0.501953125,
          -0.1468505859375,
          0.055938720703125,
          0.05999755859375,
          -0.245361328125,
          -0.10223388671875,
          0.338623046875,
          -0.0177154541015625,
          0.127197265625,
          -0.382080078125,
          -0.494873046875,
          0.286865234375,
          0.1278076171875,
          0.2474365234375,
          0.1337890625,
          0.0308837890625,
          0.0506591796875,
          0.488525390625,
          0.0672607421875,
          -0.1231689453125,
          0.45458984375,
          0.014801025390625,
          -0.165771484375,
          -0.51123046875,
          0.14404296875,
          -0.1400146484375,
          0.358642578125,
          -0.308349609375,
          -0.11358642578125,
          -0.09619140625,
          -0.1932373046875,
          -0.1812744140625,
          -0.52099609375,
          0.046600341796875,
          -0.015045166015625,
          0.1429443359375,
          -0.2474365234375,
          0.2479248046875,
          -0.291015625,
          0.2724609375,
          0.0229339599609375,
          0.6005859375,
          0.2122802734375,
          0.11932373046875,
          -0.063232421875,
          -0.1158447265625,
          -0.0682373046875,
          0.068359375,
          0.042327880859375,
          -0.201904296875,
          0.014556884765625,
          -0.347412109375,
          0.2493896484375,
          0.1220703125,
          0.081787109375,
          -0.0654296875,
          0.29638671875,
          0.2220458984375,
          -0.3447265625,
          0.452392578125,
          0.37451171875,
          0.309814453125,
          -0.0225982666015625,
          0.16357421875,
          0.46728515625,
          0.134765625,
          0.07440185546875,
          0.51025390625,
          -0.3134765625,
          -0.09124755859375,
          -0.0982666015625,
          0.04693603515625,
          0.04693603515625,
          0.299072265625,
          0.0909423828125,
          0.11407470703125,
          0.1328125,
          0.0888671875,
          0.2362060546875,
          0.160400390625,
          0.5029296875,
          0.25732421875,
          -0.09893798828125,
          0.0894775390625,
          0.51220703125,
          0.270263671875,
          0.0977783203125,
          0.0308685302734375,
          -0.1671142578125,
          0.366455078125,
          0.65087890625,
          0.133544921875,
          -0.47802734375,
          -0.19091796875,
          0.09429931640625,
          0.1334228515625,
          -0.206787109375,
          0.01265716552734375,
          -0.139404296875,
          -0.12200927734375,
          0.290283203125,
          -0.1253662109375,
          0.1077880859375,
          0.024749755859375,
          -0.3466796875,
          -0.239990234375,
          0.065673828125,
          -0.1827392578125,
          0.157958984375,
          0.30615234375,
          0.1903076171875,
          0.2369384765625,
          -0.139404296875,
          -0.0479736328125,
          -0.347412109375,
          0.1712646484375,
          -0.09954833984375,
          0.035247802734375,
          -0.035491943359375,
          -0.0087127685546875,
          0.263916015625,
          0.52197265625,
          0.2998046875,
          0.0037631988525390625,
          -0.407470703125,
          0.488037109375,
          0.0269012451171875,
          0.2529296875,
          -0.054443359375,
          -0.046356201171875,
          -0.189697265625,
          -0.407470703125,
          0.115966796875,
          0.1181640625,
          -0.3720703125,
          -0.1268310546875,
          -0.0034236907958984375,
          -0.1790771484375,
          -0.33203125,
          -0.09454345703125,
          0.318603515625,
          -0.1075439453125,
          -0.158203125,
          -0.1221923828125,
          -0.59619140625,
          0.0156707763671875,
          -0.035308837890625,
          -0.004150390625,
          0.0286407470703125,
          0.1961669921875,
          -0.53515625,
          0.1258544921875,
          0.2249755859375,
          -0.2919921875,
          -0.304443359375,
          0.054656982421875,
          0.1220703125,
          -0.2900390625,
          -0.177001953125,
          0.2279052734375,
          -0.1578369140625,
          0.046112060546875,
          -0.2900390625,
          -0.1663818359375,
          -0.12432861328125,
          -0.06341552734375,
          -0.09185791015625,
          0.233154296875,
          0.156494140625,
          -0.5380859375,
          -0.08203125,
          0.1575927734375,
          0.418212890625,
          0.33837890625,
          -0.316650390625,
          -0.255615234375,
          0.25244140625,
          -0.85595703125,
          0.10443115234375,
          0.1368408203125,
          -0.06951904296875,
          -0.06842041015625,
          0.244140625,
          -0.1072998046875,
          0.251220703125,
          -0.0007572174072265625,
          -0.2626953125,
          -0.1634521484375,
          0.576171875,
          0.541015625,
          0.20166015625,
          -0.03692626953125,
          -0.056243896484375,
          0.36328125,
          -0.06268310546875,
          0.28076171875,
          0.0305633544921875,
          -0.1939697265625,
          0.0293426513671875,
          -0.076904296875,
          0.1912841796875,
          0.110107421875,
          -0.390869140625,
          0.316650390625,
          0.1875,
          0.0889892578125,
          0.1607666015625,
          0.0141754150390625,
          0.271484375,
          0.09912109375,
          0.2396240234375,
          0.352783203125,
          0.31103515625,
          0.1378173828125,
          0.19384765625,
          0.053436279296875,
          0.1932373046875,
          -0.259033203125,
          0.0565185546875,
          0.2008056640625,
          0.2027587890625,
          -0.01412200927734375,
          0.07415771484375,
          -0.1004638671875,
          0.4091796875,
          0.0250396728515625,
          -0.06390380859375,
          0.177978515625,
          0.1136474609375,
          0.06597900390625,
          -0.3623046875,
          0.30517578125,
          0.10687255859375,
          -0.059234619140625,
          -0.12225341796875,
          0.29541015625,
          0.444091796875,
          0.1490478515625,
          0.1728515625,
          0.28564453125,
          -0.0217132568359375,
          0.055572509765625,
          0.025115966796875,
          -0.09588623046875,
          0.1607666015625,
          -0.154541015625,
          -0.228271484375,
          -0.1656494140625,
          -0.583984375,
          -0.2578125,
          0.250244140625,
          0.30419921875,
          -0.62158203125,
          0.06658935546875,
          -0.11767578125,
          0.388671875,
          -0.5029296875,
          0.0235748291015625,
          -0.422607421875,
          -0.153076171875,
          0.379150390625,
          0.2196044921875,
          -0.320556640625,
          -0.0633544921875,
          0.0007128715515136719,
          -0.091552734375,
          0.2568359375,
          -0.1595458984375,
          -0.11273193359375,
          0.0445556640625,
          -0.088623046875,
          -0.5244140625,
          -0.2396240234375,
          -0.1162109375,
          -0.024688720703125,
          0.430908203125,
          -0.060882568359375,
          -0.07537841796875,
          0.2261962890625,
          -0.23779296875,
          -0.3193359375,
          0.1817626953125,
          0.29248046875,
          0.21484375,
          -0.1922607421875,
          -0.328369140625,
          -0.312744140625,
          0.1495361328125,
          0.64697265625,
          0.026702880859375,
          0.4267578125,
          0.12054443359375,
          0.443115234375,
          -0.00885009765625,
          0.0175018310546875,
          0.253173828125,
          0.0282440185546875,
          -0.1337890625,
          0.2169189453125,
          -0.16162109375,
          -0.266845703125,
          -0.0100250244140625,
          0.0780029296875,
          0.007045745849609375,
          -0.357421875,
          -0.43896484375,
          0.332275390625,
          -0.031280517578125,
          0.1470947265625,
          0.302978515625,
          -0.409912109375,
          -0.060791015625,
          0.5498046875,
          0.2529296875,
          -0.03179931640625,
          -0.4150390625,
          0.06939697265625,
          -0.3720703125,
          0.07745361328125,
          -0.1529541015625,
          0.1732177734375,
          0.050872802734375,
          0.10150146484375,
          -0.405029296875,
          -0.251708984375,
          -0.2340087890625,
          0.27880859375,
          0.1490478515625,
          -0.1485595703125,
          0.35107421875,
          -0.178955078125,
          0.1461181640625,
          0.10540771484375,
          -0.42578125,
          -0.11456298828125,
          0.0279541015625,
          -0.258544921875,
          0.040313720703125,
          -0.12109375,
          -0.343505859375,
          -0.141357421875,
          0.381591796875,
          0.04168701171875,
          0.0467529296875,
          0.1011962890625,
          -0.286865234375,
          0.0946044921875,
          0.259033203125,
          0.3701171875,
          0.1431884765625,
          -0.0173797607421875,
          -0.167236328125,
          0.026885986328125,
          -0.404296875,
          -0.3193359375,
          -0.1279296875,
          0.1859130859375,
          0.020172119140625,
          0.482177734375,
          -0.1468505859375,
          0.473876953125,
          0.23681640625,
          0.04425048828125,
          -0.1986083984375,
          -0.047515869140625,
          0.291748046875,
          0.314453125,
          -0.01263427734375,
          0.309326171875,
          -0.1817626953125,
          -0.09417724609375,
          -0.001800537109375,
          0.59130859375,
          -0.0877685546875,
          0.2200927734375,
          -0.07177734375,
          -0.1358642578125,
          -0.11944580078125,
          -0.041412353515625,
          0.250244140625,
          0.70556640625,
          2.5859375,
          0.833984375,
          0.1143798828125,
          0.254638671875,
          0.03570556640625,
          -0.00940704345703125,
          0.07958984375,
          -0.30810546875,
          0.013671875,
          0.68896484375,
          -0.2213134765625,
          -0.78173828125,
          -0.32861328125,
          -0.279296875,
          -0.1612548828125,
          -0.1004638671875,
          0.08062744140625,
          -0.24365234375,
          -0.728515625,
          4.02734375,
          -0.2198486328125,
          -0.1563720703125,
          5.08203125,
          0.273681640625,
          -0.2958984375,
          -0.06884765625,
          0.0017652511596679688,
          -0.275634765625,
          -0.5703125,
          -0.289306640625,
          0.1451416015625,
          -0.047027587890625,
          -0.315673828125,
          -0.352783203125,
          -0.3994140625,
          0.1641845703125,
          0.314453125,
          -0.09906005859375,
          0.1959228515625,
          0.015716552734375,
          -0.08209228515625,
          -0.54833984375,
          0.27001953125,
          -0.4345703125,
          -0.1761474609375,
          -0.392578125,
          0.1934814453125,
          -0.3583984375,
          -0.50146484375,
          0.0645751953125,
          -0.623046875,
          0.275634765625,
          0.100341796875,
          0.158935546875,
          -0.5078125,
          -0.341064453125,
          -0.52783203125,
          -0.056640625,
          -0.318603515625,
          0.36376953125,
          -0.029754638671875,
          -0.10308837890625,
          -0.006114959716796875,
          0.1617431640625,
          -0.1663818359375,
          -0.271240234375,
          -0.022491455078125,
          0.208740234375,
          0.10540771484375,
          0.06683349609375,
          0.0960693359375,
          0.12310791015625,
          0.130126953125,
          0.0245819091796875,
          0.01482391357421875,
          0.058837890625,
          0.3251953125,
          0.27685546875,
          0.26806640625,
          -0.125244140625,
          0.309326171875,
          -0.2119140625,
          0.1424560546875,
          0.13720703125,
          0.1192626953125,
          0.16162109375,
          0.1536865234375,
          -0.54638671875,
          0.0792236328125,
          0.52099609375,
          0.228759765625,
          0.2032470703125,
          0.11907958984375,
          0.308837890625,
          -0.1331787109375,
          0.01934814453125,
          0.1756591796875,
          -0.32568359375,
          0.04608154296875,
          0.371337890625,
          0.0867919921875,
          0.00823974609375,
          -0.2142333984375,
          -0.050262451171875,
          0.462158203125,
          -0.337890625,
          -0.132568359375,
          0.351806640625,
          -0.17041015625,
          -0.3974609375,
          -0.08294677734375,
          0.1884765625,
          0.4169921875,
          0.023040771484375,
          0.08660888671875,
          -0.08624267578125,
          0.1162109375,
          0.0025157928466796875,
          0.485595703125,
          0.390625,
          0.0540771484375,
          -0.06884765625,
          -0.3466796875,
          -0.183349609375,
          0.261474609375,
          -0.273681640625,
          -0.2410888671875,
          0.1632080078125,
          -0.29736328125,
          -0.0251312255859375,
          0.20458984375,
          0.031463623046875,
          -0.003093719482421875,
          -0.2421875,
          -0.25830078125,
          -0.2139892578125,
          -0.361328125,
          -0.037078857421875,
          -0.01074981689453125,
          -0.72119140625,
          0.2281494140625,
          -0.14208984375,
          -0.1458740234375,
          -0.0574951171875,
          0.2257080078125,
          -0.178955078125,
          -0.225830078125,
          0.10443115234375,
          -0.01067352294921875,
          0.11773681640625,
          -0.24462890625,
          0.384521484375,
          -0.1875,
          -0.1802978515625,
          -0.106201171875,
          0.19189453125,
          -0.65087890625,
          -0.08197021484375,
          0.12286376953125,
          -0.57177734375,
          0.0655517578125,
          0.30224609375,
          0.2305908203125,
          -0.250244140625,
          0.58251953125,
          -0.1116943359375,
          -0.1431884765625,
          -0.0667724609375,
          0.06005859375,
          -0.1502685546875,
          0.11163330078125,
          0.053192138671875,
          -0.10943603515625,
          -0.80712890625,
          -0.2227783203125,
          -0.016326904296875,
          -0.138916015625,
          -0.287353515625,
          -0.40478515625,
          0.1390380859375,
          0.1402587890625,
          0.1978759765625,
          -0.25927734375,
          0.001129150390625,
          -0.37353515625,
          -0.00029397010803222656,
          -0.171875,
          -0.43310546875,
          0.0772705078125,
          0.1978759765625,
          -0.19873046875,
          -0.55419921875,
          -0.11737060546875,
          -0.216796875,
          -0.125732421875,
          -0.298583984375,
          -0.1275634765625,
          0.370849609375,
          -0.1766357421875,
          -0.07269287109375,
          0.437255859375,
          0.323974609375,
          0.17626953125,
          -0.252685546875,
          0.142822265625,
          -0.1016845703125,
          0.2369384765625,
          -0.249267578125,
          -0.15185546875,
          -0.603515625,
          -0.33837890625,
          -0.50927734375,
          -0.59228515625,
          0.01104736328125,
          -0.1363525390625,
          -0.12164306640625,
          0.271728515625,
          0.485595703125,
          -0.369140625,
          0.7275390625,
          0.1575927734375,
          0.07806396484375,
          0.01532745361328125,
          -0.051239013671875,
          0.42724609375,
          -0.059722900390625,
          -0.012664794921875,
          0.35107421875,
          -0.25244140625,
          0.2841796875,
          0.295166015625,
          -0.39794921875,
          -0.1907958984375,
          0.24560546875,
          0.197265625,
          -0.1239013671875,
          0.239501953125,
          0.0643310546875,
          -0.02508544921875,
          -0.236083984375,
          0.5615234375,
          -0.0631103515625,
          0.0164947509765625,
          -0.124267578125,
          0.3310546875,
          0.07806396484375,
          -0.50634765625,
          0.2479248046875,
          0.07928466796875,
          0.376708984375,
          0.296630859375,
          -0.1546630859375,
          0.252197265625,
          0.192138671875,
          0.09307861328125,
          -0.09259033203125,
          0.08673095703125,
          0.64599609375,
          0.33056640625,
          0.1802978515625,
          0.004955291748046875,
          -0.28515625,
          -0.6513671875,
          0.4951171875,
          -0.40478515625,
          0.385009765625,
          0.294921875,
          -0.1307373046875,
          0.11737060546875,
          0.0027675628662109375,
          -0.0012006759643554688,
          0.057373046875,
          0.0662841796875,
          -0.46875,
          0.294189453125,
          0.09295654296875,
          0.33349609375,
          0.10711669921875,
          -0.1798095703125,
          -0.0836181640625,
          -0.5380859375,
          0.18505859375,
          -0.2066650390625,
          0.476318359375,
          0.07720947265625,
          0.47607421875,
          0.364501953125,
          0.345947265625,
          -0.031463623046875,
          -0.62353515625,
          0.4765625,
          0.1524658203125,
          0.0885009765625,
          -0.0264129638671875,
          0.35888671875,
          -0.338623046875,
          0.051483154296875,
          0.25244140625,
          -0.2705078125,
          0.3876953125,
          -0.0026454925537109375,
          0.22607421875,
          0.5791015625,
          -0.15185546875,
          -0.06884765625,
          0.0731201171875,
          -0.31982421875,
          -0.00753021240234375,
          0.38671875,
          0.16064453125,
          -0.46630859375,
          -0.1148681640625
        ]
      },
      {
        "bias": [
          -0.0982666015625,
          0.04052734375,
          -0.05987548828125,
          -0.056854248046875,
          0.1273193359375,
          -0.0648193359375,
          -0.1051025390625,
          -0.06732177734375,
          -0.060577392578125,
          -0.072265625,
          -0.0732421875,
          -0.06298828125,
          -0.05010986328125,
          -0.06439208984375,
          -0.08349609375,
          0.0916748046875,
          0.09136962890625,
          0.080078125,
          0.0762939453125,
          0.07025146484375,
          0.09454345703125,
          -0.06732177734375,
          -0.067626953125,
          0.0745849609375,
          -0.049285888671875,
          -0.07275390625,
          0.0811767578125,
          -0.00708770751953125,
          -0.08843994140625,
          -0.032073974609375,
          0.1171875,
          -0.062744140625
        ],
        "in_features": 32,
        "out_features": 32,
        "type": "linear",
        "weights": [
          0.27783203125,
          -0.329833984375,
          0.0278778076171875,
          0.02569580078125,
          0.00809478759765625,
          -0.1817626953125,
          -0.1864013671875,
          -0.5791015625,
          -0.5712890625,
          -0.35107421875,
          -0.00783538818359375,
          -0.255859375,
          -0.10308837890625,
          -0.25830078125,
          -0.0531005859375,
          -0.060638427734375,
          -0.0036773681640625,
          -0.09393310546875,
          -0.341064453125,
          -0.379638671875,
          -0.252685546875,
          -0.1661376953125,
          0.08013916015625,
          -0.1488037109375,
          0.1087646484375,
          0.179931640625,
          0.09161376953125,
          0.3994140625,
          0.19140625,
          0.358154296875,
          -0.049957275390625,
          -0.2205810546875,
          0.228515625,
          0.23046875,
          -0.273193359375,
          0.287109375,
          -0.240234375,
          -0.07452392578125,
          0.385009765625,
          -0.35009765625,
          0.06121826171875,
          -0.363525390625,
          -0.06903076171875,
          0.18115234375,
          -0.0478515625,
          -0.477294921875,
          -0.470703125,
          -0.255859375,
          -0.203125,
          -0.2120361328125,
          0.05657958984375,
          0.02764892578125,
          0.16748046875,
          -0.2646484375,
          0.0513916015625,
          -0.262451171875,
          0.0011281967163085938,
          -0.318115234375,
          -0.03021240234375,
          0.0535888671875,
          0.345703125,
          0.055511474609375,
          0.2978515625,
          0.37548828125,
          -0.21923828125,
          -0.001377105712890625,
          -0.045989990234375,
          0.0027923583984375,
          -0.054443359375,
          -0.1268310546875,
          -0.09161376953125,
          -0.1861572265625,
          -0.434326171875,
          0.1541748046875,
          -0.309814453125,
          0.381591796875,
          -0.278564453125,
          0.0259552001953125,
          0.38916015625,
          -0.66650390625,
          0.3681640625,
          -0.1650390625,
          -0.0223541259765625,
          0.34912109375,
          -0.45849609375,
          -0.0650634765625,
          -0.5224609375,
          -0.0288848876953125,
          -0.296875,
          -0.27978515625,
          0.3125,
          -0.47021484375,
          0.01529693603515625,
          0.9638671875,
          -0.233154296875,
          -0.10443115234375,
          0.170654296875,
          -0.2210693359375,
          0.0675048828125,
          0.12030029296875,
          0.341552734375,
          -0.277587890625,
          -0.364501953125,
          -0.024993896484375,
          -0.0307159423828125,
          -0.7587890625,
          -0.06500244140625,
          -0.211181640625,
          -0.1285400390625,
          -0.1407470703125,
          -0.162841796875,
          -0.314697265625,
          -0.3525390625,
          0.13671875,
          0.0709228515625,
          -0.1795654296875,
          -0.04571533203125,
          0.1968994140625,
          -0.038330078125,
          0.033050537109375,
          -0.50439453125,
          -0.29736328125,
          -0.369384765625,
          -0.0826416015625,
          -0.327392578125,
          0.0267791748046875,
          0.07110595703125,
          0.07513427734375,
          -0.07879638671875,
          0.09796142578125,
          0.29541015625,
          0.16455078125,
          0.73583984375,
          0.5244140625,
          0.2978515625,
          0.379150390625,
          0.21630859375,
          0.458740234375,
          0.0115203857421875,
          0.1551513671875,
          0.18798828125,
          -0.12347412109375,
          -0.089111328125,
          0.24267578125,
          0.6689453125,
          0.029937744140625,
          0.1431884765625,
          -0.1134033203125,
          0.08294677734375,
          -0.04168701171875,
          -0.14306640625,
          -0.1265869140625,
          -0.0001004338264465332,
          0.170166015625,
          -0.004047393798828125,
          -0.439208984375,
          0.10577392578125,
          0.401611328125,
          0.287109375,
          -0.1253662109375,
          -0.362060546875,
          0.067626953125,
          0.044189453125,
          0.07666015625,
          -0.58935546875,
          -0.347412109375,
          0.07098388671875,
          -0.06646728515625,
          -0.071044921875,
          -0.485595703125,
          0.2218017578125,
          0.2484130859375,
          -0.145751953125,
          0.1326904296875,
          0.236572265625,
          0.272705078125,
          -0.64697265625,
          -0.56396484375,
          0.18603515625,
          -0.005954742431640625,
          0.18115234375,
          -0.51025390625,
          -0.354248046875,
          0.0275115966796875,
          -0.004119873046875,
          0.0718994140625,
          -0.210693359375,
          0.15234375,
          -0.18017578125,
          -0.1748046875,
          0.042633056640625,
          -0.431884765625,
          0.1412353515625,
          0.1588134765625,
          0.0767822265625,
          -0.047149658203125,
          -0.2269287109375,
          0.035888671875,
          -0.258056640625,
          -0.00852203369140625,
          0.1422119140625,
          -0.272216796875,
          -0.07757568359375,
          0.2109375,
          -0.2125244140625,
          0.47265625,
          -0.29248046875,
          -0.402587890625,
          0.28173828125,
          0.11334228515625,
          0.01483154296875,
          0.3408203125,
          0.08587646484375,
          -0.50830078125,
          0.1175537109375,
          0.3916015625,
          0.05841064453125,
          -0.1646728515625,
          0.15283203125,
          -0.1658935546875,
          -0.04656982421875,
          -0.41650390625,
          -0.0034046173095703125,
          0.259521484375,
          0.410400390625,
          0.0019931793212890625,
          -0.038604736328125,
          -0.346435546875,
          -0.08148193359375,
          -0.208251953125,
          0.0797119140625,
          -0.1632080078125,
          0.345458984375,
          -0.10491943359375,
          -0.1591796875,
          -0.10406494140625,
          0.01277923583984375,
          -0.462158203125,
          -0.200927734375,
          -0.578125,
          -0.197265625,
          -0.149169921875,
          -0.78857421875,
          0.1431884765625,
          -0.03363037109375,
          -0.227783203125,
          -0.87451171875,
          -0.349853515625,
          -0.09124755859375,
          -0.439697265625,
          -0.241455078125,
          0.23876953125,
          -0.23486328125,
          -0.08843994140625,
          -0.1309814453125,
          -0.58642578125,
          0.2103271484375,
          -0.6123046875,
          -0.046722412109375,
          0.301513671875,
          0.06256103515625,
          0.1025390625,
          0.06256103515625,
          -0.446044921875,
          -0.43408203125,
          0.032440185546875,
          -0.2401123046875,
          0.22705078125,
          0.18701171875,
          0.09637451171875,
          0.218017578125,
          0.442138671875,
          -0.385986328125,
          -0.258056640625,
          -0.4111328125,
          -0.11614990234375,
          0.061981201171875,
          0.43310546875,
          0.041229248046875,
          -0.112548828125,
          -0.0180511474609375,
          -0.03204345703125,
          -0.368896484375,
          -0.042877197265625,
          0.024871826171875,
          -0.005859375,
          0.0271148681640625,
          -0.07818603515625,
          0.355224609375,
          0.03643798828125,
          -0.346435546875,
          0.09027099609375,
          0.09100341796875,
          -0.0292205810546875,
          -0.005443572998046875,
          -0.01073455810546875,
          0.06695556640625,
          -0.09356689453125,
          -0.178466796875,
          -0.0223541259765625,
          0.06103515625,
          -0.188720703125,
          0.09765625,
          -0.266357421875,
          0.02099609375,
          -0.38134765625,
          0.19775390625,
          0.470458984375,
          -0.1910400390625,
          -0.346435546875,
          -0.237060546875,
          0.1553955078125,
          -0.2462158203125,
          0.00630950927734375,
          0.016632080078125,
          -0.2919921875,
          0.28125,
          -0.744140625,
          0.28369140625,
          0.0272674560546875,
          -0.155029296875,
          0.0780029296875,
          0.48583984375,
          0.1580810546875,
          0.2139892578125,
          0.09619140625,
          -0.57275390625,
          -0.1951904296875,
          0.260498046875,
          0.1463623046875,
          0.0421142578125,
          -0.204833984375,
          -0.1978759765625,
          0.05340576171875,
          -0.47216796875,
          0.0032024383544921875,
          -0.11419677734375,
          -0.2548828125,
          0.0243072509765625,
          -0.109130859375,
          -0.1212158203125,
          0.2110595703125,
          -0.226318359375,
          -0.11798095703125,
          -0.0190582275390625,
          -0.0955810546875,
          0.196044921875,
          0.1328125,
          -0.049041748046875,
          0.1680908203125,
          -0.2315673828125,
          0.0207977294921875,
          0.035003662109375,
          0.27978515625,
          0.336181640625,
          0.0304107666015625,
          0.390380859375,
          0.038726806640625,
          -0.384765625,
          -0.0384521484375,
          0.1666259765625,
          0.1092529296875,
          0.036407470703125,
          -0.14599609375,
          -0.337890625,
          -0.203125,
          0.058746337890625,
          -0.0246734619140625,
          0.01280975341796875,
          -0.06695556640625,
          0.22314453125,
          -0.26513671875,
          -0.29736328125,
          -0.4716796875,
          -0.27685546875,
          0.06707763671875,
          -0.259765625,
          0.16552734375,
          0.134521484375,
          0.0653076171875,
          -0.211181640625,
          -0.09222412109375,
          -0.1671142578125,
          -0.31298828125,
          0.2247314453125,
          0.310546875,
          0.1802978515625,
          -0.1474609375,
          -0.2431640625,
          -0.1494140625,
          0.11700439453125,
          -0.48046875,
          -0.3974609375,
          -0.57275390625,
          0.33154296875,
          0.278564453125,
          0.1749267578125,
          -0.154052734375,
          -0.07269287109375,
          0.043792724609375,
          0.019317626953125,
          -0.221923828125,
          -0.2042236328125,
          0.298583984375,
          -0.1673583984375,
          0.263671875,
          -0.06005859375,
          0.2188720703125,
          -0.505859375,
          0.367919921875,
          -0.0645751953125,
          -0.18701171875,
          -0.44384765625,
          0.32666015625,
          0.25927734375,
          0.2210693359375,
          -0.07196044921875,
          -0.0279083251953125,
          0.16162109375,
          -0.11822509765625,
          0.04766845703125,
          -0.12109375,
          0.0745849609375,
          -0.1412353515625,
          0.44140625,
          -0.2208251953125,
          -0.300048828125,
          -0.2052001953125,
          -0.0975341796875,
          0.05474853515625,
          0.047607421875,
          0.462890625,
          -0.0020542144775390625,
          -0.1015625,
          0.00592803955078125,
          0.14013671875,
          0.183349609375,
          0.060791015625,
          -0.449462890625,
          -0.70166015625,
          -0.0014581680297851562,
          -0.1953125,
          -0.2091064453125,
          -0.52392578125,
          -0.265625,
          0.06585693359375,
          -0.22802734375,
          0.1715087890625,
          0.198486328125,
          0.251953125,
          -0.212646484375,
          0.072509765625,
          0.0236663818359375,
          0.003658294677734375,
          -0.1522216796875,
          -0.50732421875,
          -0.057403564453125,
          -0.046356201171875,
          -0.10064697265625,
          0.004547119140625,
          0.006969451904296875,
          0.01229095458984375,
          -0.51318359375,
          0.045928955078125,
          -0.04852294921875,
          -0.14599609375,
          -0.33837890625,
          -0.0888671875,
          0.408935546875,
          -0.141845703125,
          0.2193603515625,
          0.30859375,
          0.3408203125,
          0.01280975341796875,
          -0.262451171875,
          0.460693359375,
          -0.378173828125,
          -0.0168914794921875,
          -0.09625244140625,
          0.2080078125,
          0.308837890625,
          0.0293731689453125,
          0.09747314453125,
          0.3525390625,
          -0.03948974609375,
          -0.230712890625,
          -0.026519775390625,
          0.07452392578125,
          0.1995849609375,
          0.35693359375,
          -0.2861328125,
          0.462890625,
          0.1668701171875,
          0.3154296875,
          0.34228515625,
          0.171142578125,
          0.368408203125,
          -0.093994140625,
          -0.0210418701171875,
          0.0548095703125,
          -0.08868408203125,
          -0.18310546875,
          0.282470703125,
          0.003978729248046875,
          -0.11175537109375,
          0.0718994140625,
          -0.022491455078125,
          -0.0926513671875,
          -0.2529296875,
          0.351806640625,
          0.252685546875,
          -0.2685546875,
          -0.10858154296875,
          0.435791015625,
          -0.0169219970703125,
          0.2435302734375,
          0.29443359375,
          0.129150390625,
          0.328857421875,
          -0.11956787109375,
          0.10662841796875,
          0.086669921875,
          -0.06329345703125,
          -0.039093017578125,
          0.1295166015625,
          0.060089111328125,
          0.11907958984375,
          0.22265625,
          0.43798828125,
          -0.0615234375,
          -0.100341796875,
          0.382568359375,
          -0.197509765625,
          0.191650390625,
          0.1458740234375,
          -0.051513671875,
          0.3974609375,
          0.272216796875,
          -0.43115234375,
          -0.12188720703125,
          0.009124755859375,
          -0.2548828125,
          0.452880859375,
          0.1978759765625,
          -0.06982421875,
          0.012481689453125,
          0.1787109375,
          0.112548828125,
          0.049896240234375,
          0.2822265625,
          0.00846099853515625,
          -0.55712890625,
          0.09564208984375,
          0.0904541015625,
          0.469970703125,
          0.3779296875,
          -0.12255859375,
          0.030517578125,
          0.186279296875,
          0.432861328125,
          0.1424560546875,
          -0.017791748046875,
          0.06494140625,
          -0.021697998046875,
          0.040313720703125,
          0.76953125,
          0.37109375,
          0.0897216796875,
          -0.000537872314453125,
          -0.09228515625,
          0.638671875,
          0.1368408203125,
          0.035003662109375,
          0.27783203125,
          0.183837890625,
          -0.288330078125,
          0.4248046875,
          -0.15576171875,
          0.59765625,
          -0.10076904296875,
          0.185791015625,
          -0.1331787109375,
          0.08856201171875,
          0.405029296875,
          -0.15625,
          0.1424560546875,
          0.062744140625,
          0.057769775390625,
          0.380126953125,
          -0.155029296875,
          0.1956787109375,
          0.6123046875,
          -0.069091796875,
          0.1531982421875,
          0.04083251953125,
          0.211181640625,
          0.1422119140625,
          0.384521484375,
          0.0104217529296875,
          -0.1561279296875,
          0.113037109375,
          0.16064453125,
          0.25146484375,
          0.288818359375,
          0.408935546875,
          -0.235107421875,
          -0.300537109375,
          -0.0011138916015625,
          -0.26806640625,
          0.51416015625,
          -0.04296875,
          -0.08428955078125,
          0.2042236328125,
          0.050140380859375,
          0.285888671875,
          0.27978515625,
          0.74658203125,
          -0.35595703125,
          0.115478515625,
          0.13037109375,
          0.748046875,
          0.1251220703125,
          -0.060516357421875,
          -0.22265625,
          0.861328125,
          0.185791015625,
          -0.21142578125,
          0.07147216796875,
          0.6318359375,
          -0.12139892578125,
          0.1978759765625,
          0.2476806640625,
          0.2021484375,
          0.1060791015625,
          0.28857421875,
          0.2264404296875,
          0.1942138671875,
          -0.43310546875,
          -0.11956787109375,
          0.66796875,
          -0.0180816650390625,
          0.1302490234375,
          -0.0987548828125,
          -0.07855224609375,
          0.24169921875,
          -0.00852203369140625,
          -0.196533203125,
          0.07080078125,
          0.13134765625,
          0.308349609375,
          0.28369140625,
          0.3984375,
          0.1201171875,
          0.03021240234375,
          0.2120361328125,
          0.202392578125,
          0.50927734375,
          0.197509765625,
          -0.0806884765625,
          0.53076171875,
          0.1712646484375,
          0.1915283203125,
          -0.30078125,
          -0.1514892578125,
          0.1319580078125,
          -0.06927490234375,
          -0.01203155517578125,
          0.1842041015625,
          -0.1365966796875,
          0.53173828125,
          0.314697265625,
          0.153076171875,
          -0.60693359375,
          -0.24072265625,
          0.333740234375,
          0.0257110595703125,
          -0.09246826171875,
          -0.1036376953125,
          0.12548828125,
          -0.2303466796875,
          -0.41748046875,
          -0.178955078125,
          -0.45654296875,
          0.0015020370483398438,
          0.12335205078125,
          0.00780487060546875,
          -0.5322265625,
          -0.1815185546875,
          -0.12493896484375,
          -0.061004638671875,
          0.00592803955078125,
          -0.352294921875,
          0.04327392578125,
          0.036712646484375,
          0.1903076171875,
          -0.4072265625,
          -0.60986328125,
          -0.57177734375,
          0.197998046875,
          0.2169189453125,
          -0.045867919921875,
          0.318359375,
          -0.38671875,
          -0.1019287109375,
          0.302978515625,
          -0.10015869140625,
          -0.279541015625,
          0.25,
          0.09930419921875,
          0.22265625,
          0.05511474609375,
          0.0031414031982421875,
          -0.1357421875,
          0.0986328125,
          -0.27978515625,
          -0.439208984375,
          -0.370849609375,
          0.15625,
          -0.416259765625,
          -0.01027679443359375,
          -0.322998046875,
          -0.37744140625,
          0.021026611328125,
          0.1300048828125,
          0.234375,
          -0.263671875,
          -0.052825927734375,
          -0.00257110595703125,
          -0.308349609375,
          -0.4814453125,
          0.08099365234375,
          -0.090087890625,
          0.349365234375,
          0.38671875,
          -0.30615234375,
          0.032745361328125,
          0.0567626953125,
          0.236328125,
          -0.64306640625,
          0.1456298828125,
          0.353271484375,
          0.01297760009765625,
          0.325439453125,
          0.07049560546875,
          0.1590576171875,
          0.278564453125,
          0.3173828125,
          0.1475830078125,
          0.2144775390625,
          0.3271484375,
          0.03131103515625,
          0.089111328125,
          0.02374267578125,
          0.27978515625,
          0.167236328125,
          0.02044677734375,
          -0.068603515625,
          0.14501953125,
          0.1776123046875,
          -0.346435546875,
          0.2347412109375,
          0.253662109375,
          0.2763671875,
          -0.54443359375,
          -0.1685791015625,
          0.1304931640625,
          -0.16943359375,
          -0.039276123046875,
          -0.367919921875,
          0.1820068359375,
          -0.000568389892578125,
          0.2408447265625,
          0.160400390625,
          0.122314453125,
          -0.19873046875,
          0.0130462646484375,
          0.0859375,
          0.08856201171875,
          0.341796875,
          0.27734375,
          0.1939697265625,
          -0.031646728515625,
          0.1693115234375,
          -0.053131103515625,
          0.324462890625,
          -0.15576171875,
          0.05780029296875,
          0.264404296875,
          -0.495849609375,
          -0.39208984375,
          0.0877685546875,
          -0.2578125,
          -0.01282501220703125,
          0.212890625,
          0.57177734375,
          0.1915283203125,
          -0.205078125,
          -0.0296478271484375,
          0.01190948486328125,
          -0.1842041015625,
          -0.1943359375,
          0.05224609375,
          0.222900390625,
          0.2073974609375,
          -0.307373046875,
          -0.0244903564453125,
          -0.277099609375,
          0.226318359375,
          -0.533203125,
          0.09149169921875,
          -0.327392578125,
          0.22607421875,
          -0.0584716796875,
          -0.28271484375,
          -0.06561279296875,
          0.08306884765625,
          -0.08624267578125,
          0.00922393798828125,
          -0.052978515625,
          0.185791015625,
          0.499267578125,
          0.2734375,
          0.1170654296875,
          -0.60400390625,
          -0.164794921875,
          -0.359130859375,
          0.153564453125,
          -0.07244873046875,
          -0.269775390625,
          -0.400634765625,
          -0.369140625,
          -0.677734375,
          0.417724609375,
          -0.1328125,
          0.048370361328125,
          -0.279296875,
          0.27783203125,
          -0.0234375,
          0.328857421875,
          0.326416015625,
          -0.1864013671875,
          0.108642578125,
          0.1103515625,
          0.30810546875,
          -0.18212890625,
          0.287353515625,
          0.0115509033203125,
          -0.049072265625,
          0.4794921875,
          0.055755615234375,
          0.0977783203125,
          -0.047149658203125,
          -0.1436767578125,
          0.1363525390625,
          -0.141845703125,
          0.28173828125,
          -0.01397705078125,
          0.416015625,
          0.36669921875,
          -0.0880126953125,
          -0.041015625,
          0.64599609375,
          0.2113037109375,
          0.326416015625,
          0.1771240234375,
          -0.066650390625,
          -0.1549072265625,
          0.22900390625,
          -0.2440185546875,
          0.1246337890625,
          -0.25390625,
          0.1400146484375,
          0.2279052734375,
          0.298828125,
          -0.037933349609375,
          0.087158203125,
          0.1978759765625,
          -0.1357421875,
          0.049407958984375,
          -0.3037109375,
          0.286376953125,
          -0.53955078125,
          0.049285888671875,
          -0.377685546875,
          0.1866455078125,
          0.1954345703125,
          0.309326171875,
          -0.248779296875,
          -0.1370849609375,
          -0.1605224609375,
          -0.02337646484375,
          -0.466064453125,
          -0.272216796875,
          0.27490234375,
          0.1956787109375,
          0.1259765625,
          -0.39990234375,
          -0.260986328125,
          -0.0633544921875,
          -0.337158203125,
          -0.360107421875,
          -0.12139892578125,
          0.449462890625,
          -0.09893798828125,
          0.1341552734375,
          0.25537109375,
          0.120849609375,
          0.1197509765625,
          0.066162109375,
          -0.179443359375,
          -0.1776123046875,
          0.18212890625,
          -0.79638671875,
          -0.53369140625,
          -0.396728515625,
          -0.0246429443359375,
          -0.2587890625,
          -0.580078125,
          -0.04400634765625,
          0.050018310546875,
          -0.2083740234375,
          -0.19482421875,
          0.42578125,
          0.01776123046875,
          -0.59326171875,
          -0.11175537109375,
          0.038787841796875,
          -0.212158203125,
          0.0645751953125,
          -0.293212890625,
          -0.1580810546875,
          -0.40283203125,
          0.005031585693359375,
          -0.438720703125,
          -0.09991455078125,
          1.1435546875,
          -0.2113037109375,
          -0.301025390625,
          0.63427734375,
          -0.1639404296875,
          0.28125,
          0.1693115234375,
          -0.288818359375,
          0.093017578125,
          2.57421875,
          0.1478271484375,
          -0.058349609375,
          -0.1959228515625,
          -0.4580078125,
          2.296875,
          7.38671875,
          -0.04974365234375,
          1.275390625,
          0.3427734375,
          -0.0194091796875,
          -0.489013671875,
          0.06768798828125,
          1.1806640625,
          0.1563720703125,
          0.1724853515625,
          -0.058135986328125,
          0.1507568359375,
          -0.42236328125,
          0.09625244140625,
          0.14501953125,
          0.12347412109375,
          0.319580078125,
          -0.0242767333984375,
          0.185546875,
          0.6787109375,
          0.6005859375,
          0.250732421875,
          0.4072265625,
          0.11358642578125,
          0.199951171875,
          0.10369873046875,
          0.55029296875,
          -0.139404296875,
          -0.20947265625,
          0.369140625,
          0.14794921875,
          0.416748046875,
          0.60546875,
          0.453125,
          0.162353515625,
          0.267578125,
          -0.59765625,
          0.0286102294921875,
          0.1907958984375,
          0.050811767578125,
          -0.1483154296875,
          0.00862884521484375,
          0.1435546875,
          -0.09869384765625,
          0.216796875,
          -0.0033550262451171875,
          -0.11004638671875,
          -0.051025390625,
          -0.389404296875,
          0.431640625,
          -0.04364013671875,
          -0.31103515625,
          -0.212890625,
          0.17724609375,
          -0.050506591796875,
          -0.058074951171875,
          -0.58935546875,
          -0.2666015625,
          -0.144775390625,
          -0.0093841552734375,
          -0.16796875,
          -0.048492431640625,
          0.048004150390625,
          -0.2041015625,
          0.025238037109375,
          -0.295166015625,
          0.239013671875,
          -0.10968017578125,
          -0.265625,
          0.30322265625,
          -0.326171875,
          0.241943359375,
          -0.15478515625,
          0.059295654296875
        ]
      },
      {
        "bias": [
          -0.06549072265625,
          -0.09283447265625,
          -0.088623046875,
          -0.0712890625
        ],
        "in_features": 32,
        "out_features": 4,
        "type": "linear",
        "weights": [
          -0.12493896484375,
          -0.017547607421875,
          0.400390625,
          -0.036224365234375,
          0.018341064453125,
          0.05218505859375,
          0.036956787109375,
          0.0281219482421875,
          0.1041259765625,
          0.23681640625,
          -0.235595703125,
          0.1649169921875,
          0.15283203125,
          0.23779296875,
          -0.0222625732421875,
          0.1939697265625,
          -0.33935546875,
          0.1802978515625,
          -0.150634765625,
          -0.2255859375,
          -0.320068359375,
          -0.176513671875,
          0.0244598388671875,
          -0.437255859375,
          -0.270751953125,
          0.3564453125,
          -0.185791015625,
          0.06683349609375,
          -0.1260986328125,
          -0.7919921875,
          -0.2491455078125,
          0.130126953125,
          0.11688232421875,
          0.09136962890625,
          -0.1629638671875,
          -0.0687255859375,
          -0.39501953125,
          0.048858642578125,
          0.11358642578125,
          0.08660888671875,
          -0.12078857421875,
          0.040313720703125,
          0.279052734375,
          0.10675048828125,
          -0.34716796875,
          -0.06573486328125,
          0.361572265625,
          -0.1617431640625,
          -0.367431640625,
          -0.2412109375,
          -0.1322021484375,
          0.01372528076171875,
          -0.373291015625,
          0.034942626953125,
          0.13037109375,
          -0.1251220703125,
          -0.350830078125,
          0.286376953125,
          -0.242919921875,
          -0.2369384765625,
          -0.0279388427734375,
          -0.92822265625,
          -0.1583251953125,
          -0.033447265625,
          0.161865234375,
          -0.3779296875,
          -0.2359619140625,
          -0.2032470703125,
          -0.072021484375,
          -0.25634765625,
          -0.055328369140625,
          0.12115478515625,
          0.01171875,
          0.49267578125,
          0.11370849609375,
          -0.33251953125,
          0.3828125,
          -0.1845703125,
          -0.1383056640625,
          -0.2032470703125,
          -0.388427734375,
          -0.021697998046875,
          0.43359375,
          -0.052825927734375,
          -0.483642578125,
          -0.309326171875,
          -0.1845703125,
          -0.2242431640625,
          -0.39599609375,
          0.08404541015625,
          -0.3583984375,
          -0.3857421875,
          -0.176513671875,
          -0.25732421875,
          -0.67431640625,
          -0.09033203125,
          0.272705078125,
          -0.82568359375,
          0.19189453125,
          -0.0523681640625,
          -0.1636962890625,
          0.1729736328125,
          -0.250244140625,
          -0.47314453125,
          0.12091064453125,
          0.143310546875,
          -0.2880859375,
          -0.051605224609375,
          0.251220703125,
          0.291015625,
          -0.1270751953125,
          -0.177734375,
          -0.193115234375,
          -0.416015625,
          -0.1802978515625,
          -0.4853515625,
          0.03350830078125,
          -0.463623046875,
          0.108642578125,
          -0.485595703125,
          0.365478515625,
          -0.07171630859375,
          -0.2286376953125,
          0.0692138671875,
          0.056060791015625,
          -0.27587890625,
          -0.0811767578125,
          -0.269775390625
        ]
      }
    ],
    "output": 4
  }
}