{
  "model": {
    "layers": [
      {
        "in_features": 8,
        "out_features": 12,
        "weights": [
          -0.3915679156780243,
          -0.5305898785591125,
          -0.05963669717311859,
          0.030268337577581406,
          -0.4010612368583679,
          -0.07836376130580902,
          -0.32556185126304626,
          -0.27206191420555115,
          -0.17321136593818665,
          -0.21027709543704987,
          -0.21194250881671906,
          -0.03875506669282913,
          0.23056495189666748,
          -0.22885553538799286,
          -0.015352130867540836,
          -0.22312793135643005,
          0.48334938287734985,
          -0.19271619617938995,
          0.3506816029548645,
          0.33343493938446045,
          0.17201761901378632,
          0.10495232790708542,
          -0.1196705549955368,
          0.5437321066856384,
          -0.3567551374435425,
          -0.04048200324177742,
          -0.6526864767074585,
          -0.06259001046419144,
          -0.14713120460510254,
          -0.06575045734643936,
          0.11160419136285782,
          -0.3247257471084595,
          -0.2252664715051651,
          0.20419496297836304,
          0.07918357104063034,
          -0.07245508581399918,
          0.2274235039949417,
          0.17321060597896576,
          0.023350927978754044,
          -0.17917132377624512,
          -0.4822383224964142,
          -0.4956602454185486,
          0.16746193170547485,
          0.06466875225305557,
          -0.33734896779060364,
          -0.4477766454219818,
          -0.11030635237693787,
          -0.21875299513339996,
          -0.1957806944847107,
          -0.475684255361557,
          0.24627678096294403,
          -0.16140401363372803,
          -0.31190913915634155,
          -0.16707105934619904,
          -0.20307523012161255,
          -0.23996496200561523,
          0.2292550504207611,
          -0.17297933995723724,
          -0.856788158416748,
          0.146934375166893,
          -0.22853149473667145,
          -0.6016387939453125,
          -0.268361896276474,
          -0.22374647855758667,
          -0.5474383234977722,
          -0.37086331844329834,
          -0.41235795617103577,
          -0.10038899630308151,
          -0.24009017646312714,
          -0.20313437283039093,
          0.15764595568180084,
          -0.45596057176589966,
          -0.27840742468833923,
          -0.06251829117536545,
          -0.042987216264009476,
          -0.3835236430168152,
          -0.5387078523635864,
          -0.1819227784872055,
          -0.2832645773887634,
          -0.4055870473384857,
          0.24261748790740967,
          -0.28720247745513916,
          0.2389581799507141,
          0.2721318006515503,
          0.824960470199585,
          0.12808065116405487,
          0.03343561664223671,
          0.6537485122680664,
          -0.19435404241085052,
          -0.2877233624458313,
          0.049914393573999405,
          -0.29097655415534973,
          -0.1471864879131317,
          0.006408892571926117,
          -0.17820438742637634,
          -0.2013048231601715
        ],
        "bias": [
          -0.4155065715312958,
          0.21643443405628204,
          0.4706820845603943,
          -0.044391434639692307,
          0.1285848170518875,
          -0.31529831886291504,
          -0.2889936566352844,
          -0.32251229882240295,
          -0.5196255445480347,
          -0.10404843091964722,
          0.681171178817749,
          -0.07132664322853088
        ]
      },
      {
        "in_features": 38,
        "out_features": 64,
        "weights": [
          0.5020515322685242,
          0.3381670415401459,
          0.2827872931957245,
          0.1882646530866623,
          0.27545395493507385,
          0.42657941579818726,
          0.3792077600955963,
          0.329251766204834,
          0.038915570825338364,
          -0.004485710524022579,
          -0.028640400618314743,
          0.1910744160413742,
          0.1283712387084961,
          -0.1747896671295166,
          -0.09707962721586227,
          -0.12437927722930908,
          0.03440398722887039,
          -0.09410376846790314,
          -0.07523132115602493,
          0.09838356077671051,
          -0.11297931522130966,
          -0.048032764345407486,
          0.03658178821206093,
          -0.027693089097738266,
          -0.024783730506896973,
          -0.015250839293003082,
          0.31282901763916016,
          0.23380644619464874,
          0.4896825850009918,
          -0.0744323655962944,
          0.022809062153100967,
          -0.035410620272159576,
          0.11943890154361725,
          -0.057252656668424606,
          0.09718168526887894,
          -0.13632912933826447,
          0.12123069167137146,
          -0.062386441975831985,
          -0.09030584990978241,
          -0.0012483166065067053,
          -0.0685642808675766,
          0.06882534921169281,
          -0.06087961792945862,
          0.07949820905923843,
          0.005548913963139057,
          -0.014886914752423763,
          0.09222657233476639,
          0.001224558800458908,
          0.01953437551856041,
          -0.20774640142917633,
          -0.12763899564743042,
          0.1858665496110916,
          -0.15952995419502258,
          0.013754263520240784,
          0.19069908559322357,
          0.09957149624824524,
          0.02223730832338333,
          -0.23773311078548431,
          0.18100793659687042,
          0.1655527651309967,
          -0.2229442447423935,
          -0.05163973197340965,
          0.003676276421174407,
          -0.039825160056352615,
          -0.20625732839107513,
          -0.2207818329334259,
          -0.2592531442642212,
          -0.07565892487764359,
          -0.14029885828495026,
          -0.19573064148426056,
          0.12158246338367462,
          0.09834040701389313,
          0.17705103754997253,
          0.2415662705898285,
          0.18526597321033478,
          0.23258326947689056,
          0.17591260373592377,
          -0.07281342148780823,
          -0.07461276650428772,
          0.08433226495981216,
          -0.011408026330173016,
          0.10394396632909775,
          0.05802200734615326,
          -0.007218106184154749,
          -0.005336878355592489,
          -0.04062286391854286,
          0.06313366442918777,
          0.1309107542037964,
          -0.4450324773788452,
          0.13466604053974152,
          -0.17237195372581482,
          0.25032538175582886,
          0.02119673416018486,
          -0.05578961223363876,
          -0.5127842426300049,
          0.10095864534378052,
          -0.1350674033164978,
          0.31452837586402893,
          -0.010671465657651424,
          -0.026030097156763077,
          0.04003629460930824,
          0.030608896166086197,
          0.33320894837379456,
          -0.03489542007446289,
          -0.061408497393131256,
          -0.16206251084804535,
          0.17116382718086243,
          0.27327221632003784,
          0.21757930517196655,
          -0.08765915036201477,
          -0.21546685695648193,
          -0.2584460973739624,
          0.13356590270996094,
          0.22791603207588196,
          -0.07395269721746445,
          -0.02405698411166668,
          -0.054911088198423386,
          0.17560705542564392,
          0.058734554797410965,
          -0.06228351593017578,
          0.0377475842833519,
          0.04987971857190132,
          -0.07851678133010864,
          -0.03477499634027481,
          0.06261027604341507,
          0.18068376183509827,
          -0.3857840299606323,
          0.023822281509637833,
          -0.09116356074810028,
          0.3941602110862732,
          -0.0009122059564106166,
          0.14793173968791962,
          -0.3165162205696106,
          0.012811149470508099,
          -0.0818791538476944,
          0.31763720512390137,
          0.10652852803468704,
          0.020863864570856094,
          0.044925861060619354,
          0.056806471198797226,
          0.3767234683036804,
          -0.13424471020698547,
          -0.21920160949230194,
          -0.24947123229503632,
          0.07310987263917923,
          0.27651914954185486,
          0.3201652765274048,
          -0.1684630662202835,
          -0.09142038971185684,
          -0.24105650186538696,
          0.05424752086400986,
          0.19743762910366058,
          0.06816549599170685,
          -0.03137044608592987,
          0.08284912258386612,
          0.030590515583753586,
          -0.0014295901637524366,
          0.07053101807832718,
          0.06283338367938995,
          -0.0977165624499321,
          -0.0895795002579689,
          -0.028792060911655426,
          -0.01905335672199726,
          0.2532314956188202,
          -0.21500688791275024,
          -0.21738234162330627,
          -0.39511069655418396,
          0.25502243638038635,
          0.22418037056922913,
          0.07824895530939102,
          -0.18725018203258514,
          -0.3710005581378937,
          0.29426541924476624,
          0.34383514523506165,
          -0.0771351009607315,
          0.028162583708763123,
          -0.0037251305766403675,
          0.05942194536328316,
          0.22320477664470673,
          0.23939189314842224,
          -0.12245543301105499,
          -0.2691252529621124,
          -0.314824640750885,
          0.009529531933367252,
          0.4662131071090698,
          0.2973996698856354,
          0.13097704946994781,
          -0.16705206036567688,
          0.15067055821418762,
          0.35761576890945435,
          0.0015398301184177399,
          -0.05801985785365105,
          0.029153898358345032,
          -0.0042665679939091206,
          0.090669184923172,
          0.1442572921514511,
          0.10162745416164398,
          -0.1519802063703537,
          0.07481031864881516,
          0.028726942837238312,
          -0.019787179306149483,
          -0.32860463857650757,
          -0.11638078838586807,
          -0.03608012571930885,
          0.11140718311071396,
          0.0519709549844265,
          0.15144670009613037,
          -0.39212459325790405,
          0.008653702214360237,
          -0.3249797821044922,
          0.1729786992073059,
          0.05053918808698654,
          0.1718977838754654,
          -0.024443112313747406,
          -0.02065165713429451,
          -0.053259607404470444,
          -0.11220775544643402,
          0.20799151062965393,
          0.09383305162191391,
          0.3166995942592621,
          -0.21808555722236633,
          -0.023384740576148033,
          -0.14230914413928986,
          0.15170817077159882,
          -0.08839908987283707,
          0.19832564890384674,
          -0.06031707674264908,
          0.10657672584056854,
          0.39268314838409424,
          0.24820630252361298,
          0.2759576141834259,
          0.34194809198379517,
          0.1563458889722824,
          0.37463513016700745,
          0.2945225238800049,
          0.1575516015291214,
          -0.12018194794654846,
          0.009446595795452595,
          -0.06221317872405052,
          -0.3466086685657501,
          0.001961458707228303,
          0.0537039078772068,
          0.213891863822937,
          -0.07981549203395844,
          -0.08455559611320496,
          -0.07538437098264694,
          0.11089871823787689,
          -0.17865976691246033,
          -0.03911391645669937,
          -0.09843165427446365,
          -0.020775223150849342,
          0.07194989174604416,
          -0.032486628741025925,
          0.04010084271430969,
          -0.22705316543579102,
          -0.052226513624191284,
          -0.056873735040426254,
          0.4070911109447479,
          0.16996100544929504,
          0.3066364526748657,
          -0.1438915878534317,
          0.013166224583983421,
          -0.01729949750006199,
          0.29157230257987976,
          0.016783054918050766,
          0.12692800164222717,
          0.09682457894086838,
          -0.13386040925979614,
          -0.09116262197494507,
          -0.0007168297888711095,
          0.03849433735013008,
          -0.04521612823009491,
          0.16783803701400757,
          -0.12461821734905243,
          -0.16272106766700745,
          -0.0646139532327652,
          0.05972202494740486,
          -0.05234739929437637,
          0.32635265588760376,
          0.06520362198352814,
          0.054580170661211014,
          -0.21753378212451935,
          -0.1825886070728302,
          0.06215789169073105,
          -0.4061979055404663,
          -0.09754567593336105,
          -0.07720047235488892,
          0.34756559133529663,
          0.132367342710495,
          0.04694835841655731,
          0.05342715606093407,
          0.11625120043754578,
          -0.16542766988277435,
          -0.11845282465219498,
          0.24625588953495026,
          0.29808953404426575,
          -0.006513473577797413,
          -0.277209609746933,
          0.19272691011428833,
          0.0025880183093249798,
          -0.15706945955753326,
          -0.26805004477500916,
          0.0724552720785141,
          0.15935301780700684,
          -0.06384965777397156,
          0.06170888990163803,
          -0.06699299812316895,
          -0.0034573019947856665,
          -0.05365142598748207,
          -0.04730556905269623,
          -0.09025890380144119,
          0.060510069131851196,
          0.03384138271212578,
          -0.09420274198055267,
          0.11909277737140656,
          -0.30371034145355225,
          0.1268039494752884,
          -0.1523396223783493,
          0.009005077183246613,
          0.03481774404644966,
          0.12908218801021576,
          -0.012867379933595657,
          0.010684147477149963,
          -0.03436032310128212,
          0.3059626519680023,
          0.18684157729148865,
          0.03917291387915611,
          -0.08632668852806091,
          0.07285162806510925,
          0.057923607528209686,
          0.016842933371663094,
          0.0670689269900322,
          -0.008415215648710728,
          -0.11972476541996002,
          0.029670478776097298,
          0.2580684721469879,
          -0.09062063694000244,
          0.0624505989253521,
          -0.18551266193389893,
          0.12256833910942078,
          -0.259225457906723,
          0.02712966687977314,
          0.06202050298452377,
          0.006059044972062111,
          -0.0501665398478508,
          -0.012405624613165855,
          -0.038447409868240356,
          0.03470771014690399,
          -0.026141703128814697,
          -0.026295911520719528,
          -0.018911536782979965,
          0.02783672697842121,
          -0.037596747279167175,
          0.058224182575941086,
          0.11906339973211288,
          0.20901398360729218,
          0.11570721119642258,
          0.18546850979328156,
          0.08979960530996323,
          -0.06874122470617294,
          -0.18673695623874664,
          -0.0825735405087471,
          -0.19709675014019012,
          -0.18590615689754486,
          -0.16126398742198944,
          0.03166833892464638,
          -0.022816630080342293,
          -0.013011835515499115,
          0.027472540736198425,
          -0.225058913230896,
          0.33359256386756897,
          0.004372369963675737,
          -0.06621458381414413,
          -0.06837508082389832,
          0.05749179422855377,
          0.03780483826994896,
          0.005076422356069088,
          -0.048582643270492554,
          0.2715947926044464,
          -0.2242429554462433,
          0.0665549486875534,
          0.05823279917240143,
          0.04558687284588814,
          -0.18055984377861023,
          -0.01946796290576458,
          0.03792629390954971,
          0.038128480315208435,
          0.045953329652547836,
          -0.06821911036968231,
          -0.05270138382911682,
          0.0697435811161995,
          -0.1354978233575821,
          -0.04075797647237778,
          -0.015390864573419094,
          -0.29831984639167786,
          0.03850444033741951,
          0.04743883013725281,
          -0.06484505534172058,
          -0.056793201714754105,
          -0.10561327636241913,
          -0.3409324884414673,
          -0.053220316767692566,
          0.3083496689796448,
          -0.00011530722986208275,
          0.04905657842755318,
          0.06656818836927414,
          0.0006818262627348304,
          -0.06421050429344177,
          -0.04850535839796066,
          0.10454507172107697,
          -0.11695712059736252,
          -0.01009224634617567,
          0.08474473655223846,
          0.08405765891075134,
          0.15102067589759827,
          -0.06585779041051865,
          -0.14845015108585358,
          -0.16916844248771667,
          -0.005658863112330437,
          -0.014417450875043869,
          0.024172360077500343,
          0.05168488249182701,
          0.003266542451456189,
          -0.009256082586944103,
          -0.032141268253326416,
          -0.017853494733572006,
          0.026606757193803787,
          0.026897426694631577,
          -0.03780226781964302,
          0.3371559679508209,
          0.1022297665476799,
          -0.19289149343967438,
          -0.17066536843776703,
          -0.19130566716194153,
          0.3328951895236969,
          -0.42986568808555603,
          -0.03307948634028435,
          0.4147821068763733,
          0.5352638363838196,
          0.08706360310316086,
          -0.37669694423675537,
          0.002081220271065831,
          -0.028638118878006935,
          -0.03305739536881447,
          0.07808038592338562,
          0.35857847332954407,
          0.29949524998664856,
          -0.293536514043808,
          -0.357734739780426,
          -0.4129146933555603,
          -0.39106202125549316,
          -0.42022889852523804,
          -0.596217930316925,
          0.30995503067970276,
          0.3653739094734192,
          0.4175274074077606,
          0.1780063360929489,
          0.12685638666152954,
          0.1240127682685852,
          0.06588675081729889,
          0.16756252944469452,
          0.17892783880233765,
          0.14183728396892548,
          0.14408425986766815,
          -0.05644109845161438,
          -0.008457481861114502,
          0.01840042509138584,
          -0.193287193775177,
          0.01691303588449955,
          -0.4309646785259247,
          -0.2957233786582947,
          0.03497961163520813,
          0.16640996932983398,
          -0.36955511569976807,
          -0.08644459396600723,
          -0.1271570920944214,
          -0.04284831881523132,
          0.03572263941168785,
          0.0971795842051506,
          0.02494233101606369,
          0.014149491675198078,
          0.027401499450206757,
          0.23092152178287506,
          0.19311915338039398,
          0.20270416140556335,
          0.1660194844007492,
          -0.2316187173128128,
          0.05448663607239723,
          0.026157649233937263,
          0.043546367436647415,
          0.04639815166592598,
          0.19133208692073822,
          -0.06517065316438675,
          0.16849449276924133,
          -0.025933295488357544,
          -0.04688379541039467,
          0.03072473593056202,
          -0.1155424490571022,
          -0.09395178407430649,
          0.13337796926498413,
          0.05265210196375847,
          0.08612386882305145,
          -0.047807130962610245,
          0.04407649487257004,
          -0.078689344227314,
          -0.22572314739227295,
          -0.14913687109947205,
          -0.11894070357084274,
          -0.2314012199640274,
          0.09874787926673889,
          -0.10436864197254181,
          0.08681567758321762,
          -0.062369514256715775,
          0.1487564742565155,
          0.19756020605564117,
          0.05722292140126228,
          0.13601361215114594,
          0.05852625519037247,
          -0.046312667429447174,
          -0.012692817486822605,
          -0.18404893577098846,
          0.18495149910449982,
          -0.034246478229761124,
          -0.1987370252609253,
          0.18587356805801392,
          -0.10685908049345016,
          0.19952136278152466,
          -0.15881603956222534,
          0.22365115582942963,
          0.2513228952884674,
          -0.157877579331398,
          0.021521572023630142,
          0.1256186068058014,
          0.11296320706605911,
          -0.17828889191150665,
          -0.15467561781406403,
          0.12149777263402939,
          -0.016096346080303192,
          -0.020332233980298042,
          -0.01406724564731121,
          -0.18335749208927155,
          -0.019755566492676735,
          0.08649081736803055,
          0.06688866019248962,
          0.17566721141338348,
          -0.12723153829574585,
          -0.17653962969779968,
          0.13688233494758606,
          -0.21130463480949402,
          -0.05548400431871414,
          0.19158808887004852,
          -0.1661495417356491,
          -0.030297402292490005,
          0.1648605763912201,
          -0.1550040990114212,
          0.0931633859872818,
          0.06917129456996918,
          0.0871773287653923,
          -0.4040956199169159,
          0.11765895783901215,
          -0.17304593324661255,
          -0.3632245659828186,
          0.06784588098526001,
          0.03368619829416275,
          -0.31313568353652954,
          0.10779842734336853,
          -0.1283888816833496,
          -0.4514090120792389,
          0.06024116277694702,
          0.01849600113928318,
          -0.06540478765964508,
          0.007238730322569609,
          -0.10091514885425568,
          -3.839247438008897e-05,
          -0.09882078319787979,
          0.18713092803955078,
          -0.011635376140475273,
          -0.07637698948383331,
          -0.0157737135887146,
          -0.03272410109639168,
          0.057388316839933395,
          0.12327080219984055,
          -0.03218945860862732,
          0.1995466649532318,
          -0.21933014690876007,
          0.017665879800915718,
          -0.1358720064163208,
          0.21599623560905457,
          0.0037859934382140636,
          0.1943405121564865,
          -0.19618427753448486,
          0.10268638283014297,
          -0.13039404153823853,
          -0.017722949385643005,
          0.036415450274944305,
          0.03382633253931999,
          0.5003147125244141,
          -0.23928359150886536,
          0.18588188290596008,
          -0.4774264693260193,
          0.29303139448165894,
          -0.11142673343420029,
          0.0927874967455864,
          -0.04948762431740761,
          0.022204121574759483,
          -0.1304328739643097,
          0.05752822384238243,
          -0.02893642894923687,
          0.06647299230098724,
          0.12990416586399078,
          -0.05075061693787575,
          0.0003512015682645142,
          -0.097175233066082,
          -0.08113487809896469,
          -0.04086117818951607,
          -0.06292620301246643,
          -0.06094475835561752,
          -0.07237553596496582,
          0.0809331163764,
          -0.27325111627578735,
          -0.09136736392974854,
          -0.10095135867595673,
          0.0749114379286766,
          0.03769400715827942,
          0.07083193957805634,
          0.09361305087804794,
          0.19186197221279144,
          0.11532190442085266,
          -0.15122999250888824,
          -0.0768398642539978,
          -0.15578272938728333,
          -0.015979018062353134,
          0.05856817215681076,
          0.0819627121090889,
          0.35406139492988586,
          -0.047167714685201645,
          -0.05160368233919144,
          0.2052924931049347,
          -0.17395955324172974,
          0.12627796828746796,
          -0.2814015746116638,
          0.06570515781641006,
          0.0012202119687572122,
          -0.13323767483234406,
          0.09712369740009308,
          -0.05927863344550133,
          0.34263870120048523,
          0.24294990301132202,
          0.23857931792736053,
          0.28095319867134094,
          0.330796480178833,
          0.2419530153274536,
          0.351611465215683,
          0.19332417845726013,
          -0.046182867139577866,
          0.0307847261428833,
          -0.03972957655787468,
          -0.13334369659423828,
          -0.07299304753541946,
          -0.06085949391126633,
          -0.14776107668876648,
          -0.05522676184773445,
          0.12118876725435257,
          0.08044914901256561,
          0.03792235627770424,
          -0.29264095425605774,
          -0.19027310609817505,
          -0.07290653884410858,
          0.03707724064588547,
          0.04507021978497505,
          -0.025675231590867043,
          -0.008464297279715538,
          6.11507348367013e-05,
          0.02633592113852501,
          0.030949639156460762,
          -0.00041394136496819556,
          -0.10521752387285233,
          -9.882237645797431e-05,
          0.16754481196403503,
          0.3444136381149292,
          0.3567717969417572,
          0.0970667377114296,
          -0.1303824484348297,
          -0.0003746340225916356,
          -0.04238688200712204,
          0.03024820238351822,
          0.04813999682664871,
          -0.014366920106112957,
          -0.06661249697208405,
          0.069614939391613,
          -0.02838820591568947,
          0.11439815163612366,
          0.07185201346874237,
          0.012588909827172756,
          0.0005251576658338308,
          -0.00050296017434448,
          0.24691960215568542,
          0.12405750155448914,
          -0.19785059988498688,
          -0.280856192111969,
          -0.12950584292411804,
          -0.1592860370874405,
          -0.30048519372940063,
          -0.09587068855762482,
          0.11692720651626587,
          0.315904438495636,
          0.07706522941589355,
          -0.03131278231739998,
          -0.006061123218387365,
          -0.039501871913671494,
          0.07102563232183456,
          -0.23190650343894958,
          0.30531492829322815,
          0.10971006006002426,
          0.21051475405693054,
          -0.20902512967586517,
          -0.016497693955898285,
          0.2095114141702652,
          -0.17624561488628387,
          -0.0430990569293499,
          -0.186872199177742,
          0.18930664658546448,
          -0.06103343889117241,
          0.12377696484327316,
          -0.053303465247154236,
          -0.11297030746936798,
          0.1359853744506836,
          -0.06760100275278091,
          0.14396192133426666,
          -0.05748431757092476,
          0.09848018735647202,
          -0.03453453630208969,
          -0.02025386318564415,
          0.16928167641162872,
          -0.29955121874809265,
          -0.030793048441410065,
          0.037327080965042114,
          -0.17326398193836212,
          -0.14395920932292938,
          0.09968697279691696,
          -0.3197210431098938,
          -0.018116045743227005,
          -0.030549583956599236,
          -0.1976398229598999,
          -0.14242945611476898,
          -0.0813208669424057,
          -0.021652378141880035,
          -0.009452776052057743,
          0.11415291577577591,
          0.05200864002108574,
          -0.2571409046649933,
          0.18291722238063812,
          0.051407407969236374,
          -0.29562583565711975,
          0.1250309944152832,
          0.07142338156700134,
          -0.21779559552669525,
          0.18437746167182922,
          0.0734056904911995,
          -0.25643429160118103,
          -0.060357723385095596,
          0.05105491727590561,
          -0.011517358012497425,
          0.1051127016544342,
          0.055254027247428894,
          -0.011577148921787739,
          -0.12365006655454636,
          0.023481979966163635,
          -0.037824347615242004,
          -0.009842289611697197,
          0.02681761234998703,
          -0.04103708267211914,
          0.24359028041362762,
          -0.015085266903042793,
          0.4013396203517914,
          -0.03328730911016464,
          0.21749259531497955,
          0.08894161880016327,
          0.34599748253822327,
          -0.0780085027217865,
          0.3227651119232178,
          -0.014619964174926281,
          0.09787175059318542,
          0.015032466500997543,
          0.020581653341650963,
          0.021290842443704605,
          -0.39981624484062195,
          0.041257455945014954,
          0.15082216262817383,
          0.17201188206672668,
          -0.1436917781829834,
          -0.04881316423416138,
          -0.4163897633552551,
          -0.012353374622762203,
          0.015760203823447227,
          0.2816811501979828,
          -0.22190849483013153,
          -0.03677063062787056,
          -0.03437720239162445,
          0.142018660902977,
          0.029384734109044075,
          -0.13603368401527405,
          0.039496876299381256,
          0.08599622547626495,
          -0.14522068202495575,
          0.08176273107528687,
          -0.10588443279266357,
          -0.015731249004602432,
          -0.024555139243602753,
          -0.0909167155623436,
          0.2943772077560425,
          -0.04457293823361397,
          -0.13837967813014984,
          0.038487087935209274,
          -0.2078588455915451,
          -0.1438685953617096,
          -0.16774120926856995,
          -0.19240456819534302,
          0.1935812383890152,
          0.03244956210255623,
          0.1103958711028099,
          0.0481104776263237,
          -0.006363819353282452,
          0.05716787278652191,
          -0.11088936030864716,
          -0.09824975579977036,
          0.1370125412940979,
          -0.1324043869972229,
          0.0841073989868164,
          -0.1167946606874466,
          0.35990387201309204,
          -0.010952240787446499,
          -0.2074059247970581,
          0.12130362540483475,
          -0.1724657565355301,
          0.11667926609516144,
          0.165616974234581,
          0.046712711453437805,
          0.13469985127449036,
          0.15269362926483154,
          -0.03097701631486416,
          0.022801684215664864,
          0.09457853436470032,
          0.12474733591079712,
          -0.15344734489917755,
          -0.017122427001595497,
          -0.012854200787842274,
          -0.0057494547218084335,
          -0.02529667131602764,
          -0.02072063647210598,
          0.16104868054389954,
          0.03474105894565582,
          -0.1602703183889389,
          -0.26244282722473145,
          -0.0868358165025711,
          0.051693227142095566,
          0.3426850140094757,
          0.06198122352361679,
          -0.06752441823482513,
          0.07474418729543686,
          0.004520653747022152,
          0.07567878812551498,
          -0.0007479363703168929,
          -0.0010731101501733065,
          -0.052653197199106216,
          0.08835067600011826,
          0.090325266122818,
          0.15589435398578644,
          -0.02833723835647106,
          -0.18122431635856628,
          -0.20159205794334412,
          0.11813698709011078,
          0.1364385485649109,
          0.21561622619628906,
          -0.035834722220897675,
          0.07619563490152359,
          0.078941211104393,
          0.10452833771705627,
          0.14388738572597504,
          -0.0784630998969078,
          0.05534578487277031,
          -0.06792944669723511,
          0.005610043182969093,
          -0.020211532711982727,
          0.02487521804869175,
          -0.12534987926483154,
          -0.16165392100811005,
          -0.30707409977912903,
          0.004148650914430618,
          0.06143292412161827,
          -0.13428282737731934,
          0.07387353479862213,
          -0.02549854852259159,
          0.05341630056500435,
          0.044680166989564896,
          0.20267918705940247,
          0.29475098848342896,
          -0.019574956968426704,
          0.014799099415540695,
          0.01206323504447937,
          0.17025431990623474,
          0.15769806504249573,
          -0.07934802770614624,
          -0.1942145675420761,
          0.04099910706281662,
          -0.11206892132759094,
          0.08951333165168762,
          -0.060661349445581436,
          -0.021916138008236885,
          -0.13317927718162537,
          -0.11891810595989227,
          0.16723226010799408,
          0.026920855045318604,
          0.008953023701906204,
          -0.05424957722425461,
          0.08598899841308594,
          -0.05445641279220581,
          -0.11693119257688522,
          0.03237883746623993,
          0.09434178471565247,
          -0.05395372211933136,
          -0.0024395519867539406,
          -0.01135097537189722,
          0.2761543393135071,
          0.13420222699642181,
          -0.02794824168086052,
          -0.22799605131149292,
          -0.0207070279866457,
          0.01746067777276039,
          0.030613642185926437,
          0.09306833893060684,
          -0.07355126738548279,
          -0.01663738489151001,
          0.062390703707933426,
          0.02342715859413147,
          0.028638549149036407,
          -0.00205830205231905,
          0.02441851794719696,
          -0.22903642058372498,
          -0.048175908625125885,
          0.15249766409397125,
          -0.08249261975288391,
          0.05321530997753143,
          -0.11103738844394684,
          -0.12198058515787125,
          0.03604762256145477,
          0.18701407313346863,
          -0.12993377447128296,
          0.027668803930282593,
          -0.21446581184864044,
          0.1009593978524208,
          -0.04098755121231079,
          0.07554928958415985,
          0.07305431365966797,
          -0.03249432146549225,
          -0.061212360858917236,
          0.07993243634700775,
          0.08982674777507782,
          -0.02650892548263073,
          -0.07173537462949753,
          0.10659781843423843,
          -0.0839204266667366,
          -0.1710897833108902,
          -0.3192612826824188,
          0.16723735630512238,
          0.2610267400741577,
          0.11126334965229034,
          -0.08277051150798798,
          -0.07789309322834015,
          -0.06796344369649887,
          0.006683739833533764,
          -0.02425961010158062,
          0.10059002786874771,
          -0.034100357443094254,
          0.0709584578871727,
          0.06287723034620285,
          -0.04903953894972801,
          0.05908740684390068,
          -0.33444276452064514,
          0.08886571228504181,
          -0.15990325808525085,
          0.2494306117296219,
          0.06878471374511719,
          0.00027202407363802195,
          -0.043562039732933044,
          0.06963083893060684,
          -0.04599133878946304,
          0.09714793413877487,
          0.050209298729896545,
          -0.07675465941429138,
          -0.005675820633769035,
          -0.1591111570596695,
          0.09463679045438766,
          0.0466156005859375,
          0.13481128215789795,
          0.05143258720636368,
          -0.0353417806327343,
          -0.034377336502075195,
          0.05689453333616257,
          0.07379645109176636,
          -0.0018477955600246787,
          0.047144073992967606,
          -0.13951194286346436,
          0.027948779985308647,
          -0.11360745877027512,
          0.6091412305831909,
          0.14360062777996063,
          -0.6603134870529175,
          -0.05810890346765518,
          -0.0736265778541565,
          0.015377574600279331,
          -0.006101573351770639,
          0.03699149563908577,
          0.037039536982774734,
          -0.06092414632439613,
          -0.013350252993404865,
          -0.07942578196525574,
          0.13470232486724854,
          0.01682605966925621,
          0.11519153416156769,
          0.5366230607032776,
          0.7155685424804688,
          0.9277893304824829,
          -0.023229192942380905,
          0.026254070922732353,
          0.08821956813335419,
          0.040063995867967606,
          -0.03472080081701279,
          -0.0436195507645607,
          -0.11798519641160965,
          0.07131733000278473,
          0.00349531602114439,
          0.11841046065092087,
          0.15771201252937317,
          -0.0224041398614645,
          -0.042287472635507584,
          0.03133513778448105,
          0.044461119920015335,
          -0.15626771748065948,
          -0.03882647678256035,
          -0.041045915335416794,
          0.14460687339305878,
          0.027103129774332047,
          0.08711562305688858,
          0.1594850867986679,
          -0.05364452302455902,
          -0.13315975666046143,
          0.011959417723119259,
          -0.15937237441539764,
          -0.018467023968696594,
          0.021208154037594795,
          0.04063494876027107,
          0.16193887591362,
          -0.016197627410292625,
          -0.1190258041024208,
          0.20775434374809265,
          -0.11706718802452087,
          0.12993162870407104,
          -0.13439083099365234,
          -0.05514337867498398,
          -0.0318724699318409,
          -0.08814550936222076,
          0.11000645160675049,
          -0.046041090041399,
          -0.1256365031003952,
          -0.0243963785469532,
          -0.1612330824136734,
          -0.0002739769988693297,
          -0.02422194927930832,
          0.1029621809720993,
          0.13101699948310852,
          -0.12583641707897186,
          0.027375735342502594,
          -0.10373995453119278,
          0.13853013515472412,
          -0.032389186322689056,
          -0.11412513256072998,
          -0.18702104687690735,
          -0.2174670398235321,
          -0.09280582517385483,
          -0.18357345461845398,
          -0.018621226772665977,
          -0.30828002095222473,
          0.0042533352971076965,
          -0.07285744696855545,
          -0.15847863256931305,
          -0.0646742433309555,
          -0.08908938616514206,
          0.0858721062541008,
          0.06676963716745377,
          0.11143513768911362,
          0.003728062380105257,
          -0.15111882984638214,
          -0.0247319508343935,
          0.11156316846609116,
          -0.14104171097278595,
          0.16033148765563965,
          0.08340343087911606,
          -0.035817865282297134,
          -0.06638838350772858,
          0.1556871235370636,
          -0.15080976486206055,
          0.11919673532247543,
          -0.07863681763410568,
          -0.07025546580553055,
          0.058805644512176514,
          -0.04554646089673042,
          -0.057594653218984604,
          0.07549216598272324,
          -0.06591895967721939,
          0.056316956877708435,
          0.005683226510882378,
          0.009587842971086502,
          -0.1291951984167099,
          0.07717707008123398,
          0.0020084057468920946,
          0.007897159084677696,
          0.1833227425813675,
          0.12919023633003235,
          0.07877941429615021,
          -0.05695125088095665,
          0.08072330802679062,
          -0.20271433889865875,
          -0.2023903876543045,
          -0.21752209961414337,
          -0.027521267533302307,
          0.0009987343801185489,
          -0.026883121579885483,
          -0.25303736329078674,
          0.17834505438804626,
          -0.005863599479198456,
          -0.11978309601545334,
          -0.06404142826795578,
          0.21918930113315582,
          0.32161134481430054,
          -0.11574653536081314,
          0.016738027334213257,
          0.19318579137325287,
          0.024251213297247887,
          -0.12915398180484772,
          0.1042063906788826,
          0.1524174064397812,
          0.08592873811721802,
          -0.12372860312461853,
          -0.002243849216029048,
          0.0374876894056797,
          -0.15534277260303497,
          -0.11354351788759232,
          -0.011808673851191998,
          -0.009411762468516827,
          0.006757032126188278,
          -0.15966437757015228,
          0.1518753468990326,
          -0.19597797095775604,
          0.2000395953655243,
          -0.038133710622787476,
          0.1646670550107956,
          0.2755093276500702,
          -0.05762603133916855,
          0.257995069026947,
          -0.19459916651248932,
          0.05584863945841789,
          -0.3105643391609192,
          -0.0007032019202597439,
          0.005183657165616751,
          0.012810721062123775,
          -0.23086459934711456,
          0.07076916098594666,
          -0.1027773842215538,
          0.1985855996608734,
          -0.11710139364004135,
          0.09406133741140366,
          0.24815116822719574,
          -0.1632186621427536,
          0.06737349182367325,
          -0.22415457665920258,
          0.14108270406723022,
          -0.1802053302526474,
          0.10979551821947098,
          -0.1627332866191864,
          0.046238549053668976,
          -0.1570192575454712,
          -0.030378276482224464,
          0.03528808429837227,
          0.03923807665705681,
          0.2073781043291092,
          0.06686583161354065,
          -0.030430050566792488,
          0.02991843782365322,
          0.4291655123233795,
          0.18902580440044403,
          0.15262578427791595,
          0.15428394079208374,
          0.13154782354831696,
          0.0033816122449934483,
          0.2823145389556885,
          0.10698825120925903,
          0.20441880822181702,
          0.29599326848983765,
          0.030301297083497047,
          0.15573903918266296,
          -0.061432454735040665,
          0.015138636343181133,
          -0.0072341919876635075,
          0.06943875551223755,
          -0.1964641511440277,
          -0.02051371894776821,
          0.21711526811122894,
          -0.27392327785491943,
          0.08963002264499664,
          0.0837898924946785,
          -0.13632400333881378,
          0.10723554342985153,
          0.15714004635810852,
          -0.18354010581970215,
          0.03761894255876541,
          0.05397189036011696,
          0.022229036316275597,
          0.09512046724557877,
          -0.05056208372116089,
          -0.04512595012784004,
          -0.0026069129817187786,
          -0.0026495351921766996,
          0.10462940484285355,
          0.0897141695022583,
          -0.014952033758163452,
          0.08466670662164688,
          0.28724753856658936,
          -0.005887956824153662,
          0.13039231300354004,
          0.10888329893350601,
          0.3166077733039856,
          0.027721207588911057,
          -0.2643698453903198,
          0.11293201148509979,
          -0.23801299929618835,
          -0.14469558000564575,
          -0.21243704855442047,
          -0.19525392353534698,
          -0.06122313439846039,
          0.04510767385363579,
          -0.02815108932554722,
          0.1864291876554489,
          -0.09050940722227097,
          -0.017473792657256126,
          -0.20055027306079865,
          -0.09516000747680664,
          0.17719736695289612,
          -0.14122183620929718,
          0.10725580900907516,
          -0.19434231519699097,
          0.3069727420806885,
          -0.08399197459220886,
          -0.11503662168979645,
          -0.0599951297044754,
          -0.012988988310098648,
          -0.01902119815349579,
          0.0408245213329792,
          0.006348844617605209,
          0.018092745915055275,
          0.01758904755115509,
          0.03883593529462814,
          -0.04301229864358902,
          0.023888295516371727,
          -0.042671844363212585,
          0.9205667972564697,
          0.2910061478614807,
          -1.0472644567489624,
          0.06351927667856216,
          -0.035454533994197845,
          0.06600053608417511,
          0.14052961766719818,
          0.036774035543203354,
          -0.02133098430931568,
          0.07879802584648132,
          -0.00011578558769542724,
          0.02407526597380638,
          0.041648078709840775,
          -0.023165388032794,
          0.0010298867709934711,
          0.8065759539604187,
          0.9817238450050354,
          1.2806822061538696,
          -0.06094636023044586,
          0.03754157945513725,
          -0.00045279363985173404,
          -0.05305246263742447,
          -0.025332603603601456,
          -0.08482007682323456,
          -0.04671785235404968,
          0.005772381089627743,
          -0.03558878228068352,
          0.29342737793922424,
          0.2690508961677551,
          0.16166286170482635,
          0.24605759978294373,
          0.26866647601127625,
          0.26310887932777405,
          0.30914488434791565,
          0.3126520812511444,
          0.010052599012851715,
          -0.05661308765411377,
          0.061518941074609756,
          0.21584884822368622,
          -0.0823572501540184,
          -0.07344657182693481,
          0.044546112418174744,
          0.0060393065214157104,
          -0.06633935868740082,
          0.12679758667945862,
          0.19298115372657776,
          -0.06743697077035904,
          -0.03001578524708748,
          -0.03940794616937637,
          0.017419585958123207,
          -0.0461333692073822,
          0.03763202577829361,
          0.0372437983751297,
          0.08684380352497101,
          0.13247573375701904,
          0.09977942705154419,
          -0.04798666760325432,
          0.009225213900208473,
          -0.13260695338249207,
          -0.12974579632282257,
          0.08972487598657608,
          0.15997834503650665,
          0.1364165097475052,
          -0.1291620284318924,
          -0.04907051846385002,
          0.08682157099246979,
          0.31512001156806946,
          0.1532510668039322,
          0.06045427918434143,
          -0.016363225877285004,
          0.0007850683759897947,
          -0.056631576269865036,
          0.2507811486721039,
          0.015813063830137253,
          0.10839863121509552,
          -0.11880805343389511,
          0.13451936841011047,
          -0.07526206225156784,
          -0.1620621681213379,
          0.18562646210193634,
          0.14578519761562347,
          0.30181464552879333,
          -0.08138171583414078,
          -0.2520710825920105,
          -0.11474499851465225,
          0.09921487420797348,
          0.2413712739944458,
          0.08289241790771484,
          0.06753510236740112,
          -0.07948634773492813,
          -0.09114135056734085,
          -0.03047691471874714,
          0.17992840707302094,
          -0.025145914405584335,
          -0.12192090600728989,
          -0.11078836768865585,
          0.1960330605506897,
          -0.01683446764945984,
          0.24390830099582672,
          -0.07479828596115112,
          -0.19175533950328827,
          -0.20921048521995544,
          0.06863081455230713,
          -0.05371704325079918,
          -0.028852006420493126,
          -0.01382251176983118,
          -0.04363127425312996,
          -0.07058347761631012,
          0.09475842863321304,
          0.04456346854567528,
          0.027146266773343086,
          0.002300710417330265,
          -0.029293814674019814,
          0.028146348893642426,
          0.07761090993881226,
          0.156709223985672,
          -0.013988014310598373,
          -0.031089771538972855,
          0.2632642686367035,
          0.08104118704795837,
          -0.2180996984243393,
          -0.22848470509052277,
          -0.18871451914310455,
          0.07271742820739746,
          -0.17659147083759308,
          0.14921212196350098,
          -0.023523863404989243,
          0.018183046951889992,
          0.021953808143734932,
          -0.07989668846130371,
          0.021891312673687935,
          0.01736733503639698,
          0.3184404969215393,
          -0.2937179207801819,
          0.32592397928237915,
          -0.1100781112909317,
          0.23576030135154724,
          -0.25684797763824463,
          -0.1332155019044876,
          0.0655224472284317,
          -0.037095095962285995,
          0.06736808270215988,
          0.12449350208044052,
          0.011171791702508926,
          0.1024952232837677,
          -0.1656428873538971,
          -0.06502970308065414,
          0.07103277742862701,
          0.11805737018585205,
          -0.14681221544742584,
          -0.12763087451457977,
          0.1555863469839096,
          -0.16436287760734558,
          0.2991858124732971,
          -0.11572342365980148,
          0.023589758202433586,
          -0.19993752241134644,
          0.10799197107553482,
          -0.17483319342136383,
          0.24867279827594757,
          0.021708818152546883,
          0.12002723664045334,
          -0.22806058824062347,
          -0.011039678938686848,
          -0.007699737325310707,
          0.1118343323469162,
          0.15836724638938904,
          -0.30194637179374695,
          -0.03454144671559334,
          -0.06239676475524902,
          0.19141513109207153,
          -0.023643579334020615,
          -0.016884805634617805,
          -0.26682817935943604,
          0.09147991240024567,
          0.16134004294872284,
          0.3827860653400421,
          0.009495923295617104,
          0.0833389163017273,
          0.024386219680309296,
          0.04752688109874725,
          0.038134023547172546,
          -0.05447616055607796,
          0.05583934113383293,
          -0.11498235911130905,
          0.03784565255045891,
          0.12300601601600647,
          0.0043572629801929,
          -0.04150106757879257,
          0.058232471346855164,
          0.06023934856057167,
          0.3274818956851959,
          -0.0038056185003370047,
          0.10623977333307266,
          0.22322939336299896,
          0.1696263551712036,
          -0.07823953032493591,
          -0.26094484329223633,
          -0.06944547593593597,
          -0.08433285355567932,
          -0.27323731780052185,
          -0.11082983762025833,
          -0.03249765932559967,
          0.03733982518315315,
          0.028984997421503067,
          -0.12190981209278107,
          -0.041036009788513184,
          -0.04952019825577736,
          -0.39824178814888,
          -0.059273861348629,
          0.3408365249633789,
          0.40445855259895325,
          0.0727045089006424,
          -0.2749432623386383,
          0.10821577906608582,
          0.03127443790435791,
          -0.02466118335723877,
          0.33243855834007263,
          0.20154109597206116,
          0.27514201402664185,
          0.2684406340122223,
          0.1867009997367859,
          0.23505550622940063,
          0.16625933349132538,
          0.3009449243545532,
          -0.1490395963191986,
          0.022009069100022316,
          -0.09063076972961426,
          -0.39042824506759644,
          -0.1446312665939331,
          0.285554438829422,
          -0.3222118318080902,
          -0.13877111673355103,
          0.07205447554588318,
          -0.2931675314903259,
          -0.10933079570531845,
          0.314868688583374,
          -0.0831831693649292,
          0.06780984997749329,
          0.003173400182276964,
          0.09893060475587845,
          -0.046382393687963486,
          0.043312687426805496,
          0.14956921339035034,
          -0.23863036930561066,
          -0.108808733522892,
          -0.13068507611751556,
          0.06205732747912407,
          0.09604857861995697,
          0.03570904955267906,
          -0.16382521390914917,
          0.0027355700731277466,
          -0.13685569167137146,
          0.021886369213461876,
          0.09670466184616089,
          0.14493325352668762,
          0.06317635625600815,
          -0.00469106575474143,
          -0.11361802369356155,
          0.14816075563430786,
          -0.08359498530626297,
          0.017990663647651672,
          0.020514730364084244,
          0.0011874169576913118,
          0.04742627218365669,
          -0.0410737581551075,
          -0.1598280370235443,
          0.30589747428894043,
          0.0468546524643898,
          0.045215312391519547,
          -0.4688849151134491,
          0.05496295168995857,
          -0.029378969222307205,
          0.4564945697784424,
          0.013530821539461613,
          0.1229267343878746,
          -0.30158475041389465,
          0.03964779153466225,
          0.033372942358255386,
          -0.02749369665980339,
          -0.03718741238117218,
          -0.11161858588457108,
          0.012959695421159267,
          0.17682220041751862,
          0.32939743995666504,
          -0.05201360210776329,
          -0.06684049218893051,
          -0.2512938678264618,
          0.029002143070101738,
          0.20117412507534027,
          0.16646665334701538,
          -0.08668861538171768,
          -0.006655341014266014,
          0.0764087364077568,
          -0.10970228910446167,
          0.050456561148166656,
          0.022609511390328407,
          0.046904437243938446,
          -0.06329599767923355,
          0.012205448932945728,
          -0.04982023313641548,
          -0.0981534942984581,
          -0.02232731133699417,
          0.014697168953716755,
          0.1248890832066536,
          -0.1894666850566864,
          0.19378015398979187,
          -0.11362584680318832,
          -0.0332501120865345,
          -0.004034480080008507,
          0.06634079664945602,
          -0.05945257842540741,
          0.03142261132597923,
          -0.22812806069850922,
          0.11298510432243347,
          -0.1899610459804535,
          0.040728144347667694,
          0.018753495067358017,
          0.05584406852722168,
          0.3582060635089874,
          -0.15015166997909546,
          0.07299849390983582,
          -0.1310049295425415,
          0.12197677046060562,
          -0.0241768229752779,
          0.20083069801330566,
          -0.08103787153959274,
          0.030108492821455002,
          -0.2853831350803375,
          0.1717221736907959,
          -0.018573259934782982,
          0.013899799436330795,
          0.0520017147064209,
          0.03887169063091278,
          0.07896281778812408,
          0.007213355507701635,
          -0.08051111549139023,
          -0.03850959986448288,
          -0.05735943093895912,
          0.02153303660452366,
          -0.012422521598637104,
          0.02262023463845253,
          -0.004728695377707481,
          -0.010481726378202438,
          0.03172438591718674,
          -0.9248725175857544,
          -0.3187524974346161,
          1.0293387174606323,
          0.0012430063216015697,
          0.04288320243358612,
          -0.04353458061814308,
          -0.14565850794315338,
          -0.022332221269607544,
          -0.020068874582648277,
          -0.021433066576719284,
          0.011889489367604256,
          0.00015390310727525502,
          -0.005987951997667551,
          0.0191018208861351,
          0.007727930787950754,
          -0.7800100445747375,
          -0.924172580242157,
          -1.1837025880813599,
          0.030487507581710815,
          -0.026310652494430542,
          -0.03086463175714016,
          0.06754915416240692,
          0.0016333663370460272,
          0.07997108995914459,
          -0.018071262165904045,
          0.04244885593652725,
          0.08477959781885147,
          0.08102700114250183,
          0.03303255885839462,
          -0.047412656247615814,
          -0.017471089959144592,
          -0.015246967785060406,
          -0.018994856625795364,
          0.021003002300858498,
          -0.07916093617677689,
          -0.1412879079580307,
          -0.057625990360975266,
          -0.15284650027751923,
          0.05349923297762871,
          -0.12339981645345688,
          0.09449519217014313,
          -0.007014855742454529,
          -0.06313740462064743,
          -0.14294962584972382,
          0.12539109587669373,
          -0.07001974433660507,
          0.0719161331653595,
          0.025154825299978256,
          -0.04778728634119034,
          -0.005070588085800409,
          -0.03751775994896889,
          0.19855241477489471,
          -0.11365164816379547,
          0.31694933772087097,
          -0.15299855172634125,
          -0.012291839346289635,
          -0.08142495900392532,
          0.1561061292886734,
          -0.19459983706474304,
          0.2045796811580658,
          -0.1361905336380005,
          -0.1299820840358734,
          -0.07038971781730652,
          0.0786876529455185,
          0.057446159422397614,
          0.12486162036657333,
          0.0027009430341422558,
          -0.06721822172403336,
          -0.037004198879003525,
          0.02020823024213314,
          -0.12501481175422668,
          0.01529605221003294,
          -0.06630687415599823,
          0.23193377256393433,
          0.0672496110200882,
          0.13479554653167725,
          -0.02553444914519787,
          0.3043929636478424,
          0.06818953156471252,
          -0.18063534796237946,
          -0.07126650214195251,
          -0.09105682373046875,
          -0.0718616172671318,
          -0.29587122797966003,
          -0.07995989173650742,
          0.08203963190317154,
          -0.029740840196609497,
          0.042694833129644394,
          0.23677003383636475,
          -0.21876871585845947,
          0.08528964966535568,
          -0.18660642206668854,
          -0.10267391055822372,
          0.0876375213265419,
          -0.2290361076593399,
          0.23539941012859344,
          0.04707776755094528,
          0.21167364716529846,
          0.10126449912786484,
          -0.21007859706878662,
          0.15491557121276855,
          0.048447128385305405,
          0.02763066068291664,
          -0.04199802130460739,
          -0.04834660515189171,
          -0.016349153593182564,
          -0.03464014455676079,
          0.02089432068169117,
          -0.0037314132787287235,
          0.0009558107703924179,
          -0.02510213479399681,
          0.178426593542099,
          -0.16013991832733154,
          0.004959527403116226,
          0.03697076812386513,
          0.17215827107429504,
          0.17553502321243286,
          0.06178659945726395,
          -0.17282603681087494,
          -0.07793734967708588,
          -0.0020563756115734577,
          0.11873152107000351,
          0.2235962599515915,
          0.0032498056534677744,
          -0.012892167083919048,
          0.005528501234948635,
          0.15599127113819122,
          0.06492910534143448,
          -0.1282811462879181,
          -0.1795205920934677,
          -0.1570311337709427,
          0.13195788860321045,
          0.13456419110298157,
          0.14520952105522156,
          -0.15504851937294006,
          -0.32033926248550415,
          0.05235834792256355,
          0.20420795679092407,
          0.005864122416824102,
          -0.1395295411348343,
          0.02081059105694294,
          -0.07887230068445206,
          0.15422730147838593,
          0.09994672983884811,
          0.13721983134746552,
          -0.03134118765592575,
          0.08986729383468628,
          0.028734799474477768,
          -0.03537678346037865,
          -0.21287901699543,
          0.2886373698711395,
          0.15819649398326874,
          0.05785263329744339,
          -0.3040647804737091,
          -0.034556519240140915,
          -0.1176886111497879,
          0.21253687143325806,
          0.12297628074884415,
          -0.08204982429742813,
          -0.2521481513977051,
          -0.13893422484397888,
          -0.03215044364333153,
          -0.03104836866259575,
          -0.06198450177907944,
          -0.33700501918792725,
          -0.031543854624032974,
          0.24735087156295776,
          0.2295357882976532,
          0.2884857654571533,
          -0.08733728528022766,
          -0.3405761122703552,
          0.033189207315444946,
          0.23987647891044617,
          0.16425956785678864,
          0.09609495848417282,
          -0.206141859292984,
          -0.004317292012274265,
          0.017711473628878593,
          -0.054670512676239014,
          0.010990037582814693,
          -0.04413270950317383,
          -0.024594906717538834,
          0.08143649250268936,
          0.13183331489562988,
          0.029160719364881516,
          0.016036495566368103,
          0.012049837969243526,
          0.09447775781154633,
          0.20136508345603943,
          0.09277252852916718,
          -0.23634208738803864,
          0.17450682818889618,
          -0.062005870044231415,
          0.008829787373542786,
          -0.2281980961561203,
          -0.15178823471069336,
          0.030826717615127563,
          -0.11097840964794159,
          0.11358684301376343,
          -0.004804010968655348,
          0.005164352711290121,
          -0.024316875264048576,
          -0.1897459328174591,
          -0.1068662628531456,
          0.1613454818725586,
          -0.17145125567913055,
          0.15775413811206818,
          0.02501504123210907,
          0.10112190246582031,
          0.008208800107240677,
          -0.22746378183364868,
          0.34377121925354004,
          -0.05165966972708702,
          0.05735216662287712,
          0.0860082134604454,
          -0.02389397844672203,
          0.042775969952344894,
          0.0633029192686081,
          0.09181063622236252,
          -0.09073960781097412,
          0.014485253021121025,
          -0.11467592418193817,
          -0.03490552306175232,
          0.06019916012883186,
          -0.09381641447544098,
          0.5716472864151001,
          0.10171888768672943,
          -0.5425922870635986,
          -0.04060893878340721,
          -0.03605653718113899,
          0.0808512419462204,
          -0.21018415689468384,
          -0.04431619122624397,
          -0.010385421104729176,
          -0.11365002393722534,
          0.012037323787808418,
          -0.06211341544985771,
          0.06272723525762558,
          -0.05618976429104805,
          -0.03068730980157852,
          0.35965290665626526,
          0.6106359362602234,
          0.67344731092453,
          0.02259589545428753,
          0.054986510425806046,
          0.16636066138744354,
          0.001216698088683188,
          -0.048620034009218216,
          -0.07145971059799194,
          0.16719597578048706,
          0.07955051958560944,
          0.26487019658088684,
          0.016854053363204002,
          -0.03060666099190712,
          -0.031932856887578964,
          0.1579304337501526,
          -0.0492708645761013,
          0.01870286464691162,
          -0.041536588221788406,
          -0.06635919213294983,
          -0.021919844672083855,
          0.06768174469470978,
          -0.08779864013195038,
          0.20792198181152344,
          -0.06541287153959274,
          0.31680622696876526,
          -0.2147957980632782,
          -0.19401246309280396,
          -0.13008226454257965,
          0.2391004115343094,
          0.007679359056055546,
          0.11898854374885559,
          -0.28724944591522217,
          -0.17097881436347961,
          -0.16710764169692993,
          0.06168809533119202,
          -0.05512310564517975,
          -0.04246903583407402,
          0.09884030371904373,
          -0.11195523291826248,
          0.4505384862422943,
          0.01498577743768692,
          0.17268402874469757,
          -0.2879885733127594,
          0.10381558537483215,
          -0.21574819087982178,
          0.2753375172615051,
          0.011820700950920582,
          0.24467946588993073,
          -0.3395846486091614,
          0.13824914395809174,
          0.05709610879421234,
          0.1152314692735672,
          -0.004154377616941929,
          0.009598816744983196,
          -0.0905211791396141,
          -0.04761083796620369,
          -0.07315193861722946,
          0.03688919544219971,
          0.052267398685216904,
          -0.04599657654762268,
          -0.1455073058605194,
          -0.2625730633735657,
          -0.1570071280002594,
          0.14021137356758118,
          -0.13192389905452728,
          0.0730973333120346,
          0.05414555221796036,
          0.15039943158626556,
          0.08373098820447922,
          -0.059886686503887177,
          0.3455483615398407,
          -0.12586429715156555,
          0.016721980646252632,
          -0.03275585547089577,
          -0.05466596409678459,
          -0.1485128253698349,
          0.18252985179424286,
          -0.1391674429178238,
          0.4172649383544922,
          -0.09108036011457443,
          -0.09796043485403061,
          0.06726650148630142,
          -0.2019210010766983,
          0.2320784330368042,
          -0.25646844506263733,
          0.03672276809811592,
          -0.05523174628615379,
          0.155709907412529,
          0.17832091450691223,
          0.1541886180639267,
          0.22982914745807648,
          0.12874890863895416,
          0.16770239174365997,
          0.1149112731218338,
          0.20016564428806305,
          -0.1753561943769455,
          -0.005793110933154821,
          -0.022378595545887947,
          -0.14251498878002167,
          0.04696208983659744,
          -0.06896360963582993,
          -0.05120815336704254,
          -0.11886202543973923,
          0.0830640196800232,
          -0.5185952186584473,
          0.03155587986111641,
          0.12326453626155853,
          -0.25267741084098816,
          -0.2984837293624878,
          0.2241119146347046,
          0.09352533519268036,
          -0.0018888445338234305,
          0.07461041212081909,
          0.0661557987332344,
          0.14965367317199707,
          0.16636277735233307,
          0.03794131800532341,
          -0.06135009229183197,
          -0.016815422102808952,
          -0.10319551825523376,
          -0.1914772391319275,
          -0.17982445657253265,
          -0.05240867659449577,
          -0.21043555438518524,
          -0.10246801376342773,
          0.006043553818017244,
          -0.08187013864517212,
          0.004003327805548906,
          0.013423713855445385,
          -0.025337273254990578,
          -0.018472662195563316,
          0.12871575355529785,
          0.04235982149839401,
          0.014314795844256878,
          0.0693761557340622,
          -0.08779459446668625,
          -0.1756306141614914,
          0.3151126801967621,
          -0.26609480381011963,
          -0.14347043633460999,
          -0.18261893093585968,
          -0.1446557641029358,
          0.1038360446691513,
          -0.20515476167201996,
          0.10034880042076111,
          0.21850843727588654,
          0.13479025661945343,
          0.31591227650642395,
          0.0413125604391098,
          -0.057080283761024475,
          -0.057068999856710434,
          -0.17806337773799896,
          -0.010764429345726967,
          -0.10340924561023712,
          -0.023355424404144287,
          0.1650729775428772,
          -0.18248410522937775,
          0.32384350895881653,
          -0.09010042995214462,
          0.007505645044147968,
          -0.07317593693733215,
          -0.06884966045618057,
          0.2127448320388794,
          0.06074913218617439,
          -0.042358070611953735,
          -0.00044904713286086917,
          -0.0429704450070858,
          -0.0037146948743611574,
          0.01376746129244566,
          0.020158223807811737,
          -0.05855104699730873,
          0.029150819405913353,
          0.003029397688806057,
          0.004922181833535433,
          -0.00680900365114212,
          0.0023275266867130995,
          -0.018929501995444298,
          -0.2466242015361786,
          0.026964550837874413,
          -0.08990459144115448,
          -0.07233487069606781,
          0.021976135671138763,
          -0.05467015504837036,
          -0.9468210935592651,
          -0.1626387983560562,
          0.7054054141044617,
          -0.014747381210327148,
          0.0001795739372028038,
          -0.014697332866489887,
          0.012555834837257862,
          0.0023912074975669384,
          0.014153309166431427,
          0.15874417126178741,
          -0.038730498403310776,
          0.0835469514131546,
          0.05663413926959038,
          -0.02482686936855316,
          0.015355088748037815,
          -0.49265360832214355,
          -0.8795351386070251,
          -1.0170502662658691,
          -0.02375340834259987,
          0.1326582431793213,
          0.013488560914993286,
          -0.04616604745388031,
          0.08900504559278488,
          -0.008793361485004425,
          -0.011408801190555096,
          0.08634951710700989,
          0.054769981652498245,
          -0.04465808719396591,
          0.07656555622816086,
          0.3370899558067322,
          0.15044893324375153,
          0.25595393776893616,
          -0.31515607237815857,
          0.0014761894708499312,
          -0.26855915784835815,
          0.14738181233406067,
          0.2384878695011139,
          0.07043235749006271,
          -0.2280886024236679,
          0.11436951160430908,
          -0.3480747938156128,
          -0.0637415274977684,
          0.04383956268429756,
          0.010343320667743683,
          0.19854624569416046,
          -0.23809097707271576,
          0.17946039140224457,
          -0.2370099574327469,
          0.20390047132968903,
          -0.09999869018793106,
          0.39446449279785156,
          -0.3024020791053772,
          0.24717873334884644,
          -0.3308517038822174,
          0.09292041510343552,
          -0.28982558846473694,
          0.07498938590288162,
          -0.01389435213059187,
          0.04789242893457413,
          0.042911939322948456,
          -0.04392720386385918,
          -0.016417771577835083,
          -0.14262419939041138,
          0.11350443214178085,
          -0.008659732528030872,
          0.0009778839303180575,
          0.03245849534869194,
          0.3353881239891052,
          0.22957438230514526,
          0.21770015358924866,
          0.31599992513656616,
          0.354023814201355,
          0.1353277564048767,
          0.3061385452747345,
          0.30132102966308594,
          0.13610291481018066,
          0.18794111907482147,
          0.28971701860427856,
          0.17837317287921906,
          0.007198157254606485,
          0.021764125674962997,
          -0.001817548181861639,
          -0.1482393741607666,
          -0.1624995768070221,
          0.16420860588550568,
          -0.1811528354883194,
          -0.17750407755374908,
          0.1068374514579773,
          -0.09351009875535965,
          -0.2106478214263916,
          0.1273239552974701,
          -0.18185128271579742,
          -0.12749256193637848,
          0.20311197638511658,
          0.006437440402805805,
          -0.031150629743933678,
          0.06903640180826187,
          -0.013594668358564377,
          0.03680693358182907,
          0.09191597253084183,
          -0.021807339042425156,
          0.10836246609687805,
          -0.06785225123167038,
          0.021404342725872993,
          -0.03034158982336521,
          0.474804162979126,
          0.3285009562969208,
          -0.0844937190413475,
          -0.4775363802909851,
          -0.4027235209941864,
          0.2737710177898407,
          0.364923894405365,
          0.25036802887916565,
          -0.2124645859003067,
          0.019041230902075768,
          -0.18934161961078644,
          -0.35949432849884033,
          0.05258065089583397,
          -0.015242984518408775,
          0.009047949686646461,
          0.12421611696481705,
          0.21854059398174286,
          0.4324435293674469,
          -0.24547713994979858,
          -0.34117990732192993,
          -0.6215693950653076,
          0.28179246187210083,
          0.4191455841064453,
          0.8487733602523804,
          0.23388956487178802,
          0.13884983956813812,
          0.05083190277218819,
          0.0022785458713769913,
          0.12482070177793503,
          -0.16388039290905,
          0.03567248582839966,
          -0.06645797938108444,
          0.04127829521894455,
          -0.0420486219227314,
          -0.06497498601675034,
          -0.04295089468359947,
          -0.062063589692115784,
          0.12004799395799637,
          -0.14589999616146088,
          -0.011354280635714531,
          -0.11878826469182968,
          -0.05108301341533661,
          0.0800386294722557,
          -0.14673110842704773,
          -0.07167819142341614,
          0.03566135838627815,
          -0.19108031690120697,
          -0.07368205487728119,
          0.07312263548374176,
          -0.2029469609260559,
          -0.0189925916492939,
          0.07840042561292648,
          0.06293795257806778,
          -0.29515358805656433,
          0.15973684191703796,
          -0.03878922015428543,
          -0.2780917286872864,
          0.14570339024066925,
          -0.1533530354499817,
          -0.2976280152797699,
          0.11048122495412827,
          -0.10573795437812805,
          -0.22804230451583862,
          0.12219212204217911,
          -0.1900663822889328,
          -0.07108704000711441,
          -0.09798425436019897,
          0.03349887579679489,
          -0.016522735357284546,
          0.09296546876430511,
          0.030203906819224358,
          0.11139354854822159,
          -0.0797179788351059,
          -0.06298213452100754,
          -0.019473878666758537,
          -0.022285357117652893,
          -0.18394076824188232,
          -0.34890276193618774,
          -0.18006518483161926,
          -0.004712436348199844,
          0.1496371030807495,
          0.012886540964245796,
          0.0009946865029633045,
          -0.21189604699611664,
          -0.03579248860478401,
          -0.04631771519780159,
          0.46319344639778137,
          -0.0781981498003006,
          0.01941707171499729,
          -0.007601305842399597,
          0.04089473560452461,
          0.42929017543792725,
          0.03843747824430466,
          -0.23326018452644348,
          -0.21021999418735504,
          0.026162007823586464,
          0.06308428198099136,
          0.1265917867422104,
          0.05530138686299324,
          -0.13771143555641174,
          -0.27639085054397583,
          -0.10538674145936966,
          0.1587972193956375,
          0.06239151954650879,
          0.019160594791173935,
          0.020623518154025078,
          0.026940900832414627,
          -0.07002604007720947,
          -0.05330898240208626,
          -0.020412662997841835,
          0.09942305833101273,
          0.10257326811552048,
          -0.015652744099497795,
          0.05498827248811722,
          0.2551127076148987,
          -0.20230406522750854,
          0.06802660971879959,
          0.026486199349164963,
          -0.23238271474838257,
          -0.010600175708532333,
          -0.2436135858297348,
          0.2888304591178894,
          -0.195924773812294,
          -0.20560389757156372,
          0.33807021379470825,
          -0.13703235983848572,
          -0.06972657889127731,
          0.02542910911142826,
          -0.03090607188642025,
          0.28842735290527344,
          -0.12034355849027634,
          -0.07026755809783936,
          0.5167956352233887,
          -0.12516950070858002,
          -0.09065067768096924,
          -0.3569660484790802,
          0.07042894512414932,
          0.05853036046028137,
          -0.22128097712993622,
          0.017097653821110725,
          0.03674864023923874,
          0.06755167990922928,
          -0.017312118783593178,
          -0.047452423721551895,
          -0.02899245359003544,
          -0.08412816375494003,
          0.10572841763496399,
          -0.05283203348517418,
          -0.10911176353693008,
          -0.026542527601122856,
          0.06534402817487717,
          -0.11564189195632935,
          -0.053006842732429504,
          -0.2832866609096527,
          0.06337926536798477,
          -0.1451915055513382,
          0.28895992040634155,
          -0.1641121357679367,
          -0.1435879021883011,
          0.34809520840644836,
          -0.11066221445798874,
          0.20088306069374084,
          -0.29868966341018677,
          0.14828576147556305,
          0.06145654246211052,
          -0.07103361934423447,
          -0.037005774676799774,
          0.446823388338089,
          -0.04539569094777107,
          -0.017388273030519485,
          -0.3210147023200989,
          0.04274177551269531,
          0.01837775856256485,
          -0.41024112701416016,
          0.05259557068347931,
          0.06862103193998337,
          0.39487701654434204,
          -0.08121392130851746,
          -0.051171619445085526,
          0.01366114430129528,
          0.20381735265254974,
          0.21438682079315186,
          0.10497361421585083,
          0.09232085943222046,
          0.13099846243858337,
          0.10474364459514618,
          0.07006137073040009,
          -0.04444117471575737,
          0.06827829033136368,
          -0.105381079018116,
          -0.11178293824195862,
          0.13261929154396057,
          0.05847734957933426,
          -0.17538511753082275,
          -0.10891664773225784,
          -0.03757341206073761,
          -0.3978619873523712,
          -0.03736608475446701,
          0.44509589672088623,
          0.04078787565231323,
          -0.16788382828235626,
          -0.1910059005022049,
          0.0700499564409256,
          -0.06511279940605164,
          -0.033849772065877914,
          -0.06723601371049881,
          -0.1799219846725464,
          0.16067062318325043,
          0.1663299798965454,
          0.12456425279378891,
          -0.06996577978134155,
          -0.32926660776138306,
          -0.3478620648384094,
          -0.14583781361579895,
          0.20588301122188568,
          0.3292422592639923,
          0.07000084966421127,
          -0.14051415026187897,
          0.0055191791616380215,
          0.13504475355148315,
          0.046428799629211426,
          0.08592113852500916,
          -0.0334642194211483,
          0.05749485269188881,
          -0.046587053686380386,
          -0.02487560547888279,
          -0.010358726605772972,
          -0.1448577642440796,
          0.2097325474023819,
          -0.22565734386444092,
          0.13883380591869354,
          0.26175811886787415,
          -0.17371007800102234,
          0.04238148406147957,
          0.2667118310928345,
          -0.11861846596002579,
          0.035946596413850784,
          0.2955266833305359,
          -0.1328422874212265,
          0.027370499446988106,
          0.0023988971952348948,
          -0.08861792832612991,
          0.023354746401309967,
          0.2320050150156021,
          -0.0016657952219247818,
          -0.11535439640283585,
          0.21976086497306824,
          -0.06611255556344986,
          -0.19722683727741241,
          0.27819153666496277,
          -0.08802090585231781,
          -0.20430687069892883,
          0.223147451877594,
          -0.08723795413970947,
          -0.20120897889137268,
          0.10165218263864517,
          0.1267424374818802,
          0.12065035104751587,
          0.07748951762914658,
          0.08310385793447495,
          0.011432493105530739,
          0.024952491745352745,
          -0.11596785485744476,
          -0.012864534743130207,
          -0.03732270374894142,
          0.09834382683038712,
          -0.024142099544405937,
          -0.1005411222577095,
          -0.09251725673675537,
          -0.2978476881980896,
          0.13346773386001587,
          -0.09090422838926315,
          0.10684455186128616,
          0.007617466151714325,
          0.1880723536014557,
          0.006039842497557402,
          -0.09219999611377716,
          0.04723399877548218,
          -0.019254378974437714,
          0.06341356039047241,
          0.03135617449879646,
          -0.058739859610795975,
          0.11902877688407898,
          -0.11526528745889664,
          -0.12072226405143738,
          0.13401538133621216,
          0.032459188252687454,
          0.10725516080856323,
          -0.06369519978761673,
          0.16599717736244202,
          0.2254154235124588,
          -0.07418376207351685,
          0.06855962425470352
        ],
        "bias": [
          0.3430716097354889,
          0.04464138299226761,
          0.2672646939754486,
          0.06987366825342178,
          -0.006983044557273388,
          0.1464761346578598,
          0.26682642102241516,
          0.04175237938761711,
          -0.1872342824935913,
          0.020827842876315117,
          0.09675141423940659,
          0.04172927141189575,
          -0.01151371281594038,
          -0.005876363255083561,
          0.022934164851903915,
          0.06386931240558624,
          -0.051351387053728104,
          0.25759947299957275,
          -0.026517197489738464,
          -0.005080208647996187,
          -0.015830621123313904,
          -0.033438339829444885,
          0.27133709192276,
          0.04630934074521065,
          0.017879243940114975,
          0.07260211557149887,
          0.042700495570898056,
          0.1331939846277237,
          0.12176144868135452,
          0.05002563074231148,
          0.00419276999309659,
          -0.03625203296542168,
          -0.07451318204402924,
          -0.014591139741241932,
          0.2902831733226776,
          0.13168290257453918,
          0.03838542848825455,
          0.10361909121274948,
          -0.08017459511756897,
          0.030551962554454803,
          0.005914336536079645,
          0.0008269816753454506,
          -7.15484293323243e-06,
          -0.009626836515963078,
          -0.04912940412759781,
          0.07853663712739944,
          0.07661758363246918,
          -0.05438357964158058,
          0.050670213997364044,
          0.08790063858032227,
          -0.019903134554624557,
          0.21482333540916443,
          -0.05903885141015053,
          0.033593665808439255,
          -0.010451754555106163,
          -0.03246848285198212,
          0.015874411910772324,
          0.06880029290914536,
          0.022707752883434296,
          -0.039147377014160156,
          0.09017365425825119,
          0.17478522658348083,
          -0.028475599363446236,
          0.1987602263689041
        ]
      },
      {
        "in_features": 64,
        "out_features": 64,
        "weights": [
          0.03375587984919548,
          -0.15479756891727448,
          -0.019128946587443352,
          0.05699760094285011,
          -0.14885026216506958,
          0.0806182250380516,
          0.13953937590122223,
          0.14219287037849426,
          -0.044380977749824524,
          0.03250649943947792,
          0.13707567751407623,
          0.18752853572368622,
          0.0838855504989624,
          0.14328645169734955,
          0.39662331342697144,
          0.2835054397583008,
          -0.17978571355342865,
          0.21317608654499054,
          0.2848815619945526,
          0.1697125881910324,
          0.04370127245783806,
          -0.20377281308174133,
          -0.21280713379383087,
          -0.008333705365657806,
          0.04193931818008423,
          0.28064075112342834,
          0.24622255563735962,
          -0.10861944407224655,
          0.12467136979103088,
          0.18560601770877838,
          0.2718656659126282,
          0.14780235290527344,
          -0.2444947510957718,
          -0.03790406882762909,
          0.086189866065979,
          0.14001277089118958,
          0.16719166934490204,
          0.06448350101709366,
          0.1085633859038353,
          0.21837997436523438,
          -0.007173503283411264,
          -0.05713070556521416,
          -0.09127845615148544,
          0.1548294723033905,
          -0.2783353924751282,
          -0.06135747209191322,
          0.04197615012526512,
          -0.3352808356285095,
          0.19839075207710266,
          0.219158336520195,
          -0.3734205961227417,
          -0.14813323318958282,
          -0.31636688113212585,
          -0.135561004281044,
          -0.191557839512825,
          0.08750113099813461,
          -0.2052142322063446,
          0.15981480479240417,
          0.027226319536566734,
          0.055754002183675766,
          0.33840200304985046,
          -0.07601021975278854,
          -0.07094606012105942,
          0.1591419279575348,
          -0.023352932184934616,
          -0.03868984431028366,
          0.00460275262594223,
          0.10054751485586166,
          0.04082104563713074,
          0.1915718913078308,
          0.11447888612747192,
          0.00921572558581829,
          -0.09639596194028854,
          0.24795570969581604,
          0.03399807959794998,
          -0.0015103340847417712,
          0.050948597490787506,
          0.0318235345184803,
          -0.023466305807232857,
          -0.0054139187559485435,
          0.011748038232326508,
          -0.13973207771778107,
          0.11411851644515991,
          0.03585434705018997,
          0.07441164553165436,
          -0.04673568531870842,
          -0.052907735109329224,
          -0.2573273777961731,
          0.058911047875881195,
          -0.13689087331295013,
          -0.008735636249184608,
          0.02156730741262436,
          0.011334414593875408,
          0.10936158895492554,
          0.15311618149280548,
          -0.024470388889312744,
          0.1367758959531784,
          -0.011004206724464893,
          0.038164928555488586,
          0.18338261544704437,
          0.24480700492858887,
          -0.061729468405246735,
          0.34788474440574646,
          -0.008582050912082195,
          0.05785897374153137,
          -0.028243061155080795,
          0.011284925974905491,
          -0.046693991869688034,
          0.1491803079843521,
          0.022388417273759842,
          0.010676134377717972,
          -0.14023038744926453,
          -0.0025629743468016386,
          -0.09429802000522614,
          -0.14130501449108124,
          0.003796063829213381,
          0.13260938227176666,
          -0.00490234699100256,
          0.0039663068018853664,
          -0.050036072731018066,
          -0.0007144290138967335,
          0.009805196896195412,
          0.002796528162434697,
          0.44463050365448,
          -0.14578254520893097,
          -0.024135302752256393,
          0.0031533618457615376,
          -0.07672563195228577,
          0.22868941724300385,
          0.24843944609165192,
          0.01935809850692749,
          -0.03942764550447464,
          0.03970544785261154,
          0.007664764299988747,
          0.012037040665745735,
          -0.013989006169140339,
          0.007357897236943245,
          -0.02473497949540615,
          -0.03190314397215843,
          -0.15890420973300934,
          -0.04923387989401817,
          0.0431908555328846,
          0.0366191640496254,
          0.012389034032821655,
          0.034468986093997955,
          -0.047076351940631866,
          -0.04159971699118614,
          0.07535268366336823,
          -0.01619092933833599,
          0.05275033041834831,
          -0.048332229256629944,
          0.037301767617464066,
          0.05736541002988815,
          -0.064591184258461,
          0.585676372051239,
          0.03266545757651329,
          0.010043609887361526,
          0.03420983627438545,
          -0.09594523906707764,
          0.045591603964567184,
          0.002935007680207491,
          -0.014788427390158176,
          0.017059318721294403,
          -0.07633630186319351,
          0.06321456283330917,
          0.00788621511310339,
          0.003946749493479729,
          -0.15610621869564056,
          0.06527503579854965,
          -0.02823626436293125,
          0.06864438951015472,
          -0.08527786284685135,
          0.04984668642282486,
          -0.01704559102654457,
          -0.05988382175564766,
          -0.007551124785095453,
          -0.12678813934326172,
          -0.06809698790311813,
          0.08348400145769119,
          -0.09955768287181854,
          0.006392685230821371,
          0.09663109481334686,
          -0.006520607974380255,
          0.010052005760371685,
          -0.005396448075771332,
          -0.030748333781957626,
          -0.029314298182725906,
          0.004570915829390287,
          -0.014469393528997898,
          -0.10093330591917038,
          0.00017994639347307384,
          -0.02918308973312378,
          0.09304200857877731,
          0.08341086655855179,
          0.17686019837856293,
          -0.02690107934176922,
          -0.0584806427359581,
          -0.08224865049123764,
          0.036155857145786285,
          0.0038096620701253414,
          -0.07862109690904617,
          -0.17957144975662231,
          0.06925787776708603,
          0.03778805583715439,
          -0.0017725478392094374,
          0.05887284874916077,
          0.35691404342651367,
          0.28612637519836426,
          0.12954215705394745,
          0.059826064854860306,
          -0.09066436439752579,
          -0.053243327885866165,
          0.31557828187942505,
          0.10490382462739944,
          -0.02531914971768856,
          -0.0038186023011803627,
          -0.05574306100606918,
          0.0564093291759491,
          -0.00653796037659049,
          -0.05041122063994408,
          0.08070185780525208,
          -0.06591866165399551,
          -0.08148659765720367,
          -0.04540248215198517,
          0.04002361372113228,
          -0.09353011846542358,
          -0.14650548994541168,
          -0.1527852565050125,
          0.01963615231215954,
          -0.14619070291519165,
          -0.015262921340763569,
          0.05983589217066765,
          0.09142903983592987,
          -0.08503571897745132,
          -0.026982126757502556,
          0.03460898995399475,
          0.04163309186697006,
          0.03644971549510956,
          -0.028767403215169907,
          -0.08040594309568405,
          0.06679792702198029,
          0.05596962943673134,
          0.0045005022548139095,
          0.025473950430750847,
          -0.08350009471178055,
          -0.0193294920027256,
          -0.34079164266586304,
          -0.05762210115790367,
          0.01624481938779354,
          0.21708253026008606,
          0.015951549634337425,
          -0.07075938582420349,
          -0.06606151908636093,
          0.039078496396541595,
          -0.14466997981071472,
          -0.06235569342970848,
          -0.2308160960674286,
          -0.7072190642356873,
          -0.032585423439741135,
          0.1790473908185959,
          -0.05276200547814369,
          0.09320274740457535,
          0.06940584629774094,
          0.16508324444293976,
          -0.006498385686427355,
          -0.24613703787326813,
          0.08972907066345215,
          0.29733729362487793,
          -0.013052799738943577,
          -0.428377240896225,
          0.08304610103368759,
          0.09493954479694366,
          0.041638411581516266,
          0.2583225667476654,
          0.1381421685218811,
          0.04385382682085037,
          -0.32235801219940186,
          0.043750811368227005,
          -0.1458965688943863,
          -0.3607271909713745,
          0.22443155944347382,
          0.0526089183986187,
          0.06920788437128067,
          0.07817064970731735,
          0.15517622232437134,
          0.21980229020118713,
          0.12755946815013885,
          0.20769768953323364,
          -0.005657038185745478,
          0.16617366671562195,
          0.03802702575922012,
          0.1396016627550125,
          -0.35956472158432007,
          0.06351210176944733,
          -0.47053033113479614,
          0.1069243848323822,
          -0.08579488843679428,
          -0.3081984519958496,
          0.10611358284950256,
          0.16252101957798004,
          0.06583540141582489,
          0.2852710783481598,
          0.1726401299238205,
          -0.08876869082450867,
          -0.21947254240512848,
          -0.04949937388300896,
          0.04081117734313011,
          -0.08865891396999359,
          -0.020621169358491898,
          -0.03599352762103081,
          0.19540484249591827,
          -0.06261185556650162,
          -0.07602181285619736,
          -0.17998559772968292,
          -0.2248329520225525,
          -0.494532972574234,
          0.1907658874988556,
          -0.04604114219546318,
          -0.08682224154472351,
          -0.08284982293844223,
          0.43493232131004333,
          0.06313628703355789,
          0.16386474668979645,
          -0.13735021650791168,
          0.09825645387172699,
          -0.13252997398376465,
          -0.3347793519496918,
          -0.20850440859794617,
          -0.09645326435565948,
          0.16202709078788757,
          -0.06761325150728226,
          -0.1946243792772293,
          0.22439149022102356,
          0.16612589359283447,
          -0.05318382382392883,
          -0.026616869494318962,
          0.18146422505378723,
          -0.17771577835083008,
          -0.22395414113998413,
          -0.13862329721450806,
          0.3765125572681427,
          0.07166320830583572,
          0.5158726572990417,
          0.049103036522865295,
          -0.11780574917793274,
          -0.14955230057239532,
          0.015655843541026115,
          -0.06191491335630417,
          0.10467594861984253,
          -0.06795809417963028,
          -0.2913736402988434,
          -0.1954870969057083,
          0.016457144170999527,
          -0.1843990534543991,
          0.0714266449213028,
          -0.001245561521500349,
          0.21678543090820312,
          -0.05713244527578354,
          0.20304639637470245,
          -0.0343104749917984,
          0.08850052207708359,
          0.0678003802895546,
          0.16838586330413818,
          -0.22675731778144836,
          0.03771544247865677,
          -0.0021374630741775036,
          0.06377484649419785,
          0.09073402732610703,
          -0.14914174377918243,
          -0.02118559367954731,
          0.1559477597475052,
          -0.14402839541435242,
          0.16999635100364685,
          -0.07185970991849899,
          -0.25465065240859985,
          -0.09812717884778976,
          0.20893622934818268,
          0.003212576499208808,
          0.04247329384088516,
          0.21954362094402313,
          -0.22960802912712097,
          0.2699173390865326,
          -0.00429473677650094,
          0.11262952536344528,
          0.035375017672777176,
          -0.029765620827674866,
          -0.020115284249186516,
          -0.054360080510377884,
          -0.06850294023752213,
          -0.04582266882061958,
          -0.08979859203100204,
          0.015611382201313972,
          -0.0996338278055191,
          -0.09760810434818268,
          -0.0040888236835598946,
          -0.04231223091483116,
          -0.07038762420415878,
          0.023664774373173714,
          0.011945751495659351,
          0.039996981620788574,
          0.0483255498111248,
          0.01695427857339382,
          0.04272427782416344,
          0.06895675510168076,
          -0.10659950971603394,
          -0.0633968859910965,
          0.05303823947906494,
          -0.0944109559059143,
          -0.02673969604074955,
          -0.05976928398013115,
          0.062357209622859955,
          -0.015627527609467506,
          -0.00322532095015049,
          0.030200887471437454,
          -0.01198248378932476,
          0.08353358507156372,
          0.0388367585837841,
          -0.1091027706861496,
          -0.16055426001548767,
          -0.03943655267357826,
          -0.09043953567743301,
          0.09246772527694702,
          -0.14314137399196625,
          -0.1390824019908905,
          -0.09825184941291809,
          -0.028228837996721268,
          0.056114561855793,
          0.026461342349648476,
          -0.07142239063978195,
          -0.15518835186958313,
          -0.00038808758836239576,
          -0.10555335134267807,
          0.11594322323799133,
          -0.03525744751095772,
          -0.07162313908338547,
          -0.16063065826892853,
          -0.004710732959210873,
          0.06009388342499733,
          0.031045323237776756,
          0.11008413136005402,
          -0.05165218561887741,
          0.018867313861846924,
          -0.13848452270030975,
          0.04052657634019852,
          -0.028413398191332817,
          0.027736974880099297,
          -0.07212366908788681,
          -0.1461763083934784,
          0.17202512919902802,
          0.18916164338588715,
          -0.030163314193487167,
          -0.11651261150836945,
          -0.0456058531999588,
          0.003026651917025447,
          -0.008814401924610138,
          0.13071754574775696,
          0.05399872362613678,
          0.16058103740215302,
          -0.07107841223478317,
          0.23859897255897522,
          0.11962182074785233,
          0.10768286138772964,
          -0.18210642039775848,
          0.16404616832733154,
          -0.10382375121116638,
          0.2278985232114792,
          0.16306167840957642,
          -0.18320268392562866,
          -0.13234898447990417,
          -0.133866548538208,
          0.011719371192157269,
          -0.039800021797418594,
          0.009341303259134293,
          0.016900572925806046,
          0.11362551897764206,
          -0.007155640050768852,
          0.0003941436007153243,
          0.21609044075012207,
          0.18703067302703857,
          -0.05848756060004234,
          -0.05332787334918976,
          -0.21056155860424042,
          0.2479805052280426,
          -0.04284733161330223,
          0.13793253898620605,
          -0.050888996571302414,
          -0.005693855695426464,
          -0.06742406636476517,
          -0.053626250475645065,
          0.03565088286995888,
          -0.11905913800001144,
          0.03489471599459648,
          -0.23173148930072784,
          0.04493562504649162,
          0.0527450330555439,
          -0.07495593279600143,
          0.1924661248922348,
          0.01897752843797207,
          -0.18860362470149994,
          0.14759744703769684,
          -0.09173882752656937,
          0.03756211698055267,
          -0.02977640926837921,
          0.02293127216398716,
          -0.17199905216693878,
          -0.0725565031170845,
          0.16704073548316956,
          0.00042481167474761605,
          0.20085611939430237,
          -0.023472309112548828,
          -0.0391676239669323,
          0.14896231889724731,
          0.0686892718076706,
          -0.03470437973737717,
          -0.11062763631343842,
          0.049984585493803024,
          0.1726931482553482,
          -0.055675387382507324,
          0.06820346415042877,
          0.018493622541427612,
          0.35899969935417175,
          -0.18570896983146667,
          0.034688323736190796,
          -0.05316929891705513,
          0.10552383214235306,
          -0.08749201148748398,
          0.35307466983795166,
          0.2223871946334839,
          0.049695227295160294,
          0.11808948963880539,
          0.01583452895283699,
          0.027684411033988,
          -0.16351813077926636,
          -0.046141497790813446,
          0.18389615416526794,
          0.03216477483510971,
          0.40825390815734863,
          -0.10194989293813705,
          -0.0636986717581749,
          0.13518160581588745,
          0.432476282119751,
          -0.00674326391890645,
          -0.05704573169350624,
          0.0998697578907013,
          0.14976811408996582,
          0.06461201608181,
          -0.1688467562198639,
          0.011657356284558773,
          0.2722051739692688,
          0.031132487580180168,
          -0.07837975025177002,
          0.05756140500307083,
          0.09984060376882553,
          -0.0954805240035057,
          0.06127985194325447,
          0.04728350415825844,
          -0.1264246106147766,
          -0.04692098870873451,
