{
  "model": {
    "layers": [
      {
        "in_features": 8,
        "out_features": 128,
        "weights": [
          0.06638609617948532,
          0.1705482304096222,
          0.1246287003159523,
          -0.3275259733200073,
          0.34330546855926514,
          -0.05580265447497368,
          0.07924751937389374,
          0.20650897920131683,
          0.21778199076652527,
          -0.3085899353027344,
          -0.002390652894973755,
          0.2593519985675812,
          -0.2959068715572357,
          -0.16257135570049286,
          -0.058266788721084595,
          0.15683314204216003,
          0.03187596797943115,
          -0.10008764266967773,
          -0.4098794162273407,
          -0.1487795114517212,
          0.21347197890281677,
          0.09711886197328568,
          -0.18348422646522522,
          0.17946799099445343,
          0.14277131855487823,
          0.20386016368865967,
          -0.27067556977272034,
          -0.11457185447216034,
          -0.36663830280303955,
          -0.023255443200469017,
          -0.05658256262540817,
          -0.44887226819992065,
          0.27268853783607483,
          -0.22796283662319183,
          0.08583758026361465,
          0.19366739690303802,
          0.29532790184020996,
          -0.19063733518123627,
          -0.2559836804866791,
          0.07305537164211273,
          -0.24612583220005035,
          0.19871492683887482,
          0.07950896769762039,
          0.021958911791443825,
          0.19244076311588287,
          0.10260403156280518,
          -0.1807282567024231,
          -0.14489851891994476,
          0.2662288248538971,
          -0.09924456477165222,
          -0.2557121217250824,
          0.10302594304084778,
          -0.15465086698532104,
          0.1113627552986145,
          -0.21251456439495087,
          -0.2066991776227951,
          -0.4121665060520172,
          0.1909627467393875,
          0.07277747988700867,
          -0.07883606106042862,
          0.28902697563171387,
          -0.06603353470563889,
          -0.3694247603416443,
          -0.36438894271850586,
          -0.6374577283859253,
          -0.297976553440094,
          -0.5399831533432007,
          0.16254828870296478,
          0.36747586727142334,
          -0.27579420804977417,
          -0.05772053450345993,
          -0.8266361951828003,
          0.20712751150131226,
          0.33089667558670044,
          -0.3385191261768341,
          -0.5283378958702087,
          -0.29800790548324585,
          -0.7998943328857422,
          -0.7485812902450562,
          0.02456272765994072,
          -0.04579469934105873,
          -0.050099052488803864,
          -0.05747179314494133,
          -0.13798873126506805,
          -0.16989071667194366,
          0.14322282373905182,
          -0.12600958347320557,
          -0.11487659066915512,
          0.19441336393356323,
          -0.22081142663955688,
          -0.08245071023702621,
          -0.30940088629722595,
          -0.16790422797203064,
          0.15415553748607635,
          0.060677386820316315,
          -0.14940223097801208,
          -0.11964617669582367,
          -0.25312745571136475,
          0.2807612717151642,
          -0.33020925521850586,
          0.14175815880298615,
          0.14193597435951233,
          -0.3681222200393677,
          -0.2369755506515503,
          0.10359138995409012,
          -0.3067050278186798,
          0.07047132402658463,
          -0.06819745898246765,
          0.01745491847395897,
          0.16525885462760925,
          0.021683761849999428,
          0.3781226575374603,
          -0.007773995399475098,
          -0.14258776605129242,
          -0.23164165019989014,
          0.024219393730163574,
          -0.14247876405715942,
          -0.06021389365196228,
          -0.15139096975326538,
          -0.13176457583904266,
          0.3167329430580139,
          0.27281472086906433,
          -0.30225464701652527,
          -0.12795135378837585,
          0.26489177346229553,
          -0.19574488699436188,
          0.20185935497283936,
          -0.573955774307251,
          -0.36673596501350403,
          -0.08500897139310837,
          -0.2206554412841797,
          -0.3962516784667969,
          0.22236520051956177,
          -0.2913811206817627,
          -0.22744277119636536,
          -0.2347443550825119,
          0.16171911358833313,
          0.02281748689711094,
          -0.08454348146915436,
          0.08296049386262894,
          0.10298631340265274,
          -0.15580303966999054,
          -0.17763075232505798,
          -0.3042161166667938,
          0.22220751643180847,
          0.3079773783683777,
          0.09356390684843063,
          -0.47223660349845886,
          0.2938651740550995,
          -0.3614117503166199,
          -0.12332145124673843,
          0.39960581064224243,
          -0.2354486882686615,
          -0.34143534302711487,
          -0.2640834152698517,
          0.09041282534599304,
          0.2492145150899887,
          0.004469295032322407,
          0.13022412359714508,
          0.12640631198883057,
          0.16079257428646088,
          -0.08496780693531036,
          -0.014028812758624554,
          -0.00837517436593771,
          0.03445233777165413,
          -0.21031472086906433,
          0.19796019792556763,
          -0.16872286796569824,
          -0.21627388894557953,
          -0.1800083965063095,
          -0.1852862536907196,
          0.23174934089183807,
          -0.4824366569519043,
          0.13973255455493927,
          -0.03135501593351364,
          -0.3393513560295105,
          0.05218153074383736,
          -0.42138615250587463,
          -0.3457450270652771,
          0.11909625679254532,
          -0.41196322441101074,
          -0.16341647505760193,
          0.23579981923103333,
          0.14734303951263428,
          -0.09263050556182861,
          -0.3114120662212372,
          -0.3668629229068756,
          0.1840454787015915,
          -0.34300869703292847,
          -0.0072145601734519005,
          0.09486543387174606,
          0.030498672276735306,
          -0.9949318766593933,
          -0.8064117431640625,
          -0.7337783575057983,
          0.20318302512168884,
          -0.01838582381606102,
          -0.1407349854707718,
          -0.0070906830951571465,
          -1.456734538078308,
          0.115875244140625,
          -0.06906822323799133,
          -0.021438658237457275,
          0.13443335890769958,
          -0.11503155529499054,
          -0.04234033823013306,
          -0.2920142114162445,
          -0.09624215960502625,
          -0.49786412715911865,
          -0.2698172926902771,
          -0.2464771717786789,
          0.2746289074420929,
          -0.009508514776825905,
          -0.14374880492687225,
          -0.38922592997550964,
          -0.14272348582744598,
          0.202915221452713,
          -0.409996896982193,
          -0.1682380735874176,
          -0.038391463458538055,
          -0.1341513991355896,
          -0.3117130398750305,
          -0.024643424898386,
          0.018883688375353813,
          0.38354822993278503,
          0.2914716899394989,
          -0.16707342863082886,
          -0.3644687235355377,
          -0.7975442409515381,
          0.16336607933044434,
          0.26680707931518555,
          0.23502258956432343,
          0.2885289490222931,
          -0.3709412217140198,
          -0.2802979648113251,
          -0.34512314200401306,
          0.11354541778564453,
          -0.5251093506813049,
          -0.22689741849899292,
          0.18076370656490326,
          -0.10540509223937988,
          -0.04081198573112488,
          -0.1720406860113144,
          0.1314220130443573,
          -0.34395498037338257,
          -0.3239898085594177,
          -0.16577734053134918,
          0.23781129717826843,
          -0.18811184167861938,
          0.08366218209266663,
          -0.3620662987232208,
          0.32135114073753357,
          0.21163669228553772,
          -0.10547634959220886,
          -0.3001379370689392,
          -0.19163456559181213,
          -0.28279969096183777,
          0.00756189227104187,
          -0.3129352927207947,
          -0.07510194182395935,
          -0.06620970368385315,
          -0.3528343737125397,
          -0.33888930082321167,
          0.06162598729133606,
          -0.11937957257032394,
          -0.11542349308729172,
          -0.39795196056365967,
          -0.1335069239139557,
          -0.38570383191108704,
          0.16514895856380463,
          -0.08437874168157578,
          -0.37008190155029297,
          -0.180416077375412,
          0.22462573647499084,
          -0.1679897904396057,
          0.12292495369911194,
          -0.35266172885894775,
          -0.2854406237602234,
          -0.0924699604511261,
          0.26926037669181824,
          0.17814135551452637,
          0.08300768584012985,
          -0.5300048589706421,
          -0.10554971545934677,
          -0.39179059863090515,
          0.15891028940677643,
          -0.22999781370162964,
          -0.28179454803466797,
          -0.24982431530952454,
          0.0058762370608747005,
          0.0393378809094429,
          -0.02442391775548458,
          0.1857239454984665,
          0.1198725476861,
          -0.3190922439098358,
          -0.25540128350257874,
          -1.5111668109893799,
          -1.572462797164917,
          -0.6024564504623413,
          0.2783942222595215,
          -0.38639935851097107,
          0.09176570922136307,
          0.1849319487810135,
          -1.6139529943466187,
          -0.30858638882637024,
          0.30567467212677,
          -0.1888381689786911,
          0.22077946364879608,
          0.164194718003273,
          -0.25280600786209106,
          -0.32755449414253235,
          -0.24364492297172546,
          0.17218156158924103,
          0.009221779182553291,
          0.13380256295204163,
          0.11673525720834732,
          -0.36688676476478577,
          0.007201208267360926,
          -0.08859167993068695,
          -0.010222725570201874,
          0.09080162644386292,
          -0.2509564459323883,
          -0.20354650914669037,
          0.26729950308799744,
          -0.07615408301353455,
          -0.13724859058856964,
          -0.20004740357398987,
          0.3365653455257416,
          0.05757153779268265,
          -0.24859100580215454,
          0.05442877486348152,
          -0.3478434085845947,
          -0.17622171342372894,
          -0.18367213010787964,
          0.27283287048339844,
          0.24309559166431427,
          0.18768516182899475,
          0.032747507095336914,
          -0.24793338775634766,
          -0.2565743327140808,
          -0.08400899171829224,
          0.07702824473381042,
          -0.06611275672912598,
          -0.3246558606624603,
          -0.1344500184059143,
          -0.14244839549064636,
          0.07418528944253922,
          -0.006254625506699085,
          -0.08058373630046844,
          -0.1599857360124588,
          -0.003106981050223112,
          -0.03717569261789322,
          0.04837999492883682,
          -0.1117377057671547,
          -0.2723023593425751,
          -0.2907579243183136,
          -0.1218651607632637,
          -0.0036798298824578524,
          -0.2508288323879242,
          -0.14311057329177856,
          -0.06007450446486473,
          -0.05652281641960144,
          0.1622995287179947,
          -0.06376597285270691,
          0.18242107331752777,
          -0.17389898002147675,
          0.017763053998351097,
          -0.16573868691921234,
          -0.32153740525245667,
          -0.16653458774089813,
          -0.31413403153419495,
          -0.2806626856327057,
          0.2894841134548187,
          -0.21513298153877258,
          0.3362676799297333,
          -0.06109875440597534,
          0.30101439356803894,
          0.05729396641254425,
          0.08380348235368729,
          -0.1740906536579132,
          0.029609858989715576,
          0.13083845376968384,
          0.5136095285415649,
          0.29183652997016907,
          -0.019839495420455933,
          0.23659303784370422,
          0.0349709689617157,
          -0.10756765305995941,
          -0.3079454302787781,
          -0.18095842003822327,
          -0.025496482849121094,
          -0.24053341150283813,
          0.20954792201519012,
          0.017476709559559822,
          -0.057617153972387314,
          -0.015486576594412327,
          0.23310913145542145,
          0.031228968873620033,
          0.19349198043346405,
          -0.11915505677461624,
          0.25930169224739075,
          0.12072522938251495,
          -0.009086723439395428,
          -0.09417055547237396,
          -0.2933616042137146,
          0.37780624628067017,
          0.05710572749376297,
          0.28328561782836914,
          -0.28495994210243225,
          -0.0978628471493721,
          -0.38532403111457825,
          0.11607516556978226,
          0.016978153958916664,
          -0.4155644178390503,
          -0.2480170726776123,
          -0.1771937608718872,
          -0.23518432676792145,
          0.017544113099575043,
          0.08987133949995041,
          -0.15063397586345673,
          -0.017752209678292274,
          0.12036475539207458,
          0.012254543602466583,
          -0.02821865677833557,
          0.20371221005916595,
          0.08504683524370193,
          -0.09908420592546463,
          -0.0701233372092247,
          -0.38888439536094666,
          -0.3474442958831787,
          -0.04057886451482773,
          -0.3182947337627411,
          -0.25547170639038086,
          -0.303801566362381,
          -0.07966428250074387,
          0.19926993548870087,
          -0.048326920717954636,
          -0.28910934925079346,
          -0.17204216122627258,
          -0.18545237183570862,
          -0.7812926173210144,
          -1.0805222988128662,
          0.19720196723937988,
          0.14142361283302307,
          -0.04168768972158432,
          -0.15066103637218475,
          -0.44614148139953613,
          -0.6931291818618774,
          -0.15828928351402283,
          0.12013910710811615,
          -0.15477396547794342,
          -0.051817744970321655,
          0.29560065269470215,
          0.19179527461528778,
          -0.05710381269454956,
          -0.12767444550991058,
          -0.2506193220615387,
          -0.03359895944595337,
          0.30869820713996887,
          -0.2801743745803833,
          -0.1117631196975708,
          -0.1400999128818512,
          0.05917924642562866,
          -0.19810830056667328,
          0.16331757605075836,
          0.07900620996952057,
          -0.23296545445919037,
          -0.06213806942105293,
          -0.378966361284256,
          -0.3067586123943329,
          -0.33809444308280945,
          -0.06272956728935242,
          -0.039239734411239624,
          -0.324068158864975,
          -0.20465435087680817,
          0.003573119640350342,
          0.17500409483909607,
          -0.18895843625068665,
          0.21026495099067688,
          -0.10158485174179077,
          -0.09305086731910706,
          0.28342828154563904,
          -0.3422256112098694,
          -0.029737960547208786,
          -0.05523008108139038,
          -0.35345321893692017,
          -0.33624231815338135,
          -0.3494865894317627,
          0.11245441436767578,
          -0.24723926186561584,
          -0.19965669512748718,
          -0.1587005853652954,
          0.10258552432060242,
          -0.20316681265830994,
          -0.2830438017845154,
          -0.24401254951953888,
          -0.20838035643100739,
          -0.2935192883014679,
          -0.26039552688598633,
          0.09317417442798615,
          -0.12563088536262512,
          -0.2570085823535919,
          -0.17900578677654266,
          0.11122408509254456,
          0.2296242117881775,
          -0.006097627803683281,
          -0.041139960289001465,
          0.06415678560733795,
          -0.12578903138637543,
          -0.21256165206432343,
          0.23235923051834106,
          0.14913411438465118,
          -0.59220290184021,
          -0.9223971962928772,
          -1.701590657234192,
          0.013212569989264011,
          -1.6910674571990967,
          -0.3722709119319916,
          0.28211766481399536,
          -0.648129403591156,
          0.02317255362868309,
          -0.5068352222442627,
          0.23524148762226105,
          -0.012230412103235722,
          0.021090082824230194,
          0.02344772033393383,
          -0.17606449127197266,
          0.12164576351642609,
          -0.7887970209121704,
          -0.5932980179786682,
          -0.5823460221290588,
          -0.09516371786594391,
          -1.0025943517684937,
          -0.029843028634786606,
          0.1148473471403122,
          -0.3937690556049347,
          -0.23297913372516632,
          0.17318791151046753,
          0.13075242936611176,
          -0.20062969624996185,
          -0.1209225282073021,
          0.21969544887542725,
          -0.3478609323501587,
          -0.32974469661712646,
          -0.030749887228012085,
          0.07052326202392578,
          0.09128338098526001,
          0.14694997668266296,
          0.07305321097373962,
          0.05400979518890381,
          -0.2691341042518616,
          0.14347124099731445,
          -0.41305506229400635,
          -0.2211138755083084,
          -0.14917007088661194,
          -0.3015461564064026,
          0.12446557730436325,
          0.012275711633265018,
          0.1821848750114441,
          -0.2746928930282593,
          0.23072940111160278,
          -0.34616443514823914,
          0.02526838891208172,
          -0.06323461979627609,
          0.2602127194404602,
          -0.20660720765590668,
          -0.28590792417526245,
          -0.22637060284614563,
          0.076817587018013,
          0.06946571171283722,
          -0.45850324630737305,
          -0.3630596101284027,
          -0.3175092041492462,
          -0.031100532039999962,
          0.00418473407626152,
          -0.14538146555423737,
          -0.13881021738052368,
          -0.280952513217926,
          -0.32968196272850037,
          -0.20137380063533783,
          -0.1841016411781311,
          -0.3354765474796295,
          0.24627456068992615,
          0.09708017110824585,
          -0.096116803586483,
          -0.0626719668507576,
          -0.14134274423122406,
          0.16544672846794128,
          -0.3534543216228485,
          -0.11546193808317184,
          -0.04383498430252075,
          -0.03159649670124054,
          0.05265219882130623,
          -0.4170028865337372,
          0.41869670152664185,
          -0.24567632377147675,
          0.18616873025894165,
          0.2003909945487976,
          -0.042417313903570175,
          -0.1189718246459961,
          0.025493549183011055,
          0.12371498346328735,
          -0.09504958242177963,
          -0.19545970857143402,
          0.14801661670207977,
          0.04437664896249771,
          -0.29924216866493225,
          -0.22974200546741486,
          -0.05416612699627876,
          0.15701746940612793,
          0.06990315765142441,
          -0.15453992784023285,
          0.3599490523338318,
          -0.017430799081921577,
          0.1963069587945938,
          -0.27337923645973206,
          -0.22372715175151825,
          -0.16441303491592407,
          0.03616783395409584,
          0.22539189457893372,
          -0.10782590508460999,
          -0.068944051861763,
          0.17276854813098907,
          -0.08521463721990585,
          -0.13187457621097565,
          -0.04202863574028015,
          0.1673685610294342,
          -0.03356534242630005,
          -0.11127859354019165,
          -0.3474466800689697,
          0.0576147735118866,
          -0.2374008446931839,
          0.26878151297569275,
          -0.265338271856308,
          -0.22891321778297424,
          -0.25334829092025757,
          -0.3341555893421173,
          -0.057406067848205566,
          -0.09358692169189453,
          0.1007036566734314,
          0.02450166828930378,
          -0.09629975259304047,
          -0.09438422322273254,
          -0.24762368202209473,
          -0.363569438457489,
          0.20127542316913605,
          -0.3631224036216736,
          -0.4192221462726593,
          -0.045431721955537796,
          -0.06551844626665115,
          -0.37669041752815247,
          0.1766076534986496,
          -0.25686681270599365,
          -0.1249973401427269,
          -0.0863167941570282,
          -0.2625925838947296,
          0.010125011205673218,
          -0.10693511366844177,
          -0.1689358651638031,
          -0.21113888919353485,
          -0.07802122831344604,
          -0.21556170284748077,
          0.24921610951423645,
          -0.3091365098953247,
          -0.09716334193944931,
          -0.3140857219696045,
          0.1679075062274933,
          -0.20844562351703644,
          0.43305251002311707,
          0.061440616846084595,
          -0.16850535571575165,
          -0.37725144624710083,
          -0.11507116258144379,
          -0.2954981029033661,
          -0.025767575949430466,
          -0.12208060920238495,
          -0.16864891350269318,
          0.05976752191781998,
          0.31369549036026,
          0.3786240220069885,
          0.1051790714263916,
          -0.15633685886859894,
          -0.10414081811904907,
          0.04717516899108887,
          -0.1734810769557953,
          -0.16670460999011993,
          -0.14805454015731812,
          0.13591456413269043,
          0.19098176062107086,
          -0.22883178293704987,
          0.004350409377366304,
          0.13082292675971985,
          -0.33740535378456116,
          0.11525610089302063,
          -0.26626282930374146,
          0.22381238639354706,
          -0.32325807213783264,
          0.20639090240001678,
          0.24994753301143646,
          -0.3024635314941406,
          0.06431104987859726,
          -0.3071886897087097,
          0.22077271342277527,
          -0.025001682341098785,
          -0.09901195764541626,
          -0.2881750762462616,
          0.2895350158214569,
          -0.009550124406814575,
          -0.0142117440700531,
          -0.22697359323501587,
          0.1255861520767212,
          0.10757005214691162,
          -0.436376690864563,
          0.041658684611320496,
          -0.018472472205758095,
          -0.06124592944979668,
          -0.08760622143745422,
          -0.13145923614501953,
          -0.0664018988609314,
          5.8928933867719024e-05,
          -0.3594822585582733,
          -0.2389293611049652,
          0.3038814067840576,
          -0.29562804102897644,
          0.07066072523593903,
          -0.12457171082496643,
          0.0075245508924126625,
          -0.01997583545744419,
          -0.2896823287010193,
          -0.25636690855026245,
          0.09764587134122849,
          0.2378953993320465,
          0.08245745301246643,
          0.031153427436947823,
          0.12897565960884094,
          -0.41830265522003174,
          -0.3454510271549225,
          -0.08692386746406555,
          -0.008276373147964478,
          -0.11926014721393585,
          -0.3146260380744934,
          -0.1467919945716858,
          -0.1416248232126236,
          -0.1978743076324463,
          -0.23861341178417206,
          -0.24190305173397064,
          -0.19384503364562988,
          0.14561372995376587,
          -0.15609687566757202,
          -0.16300100088119507,
          -0.20298512279987335,
          0.34942129254341125,
          -0.30612361431121826,
          -0.09469252079725266,
          -0.06256923079490662,
          0.09580501914024353,
          -0.37004372477531433,
          0.16841991245746613,
          0.15490160882472992,
          -0.11406189203262329,
          0.3189091086387634,
          -0.330308198928833,
          -0.13242128491401672,
          0.12593750655651093,
          0.11818113178014755,
          0.07762998342514038,
          0.023782741278409958,
          -0.17075030505657196,
          -0.2588407099246979,
          0.28459838032722473,
          0.137248694896698,
          -0.19610802829265594,
          0.13629519939422607,
          0.07617554813623428,
          -0.45922112464904785,
          -0.09480077773332596,
          0.16134408116340637,
          0.2812682092189789,
          0.08911538124084473,
          -0.35533958673477173,
          -0.22027739882469177,
          -0.32781052589416504,
          -0.015168445184826851,
          -0.11815869063138962,
          -0.21621139347553253,
          0.14829739928245544,
          0.11742570996284485,
          0.3075718283653259,
          0.4251713752746582,
          -0.2436213195323944,
          0.18453851342201233,
          -0.0056663742288947105,
          -0.3519326150417328,
          0.19757558405399323,
          -0.07789014279842377,
          0.07437776029109955,
          -0.42301273345947266,
          0.1852046698331833,
          -0.01341180969029665,
          0.17812852561473846,
          -0.3650296926498413,
          -0.03096074052155018,
          0.1940435916185379,
          -0.1020336002111435,
          -0.3335236608982086,
          -0.0942578837275505,
          -0.5497937798500061,
          -0.35835739970207214,
          -0.4104708731174469,
          0.030166100710630417,
          0.04484350606799126,
          -0.25180360674858093,
          0.23520730435848236,
          -0.1415911167860031,
          -0.08051732182502747,
          -0.18479718267917633,
          -0.3414916396141052,
          -0.2196011245250702,
          -0.48895320296287537,
          -0.17848265171051025,
          0.076205775141716,
          -0.2869440019130707,
          0.2539483308792114,
          0.25802308320999146,
          0.24398280680179596,
          -0.38949620723724365,
          -0.09898427128791809,
          -0.2631804645061493,
          -0.37528106570243835,
          -0.10375427454710007,
          0.004880434833467007,
          -0.1255769431591034,
          0.2724478840827942,
          0.11913149803876877,
          -0.022982623428106308,
          0.04128175601363182,
          0.13174264132976532,
          -0.10185687243938446,
          0.1944037675857544,
          -0.2616683542728424,
          -0.1636752188205719,
          -0.11504648625850677,
          -0.20366810262203217,
          -0.27625250816345215,
          -0.1842489093542099,
          0.17215940356254578,
          -0.1611974537372589,
          -0.09546491503715515,
          0.2633165419101715,
          0.02833309955894947,
          -0.06630154699087143,
          -0.2623942494392395,
          0.2524433135986328,
          -0.2827966809272766,
          -0.1994459182024002,
          -0.4573190212249756,
          -0.16323086619377136,
          -0.11835207790136337,
          0.3424301743507385,
          -0.0767122432589531,
          0.4957130253314972,
          -0.11817578971385956,
          -0.1979014128446579,
          -0.18794281780719757,
          -0.25184011459350586,
          0.1292036920785904,
          -0.052553288638591766,
          -0.3300856351852417,
          -0.4602522850036621,
          -0.3163397014141083,
          0.1372903436422348,
          -0.2602684199810028,
          -0.2023768573999405,
          -0.12178967893123627,
          -0.129007026553154,
          -0.16565430164337158,
          -0.09014865756034851,
          -0.05394098162651062,
          -0.15110209584236145,
          -0.13393273949623108,
          -0.08396938443183899,
          0.19455021619796753,
          -0.3696267008781433,
          -0.0809224545955658,
          -0.4899147152900696,
          0.07285468280315399,
          0.13559973239898682,
          0.33684417605400085,
          0.19382329285144806,
          0.02780795842409134,
          0.011460925452411175,
          -0.3606785237789154,
          -0.1854974925518036,
          -0.3488072156906128,
          0.023428235203027725,
          0.07370755821466446,
          -0.30800989270210266,
          -0.22646541893482208,
          0.2664222717285156,
          0.3064890205860138,
          -0.31041768193244934,
          -0.06566782295703888,
          0.026611903682351112,
          0.23237182199954987,
          0.12318604439496994,
          0.2607520818710327,
          -0.10485290735960007,
          -0.00831670593470335,
          0.22729387879371643,
          0.42543941736221313,
          -0.1818293184041977,
          -0.11147837340831757,
          0.1906968355178833,
          0.35443004965782166,
          -0.22863253951072693,
          0.062151264399290085,
          -0.21044312417507172,
          0.008952397853136063,
          -0.08681582659482956,
          -0.11760091036558151,
          -0.09538203477859497,
          0.3903868496417999,
          -0.3390144109725952,
          0.09839645028114319,
          -0.07765300571918488,
          0.1460396945476532,
          -0.042540043592453,
          0.35027316212654114,
          -0.07313309609889984,
          -0.04358821362257004,
          0.2076941430568695,
          -0.09752539545297623,
          0.02458650805056095,
          0.20402050018310547,
          -0.20110969245433807,
          -0.2042170912027359,
          -0.0006044029141776264,
          -0.20860572159290314,
          -0.05839965492486954,
          -0.3438570499420166,
          0.10708639025688171,
          0.1461007297039032,
          -0.07983626425266266,
          0.13902351260185242,
          -0.12398572266101837,
          0.11186009645462036,
          0.03384238854050636,
          0.046425435692071915,
          -0.42398497462272644,
          -0.2989002466201782,
          -0.429310142993927,
          -0.18593387305736542,
          -0.3170803189277649,
          0.15009036660194397,
          -0.15643014013767242,
          0.016359686851501465,
          -0.31609731912612915,
          -0.16881701350212097,
          -0.11671532690525055,
          -0.3394049108028412,
          -0.22142629325389862,
          0.05409226939082146,
          -0.40186384320259094,
          0.09182827174663544,
          -0.26535290479660034,
          0.07348212599754333,
          -0.363955557346344,
          -0.017610127106308937,
          0.05226633697748184,
          -0.032516926527023315,
          -0.15399841964244843,
          0.056139882653951645,
          0.16524595022201538,
          -0.24998094141483307,
          -0.06657465547323227,
          -0.533329427242279,
          0.0033899059053510427,
          -0.0994550809264183,
          -0.007878994569182396,
          -0.21779341995716095,
          0.06568071246147156,
          -0.33899369835853577,
          -0.4302072525024414,
          -0.4160744845867157,
          0.08450403809547424,
          -0.28881147503852844,
          -0.34006741642951965,
          -0.01900017261505127,
          -0.19469618797302246,
          -0.1731107532978058,
          -0.3506612181663513,
          -0.10502724349498749,
          0.40108564496040344,
          0.17315971851348877,
          -0.11651656776666641,
          -1.2892383337020874,
          -0.033097054809331894,
          -1.0579825639724731,
          -0.6818687915802002,
          0.18750254809856415,
          0.173211008310318,
          0.01162680983543396,
          0.10390815138816833,
          -0.2523724138736725,
          -0.15561778843402863,
          -0.20829187333583832,
          0.10725191235542297,
          -0.2304893136024475,
          0.01645384170114994,
          -0.38356539607048035,
          -0.07960594445466995,
          -0.31869614124298096,
          -0.33810728788375854,
          -0.34282350540161133,
          -0.00865317415446043,
          0.13218750059604645,
          0.07736200839281082,
          0.05977068468928337,
          -0.41638821363449097,
          -0.07707308232784271,
          0.0022490625269711018,
          -0.3492593765258789,
          0.16769476234912872,
          -0.35562238097190857
        ],
        "bias": [
          -0.10033571720123291,
          -0.2470126450061798,
          0.04571513831615448,
          -0.08581618964672089,
          -0.34167757630348206,
          -0.4019993245601654,
          -0.09497544169425964,
          0.0841255709528923,
          0.1469905525445938,
          0.024293426424264908,
          0.07011988013982773,
          -0.1015448048710823,
          -0.01924705132842064,
          -0.39957574009895325,
          0.10033929347991943,
          0.16434702277183533,
          0.17556525766849518,
          -0.16227389872074127,
          -0.17226345837116241,
          -0.27809154987335205,
          -0.08327793329954147,
          -0.3860483169555664,
          -0.2324991375207901,
          -0.29581552743911743,
          0.030052151530981064,
          -0.0023074448108673096,
          -0.048923976719379425,
          0.11002852022647858,
          -0.32850372791290283,
          0.027462158352136612,
          -0.004248619079589844,
          -0.16444329917430878,
          0.16974034905433655,
          0.005057225935161114,
          -0.2911694347858429,
          0.12311085313558578,
          -0.2138640582561493,
          -0.13566404581069946,
          0.3712599277496338,
          0.05645539239048958,
          -0.22360816597938538,
          -0.21347446739673615,
          -0.10007870197296143,
          0.06668274849653244,
          0.25863510370254517,
          -0.22300046682357788,
          -0.12072518467903137,
          -0.28118351101875305,
          -0.13778263330459595,
          -0.2839527726173401,
          -0.2594186067581177,
          0.08468899875879288,
          -0.07645328342914581,
          0.038810111582279205,
          0.07914882898330688,
          0.14771412312984467,
          -0.3885616362094879,
          -0.0898154079914093,
          0.08980052173137665,
          -0.18339142203330994,
          -0.13138103485107422,
          0.055821359157562256,
          0.23337987065315247,
          -0.024026451632380486,
          0.03445570170879364,
          0.3452279269695282,
          -0.008320223540067673,
          -0.05896749347448349,
          -0.31116628646850586,
          -0.003663022303953767,
          -0.14047345519065857,
          0.03811660036444664,
          0.124667227268219,
          -0.0402255617082119,
          0.11858266592025757,
          -0.1207289844751358,
          0.014463461935520172,
          -0.3630424439907074,
          0.023451149463653564,
          -0.1522444486618042,
          0.2632773220539093,
          -0.011917215771973133,
          0.13238665461540222,
          0.31069135665893555,
          0.17921942472457886,
          -5.7790024584392086e-05,
          -0.22067096829414368,
          -0.11838822066783905,
          -0.1651165634393692,
          0.033776167780160904,
          -0.14641991257667542,
          -0.03480341285467148,
          -0.3291700780391693,
          0.0157012939453125,
          -0.4801662564277649,
          -0.2199830859899521,
          -0.1398032158613205,
          -0.22229325771331787,
          -0.10717092454433441,
          -0.30774521827697754,
          0.18613030016422272,
          -0.01621069572865963,
          0.18999959528446198,
          0.174655482172966,
          -0.29960891604423523,
          -0.035192787647247314,
          0.01750394143164158,
          -0.06740253418684006,
          0.2884235978126526,
          -0.05034789443016052,
          0.07424014806747437,
          -0.1426163911819458,
          -0.3393642008304596,
          -0.1228470504283905,
          -0.13707005977630615,
          0.021819474175572395,
          -0.21582795679569244,
          -0.019149385392665863,
          0.19778908789157867,
          -0.2584601938724518,
          0.05829703062772751,
          0.020257731899619102,
          0.05451975762844086,
          0.29416659474372864,
          -0.29879191517829895,
          -0.22960098087787628,
          0.13574518263339996,
          0.1212129145860672
        ]
      },
      {
        "in_features": 128,
        "out_features": 128,
        "weights": [
          -0.14648033678531647,
          -0.06385425478219986,
          -0.09080680459737778,
          0.09388291090726852,
          -0.03228544443845749,
          0.05018431693315506,
          -0.08101906627416611,
          0.05837971717119217,
          0.013006308116018772,
          -0.03996579721570015,
          0.009913045912981033,
          0.12080524861812592,
          -0.04103599488735199,
          0.2549046277999878,
          -0.07059867680072784,
          -0.5112555027008057,
          0.06478651612997055,
          0.03225865960121155,
          0.060461804270744324,
          0.4531060457229614,
          0.05515963211655617,
          0.8061309456825256,
          0.09540409594774246,
          0.06757425516843796,
          0.2920929789543152,
          0.07408372312784195,
          0.3660309910774231,
          0.04682426154613495,
          -0.18693388998508453,
          -0.020634308457374573,
          0.07644657045602798,
          0.06488905847072601,
          -0.06924774497747421,
          0.08604764938354492,
          -0.05920754373073578,
          0.11492333561182022,
          -0.03584730625152588,
          0.3841344118118286,
          -0.691951334476471,
          -0.10772497951984406,
          0.0670754685997963,
          -0.03693172335624695,
          -0.05244274437427521,
          -0.06631458550691605,
          0.006424555554986,
          -0.07550517469644547,
          0.05626026540994644,
          0.7440351843833923,
          0.035141609609127045,
          -0.10960675776004791,
          0.15991942584514618,
          0.0961095541715622,
          0.04687313362956047,
          -0.40811413526535034,
          -0.02153165638446808,
          -0.13302819430828094,
          0.06937546283006668,
          -0.0850205048918724,
          -0.07531528174877167,
          0.027027428150177002,
          -0.026128970086574554,
          0.08598796278238297,
          0.06194799765944481,
          -0.15372805297374725,
          0.5453598499298096,
          0.2837625741958618,
          0.7372746467590332,
          0.07139166444540024,
          0.04943788796663284,
          0.48004981875419617,
          -0.040500011295080185,
          0.013917985372245312,
          0.04110174626111984,
          -0.03484096750617027,
          -0.7616977691650391,
          -0.01657087355852127,
          -0.1817748099565506,
          -0.05925329774618149,
          0.07357781380414963,
          0.008491367101669312,
          -0.4662921130657196,
          0.13292574882507324,
          0.05397472530603409,
          0.09352283924818039,
          0.015104127116501331,
          -0.13943222165107727,
          -0.10670691728591919,
          -0.05478878691792488,
          -0.04335423931479454,
          -0.15867629647254944,
          0.08556655794382095,
          0.594756007194519,
          0.06972365826368332,
          -0.07459527254104614,
          0.19753190875053406,
          -0.011548284441232681,
          0.002342971507459879,
          -0.022828184068202972,
          0.007876738905906677,
          0.04014867544174194,
          -0.013938017189502716,
          -0.03472886234521866,
          0.09110888838768005,
          -0.07368918508291245,
          0.011546553112566471,
          0.06003902107477188,
          -0.0438341349363327,
          -0.06800466775894165,
          -0.05649324133992195,
          0.05423106998205185,
          -0.11154570430517197,
          0.04527968168258667,
          0.06024204194545746,
          0.0726504698395729,
          -0.030530964955687523,
          -0.09864628314971924,
          0.04658231511712074,
          -0.10265132039785385,
          -0.09255577623844147,
          -0.06195274740457535,
          0.048586949706077576,
          -0.013560311868786812,
          -0.06912070512771606,
          -0.044419217854738235,
          -0.05129098519682884,
          0.0871918722987175,
          -0.078926220536232,
          0.08613754063844681,
          0.0520743727684021,
          0.06935431808233261,
          -0.08961832523345947,
          0.01401966717094183,
          -0.08492495119571686,
          -0.034932151436805725,
          -0.0014283284544944763,
          -0.004455998539924622,
          -0.045161861926317215,
          0.06865903735160828,
          -0.030521664768457413,
          0.027746805921196938,
          0.01752067357301712,
          0.04584174230694771,
          0.004535846412181854,
          -0.07332909107208252,
          -0.006172299385070801,
          -0.053430866450071335,
          -0.019240567460656166,
          -0.04852120950818062,
          -0.05456379055976868,
          0.034121058881282806,
          -0.02323341555893421,
          -0.049101658165454865,
          -0.015700899064540863,
          0.006538599729537964,
          -0.03487568348646164,
          0.012455673888325691,
          0.0015159696340560913,
          0.04901384562253952,
          0.08385507017374039,
          0.07705911248922348,
          -0.008535265922546387,
          -0.03937409073114395,
          -0.05726510286331177,
          -0.0355997271835804,
          0.030230700969696045,
          -0.06547572463750839,
          -0.019572805613279343,
          -0.054155383259058,
          0.03132820874452591,
          0.006859429180622101,
          0.07694724947214127,
          0.04729703813791275,
          0.030828967690467834,
          -0.06093788146972656,
          -0.045449137687683105,
          0.003913499880582094,
          -0.0029603615403175354,
          0.0052153561264276505,
          -0.07674034684896469,
          -0.09383288025856018,
          -0.03768827021121979,
          -0.04569566994905472,
          -0.05029074475169182,
          -0.06651867926120758,
          -0.004248812794685364,
          -0.07575821876525879,
          0.04877004772424698,
          0.07367713004350662,
          0.04067624360322952,
          -0.03896428644657135,
          0.06153779476881027,
          0.05793680623173714,
          0.034394197165966034,
          -0.013583874329924583,
          0.0691247209906578,
          0.022146334871649742,
          0.08213993161916733,
          0.07504438608884811,
          0.02859307825565338,
          0.02454090118408203,
          -0.011843271553516388,
          -0.030378593131899834,
          -0.0064311944879591465,
          0.01081404834985733,
          -0.06368336081504822,
          0.07186184078454971,
          0.03878643363714218,
          -0.01435515284538269,
          -0.09463000297546387,
          0.07173480838537216,
          -0.05776643753051758,
          0.040780387818813324,
          -0.04883769899606705,
          0.019941110163927078,
          -0.07474655658006668,
          0.07597313076257706,
          -0.07993119210004807,
          -0.046680983155965805,
          -0.08056566119194031,
          -0.011978412978351116,
          -0.007678575813770294,
          -0.020587600767612457,
          -0.001834159716963768,
          -0.007002741098403931,
          0.040160149335861206,
          -0.055436719208955765,
          -0.07195493578910828,
          -0.02563253603875637,
          0.07871048897504807,
          -0.08492816239595413,
          0.05876050144433975,
          -0.07336924970149994,
          0.008577358908951283,
          0.08814869076013565,
          0.061439670622348785,
          0.03362344950437546,
          0.012724689207971096,
          -0.0856071189045906,
          -0.07313846796751022,
          0.07197409868240356,
          -0.02887679636478424,
          -0.014125465415418148,
          -0.08162489533424377,
          -0.008659777231514454,
          -0.07408851385116577,
          -0.041111595928668976,
          0.050643399357795715,
          0.0731997862458229,
          -0.06375788152217865,
          0.07267493009567261,
          0.005132667720317841,
          0.04128801077604294,
          -0.07528732717037201,
          -0.014596022665500641,
          0.06810013949871063,
          0.06821540743112564,
          0.061535000801086426,
          -0.04728246107697487,
          0.055166229605674744,
          -0.05016636475920677,
          -0.009294566698372364,
          0.04578734189271927,
          -0.0591425746679306,
          -0.012452811002731323,
          0.03506553918123245,
          -0.016719752922654152,
          0.014080128632485867,
          0.031088991090655327,
          -0.02375953644514084,
          0.07396284490823746,
          -0.0003679618239402771,
          -0.08203988522291183,
          0.07845921069383621,
          -0.05809272825717926,
          -0.4117477238178253,
          0.16767682135105133,
          -0.08903633058071136,
          0.2359665185213089,
          -0.026084696874022484,
          -0.009060186333954334,
          0.1448386013507843,
          -0.05644487217068672,
          0.3410928547382355,
          -0.06264454126358032,
          0.016492730006575584,
          -0.4069141745567322,
          -0.022319473326206207,
          0.026080846786499023,
          -0.06840857863426208,
          -0.06614483147859573,
          -0.014065496623516083,
          -0.03695620596408844,
          0.0060541704297065735,
          -0.08066035062074661,
          -1.0014182329177856,
          -0.08539501577615738,
          -0.049023084342479706,
          -0.0188070610165596,
          -0.007659852504730225,
          -0.035428836941719055,
          0.06382206082344055,
          -0.07932187616825104,
          0.025176048278808594,
          0.28416338562965393,
          -0.07644462585449219,
          -0.044072315096855164,
          -0.0008311107521876693,
          -0.03035210818052292,
          0.05767948180437088,
          -0.1429683417081833,
          -0.021833635866642,
          0.14300617575645447,
          0.07792454957962036,
          -0.039247725158929825,
          -0.17108619213104248,
          -0.013987138867378235,
          -0.05786383897066116,
          0.031127415597438812,
          -0.07095157355070114,
          0.018487561494112015,
          0.05347370728850365,
          -0.020076731219887733,
          0.05011986941099167,
          -0.036941178143024445,
          -0.0837295725941658,
          0.15681764483451843,
          -0.0671830028295517,
          0.05123452842235565,
          -0.07349454611539841,
          -0.001987023977562785,
          -0.23084434866905212,
          -0.08708684146404266,
          0.03047451563179493,
          0.04445769637823105,
          -0.07482586801052094,
          0.0630122497677803,
          0.2295987904071808,
          -0.07191191613674164,
          -0.06450580060482025,
          -0.16144336760044098,
          -0.018365507945418358,
          0.044479869306087494,
          -0.04426087811589241,
          -0.10207513719797134,
          0.03506547957658768,
          0.008236457593739033,
          0.019547395408153534,
          -0.0410635732114315,
          -0.029850229620933533,
          0.031341083347797394,
          0.0047241379506886005,
          0.057423487305641174,
          -0.07728299498558044,
          -0.035778798162937164,
          0.04265010356903076,
          0.06442440301179886,
          -0.04800068587064743,
          0.053054362535476685,
          -0.007037338800728321,
          0.028838155791163445,
          -0.01847599446773529,
          -0.00772298127412796,
          0.07766197621822357,
          0.006241790950298309,
          -0.00878254882991314,
          0.051029957830905914,
          0.019178153946995735,
          -0.01025649718940258,
          -0.02597844786942005,
          -0.09627381712198257,
          0.05446518212556839,
          -0.061933811753988266,
          -0.06607319414615631,
          -0.042693134397268295,
          -0.08274877071380615,
          0.0827815905213356,
          -0.0016869348473846912,
          0.024916207417845726,
          -0.042842961847782135,
          -0.008867979049682617,
          -0.3970096707344055,
          -0.07798900455236435,
          0.04656703397631645,
          0.0006336793303489685,
          0.033260565251111984,
          0.02840370684862137,
          -0.07446862012147903,
          -0.01702377200126648,
          -0.05267281085252762,
          -0.015559583902359009,
          0.02555883675813675,
          -0.0833326205611229,
          0.0011716707376763225,
          -0.0810324177145958,
          -0.07147511094808578,
          0.07662477344274521,
          0.029393460601568222,
          0.06781656295061111,
          0.003071010112762451,
          0.09771144390106201,
          -0.08523903042078018,
          0.019974078983068466,
          -0.024710029363632202,
          -0.024740956723690033,
          0.020783212035894394,
          0.00739692896604538,
          0.005792450625449419,
          -0.025833867490291595,
          0.024527793750166893,
          0.08472751826047897,
          -0.05815597251057625,
          -0.06853410601615906,
          0.008462193422019482,
          -0.05795304477214813,
          -0.03770675137639046,
          0.09314093738794327,
          -0.004954881966114044,
          0.03155220299959183,
          0.01012875884771347,
          -0.07579319179058075,
          -0.07821939885616302,
          0.0018905064789578319,
          0.03243322670459747,
          -0.045522525906562805,
          -0.047403812408447266,
          -0.002374701201915741,
          -0.0743713229894638,
          0.022125549614429474,
          0.07275360077619553,
          -0.02365683764219284,
          -0.03205309808254242,
          0.003719185246154666,
          -0.05856844037771225,
          -0.08708290755748749,
          0.019908618181943893,
          0.04057035222649574,
          -0.07580050826072693,
          0.021659215912222862,
          0.0357532799243927,
          -0.040850333869457245,
          0.04214969277381897,
          0.03257955610752106,
          0.0008281543850898743,
          -0.013321340084075928,
          -0.042889997363090515,
          -0.03580830991268158,
          0.0689380094408989,
          0.12595131993293762,
          -0.04286078363656998,
          -0.12353698164224625,
          -0.0849783718585968,
          0.01277371309697628,
          -0.01494608074426651,
          0.021762758493423462,
          0.019706569612026215,
          0.04518605396151543,
          -0.039170101284980774,
          -0.022492125630378723,
          -0.07646004855632782,
          -0.027118397876620293,
          -0.07693278044462204,
          0.08364611119031906,
          -0.03537122532725334,
          0.06722826510667801,
          0.07840181142091751,
          -0.04410335794091225,
          -0.024644970893859863,
          -0.09585884213447571,
          -0.07092376798391342,
          -0.047894224524497986,
          -0.04113899916410446,
          -0.014564369805157185,
          -0.07111795246601105,
          -0.08107516169548035,
          -0.02673538774251938,
          -0.02410419099032879,
          -0.04169397056102753,
          -0.01683177798986435,
          0.057776711881160736,
          0.04265739768743515,
          0.022975554689764977,
          0.00750887393951416,
          0.02019200287759304,
          -0.0810813382267952,
          0.0668431892991066,
          -0.03877575695514679,
          -0.04771237075328827,
          0.050946079194545746,
          -0.06557554751634598,
          -0.028885699808597565,
          -0.07049206644296646,
          -0.08099083602428436,
          -0.03006593883037567,
          0.0037064477801322937,
          0.08757635205984116,
          0.049651138484478,
          0.0522921159863472,
          -0.01150157768279314,
          0.00034327845787629485,
          0.028933938592672348,
          -0.03424302488565445,
          -0.02329900860786438,
          -0.08335340768098831,
          -0.07267813384532928,
          0.04696694016456604,
          0.06915345042943954,
          -0.042445529252290726,
          0.06072253733873367,
          -0.01572548598051071,
          -0.03697275370359421,
          0.0696694627404213,
          0.04503136873245239,
          -0.0909179076552391,
          -0.07764260470867157,
          0.025658532977104187,
          -0.09618323296308517,
          0.05939134582877159,
          -0.038845475763082504,
          -0.0024909228086471558,
          0.04150320217013359,
          -0.015583069063723087,
          -0.005443606525659561,
          -0.039673056453466415,
          -0.029500437900424004,
          -0.03520231321454048,
          0.006135445088148117,
          -0.07559181749820709,
          -0.1850719451904297,
          0.057874731719493866,
          -0.06286202371120453,
          0.012797880917787552,
          0.3262033462524414,
          -0.13538013398647308,
          0.4052687883377075,
          -0.06604740023612976,
          0.062448225915431976,
          0.22505153715610504,
          0.006892777979373932,
          0.4096852242946625,
          -0.061149150133132935,
          0.03547966107726097,
          0.009159587323665619,
          0.03377653658390045,
          -0.04447442293167114,
          -0.07891148328781128,
          0.11974196881055832,
          -0.07955842465162277,
          0.04770584776997566,
          -0.033811476081609726,
          0.0005232181865721941,
          -0.0848747193813324,
          0.030253589153289795,
          0.028347313404083252,
          -0.027398813515901566,
          -0.027015823870897293,
          -0.03835834562778473,
          0.101266048848629,
          -0.08555016666650772,
          0.046088822185993195,
          -0.1684669554233551,
          -0.07142817229032516,
          -0.05964876711368561,
          -0.14263582229614258,
          -0.017848901450634003,
          -0.007146135903894901,
          -0.3057187497615814,
          -0.040278300642967224,
          0.028343597427010536,
          0.06545642763376236,
          0.002737700939178467,
          -0.05391202121973038,
          0.025113023817539215,
          0.016495265066623688,
          0.08348139375448227,
          -0.04779677093029022,
          -0.10315003246068954,
          -0.0297597274184227,
          0.04479741305112839,
          0.22994011640548706,
          0.010082880966365337,
          -0.05872459337115288,
          0.23651395738124847,
          -0.05632972717285156,
          0.09631223976612091,
          -0.03205891698598862,
          -0.12520061433315277,
          0.03777813911437988,
          0.013651229441165924,
          -0.10445166379213333,
          -0.06510917097330093,
          -0.06570790708065033,
          -0.01054498553276062,
          -0.0027395859360694885,
          -0.0438816174864769,
          0.031823933124542236,
          0.019784661009907722,
          0.009054528549313545,
          -0.07581160962581635,
          -0.062148671597242355,
          -0.14219534397125244,
          0.07496421784162521,
          -0.03137820586562157,
          0.07939950376749039,
          0.0683167353272438,
          -0.060074031352996826,
          0.008831441402435303,
          0.06263913959264755,
          0.04934557527303696,
          0.016351426020264626,
          -0.008522333577275276,
          -0.02196662873029709,
          -0.049936871975660324,
          0.06654485315084457,
          0.06063443794846535,
          -0.10571032017469406,
          0.046174827963113785,
          -0.08690851181745529,
          0.0811530277132988,
          0.04843046888709068,
          -0.0008659884333610535,
          0.012508280575275421,
          -0.08211645483970642,
          -0.06579608470201492,
          -0.039140041917562485,
          0.02100883424282074,
          -0.023202840238809586,
          0.06136392802000046,
          -0.023357106372714043,
          -0.03598325327038765,
          -0.03412700816988945,
          -0.011281074956059456,
          0.052716903388500214,
          0.008377837017178535,
          0.010151522234082222,
          -0.005219701211899519,
          0.019905492663383484,
          -0.07894321531057358,
          0.026286080479621887,
          -0.11171980947256088,
          -0.0315161794424057,
          -0.09955001622438431,
          -0.06788372993469238,
          0.01818559505045414,
          -0.06187581270933151,
          -0.05699592083692551,
          -0.07521626353263855,
          0.07508940249681473,
          -0.008719651959836483,
          0.12703244388103485,
          -0.032218050211668015,
          -0.061375346034765244,
          0.08255612850189209,
          0.008502857759594917,
          0.049266617745161057,
          -0.023269400000572205,
          -0.045564815402030945,
          0.058304715901613235,
          0.0242160614579916,
          0.033825039863586426,
          0.008671589195728302,
          0.0508490726351738,
          0.08466147631406784,
          0.02771853096783161,
          -0.061178214848041534,
          -0.0695662721991539,
          -0.003546580672264099,
          -0.04029587656259537,
          0.006026096176356077,
          -0.008006520569324493,
          -0.03035924956202507,
          -0.06723891198635101,
          -0.022451860830187798,
          -0.00027257204055786133,
          0.0718916729092598,
          -0.007849566638469696,
          -0.002484966302290559,
          0.06737346202135086,
          -0.03848937153816223,
          0.03188541904091835,
          -0.07696312665939331,
          0.03967038542032242,
          0.060907863080501556,
          0.04433634132146835,
          0.014624636620283127,
          -0.017966367304325104,
          0.0877048596739769,
          0.06821764260530472,
          -0.08292471617460251,
          -0.05856642872095108,
          -0.05356719717383385,
          -0.0769970491528511,
          0.07956814020872116,
          0.07892458140850067,
          0.009819455444812775,
          0.025321928784251213,
          0.003378401044756174,
          0.022276299074292183,
          -0.04803771153092384,
          0.02028927393257618,
          0.05303353816270828,
          -0.015014344826340675,
          0.019533053040504456,
          -0.07102487981319427,
          -0.04573524370789528,
          0.04013407975435257,
          -0.056628141552209854,
          -0.08823917806148529,
          -0.05850816145539284,
          -0.031042933464050293,
          -0.03505449369549751,
          0.05920275300741196,
          0.02505546621978283,
          -0.028477467596530914,
          0.051302310079336166,
          -0.10763673484325409,
          0.05003419145941734,
          0.05323949083685875,
          0.04555518180131912,
          0.04670771211385727,
          -0.03781267628073692,
          0.0006033258978277445,
          -0.06277074664831161,
          0.030657373368740082,
          -0.058297157287597656,
          0.03520043566823006,
          0.00679891649633646,
          -0.06980174779891968,
          -0.08847472071647644,
          -0.07153819501399994,
          0.03677484765648842,
          0.051336877048015594,
          -0.021587563678622246,
          -0.0265536829829216,
          -0.04872722551226616,
          0.02028067037463188,
          0.06299682706594467,
          -0.03256797790527344,
          -0.06516639143228531,
          -0.06193166226148605,
          -0.07375451177358627,
          -0.04503583163022995,
          0.0720926895737648,
          -0.05665464326739311,
          -0.01784360408782959,
          -0.01258969958871603,
          0.04114805907011032,
          0.019123967736959457,
          0.022588606923818588,
          -0.02091737650334835,
          -0.05007997155189514,
          0.02290731854736805,
          0.07991059869527817,
          0.04960765689611435,
          0.039862971752882004,
          -0.03293490782380104,
          0.024448765441775322,
          0.07684359699487686,
          0.052084438502788544,
          -0.053778041154146194,
          -0.025121882557868958,
          -0.08607444912195206,
          0.05508779361844063,
          0.06162732467055321,
          0.05224116891622543,
          0.07966909557580948,
          0.022681444883346558,
          0.0494658499956131,
          -0.004223845899105072,
          -0.09579368680715561,
          0.0414729043841362,
          -0.007574829738587141,
          -0.012501231394708157,
          -0.09048614650964737,
          -0.042997218668460846,
          0.013093441724777222,
          0.05084426701068878,
          0.01737896353006363,
          -0.0773356705904007,
          0.057215943932533264,
          -0.008797753602266312,
          0.03616945445537567,
          0.040802061557769775,
          -0.08246147632598877,
          -0.14862005412578583,
          0.042458899319171906,
          -0.001002483069896698,
          -0.045693766325712204,
          0.12290160357952118,
          -0.05412829667329788,
          0.1419980823993683,
          -0.025963855907320976,
          -0.008170557208359241,
          0.13605652749538422,
          -0.023666054010391235,
          0.2353116124868393,
          0.012153462506830692,
          -0.05197714641690254,
          -0.20767094194889069,
          -0.027164317667484283,
          -0.05536859109997749,
          -0.04536127299070358,
          -0.009591156616806984,
          -0.05415249243378639,
          -0.00752434553578496,
          -0.06751077622175217,
          -0.06362558901309967,
          0.021834703162312508,
          -0.029691467061638832,
          0.011775799095630646,
          -0.05750821530818939,
          0.08666660636663437,
          0.013562400825321674,
          0.054603856056928635,
          -0.05154935270547867,
          0.06227097660303116,
          -0.07103420794010162,
          0.05917070060968399,
          -0.032693080604076385,
          -0.06206171214580536,
          -0.04982680082321167,
          -0.07245604693889618,
          -0.105229452252388,
          -0.03425851836800575,
          0.06948430836200714,
          -0.05537443608045578,
          -0.008202441036701202,
          0.03139841556549072,
          -0.0581858828663826,
          0.05990006774663925,
          -0.05795656144618988,
          0.017384015023708344,
          -0.05792606249451637,
          0.048933245241642,
          -0.02068103663623333,
          0.06291352957487106,
          0.0347251296043396,
          0.012685835361480713,
          0.11671093106269836,
          -0.07520848512649536,
          -0.052054762840270996,
          -0.05361025407910347,
          -0.0013987119309604168,
          -0.009493864141404629,
          0.007224462926387787,
          0.06829319149255753,
          -0.07089036703109741,
          0.07215217500925064,
          0.0867726132273674,
          0.059758469462394714,
          -0.0025638730730861425,
          0.06425625830888748,
          -0.03817025572061539,
          -0.025718990713357925,
          -0.024835674092173576,
          0.08022917062044144,
          0.010454296134412289,
          0.028510108590126038,
          -0.008046925067901611,
          0.04151097685098648,
          -0.06929702311754227,
          -0.016130544245243073,
          -0.0106668621301651,
          0.019174927845597267,
          0.04582042619585991,
          -0.05280535668134689,
          0.06788472086191177,
          0.036861538887023926,
          -0.00180389906745404,
          0.08560694009065628,
          -0.05790935829281807,
          0.054466377943754196,
          0.03658879175782204,
          -0.003617912996560335,
          -0.0396495945751667,
          0.014741696417331696,
          0.05950097739696503,
          0.04533103480935097,
          -0.04583711922168732,
          -0.020470030605793,
          0.04048540070652962,
          -0.02263732999563217,
          0.005253910552710295,
          -0.06165958195924759,
          0.07262665778398514,
          -0.0697946846485138,
          0.014908195473253727,
          -0.010032600723206997,
          -0.06777337193489075,
          -0.07883214950561523,
          0.04890979081392288,
          -0.0869087502360344,
          0.004295162856578827,
          -0.054845843464136124,
          -0.0007778480648994446,
          -0.07327207922935486,
          0.05748967081308365,
          -0.10296054929494858,
          -0.03593795374035835,
          -0.04778483510017395,
          -0.1018819659948349,
          -0.01028677448630333,
          0.03149697929620743,
          0.06641476601362228,
          0.0817570760846138,
          -0.0546465627849102,
          0.02173861861228943,
          0.0699625015258789,
          -0.0545198991894722,
          -0.0837814211845398,
          -0.10053228586912155,
          -0.03170636668801308,
          -0.33050110936164856,
          0.051619984209537506,
          0.0158160999417305,
          -0.09414396435022354,
          0.341829389333725,
          -0.1644972413778305,
          0.6750364899635315,
          -0.0007650102488696575,
          0.05337178334593773,
          0.17373117804527283,
          -0.08285251259803772,
          0.45176756381988525,
          -0.08128292858600616,
          0.07529110461473465,
          -0.01745212823152542,
          -0.057178858667612076,
          0.0032646656036376953,
          0.025686606764793396,
          0.13025327026844025,
          0.01027427613735199,
          -0.02208469808101654,
          -0.0687926858663559,
          -0.03409578651189804,
          -0.13441362977027893,
          -0.016189800575375557,
          -0.015924595296382904,
          -0.024862080812454224,
          0.05611909180879593,
          -0.00024574846611358225,
          -0.003350720973685384,
          0.07502643018960953,
          -0.02888953685760498,
          -0.1619722992181778,
          -0.0024839788675308228,
          -0.10462136566638947,
          -0.0018240265781059861,
          -0.03743811696767807,
          -0.08241602778434753,
          -0.2023317813873291,
          -0.0632333904504776,
          -0.09176971763372421,
          0.04301726818084717,
          -0.024551570415496826,
          -0.08319523930549622,
          0.05779290944337845,
          -0.0759066715836525,
          0.08434689790010452,
          -0.06752371788024902,
          -0.13562344014644623,
          -0.1051463857293129,
          -0.06113241985440254,
          0.14110924303531647,
          0.07799231261014938,
          0.0701228454709053,
          0.35597971081733704,
          0.02542637288570404,
          -0.017210152000188828,
          -0.009617850184440613,
          0.04426909238100052,
          -0.10342909395694733,
          -0.046185947954654694,
          -0.06600351631641388,
          0.0400286465883255,
          0.05393143743276596,
          0.08109693974256516,
          -0.0014721746556460857,
          -0.04464384913444519,
          0.0547589436173439,
          -0.055828943848609924,
          -0.12962667644023895,
          -0.012904219329357147,
          -0.013830741867423058,
          -0.012976127676665783,
          0.07815305143594742,
          -0.06552129238843918,
          -0.0006326213479042053,
          0.14930695295333862,
          0.038039736449718475,
          0.05996326357126236,
          0.059567663818597794,
          -0.052257779985666275,
          -0.07066415250301361,
          -0.04647606611251831,
          -0.08526525646448135,
          0.024355899542570114,
          -0.0789928138256073,
          0.07244682312011719,
          -0.11164627969264984,
          0.08906365185976028,
          -0.049584534019231796,
          0.043448664247989655,
          -0.03285659849643707,
          0.008149601519107819,
          -0.03795879706740379,
          -0.05349167436361313,
          -0.09845839440822601,
          0.018640337511897087,
          -0.07389981299638748,
          0.018885618075728416,
          0.06583865731954575,
          -0.03313692659139633,
          0.055714141577482224,
          -0.019514836370944977,
          0.012971140444278717,
          -0.02629735693335533,
          -0.10754108428955078,
          -0.13139726221561432,
          0.042887914925813675,
          0.055541835725307465,
          -0.06804622709751129,
          0.04902588576078415,
          -0.12698787450790405,
          0.001431092619895935,
          -0.15283218026161194,
          -0.04393724724650383,
          0.054555926471948624,
          -0.04174976423382759,
          -0.0617750883102417,
          0.0012355372309684753,
          0.036980099976062775,
          -0.0790933147072792,
          0.030183034017682076,
          0.06848444044589996,
          -0.06761254370212555,
          -0.03412162512540817,
          0.07312119752168655,
          -0.02441628836095333,
          0.01842663437128067,
          -0.15408535301685333,
          0.05338863283395767,
          0.004912517964839935,
          -0.0616835355758667,
          0.15619023144245148,
          -0.024907847866415977,
          0.3028443455696106,
          -0.11487234383821487,
          0.08889895677566528,
          -0.048612650483846664,
          0.003913290798664093,
          0.2508578598499298,
          -0.01223921962082386,
          0.07168958336114883,
          -0.4070819914340973,
          -0.07967619597911835,
          -0.07775816321372986,
          -0.03585873916745186,
          0.008320276625454426,
          -0.03660956397652626,
          0.01622016169130802,
          0.04044847935438156,
          -0.05367736145853996,
          -0.1038471981883049,
          -0.04536709561944008,
          0.03622862696647644,
          0.0714515969157219,
          0.07366781681776047,
          0.00931317638605833,
          0.08827731013298035,
          -0.027020491659641266,
          0.05094543844461441,
          -0.11764919757843018,
          -0.07849524915218353,
          -0.046187419444322586,
          -0.02548694983124733,
          -0.019404273480176926,
          0.044910840690135956,
          -0.0818314179778099,
          0.03274647891521454,
          0.034252628684043884,
          0.004387046210467815,
          -0.055551011115312576,
          -0.050657499581575394,
          -0.0094122514128685,
          0.07209465652704239,
          0.08412174135446548,
          0.06763949990272522,
          -0.03186938539147377,
          -0.42026400566101074,
          0.0455203652381897,
          0.026872532442212105,
          -0.0701797753572464,
          -0.01877327263355255,
          0.1936372071504593,
          0.04246607422828674,
          -0.06658191978931427,
          0.07027501612901688,
          -0.0006436934927478433,
          -0.08790671825408936,
          0.0423264279961586,
          -0.09780096262693405,
          -0.006382495630532503,
          0.021565645933151245,
          -0.03075750544667244,
          0.061613406985998154,
          -0.09863840043544769,
          0.04359155148267746,
          0.07152249664068222,
          -0.11527082324028015,
          0.02675851434469223,
          -0.02201858162879944,
          -0.01806391030550003,
          -0.036098912358284,
          -0.026292311027646065,
          -0.04732174426317215,
          0.04366753622889519,
          0.037815697491168976,
          0.015514500439167023,
          0.0026389011181890965,
          0.07649439573287964,
          -0.03168196603655815,
          -0.07244779914617538,
          -0.06510435789823532,
          -0.05078471824526787,
          0.004934131167829037,
          -0.05208848416805267,
          -0.002496962435543537,
          -0.012712896801531315,
          -0.0359339714050293,
          -0.04625339433550835,
          -0.05206305906176567,
          0.06567198783159256,
          -0.11969552934169769,
          -0.05962204933166504,
          -0.1054319441318512,
          0.022253230214118958,
          -0.019938327372074127,
          0.05621439218521118,
          -0.013244077563285828,
          0.04041249677538872,
          0.04011852294206619,
          -0.04150347784161568,
          -0.057799506932497025,
          0.022089406847953796,
          0.043530527502298355,
          0.037879057228565216,
          0.006443447899073362,
          -0.011367224156856537,
          -0.22628507018089294,
          0.003959633409976959,
          -0.04746248200535774,
          0.05417732149362564,
          0.03386169672012329,
          -0.0767097920179367,
          0.05555645376443863,
          0.05304660648107529,
          -0.022115496918559074,
          -0.08312855660915375,
          -0.07370937615633011,
          -0.015786804258823395,
          -0.0854434221982956,
          -0.06314638257026672,
          -0.06269880384206772,
          0.001679841079749167,
          0.042605526745319366,
          -0.0036912427749484777,
          -0.0026666969060897827,
          -0.2201773077249527,
          -0.04238765314221382,
          -0.012885704636573792,
          -0.04447941482067108,
          0.14455023407936096,
          0.037605054676532745,
          0.28542622923851013,
          -0.09569308906793594,
          -0.012897970154881477,
          0.010956835933029652,
          0.0720650926232338,
          0.10830895602703094,
          -0.10495021194219589,
          0.07213815301656723,
          -0.011000052094459534,
          -0.06814048439264297,
          -0.04630116745829582,
          0.06935534626245499,
          0.04382434859871864,
          -0.08097635954618454,
          -0.08975136280059814,
          -0.08592690527439117,
          -0.0596705786883831,
          -0.09177593886852264,
          -0.06929820775985718,
          -0.08837630599737167,
          0.016498088836669922,
          -0.022553980350494385,
          -0.03084859624505043,
          0.021037878468632698,
          -0.06800393760204315,
          0.016134120523929596,
          -0.034365277737379074,
          -0.04487050324678421,
          -0.0632009208202362,
          -0.11589277535676956,
          0.06515418738126755,
          -0.04411887750029564,
          -0.17238019406795502,
          -0.021126747131347656,
          -0.11067938804626465,
          0.08696731179952621,
          0.07031955569982529,
          -0.03204423189163208,
          -0.006426066160202026,
          -0.025005504488945007,
          0.05215615779161453,
          -0.08510223776102066,
          -0.0924580842256546,
          -0.02177301049232483,
          -0.09808402508497238,
          0.08593108505010605,
          -0.002861942630261183,
          -0.07761144638061523,
          0.08237087726593018,
          0.027436837553977966,
          -0.019913200289011,
          -0.05131090059876442,
          -0.002751037012785673,
          0.023736080154776573,
          -0.05654266104102135,
          0.02971002645790577,
          -0.039784640073776245,
          0.06028016656637192,
          0.08720120042562485,
          0.0009898344287648797,
          -0.03150442615151405,
          0.03580375760793686,
          -0.04067712649703026,
          0.004567861091345549,
          -0.025924665853381157,
          -0.08343745023012161,
          0.013704989105463028,
          -0.0427321195602417,
          -0.13558045029640198,
          0.015606790781021118,
          0.062180470675230026,
          -0.06806191802024841,
          -0.04038683697581291,
          0.03180307522416115,
          -0.044746581465005875,
          0.04760757088661194,
          -0.07594406604766846,
          -0.060664381831884384,
          -0.01570281945168972,
          0.030665438622236252,
          0.07893257588148117,
          -0.009797775186598301,
          0.04261472076177597,
          -0.10951706022024155,
          -0.030580539256334305,
          0.013352541252970695,
          -0.02544347196817398,
          0.026423577219247818,
          -0.04032715782523155,
          -0.020428059622645378,
          0.025812586769461632,
          0.06172144040465355,
          -0.024951711297035217,
          0.04635060578584671,
          0.01840132474899292,
          -0.01808946020901203,
          -0.015185740776360035,
          0.04859079048037529,
          0.06992658227682114,
          0.036116067320108414,
          -0.06538477540016174,
          0.05123486369848251,
          0.01629067212343216,
          -0.04942186921834946,
          -0.019696898758411407,
          0.0035108409356325865,
          -0.0712953433394432,
          0.04809359461069107,
          -0.07863100618124008,
          0.017476892098784447,
          0.11729995906352997,
          0.03750438615679741,
          0.03016524761915207,
          -0.014301322400569916,
          -0.021985476836562157,
          0.09425762295722961,
          0.1421532928943634,
          0.04495607689023018,
          0.09035233408212662,
          0.043243370950222015,
          0.11024501174688339,
          -0.07769706100225449,
          -0.22455455362796783,
          -0.07806448638439178,
          -0.04479939118027687,
          0.05649522691965103,
          0.13009977340698242,
          -0.04222307354211807,
          0.02040800452232361,
          -0.006406749598681927,
          -0.03753884509205818,
          0.028790151700377464,
          0.08412771672010422,
          0.18176597356796265,
          0.06659727543592453,
          -0.18389765918254852,
          -0.0922359898686409,
          -0.00687071681022644,
          -0.013778896071016788,
          -0.05183401703834534,
          -0.05577727034687996,
          0.013979583978652954,
          0.11986452341079712,
          -0.032823026180267334,
          -0.10541784018278122,
          -0.522340714931488,
          -0.08154292404651642,
          0.08674278110265732,
          -0.04912813752889633,
          0.07093223184347153,
          -0.0396609865128994,
          -0.03538857400417328,
          0.03212825953960419,
          0.003959000110626221,
          0.1908382624387741,
          -0.08114836364984512,
          -0.016577815636992455,
          0.12791016697883606,
          0.04824396222829819,
          0.01804148592054844,
          -0.04661523550748825,
          -0.040279120206832886,
          -0.030507536605000496,
          -0.02563130483031273,
          0.058504752814769745,
          -0.0273065697401762,
          -0.05652473866939545,
          0.08084628731012344,
          0.0028537139296531677,
          -0.06549392640590668,
          -0.14072443544864655,
          -0.20048996806144714,
          -0.06563898921012878,
          -0.09644543379545212,
          0.08529326319694519,
          -0.06357736885547638,
          0.10903956741094589,
          0.06700088828802109,
          0.047058526426553726,
          0.01301264762878418,
          0.0034674948547035456,
          0.03474152833223343,
          -0.06338111311197281,
          0.2314482033252716,
          -0.034379757940769196,
          -0.016818173229694366,
          -0.07850733399391174,
          -0.006798254791647196,
          -0.07317245751619339,
          0.05550568550825119,
          -0.23204749822616577,
          0.03435905650258064,
          0.018538326025009155,
          0.013799541629850864,
          -0.004302730783820152,
          -0.04433377459645271,
          -0.004353716503828764,
          0.01340833306312561,
          -0.1356760859489441,
          -0.03133091330528259,
          -0.04458271339535713,
          0.12006563693284988,
          -0.013846296817064285,
          -0.057411059737205505,
          0.0014256428694352508,
          0.19583027064800262,
          -0.03780222684144974,
          0.04970411956310272,
          -0.055449046194553375,
          0.04443399980664253,
          0.03826797753572464,
          0.04528209939599037,
          0.05655553191900253,
          -0.04676882550120354,
          0.14495854079723358,
          0.010591615922749043,
          0.0199526846408844,
          -0.14515182375907898,
          -0.09439843147993088,
          -0.0631437599658966,
          0.266978919506073,
          0.20382755994796753,
          0.02068883739411831,
          0.026194674894213676,
          -0.02095690742135048,
          -0.0666552186012268,
          0.05008009821176529,
          -0.015541763976216316,
          0.06038600951433182,
          -0.06641421467065811,
          0.054478563368320465,
          0.05302782729268074,
          0.06251076608896255,
          0.07452650368213654,
          0.0033686307724565268,
          0.033193740993738174,
          0.08298585563898087,
          -0.10876571387052536,
          -0.09136322885751724,
          -0.023102452978491783,
          -0.018436357378959656,
          -0.028677601367235184,
          0.06731461733579636,
          -0.057738736271858215,
          0.06565174460411072,
          -0.09566248953342438,
          0.05439453572034836,
          0.06268012523651123,
          -0.1055908203125,
          -0.02693454548716545,
          -0.00760984793305397,
          0.046135857701301575,
          0.027703404426574707,
          -0.02453799545764923,
          -0.08058617264032364,
          0.08054611831903458,
          0.04574548453092575,
          0.0458737313747406,
          0.03295014053583145,
          -0.051475007086992264,
          -0.023810096085071564,
          -0.022421851754188538,
          -0.07070834934711456,
          -0.0036762505769729614,
          -0.06707599014043808,
          -0.08555952459573746,
          -0.008367656730115414,
          0.06816903501749039,
          0.061787985265254974,
          0.02222677320241928,
          0.007718569599092007,
          0.05249396339058876,
          -0.08208643645048141,
          0.04829000309109688,
          -0.09572520852088928,
          0.04673986881971359,
          -0.0595102421939373,
          -0.00742030143737793,
          0.018657639622688293,
          -0.07064580172300339,
          -0.00336381490342319,
          0.02533307671546936,
          -0.13731640577316284,
          -0.059891410171985626,
          -0.07568860799074173,
          -0.04741580784320831,
          -0.02907746471464634,
          0.06521981209516525,
          -0.024766653776168823,
          -0.05833100527524948,
          -0.01755649782717228,
          0.061550430953502655,
          0.061485208570957184,
          0.016524987295269966,
          0.010826505720615387,
          -0.026466332376003265,
          -0.060807690024375916,
          0.055210940539836884,
          -0.0028580387588590384,
          -0.0783274844288826,
          -0.09632513672113419,
          0.0142398402094841,
          -0.017723362892866135,
          0.0663122609257698,
          0.03331492096185684,
          0.06348012387752533,
          0.021742409095168114,
          0.047502242028713226,
          0.03872906044125557,
          0.03693665191531181,
          -0.08163896203041077,
          0.018155787140130997,
          -0.03912012279033661,
          0.08558502048254013,
          -0.07278349995613098,
          -0.09687463939189911,
          0.04819676652550697,
          -0.06452212482690811,
          -0.07139894366264343,
          -0.063564732670784,
          -0.0739869773387909,
          -0.010852180421352386,
          -0.04154546558856964,
          -0.018441669642925262,
          -0.010578886605799198,
          -0.07765501737594604,
          -0.047387272119522095,
          -0.0651877224445343,
          -0.029432598501443863,
          -0.040362969040870667,
          -0.03942219167947769,
          0.01520092785358429,
          -0.023905642330646515,
          -0.037532638758420944,
          0.05950981006026268,
          -0.011053658090531826,
          0.0460842065513134,
          0.054467491805553436,
          0.06546200066804886,
          -0.02129090018570423,
          0.07797452062368393,
          0.07920859754085541,
          0.014512276276946068,
          0.04519909247756004,
          0.026150338351726532,
          -0.09848799556493759,
          -0.05037873610854149,
          -0.0368729904294014,
          -0.07399125397205353,
          0.00920063816010952,
          0.021077755838632584,
          0.0010441303020343184,
          -0.059257932007312775,
          -0.028277020901441574,
          -0.02785491570830345,
          -0.005775943398475647,
          -0.05850980058312416,
          0.07402122765779495,
          0.04601792246103287,
          0.06373134255409241,
          -0.026290275156497955,
          -0.009000924415886402,
          0.008072592318058014,
          -0.018742213025689125,
          0.016356423497200012,
          0.0009602793143130839,
          0.03505513444542885,
          0.04219169169664383,
          -0.05997372046113014,
          -0.03070870041847229,
          0.016767241060733795,
          -0.034949008375406265,
          0.07607225328683853,
          0.02073565684258938,
          0.06215310096740723,
          0.031312525272369385,
          0.02751537412405014,
          -0.04718570411205292,
          -0.035075508058071136,
          0.01831059157848358,
          -0.05933704227209091,
          -0.02845870889723301,
          -0.08704324066638947,
          -0.07318821549415588,
          0.0808132067322731,
          0.07523273676633835,
          0.007097035646438599,
          0.03765784576535225,
          -0.05181712657213211,
          0.0436076894402504,
          -0.05448943004012108,
          0.041585974395275116,
          0.08332888036966324,
          0.06783641129732132,
          -0.03532039001584053,
          -0.008761219680309296,
          -0.05618689954280853,
          0.049723751842975616,
          -0.016306862235069275,
          -0.04903491586446762,
          -0.009355675429105759,
          -0.034780554473400116,
          0.08090561628341675,
          -0.026153888553380966,
          -0.004043802618980408,
          0.0017804056406021118,
          0.03654022142291069,
          -0.029459528625011444,
          -0.08197124302387238,
          -0.00636359304189682,
          -0.015743887051939964,
          -0.06065487861633301,
          0.08351542800664902,
          -0.0700848400592804,
          -0.09102442115545273,
          0.009382026270031929,
          -0.00695279985666275,
          -0.024333693087100983,
          0.07682762295007706,
          0.0497838594019413,
          -0.06756143271923065,
          0.04944486916065216,
          0.015014022588729858,
          -0.0497627817094326,
          0.018107257783412933,
          0.06844880431890488,
          -0.0786280408501625,
          -0.07713136821985245,
          -0.06922266632318497,
          0.0822550430893898,
          0.0008640526211820543,
          0.005759485065937042,
          -0.06415891647338867,
          0.021481849253177643,
          0.07389568537473679,
          0.035172998905181885,
          0.07345747202634811,
          0.011203357949852943,
          -0.01743634045124054,
          0.019087068736553192,
          0.03227602690458298,
          0.03259740769863129,
          -0.04751383885741234,
          0.05761408060789108,
          0.00947983842343092,
          -0.07949070632457733,
          -0.04355120658874512,
          0.0025664058048278093,
          0.039395131170749664,
          -0.04280628263950348,
          0.06086147204041481,
          -0.06116238981485367,
          -0.08341488987207413,
          -0.03359871730208397,
          0.013829030096530914,
          -0.0561944879591465,
          -0.010022200644016266,
          0.06536760926246643,
          0.02214040607213974,
          -0.08807095885276794,
          0.0789499506354332,
          0.04380054771900177,
          -0.036298319697380066,
          -0.02467375062406063,
          -0.04411835968494415,
          -0.018791569396853447,
          -0.03594529628753662,
          0.0179398562759161,
          -0.021964721381664276,
          -0.037223611027002335,
          -0.05087333172559738,
          -0.07574356347322464,
          0.020479761064052582,
          -0.07371152192354202,
          -0.002338849939405918,
          0.006759606301784515,
          0.021278129890561104,
          0.03580525517463684,
          0.05185265466570854,
          -0.03436578810214996,
          -0.016435855999588966,
          -0.07896359264850616,
          -0.08536990731954575,
          -0.03511052951216698,
          -0.013506035320460796,
          -0.07639540731906891,
          0.04223980754613876,
          -0.03450329601764679,
          0.0362347736954689,
          0.0839674174785614,
          -0.026929832994937897,
          -0.014904421754181385,
          0.0668480321764946,
          0.04627583548426628,
          -0.06419705599546432,
          0.0547761470079422,
          -0.02963171899318695,
          -0.015452645719051361,
          0.024218512699007988,
          0.06190784275531769,
          -0.03512474149465561,
          0.0038609220646321774,
          -0.029984503984451294,
          -0.08368489146232605,
          0.03189767524600029,
          0.077674500644207,
          -0.03751906007528305,
          -0.037217721343040466,
          -0.06498794257640839,
          -0.0717690959572792,
          0.07348877936601639,
          -0.011071980930864811,
          -0.06383761763572693,
          -0.0201718769967556,
          0.016939915716648102,
          -0.07770786434412003,
          -0.08205871284008026,
          0.021540766581892967,
          0.026335453614592552,
          -0.03721623495221138,
          0.07719231396913528,
          0.010758191347122192,
          -0.08294595777988434,
          -0.0489286333322525,
          -0.05099409818649292,
          -0.01741120219230652,
          0.03455325961112976,
          0.055374883115291595,
          0.06723815947771072,
          -0.007483828812837601,
          -0.03887249529361725,
          -0.022621579468250275,
          0.06984987109899521,
          -0.017762765288352966,
          0.004837126936763525,
          0.0003586789534892887,
          -0.0009688809514045715,
          0.03162685036659241,
          0.05464372783899307,
          0.03024163842201233,
          0.04365329071879387,
          -0.08422986418008804,
          -0.05011899024248123,
          0.06537967920303345,
          -0.07907083630561829,
          -0.048809200525283813,
          -0.061386652290821075,
          0.08131147921085358,
          0.07361885160207748,
          -0.023683615028858185,
          0.022671513259410858,
          0.03702961653470993,
          0.04793267697095871,
          -0.03348055109381676,
          -0.08465764671564102,
          -0.005105562508106232,
          -0.025359200313687325,
          0.018212515860795975,
          0.04029395431280136,
          0.07697122544050217,
          0.047644104808568954,
          -0.05246637761592865,
          -0.019800469279289246,
          -0.04979011416435242,
          -0.035274624824523926,
          -0.023610644042491913,
          -0.002837255597114563,
          -0.053743671625852585,
          0.0668267086148262,
          -0.054961733520030975,
          0.028855815529823303,
          0.05779152736067772,
          0.010265466757118702,
          -0.05988885834813118,
          0.016838854178786278,
          -0.04528253152966499,
          0.0475064180791378,
          -0.04877128079533577,
          0.031070441007614136,
          0.04118604212999344,
          -0.04216223955154419,
          -0.07689915597438812,
          0.013284529559314251,
          -0.05442049354314804,
          -0.07313890010118484,
          0.038658205419778824,
          0.016724437475204468,
          0.0845554769039154,
          -0.078236423432827,
          -0.04322023689746857,
          0.05906936526298523,
          0.06980164349079132,
          -0.062111739069223404,
          -0.028660496696829796,
          0.05257759243249893,
          0.035402387380599976,
          0.04565087705850601,
          -0.05934629216790199,
          -0.02642042562365532,
          0.04458790272474289,
          0.00687379390001297,
          -0.08733837306499481,
          -0.023858828470110893,
          -0.059731755405664444,
          0.0185247752815485,
          -0.06805022805929184,
          -0.05212731286883354,
          0.050048213452100754,
          -0.07030536979436874,
          0.08102372288703918,
          -0.05423366650938988,
          -0.10433889180421829,
          0.03683805465698242,
          -0.0022181496024131775,
          -8.547306060791016e-05,
          -0.010428383946418762,
          0.006685607135295868,
          -0.03331300616264343,
          0.08793777972459793,
          0.022648673504590988,
          -0.004317641258239746,
          0.06939668953418732,
          -0.0927615612745285,
          -0.013082698918879032,
          0.01907801628112793,
          0.0647621676325798,
          0.0815286934375763,
          0.06294918060302734,
          -0.07753914594650269,
          0.006334592122584581,
          -0.011096302419900894,
          -0.0874551385641098,
          -0.05115535855293274,
          0.05064745992422104,
          -0.08369671553373337,
          -0.03116467595100403,
          -0.04877597838640213,
          -0.021201899275183678,
          0.05947422981262207,
          0.0635133907198906,
          -0.05397589132189751,
          0.03971898928284645,
          -0.040301524102687836,
          -0.04241003096103668,
          -0.0034459978342056274,
          0.03440111130475998,
          -0.03719526156783104,
          -0.0041232481598854065,
          -0.19427046179771423,
          0.05423160642385483,
          0.06382296979427338,
          -0.032302070409059525,
          0.02761181816458702,
          -0.05203411728143692,
          -0.1075059100985527,
          0.048991404473781586,
          -0.0983184352517128,
          0.019840333610773087,
          -0.08108963817358017,
          0.0009010434150695801,
          -0.04916048422455788,
          -0.0730724111199379,
          -0.041933078318834305,
          -0.09420786052942276,
          -0.04545235261321068,
          0.06693702191114426,
          -0.024679597467184067,
          0.0744893029332161,
          0.04710276052355766,
          0.00582455238327384,
          0.06387065351009369,
          0.025543803349137306,
          0.02602856233716011,
          0.00799018144607544,
          0.06373083591461182,
          -0.06153419613838196,
          0.05052455514669418,
          -0.05163965001702309,
          -0.08545251190662384,
          0.020379841327667236,
          0.02025478333234787,
          -0.04494299739599228,
          -0.0017154064262285829,
          -0.023421546444296837,
          -0.026037681847810745,
          -0.07788250595331192,
          0.05675247311592102,
          0.03757738322019577,
          0.10384261608123779,
          0.05934985727071762,
          0.028256142511963844,
          0.08694688230752945,
          0.04408226162195206,
          -0.10975634306669235,
          -0.03043832629919052,
          -0.035663340240716934,
          -0.013942038640379906,
          -0.0002757534384727478,
          0.06660781055688858,
          0.025700151920318604,
          -0.0617799237370491,
          0.001920454204082489,
          0.0766565203666687,
          0.051999010145664215,
          -0.003459704341366887,
          0.034731458872556686,
          -0.08695896714925766,
          -0.08364041894674301,
          0.024083100259304047,
          0.027792632579803467,
          -0.07953822612762451,
          0.06766069680452347,
          -0.001757882535457611,
          -0.04724150896072388,
          -0.08593786507844925,
          0.03161190450191498,
          -0.014910117723047733,
          -0.038344696164131165,
          -0.0012172734132036567,
          -0.014185105450451374,
          -0.06952091306447983,
          -0.06927987188100815,
          0.06750527769327164,
          -0.0010082906810566783,
          0.08705992251634598,
          -0.06177967041730881,
          -0.001832611858844757,
          -0.05095546692609787,
          0.0461902841925621,
          -0.00821255799382925,
          0.032555148005485535,
          0.02815265953540802,
          -0.01370453555136919,
          -0.03558129444718361,
          -0.10891294479370117,
          -0.049302443861961365,
          0.016805702820420265,
          0.043892763555049896,
          0.0042408183217048645,
          0.0038262521848082542,
          0.049663200974464417,
          0.03728066384792328,
          -0.0280534066259861,
          -0.10840277373790741,
          -0.07855395972728729,
          0.014031631872057915,
          0.07568763941526413,
          0.10089001059532166,
          0.0017959699034690857,
          0.0528658851981163,
          0.049524907022714615,
          0.0368015393614769,
          -0.017606977373361588,
          0.008378013968467712,
          0.1953633427619934,
          -0.09551116079092026,
          -0.1712985634803772,
          0.023076871410012245,
          -0.12350831925868988,
          0.07842264324426651,
          -0.19396887719631195,
          0.07894290238618851,
          0.11036790162324905,
          0.020252663642168045,
          0.02903556078672409,
          0.14555121958255768,
          0.15555894374847412,
          0.006885571405291557,
          0.3123658001422882,
          -0.027152858674526215,
          -0.03438679128885269,
          0.4003773033618927,
          -0.045428432524204254,
          0.19314461946487427,
          -0.0863557681441307,
          -0.01636151783168316,
          -0.32763388752937317,
          -0.0473911389708519,
          -0.011553104966878891,
          -0.05245654657483101,
          -0.07924222201108932,
          0.028041131794452667,
          0.3000544607639313,
          0.011345678940415382,
          -0.01935727708041668,
          0.6015843152999878,
          -0.29915788769721985,
          -0.00020314007997512817,
          -0.04306291043758392,
          0.035013385117053986,
          -0.10351774841547012,
          0.08801949769258499,
          -0.024278560653328896,
          -0.04367645084857941,
          -0.2585638761520386,
          -0.03191748261451721,
          -0.0467291958630085,
          -0.4488693177700043,
          0.06044244021177292,
          0.022237243130803108,
          -0.11464022845029831,
          0.02804688736796379,
          0.15825718641281128,
          0.04406384751200676,
          -0.03488226979970932,
          0.0930185467004776,
          0.004489481449127197,
          0.00260868389159441,
          0.06018944829702377,
          -0.06904985010623932,
          -0.053512539714574814,
          -0.039858851581811905,
          -0.45715802907943726,
          0.1475902944803238,
          -0.06767688691616058,
          0.011875398457050323,
          0.13377133011817932,
          -0.02090691775083542,
          -0.0004450228007044643,
          0.01104976236820221,
          0.06304387748241425,
          -0.5033619999885559,
          -0.05139291286468506,
          0.12803879380226135,
          -0.03876243904232979,
          -0.05433499068021774,
