{
  "model": {
    "layers": [
      {
        "in_features": 8,
        "out_features": 12,
        "weights": [
          -0.17618289589881897,
          -0.3207675814628601,
          -0.19104842841625214,
          0.20355473458766937,
          -0.00694627920165658,
          0.006211734842509031,
          -0.16301696002483368,
          -0.08581366389989853,
          0.2606698274612427,
          0.2065352350473404,
          0.2586527168750763,
          0.47343042492866516,
          0.34725382924079895,
          0.3917289972305298,
          0.2869102358818054,
          0.031532172113657,
          -0.2302841693162918,
          -0.24475957453250885,
          -0.04813290387392044,
          0.4072047770023346,
          -0.2945917248725891,
          0.18705040216445923,
          -0.04683210328221321,
          0.11247348040342331,
          -0.021441340446472168,
          -0.29859858751296997,
          0.20601458847522736,
          -0.42910557985305786,
          0.05786909908056259,
          -0.4157438576221466,
          -0.2736862003803253,
          -0.3103134334087372,
          -0.010280243121087551,
          0.11607915908098221,
          0.1318897157907486,
          0.10139462351799011,
          -0.36923646926879883,
          0.0219713281840086,
          -0.2741123139858246,
          -0.24940818548202515,
          -0.18608568608760834,
          0.3225596845149994,
          0.15843415260314941,
          0.22309641540050507,
          0.19900467991828918,
          0.027555199339985847,
          -0.2177020013332367,
          0.15016156435012817,
          0.17356473207473755,
          -0.37524616718292236,
          -0.17917773127555847,
          -0.2029624879360199,
          0.3251921236515045,
          0.16146700084209442,
          -0.0689886063337326,
          0.03657319396734238,
          -0.24835635721683502,
          -0.01904868148267269,
          0.004995814058929682,
          0.2920854091644287,
          0.040181584656238556,
          -0.2503710985183716,
          -0.3622240424156189,
          -0.07062419503927231,
          -0.3694080114364624,
          -0.3516935110092163,
          -0.3937435746192932,
          -0.1288870871067047,
          -0.39063236117362976,
          0.201371967792511,
          -0.16187609732151031,
          -0.01952366903424263,
          -0.10195323079824448,
          -0.40685349702835083,
          -0.1133715882897377,
          -0.31613045930862427,
          -0.41540098190307617,
          -0.12830068171024323,
          -0.020856110379099846,
          -0.10242278128862381,
          0.00030973475077189505,
          0.11240264773368835,
          0.07175755500793457,
          0.2680376172065735,
          -0.17925693094730377,
          0.16881141066551208,
          0.38307586312294006,
          -0.21656504273414612,
          0.03714321553707123,
          0.042942456901073456,
          0.2575221359729767,
          -0.17735785245895386,
          -0.07526101917028427,
          0.15655463933944702,
          0.2818710505962372,
          0.1325138956308365
        ],
        "bias": [
          -0.33370843529701233,
          -0.04864853620529175,
          0.01329419482499361,
          0.02752668969333172,
          -0.250193327665329,
          0.24553953111171722,
          -0.2083980143070221,
          -0.22046354413032532,
          -0.057326965034008026,
          0.06366164982318878,
          0.09134908765554428,
          0.25191694498062134
        ]
      },
      {
        "in_features": 38,
        "out_features": 64,
        "weights": [
          -0.016859181225299835,
          0.1716853827238083,
          -0.11393336951732635,
          0.13810347020626068,
          0.09208033233880997,
          0.06688452512025833,
          -0.09683540463447571,
          0.07990086823701859,
          -0.03603827953338623,
          0.009609851986169815,
          -0.03045610338449478,
          -0.08358880877494812,
          -0.03479815274477005,
          -0.17403575778007507,
          -0.0728987380862236,
          0.07018822431564331,
          -0.025478804484009743,
          -0.15262943506240845,
          0.08967357128858566,
          -0.09670824557542801,
          0.13449469208717346,
          -0.046661365777254105,
          0.09738901257514954,
          0.054623086005449295,
          -0.006486492231488228,
          0.03037772700190544,
          -0.06907650083303452,
          0.0005247244844213128,
          0.07236995548009872,
          0.2370307445526123,
          -0.12836529314517975,
          -0.01364869624376297,
          -0.08911854773759842,
          0.14746232330799103,
          -0.03737487643957138,
          -0.032596003264188766,
          -0.07190799713134766,
          0.1799999326467514,
          -0.013441894203424454,
          0.14895713329315186,
          -0.09558117389678955,
          -0.07296893000602722,
          0.010208841413259506,
          0.016947146505117416,
          -0.009654903784394264,
          -0.0074768634513020515,
          -0.021160997450351715,
          0.06925264000892639,
          -0.01193740963935852,
          0.12513373792171478,
          0.032590098679065704,
          0.15336239337921143,
          -0.1627020537853241,
          -0.08458088338375092,
          -0.13598944246768951,
          -0.2205488383769989,
          -0.10087363421916962,
          -0.11746473610401154,
          0.20842880010604858,
          0.0365285761654377,
          0.19531874358654022,
          0.03612801060080528,
          0.009325587190687656,
          0.09750398993492126,
          0.14196181297302246,
          -0.10555476695299149,
          -0.0818338692188263,
          -0.138382688164711,
          0.05164191499352455,
          0.02967013418674469,
          -0.04562320187687874,
          0.022173218429088593,
          0.04492339491844177,
          -0.02418876811861992,
          -0.09641304612159729,
          -0.13941442966461182,
          0.07247351109981537,
          -0.15363463759422302,
          0.06839797645807266,
          0.007164245005697012,
          -0.07373698055744171,
          0.08768882602453232,
          0.07395216822624207,
          -0.1354123204946518,
          -0.007687141187489033,
          -0.00908670388162136,
          -0.02412908338010311,
          0.059878621250391006,
          -0.21821585297584534,
          0.05286175012588501,
          0.14259055256843567,
          -0.2481440007686615,
          0.09878382831811905,
          -0.09694976359605789,
          0.23814772069454193,
          -0.07500376552343369,
          -0.02252124436199665,
          0.21842177212238312,
          -0.05264125019311905,
          0.025219751521945,
          0.007338308729231358,
          -0.004418624099344015,
          -0.03660426661372185,
          0.13487815856933594,
          0.16148561239242554,
          -0.16423828899860382,
          0.20620523393154144,
          0.05017524212598801,
          0.10949015617370605,
          -0.19340573251247406,
          -0.0949893668293953,
          0.0022952924482524395,
          -0.11692967265844345,
          -0.18794409930706024,
          -0.13731707632541656,
          0.02534540183842182,
          0.06206908077001572,
          0.0993407666683197,
          -0.05788988992571831,
          0.04540028050541878,
          -0.08681881427764893,
          -0.01747962087392807,
          -0.02840835601091385,
          0.12281422317028046,
          -0.03738079220056534,
          0.2553490698337555,
          -0.1346524953842163,
          -0.132952481508255,
          0.3333916664123535,
          0.0054106698371469975,
          0.05190373584628105,
          0.22950048744678497,
          -0.1140541359782219,
          -0.168403759598732,
          0.2712570130825043,
          -0.09997401386499405,
          -0.0009345099679194391,
          0.07165311276912689,
          0.0323101282119751,
          0.1704626828432083,
          0.12227451801300049,
          -0.07772892713546753,
          -0.04143376648426056,
          -0.04932642728090286,
          -0.06684591621160507,
          0.05019290745258331,
          0.17047709226608276,
          -0.06799264997243881,
          0.0053483229130506516,
          0.0307938065379858,
          -0.10122936218976974,
          -0.04582558944821358,
          -0.11385387182235718,
          -0.14991670846939087,
          0.12221463769674301,
          0.14845968782901764,
          0.0028709396719932556,
          -0.025115277618169785,
          0.04869183525443077,
          0.013676593080163002,
          0.008741877041757107,
          0.05418282374739647,
          -0.010404867120087147,
          0.1388854682445526,
          -0.15627677738666534,
          0.044019609689712524,
          -0.12118831276893616,
          0.18849095702171326,
          -0.03534853830933571,
          -0.16927772760391235,
          0.15243320167064667,
          -0.044262632727622986,
          0.037408195436000824,
          -0.24335746467113495,
          -0.0409909151494503,
          0.010126089677214622,
          0.02569677121937275,
          0.0649460181593895,
          -0.1325162798166275,
          0.09794291108846664,
          0.19829463958740234,
          0.11921195685863495,
          -0.08211832493543625,
          -0.16374269127845764,
          0.10267139226198196,
          -0.10993080586194992,
          -0.2020360678434372,
          0.06221781671047211,
          0.05017499253153801,
          0.1696310043334961,
          0.028842316940426826,
          -0.08389638364315033,
          0.1441115438938141,
          -0.11265102028846741,
          -0.108383908867836,
          -0.13683000206947327,
          0.07593949139118195,
          0.05589195713400841,
          0.02587462216615677,
          -0.07483263313770294,
          -0.010630075819790363,
          0.10315226018428802,
          0.011113470420241356,
          0.20981790125370026,
          0.07798595726490021,
          -0.11150769144296646,
          0.3333517014980316,
          0.1304980218410492,
          0.046321287751197815,
          0.2145804464817047,
          0.12362564355134964,
          -0.07131608575582504,
          0.2836768329143524,
          -0.019889917224645615,
          0.007668182719498873,
          -0.09960193186998367,
          0.2346026748418808,
          0.127242773771286,
          0.06762077659368515,
          0.14992927014827728,
          -0.012617421336472034,
          -0.07098134607076645,
          0.21826417744159698,
          0.1528310477733612,
          0.09925516694784164,
          0.1631624549627304,
          0.06352010369300842,
          -0.02784518338739872,
          0.14157356321811676,
          0.17802897095680237,
          0.031188175082206726,
          0.10119495540857315,
          0.10485748201608658,
          0.20753321051597595,
          0.1036241203546524,
          -0.07965492457151413,
          0.03679179772734642,
          -0.04745357483625412,
          0.08789573609828949,
          0.16892997920513153,
          0.10324440896511078,
          0.024492749944329262,
          0.14049188792705536,
          0.0037288395687937737,
          -0.07814401388168335,
          0.02291681244969368,
          0.03946211561560631,
          0.11408355087041855,
          0.04280029237270355,
          -0.07828810811042786,
          0.033715251833200455,
          -0.11072251200675964,
          -0.0391877181828022,
          -0.0951857939362526,
          0.09213358163833618,
          -0.10723499953746796,
          -0.008743192069232464,
          0.062007494270801544,
          0.039235763251781464,
          0.01851215958595276,
          -0.07079870253801346,
          0.1482764184474945,
          0.027267297729849815,
          0.11651792377233505,
          -0.07882530242204666,
          0.03872567042708397,
          0.1964639127254486,
          0.04646693915128708,
          0.06716116517782211,
          0.0596027672290802,
          0.04153546690940857,
          -0.10935801267623901,
          -0.13472653925418854,
          -0.08603401482105255,
          0.0037443130277097225,
          0.01940293423831463,
          0.01391385868191719,
          0.21459084749221802,
          -0.016660306602716446,
          0.022912070155143738,
          -0.20228655636310577,
          0.012618078850209713,
          -0.23266758024692535,
          0.2998649775981903,
          -0.008042602799832821,
          0.08194434642791748,
          -0.04550964757800102,
          0.13263483345508575,
          -0.15105028450489044,
          -0.01209939457476139,
          -0.0031884608324617147,
          0.01829810068011284,
          0.2599423825740814,
          -0.03397313505411148,
          0.1183469220995903,
          -0.12554201483726501,
          -0.05895522981882095,
          -0.03397083282470703,
          0.14891202747821808,
          -0.00209140800870955,
          0.08114037662744522,
          -0.2883472442626953,
          0.029375916346907616,
          0.03129672259092331,
          -0.10772602260112762,
          -0.04905519634485245,
          0.0715024471282959,
          -0.06883646547794342,
          0.06706664711236954,
          0.030118918046355247,
          -0.05665045231580734,
          0.15717683732509613,
          -0.005528154317289591,
          0.018428856506943703,
          0.010619018226861954,
          0.31518635153770447,
          0.06409374624490738,
          -0.12552571296691895,
          0.2850777506828308,
          0.05849829688668251,
          -0.21068517863750458,
          -0.310218870639801,
          -0.05960964784026146,
          0.06341295689344406,
          -0.14685843884944916,
          0.07121389359235764,
          0.10265933722257614,
          -0.0019568924326449633,
          -0.006405144464224577,
          0.023235388100147247,
          0.03686134144663811,
          -0.19201451539993286,
          0.1269807368516922,
          0.08916129916906357,
          -0.12657077610492706,
          0.11605873703956604,
          0.08589136600494385,
          0.2014298439025879,
          -0.06710172444581985,
          -0.15272994339466095,
          0.34140828251838684,
          -0.04301979020237923,
          -0.12150169163942337,
          0.10673602670431137,
          0.1283431500196457,
          -0.1206846684217453,
          0.13491836190223694,
          0.020752837881445885,
          0.10467217862606049,
          -0.035520050674676895,
          -0.12078312784433365,
          0.03865490481257439,
          -0.022358283400535583,
          -0.09204192459583282,
          -0.06301973760128021,
          -0.05753367021679878,
          -0.14676499366760254,
          0.02308267541229725,
          -0.11583606153726578,
          0.2623128890991211,
          0.10621042549610138,
          0.21035529673099518,
          0.1835072934627533,
          0.12242346256971359,
          0.17022660374641418,
          0.11733253300189972,
          -0.06182551383972168,
          0.106761634349823,
          -0.2398206889629364,
          0.004357831086963415,
          0.004972177557647228,
          -0.3967776596546173,
          0.07467948645353317,
          -0.031758684664964676,
          0.2540242075920105,
          -0.027906509116292,
          0.12143293768167496,
          0.09410183131694794,
          0.007126072887331247,
          0.008131206966936588,
          -0.03765781596302986,
          0.09104983508586884,
          0.012783908285200596,
          0.13197843730449677,
          0.02256079390645027,
          -0.08297845721244812,
          0.11138490587472916,
          0.07187187671661377,
          0.009076477028429508,
          0.03465107083320618,
          -0.09324869513511658,
          0.04925323650240898,
          0.06718900054693222,
          -0.07333257794380188,
          0.09176284819841385,
          0.07182462513446808,
          0.013064868748188019,
          0.03309333696961403,
          0.004630540497601032,
          -0.03443824127316475,
          -0.012913295067846775,
          0.08128898590803146,
          0.10086534172296524,
          0.07789469510316849,
          0.07403264939785004,
          0.05700124427676201,
          -0.21189649403095245,
          0.18637967109680176,
          0.044794969260692596,
          -0.07871253788471222,
          -0.1150684803724289,
          0.052377715706825256,
          0.16453884541988373,
          0.004358106292784214,
          0.13862575590610504,
          0.029538653790950775,
          0.1075437143445015,
          0.07622881233692169,
          -0.01276941504329443,
          0.11193142831325531,
          -0.07100849598646164,
          0.03857794776558876,
          -0.09483473747968674,
          0.03755393251776695,
          -0.04376007243990898,
          -0.12758882343769073,
          0.07739642262458801,
          0.025447232648730278,
          0.022008247673511505,
          0.02608509734272957,
          -0.0006163433426991105,
          0.07765871286392212,
          -0.21264629065990448,
          0.12280765920877457,
          -0.1330363005399704,
          0.14523807168006897,
          0.08914253115653992,
          -0.2073514759540558,
          0.18631704151630402,
          0.05194837599992752,
          0.2934398353099823,
          -0.07449986040592194,
          0.047354090958833694,
          -0.0058587524108588696,
          0.17568200826644897,
          0.21455469727516174,
          0.004861544352024794,
          -0.13339483737945557,
          0.03445430099964142,
          0.09410971403121948,
          -0.14961139857769012,
          -0.034752000123262405,
          0.0024185716174542904,
          0.02207696996629238,
          -0.07563461363315582,
          0.1250898689031601,
          0.16481740772724152,
          -0.05027603358030319,
          0.10345540195703506,
          -0.016978995874524117,
          0.047173887491226196,
          -0.07588880509138107,
          -0.08324937522411346,
          -0.010189825668931007,
          0.045156944543123245,
          -0.6562545299530029,
          0.07669549435377121,
          0.024091092869639397,
          0.02474885806441307,
          0.03370429947972298,
          0.0244208462536335,
          -0.005117014981806278,
          0.00938184279948473,
          0.00869063287973404,
          -0.007912556640803814,
          -0.04423745721578598,
          -0.13737434148788452,
          -0.0015769593883305788,
          -0.008663619868457317,
          -0.06006120890378952,
          0.02897881530225277,
          0.6326130032539368,
          -0.08471065014600754,
          0.03663952648639679,
          -0.020222077146172523,
          0.026967259123921394,
          0.07817764580249786,
          0.04170682653784752,
          -0.06027328968048096,
          0.06512320786714554,
          -0.052446700632572174,
          0.09237439930438995,
          0.005011567380279303,
          0.0721946731209755,
          0.12385912239551544,
          0.07011988013982773,
          -0.1177675649523735,
          0.13065816462039948,
          0.09983669221401215,
          -0.1486743539571762,
          -0.0738750472664833,
          -0.007899470627307892,
          0.029479140415787697,
          -0.013055039569735527,
          0.11999892443418503,
          0.12497618049383163,
          -0.12327336519956589,
          -0.22192588448524475,
          0.15712451934814453,
          -0.12609221041202545,
          -0.12816941738128662,
          0.1820005625486374,
          -0.13237115740776062,
          -0.2036553919315338,
          0.14330023527145386,
          -0.24655625224113464,
          -0.16521842777729034,
          -0.12657718360424042,
          -0.05589279532432556,
          -0.04956776276230812,
          -0.14093874394893646,
          -0.12291345000267029,
          0.14272050559520721,
          -0.19350071251392365,
          -0.18958421051502228,
          0.18259012699127197,
          -0.19483351707458496,
          -0.10135570168495178,
          0.09873247146606445,
          -0.16836638748645782,
          -0.19919753074645996,
          0.05129624530673027,
          0.11406026035547256,
          0.11232078075408936,
          0.11447666585445404,
          -0.010585707612335682,
          0.007779388222843409,
          -0.05475785210728645,
          0.15861238539218903,
          0.15100917220115662,
          -0.008890092372894287,
          -0.11582115292549133,
          0.024179456755518913,
          -0.23096394538879395,
          0.06165263056755066,
          0.024692146107554436,
          -0.08365250378847122,
          -0.07719892263412476,
          -0.19680097699165344,
          0.009602220728993416,
          0.01387898437678814,
          0.0473397895693779,
          0.2903882563114166,
          0.029614610597491264,
          0.026213234290480614,
          -0.033058758825063705,
          -0.048485223203897476,
          -0.14346826076507568,
          -0.0709465816617012,
          0.0987343043088913,
          -0.1312379091978073,
          0.04765455797314644,
          -0.1602771133184433,
          -0.10591112822294235,
          -0.31984615325927734,
          0.19306954741477966,
          -0.011080984026193619,
          -0.08246835321187973,
          -0.09407702088356018,
          -0.00411648117005825,
          -0.02296978421509266,
          0.1026018038392067,
          0.10674277693033218,
          0.050137341022491455,
          -0.01393385324627161,
          0.10446775704622269,
          -0.11724908649921417,
          0.13843414187431335,
          0.004134997725486755,
          0.08004731684923172,
          -0.06973244249820709,
          0.03145072981715202,
          -0.013306396082043648,
          0.08928234875202179,
          0.005850830115377903,
          0.10495316982269287,
          -0.04167807102203369,
          0.13488158583641052,
          -0.15139995515346527,
          0.19210775196552277,
          -0.15440690517425537,
          0.22896483540534973,
          -0.04074086621403694,
          0.06818965822458267,
          0.06498042494058609,
          0.11364641040563583,
          0.14174598455429077,
          0.05658451095223427,
          -0.023798448964953423,
          -0.2573499381542206,
          0.03999841958284378,
          0.03496456518769264,
          0.08603836596012115,
          -0.0617620050907135,
          0.05603500083088875,
          -0.12961308658123016,
          0.05221709609031677,
          0.127204030752182,
          0.14181624352931976,
          0.0003781217092182487,
          0.027344318106770515,
          0.04899543896317482,
          0.05933869257569313,
          0.23459270596504211,
          0.05388546362519264,
          0.2296249121427536,
          0.09171197563409805,
          0.09840226173400879,
          0.016190925613045692,
          0.0069448803551495075,
          -0.07980102300643921,
          0.1444503515958786,
          -0.03396407142281532,
          -0.07818332314491272,
          0.01902651973068714,
          -0.021931402385234833,
          0.056522563099861145,
          0.08794944733381271,
          -0.13800187408924103,
          -0.08187639713287354,
          0.14440657198429108,
          -0.06986083835363388,
          0.07508395612239838,
          0.06703763455152512,
          -0.05299428477883339,
          -0.12091340124607086,
          -0.06727295368909836,
          -0.05522693693637848,
          0.02183329500257969,
          0.13719330728054047,
          0.03497515618801117,
          -0.07045727223157883,
          -0.01713171973824501,
          0.08867804706096649,
          0.13099543750286102,
          0.03417025879025459,
          0.0837395116686821,
          0.03998980671167374,
          0.02004985883831978,
          -0.009621277451515198,
          0.05221487209200859,
          -0.10826151818037033,
          0.13592864573001862,
          0.06507068127393723,
          0.01590764708817005,
          -0.09796836972236633,
          0.003473522374406457,
          0.15447966754436493,
          -0.04881397262215614,
          -0.0016146490816026926,
          0.0801655575633049,
          -0.065036840736866,
          -0.15515458583831787,
          -0.1123739704489708,
          0.01937485672533512,
          0.010728440247476101,
          -0.0890781581401825,
          -0.0068912627175450325,
          0.08165254443883896,
          -0.029287252575159073,
          -0.01472984254360199,
          -0.1326972097158432,
          0.15629634261131287,
          -0.020472699776291847,
          0.04819495603442192,
          -0.03920993208885193,
          -0.13638657331466675,
          -0.06912261992692947,
          -0.22721952199935913,
          0.07411886751651764,
          -0.06233774498105049,
          0.10746993124485016,
          0.1444486528635025,
          0.025130292400717735,
          0.0527757853269577,
          -0.15210604667663574,
          -0.0320173054933548,
          0.11035825312137604,
          0.0008484518039040267,
          0.01009045448154211,
          -0.09445919841527939,
          0.06077757850289345,
          -0.016763778403401375,
          -0.10028262436389923,
          0.039216432720422745,
          0.27937051653862,
          -0.022289281710982323,
          0.059382785111665726,
          0.04673474654555321,
          -0.012110576964914799,
          -0.16770590841770172,
          -0.21115587651729584,
          0.003145664231851697,
          -0.12092575430870056,
          -0.10786572098731995,
          0.01602371223270893,
          0.16329409182071686,
          -0.03600873425602913,
          -0.059471551328897476,
          -0.12298017740249634,
          0.11914445459842682,
          -0.021519707515835762,
          -0.0047000679187476635,
          -0.07788778841495514,
          -0.22556889057159424,
          0.003934438806027174,
          -0.12506277859210968,
          0.09721983969211578,
          -0.13062649965286255,
          0.14531104266643524,
          0.17529912292957306,
          0.08361490815877914,
          0.08990244567394257,
          0.11826615035533905,
          -0.016194412484765053,
          -0.027190756052732468,
          -0.11196024715900421,
          -0.10650400817394257,
          0.016424056142568588,
          0.008404118940234184,
          0.023760000243782997,
          -0.0348149836063385,
          -0.12175853550434113,
          -0.21050013601779938,
          -0.09602850675582886,
          0.1326926201581955,
          -0.03404412791132927,
          -0.08504616469144821,
          0.2034807801246643,
          -0.17188099026679993,
          -0.004962294828146696,
          0.1595848947763443,
          -0.06347660720348358,
          -0.07244665920734406,
          0.1275877207517624,
          0.08081607520580292,
          0.08508554100990295,
          -0.031987857073545456,
          -0.018567657098174095,
          0.0898229256272316,
          -0.05721849575638771,
          -0.11221161484718323,
          0.20207525789737701,
          -0.1371280401945114,
          -0.0631260946393013,
          0.11621633172035217,
          0.03461553156375885,
          -0.023307709023356438,
          0.2329557240009308,
          -0.09251438081264496,
          -0.11194154620170593,
          0.11113028973340988,
          0.03794754669070244,
          0.1690342128276825,
          0.15089651942253113,
          -0.08228454738855362,
          0.0480109341442585,
          0.20302926003932953,
          -0.09713863581418991,
          0.05306778848171234,
          0.06843086332082748,
          -0.20090986788272858,
          0.005381561815738678,
          -0.041082557290792465,
          -0.054128408432006836,
          -0.08910327404737473,
          0.009354960173368454,
          0.04323578253388405,
          -0.06288257986307144,
          -0.06336239725351334,
          -0.11676084250211716,
          -0.064419224858284,
          -0.17868953943252563,
          0.02370334416627884,
          -0.10286687314510345,
          0.09008382260799408,
          0.02677837759256363,
          0.025962792336940765,
          0.047046154737472534,
          0.1572279930114746,
          0.04988246038556099,
          -0.04242783784866333,
          0.028809674084186554,
          0.0893251970410347,
          -0.04660571739077568,
          0.07766349613666534,
          -0.09747247397899628,
          -0.018154731020331383,
          0.11030980199575424,
          0.013020987622439861,
          0.10963615775108337,
          0.11517401784658432,
          -0.03833342343568802,
          -0.09052495658397675,
          0.010221407748758793,
          0.19573070108890533,
          0.050695985555648804,
          0.005379009526222944,
          -0.008205840364098549,
          -0.004263496957719326,
          0.12153209000825882,
          -0.018694736063480377,
          0.22425489127635956,
          0.012634406797587872,
          0.1353992372751236,
          0.03314586356282234,
          -0.06816666573286057,
          -0.033405788242816925,
          0.09276565909385681,
          -0.05433422699570656,
          -0.008443737402558327,
          -0.03184458985924721,
          0.04445526376366615,
          -0.012976604513823986,
          0.018804442137479782,
          -0.1444404572248459,
          0.044378090649843216,
          -0.03970811888575554,
          -0.062476228922605515,
          0.09190122783184052,
          0.0037436531856656075,
          -0.11855117976665497,
          -0.0744800716638565,
          0.10987544059753418,
          0.15910157561302185,
          -0.08673831820487976,
          0.1398603767156601,
          0.11485227942466736,
          0.1605152189731598,
          0.09001704305410385,
          -0.09081234037876129,
          0.15934118628501892,
          0.09814959019422531,
          0.10348360240459442,
          -0.00863717496395111,
          -0.0018855957314372063,
          0.06620391458272934,
          -0.06424513459205627,
          0.07409271597862244,
          -0.14151804149150848,
          0.03176268935203552,
          0.14719417691230774,
          0.02296731434762478,
          0.09279914945363998,
          0.012852136045694351,
          -0.09826976805925369,
          0.010247689671814442,
          -0.058291930705308914,
          -0.0630515068769455,
          -0.05058567225933075,
          -0.04764332249760628,
          -0.006241692695766687,
          -0.09213415533304214,
          0.1552681177854538,
          0.08723489940166473,
          -0.10965912789106369,
          -0.07561106979846954,
          0.011319581419229507,
          0.07420594990253448,
          -0.012945275753736496,
          0.017679214477539062,
          0.09619782865047455,
          0.020780149847269058,
          -0.15540961921215057,
          -0.017484314739704132,
          -0.027126027271151543,
          0.012048600241541862,
          -0.04922894388437271,
          -0.006556494161486626,
          0.020728522911667824,
          0.08813796937465668,
          0.013279004022479057,
          0.11529932916164398,
          -0.9264492988586426,
          0.11896651983261108,
          -0.010781030170619488,
          0.010924930684268475,
          0.0396430641412735,
          0.022588251158595085,
          0.05594111979007721,
          -0.022982947528362274,
          -0.053568191826343536,
          0.0016079223714768887,
          -0.01762302964925766,
          0.005220876075327396,
          0.043319221585989,
          -0.04764508828520775,
          -0.12868160009384155,
          0.07335225492715836,
          0.906899631023407,
          -0.024437567219138145,
          -0.030680960044264793,
          0.010671875439584255,
          0.010712584480643272,
          0.04389965534210205,
          0.06324495375156403,
          0.05619387701153755,
          -0.027261875569820404,
          0.02926996909081936,
          0.043310608714818954,
          0.0444893017411232,
          0.0603768415749073,
          0.14042483270168304,
          0.1519128680229187,
          -0.07973101735115051,
          0.13528752326965332,
          -0.003843588288873434,
          -0.10715425759553909,
          -0.07350151240825653,
          -0.04602722451090813,
          0.018117133527994156,
          0.0826796367764473,
          -0.07205114513635635,
          0.17996059358119965,
          -0.15385876595973969,
          0.16608385741710663,
          -0.2077748030424118,
          0.05260419473052025,
          0.10145130753517151,
          -0.20649506151676178,
          -0.01540024857968092,
          -0.18119914829730988,
          0.09156228601932526,
          0.10615440458059311,
          -0.17355401813983917,
          0.05990555137395859,
          0.07854551821947098,
          0.10699783265590668,
          0.148296058177948,
          -0.017377836629748344,
          -0.023788906633853912,
          0.16939882934093475,
          0.17418600618839264,
          0.06027602031826973,
          -0.13157829642295837,
          0.04267599806189537,
          -0.028975309804081917,
          -0.003914452623575926,
          -0.2377549558877945,
          0.07123073190450668,
          0.11559827625751495,
          0.02879272773861885,
          0.021840495988726616,
          0.04983323812484741,
          -0.032328471541404724,
          -0.07136932760477066,
          0.116690993309021,
          -0.11763451993465424,
          0.08837995678186417,
          0.03583152964711189,
          0.0048509924672544,
          -0.23509973287582397,
          -0.0035942753311246634,
          0.03787437453866005,
          0.15335829555988312,
          0.016105234622955322,
          0.270018994808197,
          0.29612913727760315,
          -0.09623116999864578,
          0.03212197870016098,
          -0.13008089363574982,
          0.00029724245541729033,
          -0.10429785400629044,
          -0.0670306384563446,
          0.06929810345172882,
          0.0029137039091438055,
          -0.16463755071163177,
          0.15571141242980957,
          -0.13932786881923676,
          0.09548180550336838,
          0.13953526318073273,
          0.08038096874952316,
          0.0486215315759182,
          -0.1836516559123993,
          -0.07724638283252716,
          -0.2688983380794525,
          -0.21708667278289795,
          -0.06420668214559555,
          0.0645836666226387,
          -0.057188183069229126,
          -0.12648434937000275,
          -0.1412716805934906,
          0.015537326224148273,
          0.031128374859690666,
          0.043784186244010925,
          0.10553041100502014,
          0.0014127561589702964,
          -0.044263213872909546,
          0.02352447807788849,
          -0.20188090205192566,
          -0.06615054607391357,
          0.024598943069577217,
          0.2311832159757614,
          0.10484925657510757,
          -0.020679382607340813,
          0.164786234498024,
          -0.06165158748626709,
          0.08692897856235504,
          -0.3239123821258545,
          -0.020829346030950546,
          -0.09677399694919586,
          -0.0284255500882864,
          -0.024021165445446968,
          -0.06016913428902626,
          -0.13929656147956848,
          0.03912058100104332,
          -0.17971491813659668,
          0.11086982488632202,
          -0.022811325266957283,
          0.21677079796791077,
          0.13792967796325684,
          -0.07645895332098007,
          0.1191665530204773,
          -0.016916997730731964,
          -0.033878207206726074,
          -0.15229275822639465,
          0.08691370487213135,
          0.18615782260894775,
          0.04871850833296776,
          -0.028136461973190308,
          -0.051985811442136765,
          0.008125662803649902,
          0.1638183295726776,
          0.16635923087596893,
          -0.12798979878425598,
          -0.07530000060796738,
          -0.05025047808885574,
          -0.13612915575504303,
          0.0520610436797142,
          -0.1287875473499298,
          0.09883902966976166,
          0.15891866385936737,
          0.003808701876550913,
          0.04881174862384796,
          -0.030032137408852577,
          -0.11893892288208008,
          0.006928224116563797,
          0.0940295159816742,
          0.02387738786637783,
          0.12854136526584625,
          -0.0765557661652565,
          -0.02536095306277275,
          -0.0391194149851799,
          0.018698675557971,
          -0.21823088824748993,
          0.0025140303187072277,
          0.20467567443847656,
          -0.15233837068080902,
          0.029991259798407555,
          0.03391104191541672,
          -0.17123383283615112,
          0.07582729309797287,
          0.13506537675857544,
          -0.11089232563972473,
          -0.11640951782464981,
          0.17888765037059784,
          -0.045223169028759,
          -0.07591580599546432,
          0.15721629559993744,
          0.05342103913426399,
          0.08252038061618805,
          0.17304059863090515,
          0.1273694932460785,
          0.1389314979314804,
          -0.00017507314623799175,
          -0.04283074662089348,
          0.04917917400598526,
          0.04375634714961052,
          0.08895552158355713,
          -0.11181274801492691,
          0.10049720853567123,
          0.07664873450994492,
          0.09989005327224731,
          0.06989111006259918,
          -0.0719619020819664,
          -0.0824563056230545,
          -0.038261253386735916,
          -0.07654676586389542,
          0.12292256951332092,
          0.1112419068813324,
          0.07994528859853745,
          0.21234825253486633,
          0.10032998025417328,
          0.10620002448558807,
          -0.1312522292137146,
          -0.03437946364283562,
          -0.1970483958721161,
          -0.16170047223567963,
          0.09739282727241516,
          -0.18041661381721497,
          -0.0015769586898386478,
          -0.15121278166770935,
          -0.04032719507813454,
          0.20673337578773499,
          -0.07355579733848572,
          0.14408761262893677,
          0.13847455382347107,
          -0.038673035800457,
          0.016146868467330933,
          -0.023298542946577072,
          -0.08363032341003418,
          -0.031545624136924744,
          0.04665519297122955,
          0.03384457156062126,
          -0.01863138936460018,
          0.017244309186935425,
          0.08894354104995728,
          0.08142135292291641,
          -0.13494788110256195,
          -0.03636172413825989,
          0.04223661869764328,
          0.06256286054849625,
          0.08767526596784592,
          0.08712761104106903,
          -0.08051972836256027,
          0.019795991480350494,
          -0.09527819603681564,
          -0.011359697207808495,
          0.006239729933440685,
          -0.054924376308918,
          0.03639282286167145,
          -0.11379241943359375,
          -0.03519537299871445,
          0.0783703401684761,
          -0.149802103638649,
          -0.026848403736948967,
          -0.02009602263569832,
          0.012308917939662933,
          0.14499029517173767,
          0.12077200412750244,
          -0.11802417784929276,
          -0.03834490105509758,
          -0.10671476274728775,
          0.1597699671983719,
          0.09041204303503036,
          0.0776638388633728,
          0.12912529706954956,
          -0.06066608428955078,
          -0.006855783052742481,
          0.07741089910268784,
          -0.029035653918981552,
          0.0015643573133274913,
          0.17441372573375702,
          -0.09226863831281662,
          0.02216493710875511,
          0.18561433255672455,
          0.10110250115394592,
          0.032655827701091766,
          -0.19013679027557373,
          -0.09335848689079285,
          0.061402518302202225,
          -0.14491921663284302,
          0.07678526639938354,
          0.04170447960495949,
          0.03188899904489517,
          0.10372242331504822,
          0.19466108083724976,
          0.1100219190120697,
          -0.1545819789171219,
          -0.0325029157102108,
          -0.011392616666853428,
          -0.19510319828987122,
          -0.017553262412548065,
          0.04907543212175369,
          0.15517230331897736,
          -0.22728636860847473,
          -0.05241115018725395,
          0.15915745496749878,
          -0.04358598589897156,
          -0.08937454223632812,
          -0.10928192734718323,
          0.15643180906772614,
          0.1370004117488861,
          -0.1203821524977684,
          -0.015102286823093891,
          0.15250468254089355,
          -0.10904160141944885,
          0.015506554394960403,
          -0.05280301719903946,
          -0.031284626573324203,
          0.09878004342317581,
          -0.06768167018890381,
          -0.178466796875,
          0.09068744629621506,
          -0.07413233816623688,
          0.0020726730581372976,
          0.19613198935985565,
          -0.05313690006732941,
          -0.24571539461612701,
          0.10681986808776855,
          -0.1967221349477768,
          0.13150152564048767,
          -0.04133720323443413,
          0.08342444896697998,
          -0.11819872260093689,
          -0.1673959493637085,
          -0.04018455743789673,
          -0.13929235935211182,
          -0.048839960247278214,
          -0.06729051470756531,
          -0.1427946537733078,
          -0.1407545506954193,
          0.043043188750743866,
          0.04000876843929291,
          -0.03836913779377937,
          0.0014261823380365968,
          -0.05203810706734657,
          -0.0975554808974266,
          -0.07414646446704865,
          0.10898555815219879,
          0.09666308015584946,
          0.08868656307458878,
          -0.030360348522663116,
          0.010021998547017574,
          -0.07870456576347351,
          -0.05388960242271423,
          0.019360564649105072,
          0.2130414992570877,
          0.009511768817901611,
          -0.16140557825565338,
          -0.21830466389656067,
          0.05758789926767349,
          -0.09674952179193497,
          -0.21492956578731537,
          -0.04946153983473778,
          0.1255566030740738,
          0.191194087266922,
          -0.08322415500879288,
          0.24021241068840027,
          0.035707030445337296,
          -0.08048492670059204,
          -0.03539068624377251,
          -0.09859335422515869,
          -0.15696904063224792,
          -0.008879394270479679,
          -0.22378486394882202,
          -0.03362680599093437,
          -0.023706987500190735,
          0.16550730168819427,
          0.1689528524875641,
          -0.00017762964125722647,
          0.07320627570152283,
          -0.06394743919372559,
          -0.014893398620188236,
          0.028259651735424995,
          0.06592363119125366,
          0.11717366427183151,
          0.1891034096479416,
          0.17580924928188324,
          -0.037221767008304596,
          0.031812213361263275,
          -0.1340547651052475,
          -0.10787855088710785,
          -0.02868691459298134,
          -0.039671216160058975,
          0.02762463130056858,
          -0.05271312966942787,
          0.16797979176044464,
          -0.0002272558631375432,
          -0.13047346472740173,
          -0.08350362628698349,
          0.07843993604183197,
          -0.06713931262493134,
          0.1712213009595871,
          0.12636448442935944,
          -0.01602683588862419,
          0.11117710918188095,
          0.11287016421556473,
          -0.05848104879260063,
          0.021734094247221947,
          -0.14452669024467468,
          0.0782494843006134,
          0.20566783845424652,
          0.05233944579958916,
          0.006527022924274206,
          0.1946612149477005,
          -0.2033889889717102,
          0.10565003007650375,
          0.15501247346401215,
          -0.18916338682174683,
          -0.004399849101901054,
          0.2530057728290558,
          0.10371135920286179,
          0.057617854326963425,
          -0.0390075258910656,
          -0.022388890385627747,
          -0.09499736875295639,
          -0.03781017288565636,
          -0.15385469794273376,
          0.09659174084663391,
          -0.01681249402463436,
          -0.019779786467552185,
          -0.07090975344181061,
          -0.056546133011579514,
          0.10038071870803833,
          -0.13916005194187164,
          0.24802164733409882,
          0.001253896509297192,
          0.017562752589583397,
          -0.01691034808754921,
          -0.17918696999549866,
          0.1946195662021637,
          -0.21758919954299927,
          0.11194151639938354,
          -0.005380026064813137,
          0.07132492959499359,
          0.027550941333174706,
          -0.004599585197865963,
          -0.20623144507408142,
          -0.06906738877296448,
          0.032179512083530426,
          0.06093846261501312,
          -0.14236176013946533,
          0.0697697252035141,
          0.18408846855163574,
          0.003802108345553279,
          -0.13816848397254944,
          -0.07023347914218903,
          0.14257504045963287,
          0.08611658960580826,
          0.028976421803236008,
          0.03876543790102005,
          -0.05317424610257149,
          -0.06208432838320732,
          0.11993434280157089,
          -0.009926489554345608,
          0.009455586783587933,
          0.07469722628593445,
          -0.0962580144405365,
          -0.06370005756616592,
          0.056016866117715836,
          -0.0174214169383049,
          0.05041098594665527,
          0.08522045612335205,
          0.11882631480693817,
          0.0870208889245987,
          -0.13762538135051727,
          0.046636808663606644,
          0.1360858976840973,
          0.18142172694206238,
          0.056844811886548996,
          0.018874576315283775,
          -0.2617875635623932,
          0.016332052648067474,
          -0.11975739896297455,
          -0.05001644790172577,
          0.09900438785552979,
          0.10418006032705307,
          0.1154610738158226,
          -0.050670724362134933,
          -0.10921254754066467,
          0.0017696962459012866,
          0.12499983608722687,
          0.04155315086245537,
          -0.006718325428664684,
          -0.02162661775946617,
          0.021030643954873085,
          0.143741637468338,
          -0.11622004210948944,
          0.17385025322437286,
          -0.0368022546172142,
          0.17051386833190918,
          0.13671666383743286,
          0.034136105328798294,
          -0.06777124851942062,
          -0.0431610569357872,
          0.027300359681248665,
          -0.0610777772963047,
          0.09251096099615097,
          -0.01653539203107357,
          -0.13433010876178741,
          0.17985799908638,
          -0.1935802549123764,
          -0.1313484013080597,
          0.14205698668956757,
          0.06786589324474335,
          0.0791420042514801,
          -0.29005372524261475,
          0.02020375058054924,
          0.11230228841304779,
          -0.27385953068733215,
          -0.10992845892906189,
          -0.053567349910736084,
          -0.10523741692304611,
          0.13465917110443115,
          0.15718939900398254,
          -0.12336437404155731,
          0.22603735327720642,
          0.1624947190284729,
          -0.07046107947826385,
          -0.026431776583194733,
          -0.15947315096855164,
          0.08566716313362122,
          -0.04260900616645813,
          -0.10771849006414413,
          0.12380468100309372,
          -0.010415548458695412,
          -0.053977105766534805,
          0.16568803787231445,
          -0.08681922405958176,
          -0.013041972182691097,
          0.04212212935090065,
          -0.13984085619449615,
          0.104185089468956,
          0.052978575229644775,
          -0.055909425020217896,
          -0.03184116631746292,
          0.1393771767616272,
          0.10748475790023804,
          0.0718548446893692,
          0.19243387877941132,
          -0.036204803735017776,
          0.236228808760643,
          0.24876126646995544,
          0.12208513170480728,
          0.08386440575122833,
          0.17697738111019135,
          -0.05150754377245903,
          0.1580333709716797,
          -0.01856428198516369,
          0.0437021367251873,
          -0.08799777179956436,
          0.10346601903438568,
          -0.1732637882232666,
          -0.13237519562244415,
          0.0976686030626297,
          -0.16725954413414001,
          -0.26223617792129517,
          0.01091054454445839,
          -0.10925037413835526,
          -0.17945507168769836,
          0.17527568340301514,
          -0.12633319199085236,
          -0.2559243440628052,
          -0.028160037472844124,
          -0.08905339986085892,
          0.0011863575782626867,
          0.06946204602718353,
          -0.05245828628540039,
          -0.10141745209693909,
          0.041320495307445526,
          0.11422261595726013,
          0.03340907394886017,
          -0.023395314812660217,
          0.07377111166715622,
          0.04259711131453514,
          0.14792309701442719,
          -0.20641255378723145,
          0.033575642853975296,
          -0.015720082446932793,
          0.2090507298707962,
          -0.04965156689286232,
          -0.17115800082683563,
          0.12106382101774216,
          -0.03037893772125244,
          0.13343004882335663,
          -0.21037985384464264,
          -0.09276746213436127,
          -0.02817220240831375,
          -0.058802537620067596,
          -0.13655148446559906,
          -0.032260701060295105,
          -0.009442749433219433,
          0.09640070796012878,
          0.1173432469367981,
          0.13587039709091187,
          0.18857847154140472,
          0.12472118437290192,
          -0.0770571157336235,
          -0.05413006991147995,
          -0.13022993505001068,
          0.08134628087282181,
          0.16331039369106293,
          0.06815297901630402,
          0.12377939373254776,
          0.08447875082492828,
          0.05206126719713211,
          0.050610560923814774,
          0.1717706322669983,
          0.18637096881866455,
          0.0018382481066510081,
          0.02057204768061638,
          -0.1357383280992508,
          0.05053519085049629,
          0.0765233188867569,
          -0.02745255082845688,
          -0.04708706960082054,
          0.03135952726006508,
          0.08244608342647552,
          -0.06986235082149506,
          -0.06539300829172134,
          -0.02383754961192608,
          0.13787473738193512,
          -0.1259886771440506,
          -0.08138278871774673,
          0.11955490708351135,
          0.09047217667102814,
          0.05045098066329956,
          -0.012913083657622337,
          -0.1120394915342331,
          -0.08783630281686783,
          -0.1237005665898323,
          0.06476689875125885,
          0.029048526659607887,
          -0.11014986038208008,
          -0.03358914703130722,
          0.006271844729781151,
          0.09400615096092224,
          -0.06431955844163895,
          -0.06728963553905487,
          0.22215493023395538,
          -0.09176068007946014,
          -0.09223013371229172,
          0.14095354080200195,
          0.002905481494963169,
          -0.0765974298119545,
          0.04406675696372986,
          -0.09149050712585449,
          0.021070165559649467,
          -0.004930492490530014,
          0.059956151992082596,
          -0.13484546542167664,
          -0.04193811118602753,
          -0.1759514957666397,
          -0.21335254609584808,
          -0.07919041067361832,
          -0.1583932340145111,
          -0.09321527928113937,
          -0.09613936394453049,
          -0.09914379566907883,
          -0.17074550688266754,
          -0.12062554061412811,
          -0.06562744826078415,
          -0.0679309144616127,
          -0.024977101013064384,
          -0.028445886448025703,
          -0.10941963642835617,
          0.003700282657518983,
          0.16774296760559082,
          0.059091564267873764,
          0.26118072867393494,
          0.1615636795759201,
          -0.20234766602516174,
          -0.014833587221801281,
          0.09931770712137222,
          -0.05218704044818878,
          0.21630126237869263,
          0.07362184673547745,
          -0.01519963052123785,
          0.10267080366611481,
          0.14849448204040527,
          0.10473253577947617,
          -0.03623608127236366,
          0.06591984629631042,
          0.21046467125415802,
          0.20174093544483185,
          0.007474385201931,
          0.01236498262733221,
          -0.08631334453821182,
          0.07225141674280167,
          -0.05580732226371765,
          0.01067287940531969,
          -0.05911009758710861,
          0.08193967491388321,
          0.015972580760717392,
          -0.13229778409004211,
          0.09515082836151123,
          0.009790366515517235,
          -0.13699664175510406,
          0.18271951377391815,
          0.05809642747044563,
          0.0681748017668724,
          0.0640721395611763,
          0.02687176689505577,
          0.0015354970237240195,
          -0.013076567091047764,
          0.04139170050621033,
          -0.07795169204473495,
          0.16714388132095337,
          -0.1410541981458664,
          -0.03730863705277443,
          0.042198412120342255,
          0.03184542432427406,
          -0.10196879506111145,
          -0.14156749844551086,
          -0.0025116673205047846,
          0.08720333129167557,
          0.09943801164627075,
          0.12650348246097565,
          0.07523238658905029,
          0.14855532348155975,
          0.16421213746070862,
          0.14418925344944,
          0.40333041548728943,
          0.017877379432320595,
          -0.004531221464276314,
          0.06177828833460808,
          -0.014742903411388397,
          0.14337383210659027,
          0.04918155446648598,
          0.10798507183790207,
          0.015442936681210995,
          -0.03508741036057472,
          -0.14190444350242615,
          0.11013375967741013,
          -0.09411786496639252,
          -0.17893283069133759,
          0.1216779574751854,
          -0.10579999536275864,
          -0.0674319714307785,
          -0.025193050503730774,
          -0.023789098486304283,
          -0.09375475347042084,
          -0.14628425240516663,
          0.04929664731025696,
          0.2628833055496216,
          -0.026762627065181732,
          0.11813785880804062,
          -0.18569208681583405,
          -0.09061843156814575,
          -0.05723700299859047,
          0.10861938446760178,
          -0.023753484711050987,
          0.03998050466179848,
          0.01831674575805664,
          0.09416303038597107,
          0.03133135288953781,
          0.07999062538146973,
          0.02520117536187172,
          0.20119118690490723,
          0.17315593361854553,
          0.16877031326293945,
          -0.0162686575204134,
          0.0615965761244297,
          -0.023675965145230293,
          -0.06007957458496094,
          -0.128427654504776,
          -0.07504887878894806,
          0.132429301738739,
          -0.03845564275979996,
          0.10523900389671326,
          -0.02268906868994236,
          -0.032470863312482834,
          -0.09782061725854874,
          0.11195630580186844,
          -0.17105141282081604,
          0.11486585438251495,
          0.04220399260520935,
          0.021513480693101883,
          0.09299038350582123,
          -0.03544645011425018,
          0.17050908505916595,
          0.047446925193071365,
          0.01105149369686842,
          -0.011639213189482689,
          -0.07234164327383041,
          0.0853782445192337,
          -0.026189256459474564,
          0.054741960018873215,
          0.12240435183048248,
          -0.2054472714662552,
          0.02168879099190235,
          0.056657467037439346,
          0.0790325254201889,
          -0.05406969040632248,
          0.1715482920408249,
          -0.06048286706209183,
          0.12861983478069305,
          -0.10783109068870544,
          -0.10249820351600647,
          0.06524934619665146,
          -0.0032729865051805973,
          -0.011515998281538486,
          -0.09381608664989471,
          0.025663845241069794,
          0.17810989916324615,
          0.14349482953548431,
          -0.12227383255958557,
          -0.15553595125675201,
          -0.10531730204820633,
          -0.16528861224651337,
          0.07479576766490936,
          0.14306437969207764,
          -0.031151093542575836,
          -0.18112251162528992,
          -0.037638016045093536,
          0.052012648433446884,
          -0.03245608136057854,
          0.031391289085149765,
          0.1681591421365738,
          -0.08866608142852783,
          0.040547650307416916,
          -0.18492619693279266,
          0.046328604221343994,
          0.05850668624043465,
          0.25180333852767944,
          -0.06144789233803749,
          0.0918821394443512,
          -0.28243690729141235,
          -0.07903417944908142,
          0.0209989994764328,
          0.1563723087310791,
          -0.1269657164812088,
          0.11232374608516693,
          -0.057284582406282425,
          0.1301007866859436,
          0.01152608823031187,
          -0.03548742085695267,
          0.032333582639694214,
          0.03879105672240257,
          -0.02207057550549507,
          0.04436045140028,
          -0.07525569945573807,
          -0.1001124382019043,
          -0.16659362614154816,
          0.031375452876091,
          0.04570974037051201,
          -0.037210769951343536,
          0.027500838041305542,
          0.14296986162662506,
          0.24823004007339478,
          -0.09577719867229462,
          0.18756981194019318,
          -0.0017608075868338346,
          0.04473532736301422,
          0.03288714215159416,
          -0.20000019669532776,
          -0.14664225280284882,
          -0.07605398446321487,
          -0.08839929848909378,
          0.05059615150094032,
          0.03521968051791191,
          0.058470092713832855,
          0.0700550302863121,
          0.07244262844324112,
          -0.08261056989431381,
          -0.04133988544344902,
          -0.17644686996936798,
          -0.129080131649971,
          -0.0887872576713562,
          0.13235518336296082,
          -0.04987109452486038,
          -0.15046656131744385,
          -0.12338452786207199,
          0.07682577520608902,
          0.15919506549835205,
          -0.10100720822811127,
          -0.07720402628183365,
          0.01592601276934147,
          0.27996253967285156,
          -0.025867996737360954,
          0.004771925508975983,
          -0.3120514750480652,
          0.08369503170251846,
          0.03821270167827606,
          0.27413085103034973,
          -0.012731000781059265,
          0.031620949506759644,
          -0.4005919396877289,
          -0.08548952639102936,
          -0.06597702950239182,
          0.05220543220639229,
          -0.09868143498897552,
          -0.05424749478697777,
          0.27499130368232727,
          -0.029744192957878113,
          0.10463683307170868,
          -0.1794251799583435,
          0.12730489671230316,
          -0.017527170479297638,
          0.26507312059402466,
          -0.043471239507198334,
          0.10767335444688797,
          -0.04813196882605553,
          0.08188564330339432,
          -0.15385255217552185,
          -0.020265009254217148,
          0.11778023838996887,
          0.1365184485912323,
          -0.1282036155462265,
          -0.007532854564487934,
          -0.04748339205980301,
          0.07483161240816116,
          -0.09498849511146545,
          -0.030401069670915604,
          0.003276659408584237,
          -0.02464192546904087,
          -0.20705044269561768,
          0.12619905173778534,
          -0.10614673793315887,
          -0.29300546646118164,
          0.08918353915214539,
          0.08348936587572098,
          -0.21439144015312195,
          0.029926937073469162,
          -0.06478846073150635,
          -0.28406405448913574,
          0.03212171420454979,
          0.0685344785451889,
          0.044132351875305176,
          -0.0030674459412693977,
          0.024617252871394157,
          -0.15812693536281586,
          0.10164577513933182,
          0.029210414737462997,
          -0.22661088407039642,
          0.01962519809603691,
          -0.015323605388402939,
          -0.2082054316997528,
          0.04848206788301468,
          -0.11231520026922226,
          -0.22642265260219574,
          0.025698605924844742,
          -0.09187169373035431,
          -0.12357649952173233,
          0.04874084144830704,
          -0.08798284083604813,
          0.0894533023238182,
          -0.008678815327584743,
          0.12864485383033752,
          -0.0554468035697937,
          -0.0045917402021586895,
          0.12615948915481567,
          0.0978715717792511,
          -0.033886104822158813,
          0.22633251547813416,
          -0.16735351085662842,
          0.19787386059761047,
          0.10395827889442444,
          -0.1344018131494522,
          0.13819453120231628,
          0.18751178681850433,
          -0.16387972235679626,
          0.16437357664108276,
          0.061969269067049026,
          -0.1630222052335739,
          0.1453622728586197,
          -0.05353403463959694,
          0.13488350808620453,
          0.07367248833179474,
          0.07014784961938858,
          0.07324358075857162,
          0.1843794882297516,
          0.09264708310365677,
          0.08054310083389282,
          0.20582523941993713,
          0.1299411505460739,
          0.0667400062084198,
          0.21099883317947388,
          0.1213502362370491,
          0.036513570696115494,
          0.19285401701927185,
          0.060555350035429,
          -0.07352834194898605,
          0.10851901769638062,
          0.10321199893951416,
          0.11684076488018036,
          -0.110748291015625,
          -0.15518859028816223,
          0.09335052222013474,
          0.24236461520195007,
          -0.919906735420227,
          0.21985436975955963,
          -0.011961231008172035,
          -0.006164866499602795,
          -0.00030275259632617235,
          0.04198915511369705,
          -0.03703746199607849,
          0.05084216967225075,
          0.010865047574043274,
          0.01519272942095995,
          0.02513914369046688,
          0.11224185675382614,
          0.024438846856355667,
          0.08556145429611206,
          -0.3053787350654602,
          0.11042865365743637,
          0.898361325263977,
          0.008354127407073975,
          -0.009847844019532204,
          -0.00263885036110878,
          -0.08143550157546997,
          -0.011194093152880669,
          -0.07452232390642166,
          -0.02795729786157608,
          -0.004857988096773624,
          0.008673125877976418,
          -0.15594647824764252,
          0.031890805810689926,
          -0.036668140441179276,
          0.08424314111471176,
          -0.06110776588320732,
          -0.036934178322553635,
          0.08454770594835281,
          0.05213533341884613,
          -0.051598504185676575,
          -0.07301938533782959,
          -0.04543163627386093,
          0.01305498369038105,
          -0.0565604493021965,
          0.06018016114830971,
          0.04218035191297531,
          -0.16810277104377747,
          -0.08082728832960129,
          -0.3198205530643463,
          0.10830000042915344,
          -0.05737772956490517,
          0.10486335307359695,
          -0.13618622720241547,
          -0.202012836933136,
          -0.3364543914794922,
          0.055264126509428024,
          -0.16349582374095917,
          -0.07085783779621124,
          -0.04207012802362442,
          -0.08772440999746323,
          0.14041171967983246,
          -0.3492831289768219,
          -0.006317245773971081,
          -0.01933641918003559,
          0.1518145650625229,
          0.03687684237957001,
          0.1358506679534912,
          -0.2371157556772232,
          0.03436265140771866,
          -0.0037868788931518793,
          0.18219372630119324,
          -0.015527687035501003,
          0.131231427192688,
          0.012160579673945904,
          -0.07953985035419464,
          0.024267105385661125,
          -0.09013912081718445,
          -0.016307231038808823,
          0.042809102684259415,
          -0.06685428321361542,
          0.003193303942680359,
          -0.06033555790781975,
          -0.028202656656503677,
          -0.2072577029466629,
          0.13364824652671814,
          -0.16645778715610504,
          -0.18644538521766663,
          0.16053542494773865,
          -0.013316852040588856,
          0.2382548451423645,
          -0.1166735514998436,
          0.0741690993309021,
          0.11351742595434189,
          -0.11693267524242401,
          0.07802630960941315,
          0.012325983494520187,
          0.005719134584069252,
          -0.07215695828199387,
          -0.041331201791763306,
          -0.07694106549024582,
          -0.04566936939954758,
          -0.09505558758974075,
          0.08991625159978867,
          -0.09071063250303268,
          0.018615545704960823,
          -0.08864831179380417,
          0.10670200735330582,
          0.19921652972698212,
          0.06080225110054016,
          0.12340227514505386,
          -0.04177011549472809,
          -0.04842650890350342,
          0.11518606543540955,
          0.1112576276063919,
          -0.08567291498184204,
          -0.11856311559677124,
          0.11917354166507721,
          -0.05358138680458069,
          -0.019347364082932472,
          0.0006036240374669433,
          0.002054017735645175,
          -0.1845880150794983,
          -0.2473430186510086,
          0.1331709772348404,
          0.14254674315452576,
          -0.09112845361232758,
          -0.15597382187843323,
          -0.057473499327898026,
          0.12017747759819031,
          0.26926228404045105,
          0.19456999003887177,
          0.208525151014328,
          -0.012448219582438469,
          0.015255155973136425,
          -0.015286990441381931,
          0.008919968269765377,
          0.06226269528269768,
          0.022591544315218925,
          -0.06399651616811752,
          0.11761674284934998,
          -0.15417954325675964,
          0.0956636443734169,
          -0.12165689468383789,
          0.12958014011383057,
          -0.059730108827352524,
          -0.02406931295990944,
          -0.10226042568683624,
          0.041596826165914536,
          -0.03325369581580162,
          -0.06076272949576378,
          -0.05595369637012482,
          0.12130502611398697,
          0.0065793669782578945,
          0.10231068730354309,
          0.15004660189151764,
          -0.1488512009382248,
          0.041946787387132645,
          0.030447930097579956,
          -0.003781572449952364,
          -0.06854836642742157,
          -0.22212952375411987,
          0.2009417861700058,
          -0.15056531131267548,
          -0.11066929996013641,
          0.09013186395168304,
          -0.14695477485656738,
          -0.23286353051662445,
          0.16776907444000244,
          -0.11310199648141861,
          -0.07529658824205399,
          0.13822677731513977,
          -0.023595845326781273,
          0.03899126872420311,
          0.021875964477658272,
          -0.12369124591350555,
          0.1506592184305191,
          -0.03756726533174515,
          -0.11754322797060013,
          0.1903715878725052,
          0.13436628878116608,
          -0.03581990301609039,
          0.12681354582309723,
          -0.01469775103032589,
          -0.17512252926826477,
          0.1925199180841446,
          0.15706682205200195,
          0.09442302584648132,
          -0.09074222296476364,
          -0.04596477746963501,
          -0.12842677533626556,
          -0.07097334414720535,
          -0.12932215631008148,
          -0.06185257062315941,
          0.10668781399726868,
          0.014134225435554981,
          -0.008853446692228317,
          -0.013865865767002106,
          -0.010124307125806808,
          -0.1197604238986969,
          0.17879439890384674,
          -0.16644102334976196,
          0.10011060535907745,
          -0.2356136292219162,
          -0.1786043345928192,
          -0.21157948672771454,
          0.25514960289001465,
          -0.05150701105594635,
          0.11102855950593948,
          -0.001816942123696208,
          0.0006498636794276536,
          0.018001245334744453,
          -0.016357488930225372,
          0.03136802092194557,
          0.0714259147644043,
          -0.038033559918403625,
          0.0261462964117527,
          0.13989652693271637,
          0.1247394010424614,
          -0.09199124574661255,
          0.1646353155374527,
          0.040564872324466705,
          -0.11317466199398041,
          0.004281782079488039,
          0.13496947288513184,
          -0.047919150441884995,
          0.0330958291888237,
          0.0019870123360306025,
          0.058339934796094894,
          -0.07847481220960617,
          -0.006538622546941042,
          -0.10865509510040283,
          0.04898377135396004,
          -0.06256143003702164,
          0.088567353785038,
          -0.039396680891513824,
          -0.1278836876153946,
          0.006848061457276344,
          0.17821143567562103,
          0.12783606350421906,
          0.008640950545668602,
          -0.14272993803024292,
          0.12926015257835388,
          -0.10091237723827362,
          -0.16575467586517334,
          -0.16848517954349518,
          0.06707796454429626,
          0.16335923969745636,
          0.09441077709197998,
          0.0016129777068272233,
          0.14503975212574005,
          -0.06277065724134445,
          0.1798093020915985,
          -0.07078835368156433,
          0.024302735924720764,
          -0.19718647003173828,
          0.08067689836025238,
          0.03767938166856766,
          -0.17960365116596222,
          -0.042455725371837616,
          0.0042119100689888,
          0.148934006690979,
          0.026181578636169434,
          -0.06720954924821854,
          -0.10610876232385635,
          -0.05587604641914368,
          -0.019169485196471214,
          -0.061285581439733505,
          0.10742209851741791,
          0.1310497224330902,
          0.011009115725755692,
          0.013377136550843716,
          -0.0663856491446495,
          -0.031539104878902435,
          -0.3023596405982971,
          -0.06893060356378555,
          0.15388257801532745,
          -0.011969270184636116,
          0.008863587863743305,
          -0.23067912459373474,
          -0.21250700950622559,
          -0.09228865802288055,
          0.23727555572986603,
          0.050686389207839966,
          0.1184265986084938,
          -0.23313356935977936,
          0.005947548430413008,
          0.014523646794259548,
          -0.08248502761125565,
          0.14894920587539673,
          0.19611544907093048,
          -0.06180794909596443,
          -0.16677390038967133,
          -0.29005181789398193,
          -0.023968536406755447,
          0.010280036367475986,
          0.18803396821022034,
          -0.15354472398757935,
          -0.20481401681900024,
          -0.20237961411476135,
          0.09097392112016678,
          0.1294238120317459,
          0.005118898116052151,
          0.1428711861371994,
          -0.025810230523347855,
          -0.09780363738536835,
          -0.04741198942065239,
          0.13267554342746735,
          0.14224763214588165,
          0.018863117322325706,
          -0.009803599677979946,
          -0.02082911506295204,
          0.1240425556898117,
          0.02418137714266777,
          -0.05873284116387367,
          -0.01489209197461605,
          -0.06479265540838242,
          0.14141415059566498,
          -0.07826811075210571,
          -0.06373082846403122,
          0.022370705381035805,
          -0.034940000623464584,
          -0.03271852806210518,
          0.17728611826896667,
          -0.0003579780168365687,
          0.02243836596608162,
          -0.01844395324587822,
          0.0477270781993866,
          -0.03747783601284027,
          -0.10841722041368484,
          0.007790255825966597,
          0.13171938061714172,
          -0.10876014083623886,
          -0.04935062676668167,
          -0.03814869746565819,
          -0.0698380321264267,
          0.05970082804560661,
          0.0975731834769249,
          -0.14818735420703888,
          -0.04242653027176857,
          -0.09500214457511902,
          0.10419677197933197,
          0.06164420768618584,
          0.07127364724874496,
          -0.03542473539710045,
          0.021806195378303528,
          0.013978127390146255,
          0.00259716366417706,
          -0.03305632248520851,
          0.16795611381530762,
          0.1116345077753067,
          -0.06519569456577301,
          -0.14044038951396942,
          0.1918851137161255,
          -0.08569227159023285,
          -0.18110376596450806,
          0.10518181324005127,
          0.03317306563258171,
          -0.1768004596233368,
          0.18536376953125,
          0.002470392733812332,
          -0.1685117930173874,
          -0.1522321254014969,
          -0.11585315316915512,
          -0.08253467082977295,
          -0.10179854184389114,
          -0.21643197536468506,
          -0.04472123458981514,
          -0.035809434950351715,
          -0.1460590660572052,
          -0.02834210731089115,
          -0.05153081938624382,
          -0.1700962334871292,
          0.09149187058210373,
          -0.029578998684883118,
          -0.13907411694526672,
          0.07546127587556839,
          0.16386543214321136,
          -0.002906219335272908,
          -0.0015244772657752037,
          -0.12530872225761414,
          -0.11614786833524704,
          -0.1317555159330368,
          0.10365268588066101,
          0.09285632520914078,
          -0.02896472066640854,
          -0.009022611193358898,
          0.010670053772628307,
          0.19685594737529755,
          -0.0014386122347787023,
          -0.04129710793495178,
          0.0513923317193985,
          -0.07106592506170273,
          0.23750047385692596,
          -0.060893651098012924,
          0.024396248161792755,
          -0.038213592022657394,
          0.060871291905641556,
          0.10085689276456833,
          -0.041005492210388184,
          0.010638361796736717,
          -0.03028005361557007,
          -0.001451269257813692,
          -0.022310351952910423,
          -0.1991402953863144,
          0.025431159883737564,
          0.09535530209541321,
          0.034279413521289825,
          -0.020472737029194832,
          -0.008357555605471134,
          0.2892288267612457,
          -0.052510034292936325,
          -0.3597816228866577,
          -0.010933713987469673,
          -0.02400199882686138,
          0.1260266900062561,
          0.11874125152826309,
          -0.051217254251241684,
          0.11668119579553604,
          0.15981748700141907,
          -0.011252804659307003,
          0.13345853984355927,
          -0.04769862815737724,
          -0.0398935005068779,
          0.008291859179735184,
          -0.09188225120306015,
          -0.18795113265514374,
          0.06285538524389267,
          -0.1500653475522995,
          -0.07434526085853577,
          -0.06655030697584152,
          0.09934932738542557,
          0.17466537654399872,
          0.04787852615118027,
          0.04864724725484848,
          0.306740939617157,
          0.04570331424474716,
          0.06393446028232574,
          0.11135680973529816,
          0.03147999197244644,
          0.040078360587358475,
          -0.12010731548070908,
          -0.12796637415885925,
          0.0475354827940464,
          -0.1892407238483429,
          0.16951212286949158,
          -0.16642548143863678,
          0.19631344079971313,
          0.27127787470817566,
          0.11457318067550659,
          -0.07596565783023834,
          -0.19015415012836456,
          0.14098288118839264,
          0.005566043313592672,
          0.138005331158638,
          0.16942676901817322,
          0.15399610996246338,
          -0.12926870584487915,
          0.12206260114908218,
          0.12266448140144348,
          -0.00962475873529911,
          -0.06037786975502968,
          -0.035808734595775604,
          0.0009807205060496926,
          0.08897877484560013,
          -0.13990341126918793,
          0.15121354162693024,
          -0.0779120996594429,
          0.11399397999048233,
          0.00887477770447731,
          0.007767119910567999,
          0.1715393364429474,
          0.19887785613536835,
          -0.09588289260864258,
          -0.02725798264145851,
          -0.04807420074939728,
          0.04081634059548378,
          -0.051104288548231125,
          -0.013889938592910767,
          0.15252280235290527,
          0.02650739997625351,
          0.035141851752996445,
          -0.2657780647277832,
          -0.01688549853861332,
          0.02334139123558998,
          -0.010967659763991833,
          0.16415797173976898,
          0.09781871736049652,
          -0.1841571033000946,
          -0.14885185658931732,
          0.14291571080684662,
          0.18595445156097412,
          -0.01981026493012905,
          -0.039385728538036346,
          0.1852288842201233,
          0.03428960591554642,
          0.09527573734521866,
          0.1004558578133583,
          0.04021131247282028,
          -0.04715750738978386,
          -0.02365105226635933,
          0.017190299928188324,
          0.049833111464977264,
          0.019356194883584976,
          0.10658617317676544,
          -0.0035902715753763914,
          -0.10487474501132965,
          0.05694782733917236,
          0.06382636725902557,
          0.008939284831285477,
          0.15474532544612885,
          -0.011603509075939655,
          -0.08826354146003723,
          0.10918254405260086,
          0.016831064596772194,
          -0.053882669657468796,
          -0.025639286264777184,
          -0.0486968569457531,
          -0.05030882731080055,
          0.019103197380900383,
          0.06267526745796204,
          0.04584084078669548,
          -0.1346437633037567,
          -0.1679777204990387,
          -0.12353620678186417,
          -0.060618240386247635,
          0.013374443165957928,
          0.10118751972913742,
          0.026069296523928642,
          -0.09267188608646393,
          0.030123762786388397,
          0.137521892786026,
          0.01724771410226822,
          0.06574759632349014,
          0.16001860797405243,
          -0.10800696909427643,
          -0.11327717453241348,
          -0.06691911816596985,
          -0.07120553404092789,
          -0.06901320815086365,
          0.13454274833202362,
          0.0772554948925972,
          0.1428765058517456,
          0.08416949212551117,
          -0.02986511029303074,
          -0.09908097237348557,
          -0.04322914034128189,
          0.02674051560461521,
          -0.0909309834241867,
          -0.07345699518918991,
          -0.032677486538887024,
          0.06361527740955353,
          0.09866569936275482,
          -0.02200911194086075,
          -0.049058765172958374,
          0.052882932126522064,
          0.08517356961965561,
          0.12174775451421738,
          0.10600144416093826,
          -0.16837725043296814,
          0.0658436268568039,
          -0.18998955190181732,
          -0.020334288477897644,
          -0.045827679336071014,
          -0.04060017317533493,
          0.163309708237648,
          -0.09563133120536804
        ],
        "bias": [
          0.1168583333492279,
          0.034484248608350754,
          0.004436540883034468,
          0.036942850798368454,
          -0.04975145682692528,
          0.06812713295221329,
          0.07618752121925354,
          -0.056705720722675323,
          -0.015389778651297092,
          -0.13307946920394897,
          -0.03678443655371666,
          0.03344108164310455,
          0.2186279594898224,
          0.031998008489608765,
          0.01701946370303631,
          0.05503957346081734,
          0.18370778858661652,
          -0.04601122811436653,
          -0.0624590627849102,
          -0.0030230539850890636,
          0.04138873517513275,
          -0.02177136391401291,
          0.05172305554151535,
          -0.021179424598813057,
          -0.04416389390826225,
          -0.10080214589834213,
          0.0611070841550827,
          0.14733073115348816,
          -0.03170172870159149,
          0.03593931347131729,
          -0.07123593240976334,
          0.013873828575015068,
          0.026016753166913986,
          0.17135021090507507,
          0.04297560825943947,
          -0.04159025102853775,
          -0.1458902657032013,
          -0.07801982015371323,
          0.020284578204154968,
          0.11140833795070648,
          0.022146690636873245,
          -0.04269367456436157,
          0.01248356606811285,
          0.10966876149177551,
          -0.029247745871543884,
          0.025252867490053177,
          0.08812569081783295,
          -0.04398952051997185,
          0.07958275079727173,
          -0.0864483043551445,
          0.04687376320362091,
          0.015953876078128815,
          -0.05129256844520569,
          -0.013189789839088917,
          -0.10575667768716812,
          0.05663507431745529,
          0.03996950015425682,
          0.015061385929584503,
          -0.06601627171039581,
          -0.04497852921485901,
          -0.10376528650522232,
          0.08129683136940002,
          -0.013907549902796745,
          0.04947498068213463
        ]
      },
      {
        "in_features": 64,
        "out_features": 64,
        "weights": [
          -0.05017963796854019,
          0.05889201909303665,
          -1.2533730268478394,
          -0.12792427837848663,
          -0.0064662788063287735,
          -0.11992969363927841,
          0.1452779769897461,
          -0.33532413840293884,
          0.016999920830130577,
          -0.002531530102714896,
          -0.07487735897302628,
          0.027564899995923042,
          -0.0039247372187674046,
          0.013840379193425179,
          -0.14152555167675018,
          0.02725701779127121,
          0.04317775368690491,
          0.0007805422646924853,
          0.043586961925029755,
          0.050764985382556915,
          0.014985734596848488,
          0.07123304158449173,
          0.012757522985339165,
          -0.0020770293194800615,
          0.035188332200050354,
          -0.01919398084282875,
          -0.42938143014907837,
          -0.02791334129869938,
          -0.06822757422924042,
          -0.08277876675128937,
          0.09158050268888474,
          -0.2522229850292206,
          -0.0032752922270447016,
          -0.030924368649721146,
          -0.010858920402824879,
          0.12756110727787018,
          0.018666455522179604,
          0.17750008404254913,
          0.007189922500401735,
          -0.12334886938333511,
          -0.283101350069046,
          -0.02273646742105484,
          -0.16725268959999084,
          -0.03528729826211929,
          0.04846216365695,
          0.018244544044137,
          -0.16857655346393585,
          0.23274342715740204,
          0.08334042876958847,
          0.036311738193035126,
          0.16217300295829773,
          0.07398730516433716,
          -0.23027558624744415,
          -0.04174264147877693,
          0.10021930187940598,
          -0.6850941181182861,
          -0.25422099232673645,
          0.02902212180197239,
          0.08933087438344955,
          0.05687033012509346,
          -0.010775260627269745,
          0.17857038974761963,
          -0.0114288330078125,
          -0.04388023540377617,
          0.05513531342148781,
          0.01733868569135666,
          -0.040281426161527634,
          -0.03104846552014351,
          0.04329255595803261,
          0.01309558842331171,
          -0.009579073637723923,
          0.08437219262123108,
          0.003754852106794715,
          0.13102732598781586,
          0.06875787675380707,
          -0.07072190195322037,
          0.003479958279058337,
          0.01556409616023302,
          0.06302941590547562,
          0.04778701066970825,
          0.07570773363113403,
          -0.008242551237344742,
          0.22706016898155212,
          0.12560388445854187,
          -0.079541876912117,
          -0.04456217214465141,
          -0.051935989409685135,
          -0.5151122212409973,
          0.17075203359127045,
          0.01684338040649891,
          0.026815064251422882,
          0.05327177792787552,
          -0.20440715551376343,
          -0.017568422481417656,
          -0.034559961408376694,
          0.00866228062659502,
          0.07865582406520844,
          0.010933637619018555,
          0.02351883240044117,
          0.09975927323102951,
          -0.15117290616035461,
          0.006103880237787962,
          0.05578303337097168,
          0.04985868185758591,
          0.051615744829177856,
          -0.05110112577676773,
          -0.07551106065511703,
          -0.0022345560137182474,
          -0.03533252328634262,
          0.07043854147195816,
          -0.005723287351429462,
          0.01629628986120224,
          -0.00663929246366024,
          0.557311475276947,
          -0.08676572144031525,
          0.018291223794221878,
          0.027365272864699364,
          -0.15411266684532166,
          -0.2277565598487854,
          0.07471619546413422,
          -0.02271850034594536,
          0.022262757644057274,
          0.026268064975738525,
          -0.06549682468175888,
          0.12852813303470612,
          0.052763961255550385,
          -0.09945104271173477,
          0.018868040293455124,
          0.01655595935881138,
          -0.017060555517673492,
          -0.11758501082658768,
          0.12348738312721252,
          -0.009505709633231163,
          -0.054844196885824203,
          0.11525563150644302,
          0.17040051519870758,
          -0.1752176135778427,
          -0.08101474493741989,
          0.06103242561221123,
          -0.03813070431351662,
          -0.016449548304080963,
          0.2184111326932907,
          0.03185791149735451,
          0.0431513749063015,
          -0.012799274176359177,
          -0.07764886319637299,
          0.0732705295085907,
          0.28182825446128845,
          -0.06707386672496796,
          0.05048764497041702,
          -0.0457632876932621,
          0.6032871007919312,
          -0.08287713676691055,
          0.1167202740907669,
          0.06081042438745499,
          0.027445374056696892,
          -0.05061192065477371,
          0.10523991286754608,
          -0.1128622516989708,
          -0.1100723072886467,
          -0.1515781432390213,
          0.05300753191113472,
          -0.023348169401288033,
          -0.0743936076760292,
          0.044102154672145844,
          0.17405125498771667,
          -0.018647534772753716,
          -0.06156490370631218,
          -0.0909944400191307,
          0.10527093708515167,
          0.03588748723268509,
          0.08225281536579132,
          -0.05196940526366234,
          0.12085268646478653,
          0.1090473011136055,
          -0.026936154812574387,
          0.08367643505334854,
          1.225698471069336,
          -0.1246483325958252,
          0.004930313676595688,
          0.016159359365701675,
          0.06639119982719421,
          -0.00801279116421938,
          -0.1461247056722641,
          -0.14313623309135437,
          0.1522107720375061,
          0.0975174531340599,
          -0.049545954912900925,
          0.033569566905498505,
          -0.012690598145127296,
          -0.018066324293613434,
          0.09726623445749283,
          0.002584087895229459,
          -0.07374734431505203,
          0.03872283920645714,
          0.1301528513431549,
          -0.18096038699150085,
          0.2173413187265396,
          -0.11212644726037979,
          0.15818440914154053,
          -0.07791303098201752,
          -0.04947364330291748,
          -0.04251660406589508,
          0.117087222635746,
          -0.0648406445980072,
          0.15654340386390686,
          -0.07691704481840134,
          0.06616795063018799,
          -0.10213442891836166,
          -0.07058180123567581,
          0.258167564868927,
          0.08664285391569138,
          0.12817534804344177,
          0.00286115612834692,
          0.0564538948237896,
          -1.634515643119812,
          -0.04748999699950218,
          0.04319760575890541,
          0.1014077439904213,
          -0.05531517416238785,
          0.233387291431427,
          -0.04012594744563103,
          -0.0018102179747074842,
          -0.022076478227972984,
          0.08541083335876465,
          0.03851598501205444,
          0.09437039494514465,
          0.10659642517566681,
          0.06820930540561676,
          0.052838124334812164,
          0.009891905821859837,
          0.15350598096847534,
          0.1767786741256714,
          0.07031860947608948,
          0.16103117167949677,
          0.1859925538301468,
          -0.10547516494989395,
          -0.03899601846933365,
          -0.004824718460440636,
          -0.037141382694244385,
          0.074277363717556,
          -2.141634941101074,
          0.2625647485256195,
          -0.13841263949871063,
          0.1842740923166275,
          -0.08828077465295792,
          0.07007948309183121,
          0.15455816686153412,
          0.009982465766370296,
          0.02368863858282566,
          -0.02404230460524559,
          0.02237262949347496,
          0.028167646378278732,
          0.0809180736541748,
          0.20135973393917084,
          0.030061952769756317,
          -0.0019506894750520587,
          0.003958908375352621,
          0.005968880839645863,
          0.024490833282470703,
          0.011426051147282124,
          -0.002324452856555581,
          0.05739922448992729,
          0.018166430294513702,
          0.005975796841084957,
          0.004321113228797913,
          -0.01225555781275034,
          0.002992115681990981,
          0.6429544687271118,
          -0.006197541486471891,
          -0.043301261961460114,
          -0.020940639078617096,
          -0.07406338304281235,
          -0.004090143833309412,
          0.00040631808224134147,
          -0.02400984801352024,
          -0.06627973169088364,
          -0.048814915120601654,
          0.13319461047649384,
          2.3675475120544434,
          0.011148583143949509,
          -0.001689885975793004,
          0.008969436399638653,
          -0.03625860810279846,
          0.009886223822832108,
          0.007201035041362047,
          0.007245438639074564,
          0.00922511238604784,
          -0.012829207815229893,
          0.005415406543761492,
          0.0019866114016622305,
          0.010689561255276203,
          0.00519923772662878,
          0.04410620033740997,
          0.004838830325752497,
          0.011852540075778961,
          -0.044577114284038544,
          -0.02021622844040394,
          -0.09440717101097107,
          -0.01167150866240263,
          -0.0001041717259795405,
          -0.001384738483466208,
          0.004969851579517126,
          -0.01933852583169937,
          -0.0015906892949715257,
          2.63352632522583,
          -0.00015901964798104018,
          0.006489048711955547,
          -7.54476131987758e-05,
          0.0017296873265877366,
          -0.007366466801613569,
          0.00782216526567936,
          -0.006572308484464884,
          0.020004453137516975,
          0.004641523584723473,
          0.013171319849789143,
          -0.014163767918944359,
          0.0010714639211073518,
          -0.15325821936130524,
          -0.0014058389933779836,
          0.08987391740083694,
          0.1764991581439972,
          0.0867210254073143,
          0.16716676950454712,
          0.15416930615901947,
          0.13323912024497986,
          0.03648359701037407,
          0.24024368822574615,
          -0.001529558445326984,
          0.02280874364078045,
          0.1052655428647995,
          -0.09952275454998016,
          -0.026109473779797554,
          0.07401014119386673,
          -0.04472954943776131,
          0.10546714067459106,
          -0.12136229127645493,
          0.08592716604471207,
          0.12239351868629456,
          0.082526795566082,
          0.15265515446662903,
          0.130408376455307,
          0.01421644538640976,
          0.5986834764480591,
          -0.028691323474049568,
          0.03429451212286949,
          0.05326511710882187,
          0.0969947800040245,
          0.15790218114852905,
          0.045618582516908646,
          0.047543883323669434,
          0.11077136546373367,
          -0.007484770379960537,
          0.0009500275482423604,
          -0.014657048508524895,
          0.09039869159460068,
          0.05791875720024109,
          0.14004576206207275,
          0.039098337292671204,
          -0.007810382172465324,
          0.27326905727386475,
          -0.02770856022834778,
          0.0725785419344902,
          0.03996240347623825,
          0.09439078718423843,
          0.09581590443849564,
          -0.04043611139059067,
          0.11717215925455093,
          0.1122083067893982,
          2.035479784011841,
          0.008126232773065567,
          0.14370310306549072,
          0.13431473076343536,
          -0.014477062039077282,
          0.18585890531539917,
          0.012808176688849926,
          -0.12617596983909607,
          0.04272625595331192,
          0.08960999548435211,
          0.06827040761709213,
          0.09135984629392624,
          -0.03495342656970024,
          -0.03422677889466286,
          0.06766634434461594,
          -0.06212598457932472,
          0.012973693199455738,
          -0.08179157227277756,
          -0.0032374958973377943,
          -0.026335062459111214,
          -0.006288937758654356,
          -0.11577477306127548,
          0.004824349656701088,
          0.09637224674224854,
          -0.007381998933851719,
          0.14980554580688477,
          0.10326609760522842,
          -0.0035205853637307882,
          0.03401598706841469,
          0.06902571767568588,
          -0.014330890029668808,
          0.02547607757151127,
          -0.067109115421772,
          -0.026173390448093414,
          0.0031555353198200464,
          -0.04021122306585312,
          0.06815110146999359,
          0.18045514822006226,
          -0.20714548230171204,
          0.1177607849240303,
          -0.051176104694604874,
          0.028610097244381905,
          0.11895935237407684,
          -0.10559454560279846,
          0.015118944458663464,
          -0.04986904188990593,
          0.02252783253788948,
          -0.03536165505647659,
          -0.06837707757949829,
          0.06658613681793213,
          -0.0354357548058033,
          0.09820771217346191,
          -0.007678220514208078,
          0.017136739566922188,
          0.03828351944684982,
          0.022468479350209236,
          -0.18588446080684662,
          -0.11159013956785202,
          0.035861335694789886,
          -0.0008504441939294338,
          0.05957846716046333,
          -0.022327039390802383,
          0.020219912752509117,
          -0.01504258532077074,
          -0.780434787273407,
          -0.053236834704875946,
          0.06649291515350342,
          0.03756239637732506,
          -0.034345593303442,
          0.10679302364587784,
          -0.0486108735203743,
          -0.11942285299301147,
          -0.09737991541624069,
          -0.03506610542535782,
          -0.18767499923706055,
          -0.008880972862243652,
          0.07050056010484695,
          0.1341255009174347,
          0.0015470946673303843,
          -0.1192314475774765,
          0.16879606246948242,
          -0.181962788105011,
          0.00900246761739254,
          0.2813740670681,
          -0.017154907807707787,
          -0.014055632054805756,
          -0.1943105310201645,
          -0.03281329199671745,
          -0.036826130002737045,
          -0.08525704592466354,
          -0.07052697241306305,
          -0.0004565560375340283,
          0.023309187963604927,
          -0.036224398761987686,
          0.1699974238872528,
          -0.02248198539018631,
          0.0036467143800109625,
          -0.04551694169640541,
          -0.06923098117113113,
          -0.02371489815413952,
          0.05955816060304642,
          0.059533052146434784,
          -0.5511635541915894,
          0.007640342693775892,
          0.1179761290550232,
          -0.009649164974689484,
          -0.01353552658110857,
          -0.026500415056943893,
          0.07600819319486618,
          -0.1885385811328888,
          -1.5874842574703507e-05,
          -0.0023868847638368607,
          -0.025677260011434555,
          -0.052609317004680634,
          -0.08594924211502075,
          0.0008557538967579603,
          0.007612476125359535,
          0.12185388058423996,
          0.013726931065320969,
          0.08294213563203812,
          0.032831307500600815,
          -0.02788420207798481,
          -0.07910141348838806,
          -0.01072011236101389,
          0.05625048279762268,
          0.21082693338394165,
          -0.04491647332906723,
          0.03453055024147034,
          -1.4788289070129395,
          -0.17783674597740173,
          -0.097266286611557,
          -0.03737078234553337,
          0.03928321972489357,
          0.09135916084051132,
          0.08641614764928818,
          0.19856135547161102,
          -0.033032406121492386,
          0.06005043163895607,
          0.010166436433792114,
          0.047206196933984756,
          0.014228041283786297,
          0.055808115750551224,
          0.07753315567970276,
          0.014004487544298172,
          -0.006084110587835312,
          0.02609267644584179,
          0.1497264802455902,
          0.04177623987197876,
          0.16202588379383087,
          0.01756925694644451,
          0.04146205261349678,
          -0.0802348405122757,
          -0.032624855637550354,
          -0.09840693324804306,
          -0.16414688527584076,
          0.0005163302412256598,
          0.19382244348526,
          0.006985821295529604,
          0.003145805327221751,
          -0.06065988913178444,
          0.09625609964132309,
          0.11780120432376862,
          0.09714779257774353,
          0.02272162213921547,
          -0.03222721442580223,
          0.0007539134821854532,
          -0.12057263404130936,
          -0.16269321739673615,
          0.11578426510095596,
          -0.011962244287133217,
          0.11721255630254745,
          0.0702235996723175,
          -0.07286062836647034,
          0.013278631493449211,
          0.09280133247375488,
          0.11740279197692871,
          -0.08681172132492065,
          -0.15860997140407562,
          0.03835805878043175,
          -0.006530883256345987,
          0.09764482825994492,
          -0.0015665972605347633,
          -0.02544768527150154,
          0.07710637152194977,
