{
  "model": {
    "layers": [
      {
        "in_features": 8,
        "out_features": 12,
        "weights": [
          0.6664515137672424,
          0.5278857946395874,
          0.23020952939987183,
          -0.06321748346090317,
          0.2749672532081604,
          -0.3325807452201843,
          0.5333830714225769,
          0.24414965510368347,
          -0.17106713354587555,
          0.23087552189826965,
          -0.38177400827407837,
          -0.08534789830446243,
          -0.28023505210876465,
          0.20456364750862122,
          -0.5640389919281006,
          0.11937788873910904,
          0.4177609384059906,
          0.13332107663154602,
          -0.4828440546989441,
          -0.16040828824043274,
          -0.20598840713500977,
          -0.549288809299469,
          0.5176344513893127,
          -0.2174176573753357,
          0.3360022306442261,
          -0.14321330189704895,
          -0.3959985077381134,
          -0.1564951390028,
          -0.225298672914505,
          -0.703827440738678,
          0.04853835701942444,
          -0.2441304475069046,
          0.2694655656814575,
          0.03409796953201294,
          -0.3623593747615814,
          -0.009896314702928066,
          -0.32885119318962097,
          -0.3702509105205536,
          -0.024441992864012718,
          0.24480226635932922,
          -0.5372447967529297,
          -0.37251970171928406,
          -0.31381264328956604,
          -0.31848540902137756,
          -0.23762677609920502,
          0.38700297474861145,
          -0.5165232419967651,
          -0.42240822315216064,
          -0.1541847586631775,
          0.0008501005941070616,
          0.3206314146518707,
          -0.10289441794157028,
          0.4085882604122162,
          0.6362511515617371,
          -0.4301850199699402,
          0.2545180916786194,
          -0.04152648150920868,
          0.04607236757874489,
          0.4259880483150482,
          0.060537006705999374,
          0.3362234830856323,
          0.04397888481616974,
          0.3632158637046814,
          -0.16455309092998505,
          0.38045525550842285,
          0.16942210495471954,
          0.20024727284908295,
          0.3861734867095947,
          -0.20481114089488983,
          -0.47914591431617737,
          0.6640072464942932,
          0.515443742275238,
          -0.0175480879843235,
          0.19664788246154785,
          0.16285674273967743,
          0.15767087042331696,
          -0.15390263497829437,
          -0.2375320941209793,
          0.5551880598068237,
          0.27638325095176697,
          -0.1685059517621994,
          -0.09469429403543472,
          -0.3828461468219757,
          0.2381742298603058,
          -0.48353859782218933,
          -0.17795570194721222,
          -0.2102539837360382,
          -0.01675616018474102,
          0.21572184562683105,
          -0.19293779134750366,
          -0.22931715846061707,
          -0.25418922305107117,
          -0.0742279514670372,
          -0.6631271839141846,
          0.3305111229419708,
          -0.4692980647087097
        ],
        "bias": [
          0.3953177332878113,
          -0.07321808487176895,
          -1.0003920793533325,
          -0.2935752868652344,
          -0.09442336857318878,
          -1.0296891927719116,
          0.10169102996587753,
          -0.07476753741502762,
          0.026294700801372528,
          0.18134334683418274,
          0.07848867028951645,
          0.09859148412942886
        ]
      },
      {
        "in_features": 20,
        "out_features": 64,
        "weights": [
          -0.1792553812265396,
          0.15550686419010162,
          -0.0636637806892395,
          -0.203794464468956,
          0.13037721812725067,
          -0.0464705191552639,
          0.10861235857009888,
          0.006258312612771988,
          0.1833665668964386,
          0.08425931632518768,
          0.2187410295009613,
          0.13824647665023804,
          0.05680118873715401,
          0.13815590739250183,
          -0.11715643107891083,
          -0.06819640845060349,
          0.028322219848632812,
          -0.06031065061688423,
          -0.03935005143284798,
          0.03974735364317894,
          -0.11186950653791428,
          0.2247881442308426,
          0.18623368442058563,
          -0.12300834059715271,
          -0.0772298127412796,
          -0.07802015542984009,
          0.028368394821882248,
          0.00931619107723236,
          -0.06045663356781006,
          -0.03655494377017021,
          -0.07852313667535782,
          0.6054033637046814,
          0.516708493232727,
          0.4912327229976654,
          0.03107406571507454,
          0.023914331570267677,
          0.010882038623094559,
          0.6022109389305115,
          0.24206282198429108,
          -0.5671135187149048,
          -0.14378899335861206,
          -0.21127773821353912,
          -0.2146497517824173,
          -0.035436950623989105,
          -0.07213541120290756,
          0.03619030490517616,
          -0.1038702055811882,
          -0.12193787842988968,
          0.17480073869228363,
          -0.041655804961919785,
          -0.14036236703395844,
          0.0003836340911220759,
          -0.1517648547887802,
          0.07656822353601456,
          0.1788397580385208,
          0.16086383163928986,
          0.08584967255592346,
          -0.08259724080562592,
          0.1161186620593071,
          -0.09243033826351166,
          -0.27450376749038696,
          0.16767235100269318,
          -0.11160688102245331,
          -0.16190913319587708,
          -0.06023722514510155,
          0.09208085387945175,
          0.3078748881816864,
          0.08549654483795166,
          0.011957230046391487,
          0.03099787048995495,
          -0.03575345128774643,
          0.12013331800699234,
          0.09503654390573502,
          0.08896222710609436,
          0.16222283244132996,
          0.10736824572086334,
          -0.09663054347038269,
          0.12994450330734253,
          0.07617843151092529,
          -0.11243350058794022,
          0.06942097842693329,
          -0.0664929673075676,
          0.38928744196891785,
          0.24071376025676727,
          -0.16226845979690552,
          0.009348663501441479,
          -0.20307046175003052,
          -0.17892366647720337,
          -0.12993057072162628,
          -0.15980558097362518,
          -0.0789453461766243,
          0.5526826977729797,
          0.3753085136413574,
          0.5229237079620361,
          -0.3050369918346405,
          -0.14818508923053741,
          0.26321691274642944,
          0.15559305250644684,
          -0.002309265313670039,
          -0.22396357357501984,
          0.6131413578987122,
          -0.24872072041034698,
          0.08876859396696091,
          -0.1345563530921936,
          -0.7549505829811096,
          0.5556275844573975,
          -0.048741403967142105,
          -0.20289357006549835,
          -0.005654065404087305,
          -0.017224088311195374,
          0.01668396219611168,
          0.00543953524902463,
          -0.02151579223573208,
          0.008168702945113182,
          -0.08048879355192184,
          -0.04955147206783295,
          0.04855382815003395,
          -0.08016479760408401,
          -0.0585726760327816,
          0.08075740188360214,
          -0.3117854595184326,
          0.37580785155296326,
          0.18308067321777344,
          0.1300835907459259,
          0.28707361221313477,
          -0.42010337114334106,
          -0.1020372211933136,
          -0.014774139039218426,
          -0.12183263897895813,
          -0.10440025478601456,
          -0.07307534664869308,
          -0.11026766896247864,
          -0.10214579105377197,
          -0.05803064629435539,
          -0.16828852891921997,
          -0.07552287727594376,
          0.1202867329120636,
          -0.19140876829624176,
          -0.09530097991228104,
          0.1370229870080948,
          0.45166853070259094,
          0.06670971214771271,
          0.6030324697494507,
          -0.4622669816017151,
          -0.12030376493930817,
          -0.10334211587905884,
          0.031249575316905975,
          0.5212108492851257,
          0.016729719936847687,
          -0.0012885439209640026,
          -0.03933016583323479,
          0.02097903937101364,
          0.0022246581502258778,
          -0.03857382386922836,
          0.07123877853155136,
          0.0385255441069603,
          0.03751768544316292,
          0.07652219384908676,
          0.03617023304104805,
          0.03879048675298691,
          -0.542654812335968,
          1.0870728492736816,
          0.02762375771999359,
          -0.4637330174446106,
          -0.4732629358768463,
          0.4577867388725281,
          -0.12513025104999542,
          -0.2643471360206604,
          0.05735987797379494,
          -0.010363392531871796,
          0.15015676617622375,
          0.05323376879096031,
          -0.07266625016927719,
          0.10354511439800262,
          -0.2561459243297577,
          -0.1184132844209671,
          -0.01759580709040165,
          -0.2613302171230316,
          0.012831768952310085,
          0.026946449652314186,
          -0.019619010388851166,
          -0.018985847011208534,
          0.02880786545574665,
          0.0314006581902504,
          0.04750144109129906,
          0.005319145042449236,
          0.022569306194782257,
          -0.05319487676024437,
          0.047807738184928894,
          -0.3731417655944824,
          0.09044060111045837,
          0.05136663466691971,
          -0.3683742582798004,
          0.09464040398597717,
          0.5054224729537964,
          -0.3164345324039459,
          0.05525168031454086,
          0.5122953057289124,
          -0.3121703267097473,
          0.04583001136779785,
          -0.050848767161369324,
          0.15632778406143188,
          -0.07944810390472412,
          -0.01647830568253994,
          0.03500141203403473,
          0.18825702369213104,
          -0.2508769929409027,
          -0.1425739824771881,
          -0.2165076732635498,
          -0.06605879962444305,
          0.2471761256456375,
          -0.22145068645477295,
          -0.06747879087924957,
          0.22881391644477844,
          0.220797598361969,
          0.020183026790618896,
          0.14181311428546906,
          0.24981996417045593,
          0.03801601007580757,
          0.1342790126800537,
          0.1806260347366333,
          0.22599564492702484,
          0.1338331401348114,
          0.20885948836803436,
          -0.22293654084205627,
          0.14636361598968506,
          0.03346683084964752,
          -0.008431192487478256,
          0.09999362379312515,
          0.04656233638525009,
          0.11026068776845932,
          0.009704828262329102,
          0.05936942622065544,
          0.1315610557794571,
          -0.07717780023813248,
          -0.11177918314933777,
          0.05670468509197235,
          -0.06868546456098557,
          -0.053498949855566025,
          -0.13245880603790283,
          0.22262205183506012,
          -0.11976346373558044,
          -0.12978461384773254,
          -0.2689085304737091,
          -0.06458383053541183,
          0.36079585552215576,
          0.21536724269390106,
          0.2027517408132553,
          0.25151917338371277,
          0.22209177911281586,
          0.25684696435928345,
          0.254423588514328,
          0.22971394658088684,
          0.260580837726593,
          0.1914859265089035,
          0.09208367764949799,
          -0.269888699054718,
          0.2030506134033203,
          0.09557735919952393,
          -0.284239262342453,
          0.03097851201891899,
          -0.00543375127017498,
          -0.018324706703424454,
          -0.012615355663001537,
          -0.005536521319299936,
          -0.013751988299190998,
          -0.022434446960687637,
          0.02636738494038582,
          0.14067332446575165,
          -0.4820292890071869,
          -0.053297966718673706,
          0.14078806340694427,
          -0.48178035020828247,
          -0.05278151482343674,
          0.18657661974430084,
          -0.09565071016550064,
          -0.26512885093688965,
          0.18606041371822357,
          -0.09637130796909332,
          -0.2652668058872223,
          0.003356319386512041,
          0.06220610439777374,
          -0.03216971084475517,
          -0.04561587795615196,
          -0.007838159799575806,
          0.0010732085211202502,
          -0.007329079322516918,
          -0.024761954322457314,
          0.615702211856842,
          0.5309435725212097,
          0.5549024939537048,
          -0.003932923078536987,
          -0.0008222035248763859,
          0.0016688599716871977,
          0.5362306237220764,
          0.216258242726326,
          -0.592223048210144,
          -0.0027636049780994654,
          0.0033534085378050804,
          -0.006953788455575705,
          0.02493412233889103,
          0.07190559804439545,
          -0.010789752937853336,
          -0.033979061990976334,
          0.046767402440309525,
          0.01275765523314476,
          -0.03291340917348862,
          -0.09739352762699127,
          -0.22547851502895355,
          0.027859166264533997,
          0.2836344242095947,
          -0.22229799628257751,
          0.02740490436553955,
          0.290423721075058,
          0.42027878761291504,
          0.021171871572732925,
          0.46508753299713135,
          0.4088491201400757,
          0.016393108293414116,
          0.47023454308509827,
          0.2508932054042816,
          0.0916476920247078,
          0.03747893124818802,
          0.27570536732673645,
          0.16243544220924377,
          0.3947661817073822,
          -0.040951672941446304,
          -0.21986553072929382,
          0.11733037978410721,
          -0.027498884126544,
          -0.13310186564922333,
          -0.13551726937294006,
          -0.05304688587784767,
          0.15546578168869019,
          0.21408456563949585,
          0.17519956827163696,
          0.18438106775283813,
          -0.3645564913749695,
          -0.02491292916238308,
          -0.0987967699766159,
          -0.35268133878707886,
          0.8407059907913208,
          -0.5046412944793701,
          -0.552265465259552,
          -0.5518566370010376,
          0.04199030622839928,
          0.025049833580851555,
          0.9043063521385193,
          0.03840038552880287,
          0.013153697364032269,
          0.06158260628581047,
          0.032288212329149246,
          0.014017824083566666,
          0.07104077935218811,
          -0.08161727339029312,
          -0.11002953350543976,
          0.05488069728016853,
          -0.09561236202716827,
          -0.11254430562257767,
          0.04259651154279709,
          -0.03805892914533615,
          0.04367765039205551,
          -0.017487989738583565,
          -0.03968335688114166,
          -0.039317578077316284,
          -0.0029387904796749353,
          0.03973185271024704,
          0.04541485384106636,
          0.0939846932888031,
          0.42381271719932556,
          -0.1765291690826416,
          0.08380872011184692,
          0.4248151183128357,
          -0.18742164969444275,
          -0.29375478625297546,
          -0.08741841465234756,
          0.015154587104916573,
          -0.27541324496269226,
          -0.07852111011743546,
          -0.0007503693923354149,
          -0.020243797451257706,
          0.03702477738261223,
          0.006824669893831015,
          0.03511221706867218,
          0.019800376147031784,
          -0.005803428590297699,
          0.0201827734708786,
          -0.06980625540018082,
          0.30512377619743347,
          0.04993041604757309,
          -0.4189528822898865,
          0.303449809551239,
          0.04992200806736946,
          -0.4112466275691986,
          -0.33389392495155334,
          -0.0835384875535965,
          -0.44876614212989807,
          -0.34644678235054016,
          -0.08840480446815491,
          -0.45124125480651855,
          -0.05319460108876228,
          -0.14452281594276428,
          0.08940979838371277,
          0.05869005620479584,
          0.030762163922190666,
          0.010895133018493652,
          0.04714963212609291,
          0.0851479172706604,
          0.31474819779396057,
          -0.32177963852882385,
          -0.2722999155521393,
          0.3134484887123108,
          -0.32185623049736023,
          -0.26847609877586365,
          -0.2704927623271942,
          0.03702109679579735,
          -0.4415469765663147,
          -0.277574747800827,
          0.03390242159366608,
          -0.442644327878952,
          -0.1309400200843811,
          0.06806059926748276,
          -0.017676785588264465,
          0.04470808804035187,
          -0.0617782361805439,
          0.1047447919845581,
          -0.03631889447569847,
          -0.05043162405490875,
          0.17356011271476746,
          0.11446169018745422,
          -0.27276211977005005,
          0.15976935625076294,
          0.11488372832536697,
          -0.2663319706916809,
          -0.3556472957134247,
          -0.08847492933273315,
          -0.38291674852371216,
          -0.3656485378742218,
          -0.08748716115951538,
          -0.4057450592517853,
          0.13215473294258118,
          0.013828301802277565,
          -0.07581781595945358,
          0.1911977231502533,
          0.04570629447698593,
          0.10850349813699722,
          -0.14060519635677338,
          -0.14034900069236755,
          -0.3019920587539673,
          -0.2500709295272827,
          -0.25340133905410767,
          0.05110212787985802,
          0.007757056038826704,
          -0.0037570407148450613,
          -0.26897966861724854,
          -0.11355817317962646,
          0.26466745138168335,
          0.014110729098320007,
          -0.034640394151210785,
          0.07370950281620026,
          -0.24964135885238647,
          0.07294194400310516,
          -0.33460673689842224,
          0.3461066782474518,
          0.3696334958076477,
          -0.35230332612991333,
          -0.13313056528568268,
          -0.10970955342054367,
          -0.186296284198761,
          -0.1674230843782425,
          -0.08776220679283142,
          -0.16509699821472168,
          -0.165042445063591,
          -0.09814738482236862,
          -0.2582894265651703,
          -0.029651550576090813,
          0.1351938247680664,
          -0.23736247420310974,
          -0.031808074563741684,
          0.16418850421905518,
          -0.06978010386228561,
          0.15993472933769226,
          -0.012794267386198044,
          -0.07612243294715881,
          -0.01907472498714924,
          -0.04399789124727249,
          0.015540237538516521,
          -0.08332782238721848,
          -0.003785158507525921,
          -0.00386166968382895,
          -0.007141816895455122,
          0.7396776676177979,
          0.6297712922096252,
          0.6615265607833862,
          0.007008909713476896,
          0.01158125139772892,
          -0.0030904412269592285,
          0.6305869817733765,
          0.25120994448661804,
          -0.6892387270927429,
          0.02686246857047081,
          0.02171558327972889,
          -0.05530340597033501,
          0.01652904786169529,
          -0.03513912484049797,
          -0.014686239883303642,
          -0.05828048288822174,
          -0.006039969623088837,
          -0.24751174449920654,
          0.4293377101421356,
          0.21523776650428772,
          -0.24291162192821503,
          0.4294625222682953,
          0.21611641347408295,
          0.03974952921271324,
          -0.005665681790560484,
          0.4013974666595459,
          0.03895987570285797,
          -0.007441565860062838,
          0.4079301059246063,
          0.33828791975975037,
          0.12316127121448517,
          0.22604480385780334,
          -0.5229844450950623,
          0.7661378979682922,
          -0.1676582396030426,
          -0.10713537037372589,
          -0.7697939872741699,
          -0.23825514316558838,
          -0.12250782549381256,
          -0.1990143209695816,
          0.40841594338417053,
          0.35875216126441956,
          0.2772314250469208,
          0.32233133912086487,
          0.6775732636451721,
          -0.3664276599884033,
          0.012154918164014816,
          0.2527671754360199,
          -0.014162076637148857,
          -0.03791418299078941,
          -0.0719643160700798,
          0.10599864274263382,
          0.030648542568087578,
          0.05585946515202522,
          -0.0010175067000091076,
          0.12909150123596191,
          -2.560323082434479e-05,
          -0.2129800170660019,
          -0.11003090441226959,
          0.38664722442626953,
          -0.19418762624263763,
          -0.11177617311477661,
          0.3660564720630646,
          0.3161660432815552,
          -0.16039025783538818,
          0.29470038414001465,
          0.34646672010421753,
          -0.15382519364356995,
          0.32798856496810913,
          -0.13453064858913422,
          -0.06984571367502213,
          0.19253316521644592,
          0.39538291096687317,
          -0.6907946467399597,
          0.3481360077857971,
          0.26151594519615173,
          -0.37074291706085205,
          0.015602613799273968,
          0.004198893904685974,
          0.009608586318790913,
          0.002685257000848651,
          -0.0018587966915220022,
          0.000605433713644743,
          0.0008919586543925107,
          0.0023579748813062906,
          0.008253594860434532,
          0.002073636744171381,
          0.01059228740632534,
          0.001738501014187932,
          -0.16834843158721924,
          -0.4643300473690033,
          -0.29437121748924255,
          0.1268499791622162,
          -0.17058196663856506,
          0.3611803650856018,
          0.41772937774658203,
          0.02470734901726246,
          -0.024195412173867226,
          -0.0026984368450939655,
          -0.08241833746433258,
          -0.04218585789203644,
          -0.004456778056919575,
          -0.10441619902849197,
          0.11581136286258698,
          0.044391389936208725,
          -0.01774187572300434,
          0.14638124406337738,
          0.06272619962692261,
          -0.03959774598479271,
          0.09565164893865585,
          0.00988048780709505,
          0.21729110181331635,
          -0.11401376873254776,
          0.3456619381904602,
          0.36150452494621277,
          0.09589840471744537,
          -0.1949998140335083,
          -0.03792271018028259,
          0.004914599005132914,
          -0.0853591114282608,
          -0.02907812036573887,
          0.0040563191287219524,
          -0.11698450148105621,
          0.10911701619625092,
          -0.018193896859884262,
          -0.01947586052119732,
          0.16400538384914398,
          0.007767078932374716,
          -0.00965891219675541,
          0.024220123887062073,
          -0.008106900379061699,
          -0.022166598588228226,
          0.026466786861419678,
          -0.013150390237569809,
          -0.02276647463440895,
          -0.027858421206474304,
          0.009538786485791206,
          -0.18155212700366974,
          -0.34252631664276123,
          0.32081010937690735,
          -0.18056823313236237,
          -0.34239792823791504,
          0.3218340277671814,
          0.455116868019104,
          0.04782119393348694,
          0.26181405782699585,
          0.45339491963386536,
          0.04640154168009758,
          0.26344603300094604,
          -0.13855034112930298,
          -0.05871716886758804,
          -0.4986998438835144,
          0.0842394009232521,
          0.41065600514411926,
          -0.3843088746070862,
          0.004130322020500898,
          -0.09287329018115997,
          0.015423416160047054,
          -0.007199435029178858,
          0.015141692012548447,
          0.00964603666216135,
          -0.00742350285872817,
          0.023689232766628265,
          -0.0581284761428833,
          -0.05389203876256943,
          0.05858168005943298,
          -0.07304757833480835,
          -0.0594465397298336,
          0.051661137491464615,
          -0.6822010278701782,
          0.11371666193008423,
          -0.14995980262756348,
          -0.15746793150901794,
          0.20521028339862823,
          0.25898659229278564,
          -0.1788361817598343,
          -0.3081839382648468,
          0.0019831538666039705,
          0.05001194030046463,
          -0.057316213846206665,
          0.015640808269381523,
          0.052868083119392395,
          -0.036370255053043365,
          0.10796067118644714,
          -0.11740203201770782,
          0.016116486862301826,
          0.06715694069862366,
          -0.14146487414836884,
          0.019221577793359756,
          0.4883274734020233,
          0.2358611673116684,
          0.7442175149917603,
          0.16786342859268188,
          -0.18412858247756958,
          0.005246272310614586,
          -0.40099722146987915,
          -0.025761442258954048,
          -0.0032826457172632217,
          -0.009238977916538715,
          -0.01377817988395691,
          -0.0006225045071914792,
          -0.00868217647075653,
          -0.015103386715054512,
          0.012992438860237598,
          0.02561030164361,
          0.00444623501971364,
          0.018206363543868065,
          0.029422327876091003,
          0.0050764428451657295,
          -1.3783624172210693,
          0.6649506688117981,
          0.1801072359085083,
          0.6723448038101196,
          -0.45354539155960083,
          -0.3062179982662201,
          0.6586258411407471,
          -0.6510270833969116,
          -0.004588339012116194,
          -0.0010571075836196542,
          -0.016094451770186424,
          -0.0013957240153104067,
          -0.0005420033703558147,
          -0.016372745856642723,
          0.01992187835276127,
          0.004945816937834024,
          -0.00015593910939060152,
          0.02135971561074257,
          0.004417175427079201,
          0.003416200168430805,
          0.1644030064344406,
          0.143870547413826,
          -0.26141855120658875,
          0.09008580446243286,
          0.2369977831840515,
          0.11420737951993942,
          -0.029040176421403885,
          0.05195377394556999,
          0.06697117537260056,
          0.009888230822980404,
          0.12111754715442657,
          -0.2606181800365448,
          -0.24286751449108124,
          -0.18729351460933685,
          -0.21680790185928345,
          -0.20406129956245422,
          0.1333099603652954,
          -0.38489648699760437,
          -0.2353762686252594,
          0.34257978200912476,
          -0.23204077780246735,
          -0.13429807126522064,
          0.19143328070640564,
          0.20440731942653656,
          -0.04930133745074272,
          -0.095394566655159,
          0.06149432063102722,
          0.07997703552246094,
          0.9245909452438354,
          0.6900140047073364,
          0.8192744255065918,
          0.0105515131726861,
          0.00013309885980561376,
          -0.004936957731842995,
          0.5300156474113464,
          0.14997148513793945,
          -0.569758415222168,
          0.00902559794485569,
          0.0004205536679364741,
          0.012732596136629581,
          0.0751863643527031,
          0.048498984426259995,
          -0.07132939994335175,
          -0.01856410689651966,
          -0.0065247612074017525,
          -0.019786227494478226,
          -0.09275684505701065,
          -0.04077458754181862,
          0.30156487226486206,
          -0.3558959364891052,
          -0.2771192491054535,
          0.3053896725177765,
          -0.3554060459136963,
          -0.278007835149765,
          -0.10303806513547897,
          -0.06392405182123184,
          -0.4360833466053009,
          -0.10069618374109268,
          -0.06458836793899536,
          -0.4310351610183716,
          0.3291553258895874,
          -0.3174728751182556,
          -0.06384646892547607,
          -0.2041420340538025,
          -0.5678035020828247,
          0.2222643345594406,
          -0.04950229078531265,
          -0.23672886192798615,
          -0.17245487868785858,
          -0.10556024312973022,
          -0.137411430478096,
          -0.15550509095191956,
          -0.1010509580373764,
          -0.14169183373451233,
          -0.04242399334907532,
          0.031668953597545624,
          0.013855342753231525,
          -0.02461252361536026,
          0.032682809978723526,
          0.028963102027773857,
          0.12496713548898697,
          -0.013201192021369934,
          -0.41900521516799927,
          -0.31852707266807556,
          0.016036730259656906,
          0.19970402121543884,
          0.19922605156898499,
          0.10988614708185196,
          -0.1302497535943985,
          -0.05440561845898628,
          -0.10852152109146118,
          -0.29264742136001587,
          -0.16452494263648987,
          -0.3010362386703491,
          0.055899474769830704,
          0.08166053146123886,
          -0.09896529465913773,
          0.08332598954439163,
          0.1260492354631424,
          -0.04215176776051521,
          -0.07737264782190323,
          -0.05032562464475632,
          0.03966866806149483,
          0.06464409828186035,
          -0.027191903442144394,
          -0.006349509581923485,
          0.07224766165018082,
          0.05917130038142204,
          -0.2844739258289337,
          0.11608056724071503,
          0.33909639716148376,
          -0.2873435616493225,
          0.11651740968227386,
          0.33879974484443665,
          0.3409566283226013,
          -0.005043527111411095,
          0.46296125650405884,
          0.3419925272464752,
          -0.004195331130176783,
          0.45772218704223633,
          -0.0930854082107544,
          0.23328077793121338,
          0.15644899010658264,
          -0.1499204784631729,
          -0.01683470420539379,
          -0.06690926849842072,
          0.0031605539843440056,
          0.0563349574804306,
          0.4568396210670471,
          0.40504249930381775,
          0.3551795482635498,
          -0.08751871436834335,
          -0.029908133670687675,
          -0.11249642819166183,
          0.5291473865509033,
          0.23274564743041992,
          -0.48192694783210754,
          0.10091430693864822,
          0.06337559223175049,
          -0.04866502061486244,
          0.07224522531032562,
          -0.033238157629966736,
          -0.022051256150007248,
          -0.011374108493328094,
          0.03472133353352547,
          -0.01566564477980137,
          -0.06336956471204758,
          -0.01062009483575821,
          0.7459657788276672,
          0.6265319585800171,
          0.6683824062347412,
          0.0031127743422985077,
          0.0005252090049907565,
          0.0010571705643087626,
          0.6063827872276306,
          0.23152242600917816,
          -0.6650869846343994,
          -0.0006231118459254503,
          -0.001705373520962894,
          0.0035517895594239235,
          0.0925094485282898,
          0.08808861672878265,
          0.06102404743432999,
          0.2331867516040802,
          0.052058666944503784,
          -0.020934296771883965,
          -0.13950949907302856,
          -0.3064928352832794,
          0.015069075860083103,
          -0.07041426002979279,
          0.0977163016796112,
          -0.029830142855644226,
          -0.05709906667470932,
          0.033569980412721634,
          -0.1945919394493103,
          0.03053894080221653,
          0.0392693355679512,
          -0.04871584102511406,
          0.11982700228691101,
          -0.07411166280508041,
          0.013901025988161564,
          -0.39369043707847595,
          -0.3061317205429077,
          -0.30574652552604675,
          0.3075757324695587,
          0.06247895583510399,
          0.003574819304049015,
          0.30280444025993347,
          -0.07556691765785217,
          -0.08485487848520279,
          -0.08791595697402954,
          0.0884811207652092,
          0.025761770084500313,
          0.04029810056090355,
          -0.08757522702217102,
          -0.04712960496544838,
          0.13441796600818634,
          -0.005002369172871113,
          -0.03871821612119675,
          0.07620824128389359,
          -0.17154087126255035,
          0.031502123922109604,
          -0.3773810863494873,
          0.3364606201648712,
          0.8863232135772705,
          -0.20602469146251678,
          -0.26252660155296326,
          0.23201927542686462,
          -0.016228515654802322,
          0.010811308398842812,
          -0.04328618943691254,
          -0.08948271721601486,
          0.008238156326115131,
          -0.019590741023421288,
          0.08883345872163773,
          0.03269331157207489,
          -0.04494255408644676,
          0.046590518206357956,
          0.04982104152441025,
          -0.15759488940238953,
          -0.0018730693263933063,
          0.1527586728334427,
          0.01651531457901001,
          0.007764616049826145,
          0.01933833211660385,
          -0.039933942258358,
          0.021534113213419914,
          -0.10980340093374252,
          -0.39362165331840515,
          -0.319285124540329,
          -0.33486679196357727,
          0.2723638713359833,
          0.21081402897834778,
          0.282186359167099,
          -0.34431755542755127,
          -0.17683207988739014,
          0.3514380156993866,
          0.08974204212427139,
          -0.02269895374774933,
          -0.16384530067443848,
          -0.04742421209812164,
          -0.06278395652770996,
          -0.12139812111854553,
          0.09241096675395966,
          -0.10996942967176437,
          0.006421025842428207,
          0.05475020781159401,
          0.09983668476343155,
          -0.11676214635372162,
          0.2633473575115204,
          -0.13275663554668427,
          -0.07802523672580719,
          0.26190420985221863,
          -0.12791137397289276,
          0.11707531660795212,
          0.05856291949748993,
          -0.13743551075458527,
          0.09968902170658112,
          0.03091498650610447,
          -0.06606901437044144,
          -0.0952218770980835,
          -0.25756126642227173,
          0.12244976311922073,
          0.255985289812088,
          -0.027241306379437447,
          0.014914276078343391,
          0.01710517704486847,
          0.10377811640501022,
          0.00582598801702261,
          0.0008284012437798083,
          -0.0018229836132377386,
          0.8167410492897034,
          0.6096060276031494,
          0.7425330877304077,
          0.003639155300334096,
          -0.002685195067897439,
          0.008748100139200687,
          0.4426136314868927,
          0.13080604374408722,
          -0.5078037977218628,
          0.04131921008229256,
          -0.07558762282133102,
          0.0902138352394104,
          -0.06197367236018181,
          0.12146208435297012,
          0.02675922028720379,
          0.02046859636902809,
          0.005335980094969273,
          -0.22649697959423065,
          0.4859185218811035,
          0.15372450649738312,
          -0.2256183922290802,
          0.4860275387763977,
          0.15141847729682922,
          -0.028496623039245605,
          0.08132709562778473,
          0.40115487575531006,
          -0.02455870620906353,
          0.08223075419664383,
          0.40238943696022034,
          0.15912485122680664,
          0.2913725972175598,
          -0.1272168904542923,
          0.3487701117992401,
          0.18811729550361633,
          0.3810058534145355,
          0.2595785856246948,
          -0.05338924005627632,
          0.019386960193514824,
          0.0049458821304142475,
          0.12092174589633942,
          0.084862120449543,
          0.0028661310207098722,
          -0.003951678052544594,
          -0.1787967085838318,
          0.038274526596069336,
          0.02082761749625206,
          0.029417529702186584,
          0.11139930039644241,
          0.11951655149459839,
          0.3301936089992523,
          -0.11211127787828445,
          0.06724416464567184,
          -0.3578105866909027,
          -0.0557321235537529,
          0.4399946928024292,
          0.22704462707042694,
          0.3194190561771393,
          0.6809545755386353,
          0.539117693901062,
          0.7352347373962402,
          0.7723014950752258,
          0.6002457141876221,
          0.8257944583892822,
          0.2938303053379059,
          0.1386565864086151,
          -0.5570628046989441,
          0.3152126967906952,
          0.14301523566246033,
          -0.5972846746444702,
          0.010863390751183033,
          -0.25339725613594055,
          0.24538956582546234,
          0.023940056562423706,
          0.27580326795578003,
          0.0999196246266365,
          -0.07230859249830246,
          -0.012394152581691742,
          0.05270462483167648,
          0.1084732860326767,
          0.05745815858244896,
          0.050808683037757874,
          0.10938309133052826,
          0.07144051790237427,
          -0.22942997515201569,
          -0.038011133670806885,
          0.16495510935783386,
          -0.24858945608139038,
          -0.04206668585538864,
          0.156650111079216,
          -0.009908696636557579,
          -0.014725328423082829,
          0.04405379295349121,
          0.05567437410354614,
          -0.003001029137521982,
          0.013139933347702026,
          0.03034699708223343,
          -0.01861504465341568,
          0.3575684130191803,
          0.31481608748435974,
          0.33508431911468506,
          -0.38454896211624146,
          -0.2989443838596344,
          -0.33846181631088257,
          0.2933724522590637,
          0.09523730725049973,
          -0.3453183174133301,
          -0.26891645789146423,
          -0.11041706055402756,
          0.28586772084236145,
          -0.09901639819145203,
          0.18991336226463318,
          0.10090944170951843,
          0.175263911485672,
          -0.43606036901474,
          -0.06356654316186905,
          -0.18778081238269806,
          0.1334589272737503,
          0.05746936425566673,
          0.055451661348342896,
          0.0289284810423851,
          0.05092209205031395,
          0.06687801331281662,
          0.04277627170085907,
          -0.08156850934028625,
          -0.25567305088043213,
          0.1462055891752243,
          -0.052851174026727676,
          -0.20844995975494385,
          0.07975474745035172,
          0.8817374110221863,
          -0.0013999085640534759,
          -0.09119751304388046,
          -0.9524621367454529,
          0.6786493062973022,
          0.0025020434986799955,
          -0.32145392894744873,
          -0.6807680726051331,
          0.011972705833613873,
          0.024517809972167015,
          0.019078262150287628,
          0.0033321373630315065,
          0.007511942181736231,
          0.01647910475730896,
          -0.031823281198740005,
          -0.07019049674272537,
          0.027452828362584114,
          -0.03764507547020912,
          -0.04485804960131645,
          0.025055889040231705,
          -0.09046714752912521,
          0.5423981547355652,
          -0.1755748838186264,
          0.4018470346927643,
          0.32422077655792236,
          -0.14386795461177826,
          -0.05583259090781212,
          -0.49198222160339355,
          -0.008976520039141178,
          -0.005395172629505396,
          0.0035620941780507565,
          0.041354455053806305,
          -0.003298553405329585,
          -0.03137574717402458,
          -0.011430085636675358,
          0.008577574044466019,
          -0.008997024968266487,
          0.04725997522473335,
          0.0074995774775743484,
          0.07083938270807266,
          -0.012819582596421242,
          0.07764312624931335,
          0.051892124116420746,
          -0.08931832015514374,
          0.06367819011211395,
          -0.013514180667698383,
          0.11019589006900787,
          -0.11389674246311188,
          -0.05215641111135483,
          0.5462172031402588,
          -0.1027066558599472,
          -0.052544381469488144,
          0.546360194683075,
          -0.1071181520819664,
          -0.7111269235610962,
          0.2625335156917572,
          -0.08425579220056534,
          -0.7029129862785339,
          0.2666760981082916,
          -0.08593148738145828,
          0.02210407890379429,
          0.19765156507492065,
          0.035376787185668945,
          0.16140010952949524,
          0.512942910194397,
          0.025377709418535233,
          0.0671500712633133,
          0.2143610119819641,
          0.0882658064365387,
          0.08161067217588425,
          0.11204777657985687,
          0.09052028506994247,
          0.08188489079475403,
          0.11777625977993011,
          0.010990045964717865,
          -0.028753148391842842,
          -0.06843864172697067,
          0.0016438680468127131,
          -0.03393174335360527,
          -0.06495172530412674,
          0.10082487016916275,
          -0.10408526659011841,
          -0.07239336520433426,
          0.11633355170488358,
          -0.0005353586748242378,
          -0.022916657850146294,
          -0.1897764801979065,
          0.05153140798211098,
          0.01424961257725954,
          0.568986713886261,
          -0.18511274456977844,
          0.008815525099635124,
          0.567774772644043,
          -0.1767311990261078,
          -0.49400249123573303,
          0.08959008008241653,
          -0.04290451854467392,
          -0.5086438655853271,
          0.08853070437908173,
          -0.0504746213555336,
          -0.024959946051239967,
          -0.029352160170674324,
          0.26744788885116577,
          -0.4899616837501526,
          0.3646099269390106,
          -0.04494588077068329,
          0.2838459312915802,
          -0.24412314593791962,
          0.21851368248462677,
          0.15344515442848206,
          0.17463348805904388,
          0.344638466835022,
          0.22811603546142578,
          0.4692414104938507,
          -0.08202914893627167,
          0.16510125994682312,
          0.025432301685214043,
          0.5063289999961853,
          0.960955798625946,
          -0.8284865021705627,
          0.3330227732658386,
          0.08199871331453323,
          -0.09509681165218353,
          0.43217676877975464,
          0.18921665847301483,
          0.6808607578277588,
          0.320574551820755,
          0.184731587767601,
          -0.050377510488033295,
          0.0541888102889061,
          0.030924508348107338,
          0.061513837426900864,
          0.05745254456996918,
          -0.05608803778886795,
          0.047689296305179596,
          -0.07732103765010834,
          -0.19191604852676392,
          0.21358951926231384,
          -0.03326154500246048,
          -0.04051730036735535,
          -0.03679482638835907,
          -0.007637673523277044,
          0.30936139822006226,
          -0.507232129573822,
          -0.35270678997039795,
          0.23259484767913818,
          0.2821352481842041,
          0.17822077870368958,
          0.0026015436742454767,
          -0.03477722406387329,
          -0.01437000185251236,
          0.005587881896644831,
          -0.031859759241342545,
          -0.013320433907210827,
          -0.06795185059309006,
          -0.042068541049957275,
          0.10087631642818451,
          -0.06526806205511093,
          -0.04530944302678108,
          0.10087696462869644
        ],
        "bias": [
          0.3135634660720825,
          0.01067362166941166,
          -0.1302037537097931,
          0.2301042228937149,
          -0.10254160314798355,
          -0.032898273319005966,
          -0.2240394800901413,
          -0.24626222252845764,
          -0.37018725275993347,
          -0.010618817992508411,
          0.04170725867152214,
          0.0004936789628118277,
          0.12672282755374908,
          0.008388795889914036,
          0.016588373109698296,
          0.0001073934108717367,
          -0.13510848581790924,
          -0.20236065983772278,
          -0.00020568538457155228,
          -0.0075193000957369804,
          -0.03799070417881012,
          0.02405506558716297,
          -0.0407869778573513,
          -0.02179579623043537,
          0.04802092909812927,
          0.04115656390786171,
          -0.3975626528263092,
          -0.06660895049571991,
          0.11672357469797134,
          0.258269727230072,
          -0.3273131847381592,
          0.016093363985419273,
          0.33540278673171997,
          0.08685606718063354,
          -0.3139331638813019,
          0.27112555503845215,
          -0.1345416158437729,
          0.030717646703124046,
          0.04554231837391853,
          0.04582411050796509,
          0.15026387572288513,
          -0.019603943452239037,
          0.030818359926342964,
          0.024928845465183258,
          0.008248553611338139,
          0.24869996309280396,
          0.031086089089512825,
          0.024121416732668877,
          0.06329164654016495,
          -0.026977838948369026,
          -0.06900768727064133,
          -0.05635729804635048,
          0.02587374672293663,
          -0.124152272939682,
          -0.03098544478416443,
          0.03538304567337036,
          -0.06901319324970245,
          -0.07594863325357437,
          -0.03535111993551254,
          -0.3318696618080139,
          0.0622367300093174,
          -0.33175307512283325,
          -0.15086154639720917,
          -0.036254025995731354
        ]
      },
      {
        "in_features": 64,
        "out_features": 64,
        "weights": [
          0.35842975974082947,
          0.8706551790237427,
          -0.06607995927333832,
          0.4443652629852295,
          0.5477766990661621,
          0.4584399461746216,
          -0.9755675196647644,
          0.6926982998847961,
          -1.4075793027877808,
          -0.05686620995402336,
          0.037075385451316833,
          0.2624529302120209,
          -0.052684202790260315,
          0.050759363919496536,
          1.1962443590164185,
          0.1212509498000145,
          -0.10101817548274994,
          -1.357192873954773,
          0.014694456942379475,
          -0.09266597032546997,
          0.0695812776684761,
          0.07345998287200928,
          -0.12771280109882355,
          0.18041802942752838,
          0.7713146805763245,
          -0.20064109563827515,
          -1.114600658416748,
          -0.0054369340650737286,
          0.3544096052646637,
          -0.02442086860537529,
          0.18150679767131805,
          0.06723003089427948,
          -0.7054698467254639,
          -0.411212682723999,
          -1.3883354663848877,
          -0.021364664658904076,
          -0.0954044833779335,
          0.4758763015270233,
          0.11547573655843735,
          0.15141236782073975,
          -0.4043118357658386,
          0.041610702872276306,
          0.7034774422645569,
          1.9113490581512451,
          -0.08113359659910202,
          0.24565017223358154,
          0.23013797402381897,
          0.3004132807254791,
          -0.0314655527472496,
          -3.4752042293548584,
          0.16187526285648346,
          -0.13267304003238678,
          -0.2936629056930542,
          -0.15748167037963867,
          0.8366295099258423,
          -0.1139633059501648,
          -0.4602447748184204,
          0.18570567667484283,
          0.1832554191350937,
          0.2346646785736084,
          -0.036143139004707336,
          -1.6739939451217651,
          -0.0578482560813427,
          -0.4563179314136505,
          -0.137190580368042,
          -0.011689768172800541,
          0.06055119261145592,
          -0.0896076187491417,
          -0.07251133769750595,
          0.03749338537454605,
          0.014823902398347855,
          -0.14822417497634888,
          0.8427618145942688,
          0.005548859480768442,
          -0.03724152222275734,
          -0.15504789352416992,
          0.12238790839910507,
          0.1364174783229828,
          -1.6447217464447021,
          0.11634265631437302,
          0.20072664320468903,
          0.18985295295715332,
          0.16601040959358215,
          -0.0020633104722946882,
          0.022421397268772125,
          0.20001617074012756,
          0.14217734336853027,
          0.1387576162815094,
          -1.4997832775115967,
          -0.028821833431720734,
          0.111595019698143,
          0.11049387603998184,
          0.1584855318069458,
          0.08684438467025757,
          0.07021395862102509,
          0.07447785139083862,
          0.23209431767463684,
          0.4035779535770416,
          -0.15693333745002747,
          0.21278727054595947,
          0.16375888884067535,
          -0.3794129192829132,
          0.13178442418575287,
          -0.029823025688529015,
          0.07926918566226959,
          0.15861617028713226,
          -0.228447824716568,
          -0.1424843817949295,
          0.2026427537202835,
          0.029973959550261497,
          -0.14357823133468628,
          -0.047429926693439484,
          -0.03286226838827133,
          5.253605365753174,
          0.11060286313295364,
          0.11535682529211044,
          0.30099761486053467,
          -0.009358611889183521,
          0.13985373079776764,
          0.20078729093074799,
          0.20314554870128632,
          0.16345848143100739,
          0.13475796580314636,
          -0.2080799788236618,
          -0.13342426717281342,
          -1.3892053365707397,
          0.1373288333415985,
          0.04080992937088013,
          -0.2168325036764145,
          0.1447993367910385,
          -0.0016285714227706194,
          -0.2970205843448639,
          -0.31390976905822754,
          -0.3722788393497467,
          -0.030318332836031914,
          0.20060913264751434,
          -0.5565155148506165,
          -0.148994579911232,
          -0.0473698191344738,
          -0.10325305908918381,
          -0.3379140794277191,
          0.18632248044013977,
          -1.0130248069763184,
          0.06465528160333633,
          0.04624950513243675,
          0.8014259338378906,
          0.1430533230304718,
          0.007419525180011988,
          0.03122115321457386,
          0.030513545498251915,
          0.0926671251654625,
          -0.04163621738553047,
          -0.5477634072303772,
          -0.002025794005021453,
          -0.7944796681404114,
          -0.03233502432703972,
          0.15540428459644318,
          0.17590229213237762,
          -0.12046244740486145,
          0.23372520506381989,
          -0.0223421398550272,
          0.5433652400970459,
          0.004502577241510153,
          0.09687429666519165,
          0.17218191921710968,
          -0.4925277829170227,
          0.1114034503698349,
          -0.5655277967453003,
          0.06709405034780502,
          0.06608954071998596,
          0.22647474706172943,
          -1.1114840507507324,
          -0.27141979336738586,
          -0.0012581045739352703,
          0.054999593645334244,
          0.10133691132068634,
          -0.06642606109380722,
          7.716251850128174,
          0.03859986737370491,
          0.2645578384399414,
          0.03979256749153137,
          -0.02255226857960224,
          -0.16596291959285736,
          -0.10136806964874268,
          0.46577849984169006,
          0.0011184001341462135,
          0.11171847581863403,
          -0.45646509528160095,
          -0.07329938560724258,
          0.2215363085269928,
          0.13076859712600708,
          -0.22319629788398743,
          0.04560248926281929,
          0.008880939334630966,
          0.059687964618206024,
          -0.05691872909665108,
          -0.0003497454454191029,
          -0.046406663954257965,
          0.029148081317543983,
          0.053106311708688736,
          -1.292644739151001,
          0.5531642436981201,
          0.3113948702812195,
          0.0602659210562706,
          -0.013837109319865704,
          0.3229951560497284,
          0.15625356137752533,
          0.1948969066143036,
          0.06273660063743591,
          -0.6200299263000488,
          0.3650147318840027,
          -1.7464269399642944,
          0.12829750776290894,
          -0.6848669648170471,
          -0.034480031579732895,
          -0.008072522468864918,
          -0.001217053970322013,
          0.2931073307991028,
          -0.10002731531858444,
          0.17836910486221313,
          0.034547604620456696,
          0.08305329829454422,
          -0.028438596054911613,
          0.4433664381504059,
          0.06540941447019577,
          -0.01201686728745699,
          0.013691272586584091,
          0.1227346807718277,
          -0.01850815676152706,
          0.036868613213300705,
          -0.3427322506904602,
          0.015296721830964088,
          0.03475400060415268,
          0.1452713906764984,
          -0.009546000510454178,
          0.22297194600105286,
          -0.058416519314050674,
          0.01661989465355873,
          -0.017290538176894188,
          0.02235071174800396,
          0.07686265558004379,
          4.761725425720215,
          -0.008518101647496223,
          0.04587782174348831,
          0.0045958952978253365,
          0.015622017905116081,
          -0.007143775466829538,
          -0.04102570191025734,
          -0.6045724749565125,
          -0.01870901882648468,
          0.05670243501663208,
          0.00040533553692512214,
          0.391475647687912,
          -0.2839406728744507,
          -0.03435530513525009,
          0.002931883791461587,
          0.2179621160030365,
          0.1647321879863739,
          0.05156421661376953,
          -0.24837559461593628,
          0.15108166635036469,
          0.6372862458229065,
          0.003121207933872938,
          -0.098649762570858,
          -1.1357567310333252,
          -0.06068969517946243,
          -0.04482891783118248,
          -0.04343400523066521,
          0.4229832887649536,
          0.02527976594865322,
          -0.31432512402534485,
          0.13853564858436584,
          -0.2856927812099457,
          1.3036136627197266,
          -0.10778118669986725,
          0.07130466401576996,
          0.010301307775080204,
          -0.05409661680459976,
          -0.6487761735916138,
          0.006509894039481878,
          0.26633599400520325,
          0.012303482741117477,
          0.2553161382675171,
          -0.07774604856967926,
          -0.49410855770111084,
          0.2581080496311188,
          0.0815056711435318,
          0.1487855166196823,
          0.059314094483852386,
          -0.14602887630462646,
          0.3031225800514221,
          -0.6929060816764832,
          0.05230431258678436,
          -0.5582021474838257,
          0.04755905643105507,
          -0.5091332793235779,
          0.04378315806388855,
          -0.029493458569049835,
          -0.3786146342754364,
          0.6142500042915344,
          0.33609965443611145,
          -0.010431507602334023,
          0.03639249503612518,
          0.10244975239038467,
          -0.07094263285398483,
          0.43861299753189087,
          0.004964358638972044,
          -0.08548858016729355,
          -0.027897797524929047,
          0.08974482119083405,
          0.13763883709907532,
          -0.17698532342910767,
          0.6672412753105164,
          -0.599361777305603,
          0.3268364667892456,
          -0.015741577371954918,
          -0.19572125375270844,
          0.3182879388332367,
          0.08716196566820145,
          -0.19909487664699554,
          0.23261447250843048,
          0.7188898921012878,
          0.027416130527853966,
          0.13103172183036804,
          0.10207102447748184,
          0.27320361137390137,
          -0.17857563495635986,
          -0.018543384969234467,
          0.4160853624343872,
          -0.06005793809890747,
          -0.09202154725790024,
          -0.05378467217087746,
          0.06694810837507248,
          0.0068763550370931625,
          -1.430012583732605,
          -0.028961189091205597,
          -0.09046632796525955,
          0.604623019695282,
          -0.022630086168646812,
          -0.03972266614437103,
          0.12289059907197952,
          0.01131158135831356,
          -0.025011736899614334,
          -0.04378555342555046,
          -0.4323101043701172,
          -0.0553351566195488,
          0.21123284101486206,
          0.07583367824554443,
          0.03967587649822235,
          0.14538297057151794,
          0.03419196233153343,
          0.06232466921210289,
          -0.19076122343540192,
          0.06953270733356476,
          -0.8174189329147339,
          -0.7401573061943054,
          -0.07692936807870865,
          0.3122527599334717,
          -0.05946745723485947,
          0.356641948223114,
          0.11553310602903366,
          0.043329525738954544,
          0.6545882225036621,
          -1.7766960859298706,
          0.02950200065970421,
          0.3820374608039856,
          -0.2150430828332901,
          0.18713155388832092,
          0.02853643335402012,
          -5.69574499130249,
          0.02393524721264839,
          -0.028056854382157326,
          0.3391147553920746,
          0.1104622334241867,
          0.41303837299346924,
          0.14050105214118958,
          0.5296037793159485,
          -0.5674248337745667,
          0.06374657899141312,
          0.19197826087474823,
          -0.05285247787833214,
          -3.628624200820923,
          -0.001892337342724204,
          0.18897077441215515,
          0.034502312541007996,
          0.10073956102132797,
          -0.019254880025982857,
          0.05552786588668823,
          -0.10574968159198761,
          0.021649645641446114,
          -0.007407870143651962,
          0.044879037886857986,
          -0.21108220517635345,
          0.20378488302230835,
          0.12874557077884674,
          0.013420052826404572,
          0.0827944427728653,
          0.6525421738624573,
          -0.9893276691436768,
          0.29646357893943787,
          0.004301891196519136,
          -0.2241375595331192,
          0.22918269038200378,
          0.6351291537284851,
          0.2942396402359009,
          0.13807900249958038,
          -0.05276380106806755,
          0.12484054267406464,
          0.12502814829349518,
          0.45321398973464966,
          -0.33026549220085144,
          0.15504571795463562,
          -0.013725334778428078,
          0.0592886246740818,
          -0.1376526802778244,
          0.7065982222557068,
          0.007280243095010519,
          -0.08139672130346298,
          0.02183488756418228,
          -0.03940281644463539,
          0.03978744149208069,
          0.16405034065246582,
          0.48501816391944885,
          0.0694209635257721,
          -0.0398087240755558,
          0.41850095987319946,
          0.08295857161283493,
          -0.5856180191040039,
          -0.022320279851555824,
          -0.005538787692785263,
          -0.0722527801990509,
          -0.14913666248321533,
          0.09421690553426743,
          -5.96360969543457,
          0.23274920880794525,
          0.09322389215230942,
          -0.12308728694915771,
          0.02438255213201046,
          -0.33780333399772644,
          0.0015941542806103826,
          -0.5684157609939575,
          -0.007801736705005169,
          0.4693065881729126,
          0.05798342451453209,
          0.32485246658325195,
          0.5154910683631897,
          -0.055440712720155716,
          -0.029198890551924706,
          0.060914650559425354,
          -0.9373672008514404,
          -0.0173424631357193,
          0.2554767429828644,
          0.06355725973844528,
          -0.010132972151041031,
          0.33575451374053955,
          -0.00167468236759305,
          -0.6807920336723328,
          0.018654098734259605,
          -0.0017922151600942016,
          0.020177166908979416,
          -0.31760621070861816,
          -0.03518795594573021,
          0.869587779045105,
          -0.084557443857193,
          0.025028102099895477,
          0.3570864200592041,
          0.15274813771247864,
          0.027120929211378098,
          0.036184124648571014,
          -0.06381363421678543,
          -0.06954463571310043,
          0.0038133205380290747,
          -1.9639010429382324,
          -0.11796461790800095,
          0.37810665369033813,
          0.07438309490680695,
          -0.10410145670175552,
          -0.1710532307624817,
          0.05455872789025307,
          -0.030546512454748154,
          -0.1056932583451271,
          0.0042428323067724705,
          -0.004848498851060867,
          0.24835900962352753,
          0.13936465978622437,
          -1.06536865234375,
          -0.014952845871448517,
          0.21881617605686188,
          -0.06353159248828888,
          0.0462791807949543,
          -0.48958495259284973,
          0.5018460750579834,
          0.008801865391433239,
          -0.26202094554901123,
          0.019105734303593636,
          -0.2939772307872772,
          0.009929771535098553,
          0.8429676294326782,
          0.11503902077674866,
          0.023195678368210793,
          -0.02374746836721897,
          -0.02611543796956539,
          -0.5554203987121582,
          -0.04032045975327492,
          0.12768614292144775,
          -0.12642459571361542,
          0.11428260058164597,
          -0.26238569617271423,
          -0.2332160472869873,
          0.1280975341796875,
          0.11153114587068558,
          0.050183095037937164,
          -0.2088785320520401,
          -0.10257706046104431,
          0.025684168562293053,
          -0.09603504091501236,
          0.018724123015999794,
          -0.19977818429470062,
          -0.04133189842104912,
          0.23563018441200256,
          0.18654751777648926,
          0.04190493002533913,
          -0.022352276369929314,
          0.07697413861751556,
          -0.11210471391677856,
          -0.08220690488815308,
          1.4251608848571777,
          0.09538391977548599,
          0.08066998422145844,
          0.03909503296017647,
          0.0002561985165812075,
          -0.040645550936460495,
          -0.0708647221326828,
          -0.006984870880842209,
          -0.040624044835567474,
          -0.08432812243700027,
          1.992861270904541,
          -0.03500202298164368,
          0.20296859741210938,
          -0.06029798090457916,
          -0.10945319384336472,
          0.09944435954093933,
          0.1118142232298851,
          -0.0843443050980568,
          -0.31997957825660706,
          -0.02464245818555355,
          -0.21207913756370544,
          0.06259943544864655,
          -0.03748113289475441,
          0.9258754253387451,
          -0.0024353887420147657,
          -0.781749963760376,
          -0.20146150887012482,
          -0.13285616040229797,
          -0.15228858590126038,
          1.4551384449005127,
          -0.0689496248960495,
          -0.07565020024776459,
          0.23445247113704681,
          0.028290729969739914,
          -0.05442678555846214,
          -4.459936618804932,
          0.0002571075747255236,
          0.24297982454299927,
          0.15892870724201202,
          -0.014231465756893158,
          0.09521175175905228,
          -0.13403546810150146,
          0.07405801862478256,
          0.043844640254974365,
          -0.07302338629961014,
          0.5477046966552734,
          -0.012990226969122887,
          -0.016240382567048073,
          0.17100924253463745,
          0.10789772123098373,
          -0.11353027075529099,
          -0.0057571097277104855,
          0.0008682599291205406,
          -0.20124801993370056,
          -0.008211170323193073,
          0.03199741989374161,
          0.44342684745788574,
          -0.36532631516456604,
          0.08070611208677292,
          0.05619398504495621,
          -0.08499927818775177,
          -0.07908707857131958,
          0.00012547255028039217,
          0.018289193511009216,
          1.3068974018096924,
          -0.042310137301683426,
          -0.08017580211162567,
          -0.1189146414399147,
          0.059950411319732666,
          -0.045368827879428864,
          0.07716984301805496,
          0.09853791445493698,
          -0.09052348881959915,
          0.40942466259002686,
          0.3716648817062378,
          0.023110639303922653,
          0.04611159861087799,
          0.026305047795176506,
          0.24936382472515106,
          0.21138505637645721,
          -0.11788052320480347,
          0.02236313931643963,
          0.5429038405418396,
          0.13059763610363007,
          0.4691125154495239,
          0.42738696932792664,
          -0.10953573137521744,
          0.070647232234478,
          -0.05620127171278,
          -0.39644959568977356,
          -0.08295631408691406,
          0.09247025847434998,
          0.011167931370437145,
          1.6045454740524292,
          -0.18450945615768433,
          0.06481533497571945,
          0.3016411066055298,
          -0.02105913870036602,
          -0.0005567526677623391,
          5.177644729614258,
          0.006308802869170904,
          -0.06345529854297638,
          0.399739533662796,
          0.0694848820567131,
          -0.008880620822310448,
          0.010851945728063583,
          0.2521532475948334,
          -0.04508137330412865,
          0.034893378615379333,
          -0.06103444844484329,
          -0.07403329014778137,
          0.2365495264530182,
          0.030900372192263603,
          -0.16964370012283325,
          0.0233164019882679,
          1.8019543886184692,
          -0.01382501982152462,
          -0.5739769339561462,
          -0.019947422668337822,
          -0.05284545570611954,
          0.06982751935720444,
          -0.10729888081550598,
          0.29364416003227234,
          -0.048345211893320084,
          0.05802725628018379,
          -0.301812082529068,
          0.10097350180149078,
          0.006488147657364607,
          2.0093095302581787,
          -0.060864370316267014,
          0.09056272357702255,
          -1.222129464149475,
          -0.05238841101527214,
          0.10306114703416824,
          -0.04601293057203293,
          -0.1548796147108078,
          0.030114496126770973,
          0.04271772876381874,
          -1.1424875259399414,
          0.003959061577916145,
          -0.5185645222663879,
          0.03299690783023834,
          0.02299094758927822,
          -0.06954699009656906,
          0.032391078770160675,
          0.008495514281094074,
          0.12126883864402771,
          -0.011941788718104362,
          -0.16162295639514923,
          -0.03536146879196167,
          0.3754875659942627,
          0.015499749220907688,
          0.04657533019781113,
          0.3910522162914276,
          0.1345508098602295,
          0.015741875395178795,
          0.4414862394332886,
          1.7787915468215942,
          0.03464024141430855,
          -0.2386930286884308,
          -0.18123210966587067,
          -0.18571825325489044,
          -0.0001744507026160136,
          6.97099494934082,
          -0.015274656936526299,
          -0.02818542718887329,
          -0.18694725632667542,
          -0.024762317538261414,
          0.06355798244476318,
          -0.008975500240921974,
          -0.7248632311820984,
          -0.08551235496997833,
          -0.028272107243537903,
          -0.03324486315250397,
          0.10584414750337601,
          -1.3872101306915283,
          0.09556055814027786,
          -0.174745112657547,
          0.11338590830564499,
          -0.3173704743385315,
          -0.04789966717362404,
          0.03005174733698368,
          0.048278652131557465,
          0.12397019565105438,
          0.3354380428791046,
          0.09257108718156815,
          0.08134762197732925,
          0.1025291383266449,
          0.0675947368144989,
          -0.10378488898277283,
          0.19962722063064575,
          0.0863468125462532,
          1.331628680229187,
          0.12899592518806458,
          -0.06850331276655197,
          0.014899490401148796,
          0.13315021991729736,
          0.053000688552856445,
          0.14246289432048798,
          0.16409920156002045,
          0.07027458399534225,
          0.08985508233308792,
          1.1014137268066406,
          -0.13592498004436493,
          0.21112538874149323,
          0.10811779648065567,
          0.03611334040760994,
          -0.11558395624160767,
          0.05761762335896492,
          0.07348094135522842,
          0.13548226654529572,
          0.10026536136865616,
          0.1293065845966339,
          -0.583418607711792,
          -0.11430114507675171,
          0.4795834720134735,
          0.1288471519947052,
          -0.26246383786201477,
          -0.11979071795940399,
          0.1309991180896759,
          -0.23892244696617126,
          2.082148313522339,
          0.03071589022874832,
          0.05655106157064438,
          0.12146414816379547,
          -0.04994393140077591,
          -0.14111170172691345,
          3.676725387573242,
          0.30469733476638794,
          0.10999850928783417,
          0.6223093867301941,
          -0.11294393986463547,
          0.1581275761127472,
          -0.017693903297185898,
          0.11715374886989594,
          -0.24257943034172058,
          0.08645666390657425,
          -0.22626665234565735,
          0.06619536876678467,
          0.1907377541065216,
          0.09723658114671707,
          0.019464842975139618,
          -0.16693322360515594,
          0.5948718786239624,
          0.12247739732265472,
          -0.20630408823490143,
          0.7133644819259644,
          0.43718937039375305,
          0.1196877658367157,
          -0.18875961005687714,
          0.36220189929008484,
          -0.06545832753181458,
          -0.16140055656433105,
          -0.1900552660226822,
          -0.051220327615737915,
          0.12240564078092575,
          1.725959062576294,
          0.09783369302749634,
          0.13868536055088043,
          1.5335888862609863,
          -0.00192836404312402,
          0.09910330921411514,
          0.14541368186473846,
          -0.011777130886912346,
          0.06980183720588684,
          -0.20471034944057465,
          0.15659558773040771,
          0.028843391686677933,
          0.5788739323616028,
          0.1285512000322342,
          -0.5001534223556519,
          0.1169605553150177,
          0.16741599142551422,
          0.29156801104545593,
          0.3460026681423187,
          -0.260181188583374,
          -0.32021772861480713,
          0.05324777215719223,
          0.017821824178099632,
          0.6072177290916443,
          0.09670104086399078,
          -0.4058285057544708,
          0.10404123365879059,
          -0.005106281489133835,
          0.3557952046394348,
          1.5740844011306763,
          -0.0689951479434967,
          0.1146918460726738,
          0.1448834240436554,
          0.21896977722644806,
          0.16974149644374847,
          4.32975435256958,
          0.11513569951057434,
          0.056567560881376266,
          -0.12681400775909424,
          0.11421375721693039,
          0.48890724778175354,
          -0.04179977998137474,
          0.9045519232749939,
          0.002570869168266654,
          0.31453076004981995,
          0.08845627307891846,
          -0.21687902510166168,
          0.07903485745191574,
          -0.07597305625677109,
          -0.1328096091747284,
          -0.3524654507637024,
          -0.01963464356958866,
          -0.1053314059972763,
          -0.10110116750001907,
          -0.4144750237464905,
          0.026149455457925797,
          -0.3983360826969147,
          0.08427123725414276,
          -0.2450464963912964,
          0.02991865947842598,
          0.024610180407762527,
          -0.24099203944206238,
          0.26972660422325134,
          -0.02839127741754055,
          0.3326869010925293,
          0.05809556320309639,
          0.08483728021383286,
          0.12401726841926575,
          0.0648878663778305,
          -0.03265376389026642,
          -0.002066252753138542,
          0.029171224683523178,
          0.5769922137260437,
          0.048257771879434586,
          4.585944175720215,
          -0.027955885976552963,
          0.6842890977859497,
          -0.007199769839644432,
          -0.11866297572851181,
          -0.08599138259887695,
          -0.09176944941282272,
          -0.033516380935907364,
          -0.0758107602596283,
          -0.5014787316322327,
          -0.18571943044662476,
          -0.41448071599006653,
          0.1914082020521164,
          0.15812377631664276,
          0.012406101450324059,
          -0.03760270029306412,
          0.37211883068084717,
          -0.04030374437570572,
          -0.1606299728155136,
          0.20768336951732635,
          -0.0445014052093029,
          0.16488255560398102,
          -0.23276154696941376,
          -0.11529096215963364,
          0.029725724831223488,
          1.4908854961395264,
          0.036602724343538284,
          -0.14280493557453156,
          -0.05430657044053078,
          0.030934220179915428,
          -0.24591349065303802,
          -0.06166619807481766,
          -0.2723902761936188,
          -0.2910047173500061,
          -0.05477580800652504,
          0.33581823110580444,
          -0.0007558910874649882,
          1.2909810543060303,
          0.05256413668394089,
          0.23160631954669952,
          0.16039784252643585,
          0.1519109457731247,
          -0.010247588157653809,
          0.14571090042591095,
          -0.06895830482244492,
          0.04696765914559364,
          0.12535099685192108,
          -0.11369584500789642,
          0.012288759462535381,
          0.03380236029624939,
          -0.0738748088479042,
          0.033287204802036285,
          0.5073977112770081,
          0.20301297307014465,
          -1.2231395244598389,
          0.018244551494717598,
          0.07736194133758545,
          0.34146848320961,
          0.14039242267608643,
          0.06238546967506409,
          0.045930005609989166,
          0.1667834222316742,
          -0.21186083555221558,
          0.43185368180274963,
          0.44619235396385193,
          0.10411818325519562,
          0.18219192326068878,
          0.03253620117902756,
          0.3025965392589569,
          0.1826382726430893,
          -0.16353464126586914,
          0.24153026938438416,
          0.23480121791362762,
          -0.049711305648088455,
          -0.04830944910645485,
          -0.1584199219942093,
          0.011431601829826832,
          0.15416468679904938,
          0.11602833867073059,
          -0.2521522641181946,
          -0.14300206303596497,
          0.13803134858608246,
          0.2258564829826355,
          -2.2836549282073975,
          0.09110087156295776,
          0.05056144669651985,
          0.03436660021543503,
          -0.1796122044324875,
          0.1759318709373474,
          4.557093620300293,
          0.07731515914201736,
          0.06665287911891937,
          0.07177243381738663,
          0.10975665599107742,
          -0.30949756503105164,
          0.09271305054426193,
          -0.28074124455451965,
          -0.031127598136663437,
          0.023475591093301773,
          -0.31583061814308167,
          0.047387268394231796,
          1.033753752708435,
          0.06644884496927261,
          -0.03468651324510574,
          0.13406524062156677,
          -0.23246993124485016,
          -0.025953279808163643,
          0.01581842266023159,
          -0.010462776757776737,
          0.2930521070957184,
          0.15070287883281708,
          0.12631897628307343,
          -0.11201734840869904,
          -0.04131030663847923,
          0.021038521081209183,
          0.05819902941584587,
          -0.03867190703749657,
          0.15362747013568878,
          0.6102297306060791,
          0.03477072715759277,
          -0.00450861407443881,
          -0.40420353412628174,
          -0.01766449585556984,
          0.09324806928634644,
          0.11436482518911362,
          0.05199602618813515,
          0.03834635391831398,
          0.03145477920770645,
          -0.5994581580162048,
          0.09198411554098129,
          0.080485038459301,
          0.03838718309998512,
          -0.059567540884017944,
          -0.05926135182380676,
          0.08830392360687256,
          0.19903147220611572,
          0.11589628458023071,
          -0.025252871215343475,
          0.43347978591918945,
          0.6191850304603577,
          0.032231830060482025,
          -0.2884751856327057,
          0.0449984110891819,
          -0.11881721019744873,
          -0.21979571878910065,
          0.07842092961072922,
          -0.17549514770507812,
          0.9403380751609802,
          0.05730801075696945,
          -0.05170491337776184,
          0.18292072415351868,
          -0.040214624255895615,
          0.0654723271727562,
          9.346864700317383,
          0.0384979322552681,
          -0.09382233023643494,
          -0.049031149595975876,
          0.025135282427072525,
          0.007329193875193596,
          0.06976943463087082,
          -0.01953827776014805,
          0.29134318232536316,
          0.06465675681829453,
          -0.12293651700019836,
          0.11169087141752243,
          -0.24130292236804962,
          0.05521009489893913,
          -0.2081698179244995,
          0.028361275792121887,
          0.0007361839525401592,
          0.03465179726481438,
          -0.062116023153066635,
          0.004614909645169973,
          0.03255743160843849,
          -0.001937670516781509,
          -0.017664603888988495,
          -0.3827551007270813,
          0.3859560191631317,
          -0.03749791532754898,
          0.04723624885082245,
          -0.025493036955595016,
          0.30563414096832275,
          -0.27612027525901794,
          0.45324429869651794,
          0.017263401299715042,
          0.6715618371963501,
          -0.4615068733692169,
          0.11022447794675827,
          0.050009794533252716,
          0.034714773297309875,
          -0.01952538825571537,
          0.0342160128057003,
          0.022373942658305168,
          0.5982986092567444,
          0.0234117079526186,
          -0.07693526893854141,
          0.02571025863289833,
          -0.12843161821365356,
          -0.11733657866716385,
          -0.14218564331531525,
          -0.019731886684894562,
          0.0699516087770462,
          -0.13011310994625092,
          0.016701590269804,
          -0.019957032054662704,
          0.046523526310920715,
          0.2968662679195404,
          -0.010580755770206451,
          -0.00574485445395112,
          0.0743236392736435,
          -0.0030749612487852573,
          -0.12353882193565369,
          0.08625790476799011,
          0.029054077342152596,
          0.0455489456653595,
          -0.0021772554609924555,
          -0.08298176527023315,
          3.2909436225891113,
          0.4708017110824585,
          0.004509015008807182,
          0.004217679612338543,
          -0.046371761709451675,
          0.0010048908879980445,
          0.034719403833150864,
          0.27412688732147217,
          -0.010448488406836987,
          -0.4517042338848114,
          0.03210734575986862,
          -0.7399378418922424,
          -0.002752681728452444,
          0.03829863667488098,
          0.14172890782356262,
          0.14382842183113098,
          -0.15183016657829285,
          0.10246510803699493,
          -0.15229545533657074,
          0.10127831250429153,
          -0.04357367753982544,
          -0.058925654739141464,
          -0.06308414787054062,
          0.076585553586483,
          0.03917195275425911,
          0.0360124334692955,
          -0.11062392592430115,
          -0.07550373673439026,
          0.23944777250289917,
          1.5403298139572144,
          0.04074321687221527,
          0.14266857504844666,
          0.3860287666320801,
          0.019425934180617332,
          0.1685185581445694,
          0.0298752598464489,
          0.004273159429430962,
          -0.10991336405277252,
          0.051203653216362,
          0.17498715221881866,
          0.14078021049499512,
          0.042811524122953415,
          0.0034954436123371124,
          0.23578666150569916,
          0.10913129895925522,
          0.020434394478797913,
          0.16799364984035492,
          0.4280535578727722,
          -0.6602527499198914,
          -0.14264747500419617,
          -0.3801082968711853,
          0.14780233800411224,
          0.019053621217608452,
          0.06171371415257454,
          0.05836610123515129,
          -0.11231032013893127,
          0.06989080458879471,
          -0.1420954167842865,
          1.4666835069656372,
          0.04504624754190445,
          0.31526467204093933,
          -0.012439850717782974,
          -0.08288422226905823,
          -0.06308120489120483,
          4.105618000030518,
          0.015987427905201912,
          0.21417473256587982,
          0.22965697944164276,
          -0.001252160407602787,
          0.112930066883564,
          0.13853372633457184,
          -0.22452056407928467,
          0.121442511677742,
          0.21949495375156403,
          0.11118180304765701,
          -0.00989735871553421,
          -1.0765968561172485,
          0.09174031019210815,
          -0.010060186497867107,
          -0.13696511089801788,
          0.3203256130218506,
          -0.08836740255355835,
          0.17280520498752594,
          0.19230873882770538,
          0.06745430082082748,
          0.021192731335759163,
          -0.18380749225616455,
          -0.19548963010311127,
          0.005936539266258478,
          0.005138793028891087,
          -0.10797000676393509,
          0.2987145781517029,
          0.12751035392284393,
          -0.9721371531486511,
          -0.047353070229291916,
          0.01311592198908329,
          1.1742526292800903,
          -0.020298520103096962,
          0.10579116642475128,
          0.07362590730190277,
          0.0633721798658371,
          -0.082560233771801,
          0.11350561678409576,
          0.14150750637054443,
          0.10092756897211075,
          -0.23985983431339264,
          0.016245033591985703,
          0.5101927518844604,
          0.19908075034618378,
          -0.1628262996673584,
          0.16806486248970032,
          0.11356819421052933,
          0.05033436417579651,
          0.27126774191856384,
          -0.35875871777534485,
          0.08458280563354492,
          0.8021641969680786,
          -0.0069345212541520596,
          0.16341720521450043,
          0.11451569944620132,
          0.09842074662446976,
          0.3559146225452423,
          -1.3348724842071533,
          0.08956913650035858,
          -0.08598913252353668,
          -0.1876482218503952,
          0.12426804006099701,
          -0.01609034650027752,
          -9.332359313964844,
          0.06306466460227966,
          -0.23590147495269775,
          -0.19917361438274384,
          -0.07029090821743011,
          0.008956854231655598,
          0.05208689346909523,
          0.3900759518146515,
          -0.03284057229757309,
          0.14105863869190216,
          -0.3933572471141815,
          -0.012188051827251911,
          -0.023409748449921608,
          -0.14733245968818665,
          -0.03789661452174187,
          0.023100875318050385,
          0.6354616284370422,
          0.10079538077116013,
          0.003655752632766962,
          0.2607708275318146,
          -0.3037748336791992,
          -0.06529482454061508,
          0.23451727628707886,
          1.1833393573760986,
          -0.016665419563651085,
          -0.18929433822631836,
          -0.0005731147830374539,
          -0.28611353039741516,
          0.14808887243270874,
          -0.6879847645759583,
          0.14340326189994812,
          0.019034164026379585,
          -1.6440612077713013,
          0.05982265993952751,
          0.026157088577747345,
          0.01918971724808216,
          0.122171550989151,
          0.092567577958107,
          0.2108481228351593,
          -1.1652171611785889,
          0.02612464688718319,
          0.1447087973356247,
          -0.013072948902845383,
          -0.48784542083740234,
          -0.2910231053829193,
          -0.13880187273025513,
          0.17184628546237946,
          0.013246063143014908,
          0.3896368443965912,
          0.03614204376935959,
          -0.29076531529426575,
          0.11383120715618134,
          0.1589401215314865,
          0.07605519890785217,
          -0.10500644892454147,
          0.08876560628414154,
          0.09839044511318207,
          0.49492812156677246,
          -1.4084041118621826,
          -0.05537103861570358,
          0.03114863485097885,
          0.4410453736782074,
          0.04227491468191147,
          0.031205493956804276,
          0.2248748540878296,
          0.03342342749238014,
          -0.14472463726997375,
          0.11243969202041626,
          0.13116683065891266,
          0.04317139834165573,
          0.02547280862927437,
          -1.0324712991714478,
          -0.08931247144937515,
          0.0648762583732605,
          0.28098464012145996,
          0.04430241882801056,
          -0.019687721505761147,
          0.025461431592702866,
          -0.1557273119688034,
          -0.0027555618435144424,
          -0.15725986659526825,
          -0.03220691159367561,
          -0.05456463247537613,
          -0.14530335366725922,
          -0.12489419430494308,
          0.4172983467578888,
          0.4740326702594757,
          0.4343128204345703,
          0.06158941239118576,
          0.0034625213593244553,
          -5.6361208407906815e-05,
          -0.38923296332359314,
          0.19177155196666718,
          1.1436103582382202,
          0.021483082324266434,
          -0.36754879355430603,
          -0.4955734610557556,
          0.14367565512657166,
          0.1211809292435646,
          0.2208373099565506,
          0.15209290385246277,
          -0.11009485274553299,
          0.024331390857696533,
          0.4681614935398102,
          0.10146161168813705,
          0.06328798085451126,
          0.07666000723838806,
          -0.2078811079263687,
          -0.17985899746418,
          -0.15113139152526855,
          0.26236116886138916,
          0.13951103389263153,
          0.22728899121284485,
          0.6944437623023987,
          0.010846495628356934,
          -0.179477721452713,
          -0.2086964249610901,
          0.04411081597208977,
          -0.21240359544754028,
          -0.2589653432369232,
          0.16466094553470612,
          -0.11771740764379501,
          3.200336217880249,
          0.06244843080639839,
          -0.07306617498397827,
          0.2634682357311249,
          -0.1183169037103653,
          0.10914230346679688,
          -3.982081174850464,
          0.1339477002620697,
          -0.2761211693286896,
          0.17152294516563416,
          0.15718546509742737,
          -0.01707467809319496,
          0.09077654033899307,
          -0.4851871132850647,
          0.1790209710597992,
          0.09415344148874283,
          -0.17725259065628052,
          0.0068301125429570675,
          0.03912823274731636,
          -0.29294201731681824,
          0.0026923574041575193,
          0.3961641788482666,
          -0.23156747221946716,
          0.06154247745871544,
          -0.2569105923175812,
          -0.866119921207428,
          0.2691110074520111,
          -0.059077948331832886,
          0.01619126833975315,
          0.2770877778530121,
          0.04014643281698227,
          -0.03640228137373924,
          0.02487385831773281,
          -0.5013876557350159,
          -0.078327976167202,
          1.7996302843093872,
          -0.04321952536702156,
          0.02671097032725811,
          -0.3529224395751953,
          -0.05881693959236145,
          -0.012402884662151337,
          0.004578719846904278,
          0.03459404036402702,
          0.0954444631934166,
          -0.013073232024908066,
          -2.8904829025268555,
          -0.07071775943040848,
          -0.19447045028209686,
          -0.06628894805908203,
          0.15821659564971924,
          -0.16236677765846252,
          0.0442490316927433,
          0.029043972492218018,
          -0.26828527450561523,
          0.041883036494255066,
          0.3483011722564697,
          -0.11592306941747665,
          0.08925019949674606,
          1.006631851196289,
          -0.05683000758290291,
          0.5315322279930115,
          0.056291837245225906,
          -0.011400843039155006,
          0.4616331458091736,
          0.46816930174827576,
          0.14834634959697723,
          -0.16513237357139587,
          -0.028786437585949898,
          0.026483461260795593,
          0.08826051652431488,
          -1.8442825078964233,
          0.09109644591808319,
          -0.1572275310754776,
          -0.10641813278198242,
          0.00853289756923914,
          -0.0685654878616333,
          0.020778441801667213,
          -0.23567114770412445,
          0.03431021422147751,
          -0.049591440707445145,
          0.14170876145362854,
          -0.014444137923419476,
          -3.248502492904663,
          0.0492994524538517,
          -0.044587697833776474,
          -0.07284814119338989,
          -0.4299333393573761,
          0.11384527385234833,
          0.15417836606502533,
          -0.4413073658943176,
          0.34497690200805664,
          0.13713863492012024,
          -0.08872199803590775,
          0.9053162932395935,
          -0.03656122833490372,
          -0.01695534773170948,
          -0.1175842359662056,
          0.06522754579782486,
          0.010299630463123322,
          2.5083611011505127,
          0.05938422679901123,
          0.020422667264938354,
          0.27609437704086304,
          -0.01214445848017931,
          -0.020934520289301872,
          -0.009458813816308975,
          0.003211007919162512,
          0.3011041283607483,
          0.15140362083911896,
          -2.885625123977661,
          -0.020772701129317284,
          0.517808735370636,
          -0.02011013962328434,
          -0.11867783218622208,
          0.13163234293460846,
          0.049319129437208176,
          0.033028896898031235,
          0.11457016319036484,
          0.4390924274921417,
          0.09391243010759354,
          0.009886314161121845,
          0.08956286311149597,
          3.196013927459717,
          0.035782281309366226,
          0.27844980359077454,
          0.15703469514846802,
          -0.009904439561069012,
          0.25834816694259644,
          1.9184092283248901,
          0.08897466957569122,
          0.3074517846107483,
          0.049000322818756104,
          0.271884024143219,
          0.01686849817633629,
          -0.5393506288528442,
          -0.00043760481639765203,
          0.03216079995036125,
          -0.02160768210887909,
          -0.01256610732525587,
          -0.2502114772796631,
          0.0878748819231987,
          0.29250213503837585,
          -0.23142805695533752,
          0.04686499387025833,
          -0.126007542014122,
          -0.016383420675992966,
          0.5342769026756287,
          0.07674562931060791,
          -0.2303580641746521,
          -0.16592217981815338,
          -0.613978922367096,
          -0.02072066068649292,
          -0.14836342632770538,
          1.1379989385604858,
          -0.009786467999219894,
          0.08623170852661133,
          -0.17803815007209778,
          -0.18963654339313507,
          -0.22631627321243286,
          -0.02552657201886177,
          0.08275683224201202,
          -0.05719543993473053,
          -0.16270232200622559,
          -1.0199817419052124,
          0.05507783591747284,
          -0.08382914215326309,
          -0.39265111088752747,
          -0.10664597898721695,
          -0.11459415405988693,
          -0.34638112783432007,
          -0.25162214040756226,
          -0.19489115476608276,
          -0.04321250319480896,
          0.13773037493228912,
          -0.15259526669979095,
          -0.369741827249527,
          -0.13547758758068085,
          -0.02972385659813881,
          0.08708356320858002,
          0.2643013000488281,
          -0.13625426590442657,
          -0.07398395240306854,
          -0.2739996910095215,
          0.41565951704978943,
          0.2431963086128235,
          0.41563302278518677,
          -0.25189387798309326,
          0.044419482350349426,
          -0.009326610714197159,
          -0.0802091732621193,
          -0.2730993926525116,
          0.321534126996994,
          -0.5682030916213989,
          0.08091156929731369,
          -0.05254271999001503,
          -0.08170507103204727,
          -0.2678428590297699,
          0.15448680520057678,
          3.343169927597046,
          -0.18512043356895447,
          0.07032071799039841,
          -0.08454147726297379,
          0.08789736032485962,
          0.0661197230219841,
          -0.01047328021377325,
          -0.7139475345611572,
          -0.050929438322782516,
          -0.14970707893371582,
          0.17162230610847473,
          -0.04604538530111313,
          -0.38102439045906067,
          -0.24978837370872498,
          -0.04113448038697243,
          0.03953078016638756,
          0.3297073245048523,
          0.08834268152713776,
          -0.08116329461336136,
          0.2593287229537964,
          0.2680588364601135,
          0.011690191924571991,
          -0.018814416602253914,
          -0.30816349387168884,
          0.0717245563864708,
          0.08741381019353867,
          -0.12652471661567688,
          -0.05754491686820984,
          -0.03921527788043022,
          -0.6885353922843933,
          -0.08000341802835464,
          0.05374550819396973,
          0.5532132387161255,
          0.06048204377293587,
          0.061852045357227325,
          0.09502995014190674,
          -0.02793426811695099,
          -0.07262592762708664,
          0.1570436656475067,
          -0.17713159322738647,
          0.024366917088627815,
          0.7832274436950684,
          0.038365524262189865,
          0.1811731606721878,
          -0.05969363823533058,
          -0.06241649016737938,
          -0.012933820486068726,
          0.20123308897018433,
          0.13444648683071136,
          -0.08528033643960953,
          0.10574223101139069,
          0.2816886901855469,
          0.3955326974391937,
          0.023875992745161057,
          -0.09399884194135666,
          0.13238351047039032,
          0.11691399663686752,
          0.1601792722940445,
          -0.9073190689086914,
          -0.024294180795550346,
          -0.06382230669260025,
          0.09935089200735092,
          -0.2596070468425751,
          -0.02059231512248516,
          9.939824104309082,
          0.013472185470163822,
          0.05948230251669884,
          0.6785205006599426,
          -0.057902321219444275,
          0.00931743998080492,
          0.04584308713674545,
          0.8080671429634094,
          0.2681907117366791,
          0.03979229927062988,
          -0.24470597505569458,
          0.0144133809953928,
          0.3090759813785553,
          0.040922969579696655,
          -0.06561454385519028,
          0.05582861974835396,
          -0.21371200680732727,
          -0.03466492146253586,
          -0.018045421689748764,
          -0.052146345376968384,
          0.14933979511260986,
          -0.07240007817745209,
          0.16883879899978638,
          0.392118364572525,
          0.0953027755022049,
          0.0022210751194506884,
          0.1812899112701416,
          -0.16339191794395447,
          0.11609052121639252,
          0.1744261234998703,
          0.0023964359425008297,
          0.08983395993709564,
          -0.30442944169044495,
          0.08236026763916016,
          0.11486805230379105,
          0.1561875194311142,
          0.12864243984222412,
          0.14464138448238373,
          -0.1576535701751709,
          -0.8926297426223755,
          0.08734005689620972,
          -0.5303739309310913,
          0.06345655024051666,
          0.012864574790000916,
          -0.1056612953543663,
          0.07543475925922394,
          0.17683552205562592,
          -0.2347283661365509,
          0.09477663040161133,
          0.41306543350219727,
          0.1419346183538437,
          0.024113986641168594,
          -0.473635196685791,
          0.02782091684639454,
          -0.09290025383234024,
          -0.06380937248468399,
          0.12393797188997269,
          -0.02691543661057949,
          -0.01775839738547802,
          0.10201338678598404,
          -0.12133174389600754,
          -0.30094605684280396,
          -0.0824258029460907,
          0.03855280578136444,
          9.655508995056152,
          0.13024766743183136,
          0.044377997517585754,
          0.24125702679157257,
          0.046081528067588806,
          -0.05666361749172211,
          0.10434351116418839,
          -0.37909334897994995,
          0.09862218797206879,
          0.03822905942797661,
          0.10053177177906036,
          0.05696854740381241,
          -0.4881160855293274,
          0.12964153289794922,
          0.14077284932136536,
          0.005483446177095175,
          -0.22703221440315247,
          -0.1090957522392273,
          -0.0901046171784401,
          -0.02329106256365776,
          0.14398950338363647,
          0.19168199598789215,
          0.06742686033248901,
          0.6168856024742126,
          0.06500907242298126,
          0.043523479253053665,
          -0.08254391700029373,
          -0.4222511649131775,
          0.2295835167169571,
          1.4740017652511597,
          0.05865781381726265,
          -0.3511951267719269,
          -0.06444993615150452,
          0.11082985252141953,
          0.17054441571235657,
          0.18157343566417694,
          0.12420593202114105,
          -0.06713832169771194,
          0.09365130960941315,
          0.5198835730552673,
          0.09395182132720947,
          0.5261087417602539,
          0.119556725025177,
          -0.1332198530435562,
          -0.07383472472429276,
          -0.18688951432704926,
          0.24648171663284302,
          0.1605314165353775,
          0.15034140646457672,
          0.3409688472747803,
          0.10235075652599335,
          0.012154120951890945,
          0.291089802980423,
          0.10992125421762466,
          -0.2996084690093994,
          -0.01974155381321907,
          0.16201922297477722,
          -0.20251983404159546,
          2.5139920711517334,
          0.056951433420181274,
          -0.09742333739995956,
          0.017529843375086784,
          -0.003680093912407756,
          0.03918582573533058,
          -8.697646141052246,
          0.18651801347732544,
          -0.39611682295799255,
          -0.179951012134552,
          0.018088113516569138,
          -0.08578738570213318,
          0.09939640015363693,
          -0.08381346613168716,
          0.12138361483812332,
          0.10195717960596085,
          -0.04415362700819969,
          0.12114625424146652,
          -0.3444632887840271,
