{
  "model": {
    "layers": [
      {
        "in_features": 8,
        "out_features": 12,
        "weights": [
          -0.5451873540878296,
          0.38704878091812134,
          0.7984975576400757,
          0.011767172254621983,
          -0.040751244872808456,
          0.1099260076880455,
          -0.046943508088588715,
          0.18961022794246674,
          0.7419837713241577,
          0.2274753451347351,
          0.012488589622080326,
          -0.024809423834085464,
          -0.1882229596376419,
          0.22922122478485107,
          -0.1617298722267151,
          0.4607117176055908,
          -0.06924528628587723,
          0.04475041851401329,
          0.3555169403553009,
          -0.12074420601129532,
          -0.24888193607330322,
          -0.2950732409954071,
          -0.8458930253982544,
          -0.22655731439590454,
          -0.514626681804657,
          -0.29944396018981934,
          0.04232946038246155,
          -0.2465808093547821,
          -0.5013654828071594,
          0.3425219655036926,
          -0.3758643567562103,
          -0.4463977813720703,
          0.14360448718070984,
          -0.5997291207313538,
          -0.13723181188106537,
          -0.43048086762428284,
          -0.2854354977607727,
          -0.1859104484319687,
          -0.49241480231285095,
          -0.28528517484664917,
          -0.2420601099729538,
          -0.3406456410884857,
          -0.8453565239906311,
          0.5355947017669678,
          0.00547846220433712,
          -0.06709293276071548,
          0.24491526186466217,
          -0.5438531041145325,
          -0.7266960740089417,
          -0.35271522402763367,
          0.290103018283844,
          -0.10945026576519012,
          0.0930355116724968,
          0.2054157257080078,
          -0.3390231728553772,
          -0.1962174028158188,
          0.006697556469589472,
          -0.5596573948860168,
          0.20918118953704834,
          -0.23082417249679565,
          0.07669508457183838,
          -0.11523899435997009,
          -0.4503590762615204,
          -0.045630183070898056,
          0.12129630893468857,
          -0.25410738587379456,
          -0.9178232550621033,
          -0.010774173773825169,
          0.1455107182264328,
          -0.4865589141845703,
          0.2155407816171646,
          -0.5187844038009644,
          0.3608968257904053,
          -0.7936588525772095,
          -1.2282135486602783,
          0.12422771006822586,
          -0.27431538701057434,
          -0.15710748732089996,
          0.17149315774440765,
          -0.6568834781646729,
          -0.21487872302532196,
          0.5560562610626221,
          0.2196420133113861,
          0.0017170201754197478,
          0.06719742715358734,
          -0.33501651883125305,
          0.44033753871917725,
          -0.061957888305187225,
          0.9593687653541565,
          -0.024354685097932816,
          -0.26692599058151245,
          -0.27700892090797424,
          0.31314027309417725,
          -0.1479988694190979,
          0.38020777702331543,
          0.3141534924507141
        ],
        "bias": [
          -0.019582599401474,
          0.021049220114946365,
          -0.34522464871406555,
          -0.0001580890966579318,
          0.2780528962612152,
          -0.3419133722782135,
          -0.1737014353275299,
          -0.16578584909439087,
          -0.3218728005886078,
          -0.35432127118110657,
          0.20544612407684326,
          0.22722485661506653
        ]
      },
      {
        "in_features": 20,
        "out_features": 64,
        "weights": [
          0.1717647910118103,
          0.15073956549167633,
          0.4967091977596283,
          0.575062096118927,
          0.5479973554611206,
          -0.5257911682128906,
          -0.1620541214942932,
          0.11484693735837936,
          -0.07662415504455566,
          0.09877274185419083,
          0.07446189969778061,
          0.014864004217088223,
          -0.0327896811068058,
          -0.011861822567880154,
          -0.004325672052800655,
          -0.1463785022497177,
          0.008620602078735828,
          0.05648602172732353,
          -0.020071135833859444,
          -0.04557216912508011,
          0.03380434215068817,
          0.07707777619361877,
          0.0003987148520536721,
          0.10567232221364975,
          -0.12677240371704102,
          0.0806492418050766,
          0.023723959922790527,
          0.027832025662064552,
          0.7921835780143738,
          0.017895078286528587,
          1.0151113271713257,
          -0.012790277600288391,
          0.0012009034398943186,
          0.018313730135560036,
          -0.7546632289886475,
          0.6307777166366577,
          0.48763495683670044,
          0.006286351475864649,
          -0.012159522622823715,
          0.012860989198088646,
          0.050057556480169296,
          0.38568392395973206,
          0.0004990705056115985,
          -0.5268301963806152,
          0.18069744110107422,
          0.10439654439687729,
          0.34113526344299316,
          -0.11190468072891235,
          0.14990705251693726,
          -0.03619083762168884,
          0.06540212035179138,
          0.16664524376392365,
          -0.05134874954819679,
          -0.022702760994434357,
          0.05493919923901558,
          -0.03061171993613243,
          -0.15736174583435059,
          -0.059745799750089645,
          0.1401079297065735,
          -0.05582955852150917,
          0.013223988004028797,
          0.0714251771569252,
          0.027454111725091934,
          0.02745947800576687,
          -0.033630311489105225,
          -0.10899409651756287,
          0.009034154005348682,
          0.12742963433265686,
          -0.1397898644208908,
          -0.09757929295301437,
          -0.35396453738212585,
          0.564727783203125,
          0.1326623111963272,
          0.946422278881073,
          0.14862589538097382,
          0.03649378940463066,
          -0.07259690016508102,
          -0.5465112328529358,
          0.24633148312568665,
          0.31792762875556946,
          0.1614764928817749,
          -0.3457372188568115,
          0.3103056252002716,
          -0.16341087222099304,
          0.047352056950330734,
          0.09824109822511673,
          0.3528405725955963,
          0.1273886114358902,
          -0.05784986540675163,
          -0.04056154191493988,
          -0.23228247463703156,
          0.08749948441982269,
          -0.04422913119196892,
          -0.09727095067501068,
          0.013146997429430485,
          0.12394832819700241,
          0.006783244200050831,
          0.03421502932906151,
          0.06995394080877304,
          -0.11907598376274109,
          -0.33480244874954224,
          -0.07284504920244217,
          -0.2522365152835846,
          -0.09591205418109894,
          -0.4085483253002167,
          -0.13947859406471252,
          0.009419943206012249,
          0.34682968258857727,
          -0.106547512114048,
          0.06385178864002228,
          -0.1072225347161293,
          -0.07950057834386826,
          0.15184813737869263,
          0.028358370065689087,
          0.006756204180419445,
          -0.07656959444284439,
          -0.02305861935019493,
          -0.03440813347697258,
          -0.1815951019525528,
          -0.04862571135163307,
          -0.1405467838048935,
          0.08704837411642075,
          -0.30219942331314087,
          0.04766390472650528,
          0.22386492788791656,
          -0.21756292879581451,
          -0.303695410490036,
          0.1938381791114807,
          0.05702287331223488,
          -0.019700640812516212,
          -0.025457987561821938,
          0.029952308163046837,
          -0.0027504542376846075,
          0.04260890930891037,
          0.14816631376743317,
          0.14551645517349243,
          -0.021010927855968475,
          0.16054700314998627,
          0.09532076865434647,
          0.010080086998641491,
          -0.09460759162902832,
          -0.5982994437217712,
          0.31955182552337646,
          0.104929119348526,
          -0.10216812044382095,
          0.24767650663852692,
          0.5455623865127563,
          -0.2999440133571625,
          0.09220027923583984,
          0.02468513883650303,
          -0.0017211553640663624,
          0.12168276309967041,
          0.0391375906765461,
          -0.1290082335472107,
          -0.024944176897406578,
          -0.012932871468365192,
          -0.1057046502828598,
          -0.08634134382009506,
          0.06091642752289772,
          -0.14363260567188263,
          0.11895779520273209,
          -0.14742383360862732,
          -0.262520968914032,
          -0.09934941679239273,
          -0.7029305100440979,
          0.2525937557220459,
          0.031490765511989594,
          0.11094281822443008,
          0.018503451719880104,
          0.12388523668050766,
          0.12256405502557755,
          -0.017063714563846588,
          -0.09222356230020523,
          -0.2027144879102707,
          -0.04768664762377739,
          -0.14558862149715424,
          -0.06278666853904724,
          0.05978959798812866,
          0.10294575244188309,
          -0.03378746658563614,
          -0.0667283684015274,
          0.22985130548477173,
          0.1383473128080368,
          -0.12344911694526672,
          -0.25365322828292847,
          -0.24081966280937195,
          0.21901863813400269,
          0.23113255202770233,
          -0.1607150137424469,
          0.07084664702415466,
          0.2856343686580658,
          -0.07335026562213898,
          -0.06805028766393661,
          -0.16891038417816162,
          0.060374561697244644,
          -0.39926376938819885,
          0.07614103704690933,
          -0.012901791371405125,
          -0.03724789246916771,
          0.017699232324957848,
          0.12471241503953934,
          0.03703249618411064,
          -0.10581621527671814,
          -0.15333272516727448,
          0.14308401942253113,
          0.31111565232276917,
          0.054307516664266586,
          0.05455430597066879,
          -0.09637872129678726,
          0.41604888439178467,
          0.0961432084441185,
          -0.11813361942768097,
          0.3806841969490051,
          -0.06991899758577347,
          0.14419527351856232,
          0.03708263859152794,
          0.016213830560445786,
          0.1066986694931984,
          0.16209077835083008,
          0.05164124816656113,
          0.03217707574367523,
          0.05868116766214371,
          0.020923934876918793,
          0.04857407882809639,
          -0.07037528604269028,
          0.06064622849225998,
          0.047895777970552444,
          0.03873369097709656,
          -0.34168365597724915,
          0.3142967224121094,
          0.3358399271965027,
          -0.3413451015949249,
          0.30449265241622925,
          0.32494091987609863,
          0.10990288853645325,
          0.3040812909603119,
          -0.2550627291202545,
          0.11460033804178238,
          0.31481698155403137,
          -0.25411930680274963,
          -0.09935726225376129,
          -0.6634629964828491,
          0.1062505766749382,
          0.23374374210834503,
          0.1170019879937172,
          0.5983051061630249,
          0.21132934093475342,
          0.22005148231983185,
          0.22374407947063446,
          0.04195810854434967,
          0.16731347143650055,
          0.2350885272026062,
          0.023379148915410042,
          0.15796548128128052,
          -0.22229604423046112,
          0.15783004462718964,
          0.046146899461746216,
          -0.2104019671678543,
          0.17114822566509247,
          0.03696195036172867,
          0.3231380879878998,
          0.48488420248031616,
          0.2410721480846405,
          -0.12379385530948639,
          0.04829959198832512,
          -0.5943618416786194,
          -0.07741110771894455,
          0.17156745493412018,
          -0.01880190521478653,
          -0.08208390325307846,
          -0.13191190361976624,
          -0.12261620163917542,
          0.03435370698571205,
          -0.06316910684108734,
          0.09031500667333603,
          -0.09547259658575058,
          -0.10415027290582657,
          -0.07674630731344223,
          -0.08034105598926544,
          0.08903943747282028,
          -0.04014240577816963,
          -0.020541774109005928,
          0.00812561810016632,
          -0.025677615776658058,
          0.030850699171423912,
          -0.05347222089767456,
          -0.02456851676106453,
          -0.04901208356022835,
          0.059633295983076096,
          0.693446934223175,
          0.03989556059241295,
          0.06303025037050247,
          0.6820662617683411,
          0.01630573160946369,
          0.30020371079444885,
          0.2329861968755722,
          0.06345057487487793,
          0.3016601800918579,
          0.25176745653152466,
          0.060530077666044235,
          -0.08799528330564499,
          -0.27538031339645386,
          0.1999683380126953,
          0.00964184571057558,
          0.14828523993492126,
          -0.1579994410276413,
          -0.09405668824911118,
          0.006804459262639284,
          -0.17557837069034576,
          0.006029966287314892,
          -0.29108932614326477,
          -0.10857146233320236,
          -0.05717133730649948,
          -0.3871445655822754,
          0.12326329201459885,
          -0.08757306635379791,
          -0.09517497569322586,
          0.13697899878025055,
          0.0021991459652781487,
          -0.1543734222650528,
          0.07314511388540268,
          -0.02642825059592724,
          0.22123344242572784,
          0.24615119397640228,
          0.5369999408721924,
          -0.1199142187833786,
          -0.025005443021655083,
          -0.1599334180355072,
          -0.12230394035577774,
          0.04003883898258209,
          0.013679403811693192,
          -0.07407433539628983,
          0.024627143517136574,
          0.1414126455783844,
          -0.0073229060508310795,
          -0.041678935289382935,
          0.10621865093708038,
          -0.02250891737639904,
          -0.025349467992782593,
          0.15106770396232605,
          -0.00927573163062334,
          0.09040002524852753,
          0.052894849330186844,
          0.14836466312408447,
          -0.05156724154949188,
          -0.13154762983322144,
          -0.02352180890738964,
          0.12834927439689636,
          0.6595996618270874,
          0.04362877830862999,
          0.9073225855827332,
          -0.07544541358947754,
          0.12881340086460114,
          0.23429082334041595,
          -0.6519558429718018,
          0.4994931221008301,
          0.42904743552207947,
          0.0276695154607296,
          -0.25604480504989624,
          0.005651059094816446,
          -0.07689866423606873,
          0.021826330572366714,
          0.09090790897607803,
          -0.13902856409549713,
          0.20428916811943054,
          -0.029230082407593727,
          0.08867102116346359,
          0.11827649921178818,
          -0.17468972504138947,
          -0.28943002223968506,
          0.16332824528217316,
          -0.18552038073539734,
          -0.28889429569244385,
          0.16615156829357147,
          0.04332791641354561,
          0.041743457317352295,
          -0.10144773125648499,
          0.04438580200076103,
          0.03996734321117401,
          -0.08963017165660858,
          -0.06077837944030762,
          -0.1205340251326561,
          -0.05861577391624451,
          0.2082570493221283,
          0.5450011491775513,
          0.3530813455581665,
          0.01962803304195404,
          0.1800980269908905,
          -0.08340929448604584,
          -0.01894151233136654,
          -0.103736512362957,
          -0.10681775957345963,
          -0.02331540547311306,
          0.020438123494386673,
          0.02688009664416313,
          0.0019924810621887445,
          0.005953396204859018,
          0.06387176364660263,
          -0.055173274129629135,
          0.05952299013733864,
          0.3226214051246643,
          0.043521568179130554,
          0.3049672245979309,
          0.22895361483097076,
          0.4586562514305115,
          -0.10111846774816513,
          0.18414989113807678,
          -0.32780513167381287,
          -0.13094227015972137,
          0.03700343146920204,
          0.12807902693748474,
          -0.11964244395494461,
          0.07679696381092072,
          -7.459096377715468e-05,
          0.022110560908913612,
          -0.12055362015962601,
          0.12676841020584106,
          -0.069939523935318,
          -0.045878682285547256,
          0.12550431489944458,
          0.029401665553450584,
          0.011669821105897427,
          0.03669361770153046,
          -0.06533810496330261,
          0.014566043391823769,
          -0.03949979320168495,
          0.04553212225437164,
          0.07243743538856506,
          0.41383010149002075,
          -0.008008635602891445,
          0.36555731296539307,
          -0.1978003978729248,
          0.013462547212839127,
          -0.23918282985687256,
          -0.3097206950187683,
          0.2850402891635895,
          0.09471185505390167,
          0.2069355696439743,
          -0.20804300904273987,
          -0.15625755488872528,
          -0.15311568975448608,
          0.5194568634033203,
          0.008259412832558155,
          0.14327724277973175,
          0.14253611862659454,
          0.12793204188346863,
          0.0799698755145073,
          -0.046608395874500275,
          -0.0011986569734290242,
          0.3147512376308441,
          0.09142793715000153,
          0.01657130755484104,
          0.38595259189605713,
          0.21926885843276978,
          0.1073184460401535,
          0.07365788519382477,
          -0.02323043718934059,
          0.08025015890598297,
          -0.021402496844530106,
          -0.03797498345375061,
          0.040413253009319305,
          0.04100147634744644,
          0.002968990243971348,
          0.02362474426627159,
          -0.03723306953907013,
          0.046213965862989426,
          0.0623062364757061,
          0.0426727831363678,
          0.5357545614242554,
          0.158327117562294,
          -0.25244516134262085,
          0.536013662815094,
          0.15955334901809692,
          -0.24441668391227722,
          0.123359814286232,
          -0.17704987525939941,
          0.1673721820116043,
          0.12523865699768066,
          -0.18224871158599854,
          0.16740524768829346,
          -0.15181803703308105,
          -0.5323439240455627,
          -0.04040664806962013,
          0.1331142783164978,
          0.12283039093017578,
          0.3120507597923279,
          0.11800053715705872,
          0.2137535661458969,
          0.05962049961090088,
          0.057716984301805496,
          -0.05702245980501175,
          0.06172095239162445,
          0.05570182576775551,
          -0.009709358215332031,
          -0.19538378715515137,
          0.15135593712329865,
          0.06631365418434143,
          -0.17537735402584076,
          0.12265107035636902,
          0.06608667224645615,
          0.0024520964361727238,
          0.010535277426242828,
          -0.06226479634642601,
          0.21371935307979584,
          0.015417683869600296,
          0.45560869574546814,
          0.15609478950500488,
          0.39560094475746155,
          0.31850895285606384,
          -0.127375990152359,
          0.23878861963748932,
          0.3035470247268677,
          -0.09312749654054642,
          0.28209584951400757,
          -0.0947071835398674,
          0.2331245094537735,
          0.025975750759243965,
          -0.10258404910564423,
          0.18582205474376678,
          0.030129877850413322,
          -0.3200685679912567,
          0.4358573257923126,
          -0.5492164492607117,
          0.23555026948451996,
          0.16552628576755524,
          0.35900169610977173,
          -0.43288010358810425,
          0.5101765394210815,
          -0.015753241255879402,
          0.0062348200008273125,
          0.008468802087008953,
          -0.014335192739963531,
          0.007506622467190027,
          0.006882376037538052,
          0.004937541205435991,
          -0.016014087945222855,
          0.007731316611170769,
          0.0038585045840591192,
          -0.01594756543636322,
          0.005418091081082821,
          0.01073053851723671,
          0.02650962583720684,
          0.04097434878349304,
          -0.17515690624713898,
          0.20532499253749847,
          0.004771330859512091,
          0.20775465667247772,
          0.16734042763710022,
          0.797964870929718,
          -0.08445272594690323,
          0.6789858937263489,
          0.0025867910590022802,
          0.009457162581384182,
          0.008876579813659191,
          -0.7268913984298706,
          0.8060131072998047,
          0.4125722646713257,
          -0.005902362521737814,
          -0.008080952800810337,
          -0.002790548373013735,
          -0.09583482146263123,
          0.07957667112350464,
          -0.014940398745238781,
          0.46822389960289,
          -0.08532609045505524,
          -0.3873400092124939,
          -0.018285948783159256,
          0.3063872456550598,
          0.03782569244503975,
          -0.042221058160066605,
          0.05161898210644722,
          0.03149639442563057,
          0.0787358209490776,
          0.18672187626361847,
          0.020166149362921715,
          0.0154519472271204,
          0.01193289551883936,
          -0.024721598252654076,
          -0.1281847357749939,
          -0.010127109475433826,
          -0.17191945016384125,
          0.1870635747909546,
          -0.1614474654197693,
          0.2976669669151306,
          0.7829814553260803,
          0.6287215352058411,
          -0.2039632499217987,
          -0.11628260463476181,
          0.07653724402189255,
          -0.02817261591553688,
          -0.05440136790275574,
          0.10452964901924133,
          -0.06025389954447746,
          -0.15626458823680878,
          -0.012733078561723232,
          0.010074986144900322,
          -0.10337100923061371,
          -0.004419171717017889,
          0.06587371975183487,
          -0.14876867830753326,
          -0.3289417028427124,
          -0.9467169642448425,
          0.04766064137220383,
          0.19006069004535675,
          -0.1553865373134613,
          0.2594563364982605,
          0.1820012331008911,
          0.27609944343566895,
          -0.014528977684676647,
          0.08876223117113113,
          -0.14723718166351318,
          -0.03949938341975212,
          0.09816227853298187,
          -0.08538714051246643,
          -0.054745130240917206,
          -0.03747778385877609,
          -0.10164954513311386,
          -0.03838776424527168,
          -0.07996651530265808,
          -0.07484155148267746,
          0.00670270761474967,
          -0.05645211786031723,
          0.08017323911190033,
          -0.06479877978563309,
          0.025182433426380157,
          -0.0013600963866338134,
          0.10348869860172272,
          0.05592888221144676,
          -0.14877678453922272,
          0.08688875287771225,
          0.01844182424247265,
          0.395954430103302,
          -0.09938517212867737,
          0.30862316489219666,
          0.16053427755832672,
          -0.3084552586078644,
          -0.12553970515727997,
          -0.32819804549217224,
          0.4483206868171692,
          0.2234066128730774,
          0.3264874219894409,
          0.02626369334757328,
          0.4926149845123291,
          0.6895250678062439,
          0.37364041805267334,
          -0.4252515435218811,
          -0.2201395034790039,
          0.04942645877599716,
          0.07761981338262558,
          0.03811477869749069,
          0.02671142853796482,
          0.08650310337543488,
          0.03190717101097107,
          -0.0031417219433933496,
          -0.053541116416454315,
          0.012733254581689835,
          -0.048668183386325836,
          -0.06125371903181076,
          0.0388142354786396,
          -0.051842574030160904,
          0.2919214069843292,
          1.0884093046188354,
          0.036112744361162186,
          -0.18435338139533997,
          0.6870369911193848,
          -0.33513641357421875,
          -0.30736100673675537,
          -0.2686055302619934,
          -0.004785329569131136,
          0.04813699051737785,
          0.03762312978506088,
          -0.0021518603898584843,
          0.060178253799676895,
          0.0701286569237709,
          -0.02853887341916561,
          -0.03984963521361351,
          0.0013191982870921493,
          -0.024915793910622597,
          -0.0671466514468193,
          -0.004586325958371162,
          0.002874969271942973,
          0.06657638400793076,
          0.03872507065534592,
          0.056073497980833054,
          -0.025121226906776428,
          -0.03905444219708443,
          0.014392766170203686,
          0.05322462320327759,
          0.5359641909599304,
          -0.0029433800373226404,
          0.6500100493431091,
          -0.21091945469379425,
          0.049687743186950684,
          -0.09823448210954666,
          -0.5415660738945007,
          0.48943760991096497,
          0.3684578239917755,
          0.11465390771627426,
          -0.17757099866867065,
          -0.011567189358174801,
          -0.12795589864253998,
          -0.2417386919260025,
          -0.33679503202438354,
          -0.28736647963523865,
          -0.2625690698623657,
          0.6746132373809814,
          0.11933301389217377,
          0.07483908534049988,
          -0.010863219387829304,
          -0.0042342375963926315,
          -0.010094447061419487,
          -0.02563430555164814,
          -0.0006657784106209874,
          -0.05478355288505554,
          -0.055527929216623306,
          0.07153204828500748,
          0.07867114990949631,
          -0.06772738695144653,
          0.08854089677333832,
          0.0828019380569458,
          0.0027780490927398205,
          0.007681235671043396,
          0.18211562931537628,
          0.1520746350288391,
          0.30138006806373596,
          0.3682962954044342,
          -0.0002349757414776832,
          -0.007642240729182959,
          0.06028962880373001,
          -0.0641273781657219,
          0.04746491089463234,
          -0.22914853692054749,
          -0.029843464493751526,
          -0.09750008583068848,
          0.07760791480541229,
          -0.01002585981041193,
          -0.0592048242688179,
          0.27788570523262024,
          -0.2520521879196167,
          -0.08958651125431061,
          -0.017578400671482086,
          -0.014088391326367855,
          0.003572713118046522,
          -0.008439025841653347,
          0.009973350912332535,
          -0.01717604324221611,
          -0.028463151305913925,
          -0.01711464859545231,
          0.5139212608337402,
          0.06507579982280731,
          -0.36746320128440857,
          0.5137690305709839,
          0.06342869251966476,
          -0.36959314346313477,
          0.011577880010008812,
          -0.2490798681974411,
          0.2717345058917999,
          0.012309671379625797,
          -0.24713997542858124,
          0.2720620036125183,
          0.021621428430080414,
          0.06128006801009178,
          0.01730152778327465,
          0.04822338744997978,
          -0.06085624918341637,
          0.05765577033162117,
          0.06053559109568596,
          0.0352325513958931,
          0.491816908121109,
          -0.1608070284128189,
          -0.34378764033317566,
          0.49313005805015564,
          -0.16864731907844543,
          -0.35468995571136475,
          -0.00932907685637474,
          -0.27172747254371643,
          0.21765875816345215,
          -0.006411255337297916,
          -0.26186126470565796,
          0.2171047478914261,
          0.095161572098732,
          -0.18620248138904572,
          -0.1299924999475479,
          0.2794610559940338,
          0.08825571089982986,
          0.33128952980041504,
          -0.24058924615383148,
          0.1911904662847519,
          -0.12690994143486023,
          0.1632712483406067,
          -0.171081081032753,
          -0.019228976219892502,
          0.09059762209653854,
          -0.11877059191465378,
          -0.18798089027404785,
          0.02528665028512478,
          0.08447010815143585,
          -0.11072256416082382,
          0.020946543663740158,
          -0.01917273737490177,
          -0.01564643159508705,
          -0.07828131318092346,
          -0.02596389502286911,
          -0.14984369277954102,
          0.14435572922229767,
          -0.0568455345928669,
          0.056139640510082245,
          0.04239824414253235,
          0.0056745088659226894,
          0.014434043318033218,
          -0.007762604858726263,
          0.6687406301498413,
          -0.05399811640381813,
          0.6412352323532104,
          0.0042535350657999516,
          -0.024696214124560356,
          -0.032487258315086365,
          -0.6045224070549011,
          0.6323487758636475,
          0.3534863293170929,
          0.010630444623529911,
          -0.13096216320991516,
          -0.20012374222278595,
          0.02504289709031582,
          0.2118750810623169,
          0.43402618169784546,
          0.06506533920764923,
          -0.1491110771894455,
          -0.15253067016601562,
          0.05742309242486954,
          -0.22172071039676666,
          -0.08071053773164749,
          0.08006049692630768,
          -0.06250759959220886,
          0.16591843962669373,
          -0.2285628765821457,
          -0.20785653591156006,
          0.02530507743358612,
          -0.12888707220554352,
          -0.06761232018470764,
          0.1594976782798767,
          0.23049934208393097,
          -0.29209357500076294,
          -0.3856237530708313,
          -0.25226086378097534,
          0.41135334968566895,
          0.06586265563964844,
          -0.06002454087138176,
          -0.07211221009492874,
          0.08895067870616913,
          -0.0401887446641922,
          -0.06323491036891937,
          0.0017295877914875746,
          0.046827059239149094,
          0.055432431399822235,
          -0.14231933653354645,
          -0.1242922767996788,
          0.18277975916862488,
          -0.17986361682415009,
          -0.13265663385391235,
          0.009423264302313328,
          0.1851198822259903,
          0.11902764439582825,
          -0.18712757527828217,
          0.22775660455226898,
          -0.1984098255634308,
          -0.06815338879823685,
          -0.06696941703557968,
          -0.04762214422225952,
          0.033655401319265366,
          0.11588821560144424,
          0.6039236187934875,
          -0.045671526342630386,
          0.5609293580055237,
          0.05581703037023544,
          -0.13334916532039642,
          -0.0007920474163256586,
          -0.5665420293807983,
          0.5924266576766968,
          0.32899948954582214,
          0.036218926310539246,
          0.036143094301223755,
          -0.015413438901305199,
          0.02446257881820202,
          -0.022714339196681976,
          0.02679373137652874,
          0.04932982474565506,
          0.028161879628896713,
          -0.4071633815765381,
          -0.3123793303966522,
          0.24663975834846497,
          -0.4090502858161926,
          -0.3167724907398224,
          0.24215471744537354,
          -0.15812218189239502,
          0.14074066281318665,
          -0.30221498012542725,
          -0.15585237741470337,
          0.14528103172779083,
          -0.2993394136428833,
          -0.1738586723804474,
          -0.3607367277145386,
          0.6890381574630737,
          0.8836609125137329,
          -0.04670790582895279,
          -0.423897385597229,
          -0.19527336955070496,
          0.6008397936820984,
          0.09082172065973282,
          0.024097543209791183,
          0.06516951322555542,
          -0.004978908691555262,
          -0.07338108122348785,
          -0.13673800230026245,
          0.01227624248713255,
          0.007742705289274454,
          -0.08310473710298538,
          0.03892294690012932,
          0.1568501591682434,
          0.013546209782361984,
          0.1875341385602951,
          0.40190157294273376,
          0.13547877967357635,
          -0.24063748121261597,
          0.13131144642829895,
          -0.07449580729007721,
          0.06315818428993225,
          -0.1596544086933136,
          0.48396721482276917,
          -0.029960259795188904,
          0.6265419125556946,
          0.48390769958496094,
          -0.039613787084817886,
          0.5808842182159424,
          -0.47611790895462036,
          0.46044018864631653,
          0.3701735734939575,
          -0.46899721026420593,
          0.47362619638442993,
          0.35052284598350525,
          -0.021511483937501907,
          0.004471874795854092,
          0.03845701366662979,
          -0.042487405240535736,
          0.037798427045345306,
          -0.004415809642523527,
          0.034130193293094635,
          0.018632516264915466,
          -0.34947603940963745,
          -0.3306733965873718,
          0.12313635647296906,
          -0.34787803888320923,
          -0.36496874690055847,
          0.04857347533106804,
          -0.4690749943256378,
          -0.030510002747178078,
          -0.3128107786178589,
          -0.46585577726364136,
          0.02828221395611763,
          -0.31181642413139343,
          0.2313479483127594,
          0.48153313994407654,
          0.039613403379917145,
          -0.16032962501049042,
          -0.05423874035477638,
          0.09181644022464752,
          0.0300210639834404,
          -0.3095370829105377,
          -0.05808494612574577,
          -0.30662932991981506,
          0.03291632980108261,
          -0.023036040365695953,
          -0.29639407992362976,
          0.08029918372631073,
          -0.14825206995010376,
          -0.2997458875179291,
          -0.005439096596091986,
          -0.14571136236190796,
          -0.32650870084762573,
          -0.035711079835891724,
          0.2503321170806885,
          0.3869725465774536,
          0.1184818372130394,
          -0.22826619446277618,
          0.17640183866024017,
          0.36031556129455566,
          0.2271517515182495,
          0.08266729861497879,
          0.09324795752763748,
          0.024856362491846085,
          0.015074328519403934,
          0.11995590478181839,
          -0.0021949431393295527,
          0.012249985709786415,
          -0.23262806236743927,
          0.22847306728363037,
          0.1490837186574936,
          -0.23083630204200745,
          0.26512908935546875,
          0.1496758759021759,
          -0.07039850950241089,
          -0.4000302255153656,
          -0.1714927703142166,
          -0.01880064234137535,
          -0.1409495770931244,
          0.9156516790390015,
          0.23130883276462555,
          -0.1172325387597084,
          0.2299152910709381,
          0.012965201400220394,
          0.25066351890563965,
          0.23847845196723938,
          0.016280975192785263,
          0.22604310512542725,
          -0.18120422959327698,
          0.13732044398784637,
          0.06813827157020569,
          -0.20018868148326874,
          0.1581406444311142,
          0.06414780765771866,
          0.06733349710702896,
          0.03136461228132248,
          0.13523763418197632,
          -0.08702178299427032,
          -0.2915969491004944,
          -0.443572461605072,
          0.0818953737616539,
          0.29901960492134094,
          0.1477988362312317,
          -0.024893343448638916,
          0.09043224155902863,
          0.15960171818733215,
          -0.03310155123472214,
          0.12562265992164612,
          0.012649179436266422,
          0.0020504326093941927,
          -0.09478890150785446,
          0.014437926933169365,
          0.004232165403664112,
          -0.08377499133348465,
          0.07374605536460876,
          -0.38886481523513794,
          -0.37267938256263733,
          -0.24683043360710144,
          0.5522042512893677,
          -0.32836204767227173,
          0.291504442691803,
          0.30417174100875854,
          0.03155602887272835,
          -0.16024255752563477,
          -0.12732844054698944,
          0.09391172975301743,
          -0.05038776993751526,
          -0.14221392571926117,
          0.12153325974941254,
          0.11469542235136032,
          -0.026009149849414825,
          0.006928710732609034,
          0.09009362012147903,
          -0.0996280387043953,
          0.011732512153685093,
          0.03356943652033806,
          0.024239692836999893,
          0.0317169651389122,
          -0.04488663002848625,
          0.05130360275506973,
          0.024145200848579407,
          0.033962808549404144,
          -0.3778665363788605,
          -0.33878540992736816,
          0.19341938197612762,
          -0.3803471326828003,
          -0.3124372661113739,
          0.2574789822101593,
          -0.28090423345565796,
          0.06487215310335159,
          -0.3013613224029541,
          -0.2807549238204956,
          0.015515083447098732,
          -0.3006435036659241,
          -0.11495949327945709,
          0.07836896926164627,
          -0.020048655569553375,
          -0.3379523754119873,
          -0.13895457983016968,
          0.2437620759010315,
          -0.06373479962348938,
          0.20510371029376984,
          -0.02775891311466694,
          -0.17504309117794037,
          -0.004037259612232447,
          -0.024909544736146927,
          -0.01413281075656414,
          0.16623245179653168,
          0.18917211890220642,
          0.030450407415628433,
          0.07199180871248245,
          0.13059711456298828,
          -0.16730834543704987,
          0.01021553110331297,
          -0.12348407506942749,
          -0.06586779654026031,
          -0.007285315077751875,
          -0.24096044898033142,
          0.25669482350349426,
          -0.3144947290420532,
          0.20485477149486542,
          0.25227707624435425,
          -0.10820768028497696,
          0.06500282138586044,
          -0.22147324681282043,
          -0.05984102562069893,
          -0.031787969172000885,
          -0.22420921921730042,
          -0.06701426208019257,
          0.016799196600914,
          -0.027553318068385124,
          -0.02663784846663475,
          0.10950563102960587,
          -0.007012196350842714,
          -0.005888563580811024,
          0.020620832219719887,
          0.018436875194311142,
          0.008140846155583858,
          -0.017532002180814743,
          0.009803825058043003,
          0.015565783716738224,
          0.0009342564153485,
          0.3160698115825653,
          -0.43367791175842285,
          -0.2599188983440399,
          0.319099485874176,
          -0.4458613991737366,
          -0.27909988164901733,
          -0.3547869920730591,
          -0.30543169379234314,
          -0.06926130503416061,
          -0.35107260942459106,
          -0.2887679934501648,
          -0.07116285711526871,
          -0.006207454949617386,
          0.005357278045266867,
          -0.002819070592522621,
          0.04225805401802063,
          -0.048162154853343964,
          0.001541058300063014,
          -0.03918572887778282,
          -0.029439548030495644,
          -0.11853708326816559,
          -0.5398515462875366,
          0.11506898701190948,
          -0.12046818435192108,
          -0.544722318649292,
          0.11460684984922409,
          -0.2725078761577606,
          -0.07434801012277603,
          -0.31245115399360657,
          -0.2683674991130829,
          -0.07193349301815033,
          -0.3093954622745514,
          0.16105443239212036,
          0.11483220756053925,
          0.19264227151870728,
          -0.28623172640800476,
          -0.3097143769264221,
          -0.3087960481643677,
          0.1957688182592392,
          0.05548371374607086,
          0.0710369348526001,
          0.09112398326396942,
          -0.010270942002534866,
          -0.00722259609028697,
          0.05991613119840622,
          0.23757503926753998,
          -0.14546141028404236,
          -0.014930926263332367,
          -0.07124002277851105,
          -0.0014621466398239136,
          -0.1750003546476364,
          0.011647941544651985,
          0.32384777069091797,
          0.4230998456478119,
          0.27849313616752625,
          0.03305695205926895,
          0.3721338212490082,
          0.8150940537452698,
          -0.1648542433977127,
          -0.41976064443588257,
          0.001198083395138383,
          0.035889990627765656,
          -0.01782842166721821,
          0.09164117276668549,
          0.012952057644724846,
          0.021874792873859406,
          0.03489558398723602,
          -0.1307506114244461,
          -0.08861233294010162,
          -0.014012210071086884,
          -0.056008465588092804,
          -0.09780669212341309,
          0.13133959472179413,
          -0.18710657954216003,
          0.2552509307861328,
          0.032401759177446365,
          -0.3169400990009308,
          0.08697162568569183,
          0.23619325459003448,
          -0.12300897389650345,
          0.04522872716188431,
          0.11713571846485138,
          -0.20568744838237762,
          0.009576025418937206,
          0.19124779105186462,
          -0.17871621251106262,
          -0.024124328047037125,
          0.21957887709140778,
          -0.03366585820913315,
          -0.06891537457704544,
          0.16376908123493195,
          -0.019990060478448868,
          0.07478417456150055,
          0.25910598039627075,
          -0.06584927439689636,
          -0.27856042981147766,
          0.2281181961297989,
          0.6640810966491699,
          0.18308115005493164,
          -0.14348092675209045,
          0.02536308951675892,
          -0.4206807613372803,
          0.048164572566747665,
          -0.05672375112771988,
          -0.3299920856952667,
          -0.005096943583339453,
          0.07522166520357132,
          -0.07946433126926422,
          -0.06062120571732521,
          -0.006515288259834051,
          -0.10175136476755142,
          -0.013303957879543304,
          -0.24709218740463257,
          0.2703459560871124,
          -0.18465496599674225,
          1.1852208375930786,
          -1.196678876876831,
          0.19960196316242218,
          -0.13049949705600739,
          -0.9920560717582703,
          0.07367812842130661,
          -0.042449768632650375,
          -0.19313205778598785,
          0.07385782897472382,
          0.028490200638771057,
          -0.135539710521698,
          0.007652656640857458,
          0.0703791156411171,
          -0.14374147355556488,
          -0.005783563945442438,
          -0.017905287444591522,
          -0.17759962379932404,
          0.018527928739786148,
          0.01764768734574318,
          0.041523583233356476,
          0.23386013507843018,
          -0.2008863240480423,
          0.03184359148144722,
          0.03714831918478012,
          0.1302521526813507,
          -0.03428996726870537,
          0.018767235800623894,
          -0.03950401768088341,
          0.5875852704048157,
          -0.026230517774820328,
          0.6403741836547852,
          -0.014232599176466465,
          -0.0024702646769583225,
          0.012905016541481018,
          -0.5486121773719788,
          0.5317225456237793,
          0.34326961636543274
        ],
        "bias": [
          -0.29292914271354675,
          -0.10844948142766953,
          0.07031770795583725,
          0.014067634008824825,
          -0.20999489724636078,
          0.4085462987422943,
          0.17099976539611816,
          -0.11064528673887253,
          0.3286537528038025,
          0.20352759957313538,
          -0.07767963409423828,
          -0.11949227005243301,
          0.08826333284378052,
          0.0995740294456482,
          0.08420882374048233,
          -0.032858751714229584,
          -0.03219427913427353,
          -0.0323224775493145,
          -0.14634813368320465,
          -0.21795830130577087,
          -0.193277508020401,
          -0.022175660356879234,
          -0.1045013964176178,
          -0.11590678989887238,
          0.24421755969524384,
          0.22597083449363708,
          0.04505987837910652,
          -0.26233553886413574,
          0.24335640668869019,
          0.08287742733955383,
          0.040802400559186935,
          0.04919872805476189,
          -0.16703051328659058,
          -0.0624537393450737,
          0.049979738891124725,
          0.4007708430290222,
          -0.3108046054840088,
          0.047283388674259186,
          -0.1235739067196846,
          -0.029521966353058815,
          0.038836460560560226,
          -0.07747312635183334,
          0.2363159954547882,
          0.0363365039229393,
          -0.08543935418128967,
          0.06963764876127243,
          0.13821783661842346,
          -0.03745458275079727,
          0.18998348712921143,
          0.06332758069038391,
          0.03900813311338425,
          0.2558757960796356,
          0.060131993144750595,
          -0.08118100464344025,
          0.2681448757648468,
          0.07821032404899597,
          -0.026468565687537193,
          0.042445309460163116,
          0.2775174677371979,
          0.0010729091009125113,
          0.02395346760749817,
          -0.04882758855819702,
          0.07098661363124847,
          -0.12108168751001358
        ]
      },
      {
        "in_features": 64,
        "out_features": 64,
        "weights": [
          0.34514227509498596,
          1.7626864910125732,
          -0.06895696371793747,
          0.2550458312034607,
          -0.39536166191101074,
          -0.059038110077381134,
          0.1722542941570282,
          -0.5649027824401855,
          -0.3807884454727173,
          0.048292126506567,
          -0.021458908915519714,
          0.049261681735515594,
          -0.017368867993354797,
          0.21438723802566528,
          -0.019401591271162033,
          0.03130839392542839,
          0.10932543873786926,
          0.562311053276062,
          0.3012321889400482,
          0.07608480751514435,
          0.11042585223913193,
          0.15293917059898376,
          0.17203384637832642,
          0.04931868612766266,
          0.3930194675922394,
          0.2565418481826782,
          0.5867714285850525,
          12.124048233032227,
          0.24176335334777832,
          0.3195256292819977,
          -0.12123896926641464,
          -0.06875304132699966,
          0.33979538083076477,
          0.18666136264801025,
          -0.01110602542757988,
          0.37099993228912354,
          0.06613773107528687,
          -0.10134604573249817,
          0.15469571948051453,
          0.03344609960913658,
          0.35879799723625183,
          -0.11817137151956558,
          -0.04562826082110405,
          0.45866236090660095,
          0.06090884283185005,
          0.11841481178998947,
          -0.729992687702179,
          -0.11069709062576294,
          -0.060053180903196335,
          0.18613086640834808,
          0.09177189320325851,
          0.14054833352565765,
          0.00900566577911377,
          -0.06588567048311234,
          -0.006679958198219538,
          0.07902582734823227,
          0.03789171203970909,
          0.20408856868743896,
          -0.18550272285938263,
          0.10573301464319229,
          -0.14166241884231567,
          -0.18152377009391785,
          0.07875724881887436,
          -0.8624745607376099,
          0.01673671044409275,
          0.11953486502170563,
          -0.03728245943784714,
          -0.020471133291721344,
          0.02448810636997223,
          0.05877571552991867,
          -0.10099000483751297,
          0.12269339710474014,
          -0.10508336871862411,
          -0.07437775284051895,
          -0.11533109098672867,
          0.009870285168290138,
          -0.07144004851579666,
          -0.1165371984243393,
          0.024952271953225136,
          -0.10178684443235397,
          -0.11551404744386673,
          -0.0952482670545578,
          0.09363790601491928,
          -0.07634712755680084,
          0.03250867873430252,
          0.034146130084991455,
          0.10900508612394333,
          0.01776266098022461,
          0.07482827454805374,
          -0.029629336670041084,
          -0.035626038908958435,
          0.11865060031414032,
          -0.10141543298959732,
          -0.06770370900630951,
          -0.05422994866967201,
          -0.0012642248766496778,
          0.11961391568183899,
          0.04780001938343048,
          -0.09678739309310913,
          -0.010427543893456459,
          0.03168795257806778,
          -0.10971465706825256,
          -0.059511780738830566,
          -0.09253004193305969,
          0.06911520659923553,
          0.11345265805721283,
          0.03273896500468254,
          -0.11748871207237244,
          0.099136121571064,
          -0.11095744371414185,
          0.05375504493713379,
          -0.10617727041244507,
          0.055190712213516235,
          -0.04602875933051109,
          -0.10678046941757202,
          -0.04545549303293228,
          0.046124670654535294,
          -0.1032976284623146,
          -0.09517106413841248,
          0.04937941953539848,
          -0.0029304921627044678,
          -0.034110575914382935,
          0.006851100362837315,
          0.09727989137172699,
          -0.12206444889307022,
          -0.10460497438907623,
          -0.0552155077457428,
          0.011825546622276306,
          0.02274412102997303,
          3.5684874057769775,
          0.1059315949678421,
          -0.05679190158843994,
          -0.09286054968833923,
          -0.013610634952783585,
          -0.10178995132446289,
          -0.07376275956630707,
          -0.1420668065547943,
          -0.22521159052848816,
          0.07291693240404129,
          0.33240237832069397,
          0.028704244643449783,
          0.006079121492803097,
          0.3752302825450897,
          0.10731769353151321,
          0.005666292738169432,
          0.4423980712890625,
          0.3043593466281891,
          0.03183130547404289,
          -0.038151148706674576,
          -0.05784988030791283,
          0.12918247282505035,
          0.3000335097312927,
          0.011908427812159061,
          -0.08511993288993835,
          0.024099422618746758,
          7.124439716339111,
          0.12275560200214386,
          -0.10597077757120132,
          0.08741798251867294,
          0.04399503767490387,
          0.1760377734899521,
          0.1524023860692978,
          -0.008358420804142952,
          0.3081246614456177,
          0.05622534081339836,
          0.33944904804229736,
          0.2076634019613266,
          -0.03507481515407562,
          0.02130028046667576,
          -0.2609752118587494,
          -0.09690933674573898,
          0.5183988213539124,
          0.23432372510433197,
          -0.016233565285801888,
          0.3055367171764374,
          0.14913959801197052,
          -0.07268030196428299,
          0.030002323910593987,
          0.30705466866493225,
          0.25827300548553467,
          0.027424687519669533,
          0.14325451850891113,
          -0.23187683522701263,
          -0.0008031314355321229,
          0.5049417614936829,
          0.42834824323654175,
          -0.1365974396467209,
          0.07218603044748306,
          0.15626339614391327,
          -0.17343230545520782,
          -0.0058253491297364235,
          -0.08418554067611694,
          0.05162579566240311,
          -4.102132797241211,
          -0.01606881245970726,
          -0.2169172465801239,
          0.09524950385093689,
          0.024448959156870842,
          0.08719058334827423,
          0.10550960153341293,
          0.09723887592554092,
          -0.1044650450348854,
          0.24153272807598114,
          0.09965316206216812,
          -0.6437899470329285,
          -0.07907485961914062,
          0.08907370269298553,
          0.04605855420231819,
          -0.09690353274345398,
          -0.1595524251461029,
          0.1342298835515976,
          0.05503300577402115,
          0.11144216358661652,
          -0.11595898866653442,
          0.03931744396686554,
          0.13916900753974915,
          0.01231672428548336,
          -0.06299156695604324,
          -0.12450341880321503,
          16.803543090820312,
          0.020808886736631393,
          0.08014388382434845,
          0.2029384821653366,
          -0.25771862268447876,
          -0.10661052167415619,
          -0.12257838994264603,
          -0.25945502519607544,
          0.16068163514137268,
          0.1886405199766159,
          0.10242897272109985,
          0.05377349257469177,
          0.02079729735851288,
          -2.806698799133301,
          0.3973731994628906,
          0.2676584720611572,
          -0.1049802154302597,
          0.022415798157453537,
          0.08863768726587296,
          -0.10326533019542694,
          0.14085333049297333,
          0.07050333172082901,
          -0.2548184096813202,
          -0.19351239502429962,
          0.14093007147312164,
          0.14045856893062592,
          0.06904461234807968,
          0.14419308304786682,
          0.14240191876888275,
          0.17778560519218445,
          0.022986235097050667,
          -0.16679610311985016,
          0.21834783256053925,
          0.05693597346544266,
          0.05648154765367508,
          0.02980940416455269,
          0.513698935508728,
          -0.09766293317079544,
          -3.975029706954956,
          0.09830474108457565,
          -0.1349361687898636,
          -0.028911316767334938,
          0.06907907128334045,
          0.100505031645298,
          0.08687310665845871,
          0.05176645144820213,
          0.030252696946263313,
          0.06427185982465744,
          -0.026665885001420975,
          -0.07434574514627457,
          -0.07496888935565948,
          0.0019203185802325606,
          -0.27911555767059326,
          0.07292386889457703,
          -1.1078503131866455,
          -0.06123002991080284,
          -0.03206136077642441,
          0.06426876783370972,
          -0.4041951298713684,
          -0.09125560522079468,
          -0.036797404289245605,
          0.2149873673915863,
          0.05760648474097252,
          -0.06639406085014343,
          -10.070723533630371,
          0.11198898404836655,
          0.1481378674507141,
          -0.2830483317375183,
          -0.5040992498397827,
          0.019739113748073578,
          -0.19055087864398956,
          -0.37057122588157654,
          0.5028014779090881,
          0.014812271110713482,
          0.008120091632008553,
          0.02023126184940338,
          0.13502539694309235,
          -2.266177177429199,
          -0.16574910283088684,
          -0.16768479347229004,
          -0.2775547206401825,
          0.047371044754981995,
          0.21869176626205444,
          0.4520619213581085,
          0.0293902400881052,
          -0.009015117771923542,
          -0.34999778866767883,
          0.2299048751592636,
          0.10225767642259598,
          -0.04674480855464935,
          -0.018035372719168663,
          -0.019548574462532997,
          0.055718980729579926,
          0.011152762919664383,
          -0.013330776244401932,
          0.1348828822374344,
          0.02618909627199173,
          0.03450527414679527,
          -0.055338550359010696,
          -0.280403733253479,
          -1.7366503477096558,
          -0.07964903861284256,
          -2.814406394958496,
          0.05356926843523979,
          -0.5578981637954712,
          -0.14187249541282654,
          -0.03685605898499489,
          -0.48045554757118225,
          0.09606846421957016,
          0.024018486961722374,
          0.11055071651935577,
          0.07564713060855865,
          0.08326002955436707,
          -0.4473821222782135,
          0.0820343866944313,
          -0.11627038568258286,
          -0.0141412653028965,
          -0.03210523724555969,
          -1.4523173570632935,
          -0.26496684551239014,
          0.0026207694318145514,
          -0.013860887847840786,
          -0.23064972460269928,
          0.15529148280620575,
          0.07669190317392349,
          0.473945289850235,
          0.36269333958625793,
          -0.21840645372867584,
          3.050119638442993,
          0.017241476103663445,
          -0.055973127484321594,
          -0.0005174673278816044,
          -0.21653851866722107,
          -0.02414010278880596,
          0.008400944992899895,
          -0.5560857057571411,
          -0.15255124866962433,
          0.1433490663766861,
          0.10642398148775101,
          -0.22343607246875763,
          0.25698745250701904,
          -0.6049304008483887,
          -0.1852644979953766,
          0.09740195423364639,
          -1.1458754539489746,
          -0.09653972089290619,
          -0.050978608429431915,
          -1.4886512756347656,
          -0.0382310189306736,
          0.15683159232139587,
          -0.08479151129722595,
          -0.33752578496932983,
          -0.04573216289281845,
          0.059666361659765244,
          0.08263779431581497,
          0.2874472737312317,
          0.08924028277397156,
          -0.11322386562824249,
          0.01655608043074608,
          0.24899733066558838,
          0.05036308988928795,
          0.10585690289735794,
          0.15285658836364746,
          0.08631619811058044,
          -1.455107569694519,
          0.09455239027738571,
          7.678821563720703,
          -0.13949699699878693,
          0.028538282960653305,
          0.1555577665567398,
          -0.059312522411346436,
          -0.27716290950775146,
          0.05156141147017479,
          -0.07523283362388611,
          -0.11518735438585281,
          0.14130841195583344,
          0.14520636200904846,
          0.28070926666259766,
          0.07721073925495148,
          0.18156547844409943,
          0.1766037940979004,
          0.05112297460436821,
          -0.11547208577394485,
          0.06683296710252762,
          -0.10343237221240997,
          0.11269016563892365,
          0.07190091162919998,
          0.11433196812868118,
          0.19107574224472046,
          0.32318392395973206,
          0.18549703061580658,
          0.08165712654590607,
          11.446806907653809,
          0.02426210790872574,
          -0.16149809956550598,
          -0.5773841738700867,
          0.08468557894229889,
          0.003907572943717241,
          0.03523644432425499,
          0.21350795030593872,
          0.040925223380327225,
          -0.011478567495942116,
          0.1275690793991089,
          0.23117312788963318,
          -0.10817594081163406,
          0.4003491699695587,
          -0.0478423573076725,
          -0.07492159307003021,
          -0.7244952321052551,
          0.16834306716918945,
          0.11567395180463791,
          -0.359660804271698,
          0.078083336353302,
          0.0676519051194191,
          -0.012143965810537338,
          0.37597888708114624,
          0.08445283770561218,
          -0.09413474053144455,
          0.1392693966627121,
          -0.24528655409812927,
          -6.581305933650583e-05,
          0.18169811367988586,
          0.2656592130661011,
          0.030292874202132225,
          0.08184720575809479,
          0.04507984593510628,
          -0.1547377109527588,
          0.012614932842552662,
          0.1375405341386795,
          0.09586428105831146,
          12.506866455078125,
          -0.05738971009850502,
          0.17368744313716888,
          0.46697568893432617,
          -0.1601564586162567,
          -0.19458764791488647,
          0.3456787168979645,
          -0.28409525752067566,
          0.0954538881778717,
          -0.09447634220123291,
          -0.016808724030852318,
          -0.37562838196754456,
          0.1166585236787796,
          -0.11758817732334137,
          -0.3604769706726074,
          -0.08276849240064621,
          0.9988728165626526,
          0.2349109947681427,
          -0.011444204486906528,
          0.09607914835214615,
          -0.0034360503777861595,
          0.20354507863521576,
          0.1017141342163086,
          0.29004326462745667,
          0.43754416704177856,
          -0.7459550499916077,
          27.01285743713379,
          0.1716596782207489,
          0.03593367338180542,
          0.03607188165187836,
          0.03355582803487778,
          0.24547027051448822,
          -0.17500410974025726,
          0.197819784283638,
          0.5329701900482178,
          0.08497020602226257,
          -0.07467594742774963,
          -0.18537648022174835,
          -0.04254050552845001,
          -0.9317449331283569,
          0.024039214476943016,
          0.10326170921325684,
          1.8255038261413574,
          -0.1795506775379181,
          0.21875905990600586,
          -0.17310036718845367,
          -0.13106228411197662,
          0.13574852049350739,
          -0.017095617949962616,
          -0.6532859206199646,
          0.41884496808052063,
          -0.0028450763784348965,
          -0.10990971326828003,
          -0.12645059823989868,
          0.09888437390327454,
          -0.1311223804950714,
          -0.009486781433224678,
          0.26287755370140076,
          0.10687200725078583,
          0.01866133138537407,
          -0.02049405127763748,
          0.07357342541217804,
          -1.3117913007736206,
          0.05484959855675697,
          -4.676232814788818,
          0.05606894567608833,
          -0.30888211727142334,
          -0.03211727365851402,
          0.22424010932445526,
          0.06706245243549347,
          0.0858425498008728,
          0.11960823088884354,
          0.22248144447803497,
          -0.04545588046312332,
          -0.09490920603275299,
          0.025693625211715698,
          0.10324760526418686,
          -0.1062038317322731,
          0.07199674099683762,
          0.1754295527935028,
          0.4893471598625183,
          -0.04912902042269707,
          -0.08470052480697632,
          0.05616343766450882,
          0.0566982738673687,
          -0.02999258227646351,
          -0.1091499850153923,
          -0.001307369559071958,
          -0.0034333111252635717,
          0.006543641909956932,
          -12.505764961242676,
          0.1201556995511055,
          -0.10992440581321716,
          0.008400284685194492,
          -0.0578605942428112,
          0.15447403490543365,
          0.1382802277803421,
          0.01798454485833645,
          0.09678120166063309,
          -0.09655643254518509,
          -0.08842688798904419,
          -0.06036148592829704,
          0.0567355751991272,
          0.9372740387916565,
          -0.030495572835206985,
          0.07621230185031891,
          0.08759092539548874,
          -0.020064955577254295,
          0.11645530164241791,
          0.30932846665382385,
          0.06811711192131042,
          -0.06827016174793243,
          0.23207661509513855,
          -0.028196949511766434,
          0.3279462456703186,
          0.09410428255796432,
          -0.07687611132860184,
          0.1760483980178833,
          0.09800683706998825,
          -0.06111300364136696,
          -0.12608763575553894,
          0.2126258760690689,
          -0.17329858243465424,
          0.024165060371160507,
          0.042702142149209976,
          0.05356071516871452,
          0.23856861889362335,
          -0.03588441014289856,
          1.4160159826278687,
          0.031965870410203934,
          0.0038950119633227587,
          -0.05136902630329132,
          -0.03613987937569618,
          -0.6890816688537598,
          -0.047480259090662,
          0.02891634590923786,
          -0.004525312688201666,
          0.2853243052959442,
          0.1302255392074585,
          -0.008007789961993694,
          -0.08173109591007233,
          0.44856882095336914,
          0.004355219658464193,
          -0.059605780988931656,
          -0.01334791537374258,
          0.2714419662952423,
          -0.10510026663541794,
          0.03204929456114769,
          -0.008826239965856075,
          0.34846803545951843,
          0.3191172778606415,
          0.053466133773326874,
          -0.020460162311792374,
          -0.005108173005282879,
          0.7575140595436096,
          -0.009183625690639019,
          -0.15799453854560852,
          0.0007527918205596507,
          -0.002956494688987732,
          0.12919051945209503,
          0.007130749989300966,
          0.006902701687067747,
          -0.07006374001502991,
          0.03162669390439987,
          -0.3597477972507477,
          0.3241487145423889,
          0.0379582978785038,
          -0.09093659371137619,
          0.008161273784935474,
          0.06280755996704102,
          -0.0011861494276672602,
          0.5392195582389832,
          -0.04044228792190552,
          0.010076135396957397,
          0.26460200548171997,
          -0.30539602041244507,
          0.02189672365784645,
          0.021662719547748566,
          -0.07014580816030502,
          0.05803703889250755,
          0.041164711117744446,
          0.07714484632015228,
          0.08485551178455353,
          -1.758013129234314,
          -0.13288187980651855,
          0.009287742897868156,
          0.11342421919107437,
          0.1210542544722557,
          -0.1580919325351715,
          0.0031146854162216187,
          -0.0006917782011441886,
          -0.0741809755563736,
          6.10521125793457,
          0.16015255451202393,
          0.7093326449394226,
          0.4289512634277344,
          -0.15586206316947937,
          -0.21483038365840912,
          0.1627836972475052,
          -0.09450043737888336,
          -0.05838906392455101,
          0.2175135612487793,
          0.1736585646867752,
          -0.19867189228534698,
          -0.048133932054042816,
          0.2769215703010559,
          0.18502911925315857,
          0.06641260534524918,
          -0.581375002861023,
          0.006464208010584116,
          0.10169131308794022,
          0.23148636519908905,
          0.032270971685647964,
          0.06592543423175812,
          0.12262596189975739,
          -0.18593810498714447,
          -0.024248946458101273,
          -0.835512638092041,
          8.75256633758545,
          0.09624246507883072,
          -0.1343165785074234,
          -0.0685303583741188,
          0.20268838107585907,
          0.05974629893898964,
          -0.6747174263000488,
          0.6153658032417297,
          0.09853437542915344,
          0.09868746995925903,
          0.143548846244812,
          0.1769801825284958,
          -0.14376187324523926,
          0.21109554171562195,
          0.08826448768377304,
          0.038324855268001556,
          -0.5777757167816162,
          0.16532236337661743,
          0.11598126590251923,
          -1.5593012571334839,
          0.08135443180799484,
          0.06341876089572906,
          0.2561946511268616,
          -0.14809191226959229,
          -0.17775046825408936,
          0.004833174869418144,
          0.16686668992042542,
          -0.09308841824531555,
          -0.06090174615383148,
          0.2910554111003876,
          0.20761609077453613,
          0.0015404524747282267,
          0.130953848361969,
          0.11939911544322968,
          0.08180049806833267,
          0.0554051473736763,
          1.0633176565170288,
          -0.029071122407913208,
          -20.62029457092285,
          0.13041266798973083,
          0.20188282430171967,
          -0.02563716471195221,
          0.25989770889282227,
          -0.0770626813173294,
          0.005792416166514158,
          0.1560468077659607,
          -0.08289054781198502,
          0.020064890384674072,
          0.15819118916988373,
          -0.357614666223526,
          0.10637792944908142,
          0.011923151090741158,
          0.10177523642778397,
          -0.08484626561403275,
          0.41069117188453674,
          0.019711831584572792,
          -0.06944699585437775,
          -0.22073043882846832,
          0.12409888952970505,
          0.15748576819896698,
          0.08568180352449417,
          0.02012181468307972,
          0.12090393155813217,
          0.10288581252098083,
          -26.158836364746094,
          0.1424543261528015,
          -0.09278400987386703,
          0.0028541898354887962,
          0.14293161034584045,
          -0.12262566387653351,
          0.39753487706184387,
          0.19357267022132874,
          0.10714852064847946,
          -0.15272976458072662,
          0.09931224584579468,
          0.05573800578713417,
          0.02456839568912983,
          0.38962411880493164,
          -0.09492696821689606,
          0.012250958941876888,
          1.6592949628829956,
          0.02261117473244667,
          0.07316204905509949,
          0.8655718564987183,
          0.024908678606152534,
          -0.017820172011852264,
          0.02811012603342533,
          -0.06917014718055725,
          0.27500706911087036,
          -0.017410101369023323,
          0.04151380807161331,
          0.034336403012275696,
          0.022271085530519485,
          0.1186189353466034,
          0.20108875632286072,
          0.07102689146995544,
          -0.17170311510562897,
          0.042225729674100876,
          0.02255084551870823,
          -0.32592976093292236,
          0.523418128490448,
          0.005127431359142065,
          2.1424503326416016,
          0.05168692022562027,
          0.000373815797502175,
          0.008203203789889812,
          -0.009832767769694328,
          -1.1243313550949097,
          0.05435401573777199,
          0.002091764472424984,
          -0.004734171088784933,
          -0.2806176245212555,
          0.11404339969158173,
          -0.004694665316492319,
          -0.04175238683819771,
          -1.4489316940307617,
          0.01893850974738598,
          0.06793245673179626,
          0.026675589382648468,
          0.19082848727703094,
          0.02726479060947895,
          -0.01567237079143524,
          -0.017188722267746925,
          -0.2813222408294678,
          0.7242046594619751,
          -0.02439226768910885,
          -0.00591462105512619,
          0.025749415159225464,
          -2.0393991470336914,
          -0.06889479607343674,
          0.08997055888175964,
          -0.012400836683809757,
          0.00872285757213831,
          -0.13388372957706451,
          0.06950759142637253,
          0.010089404881000519,
          -0.08958806842565536,
          0.027498573064804077,
          0.4943351745605469,
          0.3384481370449066,
          -0.07150767743587494,
          -0.3558107316493988,
          -0.017066679894924164,
          -0.0336228683590889,
          -0.008193452842533588,
          0.2799393832683563,
          0.04750700294971466,
          0.00020539409888442606,
          0.10506993532180786,
          0.12240909785032272,
          0.02739780768752098,
          -0.00464985053986311,
          0.05283732712268829,
          0.106358602643013,
          0.2638264000415802,
          0.057814355939626694,
          0.07715867459774017,
          0.10450536012649536,
          0.18097791075706482,
          -0.04004451259970665,
          -0.015032191760838032,
          0.014866361394524574,
          0.035055797547101974,
          0.07125861942768097,
          0.042360857129096985,
          -0.061468806117773056,
          -0.10034237056970596,
          -0.2514565885066986,
          -0.06379396468400955,
          -0.23779702186584473,
          0.12786217033863068,
          -0.22751383483409882,
          0.07086453586816788,
          -0.08063390105962753,
          -0.15699733793735504,
          0.11356412619352341,
          0.2666364312171936,
          -0.038558702915906906,
          -0.025993704795837402,
          0.2688662111759186,
          0.14344291388988495,
          -0.03154866024851799,
          0.4889106750488281,
          0.22252236306667328,
          0.14279447495937347,
          -0.23744705319404602,
          -0.1236334890127182,
          -0.06704551726579666,
          0.2966861426830292,
          -0.04544227570295334,
          -0.16473183035850525,
          0.45071470737457275,
          -0.5549764037132263,
          0.00016769164358265698,
          0.052792035043239594,
          0.2907502055168152,
          -0.10825012624263763,
          0.14602316915988922,
          -0.20057015120983124,
          -0.12638802826404572,
          0.2736024260520935,
          -0.06598521769046783,
          0.270313024520874,
          0.20552712678909302,
          0.18331006169319153,
          -0.5734723806381226,
          0.06406078487634659,
          -0.2989279329776764,
          0.006991565227508545,
          0.27652376890182495,
          0.17524251341819763,
          2.3653836250305176,
          0.1325475126504898,
          -0.2998493015766144,
          0.019816182553768158,
          0.4312914311885834,
          0.5641992092132568,
          0.004887463990598917,
          0.023816360160708427,
          -0.058469969779253006,
          0.025007860735058784,
          0.4318262040615082,
          0.4495619535446167,
          -0.11061684787273407,
          -0.3810766637325287,
          -0.024409255012869835,
          -0.1364101767539978,
          0.1340809315443039,
          0.5722140073776245,
          -0.32340696454048157,
          -0.3310869038105011,
          0.062180351465940475,
          1.8688222169876099,
          -0.6375797986984253,
          -0.3001599907875061,
          -0.04758269339799881,
          0.12849435210227966,
          0.2332531213760376,
          -0.3019827902317047,
          0.035709843039512634,
          -0.05633320286870003,
          0.06602116674184799,
          -0.6974953413009644,
          -0.04458390548825264,
          -0.38957667350769043,
          -0.1771363914012909,
          -0.6850196719169617,
          0.02190045453608036,
          -0.627303957939148,
          0.27405691146850586,
          1.2411139011383057,
          -0.028040314093232155,
          0.023496409878134727,
          0.02471202239394188,
          0.37717631459236145,
          0.18687184154987335,
          1.472921371459961,
          0.07987593114376068,
          -0.08563201874494553,
          0.12609165906906128,
          -0.146376371383667,
          0.1939104199409485,
          -0.09660277515649796,
          -0.26641687750816345,
          -0.159419983625412,
          -0.02640090510249138,
          -0.05442570149898529,
          0.07927543669939041,
          -0.15517796576023102,
          4.913096904754639,
          -0.07760659605264664,
          -0.04186556115746498,
          1.1762064695358276,
          0.0025060796178877354,
          -0.0166897214949131,
          0.20816020667552948,
          0.0019906042143702507,
          0.006252339109778404,
          0.022039467468857765,
          -0.03318268433213234,
          0.14101967215538025,
          -1.2110110521316528,
          -0.01634792983531952,
          -0.47857213020324707,
          -0.5980238318443298,
          0.031329065561294556,
          0.03047032654285431,
          -0.15367597341537476,
          0.13170388340950012,
          0.016006793826818466,
          0.03234521672129631,
          -0.014042986556887627,
          3.525505542755127,
          0.12324211001396179,
          -3.5997397899627686,
          0.18366846442222595,
          -0.15933896601200104,
          0.22792024910449982,
          -0.06427452713251114,
          -0.048868946731090546,
          -0.06507629156112671,
          -0.11827880144119263,
          0.1421201080083847,
          -0.05513611063361168,
          0.025898346677422523,
          -0.21263517439365387,
          -0.006456815171986818,
          0.039996590465307236,
          -0.02249300479888916,
          -0.036741506308317184,
          -0.8971747159957886,
          -0.022115733474493027,
          -0.20778556168079376,
          -0.050733353942632675,
          -0.08783268928527832,
          0.014209585264325142,
          0.02353966236114502,
          -0.06636196374893188,
          -0.03810211271047592,
          0.3746342062950134,
          -10.262091636657715,
          0.3857814371585846,
          -0.3092576265335083,
          -0.27416226267814636,
          -0.09031663089990616,
          0.14290958642959595,
          -0.47275421023368835,
          -0.13984271883964539,
          -0.10031895339488983,
          0.1173839345574379,
          0.01540421973913908,
          0.00860926415771246,
          0.08292622864246368,
          -0.6215308308601379,
          0.1253577321767807,
          -0.09109858423471451,
          -0.5195220708847046,
          -0.005073741544038057,
          0.23558197915554047,
          -0.9915809035301208,
          0.007193107157945633,
          0.005647292826324701,
          -0.02211105264723301,
          0.3842169940471649,
          -0.24664893746376038,
          -0.10196270048618317,
          0.038714449852705,
          -0.050339240580797195,
          0.011238450184464455,
          0.025368181988596916,
          0.01673728972673416,
          0.22247882187366486,
          -0.21720562875270844,
          0.0355759896337986,
          -0.01845027506351471,
          -0.02237468771636486,
          -1.2112011909484863,
          -0.11653957515954971,
          3.6195106506347656,
          0.03553745150566101,
          -0.5496296286582947,
          0.005980611313134432,
          -0.6883971095085144,
          0.031049378216266632,
          0.24808891117572784,
          -0.1777389645576477,
          -0.1910027712583542,
          -0.042226895689964294,
          0.29981452226638794,
          -0.11824030429124832,
          0.005308202002197504,
          0.25692886114120483,
          -0.009059511125087738,
          -0.0684823989868164,
          0.13056202232837677,
          0.14128726720809937,
          0.015382750891149044,
          0.19667083024978638,
          -0.21309596300125122,
          0.12377867847681046,
          0.31213638186454773,
          -0.20336861908435822,
          -0.019840888679027557,
          -0.6804040670394897,
          -0.2448103427886963,
          -0.2796506881713867,
          0.15842251479625702,
          0.4740103781223297,
          -0.050310611724853516,
          -0.1278519183397293,
          0.1703399270772934,
          -0.4649951756000519,
          0.16170759499073029,
          0.11392276734113693,
          0.15129609405994415,
          0.05556899309158325,
          0.1219337210059166,
          -0.8207228779792786,
          -0.079648457467556,
          -0.0748567134141922,
          -0.08437962830066681,
          0.07181280106306076,
          -0.20628108084201813,
          -0.05283232778310776,
          0.18052585422992706,
          0.10796070843935013,
          -0.0934838056564331,
          -0.360556036233902,
          0.6192731261253357,
          0.07103679329156876,
          0.01185595616698265,
          0.045160409063100815,
          -0.11414539813995361,
          0.09921298176050186,
          0.14464351534843445,
          0.16887332499027252,
          0.1019865944981575,
          -0.027360355481505394,
          0.01279030553996563,
          -0.03439703583717346,
          -0.16863089799880981,
          0.15815384685993195,
          1.603645920753479,
          -0.13118307292461395,
          -0.19823388755321503,
          -0.030404485762119293,
          0.07996074855327606,
          0.060901470482349396,
          0.17137989401817322,
          0.04513319209218025,
          0.07266969978809357,
          -0.05973951518535614,
          0.14517655968666077,
          -0.10201580077409744,
          0.17728830873966217,
          0.04739352688193321,
          -0.167241171002388,
          0.013425606302917004,
          0.21231871843338013,
          -0.28973060846328735,
          0.11391756683588028,
          0.2700033187866211,
          -0.07879431545734406,
          -0.05327659472823143,
          0.1437843143939972,
          0.22592909634113312,
          -0.11218748241662979,
          0.5015653967857361,
          2.207981824874878,
          0.01708681508898735,
          0.09992208331823349,
          -0.00041618067189119756,
          0.012281830422580242,
          -0.056232161819934845,
          -0.09626684337854385,
          -0.2147505134344101,
          -0.5984067916870117,
          0.30725428462028503,
          0.10475324839353561,
          -0.10412940382957458,
          -0.012542830780148506,
          -1.1626152992248535,
          0.12131135165691376,
          0.1580059826374054,
          0.2819288372993469,
          0.048124488443136215,
          -0.03612615540623665,
          -0.11274756491184235,
          0.242261603474617,
          -0.1636660248041153,
          -0.21464835107326508,
          0.1100882962346077,
          0.339151531457901,
          -0.06528676301240921,
          -0.03844441473484039,
          0.17775283753871918,
          -0.16127336025238037,
          0.16874901950359344,
          0.0749279260635376,
          0.07861095666885376,
          0.010047643445432186,
          0.14451728761196136,
          -0.08471182733774185,
          -0.1347985714673996,
          -0.6745760440826416,
          0.2029540240764618,
          -4.0651750564575195,
          -0.018883904442191124,
          0.15430951118469238,
          -0.050378505140542984,
          -0.29858824610710144,
          -0.39570122957229614,
          0.04050663486123085,
          0.000590174866374582,
          0.12911246716976166,
          -0.10690583288669586,
          -0.23200903832912445,
          0.432437002658844,
          0.022441910579800606,
          -0.33876699209213257,
          0.03395684063434601,
          0.1484481245279312,
          0.6413623094558716,
          -0.01940111443400383,
          0.1584579050540924,
          0.12734705209732056,
          -0.06832131743431091,
          0.07351430505514145,
          -0.20328667759895325,
          0.236403226852417,
          0.15686453878879547,
          0.05750436335802078,
          -5.560811996459961,
          0.15875528752803802,
          0.04741383343935013,
          -0.22857840359210968,
          0.0018400142434984446,
          0.005597448442131281,
          0.12153297662734985,
          0.14292432367801666,
          -0.027420401573181152,
          0.16899287700653076,
          -0.21974433958530426,
          -0.23906210064888,
          0.063949815928936,
          0.6951016783714294,
          0.046638526022434235,
          -0.026497863233089447,
          0.16843624413013458,
          -0.18209651112556458,
          -0.12565547227859497,
          0.5979456901550293,
          -0.24562861025333405,
          0.053997915238142014,
          0.11350780725479126,
          0.298197478055954,
          -0.142455592751503,
          -0.1664866805076599,
          -0.16209086775779724,
          -0.026446616277098656,
          -0.03999163210391998,
          -0.32313212752342224,
          -0.19819119572639465,
          0.09152528643608093,
          0.15598000586032867,
          -0.08709938079118729,
          0.16147050261497498,
          0.026923714205622673,
          0.6373147964477539,
          -0.040963638573884964,
          -0.2214701771736145,
          0.184945747256279,
          0.11174488812685013,
          -0.006993876304477453,
          0.023618662729859352,
          -0.1998976618051529,
          -0.12014780193567276,
          0.1266869604587555,
          -0.2159213274717331,
          0.24210140109062195,
          0.1926605999469757,
          0.02475070022046566,
          -0.1091851219534874,
          0.2932474613189697,
          0.06504740566015244,
          -0.05268801376223564,
          -0.19983960688114166,
          0.17236743867397308,
          0.0713241696357727,
          0.010880697518587112,
          -0.09306009113788605,
          0.203748419880867,
          0.255757212638855,
          -0.02545793540775776,
          0.12179874628782272,
          0.9189301133155823,
          -1.6911029815673828,
          -0.239149808883667,
          0.07161664217710495,
          -0.27510878443717957,
          -0.1161978542804718,
          -0.054461803287267685,
          0.3110733926296234,
          0.07958820462226868,
          0.20042762160301208,
          0.03804679587483406,
          0.10376064479351044,
          0.3319033682346344,
          0.16104671359062195,
          2.3278982639312744,
          0.07982036471366882,
          0.07297362387180328,
          0.7469742298126221,
          0.0782102644443512,
          -0.22077138721942902,
          0.09400610625743866,
          0.1682611107826233,
          0.00958254374563694,
          0.13254502415657043,
          0.41263455152511597,
          -0.15060144662857056,
          -0.02335679531097412,
          0.26054197549819946,
          0.009526952169835567,
          -0.0998583436012268,
          0.2633674740791321,
          0.21456968784332275,
          0.06277301162481308,
          0.22280612587928772,
          0.12524354457855225,
          0.10034021735191345,
          0.16390855610370636,
          -0.5926651954650879,
          0.04042582958936691,
          1.504997730255127,
          -0.1947115957736969,
          -0.1084822341799736,
          0.16339637339115143,
          0.2937597930431366,
          0.19805674254894257,
          0.26632264256477356,
          0.09645728021860123,
          -0.22977322340011597,
          0.011301932856440544,
          0.09913045167922974,
          -0.10111904889345169,
          -0.05186218023300171,
          0.17525045573711395,
          0.05512863025069237,
          0.09166842699050903,
          -0.38682249188423157,
          -0.027000179514288902,
          0.1699957698583603,
          0.05878029018640518,
          0.011418969370424747,
          -0.15865470468997955,
          0.11851096153259277,
          -0.1513228416442871,
          0.06729795783758163,
          -0.19051699340343475,
          3.4311001300811768,
          0.11801505833864212,
          0.049269940704107285,
          0.0024391806218773127,
          -0.02992013469338417,
          0.07163598388433456,
          0.29388508200645447,
          -0.09183801710605621,
          -0.21586808562278748,
          -0.03611869364976883,
          0.03487413004040718,
          0.26554375886917114,
          0.15555956959724426,
          -0.11224731802940369,
          0.05943809822201729,
          -0.37517857551574707,
          -0.37191838026046753,
          0.164442241191864,
          0.30798354744911194,
          -0.2959892749786377,
          0.04135506600141525,
          -0.3168516159057617,
          0.08610562980175018,
          -0.2627871334552765,
          0.3134089410305023,
          -0.03855588287115097,
          0.12305836379528046,
          0.09210746735334396,
          0.12210207432508469,
          0.23398154973983765,
          0.24322710931301117,
          -0.1271224021911621,
          -0.15069130063056946,
          -0.025154972448945045,
          -0.042832087725400925,
          -0.046709369868040085,
          -0.825649619102478,
          -0.08444631099700928,
          -2.532654285430908,
          0.017489513382315636,
          0.4772241413593292,
          0.2670380473136902,
          -0.25034505128860474,
          -0.29486358165740967,
          0.1148897260427475,
          -0.08021538704633713,
          -0.08076699823141098,
          -0.0024721240624785423,
          0.10869481414556503,
          0.12527182698249817,
          0.0053259567357599735,
          0.18363851308822632,
          -0.03618456423282623,
          0.07085812836885452,
          0.6652196645736694,
          -0.02351449243724346,
          0.18460233509540558,
          0.6368361711502075,
          0.5387067198753357,
          -0.09375258535146713,
          0.05915026739239693,
          0.37144529819488525,
          0.23651133477687836,
          -0.1123928427696228,
          -2.3885507583618164,
          -0.1407015472650528,
          0.11274785548448563,
          -0.08845973014831543,
          0.26768043637275696,
          -0.25361981987953186,
          -0.03876982629299164,
          0.18619272112846375,
          -0.04348141327500343,
          0.2884187698364258,
          0.09166424721479416,
          0.11870016902685165,
          0.17787019908428192,
          0.1678658425807953,
          0.24548177421092987,
          0.19904424250125885,
          0.7999334335327148,
          0.06303709745407104,
          -0.2040712982416153,
          -0.3785225749015808,
          0.06924906373023987,
          0.04165579751133919,
          -0.020044736564159393,
          0.864976167678833,
          -0.21215496957302094,
          -0.03899895399808884,
          0.0956917554140091,
          -0.10477029532194138,
          -0.14197403192520142,
          -0.02316366881132126,
          0.022780390456318855,
          0.14787627756595612,
          0.7550874948501587,
          0.2988142669200897,
          -0.03553516045212746,
          -0.4789024889469147,
          0.41098552942276,
          -0.20581819117069244,
          2.8369858264923096,
          0.06978536397218704,
          0.34293273091316223,
          0.053028613328933716,
          -0.17225192487239838,
          0.3945524990558624,
          -0.1422044336795807,
          -0.019207093864679337,
          0.2420002520084381,
          -0.04850376397371292,
          0.06906067579984665,
          0.6296911835670471,
          0.2116956263780594,
          -0.010402845218777657,
          0.199433833360672,
          -0.14963553845882416,
          0.5861966609954834,
          -0.1893826276063919,
          -0.20164558291435242,
          0.10648709535598755,
          0.6149235963821411,
          -0.07432945817708969,
          0.013217815198004246,
          0.23851586878299713,
          0.12288374453783035,
          -0.07440421730279922,
          -8.981538772583008,
          -0.09143736958503723,
          -0.04989718273282051,
          -0.4535734951496124,
          0.2021312415599823,
          -0.37976473569869995,
          0.4395168721675873,
          0.11781728267669678,
          -0.40754833817481995,
          0.08522792160511017,
          0.1278756856918335,
          -0.13442817330360413,
          -0.33782240748405457,
          0.3103829622268677,
          0.13342510163784027,
          0.45525845885276794,
          0.32941967248916626,
          -0.0028196363709867,
          -0.12197373807430267,
          -0.2730877101421356,
          0.11598213762044907,
          0.017818428575992584,
          -0.04338588938117027,
          -0.7900876998901367,
          -0.2502334415912628,
          0.13047830760478973,
          0.06045904755592346,
          0.23534147441387177,
          0.15049909055233002,
          0.09926316887140274,
          0.0145650589838624,
          0.13790978491306305,
          -0.0018895792309194803,
          0.12252285331487656,
          0.023509496822953224,
          -0.2692525386810303,
          1.3708736896514893,
          -0.5917942523956299,
          1.8884402513504028,
          0.6130785942077637,
          0.04501644894480705,
          0.14600038528442383,
          0.1302720010280609,
          0.3392842710018158,
          0.07569155842065811,
          0.4042524993419647,
          -0.16537727415561676,
          0.14433637261390686,
          0.010925959795713425,
          -0.19450335204601288,
          -0.07575806230306625,
          -0.09101154655218124,
          -0.05812995880842209,
          -0.38439157605171204,
          0.5015192031860352,
          0.10719581693410873,
          0.1795676052570343,
          -0.28972840309143066,
          0.018182402476668358,
          -0.0822802260518074,
          0.07753785699605942,
          -0.301434189081192,
          -0.14740291237831116,
          -0.05975747108459473,
          -1.5303163528442383,
          -0.4284215271472931,
          0.1778055727481842,
          -0.7290488481521606,
          -0.10844701528549194,
          -0.8700922727584839,
          0.5793102979660034,
          -0.07882671803236008,
          0.3743976950645447,
          0.09494403004646301,
          -0.0057106963358819485,
          0.019615162163972855,
          0.1654883176088333,
          0.033061683177948,
          0.1512432098388672,
          0.2985268235206604,
          0.40887776017189026,
          -0.04574856534600258,
          -0.6736012101173401,
          -0.1737155020236969,
          -0.043833158910274506,
          -0.052167780697345734,
          -0.32690346240997314,
          -0.10236389935016632,
          0.23444297909736633,
          -0.1221507117152214,
          0.045021332800388336,
          0.14605340361595154,
          0.28133437037467957,
          0.007967222481966019,
          0.052544377744197845,
          -0.004129341803491116,
          0.23951944708824158,
          0.22942866384983063,
          0.09055061638355255,
          0.10063263028860092,
          0.3648057281970978,
          0.042946793138980865,
          -2.775245428085327,
          -0.02479158528149128,
          -0.3386889696121216,
          0.2204321324825287,
          -0.1923401951789856,
          -0.07748845964670181,
          -0.022997157648205757,
          -0.16594578325748444,
          -0.18446964025497437,
          0.0942668467760086,
          0.26548200845718384,
          0.24840006232261658,
          0.03838036209344864,
          0.16867461800575256,
          0.02905411832034588,
          0.15655368566513062,
          0.30061596632003784,
          -0.10379735380411148,
          0.06821439415216446,
          0.23011791706085205,
          0.09493810683488846,
          -0.03142480179667473,
          0.1680927723646164,
          -0.00403998140245676,
          0.00940320547670126,
          0.050580039620399475,
          15.151089668273926,
          -0.0250859335064888,
          0.27495524287223816,
          -0.04314200580120087,
          -0.0797698050737381,
          0.17962731420993805,
          -0.08623140305280685,
          -0.12816385924816132,
          0.14574991166591644,
          0.17249523103237152,
          0.2539117634296417,
          0.1582333892583847,
          0.12214932590723038,
          -0.28815001249313354,
          0.08630353957414627,
          0.11214572936296463,
          -0.23663097620010376,
          0.19602231681346893,
          0.09244871139526367,
          0.16723060607910156,
          0.1465495079755783,
          0.07185045629739761,
          -0.11456594616174698,
          0.5449120402336121,
          -0.005899190902709961,
          -0.019019540399312973,
          0.11760063469409943,
          -0.205487921833992,
          -0.011460023932158947,
          0.11353514343500137,
          0.2524110674858093,
          0.07819727808237076,
          0.2471371293067932,
          0.0892430990934372,
          0.13582275807857513,
          0.029713599011301994,
          -0.4163704216480255,
          -0.12835268676280975,
          -0.42472630739212036,
          0.13382723927497864,
          0.109480120241642,
          -0.06183922290802002,
          -0.11825989186763763,
          0.12983158230781555,
          0.1552780270576477,
          -0.0835874155163765,
          -0.07522959262132645,
          0.005496019031852484,
          0.05874987691640854,
          -0.455041766166687,
          0.006558508612215519,
          0.07069005072116852,
          -0.04979785531759262,
          0.085994191467762,
          -0.03995591774582863,
          -0.037087541073560715,
          -0.09919284284114838,
          -0.02185915969312191,
          -0.14034190773963928,
          -0.006230962462723255,
          0.04869282990694046,
          -0.08893178403377533,
          0.07267418503761292,
          -0.003883482189849019,
          -0.208262100815773,
          -0.0674583837389946,
          -0.02899174578487873,
          0.08272846043109894,
          -0.2709668278694153,
          0.05659673735499382,
          0.026251977309584618,
          0.1347656548023224,
          -0.042349494993686676,
          -0.09623043984174728,
          0.05770129710435867,
          0.053674645721912384,
          0.15865182876586914,
          -0.3102624714374542,
          -0.14244882762432098,
          -0.020991338416934013,
          1.0353890657424927,
          0.030878476798534393,
          -0.05840640142560005,
          0.42303937673568726,
          0.007221539970487356,
          0.014448699541389942,
          0.1482197493314743,
          -1.8284530639648438,
          0.13136406242847443,
          -0.11787533015012741,
          0.09431345015764236,
          -0.0805421993136406,
          -0.09213010221719742,
          0.05697536841034889,
          0.07433439046144485,
          -0.05279190465807915,
          0.031006503850221634,
          0.07560397684574127,
          -0.05412083864212036,
          0.10177220404148102,
          0.20443673431873322,
          -0.013646643608808517,
          1.9048632383346558,
          0.012890065088868141,
          -0.08918940275907516,
          -0.14974376559257507,
          0.07527591288089752,
          -0.02459973841905594,
          0.13721449673175812,
          0.1286500096321106,
          -0.21853306889533997,
          -0.08881214261054993,
          0.6021816730499268,
          0.0645018070936203,
          0.005905150435864925,
          0.7658464908599854,
          -0.30583471059799194,
          0.06099427491426468,
          -0.09283532202243805,
          -0.08787890523672104,
          0.0255858413875103,
          0.13743241131305695,
          -0.02775730937719345,
          0.05780848488211632,
          0.5420019626617432,
          0.1439886838197708,
          0.0703902393579483,
          -0.044044651091098785,
          0.559497594833374,
          -0.15856406092643738,
          0.08929125964641571,
          -0.049592990428209305,
          -0.04142026975750923,
          0.1485411524772644,
          0.09662283211946487,
          -0.03335857018828392,
          0.035961441695690155,
          -0.07544410228729248,
          0.507111668586731,
          0.30541741847991943,
          0.014662177301943302,
          -0.4692259430885315,
          -0.13555856049060822,
          -0.16807211935520172,
          0.04873665049672127,
          0.35390686988830566,
          -0.10235989093780518,
          0.023160191252827644,
          0.34990328550338745,
          -0.25645890831947327,
          0.099427230656147,
          -0.1783406138420105,
          0.8741242289543152,
          -0.20669172704219818,
          0.3442758619785309,
          0.007359557785093784,
          -0.06214531511068344,
          0.6260296702384949,
          0.5621179938316345,
          -0.25447648763656616,
          0.027662308886647224,
          -0.053231630474328995,
          -0.17833241820335388,
