{
  "model": {
    "layers": [
      {
        "in_features": 8,
        "out_features": 12,
        "weights": [
          0.35216960310935974,
          0.09078917652368546,
          -0.4354512393474579,
          0.13940168917179108,
          0.6516099572181702,
          0.035227008163928986,
          0.1641244888305664,
          -0.015600473619997501,
          -0.36932897567749023,
          -0.6199216246604919,
          -0.07385516166687012,
          0.07726015150547028,
          0.19454596936702728,
          -0.3490690588951111,
          -0.09806690365076065,
          0.13483382761478424,
          0.07925932854413986,
          0.0044846744276583195,
          0.20773887634277344,
          0.28662386536598206,
          -0.9979233145713806,
          0.17217019200325012,
          0.6234738826751709,
          0.5030170679092407,
          -0.02192291058599949,
          0.277020663022995,
          0.4861131012439728,
          0.06356292217969894,
          -0.6921839118003845,
          0.3497626781463623,
          0.15081624686717987,
          0.06750142574310303,
          0.33194127678871155,
          0.40296670794487,
          -0.11139559745788574,
          0.07938393950462341,
          -0.15941588580608368,
          -0.028058897703886032,
          0.04480336233973503,
          -0.1250241994857788,
          -0.5014083385467529,
          0.6262670159339905,
          0.6692870855331421,
          -0.49027952551841736,
          0.054566409438848495,
          -0.4487326145172119,
          -0.15883289277553558,
          0.05261506140232086,
          0.6137624382972717,
          0.08604361116886139,
          -0.4122157692909241,
          0.23470325767993927,
          0.1829809844493866,
          0.016299286857247353,
          0.4637536406517029,
          -0.026263181120157242,
          -0.33678770065307617,
          -0.16041144728660583,
          0.05596021190285683,
          -0.16334643959999084,
          0.49105262756347656,
          -0.08272548019886017,
          0.04273873567581177,
          0.24292497336864471,
          -0.18817022442817688,
          0.1118006780743599,
          0.28949299454689026,
          -0.07546775043010712,
          -0.6182040572166443,
          0.6437576413154602,
          0.2156999558210373,
          0.30377355217933655,
          -0.0556793138384819,
          -0.6041244268417358,
          -0.6016095876693726,
          -0.23170307278633118,
          0.2500801980495453,
          -0.36705124378204346,
          -0.4447254538536072,
          -0.2690109312534332,
          0.24438515305519104,
          0.05663174390792847,
          0.24027736485004425,
          0.08299179375171661,
          -0.16348396241664886,
          0.49194926023483276,
          0.57110995054245,
          0.20628248155117035,
          0.43560898303985596,
          0.18625932931900024,
          -0.5452855825424194,
          -0.015239447355270386,
          0.24959154427051544,
          0.255737841129303,
          -0.095852330327034,
          -0.24085219204425812
        ],
        "bias": [
          0.492169588804245,
          -0.14423441886901855,
          0.2975684702396393,
          0.15901142358779907,
          0.32473698258399963,
          -0.5380665063858032,
          0.10508453845977783,
          -0.13696478307247162,
          0.46250927448272705,
          -0.1134798526763916,
          0.00989856943488121,
          0.30496272444725037
        ]
      },
      {
        "in_features": 20,
        "out_features": 64,
        "weights": [
          0.6416194438934326,
          -0.40268465876579285,
          0.19890490174293518,
          -0.0789179876446724,
          -0.0197676420211792,
          0.09026794135570526,
          -1.1542679071426392,
          0.4787333309650421,
          -0.06271634995937347,
          0.10049472749233246,
          -0.011720778420567513,
          -0.11281755566596985,
          0.150762140750885,
          -0.07103651762008667,
          -0.04064187780022621,
          0.03488500416278839,
          0.041841402649879456,
          -0.11589159816503525,
          0.04088427126407623,
          0.04994342848658562,
          0.39545556902885437,
          0.04341128468513489,
          -0.13573959469795227,
          -0.8013849854469299,
          -0.23849716782569885,
          0.04416484758257866,
          0.5397450923919678,
          0.13982899487018585,
          -0.06638345867395401,
          0.1392691433429718,
          -0.016067611053586006,
          0.03956645354628563,
          0.10288964956998825,
          0.07858742028474808,
          -0.03512061387300491,
          0.06551559269428253,
          0.07230011373758316,
          0.11206027120351791,
          0.11242000013589859,
          0.14137761294841766,
          0.3782275319099426,
          -0.26583755016326904,
          0.2567370533943176,
          -0.3900183439254761,
          -0.3221215605735779,
          0.0724269226193428,
          0.6604676246643066,
          -0.3981379568576813,
          -0.11666817963123322,
          -0.016015663743019104,
          -0.05736114829778671,
          -0.4523695707321167,
          0.0703546553850174,
          -0.0180184468626976,
          -0.02718951366841793,
          -0.06417389214038849,
          0.03818603977560997,
          -0.0281109269708395,
          -0.20425572991371155,
          0.14528854191303253,
          -0.1343654990196228,
          0.11580341309309006,
          -0.2711378037929535,
          0.3870004415512085,
          -0.03376070782542229,
          -0.10850508511066437,
          -0.2880115509033203,
          0.08380743861198425,
          -0.12423821538686752,
          -0.03741006925702095,
          -0.04889453202486038,
          -0.06367609649896622,
          -0.08596479892730713,
          0.10810971260070801,
          -0.03440927714109421,
          -0.10621411353349686,
          -0.004097462631762028,
          0.1715620905160904,
          -0.09639772027730942,
          0.08253686875104904,
          0.0013569891452789307,
          0.007099012844264507,
          -0.004010589327663183,
          0.0021313540637493134,
          -0.005584947764873505,
          0.04148164391517639,
          -0.003997092135250568,
          0.0017223932081833482,
          -0.31194332242012024,
          -0.39487147331237793,
          0.09045039117336273,
          -0.30311518907546997,
          -0.39645999670028687,
          0.09534119069576263,
          -0.09911340475082397,
          0.7089172005653381,
          -0.10672340542078018,
          -0.09223626554012299,
          0.7134190797805786,
          -0.10543173551559448,
          -0.018210826441645622,
          -0.046591829508543015,
          0.07334647327661514,
          -0.05096686631441116,
          0.01933075115084648,
          -0.05005180463194847,
          0.0523628406226635,
          -0.0638849213719368,
          0.08696766197681427,
          0.14381082355976105,
          -0.15612973272800446,
          0.05256608501076698,
          0.14893262088298798,
          -0.1731782853603363,
          0.08378573507070541,
          -0.09842444956302643,
          0.041670333594083786,
          0.060619451105594635,
          -0.11623000353574753,
          0.03937166556715965,
          0.003824974875897169,
          0.009640649892389774,
          0.000747920130379498,
          0.005346863530576229,
          -0.0005817763158120215,
          0.0823003351688385,
          -0.012432214803993702,
          -0.007477862294763327,
          -0.23115257918834686,
          0.2421814352273941,
          -0.3547808825969696,
          -0.1649051308631897,
          0.2458476573228836,
          -0.3322458267211914,
          0.40540990233421326,
          -0.04150591418147087,
          -0.3665343225002289,
          0.4393235146999359,
          0.003151470562443137,
          -0.355604887008667,
          0.010330580174922943,
          -0.0053647602908313274,
          -0.019675087183713913,
          0.005635096691548824,
          -0.03328239917755127,
          0.010938315652310848,
          0.019540706649422646,
          0.01462313812226057,
          0.1104196161031723,
          -0.11616064608097076,
          0.15904156863689423,
          0.02007397450506687,
          2.1371761249611154e-05,
          0.035813458263874054,
          0.13109035789966583,
          0.0461246594786644,
          -0.023379065096378326,
          0.07486110180616379,
          -0.06481650471687317,
          -0.04962223395705223,
          -0.15153810381889343,
          0.22001419961452484,
          0.4826778173446655,
          0.14981068670749664,
          0.7242098450660706,
          -0.10716858506202698,
          -0.7790055274963379,
          -0.17133955657482147,
          -0.012957717292010784,
          -0.04802406579256058,
          0.017399104312062263,
          0.017920704558491707,
          -0.055828869342803955,
          0.0329708568751812,
          0.038907479494810104,
          -0.03952253609895706,
          0.014937473461031914,
          0.06455103307962418,
          -0.02463572844862938,
          0.022789426147937775,
          -0.0020171329379081726,
          0.0005072501371614635,
          0.0034736532252281904,
          0.0046625216491520405,
          0.004268701188266277,
          0.02034987509250641,
          -0.007076798472553492,
          -0.0019484289223328233,
          -0.3929794728755951,
          -0.27554967999458313,
          -0.02804335206747055,
          -0.3915802836418152,
          -0.27541688084602356,
          -0.026821797713637352,
          0.18515177071094513,
          0.6716246604919434,
          -0.3514276444911957,
          0.18587726354599,
          0.6725930571556091,
          -0.35224077105522156,
          -0.14536158740520477,
          -0.04978935420513153,
          -0.16299410164356232,
          -0.16359880566596985,
          -0.058652114123106,
          -0.21036463975906372,
          0.10682075470685959,
          -0.02970920503139496,
          -0.14079870283603668,
          -0.09579290449619293,
          -0.13442805409431458,
          0.19273889064788818,
          -0.12099596112966537,
          0.20402052998542786,
          -0.11346333473920822,
          -0.04106886312365532,
          0.19931192696094513,
          0.21320876479148865,
          -0.1371094137430191,
          -0.09267029911279678,
          -0.0027002329006791115,
          0.01173059269785881,
          -0.003930914215743542,
          -0.004245676565915346,
          0.0020197448320686817,
          0.04217393323779106,
          -0.009137611836194992,
          -0.001097191940061748,
          -0.0180180836468935,
          0.007312573958188295,
          -0.017071004956960678,
          0.9153040647506714,
          -0.5611432194709778,
          -0.8935679197311401,
          -0.018490374088287354,
          -0.005551213398575783,
          0.003256963100284338,
          -0.7678483128547668,
          0.12874630093574524,
          -0.7572729587554932,
          0.032162148505449295,
          -0.22717030346393585,
          0.09249068796634674,
          0.44668006896972656,
          -0.0623658262193203,
          0.08457352966070175,
          -0.27183058857917786,
          0.08019210398197174,
          0.004738312680274248,
          0.23316079378128052,
          -0.16562506556510925,
          -0.2085815966129303,
          0.11613073945045471,
          0.1095881387591362,
          -0.1445389688014984,
          0.19994479417800903,
          0.15174193680286407,
          0.13712704181671143,
          -0.015304839238524437,
          0.21790653467178345,
          0.7048343420028687,
          -0.09395432472229004,
          0.2711866497993469,
          0.42611560225486755,
          -0.3228486180305481,
          -0.25867366790771484,
          -0.13846519589424133,
          0.2527092695236206,
          -0.07709632068872452,
          -0.0954626277089119,
          0.05466076359152794,
          -0.04770728573203087,
          0.09426439553499222,
          -0.1539710909128189,
          0.05330696702003479,
          -0.09889286011457443,
          -0.04173128679394722,
          -0.13504192233085632,
          0.07131469249725342,
          0.07774882763624191,
          0.3652709126472473,
          0.004192200023680925,
          0.042881958186626434,
          0.17902721464633942,
          -0.1190873235464096,
          0.15955549478530884,
          -0.055575162172317505,
          0.09957762807607651,
          -0.000639056961517781,
          -0.1435592919588089,
          0.08841540664434433,
          -0.149984672665596,
          0.1631855070590973,
          0.15540042519569397,
          0.10574527084827423,
          -0.15505123138427734,
          -0.05074535682797432,
          0.07595378905534744,
          -0.025906922295689583,
          0.07381623983383179,
          0.0038228172343224287,
          -0.03879015892744064,
          -0.02264583297073841,
          -0.0004051295400131494,
          -0.03269604593515396,
          -0.12266992777585983,
          0.0426887609064579,
          0.032033052295446396,
          0.10126106441020966,
          -0.060768626630306244,
          0.1320955604314804,
          0.05936041101813316,
          -0.02382122538983822,
          0.047452349215745926,
          0.10980582237243652,
          -0.06340805441141129,
          -0.02275313436985016,
          0.07957784086465836,
          0.10321849584579468,
          -0.035160645842552185,
          0.609423816204071,
          -0.026333831250667572,
          0.2958541810512543,
          0.15187200903892517,
          -0.13976384699344635,
          0.10542949289083481,
          0.10677152127027512,
          0.2959560453891754,
          0.11049766838550568,
          -0.1451921910047531,
          -0.1136029064655304,
          -0.1964915245771408,
          -0.23084557056427002,
          0.17096787691116333,
          -0.010917440988123417,
          -0.010637716390192509,
          0.09070855379104614,
          0.15183186531066895,
          -0.28759637475013733,
          -0.032713279128074646,
          0.0687112808227539,
          0.14169570803642273,
          0.49628791213035583,
          0.49680623412132263,
          0.14021983742713928,
          -0.2392776608467102,
          0.7658768892288208,
          -0.4296101927757263,
          0.21663139760494232,
          0.10562660545110703,
          0.0009669048595242202,
          0.2131265103816986,
          0.06522754579782486,
          0.03678249567747116,
          0.021565917879343033,
          0.21480593085289001,
          0.05669127032160759,
          0.05854954198002815,
          0.1814805418252945,
          0.038602057844400406,
          0.22401508688926697,
          0.28290820121765137,
          -0.12725204229354858,
          -0.022438006475567818,
          -0.11352910101413727,
          0.2011716216802597,
          0.27664265036582947,
          0.22130435705184937,
          0.23928076028823853,
          -0.20867919921875,
          -0.19431820511817932,
          0.24310998618602753,
          -0.2288465052843094,
          -0.15878702700138092,
          -0.1544777899980545,
          -0.013860879465937614,
          -0.22632093727588654,
          -0.12116913497447968,
          -0.027757657691836357,
          -0.23732566833496094,
          -0.3642115890979767,
          0.28237608075141907,
          -0.18021607398986816,
          -0.3516519367694855,
          0.15375299751758575,
          0.11494703590869904,
          0.4700169861316681,
          -0.04556058719754219,
          -0.03426765650510788,
          0.010579978115856647,
          -0.1023528054356575,
          -0.4017863869667053,
          0.10400093346834183,
          0.123255155980587,
          -0.14457038044929504,
          -0.020510882139205933,
          -0.08916058391332626,
          0.05015401914715767,
          -0.17212103307247162,
          0.10164760798215866,
          -0.009273414500057697,
          0.020524347200989723,
          0.01158127561211586,
          0.08583513647317886,
          -0.05931985750794411,
          -0.043049681931734085,
          0.3759014308452606,
          -0.14269384741783142,
          0.46420127153396606,
          -0.34537824988365173,
          -0.4853905141353607,
          -0.32544684410095215,
          0.173514723777771,
          0.277614951133728,
          -0.43780210614204407,
          0.014706369489431381,
          -0.47447291016578674,
          0.21416769921779633,
          -0.06979416310787201,
          0.20022033154964447,
          0.4746229946613312,
          -0.02173525094985962,
          0.4374025762081146,
          -0.0001828150707297027,
          0.16785135865211487,
          0.057746827602386475,
          -0.20996235311031342,
          0.027923602610826492,
          0.18371093273162842,
          0.11548994481563568,
          0.03149789199233055,
          0.059298619627952576,
          -0.013273190706968307,
          -0.05475589260458946,
          0.017855282872915268,
          0.19537140429019928,
          -0.037212345749139786,
          -0.05630912631750107,
          0.023164182901382446,
          -0.10644801706075668,
          -0.13982412219047546,
          -0.0013832940021529794,
          0.24133387207984924,
          0.07903970777988434,
          0.2382533699274063,
          0.025897564366459846,
          -0.30391597747802734,
          -0.10636008530855179,
          0.07686258852481842,
          -0.07951978594064713,
          -0.03421042859554291,
          -0.4817878305912018,
          0.12894034385681152,
          0.28028565645217896,
          -0.034970492124557495,
          -0.015299647115170956,
          -0.09317329525947571,
          0.18910858035087585,
          -0.20185527205467224,
          0.16614416241645813,
          0.22798874974250793,
          0.27733200788497925,
          0.25375381112098694,
          -0.04274115711450577,
          0.342416912317276,
          0.06275489926338196,
          0.1172366589307785,
          0.18426062166690826,
          -0.12036646157503128,
          -0.09480209648609161,
          -0.06466227024793625,
          0.1715220808982849,
          -0.06751717627048492,
          -0.011368749663233757,
          -0.08025777339935303,
          -0.16695594787597656,
          -0.1094423159956932,
          0.10094189643859863,
          0.05734234303236008,
          0.08715608716011047,
          -0.0545605793595314,
          0.0070863207802176476,
          0.046045947819948196,
          0.14899328351020813,
          -0.0018250044668093324,
          -0.0077814203687012196,
          0.04554072022438049,
          -0.0867409035563469,
          -0.05057156831026077,
          -0.010474646463990211,
          0.03631095588207245,
          0.8770638108253479,
          -0.4017156958580017,
          -0.71961909532547,
          0.013301307335495949,
          -0.04448497295379639,
          -0.02541930042207241,
          -0.5894139409065247,
          0.23082788288593292,
          -0.5565818548202515,
          -0.48868152499198914,
          0.37348806858062744,
          -0.14135423302650452,
          -0.27861371636390686,
          0.21224002540111542,
          0.11558593064546585,
          0.5928164124488831,
          -0.205457404255867,
          -0.030347175896167755,
          0.016632167622447014,
          0.16619127988815308,
          -0.05853496864438057,
          0.09681198000907898,
          0.057337284088134766,
          0.1947244554758072,
          0.0016487601678818464,
          0.12262257933616638,
          0.08411120623350143,
          0.046815525740385056,
          0.16083407402038574,
          0.3924422860145569,
          -0.03849750757217407,
          0.3558480143547058,
          -0.14555200934410095,
          0.2807232439517975,
          -0.10555834323167801,
          -0.0014486387372016907,
          0.10721635818481445,
          -0.3794069290161133,
          0.16250327229499817,
          0.1723427027463913,
          -0.123932845890522,
          -0.158373162150383,
          0.12222186475992203,
          0.14081700146198273,
          -0.10263665020465851,
          0.24061821401119232,
          0.15045590698719025,
          -0.18785127997398376,
          0.005116733722388744,
          -0.7530927658081055,
          0.7604149580001831,
          0.03194427490234375,
          -0.7305585145950317,
          0.7780873775482178,
          0.046395305544137955,
          0.8459338545799255,
          -0.1274571716785431,
          0.23688317835330963,
          -0.009690719656646252,
          0.05899425223469734,
          0.23683051764965057,
          0.04242140054702759,
          0.031142335385084152,
          0.12485092133283615,
          0.14733272790908813,
          0.06150975078344345,
          0.07880491763353348,
          0.18393105268478394,
          0.06286682188510895,
          0.06953296065330505,
          0.02337600477039814,
          -0.16348448395729065,
          0.010435410775244236,
          -0.12019030749797821,
          -0.05244748294353485,
          -0.02366906963288784,
          0.12348613888025284,
          -0.19259187579154968,
          -0.30515819787979126,
          -0.033182282000780106,
          -0.37547481060028076,
          -0.30797332525253296,
          -0.08810370415449142,
          -0.031903594732284546,
          0.47225385904312134,
          0.09646700322628021,
          -0.1322464644908905,
          0.35193875432014465,
          0.048798974603414536,
          -0.01952933520078659,
          0.05443728715181351,
          0.07770178467035294,
          0.00691226264461875,
          0.04617857560515404,
          -0.23518860340118408,
          0.4068531095981598,
          -0.12974298000335693,
          -0.04963779076933861,
          0.38567277789115906,
          0.1257820725440979,
          -0.13832104206085205,
          0.29954761266708374,
          0.14009405672550201,
          0.13129475712776184,
          0.27404510974884033,
          0.3773772120475769,
          0.12313442677259445,
          0.14930883049964905,
          0.29580432176589966,
          0.0055679697543382645,
          -0.01573430933058262,
          -0.04278701916337013,
          -0.015043270774185658,
          -0.05885551869869232,
          -0.09275738894939423,
          0.06183527410030365,
          0.04930897802114487,
          0.0251969825476408,
          -0.12287747859954834,
          0.14155811071395874,
          0.04228159412741661,
          0.03981510549783707,
          -0.019165676087141037,
          0.23628120124340057,
          -0.06257834285497665,
          -0.1337469071149826,
          -0.1229810044169426,
          0.03726904094219208,
          0.09175487607717514,
          0.00303879426792264,
          -0.021348411217331886,
          -0.010148178786039352,
          -0.008822396397590637,
          -0.015027957037091255,
          -0.12171000242233276,
          0.025793159380555153,
          0.007860099896788597,
          0.4012892544269562,
          -0.0074906256049871445,
          0.23337526619434357,
          0.3673872947692871,
          -0.032407574355602264,
          0.24770361185073853,
          -0.3608211576938629,
          -0.293294221162796,
          0.46617037057876587,
          -0.35380399227142334,
          -0.3346169888973236,
          0.4466152489185333,
          0.16266995668411255,
          -0.19636991620063782,
          0.07640720158815384,
          -0.28308072686195374,
          -0.031139416620135307,
          -0.19615426659584045,
          0.01723339781165123,
          0.022959932684898376,
          0.09348392486572266,
          0.05030423402786255,
          -0.011566665023565292,
          -0.4866524934768677,
          0.42165762186050415,
          0.29892218112945557,
          -0.020067021250724792,
          0.09124027192592621,
          -0.008036680519580841,
          0.20102155208587646,
          0.018985629081726074,
          0.3916376829147339,
          0.004830727819353342,
          -0.00558162946254015,
          0.004225799813866615,
          -0.01225348375737667,
          0.006090071052312851,
          -0.009905851446092129,
          0.009298228658735752,
          -0.00690712034702301,
          0.1770831197500229,
          0.3581250309944153,
          -0.2501262426376343,
          0.13534286618232727,
          0.3445790410041809,
          -0.24934467673301697,
          0.2556363642215729,
          -0.3141281008720398,
          -0.03461739793419838,
          0.2478334903717041,
          -0.3514813482761383,
          -0.049051497131586075,
          0.0068860710598528385,
          0.031683921813964844,
          0.005196539685130119,
          0.0123061528429389,
          0.011680196039378643,
          0.2207300215959549,
          -0.03594229370355606,
          -0.017760133370757103,
          0.25697556138038635,
          -0.1447073519229889,
          0.29500654339790344,
          0.3287224769592285,
          -0.12900663912296295,
          0.30657926201820374,
          -0.41473594307899475,
          -0.20125888288021088,
          0.40935540199279785,
          -0.3902616798877716,
          -0.14361754059791565,
          0.42857909202575684,
          0.15086793899536133,
          0.012409641407430172,
          -0.3056345283985138,
          0.006219840608537197,
          -0.22811198234558105,
          0.06954081356525421,
          0.12966501712799072,
          0.05856288969516754,
          0.040627505630254745,
          -0.01696227304637432,
          0.03035726584494114,
          0.7982200980186462,
          -0.5690828561782837,
          -0.9009951949119568,
          0.03928582742810249,
          0.012850643135607243,
          -0.0008838004432618618,
          -0.8138149380683899,
          0.04558705538511276,
          -0.796683669090271,
          -0.012258692644536495,
          0.45067930221557617,
          -0.11760226637125015,
          0.2168913036584854,
          -0.10250033438205719,
          -0.01440003514289856,
          0.8105577230453491,
          0.07307209074497223,
          -0.13617298007011414,
          0.060559000819921494,
          -0.0761662945151329,
          0.03036709688603878,
          -0.018156999722123146,
          -0.07616451382637024,
          -0.09978754073381424,
          -0.0061694853939116,
          -0.010085362941026688,
          -0.09879070520401001,
          0.03199874237179756,
          -0.12172198295593262,
          -0.39594316482543945,
          -0.28773629665374756,
          0.4365410804748535,
          -0.40362006425857544,
          0.6122630834579468,
          0.09501589834690094,
          0.26376476883888245,
          -0.33745235204696655,
          -0.10855365544557571,
          -0.040796760469675064,
          0.05993428826332092,
          -0.07562100887298584,
          -0.005297256167978048,
          0.07072377949953079,
          0.06013381853699684,
          -0.08851318061351776,
          -0.013508856296539307,
          0.04115507751703262,
          -0.04718982055783272,
          -0.04944504052400589,
          0.11397689580917358,
          -0.036564216017723083,
          0.003491804236546159,
          -0.204386368393898,
          0.020894521847367287,
          0.16088034212589264,
          -0.08197373151779175,
          0.02882588841021061,
          -0.6534862518310547,
          0.3718143403530121,
          0.5039902925491333,
          0.03809179365634918,
          0.01566862128674984,
          -0.1806701421737671,
          0.4319966733455658,
          -0.11129625141620636,
          0.5085124373435974,
          -0.14219681918621063,
          0.04206255450844765,
          0.018414702266454697,
          -0.017784353345632553,
          0.04403415694832802,
          0.02178165130317211,
          0.15826153755187988,
          -0.026454787701368332,
          0.03921519219875336,
          0.0751078650355339,
          -0.08765475451946259,
          0.5753835439682007,
          -0.3232671022415161,
          -0.5508057475090027,
          -0.09810804575681686,
          -0.042021311819553375,
          0.03890392929315567,
          -0.4456419348716736,
          0.11013569682836533,
          -0.3974361717700958,
          0.03870372846722603,
          -0.09044469147920609,
          0.007957737892866135,
          -0.3232986629009247,
          -0.21124444901943207,
          0.026554223150014877,
          0.361885666847229,
          -0.06844258308410645,
          -0.1268499493598938,
          0.29804617166519165,
          -0.48686814308166504,
          -0.36260995268821716,
          0.0722966343164444,
          0.06742260605096817,
          -0.29948124289512634,
          0.06963400542736053,
          0.10126329958438873,
          -0.03806956857442856,
          -0.18106774985790253,
          -0.011316382326185703,
          0.004905253648757935,
          -0.14357945322990417,
          -0.00495321536436677,
          0.18198509514331818,
          0.2669503688812256,
          -0.14387880265712738,
          0.03677394986152649,
          -0.12674051523208618,
          0.167656809091568,
          -0.08569753915071487,
          0.38944926857948303,
          -0.08144814521074295,
          0.1539073884487152,
          0.06357838213443756,
          -0.26437491178512573,
          0.13452447950839996,
          0.11765579134225845,
          0.05815238505601883,
          0.08311021327972412,
          0.08070150762796402,
          0.07168863713741302,
          -0.05002705007791519,
          0.058526720851659775,
          0.3768950402736664,
          -0.6833207011222839,
          0.30711629986763,
          0.2851289212703705,
          -0.3587402403354645,
          0.17053283751010895,
          -0.11406037211418152,
          -0.5660688877105713,
          -0.010309840552508831,
          -0.04133784398436546,
          -0.015419098548591137,
          0.12184827029705048,
          -0.09868460148572922,
          0.06140758842229843,
          -0.0024965850170701742,
          -0.05502665787935257,
          0.020475605502724648,
          0.10792703181505203,
          -0.013380439020693302,
          0.023378746584057808,
          0.039477769285440445,
          -0.022207971662282944,
          -0.07392378896474838,
          -0.04570953920483589,
          -0.01528980117291212,
          -0.1880384236574173,
          0.07642162591218948,
          0.016272395849227905,
          -0.24637499451637268,
          -0.024895425885915756,
          -0.02031547576189041,
          -0.22038787603378296,
          -0.020234541967511177,
          -0.014130493625998497,
          -0.00674468744546175,
          -0.15703193843364716,
          -0.15742671489715576,
          0.003769378876313567,
          -0.13712802529335022,
          -0.15175259113311768,
          0.0020051486790180206,
          0.04668962210416794,
          -0.12747660279273987,
          -0.023425091058015823,
          -0.045526716858148575,
          0.015260213054716587,
          0.06790962815284729,
          0.027846042066812515,
          1.06050705909729,
          -0.8001430630683899,
          -1.0179386138916016,
          0.02437017299234867,
          -0.07864723354578018,
          0.08609404414892197,
          -0.8799842000007629,
          0.030730916187167168,
          -1.0062533617019653,
          0.09345261007547379,
          -0.04523589834570885,
          -0.03537518531084061,
          -0.030692335218191147,
          -0.0022353928070515394,
          -0.014117516577243805,
          0.0719623938202858,
          -0.06586877256631851,
          -0.061036404222249985,
          0.21255236864089966,
          -0.12005754560232162,
          0.10691876709461212,
          0.04212454706430435,
          -0.029941590502858162,
          0.5911235213279724,
          -0.2863367199897766,
          -0.5383628010749817,
          0.02604890987277031,
          0.10894368588924408,
          0.0983915850520134,
          -0.4330429434776306,
          0.14850379526615143,
          -0.3699917197227478,
          -0.027530724182724953,
          0.3184104859828949,
          -0.2371024787425995,
          0.16753488779067993,
          0.31653425097465515,
          -0.1253848522901535,
          -0.42889833450317383,
          0.701675534248352,
          0.0599956177175045,
          -0.023326747119426727,
          0.045567724853754044,
          0.029530974105000496,
          -0.014212211593985558,
          0.021031564101576805,
          0.059348393231630325,
          0.02060980349779129,
          0.0016580967931076884,
          0.031456589698791504,
          0.00888705626130104,
          0.004971836227923632,
          0.32006311416625977,
          0.054347261786460876,
          0.22157928347587585,
          0.1929875612258911,
          0.07585613429546356,
          -0.06586785614490509,
          0.014922002330422401,
          -0.08211233466863632,
          -0.17144563794136047,
          0.08195572346448898,
          0.08455256372690201,
          -0.25170356035232544,
          0.09818557649850845,
          0.2133622020483017,
          0.029248615726828575,
          -0.05929424986243248,
          0.043629616498947144,
          0.17307080328464508,
          -0.09068666398525238,
          0.14761903882026672,
          -0.6011309623718262,
          0.021898066624999046,
          -0.30027565360069275,
          0.23363462090492249,
          -0.0077138254418969154,
          -0.026261955499649048,
          -0.20534497499465942,
          -0.04073343798518181,
          -0.32106292247772217,
          -0.06990957260131836,
          0.00643289927393198,
          -0.3037821650505066,
          -0.1104094460606575,
          0.0541951060295105,
          -0.012575836852192879,
          -0.2483024150133133,
          -0.00030205660732463,
          0.03831429407000542,
          -0.2688651382923126,
          -0.018653498962521553,
          -0.0017322959611192346,
          -0.005831079091876745,
          0.008336829021573067,
          0.005710243713110685,
          0.0012825211742892861,
          0.0025828653015196323,
          -0.011346708051860332,
          -0.004769034218043089,
          0.9746130704879761,
          -0.5312851071357727,
          -0.7586826682090759,
          0.02163977175951004,
          0.007499990984797478,
          0.0007477819453924894,
          -0.6220596432685852,
          0.19014638662338257,
          -0.6898220777511597,
          0.0042680962942540646,
          0.01933141238987446,
          0.007222396787256002,
          -0.19262120127677917,
          0.12347117811441422,
          -0.16686050593852997,
          -0.48610377311706543,
          0.2950516939163208,
          0.07414961606264114,
          -0.6830878257751465,
          0.41061270236968994,
          -0.16955865919589996,
          0.045524049550294876,
          -0.003370477119460702,
          -0.0327053964138031,
          0.05740143731236458,
          0.022252030670642853,
          0.011267620138823986,
          -0.06058596074581146,
          0.11608528345823288,
          0.07326491922140121,
          0.037680018693208694,
          0.16135716438293457,
          0.0073364656418561935,
          0.11961619555950165,
          0.0976630374789238,
          0.6101809740066528,
          -0.0731218233704567,
          -0.002132841618731618,
          0.43116891384124756,
          -0.2261817753314972,
          0.17211617529392242,
          0.10486319661140442,
          -0.04957805946469307,
          0.13845254480838776,
          0.13895274698734283,
          -0.09852152317762375,
          -0.03304615989327431,
          0.18705742061138153,
          0.041505277156829834,
          -0.08681296557188034,
          0.19259820878505707,
          0.0561986044049263,
          -0.45984357595443726,
          0.27599358558654785,
          -0.3396318554878235,
          -0.09683699160814285,
          -0.0733269676566124,
          0.2621373236179352,
          0.14874066412448883,
          0.026127440854907036,
          -0.16196002066135406,
          -0.19303879141807556,
          0.120426706969738,
          -0.17279474437236786,
          -0.08370355516672134,
          -0.04867862910032272,
          0.19005532562732697,
          -0.2760261595249176,
          0.09828793257474899,
          -0.011110402643680573,
          -0.20443342626094818,
          0.07743235677480698,
          0.015702033415436745,
          -0.001185271772556007,
          0.022987239062786102,
          -0.028848741203546524,
          0.018724802881479263,
          0.14072130620479584,
          0.003188229165971279,
          -0.0432279035449028,
          0.14023537933826447,
          -0.35748201608657837,
          0.2635035514831543,
          0.08753303438425064,
          -0.37020426988601685,
          0.2596908509731293,
          -0.1413358449935913,
          0.5865131616592407,
          0.17366810142993927,
          -0.15531525015830994,
          0.5431077480316162,
          0.1591062694787979,
          -0.00046796983224339783,
          0.010453996248543262,
          0.005153955891728401,
          0.006505579687654972,
          0.008173791691660881,
          0.06873566657304764,
          -0.015406138263642788,
          -0.005933133885264397,
          0.42007333040237427,
          0.09623078256845474,
          0.19033509492874146,
          0.42244577407836914,
          0.11209233850240707,
          0.17423196136951447,
          -0.2965726852416992,
          -0.5266823172569275,
          0.4340365529060364,
          -0.31170588731765747,
          -0.5128254890441895,
          0.44348815083503723,
          0.055136337876319885,
          0.010089114308357239,
          -0.14012126624584198,
          0.005771081894636154,
          -0.10458920896053314,
          -0.011333688162267208,
          0.01177674438804388,
          0.10973184555768967,
          0.15099452435970306,
          0.09341126680374146,
          -0.1509419083595276,
          0.09631210565567017,
          0.06843745708465576,
          -0.13777107000350952,
          0.0506005696952343,
          -0.1536833792924881,
          0.22544825077056885,
          0.04535936191678047,
          -0.20975852012634277,
          0.19205980002880096,
          0.2105000764131546,
          0.2797476351261139,
          0.34451135993003845,
          -0.23773744702339172,
          0.27938777208328247,
          -0.03464614599943161,
          0.4233313202857971,
          -0.1129130944609642,
          0.25469905138015747,
          0.005709819961339235,
          -0.04950940981507301,
          0.1066669300198555,
          0.20887897908687592,
          -0.18002384901046753,
          0.0789945051074028,
          0.1562160849571228,
          0.08254161477088928,
          -0.15284067392349243,
          0.20064295828342438,
          0.05290365591645241,
          -0.005163945257663727,
          -0.00939964596182108,
          0.034345634281635284,
          -0.01331395749002695,
          0.04849783331155777,
          0.0491580069065094,
          -0.04206877201795578,
          -0.03416317328810692,
          0.47590118646621704,
          -0.19809122383594513,
          -0.42946743965148926,
          -0.5103046298027039,
          0.2606355547904968,
          0.38342714309692383,
          -0.38896623253822327,
          0.13443177938461304,
          -0.35357481241226196,
          0.2796173095703125,
          -0.12098561972379684,
          0.2823476195335388,
          -0.271257221698761,
          0.2533532977104187,
          0.07076528668403625,
          0.3613601624965668,
          0.15094082057476044,
          -0.2387343794107437,
          0.40187060832977295,
          -0.16756682097911835,
          -0.12666234374046326,
          0.2589849829673767,
          0.19133566319942474,
          -0.037173207849264145,
          0.2480635941028595,
          0.2047836184501648,
          0.16258610785007477,
          0.12462546676397324,
          0.2498842477798462,
          0.19261899590492249,
          0.1727626472711563,
          0.24938151240348816,
          -0.07618064433336258,
          0.024926111102104187,
          0.05489024519920349,
          0.1164814829826355,
          0.027834100648760796,
          0.018720099702477455,
          0.16069109737873077,
          -0.15885478258132935,
          -0.2080930769443512,
          0.18183055520057678,
          0.31915631890296936,
          0.41411617398262024,
          -0.20585934817790985,
          -0.32585060596466064,
          0.21883241832256317,
          -0.0036296762991696596,
          0.112688347697258,
          -0.35242152214050293,
          0.07684341073036194,
          -0.43875449895858765,
          -0.0031311141792684793,
          -0.003800487844273448,
          0.0008118835394270718,
          0.00028961003408767283,
          -2.401831079623662e-05,
          -0.027062132954597473,
          0.0020131240598857403,
          0.0030733931344002485,
          -0.0664263442158699,
          0.3454705476760864,
          -0.31869199872016907,
          -0.09452439844608307,
          0.34786397218704224,
          -0.332528680562973,
          0.404165118932724,
          -0.24742120504379272,
          -0.2901354730129242,
          0.3854931592941284,
          -0.263413667678833,
          -0.2931152284145355,
          0.17600567638874054,
          -0.19482332468032837,
          0.10496653616428375,
          -0.03820975869894028,
          -0.05325229838490486,
          0.041121356189250946,
          -0.1908288151025772,
          0.005290309898555279,
          -0.45782557129859924,
          0.19185706973075867,
          0.23531968891620636,
          0.07357923686504364,
          0.0881635919213295,
          -0.07352452725172043,
          0.16830019652843475,
          -0.13581474125385284,
          0.23607434332370758,
          -0.06253345310688019,
          0.1141161322593689,
          0.04791855812072754,
          0.1788550615310669,
          0.13099458813667297,
          0.12450679391622543,
          -0.12647362053394318,
          0.007032827474176884,
          0.10052722692489624,
          0.18187841773033142,
          0.01211719773709774,
          0.23828713595867157,
          0.20145264267921448,
          0.0613376721739769,
          0.1825696974992752,
          0.20106977224349976,
          0.16939377784729004,
          -0.004664367530494928,
          0.2363617718219757,
          -0.0005782554508186877,
          0.11231398582458496,
          0.2073361724615097,
          0.06764642149209976,
          -0.023685641586780548,
          -0.01887686178088188,
          -0.130184605717659,
          -0.27426525950431824,
          0.031237762421369553,
          0.24613088369369507,
          -0.3997989296913147,
          0.15149681270122528,
          0.3150946795940399,
          -0.12552453577518463,
          -0.2265641689300537,
          0.2591651678085327,
          -0.2446795105934143,
          -0.10171300172805786,
          -0.2860577404499054,
          0.06929885596036911,
          -0.3922136127948761,
          -0.17265145480632782,
          -0.059586185961961746,
          -0.45940127968788147
        ],
        "bias": [
          0.05469254404306412,
          0.12030920386314392,
          0.07959806174039841,
          0.22223010659217834,
          -0.04327636957168579,
          0.07623074948787689,
          -0.08245566487312317,
          -0.016588622704148293,
          0.07568925619125366,
          -0.020615888759493828,
          -0.06316263973712921,
          -0.03297897055745125,
          -0.12009229511022568,
          0.04549138620495796,
          -0.20832931995391846,
          0.11843649297952652,
          0.10891906172037125,
          -0.36077073216438293,
          0.2682221531867981,
          0.10851161181926727,
          -0.15119850635528564,
          0.13935346901416779,
          0.07123193144798279,
          -0.1086873710155487,
          0.005368317011743784,
          -0.12264834344387054,
          -0.05704525113105774,
          -0.2251737117767334,
          0.050736937671899796,
          -0.10995173454284668,
          0.08430209010839462,
          0.12483890354633331,
          0.04105754941701889,
          0.013019632548093796,
          -0.2237299531698227,
          -0.09362401068210602,
          0.05087287724018097,
          0.3075768053531647,
          -0.04693078249692917,
          0.05983784422278404,
          -0.10347816348075867,
          -0.20371854305267334,
          0.2779321074485779,
          0.1843423843383789,
          0.009495289996266365,
          0.20660866796970367,
          -0.216687873005867,
          -0.11661473661661148,
          0.2401469498872757,
          0.0026712887920439243,
          0.10351264476776123,
          -0.13652953505516052,
          0.17112885415554047,
          -0.12666715681552887,
          -0.07005572319030762,
          -0.0017651267116889358,
          0.14783185720443726,
          -0.020521337166428566,
          -0.1307765245437622,
          -0.13180339336395264,
          0.027291027829051018,
          -0.1270814687013626,
          0.09286341816186905,
          0.10845319926738739
        ]
      },
      {
        "in_features": 64,
        "out_features": 64,
        "weights": [
          0.07238198071718216,
          -0.04191390797495842,
          -0.03195885196328163,
          0.13939298689365387,
          -0.02184094488620758,
          -0.07891587167978287,
          0.16275246441364288,
          0.3279331922531128,
          0.7280949354171753,
          0.03368780389428139,
          -0.10082457959651947,
          -8.281543731689453,
          0.14504294097423553,
          0.32882457971572876,
          0.04640663042664528,
          0.3460055887699127,
          0.163122296333313,
          0.31928491592407227,
          0.19806072115898132,
          0.15207184851169586,
          -0.30319198966026306,
          0.20807132124900818,
          0.0696277990937233,
          0.27864596247673035,
          -0.4954216778278351,
          -0.25574037432670593,
          0.2765152156352997,
          -0.10530133545398712,
          -0.05005840212106705,
          -0.004359647631645203,
          0.2506563067436218,
          0.02011166512966156,
          0.0350508913397789,
          -0.163416787981987,
          0.060131482779979706,
          -5.5625386238098145,
          0.2853938341140747,
          0.07117285579442978,
          -0.02441161312162876,
          0.5344228744506836,
          -0.26555925607681274,
          0.2133076786994934,
          0.038795869797468185,
          -0.46046707034111023,
          -0.2135688215494156,
          0.121523417532444,
          0.47179487347602844,
          0.21115028858184814,
          -0.10313994437456131,
          -3.8173322677612305,
          -0.19283686578273773,
          0.35181906819343567,
          0.10821714252233505,
          0.15363264083862305,
          0.04651805758476257,
          0.1439734697341919,
          0.22829481959342957,
          -0.02152884751558304,
          0.02460058592259884,
          -0.2160486876964569,
          0.09354881942272186,
          0.12929990887641907,
          0.2741776704788208,
          0.27047961950302124,
          0.5286496877670288,
          0.24617576599121094,
          -0.29755550622940063,
          0.2533400058746338,
          -0.032869599759578705,
          -0.10758304595947266,
          -0.05599102005362511,
          0.1321975439786911,
          -0.0055298274382948875,
          0.041027821600437164,
          0.045829519629478455,
          2.779965400695801,
          0.1071912944316864,
          -0.11897756159305573,
          0.04398106038570404,
          0.13231495022773743,
          0.048458028584718704,
          0.7178614139556885,
          -0.694496750831604,
          -0.020183341577649117,
          0.20885542035102844,
          -0.0968712866306305,
          -0.28590184450149536,
          -0.09384611994028091,
          -0.43781501054763794,
          0.08082868903875351,
          0.18767043948173523,
          0.6292514801025391,
          0.027242615818977356,
          -0.0459173284471035,
          0.08117297291755676,
          -0.046313975006341934,
          -0.04845842719078064,
          0.0854615569114685,
          0.06136924773454666,
          6.905733585357666,
          -0.23759759962558746,
          0.06272566318511963,
          0.31703007221221924,
          -0.7629873156547546,
          -0.23161807656288147,
          0.2722691297531128,
          -0.11628393828868866,
          0.06021605804562569,
          0.6924198269844055,
          -0.7791247367858887,
          -0.4703776240348816,
          -0.024248478934168816,
          -0.03538509085774422,
          -0.4194418489933014,
          0.6003907322883606,
          0.1202639490365982,
          0.33867156505584717,
          -0.03866744413971901,
          -0.036130309104919434,
          -0.09514153748750687,
          -0.18489068746566772,
          0.7576808929443359,
          0.1204623207449913,
          0.6254526972770691,
          -0.0014337440952658653,
          -0.09340482950210571,
          0.11111726611852646,
          -0.1298341006040573,
          0.2505042552947998,
          0.15896344184875488,
          0.17522653937339783,
          0.06793102622032166,
          0.18190939724445343,
          0.14597415924072266,
          0.16612830758094788,
          -0.06674405187368393,
          -0.6643511652946472,
          0.06924186646938324,
          -0.0775696188211441,
          1.8685765266418457,
          -0.11608132719993591,
          0.20511193573474884,
          0.017674079164862633,
          -0.027334989979863167,
          0.17653854191303253,
          0.4104824364185333,
          -0.13398942351341248,
          0.07797498255968094,
          0.18914151191711426,
          -0.05541878938674927,
          -0.03379225730895996,
          0.053021907806396484,
          0.7980348467826843,
          -0.12496840953826904,
          0.12191163003444672,
          -0.01778663508594036,
          0.11711382865905762,
          -0.06589914113283157,
          -0.053885526955127716,
          0.13935379683971405,
          0.1920163333415985,
          0.062200386077165604,
          0.10988696664571762,
          13.479157447814941,
          -0.03781579062342644,
          -0.01626122184097767,
          -0.06781486421823502,
          0.08851692825555801,
          0.255775511264801,
          0.06604135781526566,
          0.14219573140144348,
          0.1679994761943817,
          0.14718249440193176,
          -0.047333668917417526,
          -0.4897574484348297,
          0.13902384042739868,
          0.0016121647786349058,
          4.747090816497803,
          -0.011924258433282375,
          0.1577465832233429,
          0.030077721923589706,
          -0.04987223818898201,
          0.2061031460762024,
          -0.019444866105914116,
          -0.0014354934683069587,
          0.14104731380939484,
          0.05687754228711128,
          0.13385534286499023,
          0.009791315533220768,
          0.015559079125523567,
          0.058634817600250244,
          -0.2098419964313507,
          -0.09322063624858856,
          0.3662048876285553,
          -0.13126814365386963,
          -0.15733693540096283,
          0.04572832211852074,
          -0.0786573737859726,
          -0.002545400755479932,
          0.22316433489322662,
          0.048688191920518875,
          -0.004484623670578003,
          -0.0319502018392086,
          2.5318052768707275,
          -0.13319149613380432,
          0.1758839637041092,
          0.10321816802024841,
          0.2419414222240448,
          0.1707765907049179,
          -0.05936363339424133,
          -0.02409646101295948,
          -0.17996376752853394,
          0.07042666524648666,
          0.1444067806005478,
          -0.09161262214183807,
          0.18758369982242584,
          -0.2725716829299927,
          0.4543362557888031,
          0.2689794600009918,
          -0.43330174684524536,
          -0.027042748406529427,
          -0.03467973321676254,
          0.16481241583824158,
          -0.023444484919309616,
          -0.08417917788028717,
          0.08210956305265427,
          0.03543054312467575,
          -10.96976375579834,
          -0.07857142388820648,
          -0.19852110743522644,
          -0.16329479217529297,
          -0.012597446329891682,
          0.4297063946723938,
          0.1632480025291443,
          -0.07069434970617294,
          -0.15026982128620148,
          0.6555460691452026,
          -0.03185029700398445,
          0.3233254849910736,
          -0.11492849141359329,
          0.36615848541259766,
          1.6518934965133667,
          -0.1357879936695099,
          -0.1557086706161499,
          -0.17498180270195007,
          -0.021477095782756805,
          0.023714037612080574,
          -0.078580342233181,
          0.11509138345718384,
          0.055917829275131226,
          -0.311111181974411,
          0.11403865367174149,
          -0.0020372343715280294,
          -0.11617733538150787,
          -0.05104967579245567,
          -0.11492825299501419,
          0.6775044202804565,
          0.21954570710659027,
          0.1210046261548996,
          0.09808807820081711,
          -0.0495462566614151,
          0.22444598376750946,
          -0.012993020936846733,
          -0.22904165089130402,
          -0.16524595022201538,
          -0.01681511662900448,
          -0.07916934788227081,
          -0.18939927220344543,
          -0.06293405592441559,
          -0.2501358985900879,
          -0.00950782559812069,
          -0.2399839162826538,
          -0.12429915368556976,
          0.0075184679590165615,
          0.19453951716423035,
          -0.013891426846385002,
          0.03089980222284794,
          -0.14097464084625244,
          -0.05437018349766731,
          -0.21928922832012177,
          0.9763604402542114,
          -0.6505752801895142,
          0.0026497230865061283,
          -0.8958091735839844,
          -0.012803149409592152,
          0.09039728343486786,
          -0.16823573410511017,
          0.0014004409313201904,
          0.02336573787033558,
          -0.1671706587076187,
          -0.08211525529623032,
          9.049753189086914,
          -0.5869466066360474,
          0.03125617280602455,
          -0.0017350055277347565,
          -0.02558765560388565,
          -0.5329307317733765,
          0.05895794555544853,
          -0.08431311696767807,
          0.1695023477077484,
          -2.2331109046936035,
          0.0834648609161377,
          -0.03329350799322128,
          -0.1695016324520111,
          0.05927979201078415,
          0.09627150744199753,
          0.2270568460226059,
          0.18531307578086853,
          0.24543343484401703,
          0.04440142959356308,
          -0.044432248920202255,
          0.037992507219314575,
          0.006702118087559938,
          0.04133601114153862,
          0.1726287305355072,
          0.02085111290216446,
          -0.04290507361292839,
          0.13031317293643951,
          0.12584589421749115,
          -0.22769926488399506,
          -0.007065210957080126,
          0.44798392057418823,
          -0.12652488052845,
          -0.09848599880933762,
          0.03544259071350098,
          0.03535991162061691,
          -0.0020603223238140345,
          0.04280699044466019,
          0.11684949696063995,
          0.0514468252658844,
          0.10692271590232849,
          -3.395857334136963,
          0.15256674587726593,
          -0.02798081375658512,
          0.06390086561441422,
          0.050611890852451324,
          -0.011173284612596035,
          0.3367789089679718,
          -0.16581009328365326,
          -0.19716815650463104,
          0.05428888648748398,
          -0.0664687380194664,
          0.009501797147095203,
          -0.11139193177223206,
          -0.43517598509788513,
          0.4060477912425995,
          0.07225526869297028,
          0.2407446801662445,
          -0.04718553647398949,
          0.1983041614294052,
          0.03350917994976044,
          0.10155091434717178,
          -0.13444209098815918,
          0.024856433272361755,
          -0.0004299857246223837,
          3.380235433578491,
          -0.27918803691864014,
          0.051961056888103485,
          -0.039202407002449036,
          -0.054963577538728714,
          -0.815870463848114,
          0.15660201013088226,
          -0.1506604254245758,
          0.017392337322235107,
          -1.0103380680084229,
          -0.053187813609838486,
          0.22942867875099182,
          -0.049740325659513474,
          -0.5941739082336426,
          2.6889829635620117,
          0.18931233882904053,
          0.2422870695590973,
          0.006595729384571314,
          0.02924906648695469,
          -0.02574765495955944,
          -0.038217220455408096,
          0.08122853934764862,
          -0.009040224365890026,
          -0.07267676293849945,
          0.13568080961704254,
          0.04444953426718712,
          -0.1702922284603119,
          0.012727217748761177,
          -0.22835850715637207,
          0.2190207690000534,
          0.16329079866409302,
          -0.03969346731901169,
          -0.06879940629005432,
          0.06300698220729828,
          0.14887849986553192,
          0.1578594297170639,
          0.04299991950392723,
          -0.27699655294418335,
          0.03840074688196182,
          0.018366729840636253,
          0.29194068908691406,
          0.08334022015333176,
          0.1993526667356491,
          0.16151875257492065,
          0.02749675139784813,
          0.04203442111611366,
          -0.36689314246177673,
          -0.1880645453929901,
          -0.09566126763820648,
          -0.039231352508068085,
          0.11701495200395584,
          -0.02949001081287861,
          0.02037823013961315,
          -1.164798617362976,
          -0.020594626665115356,
          0.2657831013202667,
          0.033699825406074524,
          0.16516505181789398,
          -0.06415226310491562,
          0.01002424769103527,
          0.06448053568601608,
          -0.004656512290239334,
          0.0035260887816548347,
          0.09788444638252258,
          3.2163212299346924,
          0.037617865949869156,
          0.0402996763586998,
          0.1115293800830841,
          -0.03915180265903473,
          -0.11904586106538773,
          0.04353158548474312,
          -0.25916600227355957,
          0.1991889476776123,
          -1.207245111465454,
          -0.025102924555540085,
          0.41533327102661133,
          0.1349329948425293,
          -0.09996229410171509,
          -5.3196563720703125,
          0.35986632108688354,
          -0.05892699211835861,
          -0.11550752073526382,
          0.05742562189698219,
          0.12960310280323029,
          0.13270540535449982,
          -0.017706241458654404,
          0.11775118112564087,
          0.04684494435787201,
          0.174971804022789,
          0.04901283234357834,
          -0.20339997112751007,
          0.16410422325134277,
          0.3359302878379822,
          -0.21929635107517242,
          0.02722955122590065,
          -0.21353831887245178,
          -0.2477112114429474,
          0.03191434219479561,
          -0.04861213639378548,
          0.0015645369421690702,
          0.16082864999771118,
          0.04945318400859833,
          -0.00169632607139647,
          -0.039474550634622574,
          11.035720825195312,
          -0.21700158715248108,
          -0.03761707618832588,
          -0.30414879322052,
          0.16746793687343597,
          0.002556375227868557,
          0.19750571250915527,
          0.17229633033275604,
          -0.0429045744240284,
          0.26208049058914185,
          -0.0858195573091507,
          -0.23203597962856293,
          0.10834553837776184,
          0.16483257710933685,
          -0.15385915338993073,
          0.2303626388311386,
          -0.08019442856311798,
          -0.03445696458220482,
          -0.3083890378475189,
          0.10797793418169022,
          -0.012313487939536572,
          -0.21009132266044617,
          0.055991701781749725,
          0.006559018045663834,
          27.540388107299805,
          0.1751721054315567,
          -0.18279869854450226,
          0.20842817425727844,
          0.12241047620773315,
          0.013230743817985058,
          -0.2619982361793518,
          0.06741581857204437,
          -0.0031943353824317455,
          3.251457929611206,
          0.07211723178625107,
          -0.0042226193472743034,
          -0.33337968587875366,
          -0.048417750746011734,
          8.331767082214355,
          -0.009743381291627884,
          -0.10616733133792877,
          0.034517593681812286,
          -0.031507425010204315,
          0.004665727261453867,
          -0.03919126093387604,
          0.0913475826382637,
          1.1753008365631104,
          0.03793097659945488,
          0.4211759567260742,
          -0.007877924479544163,
          -0.26988521218299866,
          -0.14674055576324463,
          -0.22222961485385895,
          -0.08890053629875183,
          0.03180459514260292,
          0.01113283820450306,
          0.057955704629421234,
          0.11310485750436783,
          0.30703890323638916,
          0.034819595515728,
          -0.0412985123693943,
          0.14442473649978638,
          0.10504208505153656,
          0.09794697165489197,
          3.7247955799102783,
          -0.020317472517490387,
          0.03694533556699753,
          -0.08866259455680847,
          -0.03404585272073746,
          0.12303299456834793,
          -0.018675316125154495,
          0.01127291563898325,
          -0.030093539506196976,
          -0.1416371464729309,
          0.024464834481477737,
          -0.04666979983448982,
          0.18060094118118286,
          -0.4504840672016144,
          0.2425004243850708,
          0.06723956018686295,
          -0.14331361651420593,
          0.12934240698814392,
          -0.1632678210735321,
          -0.018660016357898712,
          0.25722429156303406,
          -0.0636816993355751,
          0.2105141282081604,
          0.13209110498428345,
          10.381255149841309,
          0.14063817262649536,
          0.07671162486076355,
          -0.07944431155920029,
          -0.0982372909784317,
          0.14155304431915283,
          0.1209241971373558,
          -0.03630364313721657,
          0.2163245677947998,
          -0.6105377674102783,
          -0.29332834482192993,
          0.25590449571609497,
          -0.09596741944551468,
          0.08233413845300674,
          1.6048583984375,
          0.3484934866428375,
          -0.1732497364282608,
          -0.04593617469072342,
          0.1177927777171135,
          0.25523126125335693,
          0.17598512768745422,
          0.04433827102184296,
          -0.0037148992996662855,
          0.043109092861413956,
          0.17000164091587067,
          0.2734281122684479,
          -0.08234395831823349,
          -0.023456823080778122,
          -0.06401006132364273,
          0.23405267298221588,
          0.04149136692285538,
          0.18690644204616547,
          -0.01973748207092285,
          -0.06788479536771774,
          0.0022170892916619778,
          0.14457666873931885,
          -0.0020597754046320915,
          -0.15866497159004211,
          0.01733887381851673,
          0.004278266336768866,
          -2.6093013286590576,
          0.0743318721652031,
          0.20421196520328522,
          0.22213904559612274,
          -0.013909212313592434,
          0.1740858405828476,
          0.5176377892494202,
          -0.27592986822128296,
          0.04170406982302666,
          0.058499228209257126,
          -0.055651191622018814,
          -0.017079826444387436,
          0.07362133264541626,
          -0.28740373253822327,
          -0.1401301473379135,
          0.25216081738471985,
          0.03199416771531105,
          0.0913553461432457,
          0.033238593488931656,
          -0.0053505138494074345,
          0.06252750754356384,
          0.037584319710731506,
          -0.04468637704849243,
          0.09121298789978027,
          -2.766106605529785,
          -0.015461137518286705,
          -0.011280997656285763,
          0.11878210306167603,
          -0.21179650723934174,
          -0.11273215711116791,
          0.1847241371870041,
          0.1375626027584076,
          0.02055453509092331,
          1.8718271255493164,
          0.42656752467155457,
          -0.1622946560382843,
          0.19561943411827087,
          -0.014801357872784138,
          -6.13978385925293,
          -0.3139241635799408,
          0.18152078986167908,
          -0.027953168377280235,
          0.05151918902993202,
          0.05904294177889824,
          0.11870279163122177,
          -0.06296950578689575,
          -0.009802194312214851,
          -0.029787451028823853,
          0.07450685650110245,
          0.06918590515851974,
          0.22431498765945435,
          0.05884864926338196,
          -0.6210437417030334,
          0.11277176439762115,
          0.07710587978363037,
          -0.2133747786283493,
          0.0004651380004361272,
          0.4747483730316162,
          -0.0007316861301660538,
          0.3867607116699219,
          -0.027039077132940292,
          -0.10919825732707977,
          0.44424131512641907,
          -0.011186059564352036,
          2.2261593341827393,
          -0.07924409955739975,
          -0.015262629836797714,
          0.03994915261864662,
          -0.02423952706158161,
          -0.023201702162623405,
          0.561209499835968,
          -0.15583905577659607,
          0.06458741426467896,
          0.06000174582004547,
          0.07939434051513672,
          -0.11341036856174469,
          0.10661304742097855,
          0.3341577351093292,
          0.1226407065987587,
          -0.16665616631507874,
          0.17301689088344574,
          -0.05470673739910126,
          0.46027252078056335,
          -0.013758531771600246,
          0.2704789638519287,
          -0.014178216457366943,
          0.3890349566936493,
          0.578233003616333,
          11.773197174072266,
          0.0045638298615813255,
          0.003846776904538274,
          -0.012620428577065468,
          0.157521054148674,
          -0.10547569394111633,
          -0.11268813908100128,
          -0.10084657371044159,
          0.191102996468544,
          -0.19789932668209076,
          0.0550868920981884,
          -0.10062052309513092,
          -0.04414123669266701,
          0.098051518201828,
          3.95131254196167,
          0.07755213975906372,
          -0.3827306032180786,
          -0.06905919313430786,
          0.15273417532444,
          0.35872793197631836,
          0.004195996094495058,
          0.04728657752275467,
          -0.09224475920200348,
          -0.16908203065395355,
          -0.002620742190629244,
          0.45554015040397644,
          -0.21228374540805817,
          0.013375116512179375,
          0.0632219985127449,
          -0.06279134005308151,
          0.21975037455558777,
          0.010753568261861801,
          -0.07818448543548584,
          0.372214674949646,
          0.23059140145778656,
          0.45810168981552124,
          -0.04570941627025604,
          0.06230522692203522,
          0.4412667751312256,
          -0.08742652833461761,
          0.03677912801504135,
          -0.12389399856328964,
          -0.0495201013982296,
          0.12415637820959091,
          -0.05687525123357773,
          -0.06277037411928177,
          -0.1426277607679367,
          0.08343498408794403,
          -0.043096136301755905,
          -0.11656276881694794,
          0.05845465511083603,
          0.05127451941370964,
          -0.07932507246732712,
          0.08047164976596832,
          -0.08230534940958023,
          0.0704580768942833,
          -0.11169961839914322,
          0.05035771429538727,
          -0.1053442731499672,
          -0.03831007704138756,
          0.336811363697052,
          -0.2073376178741455,
          0.2989165782928467,
          0.42855674028396606,
          10.335052490234375,
          0.0077585019171237946,
          0.14942361414432526,
          -0.0829654186964035,
          0.22588491439819336,
          0.1566074937582016,
          0.04430098086595535,
          0.03550044447183609,
          0.13827188313007355,
          0.3110584318637848,
          -0.05991537868976593,
          0.024022486060857773,
          0.08710125088691711,
          -0.1328984946012497,
          1.4160560369491577,
          0.0722956731915474,
          0.02737634815275669,
          -0.006125972140580416,
          0.2990947365760803,
          0.46532586216926575,
          0.061424143612384796,
          -0.15133877098560333,
          -0.31871047616004944,
          0.175877183675766,
          0.19467291235923767,
          0.46988391876220703,
          0.14593498408794403,
          -0.037169672548770905,
          0.2115403413772583,
          0.0032271661330014467,
          0.24449501931667328,
          0.08572976291179657,
          -0.07138527929782867,
          0.04163322225213051,
          0.04233090206980705,
          0.1993408203125,
          0.0060037532821297646,
          -0.3182728588581085,
          0.10662362724542618,
          0.09671449661254883,
          -2.839050054550171,
          -0.0030137973371893167,
          0.43951067328453064,
          0.0823652520775795,
          0.007995684631168842,
          0.23041826486587524,
          0.12594063580036163,
          0.06642431020736694,
          -0.20931854844093323,
          -0.10586217045783997,
          0.1578723043203354,
          -0.1596764624118805,
          0.03209252655506134,
          0.9262748956680298,
          -0.10700421035289764,
          0.18592815101146698,
          0.1742224395275116,
          0.03673429414629936,
          -0.17316171526908875,
          -0.004559786058962345,
          0.091236412525177,
          0.012228376232087612,
          0.0772380456328392,
          0.030234213918447495,
          3.6629951000213623,
          0.0589788444340229,
          -0.01205421518534422,
          0.1397896409034729,
          0.17004340887069702,
          0.1956585943698883,
          -0.10516725480556488,
          0.18687815964221954,
          0.01318629551678896,
          -0.08553812652826309,
          0.3743923604488373,
          -0.5417587161064148,
          0.039099812507629395,
          -0.2409386783838272,
          3.770639657974243,
          -0.5784122943878174,
          0.14629286527633667,
          -0.033120475709438324,
          0.1754784882068634,
          0.2481958568096161,
          0.029975956305861473,
          -0.025004100054502487,
          -0.10885998606681824,
          -0.031392522156238556,
          0.06524712592363358,
          0.11666149646043777,
          0.056897472590208054,
          0.09938427060842514,
          -0.030496573075652122,
          0.23675063252449036,
          -0.1099105104804039,
          0.09830904752016068,
          0.05132541432976723,
          -0.15442734956741333,
          -0.06584253162145615,
          0.06718255579471588,
          -0.08305511623620987,
          0.1935281604528427,
          0.024291766807436943,
          0.12184222787618637,
          5.607280254364014,
          0.11376316100358963,
          0.21294444799423218,
          -0.025947175920009613,
          -0.0951438918709755,
          0.09550914168357849,
          -1.4092448949813843,
          0.11625155806541443,
          -0.12810517847537994,
          0.24767917394638062,
          -0.008593280799686909,
          0.04896821081638336,
          -0.14475087821483612,
          1.2188785076141357,
          -0.2957579493522644,
          -0.020338695496320724,
          -0.05715877190232277,
          0.12492536008358002,
          -0.1799498051404953,
          -0.08403000235557556,
          -0.0806504338979721,
          0.19528210163116455,
          0.005857499781996012,
          0.019123459234833717,
          -6.844201564788818,
          -0.04630085080862045,
          -0.16913306713104248,
          0.136740580201149,
          0.73931485414505,
          0.2837715446949005,
          0.12881946563720703,
          0.12415730208158493,
          -0.2479363977909088,
          3.2391037940979004,
          0.4843098819255829,
          -0.008358785882592201,
          0.23124627768993378,
          -0.22229011356830597,
          1.1753171682357788,
          -0.15642119944095612,
          0.09766285866498947,
          -0.07769064605236053,
          0.03544926270842552,
          0.017540862783789635,
          0.12404512614011765,
          -0.18745766580104828,
          0.0649712085723877,
          0.0672461986541748,
          0.21981896460056305,
          -0.06384090334177017,
          0.3034282624721527,
          0.08402378112077713,
          0.11778733134269714,
          -0.282807856798172,
          1.1682454347610474,
          0.08467797935009003,
          -0.12137489020824432,
          0.022309280931949615,
          -0.07662922888994217,
          0.06153276562690735,
          0.1553030014038086,
          0.3341216444969177,
          0.0008660630555823445,
          0.10678502172231674,
          -0.06060897558927536,
          -0.2261495441198349,
          -0.08144067972898483,
          -0.041504282504320145,
          0.1640627086162567,
          0.012361480854451656,
          0.4115580916404724,
          -0.3426539897918701,
          -0.08741531521081924,
          0.09734837710857391,
          -0.008039397187530994,
          -0.03955794870853424,
          -0.26675593852996826,
          -0.7127439975738525,
          -0.002778369002044201,
          0.1904618889093399,
          0.42069023847579956,
          0.13345842063426971,
          0.1843227744102478,
          0.10370909422636032,
          0.06692499667406082,
          0.08697135001420975,
          -0.002891757059842348,
          0.058084066957235336,
          -1.3673536777496338,
          -0.11670960485935211,
          0.14128679037094116,
          -0.14476610720157623,
          -0.4148663878440857,
          0.10985873639583588,
          -0.06015235558152199,
          -0.2588353753089905,
          0.0321647971868515,
          -1.7916134595870972,
          -0.18795083463191986,
          0.1259433627128601,
          0.012853539548814297,
          -0.24342118203639984,
          0.5429937243461609,
          0.4768223166465759,
          0.5597001910209656,
          -0.022946016862988472,
          0.0038036538753658533,
          0.06597433239221573,
          0.10624852776527405,
          -0.008860521949827671,
          0.061762187629938126,
          -0.1573510617017746,
          0.14870281517505646,
          0.10486709326505661,
          0.19356723129749298,
          -0.09121591597795486,
          0.3225732147693634,
          0.1121419221162796,
          -0.05266496539115906,
          0.028469430282711983,
          0.019281024113297462,
          0.7390606999397278,
          -0.005026309285312891,
          0.881982147693634,
          -0.009114565327763557,
          -0.16771945357322693,
          0.8337299227714539,
          -0.1166512668132782,
          -0.5905650854110718,
          0.01763197034597397,
          -0.0554349385201931,
          0.033505022525787354,
          -0.006439681630581617,
          -0.04634540528059006,
          0.18192899227142334,
          0.030624229460954666,
          -0.006489584222435951,
          -0.13350437581539154,
          0.017491163685917854,
          -0.05895427241921425,
          0.05012199282646179,
          0.22152848541736603,
          -0.054838553071022034,
          -0.03279567137360573,
          0.1239982321858406,
          0.03083965554833412,
          0.016796229407191277,
          -0.005808800458908081,
          0.6434577107429504,
          0.08111143857240677,
          0.8531607389450073,
          0.9102285504341125,
          -6.478984355926514,
          -0.08474675565958023,
          -0.0120140565559268,
          -0.10494191944599152,
          0.10003731399774551,
          -0.16609463095664978,
          -0.047214169055223465,
          -0.055569734424352646,
          0.5111778378486633,
          0.11484924703836441,
          0.031768813729286194,
          -0.05436626449227333,
          0.08874528855085373,
          0.10706792771816254,
          -4.357163429260254,
          0.14867591857910156,
          -0.05689326301217079,
          0.0489831268787384,
          0.4338971972465515,
          0.6838542222976685,
          0.10321279615163803,
          0.07412322610616684,
          -0.14394605159759521,
          -0.016635216772556305,
          -0.21378660202026367,
          0.7023690938949585,
          -0.029457133263349533,
          0.0625002458691597,
          -0.03820178657770157,
          0.2471051961183548,
          0.15956075489521027,
          0.09013531357049942,
          0.12335669249296188,
          0.08635617792606354,
          0.17710869014263153,
          0.22257143259048462,
          -0.016821615397930145,
          -0.02929648756980896,
          0.12469228357076645,
          0.10499086230993271,
          -2.365776538848877,
          -0.09784908592700958,
          0.20841634273529053,
          0.19339533150196075,
          -0.0361754335463047,
          0.07542648166418076,
          0.22441965341567993,
          -0.269162118434906,
          -0.1763632893562317,
          0.19734206795692444,
          0.17055100202560425,
          0.03995269164443016,
          -0.15180981159210205,
          -1.2723759412765503,
          -0.13312985002994537,
          0.12525275349617004,
          -0.07792428880929947,
          0.17620866000652313,
          0.07944197207689285,
          -0.015260931104421616,
          -0.014466751366853714,
          0.12447988986968994,
          0.1635679453611374,
          0.1536627858877182,
          3.0910301208496094,
          0.018338926136493683,
          -0.1342579424381256,
          0.03863023221492767,
          5.759423947893083e-05,
          -0.022764813154935837,
          0.17945824563503265,
          0.05091449245810509,
          0.18337123095989227,
          -2.906825065612793,
          0.08295296132564545,
          -0.2081727832555771,
          0.2007800191640854,
          -0.03751969337463379,
          -4.720164775848389,
          0.130402609705925,
          -0.05289621651172638,
          -0.14908640086650848,
          0.17987027764320374,
          0.22968487441539764,
          0.22243773937225342,
          0.05535987764596939,
          0.035694580525159836,
          -0.048396311700344086,
          0.17435424029827118,
          0.17178012430667877,
          -0.0069601829163730145,
          0.09796833246946335,
          -0.12048278003931046,
          -0.2564464211463928,
          0.3394542336463928,
          0.09720801562070847,
          -0.10343164205551147,
          -0.018277673050761223,
          0.0838829055428505,
          0.11739751696586609,
          -0.16218426823616028,
          0.6886146664619446,
          0.04751312732696533,
          0.017957406118512154,
          5.808780670166016,
          -0.12505832314491272,
          0.19315701723098755,
          0.12183799594640732,
          -0.19598671793937683,
          0.19313441216945648,
          -0.6292743682861328,
          0.04712372273206711,
          -0.20434638857841492,
          -0.3133120834827423,
          0.25598469376564026,
          0.08327195793390274,
          0.18413889408111572,
          0.3706178069114685,
          -0.016100037842988968,
          0.30520984530448914,
          0.4125920534133911,
          0.05073125660419464,
          -0.04293101653456688,
          -0.15449963510036469,
          -0.10707320272922516,
          0.2077077329158783,
          0.02642199397087097,
          0.10143532603979111,
          12.020666122436523,
          -0.06030288338661194,
          -0.14425520598888397,
          0.10904321819543839,
          -0.21723167598247528,
          0.07056591659784317,
          0.061916645616292953,
          0.1357007622718811,
          0.0331956185400486,
          -0.042002808302640915,
          0.4076761305332184,
          0.451346218585968,
          0.12132877111434937,
          -0.23676569759845734,
          5.941649436950684,
          0.009165763854980469,
          -0.02166086994111538,
          -0.20216163992881775,
          0.12682634592056274,
          0.09310838580131531,
          0.21463845670223236,
          0.21056848764419556,
          -0.06143878400325775,
          -0.026927003636956215,
          -0.08765963464975357,
          -0.0074361409060657024,
          -0.07116124033927917,
          0.04846130684018135,
          -1.1410819292068481,
          -0.009296723641455173,
          -0.060437947511672974,
          -0.04322466626763344,
          -0.12770549952983856,
          0.04553896561264992,
          0.07906819134950638,
          0.2196258306503296,
          0.02006879821419716,
          0.026278549805283546,
          0.1665310561656952,
          -0.019875898957252502,
          0.8001947999000549,
          0.2210555523633957,
          0.070050448179245,
          -0.12700380384922028,
          0.02306254394352436,
          -0.14324870705604553,
          -0.1092439740896225,
          0.03630556911230087,
          0.02921387366950512,
          -0.07104644179344177,
          0.011400778777897358,
          -0.18998874723911285,
          -0.0953138917684555,
          0.012783702462911606,
          0.0006496559362858534,
          -0.04852796345949173,
          0.04265192151069641,
          0.10451619327068329,
          0.13988371193408966,
          0.0182826966047287,
          0.15610086917877197,
          0.011202351190149784,
          0.0002985884202644229,
          0.149552121758461,
          13.869592666625977,
          0.12622660398483276,
          -0.05197489634156227,
          -0.15861323475837708,
          0.006971285212785006,
          0.017498677596449852,
          -0.16768516600131989,
          0.038924332708120346,
          -0.19473546743392944,
          0.010492679663002491,
          0.021093059331178665,
          -0.014915328472852707,
          -0.06723181158304214,
          -0.02865956909954548,
          -0.22579537332057953,
          -0.21699926257133484,
          -0.008545123971998692,
          -0.16447485983371735,
          0.1585680991411209,
          0.15153434872627258,
          0.19933053851127625,
          0.23107564449310303,
          -0.022291889414191246,
          0.14520323276519775,
          -0.07621146738529205,
          0.1863369196653366,
          0.045637037605047226,
          0.16491226851940155,
          0.09311552345752716,
          0.33123958110809326,
          0.17281173169612885,
          -0.031368423253297806,
          -0.043202389031648636,
          0.09689953178167343,
          0.026965467259287834,
          0.06657279282808304,
          -0.02407652884721756,
          0.3685075640678406,
          0.18676045536994934,
          -0.12090036273002625,
          1.505083441734314,
          -0.07939423620700836,
          0.048055265098810196,
          0.039296653121709824,
          -0.02545180357992649,
          0.18365225195884705,
          0.21619826555252075,
          -0.03232517093420029,
          -0.016136927530169487,
          0.034410372376441956,
          0.018478864803910255,
          -0.08794163912534714,
          0.05780905485153198,
          -0.8020218014717102,
          -0.11871141195297241,
          0.01939253881573677,
          -0.07246250659227371,
          0.1642492115497589,
          0.12877275049686432,
          -0.022017061710357666,
          0.11822879314422607,
          0.07739081978797913,
          0.03656061738729477,
          0.14964993298053741,
          5.931763648986816,
          0.015743069350719452,
          0.005965061951428652,
          0.11674222350120544,
          -0.12758831679821014,
          -0.2135336548089981,
          0.18993671238422394,
          -0.024790136143565178,
          -0.01185083482414484,
          -1.766197681427002,
          0.12441978603601456,
          0.4347914457321167,
          -0.004076250828802586,
          -0.10814950615167618,
          3.511180877685547,
          0.18937313556671143,
          0.11998055875301361,
          -0.007814016193151474,
          0.1535472571849823,
          0.06038800626993179,
          0.039410874247550964,
          -0.025292811915278435,
          0.21764583885669708,
          -0.05052248761057854,
          0.05141834542155266,
          0.21586576104164124,
          -0.12094427645206451,
          0.14125333726406097,
          -0.38482141494750977,
          0.058774519711732864,
          -0.11477424949407578,
          -0.14254431426525116,
          -0.03358748182654381,
          0.22769485414028168,
          0.26986873149871826,
          0.2911878526210785,
          0.010122693143785,
          0.01835811138153076,
          0.2645980417728424,
          0.07980287075042725,
          0.61900395154953,
          -0.23711048066616058,
          0.051220498979091644,
          -0.15203100442886353,
          0.007297873962670565,
          -0.07125704735517502,
          0.1487616002559662,
          -0.0063655562698841095,
          -0.07917507737874985,
          0.0185069777071476,
          0.12787100672721863,
          -0.0943746492266655,
          0.07393356412649155,
          -0.5013455748558044,
          -0.031214561313390732,
          0.15077655017375946,
          0.119622603058815,
          0.1355823427438736,
          -0.027644114568829536,
          0.004198959097266197,
          0.260206013917923,
          0.006325152236968279,
          0.27106329798698425,
          0.33286136388778687,
          -1.3949496746063232,
          0.15078666806221008,
          -0.021684108301997185,
          0.24372175335884094,
          0.024533236399292946,
          -0.04761386290192604,
          -0.00430018687620759,
          0.1443711519241333,
          -0.013285643421113491,
          0.8969231843948364,
          0.1303347796201706,
          -0.10752344131469727,
          -0.17194341123104095,
          0.06251757591962814,
          4.172890663146973,
          -0.048732124269008636,
          -0.12991850078105927,
          0.06354033946990967,
          0.21682749688625336,
          0.2575492560863495,
          0.15861201286315918,
          0.005041959695518017,
          0.40892377495765686,
          0.1205189898610115,
          0.22601576149463654,
          0.24866144359111786,
          0.016918087378144264,
          -0.08213046938180923,
          -0.09103681892156601,
          0.054546698927879333,
          0.20369979739189148,
          0.08781348913908005,
          -0.014950340613722801,
          0.08271269500255585,
          0.06508003175258636,
          0.16096161305904388,
          -0.0378887839615345,
          0.07605455070734024,
          0.18869648873806,
          0.12311206758022308,
          -2.2377657890319824,
          -0.09635350108146667,
          0.16344121098518372,
          -0.03758249059319496,
          -0.030217567458748817,
          0.11040046066045761,
          -0.0680517926812172,
          0.10864704847335815,
          0.046042438596487045,
          -0.11256242543458939,
          -0.0524556003510952,
          -0.006592723540961742,
          -0.04382314160466194,
          -0.8686913847923279,
          -0.03803326562047005,
          0.2215617448091507,
          -0.10756085813045502,
          -0.01929323375225067,
          0.07905815541744232,
          -0.01854977197945118,
          0.11581794172525406,
          0.008850101381540298,
          0.08915744721889496,
          0.2496647834777832,
          5.346335411071777,
          0.1637304276227951,
          0.07428537309169769,
          -0.06406983733177185,
          -0.2615050971508026,
          -0.04782384634017944,
          0.08955154567956924,
          -0.17545603215694427,
          0.06720639020204544,
          -1.7108296155929565,
          -0.27192187309265137,
          0.614081084728241,
          0.03929624706506729,
          0.06784183531999588,
          -3.6200308799743652,
          0.19738347828388214,
          0.07494470477104187,
          0.03195861726999283,
          0.08842550963163376,
          0.12980662286281586,
          0.07343386858701706,
          0.19747716188430786,
          0.15443088114261627,
          0.08129123598337173,
          0.09875039011240005,
          0.15960319340229034,
          0.03222315013408661,
          0.02256537601351738,
          0.6084023118019104,
          -0.12386564165353775,
          0.23615603148937225,
          -0.37532782554626465,
          0.040545668452978134,
          0.21361173689365387,
          -0.06729365885257721,
          0.174310103058815,
          -0.04665323719382286,
          -0.09004275500774384,
          0.14803972840309143,
          -0.05580485984683037,
          2.496134042739868,
          -0.18913446366786957,
          0.20714294910430908,
          -0.11413610726594925,
          -0.04556342586874962,
          0.20564043521881104,
          -0.014973191544413567,
          -0.012684672139585018,
          -0.014972526580095291,
          0.017533574253320694,
          0.16649241745471954,
          0.04077989235520363,
          0.21470417082309723,
          0.19825534522533417,
          0.40247052907943726,
          -0.19042576849460602,
          -0.1856304407119751,
          0.015001753345131874,
          0.6447396874427795,
          -0.035217054188251495,
          0.14322367310523987,
          0.10352148860692978,
          0.19864927232265472,
          0.19924698770046234,
          10.280921936035156,
          -0.07187841832637787,
          -0.04645516723394394,
          -0.03953233361244202,
          0.587622880935669,
          0.534919023513794,
          -0.41368424892425537,
          -0.11146659404039383,
          -0.11696269363164902,
          0.6982681751251221,
          0.2665843367576599,
          -0.13745884597301483,
          -0.4834721088409424,
          0.07962042093276978,
          3.757904052734375,
          0.2559761703014374,
          0.27725282311439514,
          -0.26851728558540344,
          0.017560558393597603,
          0.1590007245540619,
          -0.02066212147474289,
          0.0028412153478711843,
          -0.18132419884204865,
          -0.33539530634880066,
          -0.06708697229623795,
          0.20575203001499176,
          -0.2675918638706207,
          -0.20442737638950348,
          0.1595538854598999,
          -0.1822090744972229,
          0.012226838618516922,
          0.1337568163871765,
          -0.1577553153038025,
          0.09213487803936005,
          0.09212626516819,
          0.08214619010686874,
          0.004476485308259726,
          -0.010307340882718563,
          0.07700572907924652,
          -0.014440628699958324,
          -12.331805229187012,
          -0.16464820504188538,
          -0.1940469890832901,
          -0.1658213883638382,
          -0.005202994681894779,
          -0.11617802083492279,
          0.6799802780151367,
          -0.047715410590171814,
          -0.3062174916267395,
          -0.01660025306046009,
          -0.023611312732100487,
          -0.0791344940662384,
          0.17297694087028503,
          -0.7894792556762695,
          0.3266669511795044,
          -0.08319170027971268,
          -0.009154518134891987,
          -0.012063855305314064,
          0.45234522223472595,
          -0.009369623847305775,
          0.06347738206386566,
          -0.08518441766500473,
          0.02795547991991043,
          0.10857434570789337,
          -6.036066055297852,
          0.13203968107700348,
          0.0845409408211708,
          -0.2285803109407425,
          -0.17642298340797424,
          -0.29020023345947266,
          0.031426213681697845,
          -0.04081714153289795,
          -0.1009218618273735,
          -1.6042070388793945,
          -0.0476396307349205,
          0.17879803478717804,
          -0.006100972183048725,
          0.20679821074008942,
          -3.7902209758758545,
          0.38760140538215637,
          0.3731384873390198,
          -0.09793155640363693,
          0.04590671509504318,
          0.0833563283085823,
          0.03739036247134209,
          0.01701975055038929,
          -0.004959543235599995,
          -0.05257103964686394,
          -0.008923236280679703,
          0.09945055097341537,
          -0.14473006129264832,
          0.02379424124956131,
          0.19910934567451477,
          0.20631258189678192,
          0.07225007563829422,
          0.01993279717862606,
          -0.045929327607154846,
          0.21011902391910553,
          0.1295788288116455,
          0.19865092635154724,
          -0.08055806159973145,
          -0.12830781936645508,
          0.15045006573200226,
          -0.027121998369693756,
          -0.07400848716497421,
          0.024072716012597084,
          0.33665668964385986,
          0.015576023608446121,
          -0.15023048222064972,
          0.2297181785106659,
          0.1573336124420166,
          0.1163625493645668,
          0.10342976450920105,
          0.21139362454414368,
          0.14492419362068176,
          0.035557471215724945,
          0.2006213217973709,
          -0.09683499485254288,
          0.0314999595284462,
          0.005331502761691809,
          0.23955076932907104,
          0.03516938164830208,
          -0.04561605677008629,
          -0.12622596323490143,
          0.12654155492782593,
          0.09573063254356384,
          0.24509066343307495,
          0.24591299891471863,
          7.805478096008301,
          0.05516725406050682,
          -0.12205053865909576,
          -0.10976243764162064,
          0.06980080902576447,
          0.1913469135761261,
          -0.03232867270708084,
          -0.04946868494153023,
          0.13540467619895935,
          -1.002213716506958,
          0.6944517493247986,
          -0.15727292001247406,
          -0.04207606241106987,
          -0.07569236308336258,
          3.094680070877075,
          0.22432591021060944,
          0.1575200855731964,
          0.0243849940598011,
          0.19118401408195496,
          0.187363862991333,
          0.3384571373462677,
          0.16370928287506104,
          -0.07127103954553604,
          0.002991290530189872,
          0.037130843847990036,
          0.28112250566482544,
          -0.08409518748521805,
          0.12589550018310547,
          -0.029112089425325394,
          -0.019877124577760696,
          -0.14759975671768188,
          -0.06905734539031982,
          -0.023941999301314354,
          -0.020768776535987854,
          -0.023898260667920113,
          -0.02448178455233574,
          -0.0005063843564130366,
          -0.07263727486133575,
          -0.08168206363916397,
          -0.05395679175853729,
          -0.04225221648812294,
          -0.14346382021903992,
          -0.048790186643600464,
          -0.00434483028948307,
          -0.054222527891397476,
          -0.12516473233699799,
          -0.00032520678360015154,
          -0.12066218256950378,
          0.06836432218551636,
          0.0814712643623352,
          -0.0077621652744710445,
          -0.07476343214511871,
          -0.11275553703308105,
          0.058425482362508774,
          0.0141587033867836,
          -0.04652241989970207,
          -0.07017350941896439,
          0.09607461094856262,
          -0.04395079240202904,
          -0.015425206162035465,
          -0.026197878643870354,
          -0.029945742338895798,
          0.08944922685623169,
          -0.08906665444374084,
          0.028367850929498672,
          -0.1175055205821991,
          -0.07462351769208908,
          0.0103867556899786,
          -0.12594981491565704,
          -0.01861673593521118,
          -0.04512505978345871,
          0.04286378622055054,
          0.042368751019239426,
          0.039327770471572876,
          0.05803538113832474,
          -0.026081150397658348,
          0.060137584805488586,
          -0.06050609052181244,
          -0.08943964540958405,
          -0.12372726947069168,
          0.06692764908075333,
          0.06392185389995575,
          0.011596739292144775,
          -0.02734432741999626,
          -0.13928523659706116,
          0.02275979146361351,
          -0.1314147412776947,
          -0.11882287263870239,
          0.026302020996809006,
          0.06836718320846558,
          -0.13201750814914703,
          0.09962844103574753,
          0.10204784572124481,
          0.527414858341217,
          0.00034385480103082955,
          0.19997750222682953,
          0.011798551306128502,
          -0.04498129338026047,
          0.01709321327507496,
          0.0019261937122792006,
          0.06795157492160797,
          -0.04795975983142853,
          0.003120243549346924,
          -0.041285984218120575,
          12.93901538848877,
          0.1378941684961319,
          0.07549416273832321,
          0.10762342810630798,
          0.06916242837905884,
          -0.06127890571951866,
          -0.1380370855331421,
          0.09888900816440582,
          -0.035427432507276535,
          -0.03976213559508324,
          -0.01211670320481062,
          0.03391308709979057,
          0.007719800807535648,
          1.2167147397994995,
          0.08358003944158554,
          0.04753081128001213,
          0.22402323782444,
          0.03525519743561745,
          -0.14412297308444977,
          0.044066667556762695,
          0.0054072123020887375,
          -0.07029824703931808,
          -0.025243796408176422,
          -0.013637607917189598,
          30.48202133178711,
          -0.006046254653483629,
          -0.06649737060070038,
          -0.04490917548537254,
          0.16012811660766602,
          -0.11202440410852432,
          -0.11616048216819763,
          0.14782947301864624,
          0.047359008342027664,
          0.489962100982666,
          0.02180415764451027,
          0.2511868476867676,
          -0.021567054092884064,
          -0.05441391095519066,
          7.102278709411621,
          0.1890236884355545,
          0.24122479557991028,
          -0.14066451787948608,
          0.019658295437693596,
          -0.007793791592121124,
          0.05140222609043121,
          -0.05846671760082245,
          0.09953147917985916,
          -0.05838756263256073,
