{
  "model": {
    "layers": [
      {
        "in_features": 8,
        "out_features": 12,
        "weights": [
          -0.3684169352054596,
          0.2051643431186676,
          0.3738172948360443,
          0.025058040395379066,
          0.1406603753566742,
          -0.030068520456552505,
          0.14634819328784943,
          0.07555495947599411,
          0.08567269891500473,
          0.0818924605846405,
          -0.0978427305817604,
          -0.04627552628517151,
          0.3041597902774811,
          -0.24271486699581146,
          0.13176049292087555,
          0.18868295848369598,
          -1.173951506614685,
          0.4481470584869385,
          -0.18580198287963867,
          -0.44776901602745056,
          0.27423977851867676,
          0.15325789153575897,
          -0.7228866815567017,
          -0.3243505358695984,
          0.5800032615661621,
          0.10807318985462189,
          0.18516646325588226,
          -0.34720224142074585,
          0.15205298364162445,
          -0.35461434721946716,
          0.25569838285446167,
          0.6939952969551086,
          -0.03309328854084015,
          -0.533165454864502,
          -0.2522641122341156,
          -0.03364275023341179,
          -0.2892972230911255,
          0.250958651304245,
          -0.526843786239624,
          -0.5239638090133667,
          -0.09795236587524414,
          0.028419744223356247,
          0.3258253037929535,
          -0.023258360102772713,
          -0.13426557183265686,
          0.17647720873355865,
          -0.05395600199699402,
          -0.013359555043280125,
          -0.35702353715896606,
          -0.17780329287052155,
          -0.4616573452949524,
          0.36643028259277344,
          -0.23105554282665253,
          0.34680137038230896,
          -0.21945402026176453,
          -0.6403293013572693,
          -0.03681879863142967,
          0.3364903926849365,
          0.34434962272644043,
          0.0675792321562767,
          0.06158722937107086,
          -0.23263853788375854,
          0.5148402452468872,
          0.5230077505111694,
          0.2853318452835083,
          0.1720065474510193,
          -0.18221165239810944,
          0.021332714706659317,
          0.05999041721224785,
          0.20927879214286804,
          0.004346270114183426,
          -0.02662494219839573,
          -0.17714034020900726,
          -0.3153633177280426,
          0.2443821132183075,
          -0.036130860447883606,
          -0.06511180847883224,
          0.18676450848579407,
          -0.46629804372787476,
          -0.4352952539920807,
          -0.2738388180732727,
          0.01378653571009636,
          -0.25532135367393494,
          0.22792473435401917,
          0.03601843863725662,
          0.3288376033306122,
          -0.26056814193725586,
          -0.5320579409599304,
          -0.3722374141216278,
          -0.5063210129737854,
          -0.8259725570678711,
          0.19480179250240326,
          -0.5868890285491943,
          0.01349707879126072,
          0.16521266102790833,
          0.10343660414218903
        ],
        "bias": [
          0.2575673460960388,
          0.2390168011188507,
          -0.3486206829547882,
          0.09385690838098526,
          -0.06687046587467194,
          0.08926884829998016,
          -0.022376062348484993,
          0.19226664304733276,
          0.09134716540575027,
          -0.4857105314731598,
          -0.3096747100353241,
          -0.07438267767429352
        ]
      },
      {
        "in_features": 20,
        "out_features": 64,
        "weights": [
          0.09924746304750443,
          0.46702396869659424,
          0.1889316886663437,
          0.03803374245762825,
          -0.07394297420978546,
          -0.21349550783634186,
          0.054158132523298264,
          0.28101617097854614,
          -0.2875642776489258,
          -0.16149219870567322,
          -0.05525132641196251,
          -0.11894594877958298,
          0.06391097605228424,
          0.11336484551429749,
          0.12866272032260895,
          -0.011400878429412842,
          -0.2991773784160614,
          0.019192636013031006,
          -0.02984013594686985,
          -0.09899923950433731,
          -0.23516596853733063,
          -0.24051088094711304,
          -0.10163580626249313,
          0.3089230954647064,
          0.29425087571144104,
          0.10381072014570236,
          0.06524483859539032,
          -0.04886417090892792,
          0.006361006293445826,
          -0.06178548187017441,
          -0.009648097679018974,
          0.02837509661912918,
          0.1477995067834854,
          0.012193114496767521,
          0.09432746469974518,
          -0.03535609319806099,
          -0.01563136838376522,
          0.034421078860759735,
          -0.18668465316295624,
          -0.015322456136345863,
          -0.1096712201833725,
          0.35727760195732117,
          0.08748866617679596,
          0.06469579041004181,
          0.1155892089009285,
          -0.4156632125377655,
          0.4332525432109833,
          0.5629832744598389,
          -0.09255990386009216,
          -0.11404642462730408,
          0.2574802339076996,
          -0.07772042602300644,
          -0.12101491540670395,
          0.25833988189697266,
          0.24261148273944855,
          0.04464246705174446,
          -0.09175947308540344,
          0.24449042975902557,
          0.05208466574549675,
          -0.07502419501543045,
          -0.014967657625675201,
          -0.007895131595432758,
          0.01105237752199173,
          0.09373435378074646,
          -0.004625540226697922,
          0.12500399351119995,
          -0.0714411586523056,
          -0.0002610458177514374,
          0.10226738452911377,
          0.4540189802646637,
          0.4400143623352051,
          -0.0441276840865612,
          -0.3213985562324524,
          -0.27812203764915466,
          0.2014162540435791,
          -0.4079625904560089,
          0.02942405454814434,
          -0.3205621838569641,
          0.4941421449184418,
          0.08436994254589081,
          -0.03857195004820824,
          0.017483428120613098,
          0.020442722365260124,
          -0.11921601742506027,
          -0.031489692628383636,
          -0.12987717986106873,
          0.17979581654071808,
          -0.0764474868774414,
          -0.057619523257017136,
          -0.15564905107021332,
          -0.18138697743415833,
          0.10427257418632507,
          0.30737149715423584,
          0.3346634805202484,
          -0.17224229872226715,
          0.22530323266983032,
          0.0003160107880830765,
          0.255328506231308,
          -0.37622252106666565,
          0.021527428179979324,
          0.06281226128339767,
          0.15220536291599274,
          -0.15523603558540344,
          -0.01510610617697239,
          -0.25613728165626526,
          -0.08116412907838821,
          0.16173401474952698,
          0.30977094173431396,
          0.07947216182947159,
          -0.1953647881746292,
          -0.1588907688856125,
          0.1345537155866623,
          -0.03638552501797676,
          -0.27750661969184875,
          0.019662195816636086,
          0.05334615334868431,
          0.06707579642534256,
          -0.08916408568620682,
          -0.08222436159849167,
          0.09902986139059067,
          0.12895943224430084,
          0.36869361996650696,
          0.1689508557319641,
          0.10064186155796051,
          0.0015565234934911132,
          0.0034433321561664343,
          0.22193501889705658,
          -0.1589856892824173,
          -0.14049400389194489,
          -0.05692913755774498,
          0.03405461460351944,
          -0.08069761842489243,
          -0.05088621377944946,
          -0.02661728300154209,
          -0.05469966679811478,
          0.18687281012535095,
          -0.09976118057966232,
          -0.02774704433977604,
          0.10941986739635468,
          -0.06665285676717758,
          0.015250545926392078,
          0.02960311435163021,
          0.20702436566352844,
          0.6135379076004028,
          -0.12203211337327957,
          -0.20465238392353058,
          -0.27213168144226074,
          -0.18620380759239197,
          0.04509009048342705,
          -0.28812265396118164,
          -0.30106064677238464,
          -0.11513751745223999,
          -0.19005149602890015,
          -0.031143086031079292,
          -0.21056737005710602,
          0.24138015508651733,
          0.14716853201389313,
          -0.08445814996957779,
          0.18785762786865234,
          -0.01868632808327675,
          0.022174149751663208,
          -0.0036764813121408224,
          0.06812746077775955,
          -0.0253812987357378,
          -0.03292008116841316,
          0.15775534510612488,
          -0.20694611966609955,
          0.004901996813714504,
          -0.23808036744594574,
          0.0017451844178140163,
          0.11206153780221939,
          -0.25765031576156616,
          -0.39432889223098755,
          -0.41154685616493225,
          0.07003317773342133,
          0.00515484344214201,
          -0.23930642008781433,
          -0.3120649755001068,
          0.4800800383090973,
          -0.15189538896083832,
          0.0993514135479927,
          0.521962583065033,
          -0.08872072398662567,
          0.0972016230225563,
          -0.2532506287097931,
          0.00833324808627367,
          -0.1775316596031189,
          0.3391566574573517,
          0.23197364807128906,
          0.18795764446258545,
          -0.10297156870365143,
          0.28078246116638184,
          0.11096376925706863,
          -0.11114160716533661,
          -0.25881311297416687,
          -0.021566204726696014,
          0.23507274687290192,
          -0.10157332569360733,
          -0.10929680615663528,
          0.24166755378246307,
          -0.07279890775680542,
          -0.06425879150629044,
          -0.06494250148534775,
          0.24209849536418915,
          0.19479665160179138,
          0.14994263648986816,
          -0.016547147184610367,
          -0.1981731802225113,
          -0.0029459367506206036,
          -0.28789106011390686,
          -0.27137234807014465,
          0.19388723373413086,
          -0.00432800967246294,
          -0.13308589160442352,
          -0.03248976171016693,
          0.07152450084686279,
          0.029077835381031036,
          -0.12020264565944672,
          -0.05279286205768585,
          0.2292359173297882,
          -0.002634982578456402,
          -0.002180097857490182,
          -0.004854636266827583,
          -0.010594885796308517,
          -0.005038945470005274,
          -0.004480034578591585,
          -0.014341231435537338,
          0.0046422453597188,
          -0.47021910548210144,
          -0.27987176179885864,
          0.3848873972892761,
          -0.49853718280792236,
          -0.2743157148361206,
          0.3744948208332062,
          -0.3776930272579193,
          -0.19130244851112366,
          0.4089067578315735,
          -0.38978633284568787,
          -0.19143106043338776,
          0.38093915581703186,
          0.1999465972185135,
          0.3318554162979126,
          0.07721035182476044,
          -0.49548694491386414,
          -0.30880206823349,
          0.04178695008158684,
          0.3496667146682739,
          -0.4001520276069641,
          0.3104183077812195,
          0.08223993331193924,
          0.08531668782234192,
          0.26734989881515503,
          -0.11204476654529572,
          0.1409078687429428,
          -0.02106553316116333,
          -0.015264030545949936,
          0.33890005946159363,
          0.06340384483337402,
          0.14527417719364166,
          0.32319021224975586,
          0.16460204124450684,
          0.2279023826122284,
          0.19766168296337128,
          -0.7562124133110046,
          0.202500581741333,
          -0.1718863993883133,
          0.6842163801193237,
          0.7022072076797485,
          0.030423661693930626,
          0.22706688940525055,
          0.01650909334421158,
          -0.016208535060286522,
          0.17642922699451447,
          0.026000894606113434,
          -0.008481072261929512,
          -0.22616910934448242,
          -0.009833975695073605,
          0.01857883669435978,
          -0.19277265667915344,
          -0.05250898748636246,
          0.028490837663412094,
          0.027970796450972557,
          -0.14685197174549103,
          0.10182273387908936,
          0.14905782043933868,
          -0.42183056473731995,
          -0.11063870787620544,
          0.2605868875980377,
          -0.15370717644691467,
          -0.019385525956749916,
          -0.12668606638908386,
          -0.048455510288476944,
          -0.2973844110965729,
          -0.3075958788394928,
          -0.03613535687327385,
          -0.02581830509006977,
          -0.17049580812454224,
          -0.20865079760551453,
          0.33198636770248413,
          0.022803062573075294,
          -0.23784801363945007,
          -0.41696861386299133,
          -0.10858146846294403,
          0.39837682247161865,
          0.25818338990211487,
          -0.527827799320221,
          0.04450737312436104,
          -0.24031461775302887,
          -0.07006221264600754,
          -0.20927461981773376,
          -0.04533501714468002,
          -0.07348693162202835,
          -0.22469837963581085,
          -0.0002751071297097951,
          -0.11544489115476608,
          0.3212641775608063,
          0.010731847025454044,
          -0.07142803817987442,
          0.32256263494491577,
          0.006429057568311691,
          0.12373243272304535,
          0.35043632984161377,
          0.03541260585188866,
          -0.12446071207523346,
          -0.11542978882789612,
          -0.26579731702804565,
          0.03249427303671837,
          0.04239601641893387,
          -0.08836733549833298,
          -0.21309706568717957,
          -0.06960776448249817,
          -0.026179281994700432,
          0.06203411892056465,
          0.0036176994908601046,
          0.03456167131662369,
          0.10423772782087326,
          -0.03899082541465759,
          0.038276661187410355,
          -0.14935041964054108,
          -0.024746257811784744,
          0.0007360064191743731,
          0.001457987236790359,
          0.004907518625259399,
          0.007281819358468056,
          0.0009730877354741096,
          0.0019582288805395365,
          0.009668335318565369,
          -0.004574748687446117,
          -0.19969502091407776,
          -0.3146921992301941,
          0.4898698925971985,
          -0.14129450917243958,
          -0.32913148403167725,
          0.5084633827209473,
          -0.5108413696289062,
          -0.20645467936992645,
          0.1612931787967682,
          -0.48279696702957153,
          -0.20844490826129913,
          0.2178277224302292,
          0.28854045271873474,
          -0.5187481641769409,
          -0.0012551054824143648,
          -0.4449504017829895,
          0.15016043186187744,
          -0.4242178201675415,
          -0.1643412560224533,
          0.088711217045784,
          -0.005958028137683868,
          -0.01932772994041443,
          0.010874321684241295,
          -0.014652954414486885,
          -0.03555723652243614,
          0.019853122532367706,
          0.011597728356719017,
          0.016604015603661537,
          -0.003548390232026577,
          0.019522415474057198,
          0.03210888430476189,
          -0.008881895802915096,
          -0.20957501232624054,
          0.36709052324295044,
          -0.08646693825721741,
          -0.0426873080432415,
          0.03465462476015091,
          -0.04495454207062721,
          0.265369176864624,
          0.491752564907074,
          0.2708315849304199,
          0.037308547645807266,
          -0.040438972413539886,
          0.1772306263446808,
          0.03418769687414169,
          -0.07973569631576538,
          0.1021035835146904,
          -0.18357272446155548,
          0.20671126246452332,
          -0.07160302996635437,
          -0.025838414207100868,
          0.16825515031814575,
          0.07301007211208344,
          0.30249860882759094,
          0.07974670082330704,
          0.2859639525413513,
          0.0005231666727922857,
          -0.1162487342953682,
          -0.15857286751270294,
          0.21358443796634674,
          -0.06835682690143585,
          0.10651000589132309,
          -0.14445984363555908,
          -0.21085481345653534,
          0.1147146001458168,
          -0.011198695749044418,
          -0.20576483011245728,
          -0.22266897559165955,
          0.20110802352428436,
          -0.23980356752872467,
          -0.10422809422016144,
          0.1016867533326149,
          0.1288158893585205,
          0.34777989983558655,
          0.0473872646689415,
          -0.3357878029346466,
          -0.26137545704841614,
          0.3799029290676117,
          0.11135902255773544,
          0.0016399890882894397,
          -0.03191171586513519,
          0.159197598695755,
          0.17776845395565033,
          0.10935331135988235,
          0.1459430605173111,
          0.09324850887060165,
          0.035848163068294525,
          -0.09159307926893234,
          -0.041707683354616165,
          0.052302442491054535,
          -0.15420261025428772,
          0.07698965072631836,
          0.3148573637008667,
          -0.296068012714386,
          -0.05898242071270943,
          -0.292182981967926,
          -0.02772916853427887,
          -0.2796163558959961,
          -0.41304337978363037,
          0.10465283691883087,
          -0.06110004708170891,
          -0.010676493868231773,
          -0.005240438971668482,
          -0.050815001130104065,
          -0.0036146033089607954,
          -0.003158696461468935,
          -0.014574785716831684,
          0.024722957983613014,
          -0.05413126200437546,
          -0.016924304887652397,
          0.02077406644821167,
          -0.04415304586291313,
          0.22913295030593872,
          0.025041816756129265,
          0.12106412649154663,
          0.024020718410611153,
          0.0443476177752018,
          0.028555285185575485,
          0.033568717539310455,
          0.01801539771258831,
          -0.045642003417015076,
          0.019747575744986534,
          -0.0073442477732896805,
          -0.2704046964645386,
          0.6693807244300842,
          1.1094650030136108,
          -0.0289577916264534,
          0.004273197613656521,
          -0.041734643280506134,
          1.0079346895217896,
          -1.0230246782302856,
          -0.5377199053764343,
          0.0364973358809948,
          -0.3085084557533264,
          -0.1576492190361023,
          -0.1359482705593109,
          0.29361361265182495,
          0.1915348470211029,
          -0.5101745128631592,
          0.7623850107192993,
          0.39360955357551575,
          -0.011535156518220901,
          0.019072888419032097,
          0.30521613359451294,
          0.016369756311178207,
          0.0018262170488014817,
          0.07819166779518127,
          -0.06127702072262764,
          0.37574824690818787,
          0.025372399017214775,
          -0.04712928459048271,
          0.29496005177497864,
          0.07771965861320496,
          -0.15006926655769348,
          -0.08445282280445099,
          -0.2878815233707428,
          -0.043985821306705475,
          0.016368908807635307,
          -0.16321563720703125,
          0.04813458025455475,
          0.29368579387664795,
          -0.31926077604293823,
          -0.41087669134140015,
          0.18689599633216858,
          -0.3382261097431183,
          -0.39661580324172974,
          -0.4086436629295349,
          0.49236688017845154,
          0.4261045455932617,
          -0.42998364567756653,
          0.5465123653411865,
          0.3337688148021698,
          0.01434999331831932,
          0.00875544548034668,
          0.01873641088604927,
          0.010428393259644508,
          0.007152204401791096,
          0.012842711992561817,
          0.01618439517915249,
          -0.003748931922018528,
          0.6312090158462524,
          -0.27372506260871887,
          0.12312128394842148,
          0.6424184441566467,
          -0.26934003829956055,
          0.12394102662801743,
          -0.2353125810623169,
          -0.1785084754228592,
          -0.6619535684585571,
          -0.23616893589496613,
          -0.1819344162940979,
          -0.6511572003364563,
          -0.0940663143992424,
          0.08905892819166183,
          -0.11404135823249817,
          0.8404115438461304,
          -0.13880133628845215,
          0.2086796760559082,
          -0.7960285544395447,
          0.14405567944049835,
          0.005151337943971157,
          -0.08310557901859283,
          -0.034136708825826645,
          0.12768502533435822,
          -0.07961758971214294,
          0.010703747160732746,
          0.04435968026518822,
          0.02321309596300125,
          -0.000471004779683426,
          0.08219384402036667,
          0.009137568064033985,
          0.11953684687614441,
          -0.01843261905014515,
          -0.002895929617807269,
          -0.015257380902767181,
          0.0035112083423882723,
          -0.0005370367434807122,
          -0.0026576435193419456,
          0.0033065672032535076,
          -0.0008893997874110937,
          -0.16815556585788727,
          0.5513659715652466,
          -0.38796111941337585,
          -0.1476346254348755,
          0.5424416661262512,
          -0.3817789554595947,
          0.43187838792800903,
          0.3614056706428528,
          0.1531362533569336,
          0.4452231526374817,
          0.3611479699611664,
          0.1724705696105957,
          -0.25991714000701904,
          0.28235530853271484,
          -0.14893001317977905,
          0.5445979237556458,
          -0.1244308203458786,
          -0.7489141225814819,
          -0.00153904571197927,
          0.11782839149236679,
          -0.15304341912269592,
          -0.2722509205341339,
          -0.15698912739753723,
          -0.29063230752944946,
          -0.31288373470306396,
          -0.16754883527755737,
          0.08154778927564621,
          0.10856015980243683,
          -0.16047453880310059,
          0.061101965606212616,
          0.1678190678358078,
          -0.28550946712493896,
          -0.011700412258505821,
          -0.023311909288167953,
          -0.02911684289574623,
          -0.019537819549441338,
          -0.00860955286771059,
          -0.028681455180048943,
          -0.028339680284261703,
          -0.005918617360293865,
          -0.3034839332103729,
          0.9271410703659058,
          0.9153569936752319,
          0.08017196506261826,
          -0.023782674223184586,
          0.03662250190973282,
          0.64373379945755,
          -1.0538840293884277,
          -0.5416657328605652,
          0.04496125131845474,
          0.0023871357552707195,
          0.07985936105251312,
          0.012835678644478321,
          0.004677398595958948,
          0.0187087245285511,
          0.005882559809833765,
          0.0055938526056706905,
          0.006969144102185965,
          0.008195001631975174,
          -0.0026775735896080732,
          -0.4477250874042511,
          0.4285815954208374,
          -0.3465185761451721,
          -0.4640769064426422,
          0.43728765845298767,
          -0.35416969656944275,
          0.4883967339992523,
          0.2932232916355133,
          0.5416099429130554,
          0.4765723645687103,
          0.2913874089717865,
          0.5256980061531067,
          -0.039512813091278076,
          -0.03429867699742317,
          0.08568961918354034,
          0.09932251274585724,
          -0.043316494673490524,
          -0.1620909422636032,
          -0.11569923162460327,
          0.18713806569576263,
          -0.16105756163597107,
          0.09096480906009674,
          0.16068464517593384,
          0.1368834674358368,
          -0.2921959161758423,
          -0.2834908962249756,
          -0.15154846012592316,
          0.16930250823497772,
          -0.08635424822568893,
          -0.22691160440444946,
          0.360887736082077,
          0.22319026291370392,
          0.05889800563454628,
          0.011055829003453255,
          0.016757704317569733,
          0.23447959125041962,
          -0.0931081622838974,
          0.5798414945602417,
          -0.4447273313999176,
          -0.0034796958789229393,
          -0.8832923769950867,
          -0.19841782748699188,
          0.009279124438762665,
          0.13279248774051666,
          0.3423652946949005,
          0.41251441836357117,
          -0.1206245943903923,
          0.35974666476249695,
          -0.7947245240211487,
          0.12211675941944122,
          -0.2208002507686615,
          0.11186494678258896,
          -0.02885947749018669,
          -0.11349596083164215,
          -0.006705365143716335,
          0.08940362930297852,
          0.10709328204393387,
          0.2188348025083542,
          -0.11304359138011932,
          0.1825493574142456,
          0.10313722491264343,
          -0.4775826930999756,
          -0.5388100743293762,
          0.00444185733795166,
          0.21875610947608948,
          0.38877230882644653,
          -0.5024109482765198,
          0.6756211519241333,
          0.27189934253692627,
          0.21735712885856628,
          -0.201419860124588,
          -0.03365210443735123,
          0.18164056539535522,
          0.3243888318538666,
          0.02493874728679657,
          0.2463817596435547,
          -0.18236485123634338,
          0.2619720995426178,
          -0.4328128695487976,
          -0.1606033742427826,
          0.23656827211380005,
          -0.07070472836494446,
          0.028650518506765366,
          0.07237739115953445,
          -0.07852806150913239,
          -0.020149609073996544,
          0.12833565473556519,
          -0.05631027743220329,
          0.21880888938903809,
          0.05691663548350334,
          -0.004740749951452017,
          0.06770218163728714,
          -0.0894135981798172,
          0.3352353274822235,
          -0.14967434108257294,
          -0.0690152496099472,
          -0.12902604043483734,
          0.13192717730998993,
          0.09348572790622711,
          0.5306971073150635,
          -0.00940270908176899,
          -0.10152849555015564,
          -0.217288538813591,
          0.14034336805343628,
          -0.015691189095377922,
          -0.20307019352912903,
          0.007842807099223137,
          -0.06511923670768738,
          -0.05494516342878342,
          0.047856513410806656,
          -0.1922977715730667,
          0.0650162324309349,
          -0.014153714291751385,
          -0.0208999402821064,
          -0.033190786838531494,
          -0.02408030442893505,
          -0.015110800974071026,
          -0.014377003535628319,
          -0.0323125384747982,
          -0.008318726904690266,
          0.0036978856660425663,
          -0.012854308821260929,
          0.010338488966226578,
          -0.5975489020347595,
          1.0881121158599854,
          0.9780294895172119,
          0.013877157121896744,
          0.00636439211666584,
          0.00394185958430171,
          0.6571571230888367,
          -1.1956692934036255,
          -0.8656299114227295,
          0.2096087783575058,
          0.12970615923404694,
          0.10890348255634308,
          0.2523350119590759,
          0.060161564499139786,
          -0.42078185081481934,
          -0.16983601450920105,
          0.15910258889198303,
          0.1169198751449585,
          -0.01326083019375801,
          -0.10697607696056366,
          0.25827717781066895,
          0.0674709603190422,
          -0.09926339983940125,
          -0.028079276904463768,
          -0.15444377064704895,
          0.04203259199857712,
          -0.04635591059923172,
          -0.22020500898361206,
          0.17513903975486755,
          0.16884198784828186,
          -0.30497175455093384,
          0.048208702355623245,
          -0.054802507162094116,
          0.12515835464000702,
          0.27085384726524353,
          0.1901085376739502,
          -0.10201496630907059,
          -0.03798677772283554,
          0.06875327974557877,
          -0.2163545936346054,
          -0.04504445940256119,
          -0.1332196742296219,
          -0.08565766364336014,
          -0.1812921017408371,
          -0.12145911157131195,
          -0.0631013736128807,
          0.0830327719449997,
          -0.09047945588827133,
          -0.08865352720022202,
          -0.0032389876432716846,
          -0.00300023565068841,
          -0.004481218289583921,
          0.000810492318123579,
          -0.0013970645377412438,
          -0.0034414399415254593,
          -0.000246602256083861,
          -0.0006725996499881148,
          -0.5896274447441101,
          -0.04566733166575432,
          0.3430520296096802,
          -0.6085749268531799,
          -0.04624851793050766,
          0.335953027009964,
          -0.2607271373271942,
          -0.026499630883336067,
          0.6293836832046509,
          -0.26494380831718445,
          -0.025926586240530014,
          0.6102993488311768,
          -0.06519573926925659,
          -0.12378855794668198,
          -0.050714123994112015,
          -0.09314396977424622,
          0.10226206481456757,
          0.383049875497818,
          -0.051881611347198486,
          0.21375001966953278,
          0.5813335180282593,
          -0.17611084878444672,
          -0.04886406660079956,
          0.5004725456237793,
          -0.2416221797466278,
          -0.053842756897211075,
          0.02911669947206974,
          0.1236095279455185,
          0.6029945611953735,
          0.045505110174417496,
          0.17556317150592804,
          0.5298616290092468,
          -0.1342352032661438,
          0.30679526925086975,
          -0.4517996907234192,
          -0.979580819606781,
          -0.35516849160194397,
          0.19357992708683014,
          -0.07334325462579727,
          0.6568531394004822,
          -0.13401395082473755,
          -0.1689889132976532,
          0.12029015272855759,
          0.18730808794498444,
          -0.05550679191946983,
          0.12221062928438187,
          0.07143540680408478,
          0.19091609120368958,
          -0.09409232437610626,
          0.04839643836021423,
          0.09107692539691925,
          0.21234673261642456,
          -0.1350717842578888,
          0.09525085985660553,
          -0.034138087183237076,
          0.05988970026373863,
          0.13697035610675812,
          0.36604583263397217,
          0.058268770575523376,
          0.26293179392814636,
          0.15593713521957397,
          -0.2175815999507904,
          -0.24000702798366547,
          0.1600044071674347,
          0.06440654397010803,
          0.05507635697722435,
          -0.07463353872299194,
          0.17174586653709412,
          0.18517015874385834,
          -0.05622010678052902,
          0.04488180950284004,
          0.18768353760242462,
          0.0039776223711669445,
          -0.03093648888170719,
          0.011851702816784382,
          -0.2804393172264099,
          -0.026302684098482132,
          0.4465002119541168,
          0.08241143822669983,
          -0.07712849229574203,
          -0.044312186539173126,
          0.09305843710899353,
          0.023128336295485497,
          -0.07572238892316818,
          -0.3305968642234802,
          -0.3926156759262085,
          -0.009493893943727016,
          -0.07464349269866943,
          -0.058491043746471405,
          -0.26399722695350647,
          0.3697368800640106,
          0.0026591033674776554,
          0.06778222322463989,
          -0.037331853061914444,
          0.1521366536617279,
          -0.19655351340770721,
          0.056567832827568054,
          0.32430464029312134,
          0.043050024658441544,
          0.11672201752662659,
          0.17301708459854126,
          0.1276358962059021,
          -0.13656777143478394,
          0.29202547669410706,
          0.004081363324075937,
          0.05922314152121544,
          0.07293348759412766,
          0.07762573659420013,
          0.06155870482325554,
          0.157245934009552,
          0.25226452946662903,
          0.22716090083122253,
          0.10625588893890381,
          0.020379506051540375,
          0.05113484710454941,
          0.018475698307156563,
          0.01749460957944393,
          0.02214234694838524,
          0.024391019716858864,
          0.0061879525892436504,
          -0.10815030336380005,
          1.0754972696304321,
          1.3963121175765991,
          -0.05168978124856949,
          0.03299291059374809,
          0.0023524118587374687,
          1.1759535074234009,
          -1.4470807313919067,
          -0.46122679114341736,
          -0.04423464834690094,
          0.012639223597943783,
          -0.042493488639593124,
          -0.027436524629592896,
          0.4116782546043396,
          -0.20656347274780273,
          0.05689261108636856,
          0.11399393528699875,
          0.16740146279335022,
          -0.07230552285909653,
          0.5702374577522278,
          0.05865231528878212,
          -0.1825418770313263,
          -0.10961133986711502,
          0.14279454946517944,
          -0.08629132062196732,
          0.06442242860794067,
          0.07222813367843628,
          0.04890009015798569,
          0.036051519215106964,
          0.14715217053890228,
          -0.018212484195828438,
          0.11511052399873734,
          0.13817211985588074,
          0.27710890769958496,
          0.159675732254982,
          0.6016845703125,
          -0.039350349456071854,
          -0.495505690574646,
          -0.256363183259964,
          0.20886455476284027,
          0.05040598660707474,
          0.09331962466239929,
          0.25112271308898926,
          0.17645099759101868,
          0.03432236984372139,
          0.28855448961257935,
          0.2253524512052536,
          -0.16292300820350647,
          0.0033838965464383364,
          0.255756139755249,
          -0.10719944536685944,
          0.14251303672790527,
          -0.16542796790599823,
          0.002725027734413743,
          0.03563418984413147,
          0.7441084980964661,
          0.007748255040496588,
          0.036866284906864166,
          -0.36856624484062195,
          -0.052139777690172195,
          0.4174470603466034,
          0.014830444939434528,
          9.082577162189409e-05,
          0.41711828112602234,
          -0.06756128370761871,
          0.04271470010280609,
          -0.07619178295135498,
          0.059088051319122314,
          0.44877681136131287,
          0.03233802691102028,
          0.06479129940271378,
          0.43707820773124695,
          0.18771038949489594,
          0.4030129909515381,
          -0.005590641871094704,
          0.003543736645951867,
          -0.17990896105766296,
          -0.12097053229808807,
          0.1566392183303833,
          0.32362934947013855,
          -0.003017490031197667,
          0.07080688327550888,
          0.05567627027630806,
          -0.1930953562259674,
          -0.15277211368083954,
          0.058429572731256485,
          0.0915873646736145,
          -0.15049904584884644,
          -0.042351920157670975,
          0.07972438633441925,
          0.10843076556921005,
          -0.1761738508939743,
          -0.1833847314119339,
          0.39797133207321167,
          0.0256312508136034,
          -0.048400845378637314,
          0.06377845257520676,
          0.1228204220533371,
          0.10165529698133469,
          0.6592196822166443,
          -0.2505556643009186,
          -0.06989556550979614,
          0.038807302713394165,
          -0.21088087558746338,
          0.02037120796740055,
          0.017460748553276062,
          -0.10412915050983429,
          0.2403871864080429,
          -0.18662029504776,
          -0.07075220346450806,
          0.09365956485271454,
          -0.1874733418226242,
          -0.017122650519013405,
          -0.006830283440649509,
          -0.024666910991072655,
          -0.0007680135313421488,
          -0.011068117804825306,
          -0.03745112195611,
          -0.021943967789411545,
          -0.0033801698591560125,
          0.60257887840271,
          -0.05212492123246193,
          -0.0745413675904274,
          0.588593065738678,
          -0.05857713147997856,
          -0.07856210321187973,
          -0.03632386028766632,
          -0.03531579300761223,
          -0.638294517993927,
          -0.031125208362936974,
          -0.03617974743247032,
          -0.6538102030754089,
          0.0018506759079173207,
          -0.3147442936897278,
          0.13310474157333374,
          -0.08767306804656982,
          0.0013996096095070243,
          0.09326595813035965,
          -0.06864658743143082,
          -0.2265038639307022,
          0.009908914566040039,
          0.023251239210367203,
          -0.11585529893636703,
          0.1874387115240097,
          -0.11899097263813019,
          -0.25576624274253845,
          -0.025751855224370956,
          -0.07860873639583588,
          -0.01823248155415058,
          -0.10029393434524536,
          0.05728405714035034,
          0.19133789837360382,
          0.1007167398929596,
          0.33470669388771057,
          0.16121715307235718,
          -0.15389619767665863,
          -0.24618595838546753,
          -0.15786989033222198,
          -0.131094291806221,
          0.3734426498413086,
          -0.20921267569065094,
          0.005381061229854822,
          0.00027405470609664917,
          -0.14979644119739532,
          -0.22798936069011688,
          0.09709930419921875,
          -0.12329724431037903,
          0.15032953023910522,
          -0.15515998005867004,
          -0.05345652624964714,
          0.3930285573005676,
          -0.041991811245679855,
          -0.14874453842639923,
          -0.2451857179403305,
          0.035218432545661926,
          0.3923387825489044,
          0.28554850816726685,
          -0.31974637508392334,
          0.146035835146904,
          -0.1643839180469513,
          -0.03460133075714111,
          -0.1544724702835083,
          -0.22538837790489197,
          -0.12900972366333008,
          -0.15167315304279327,
          -0.2676500678062439,
          0.021376606076955795,
          -0.005879818927496672,
          -0.06463173776865005,
          -0.004729927517473698,
          -0.00940907932817936,
          -0.16190950572490692,
          0.17049531638622284,
          0.06250528246164322,
          0.061905279755592346,
          0.3705536127090454,
          0.13229486346244812,
          -0.5030624866485596,
          0.18946769833564758,
          -0.43472352623939514,
          0.09348732233047485,
          0.013457191176712513,
          0.08475571870803833,
          -0.1346050500869751,
          -0.31794077157974243,
          0.14476916193962097,
          0.20680080354213715,
          -0.1746620386838913,
          0.032958466559648514,
          0.38929569721221924,
          0.03838028758764267,
          -0.1743941307067871,
          0.007806453388184309,
          -0.0021113429684191942,
          0.0064637670293450356,
          -0.005016428418457508,
          0.008779378607869148,
          0.026103347539901733,
          0.013037067838013172,
          0.005463291425257921,
          0.5708653926849365,
          -0.07539531588554382,
          -0.0396086722612381,
          0.5314040184020996,
          -0.0706547349691391,
          -0.05600139498710632,
          0.041918881237506866,
          -0.0472896583378315,
          -0.4149491488933563,
          0.0242515429854393,
          -0.04470079764723778,
          -0.45353779196739197,
          0.02022254839539528,
          -0.05709990859031677,
          0.016329165548086166,
          -0.057548630982637405,
          0.05672212690114975,
          0.22915665805339813,
          -0.0518622100353241,
          0.13994403183460236,
          0.28124454617500305,
          0.2753871977329254,
          0.350704550743103,
          0.07819505780935287,
          -0.1942426562309265,
          -0.23587854206562042,
          0.2200365960597992,
          -0.29471462965011597,
          0.22655309736728668,
          -0.2630528211593628,
          0.324250191450119,
          0.16860362887382507,
          0.020938590168952942,
          0.020805591717362404,
          -0.026578444987535477,
          0.0771402046084404,
          0.006613235455006361,
          -0.17585770785808563,
          -0.11214761435985565,
          0.1670914888381958,
          0.32765698432922363,
          -0.2641976475715637,
          -0.29090651869773865,
          -0.2326018214225769,
          -0.025672918185591698,
          -0.008780302479863167,
          -0.21800361573696136,
          0.31391021609306335,
          0.4041166305541992,
          -0.05293779820203781,
          0.08131461590528488,
          -0.21095052361488342,
          0.19085568189620972,
          -0.12337260693311691,
          0.17948344349861145,
          -0.20316801965236664,
          0.17623227834701538,
          0.23008206486701965,
          0.21719615161418915,
          -0.04100213572382927,
          -0.25996270775794983,
          -0.24398432672023773,
          -0.059302836656570435,
          -0.2334216982126236,
          -0.07596948742866516,
          0.26463186740875244,
          -0.06621360033750534,
          0.2956556975841522,
          -0.19451048970222473,
          0.21537917852401733,
          0.037230465561151505,
          -0.23404818773269653,
          0.10828159749507904,
          -0.30283936858177185,
          0.01563272625207901,
          -0.3881528079509735,
          0.06527973711490631,
          0.09946747124195099,
          0.16632510721683502,
          -0.30880236625671387,
          -0.17098784446716309,
          -0.21595463156700134,
          -0.054084692150354385,
          -0.021498315036296844,
          -0.13981996476650238,
          -0.02003565989434719,
          -0.078055739402771,
          0.2824552655220032,
          -0.10444045066833496,
          -0.06490296125411987,
          0.20719808340072632,
          0.03235691785812378,
          -0.08526502549648285,
          0.07814359664916992,
          0.02098998613655567,
          0.22694288194179535,
          -0.15634627640247345,
          -0.19401487708091736,
          0.09058615565299988,
          -0.27364981174468994,
          -0.33527281880378723,
          -0.12695173919200897,
          0.022165551781654358,
          -0.4824775755405426,
          -0.30757829546928406,
          0.027902545407414436,
          -0.10713909566402435,
          -0.06441172957420349,
          -0.005316294729709625,
          0.012486881576478481,
          0.011386794038116932,
          -0.15790235996246338,
          0.13884562253952026,
          -0.03608502820134163,
          0.17050236463546753,
          0.5774622559547424,
          0.03609141334891319,
          -0.17898833751678467,
          0.14100345969200134,
          -0.032290007919073105,
          -0.012759406119585037,
          0.06928406655788422,
          0.06619604676961899,
          -0.30407822132110596,
          -0.06518389284610748,
          0.15735720098018646,
          -0.0332658514380455,
          0.032447703182697296,
          0.01447063498198986,
          0.017627280205488205,
          0.19138211011886597,
          -0.24435366690158844
        ],
        "bias": [
          0.13231691718101501,
          0.3105837106704712,
          -0.3925187587738037,
          -0.06042344868183136,
          0.008279278874397278,
          0.1816825419664383,
          -0.37775248289108276,
          0.1218847706913948,
          0.12068324536085129,
          0.11650018393993378,
          0.14693793654441833,
          0.02322666347026825,
          0.1520092785358429,
          -0.13240143656730652,
          0.19112153351306915,
          -0.019836513325572014,
          0.27952077984809875,
          -0.014089678414165974,
          0.3675837516784668,
          0.13670146465301514,
          -0.07075496017932892,
          0.19676679372787476,
          0.4224947690963745,
          -0.38890472054481506,
          -0.0220852792263031,
          0.0076078372076153755,
          -0.05456121265888214,
          0.11143136024475098,
          0.028861457481980324,
          0.09394751489162445,
          0.09716496616601944,
          -0.04203047975897789,
          -0.024949906393885612,
          0.05445890128612518,
          -0.09950950741767883,
          0.11422950774431229,
          0.1301501840353012,
          0.10346471518278122,
          -0.0907965898513794,
          0.004814188927412033,
          0.010261783376336098,
          -0.31139808893203735,
          0.27380019426345825,
          -0.16645339131355286,
          0.0005751321441493928,
          -0.010762577876448631,
          -0.18439239263534546,
          0.09676987677812576,
          0.10726726055145264,
          -0.1331283450126648,
          0.18953992426395416,
          -0.04805893450975418,
          0.07659319043159485,
          0.1363370716571808,
          0.09463073313236237,
          -0.18563725054264069,
          0.05851684510707855,
          -0.03588738664984703,
          -0.08160106837749481,
          -0.007268168032169342,
          -0.1038050428032875,
          0.055509768426418304,
          0.28012096881866455,
          -0.1954060196876526
        ]
      },
      {
        "in_features": 64,
        "out_features": 64,
        "weights": [
          0.04871334135532379,
          -0.03115398809313774,
          -0.40793105959892273,
          -0.04688479006290436,
          -0.021395305171608925,
          0.13568232953548431,
          0.1841176599264145,
          0.18357469141483307,
          0.026920201256871223,
          -0.16423720121383667,
          0.13046416640281677,
          0.053270209580659866,
          0.01984008215367794,
          -0.06934157758951187,
          0.20450447499752045,
          0.03396637365221977,
          0.08184098452329636,
          0.04303748160600662,
          -0.4047967195510864,
          0.12633107602596283,
          -0.1328924596309662,
          -0.16138839721679688,
          -0.1103605255484581,
          5.225513935089111,
          0.08566402643918991,
          -0.3450790047645569,
          0.04237781837582588,
          -0.36666709184646606,
          0.05882028117775917,
          -0.0814502090215683,
          1.2020258903503418,
          0.06800002604722977,
          0.08499479293823242,
          -0.06253410130739212,
          -0.05222434923052788,
          -0.3556366264820099,
          0.11756489425897598,
          2.67392635345459,
          0.04363713413476944,
          -0.04526710882782936,
          0.037503089755773544,
          0.5866509675979614,
          -0.9351412057876587,
          0.02768647111952305,
          0.026749981567263603,
          0.003026007441803813,
          -1.158079743385315,
          0.14453765749931335,
          -0.26752814650535583,
          0.4193047285079956,
          0.028661513701081276,
          0.1197182908654213,
          0.08845839649438858,
          -0.10119219869375229,
          0.10644024610519409,
          0.062352441251277924,
          0.16797930002212524,
          0.03365349397063255,
          -0.02624133601784706,
          0.10907252132892609,
          0.11339478194713593,
          -0.4437006413936615,
          0.10084822028875351,
          0.09303053468465805,
          -0.06634622067213058,
          0.1184137612581253,
          -1.2850439548492432,
          -0.20239801704883575,
          -0.30700013041496277,
          -0.044642068445682526,
          0.4118798077106476,
          -0.12860168516635895,
          -0.08953431993722916,
          -0.2893596589565277,
          0.16691502928733826,
          0.1390628069639206,
          0.03003450483083725,
          0.029089022427797318,
          -0.15422648191452026,
          -0.045253101736307144,
          -0.02817101590335369,
          0.06722863018512726,
          -0.3956446349620819,
          0.3833793103694916,
          -0.015039857476949692,
          0.0418434664607048,
          -0.7144425511360168,
          8.822285652160645,
          -0.4552871882915497,
          -0.1526256799697876,
          0.04231615737080574,
          0.6155577898025513,
          0.10666842758655548,
          -0.12208835035562515,
          -2.130967378616333,
          0.13482198119163513,
          0.02011023461818695,
          0.22263827919960022,
          -0.08344458788633347,
          -0.04379452019929886,
          0.02722345106303692,
          -2.0826025009155273,
          -0.04105580970644951,
          0.0781407430768013,
          0.025749079883098602,
          0.22449415922164917,
          -1.6407722234725952,
          0.15456300973892212,
          0.2581208348274231,
          -0.040983863174915314,
          -4.082096099853516,
          0.08921368420124054,
          -0.11062625050544739,
          0.11866562068462372,
          0.11919575929641724,
          0.0791318267583847,
          0.2453998476266861,
          0.15425413846969604,
          -0.1487950086593628,
          -0.20362836122512817,
          -0.25817862153053284,
          0.04826222360134125,
          -0.09790745377540588,
          0.05323321744799614,
          0.10326486080884933,
          0.09548690915107727,
          0.14937569200992584,
          0.13312454521656036,
          -0.020426316186785698,
          -0.049874257296323776,
          0.15112397074699402,
          -0.5865761637687683,
          2.116333484649658,
          -0.20122084021568298,
          0.07110446691513062,
          -0.33743900060653687,
          0.3243834376335144,
          -0.10912377387285233,
          -0.1808447688817978,
          -0.0674159899353981,
          0.07039880752563477,
          0.24258928000926971,
          0.13615822792053223,
          -0.16137109696865082,
          -0.12851732969284058,
          -0.020544851198792458,
          -0.0248776376247406,
          0.3330168128013611,
          0.19852881133556366,
          -0.08257828652858734,
          0.056420356035232544,
          -0.15488815307617188,
          0.23966075479984283,
          -0.22208523750305176,
          -0.07219558209180832,
          -0.05639556795358658,
          -0.05431462079286575,
          -0.03420449420809746,
          -2.0936169624328613,
          -0.0198364295065403,
          0.146294504404068,
          -6.403687477111816,
          -0.12136621028184891,
          0.05127273499965668,
          -0.3961201608181,
          -0.6792449951171875,
          0.2253350168466568,
          -0.010517017915844917,
          -0.05542021989822388,
          0.43882864713668823,
          -0.2192850261926651,
          -0.07696127146482468,
          0.3381129801273346,
          -0.20661257207393646,
          1.4104422330856323,
          -0.11591756343841553,
          -0.3217787444591522,
          0.03462633118033409,
          0.20752646028995514,
          -0.26148101687431335,
          -0.031396880745887756,
          -0.019990332424640656,
          0.12100126594305038,
          0.474773645401001,
          -0.1916653960943222,
          0.011030442081391811,
          0.2058296650648117,
          0.2468298375606537,
          -0.12020045518875122,
          0.16388262808322906,
          -0.06298163533210754,
          0.3604021966457367,
          0.026524178683757782,
          0.058165572583675385,
          -0.20947720110416412,
          0.545742928981781,
          0.8401051163673401,
          -0.1647365838289261,
          -0.34789082407951355,
          -0.11474031209945679,
          -0.30358582735061646,
          -0.5520504117012024,
          -0.15708139538764954,
          0.007633590139448643,
          -0.04449700191617012,
          0.1268470138311386,
          0.4969280958175659,
          -0.18292079865932465,
          -0.04027233645319939,
          -0.000471637089503929,
          0.012251411564648151,
          0.3756740391254425,
          -0.04133061319589615,
          0.45634567737579346,
          -0.10338840633630753,
          35.560237884521484,
          -0.34142234921455383,
          -0.29791930317878723,
          -0.00019277901446912438,
          -0.4642269015312195,
          0.003008198691532016,
          0.08945649117231369,
          4.777116775512695,
          0.001666882075369358,
          0.1240893006324768,
          0.3541122078895569,
          0.6019183397293091,
          0.12343931198120117,
          0.03525955602526665,
          -0.5595564842224121,
          -0.055218931287527084,
          -0.013241007924079895,
          0.006127015221863985,
          -0.34445077180862427,
          -0.7794626951217651,
          -0.5322663187980652,
          -0.5073140859603882,
          0.004009617026895285,
          5.963352680206299,
          -0.0703578069806099,
          -0.21994879841804504,
          -0.029697852209210396,
          0.1721234917640686,
          -0.14738444983959198,
          -0.05880500748753548,
          0.007753961253911257,
          -0.13535238802433014,
          -0.37060388922691345,
          -0.06476691365242004,
          0.07922610640525818,
          0.923721432685852,
          0.11995895951986313,
          -0.060475971549749374,
          -0.35586509108543396,
          -0.008724553510546684,
          -0.17447605729103088,
          0.040246617048978806,
          0.0711367130279541,
          0.23691418766975403,
          -0.06865379959344864,
          -0.04996996372938156,
          0.0171916913241148,
          -0.5373213887214661,
          -0.04885958135128021,
          -0.10636821389198303,
          0.10272303223609924,
          -0.24203261733055115,
          0.21796570718288422,
          -0.14105607569217682,
          0.2691582143306732,
          0.19624780118465424,
          -0.010033978149294853,
          0.10776752978563309,
          0.16749773919582367,
          0.9750994443893433,
          -0.18216508626937866,
          -0.03617839887738228,
          -0.24017281830310822,
          2.0286993980407715,
          14.95459270477295,
          -0.1560996025800705,
          0.09578508883714676,
          0.1991637647151947,
          0.25233104825019836,
          0.2356564849615097,
          0.048250604420900345,
          -1.9960459470748901,
          0.18905344605445862,
          -0.0693843811750412,
          -0.013951336033642292,
          -0.027648530900478363,
          0.18959549069404602,
          0.005996231455355883,
          -1.6516824960708618,
          0.09405291825532913,
          -0.36072760820388794,
          0.17583799362182617,
          0.3004496991634369,
          0.3071672022342682,
          -0.2229335904121399,
          -0.0690431073307991,
          0.011186465620994568,
          -0.24415847659111023,
          0.0850001648068428,
          0.008985842578113079,
          0.039638254791498184,
          0.0511094406247139,
          -0.18091967701911926,
          0.26752832531929016,
          -0.10949573665857315,
          0.2149997353553772,
          0.1718519926071167,
          -0.050701603293418884,
          0.02768651954829693,
          0.010930104181170464,
          -0.01727040484547615,
          0.07266776263713837,
          0.005641537718474865,
          -0.07299167662858963,
          -0.19122296571731567,
          -0.09541655331850052,
          0.08801806718111038,
          0.027111317962408066,
          0.589791476726532,
          0.4671817421913147,
          -0.0472189337015152,
          0.04507140815258026,
          0.040361300110816956,
          0.14467057585716248,
          -0.08596815168857574,
          -0.16459068655967712,
          0.3940245807170868,
          0.09432583302259445,
          0.04838535189628601,
          -0.020585797727108,
          -0.11100699007511139,
          -0.24959518015384674,
          0.4984453320503235,
          0.162348672747612,
          0.14983423054218292,
          0.08859013766050339,
          0.07593381404876709,
          -0.03550906851887703,
          8.26356315612793,
          -0.09990400820970535,
          0.09714614599943161,
          0.3917251527309418,
          0.05670062080025673,
          0.48796284198760986,
          0.0020642306189984083,
          0.7225068807601929,
          0.4902971088886261,
          0.04569457471370697,
          0.08678638935089111,
          -0.019464217126369476,
          0.03266027942299843,
          -0.059319544583559036,
          0.6270456910133362,
          0.02770908735692501,
          -0.17414523661136627,
          0.40821847319602966,
          -0.1771111786365509,
          0.10923871397972107,
          0.04623367264866829,
          0.08710293471813202,
          -0.004642089828848839,
          1.4775375127792358,
          0.06675329059362411,
          -0.014131239615380764,
          -0.13264311850070953,
          0.08578064292669296,
          -0.034896984696388245,
          0.4092857837677002,
          -0.011042704805731773,
          -0.1252220720052719,
          0.10970363765954971,
          0.06219514459371567,
          0.5788815021514893,
          0.23182672262191772,
          -0.029880937188863754,
          -0.0523117296397686,
          -0.05401609092950821,
          -0.18888716399669647,
          0.17876793444156647,
          -0.024143043905496597,
          0.10072599351406097,
          0.2294699251651764,
          0.012479051016271114,
          -0.08752230554819107,
          0.03353290259838104,
          0.21234442293643951,
          -0.05081868916749954,
          -0.26585614681243896,
          -0.10535383224487305,
          -0.09689956903457642,
          0.4785446524620056,
          -0.14780500531196594,
          0.134765625,
          -0.1301674097776413,
          -0.03454003855586052,
          -0.2093854397535324,
          0.4617975056171417,
          0.042309291660785675,
          -0.08919178694486618,
          -0.061357829719781876,
          -0.09818260371685028,
          -0.027653897181153297,
          -1.8739423751831055,
          -0.07445584237575531,
          0.25203514099121094,
          0.4757162928581238,
          0.2798128128051758,
          0.4923137128353119,
          -0.0597698837518692,
          2.967589855194092,
          0.4692985415458679,
          -0.08254256844520569,
          0.04583697393536568,
          -0.07950454205274582,
          0.0750221386551857,
          0.008540448732674122,
          2.2974941730499268,
          -0.07032860070466995,
          -0.09163635969161987,
          0.45155662298202515,
          0.07594730705022812,
          0.2065313458442688,
          -0.0274889525026083,
          -0.0010421901242807508,
          0.11135458201169968,
          2.7995142936706543,
          -0.10294392704963684,
          0.1195141077041626,
          -0.08114659786224365,
          0.04485179856419563,
          -0.07311271876096725,
          0.3944094181060791,
          -0.056009747087955475,
          0.03901294246315956,
          -0.11667870730161667,
          0.05666724964976311,
          0.3764372766017914,
          -0.002363820793107152,
          -0.17289912700653076,
          -0.005438770167529583,
          0.13034404814243317,
          -0.24251683056354523,
          -0.13807684183120728,
          -0.13200803101062775,
          -0.08094432950019836,
          0.7130438089370728,
          -0.06646400690078735,
          -0.5584534406661987,
          0.10023736953735352,
          0.10869186371564865,
          0.054606612771749496,
          0.13479489088058472,
          0.015554131008684635,
          0.03123091720044613,
          0.008535965345799923,
          -0.18270239233970642,
          0.0440852977335453,
          -0.0796196460723877,
          -0.21824944019317627,
          0.021862121298909187,
          -0.045340634882450104,
          0.24106422066688538,
          0.14362716674804688,
          -0.023292237892746925,
          0.006588404532521963,
          -0.7220210433006287,
          14.607367515563965,
          0.5656057000160217,
          -0.0009646909311413765,
          -0.044887907803058624,
          0.46414169669151306,
          -0.009959992952644825,
          0.3470301926136017,
          1.0351431369781494,
          0.014598006382584572,
          0.09484562277793884,
          -0.39121612906455994,
          -0.008074416778981686,
          -0.12005052715539932,
          0.19426105916500092,
          0.39600157737731934,
          0.2616097927093506,
          -0.13813474774360657,
          -0.020453782752156258,
          0.41000935435295105,
          0.42687931656837463,
          0.22531236708164215,
          -0.052485208958387375,
          -0.057233259081840515,
          3.2831978797912598,
          0.10152449458837509,
          -0.3119686543941498,
          0.3934723436832428,
          -0.07023429125547409,
          -0.03891592472791672,
          0.13947419822216034,
          0.06255453824996948,
          -0.024681223556399345,
          -0.4787253737449646,
          0.03165501728653908,
          -0.1333271712064743,
          -0.19044139981269836,
          -0.09369627386331558,
          0.025640355423092842,
          0.16383224725723267,
          0.07490358501672745,
          0.07712259143590927,
          0.135776549577713,
          0.01348147913813591,
          1.003476619720459,
          0.04257822781801224,
          0.3665315806865692,
          0.1567358672618866,
          0.1887897402048111,
          0.1001853495836258,
          0.20445184409618378,
          0.3019435405731201,
          0.09559254348278046,
          -0.6303671598434448,
          0.04598138481378555,
          -0.3907782733440399,
          0.17093586921691895,
          0.24530251324176788,
          0.25777873396873474,
          -0.5876642465591431,
          0.007627545390278101,
          0.11527891457080841,
          0.48396509885787964,
          0.3792690336704254,
          -0.3790081739425659,
          -9.506670951843262,
          -0.47582733631134033,
          -0.43356552720069885,
          -0.6014036536216736,
          -0.41512012481689453,
          -0.5591502785682678,
          -0.09294842928647995,
          -0.099662184715271,
          -0.6276807188987732,
          -0.011459938250482082,
          0.2840467393398285,
          0.1563037633895874,
          0.054650869220495224,
          0.2283850610256195,
          0.08927866816520691,
          0.3157655894756317,
          -0.05641375854611397,
          -0.5974438190460205,
          -0.3326689898967743,
          -0.3072478771209717,
          0.08130914717912674,
          0.07865840941667557,
          -0.0589836947619915,
          -1.6488380432128906,
          0.06674828380346298,
          -0.056826964020729065,
          -0.029539188370108604,
          0.17835718393325806,
          0.2324560284614563,
          -0.24498586356639862,
          0.08732445538043976,
          0.150167778134346,
          0.04949334263801575,
          -0.060779694467782974,
          -0.7059623003005981,
          0.1754612773656845,
          0.08156926929950714,
          -0.07061982154846191,
          -0.13635604083538055,
          0.25814366340637207,
          0.11555039137601852,
          0.16409848630428314,
          -0.019832005724310875,
          -0.03336579352617264,
          -0.38471701741218567,
          -0.038351476192474365,
          0.013669895939528942,
          0.027443408966064453,
          0.04521957412362099,
          -0.012514823116362095,
          -0.04404148459434509,
          -0.01969117857515812,
          -0.032114122062921524,
          0.12158782035112381,
          0.23544131219387054,
          0.06588762253522873,
          -0.3653205633163452,
          0.17826351523399353,
          -0.002510312246158719,
          0.13975423574447632,
          0.2130654901266098,
          0.08765115588903427,
          0.0014835891779512167,
          0.2772350311279297,
          11.833528518676758,
          -0.09327612817287445,
          0.10028937458992004,
          0.002685941057279706,
          0.1556861400604248,
          0.008956420235335827,
          -0.11006200313568115,
          -1.177209734916687,
          -0.0923924446105957,
          0.055853720754384995,
          -0.17835503816604614,
          -0.0729946494102478,
          0.01171313039958477,
          0.08285892754793167,
          -3.084652900695801,
          0.19408069550991058,
          -0.09696196019649506,
          0.03809662163257599,
          0.2779967486858368,
          -1.0035088062286377,
          -0.051989126950502396,
          0.16721773147583008,
          0.07023745030164719,
          -16.781524658203125,
          -0.07043420523405075,
          0.08518148213624954,
          0.3091234564781189,
          0.11862198263406754,
          -0.03069668635725975,
          0.09312979876995087,
          0.030582895502448082,
          0.058362506330013275,
          -0.17188690602779388,
          -0.1653386354446411,
          -0.12339439988136292,
          0.07367783039808273,
          -0.09529008716344833,
          0.09044112265110016,
          -0.06364751607179642,
          -0.13293035328388214,
          0.06165529042482376,
          0.07016263157129288,
          0.10364549607038498,
          0.30119451880455017,
          0.12699170410633087,
          0.2894969880580902,
          -0.06061647832393646,
          -0.17101675271987915,
          -0.26226624846458435,
          0.021781429648399353,
          -0.3023848533630371,
          0.14076228439807892,
          -0.1265425980091095,
          -0.09959503263235092,
          0.1986740380525589,
          -0.2911193370819092,
          -0.17612235248088837,
          -0.14568428695201874,
          -0.09557261317968369,
          -0.04908514767885208,
          0.0816005989909172,
          0.0972718596458435,
          0.2233278751373291,
          -0.05713021382689476,
          28.749427795410156,
          0.2507340610027313,
          -0.025263171643018723,
          -0.09932559728622437,
          -0.33766406774520874,
          -0.1299404799938202,
          -0.14716532826423645,
          2.2206473350524902,
          -0.11619170010089874,
          0.04716072604060173,
          -0.005822425242513418,
          0.1070019006729126,
          0.15240852534770966,
          -0.2083853930234909,
          8.131150245666504,
          0.11355174332857132,
          0.29053202271461487,
          -0.07170650362968445,
          0.8209707736968994,
          0.5916457772254944,
          -0.08609943091869354,
          0.1035408228635788,
          0.05080971121788025,
          9.824368476867676,
          0.08907152712345123,
          -0.29548725485801697,
          0.17277933657169342,
          -0.027631103992462158,
          -0.030417142435908318,
          -0.14352747797966003,
          0.1819094568490982,
          -0.061070315539836884,
          -0.15754461288452148,
          0.4161205291748047,
          -0.061323873698711395,
          0.06687920540571213,
          0.043613169342279434,
          0.1271039992570877,
          -0.010087521746754646,
          -0.039766304194927216,
          0.2014642357826233,
          -0.2434634268283844,
          0.041266925632953644,
          -0.1914830058813095,
          0.041882678866386414,
          0.07177209109067917,
          -0.06853754073381424,
          -0.1405572146177292,
          -0.12853768467903137,
          -0.14292098581790924,
          0.15521377325057983,
          -0.05182158946990967,
          -0.14825432002544403,
          0.10681238770484924,
          0.2496628314256668,
          -0.1981813907623291,
          -0.051286254078149796,
          0.030517449602484703,
          -0.06526120752096176,
          0.1573188155889511,
          0.1754397600889206,
          0.08980410546064377,
          -0.23354025185108185,
          0.0021770044695585966,
          17.898658752441406,
          -0.3220992982387543,
          0.25332823395729065,
          -0.0643170177936554,
          0.24383914470672607,
          -0.12309413403272629,
          0.0752350240945816,
          -0.4864870011806488,
          -0.11733120679855347,
          0.004231773316860199,
          0.022292016074061394,
          0.0806204229593277,
          0.24764865636825562,
          0.10178254544734955,
          0.3485707938671112,
          0.1485019475221634,
          0.01996316760778427,
          -0.036840539425611496,
          -0.046935830265283585,
          1.0557403564453125,
          0.024858491495251656,
          0.08950485289096832,
          0.12572918832302094,
          3.1629698276519775,
          -0.13116826117038727,
          -0.09329170733690262,
          0.37971529364585876,
          0.006385865155607462,
          -0.2206626832485199,
          -0.1869535744190216,
          0.14062008261680603,
          -0.11204410344362259,
          -0.19241134822368622,
          0.13357025384902954,
          -0.0507550910115242,
          0.04869408905506134,
          0.061280421912670135,
          -0.2812672257423401,
          0.024184009060263634,
          -0.023166434839367867,
          -0.09531062841415405,
          -0.146846741437912,
          0.07225026190280914,
          -0.19001919031143188,
          -0.16985110938549042,
          -0.11838296055793762,
          0.03191753849387169,
          0.07687851041555405,
          -0.060375750064849854,
          0.07353747636079788,
          -0.23839491605758667,
          0.11080381274223328,
          0.18137620389461517,
          0.015238209627568722,
          0.04561369866132736,
          -0.09864778816699982,
          0.27344682812690735,
          -0.016872046515345573,
          0.3088105022907257,
          0.08646801859140396,
          -0.15153171122074127,
          -0.19503313302993774,
          0.24440544843673706,
          0.05553077161312103,
          -10.791097640991211,
          0.24149025976657867,
          0.17143569886684418,
          0.36422744393348694,
          -0.11439767479896545,
          0.3295135498046875,
          0.21646979451179504,
          1.3550200462341309,
          0.23077283799648285,
          -0.31440499424934387,
          0.018985385075211525,
          -0.14810925722122192,
          0.06602513790130615,
          -0.12060683965682983,
          1.6080410480499268,
          -0.02161993831396103,
          0.013307120651006699,
          0.35418573021888733,
          0.5821868777275085,
          -0.06549470126628876,
          -0.007531198672950268,
          -0.07472482323646545,
          0.2656768560409546,
          -3.2598986625671387,
          -0.046827178448438644,
          0.07295575737953186,
          -0.10804131627082825,
          -0.06609976291656494,
          -0.060842566192150116,
          0.2957702875137329,
          0.08241338282823563,
          -0.18893833458423615,
          0.05255817994475365,
          0.08340431749820709,
          0.024469338357448578,
          0.0025124642997980118,
          -0.19915829598903656,
          0.11640886962413788,
          0.1821158230304718,
          0.07541733980178833,
          0.04571982100605965,
          -0.11573411524295807,
          -0.011897807940840721,
          0.04778192937374115,
          -0.0713944137096405,
          -0.08761043846607208,
          0.05101366341114044,
          -0.04867994412779808,
          -0.08591186255216599,
          -0.0450562909245491,
          -0.06328696012496948,
          -0.05846713110804558,
          -0.04288813844323158,
          0.11647681891918182,
          -0.07631222903728485,
          -0.07393435388803482,
          -0.038326576352119446,
          0.001562718884088099,
          0.0831330195069313,
          0.08068276196718216,
          -0.02997615560889244,
          -0.026113929226994514,
          -0.11228059977293015,
          0.026150688529014587,
          -0.0524090938270092,
          0.0016380788292735815,
          -0.05704214423894882,
          0.08975587040185928,
          0.09023397415876389,
          -0.05846615135669708,
          -0.011944606900215149,
          -0.005834254901856184,
          -0.00656166672706604,
          0.03793487697839737,
          -0.115501768887043,
          -0.07590010017156601,
          0.08647564798593521,
          -0.04506057873368263,
          -0.011464516632258892,
          0.10463264584541321,
          -0.11045651137828827,
          -0.002720561111345887,
          0.08517415821552277,
          -0.07744279503822327,
          0.09243964403867722,
          -0.10185279697179794,
          0.019712019711732864,
          -0.08980052918195724,
          -0.0493696965277195,
          0.10988041758537292,
          0.015209192410111427,
          -0.06342838704586029,
          -0.11886939406394958,
          -0.08865322917699814,
          -0.06954815238714218,
          -0.053047772496938705,
          0.08666425943374634,
          0.0058298660442233086,
          0.005513149779289961,
          -0.12316743284463882,
          -0.11120115220546722,
          -0.03147222474217415,
          0.058632880449295044,
          -0.12489786744117737,
          -0.005912282038480043,
          -0.02097209542989731,
          -0.0773124173283577,
          0.37674322724342346,
          -0.491372287273407,
          1.5155986547470093,
          0.00761039974167943,
          0.004380444530397654,
          -0.13054664433002472,
          -0.3660864233970642,
          -0.1957131326198578,
          0.038353659212589264,
          0.6151574850082397,
          -0.025604264810681343,
          0.1128026470541954,
          0.2706116735935211,
          -0.020734887570142746,
          -0.2303614616394043,
          0.5441648960113525,
          -0.08364387601613998,
          0.044862326234579086,
          -0.033904142677783966,
          0.022572210058569908,
          0.06783789396286011,
          -8.826007843017578,
          0.2265481948852539,
          0.03983042761683464,
          0.5045069456100464,
          -1.3207005262374878,
          0.4990052580833435,
          0.021309223026037216,
          0.4131099283695221,
          0.6095606088638306,
          0.3008677363395691,
          -1.0965486764907837,
          -0.3472602367401123,
          -0.13310186564922333,
          -0.05295007303357124,
          -3.1075830459594727,
          0.002738785929977894,
          0.15324805676937103,
          0.48934057354927063,
          0.06347697228193283,
          0.05908200144767761,
          0.2503959834575653,
          0.022572841495275497,
          0.3291175961494446,
          3.440178394317627,
          -0.020668765529990196,
          -0.3550395965576172,
          -0.316908597946167,
          -0.1482704132795334,
          0.124333456158638,
          0.5214125514030457,
          0.02737891487777233,
          -0.004441545810550451,
          -0.0853690356016159,
          0.42192280292510986,
          0.346036434173584,
          -0.7905405759811401,
          0.09530699253082275,
          -0.10022154450416565,
          -0.01623842865228653,
          -0.41637882590293884,
          -0.10147162526845932,
          0.14284087717533112,
          0.28974610567092896,
          0.18610380589962006,
          -0.13792259991168976,
          -0.267521470785141,
          -0.09314090013504028,
          0.014749470166862011,
          -0.24206757545471191,
          -0.15246279537677765,
          -0.19140586256980896,
          -0.33476361632347107,
          0.4121150076389313,
          0.30358198285102844,
          -0.3265608549118042,
          0.0559292808175087,
          0.22162267565727234,
          0.2768968343734741,
          0.3935844302177429,
          0.1860940307378769,
          0.25577154755592346,
          -0.2199748456478119,
          -0.11802484095096588,
          -0.12260395288467407,
          21.152616500854492,
          -0.9928916692733765,
          0.36541029810905457,
          0.4854816496372223,
          0.4242013692855835,
          0.4680643379688263,
          -0.16283361613750458,
          -0.07252814620733261,
          0.36996930837631226,
          -0.02494136430323124,
          0.06762471050024033,
          -0.11144306510686874,
          -0.3671703040599823,
          0.1905761957168579,
          -1.6169966459274292,
          -0.14659568667411804,
          -0.16686150431632996,
          0.487839937210083,
          -0.3880689740180969,
          0.14623349905014038,
          -0.4339189827442169,
          -0.0855122059583664,
          0.053999532014131546,
          3.411020517349243,
          -0.09302923828363419,
          0.1771816909313202,
          -0.362870991230011,
          0.12762115895748138,
          -0.02871849574148655,
          0.3732706308364868,
          -0.06494022160768509,
          0.11852038651704788,
          -0.41410067677497864,
          0.15158487856388092,
          0.1783536970615387,
          0.029576312750577927,
          0.2551368772983551,
          0.053437333554029465,
          0.2576614320278168,
          -0.2232048660516739,
          -0.11414149403572083,
          -0.03783432021737099,
          0.003299845615401864,
          0.15198013186454773,
          -0.10653403401374817,
          -0.009507409296929836,
          0.14583632349967957,
          0.1049170270562172,
          -0.19804005324840546,
          -0.17249688506126404,
          0.025635000318288803,
          -0.0012988144299015403,
          0.6214405298233032,
          -0.21118709444999695,
          0.11167322099208832,
          -0.0026628810446709394,
          -0.027726292610168457,
          0.024646587669849396,
          0.6688814163208008,
          0.11196909844875336,
          0.03220847621560097,
          -0.12072785198688507,
          -0.0663640946149826,
          0.0074492632411420345,
          7.8145270347595215,
          0.05675336346030235,
          -0.03335421532392502,
          0.6782433986663818,
          0.1360272765159607,
          0.6957029104232788,
          -0.03128979727625847,
          -0.35662710666656494,
          0.5880098342895508,
          0.09945877641439438,
          0.12220774590969086,
          -0.07703855633735657,
          0.07455803453922272,
          -0.009083429351449013,
          -0.5899878740310669,
          0.09884069859981537,
          -0.1747971624135971,
          0.6069304347038269,
          0.1521671861410141,
          0.24594783782958984,
          0.03018687106668949,
          0.10515569150447845,
          0.6595486998558044,
          2.419804573059082,
          -0.06517431139945984,
          0.0301483366638422,
          -0.07332278788089752,
          -0.13781434297561646,
          -0.08468002825975418,
          0.640367865562439,
          -0.010767610743641853,
          -0.13474057614803314,
          -0.01152231078594923,
          0.051963817328214645,
          0.3355805575847626,
          -0.14789164066314697,
          0.039400454610586166,
          -0.14061197638511658,
          -0.007245558779686689,
          0.06319525092840195,
          0.05990733951330185,
          0.11993572115898132,
          0.12952400743961334,
          -0.24938347935676575,
          0.09335795044898987,
          -0.08390842378139496,
          0.1165660172700882,
          0.09284007549285889,
          0.08628019690513611,
          -0.013187272474169731,
          -0.054883792996406555,
          0.08473662286996841,
          -0.14076048135757446,
          -0.15200737118721008,
          0.13663241267204285,
          0.035933271050453186,
          -0.42827272415161133,
          0.08881732821464539,
          -0.1438923180103302,
          -0.02116584964096546,
          0.1644056886434555,
          0.07950863987207413,
          -0.03769513964653015,
          0.03859030082821846,
          13.642561912536621,
          -0.12447323650121689,
          -0.036789409816265106,
          -0.12257947027683258,
          0.16401219367980957,
          -0.09247586876153946,
          -0.061308301985263824,
          2.651360511779785,
          -0.12713481485843658,
          0.2227623611688614,
          0.46154510974884033,
          0.03422087803483009,
          -0.06236239895224571,
          0.044475141912698746,
          0.20886023342609406,
          0.1729089468717575,
          -0.09393017739057541,
          -0.15483501553535461,
          0.49467578530311584,
          0.014040124602615833,
          -0.02957286313176155,
          -0.039316482841968536,
          -0.035781681537628174,
          1.753405213356018,
          0.10905611515045166,
          0.2941059470176697,
          0.06728939712047577,
          0.18630269169807434,
          0.056172288954257965,
          -0.0981496199965477,
          0.10031139105558395,
          0.015245379880070686,
          -0.21106867492198944,
          0.10799288749694824,
          -0.06850647181272507,
          0.037012357264757156,
          0.21495012938976288,
          0.12472269684076309,
          -0.25188106298446655,
          0.23522542417049408,
          0.05460121110081673,
          -0.01247081533074379,
          0.026300018653273582,
          0.5412297248840332,
          -0.101189985871315,
          0.32867687940597534,
          -0.1216428130865097,
          -0.04327145218849182,
          0.025081103667616844,
          -0.05354911461472511,
          -0.175619974732399,
          0.09362239390611649,
          -0.1506403088569641,
          -0.1336495727300644,
          0.5213760733604431,
          0.008859990164637566,
          -0.24279813468456268,
          -0.18589790165424347,
          -0.04759930819272995,
          -0.2755463421344757,
          0.004096648655831814,
          0.252384215593338,
          0.3421597480773926,
          -0.42831310629844666,
          7.067573070526123,
          0.058679740875959396,
          0.022988930344581604,
          -0.07198332250118256,
          0.48526668548583984,
          -0.1090058758854866,
          -0.5417312979698181,
          -4.123897075653076,
          -0.11006877571344376,
          0.05215395241975784,
          -0.5636687278747559,
          -0.05699654668569565,
          -0.028764551505446434,
          -0.0741790235042572,
          -4.396852493286133,
          0.2770366966724396,
          0.022186249494552612,
          -0.03151309862732887,
          0.38635313510894775,
          0.44128289818763733,
          0.0794919803738594,
          -0.09332271665334702,
          0.1299862563610077,
          -3.7285263538360596,
          -0.04646763578057289,
          0.3501465916633606,
          0.3514907956123352,
          0.002270652912557125,
          -0.06649985909461975,
          0.021580325439572334,
          0.07518965750932693,
          -0.19593805074691772,
          -0.022851768881082535,
          0.5774774551391602,
          -0.2441631704568863,
          0.09116727858781815,
          0.061441995203495026,
          0.035238683223724365,
          0.3048129081726074,
          -0.1393814980983734,
          0.045693982392549515,
          -0.12965552508831024,
          0.11906591802835464,
          0.23169803619384766,
          -0.04008626565337181,
          0.24792338907718658,
          0.13299095630645752,
          0.09028250724077225,
          0.03901826590299606,
          -0.11583122611045837,
          0.21477514505386353,
          0.05095178633928299,
          0.2642488181591034,
          0.28662073612213135,
          -0.029707835987210274,
          0.1054735779762268,
          -0.37219980359077454,
          0.02649829536676407,
          0.3380351662635803,
          -0.19194158911705017,
          0.2682883143424988,
          0.04755605757236481,
          -0.08237411081790924,
          -0.0900503620505333,
          17.412952423095703,
          -0.13871324062347412,
          0.08571462333202362,
          0.45462507009506226,
          0.09583975374698639,
          0.39394688606262207,
          -0.17908823490142822,
          3.127293109893799,
          0.33882737159729004,
          0.11388206481933594,
          0.042252056300640106,
          0.00297023868188262,
          0.08411311358213425,
          0.15448233485221863,
          3.1003947257995605,
          0.10113991051912308,
          -0.04561789706349373,
          0.40947434306144714,
          0.3102690279483795,
          0.30412131547927856,
          0.0756007581949234,
          0.09873362630605698,
          0.381469190120697,
          5.445326805114746,
          0.11964978277683258,
          0.04882197454571724,
          0.2027025818824768,
          -0.05189941078424454,
          0.10911499708890915,
          0.4635067880153656,
          -0.08412574231624603,
          0.03184779733419418,
          -0.17890416085720062,
          0.01936444640159607,
          -0.010279837064445019,
          0.2465331107378006,
          0.1539420783519745,
          -0.12234796583652496,
          -0.21701718866825104,
          0.00017683839541859925,
          -0.12771010398864746,
          -0.09870216995477676,
          0.027260202914476395,
          0.054196830838918686,
          0.17802776396274567,
          0.39259251952171326,
          0.09457442164421082,
          0.16402006149291992,
          0.22338369488716125,
          -0.00877479650080204,
          0.09303905069828033,
          0.17330202460289001,
          0.019066425040364265,
          0.17754313349723816,
          -0.2179674208164215,
          -0.08589892089366913,
          -0.24238155782222748,
          -0.007050853222608566,
          -0.03325722739100456,
          -0.05887952446937561,
          0.13493436574935913,
          -0.08546812832355499,
          -0.3238500654697418,
          0.124112568795681,
          13.442618370056152,
          0.01863952912390232,
          -0.21430279314517975,
          0.0074807447381317616,
          0.07612849026918411,
          0.008786029182374477,
          0.3272695243358612,
          2.8818249702453613,
          -0.015069837681949139,
          0.055562034249305725,
          -0.5766162872314453,
          0.18925327062606812,
          0.07853623479604721,
          0.2545095682144165,
          -1.777306079864502,
          0.019640043377876282,
          -0.003743118839338422,
          0.015199240297079086,
          0.010688270442187786,
          0.10423023998737335,
          0.07098483294248581,
          0.03880145400762558,
          0.08318312466144562,
          4.196587562561035,
          0.005751640070229769,
          -0.10997359454631805,
          0.14734014868736267,
          -0.08637134730815887,
          0.04524720460176468,
          0.08469759672880173,
          0.08426445722579956,
          -0.03539016470313072,
          -0.3722632825374603,
          -0.18602292239665985,
          -0.14110013842582703,
          -0.3219662010669708,
          0.07106158137321472,
          -0.0806536078453064,
          -0.24305462837219238,
          0.009837205521762371,
          -0.12906447052955627,
          -0.0954786092042923,
          0.1421566754579544,
          -0.08475293219089508,
          0.5726378560066223,
          0.5002473592758179,
          0.10126890987157822,
          -0.2067006230354309,
          -0.13708709180355072,
          -0.06062556430697441,
          0.07279502600431442,
          -0.09099792689085007,
          0.16089719533920288,
          -0.05421116203069687,
          -0.17563414573669434,
          -0.2413516640663147,
          0.07379327714443207,
          -0.02281733602285385,
          0.32091331481933594,
          -0.610729455947876,
          -0.20087268948554993,
          0.12349697202444077,
          0.025611720979213715,
          0.2969229817390442,
          13.274251937866211,
          -0.18248896300792694,
          -0.0723625123500824,
          0.23252171277999878,
          0.3720797598361969,
          0.1533987820148468,
          -0.07829178124666214,
          1.232692003250122,
          0.3088133633136749,
          0.1409720480442047,
          -0.15773999691009521,
          0.31802043318748474,
          0.013170131482183933,
          0.1389104425907135,
          2.623288869857788,
          0.07916022092103958,
          -0.1029752567410469,
          0.20191305875778198,
          -0.037854570895433426,
          -1.9175039529800415,
          0.1358901560306549,
          -0.1322135329246521,
          0.20075173676013947,
          0.10029243677854538,
          0.003554419381543994,
          -0.0018702982924878597,
          0.08263912051916122,
          0.04618353396654129,
          -0.054005593061447144,
          0.2026488035917282,
          0.09974239766597748,
          0.04870299994945526,
          -0.26962167024612427,
          0.1482977569103241,
          0.2383628487586975,
          0.540289044380188,
          0.03005826659500599,
          0.050780344754457474,
          -0.11438259482383728,
          -0.12551221251487732,
          -0.15385203063488007,
          -0.11683345586061478,
          -0.03750375658273697,
          0.01698414981365204,
          0.08468983322381973,
          0.0180810559540987,
          0.002317091915756464,
          0.010584577918052673,
          0.08844263851642609,
          -0.03224876895546913,
          -0.06157980486750603,
          0.019285468384623528,
          0.09618458896875381,
          -0.11264492571353912,
          -0.10376905649900436,
          0.013639537617564201,
          -0.03104795515537262,
          0.07640399038791656,
          -0.13626065850257874,
          -0.007881339639425278,
          0.05769826099276543,
          -0.014633585698902607,
          0.06369677186012268,
          -0.1115192249417305,
          0.010612609796226025,
          0.0060624717734754086,
          0.08243682235479355,
          0.0258723683655262,
          -0.008174379356205463,
          -0.05134860426187515,
          -0.1364290565252304,
          -0.05784011632204056,
          0.03287850692868233,
          -0.07923353463411331,
          0.060090623795986176,
          -0.016425171867012978,
          0.067104771733284,
          -0.14460985362529755,
          0.025376031175255775,
          -0.09527003020048141,
          -0.0111166937276721,
          -0.009535862132906914,
          -0.10233929008245468,
          0.10652659088373184,
          0.03148293495178223,
          -0.12753582000732422,
          0.09841930866241455,
          0.048821426928043365,
          -0.10312822461128235,
          -0.037134066224098206,
          -0.05758959800004959,
          -0.07654039561748505,
          -0.052466411143541336,
          -0.013364681974053383,
          0.07557065784931183,
          -0.06714332103729248,
          -0.03185533732175827,
          -0.10700371116399765,
          0.004019076470285654,
          -0.14159676432609558,
          -0.10560806095600128,
          0.08116276562213898,
          0.03963608667254448,
          -0.08057302981615067,
          -0.1223849356174469,
          0.11369162797927856,
          -0.07098928093910217,
          0.49057629704475403,
          -0.13426753878593445,
          0.034736018627882004,
          0.07255364209413528,
          -0.02553647570312023,
          0.02401748299598694,
          -0.14472529292106628,
          0.10036014020442963,
          0.11941883713006973,
          -0.030498720705509186,
          0.1322382390499115,
          0.3045191764831543,
          0.056677237153053284,
          -0.04512960836291313,
          0.14288438856601715,
          0.11539701372385025,
          -0.07800476253032684,
          0.1732255071401596,
          0.0831134095788002,
          0.2461356818675995,
          -0.02410651370882988,
          14.766653060913086,
          0.03648103401064873,
          -0.0247317124158144,
          0.04009755328297615,
          0.2506991922855377,
          -0.008751638233661652,
          -0.17863714694976807,
          -0.9707840085029602,
          0.07027836889028549,
          0.011813261546194553,
          0.1888340562582016,
          -0.17551635205745697,
          -0.03236328810453415,
          0.1916833221912384,
          -0.9333354234695435,
          0.08205464482307434,
          -0.09801924973726273,
          -0.035436853766441345,
          0.2356121838092804,
          -0.6405211687088013,
          0.15734200179576874,
          0.01057629194110632,
          0.07796823233366013,
          -16.27249526977539,
          0.10167761892080307,
          0.19315403699874878,
          0.1387050747871399,
          0.1283799558877945,
          0.12783794105052948,
          0.14690376818180084,
          -0.04746441915631294,
          -0.04023340716958046,
          -0.04840680956840515,
          -0.01722807064652443,
          -0.15417079627513885,
          0.02526101842522621,
          0.08414506167173386,
          0.061035480350255966,
          -0.15264692902565002,
          -0.042053259909152985,
          -0.0468757301568985,
          -0.11633871495723724,
          -0.025746768340468407,
          -0.05640886723995209,
          -0.20918363332748413,
          -0.33131879568099976,
          0.17868314683437347,
          -0.10597249120473862,
          -0.2169835865497589,
          -0.14975841343402863,
          -0.08246568590402603,
          0.06255286186933517,
          0.05248956382274628,
          0.1574137806892395,
          0.26273924112319946,
          -0.1432972550392151,
          -0.099513478577137,
          0.07945641130208969,
          0.19554626941680908,
          0.2811976373195648,
          0.30645203590393066,
          -0.05374136567115784,
          0.0032831034623086452,
          0.13084860146045685,
          18.863792419433594,
          0.2712807357311249,
          0.20538046956062317,
          0.10736914724111557,
          -0.11732476204633713,
          0.095192089676857,
          0.2505820393562317,
          -1.3286789655685425,
          0.10225607454776764,
          0.10829731822013855,
          -0.4155995547771454,
          0.014837502501904964,
          -0.24560564756393433,
          0.19245396554470062,
          -0.8379836082458496,
          -0.03709014132618904,
          -0.09184349328279495,
          0.14939023554325104,
          0.9048029780387878,
          -0.22225263714790344,
          0.22117607295513153,
          -0.11440188437700272,
          0.13127729296684265,
          9.027440071105957,
          0.008437967859208584,
          -0.20082032680511475,
          0.06257805228233337,
          -0.05660836398601532,
          0.16476410627365112,
          0.04251348599791527,
          0.08600675314664841,
          0.15205128490924835,
          -0.07124976813793182,
          0.2836202085018158,
          0.15263493359088898,
          0.06885874271392822,
          -0.1253596693277359,
          -0.05223141238093376,
          0.04089445248246193,
          -0.029806500300765038,
          -0.09607556462287903,
          0.5115886926651001,
          0.14743098616600037,
          -0.10125892609357834,
          0.11880239099264145,
          0.02163468673825264,
          -0.3298893868923187,
          -0.06293009221553802,
          -0.35099881887435913,
          -0.47254982590675354,
          -0.07887111604213715,
          -0.5218172073364258,
          0.5266957879066467,
          -0.461058646440506,
          0.11903823167085648,
          -0.3478732109069824,
          -0.49544763565063477,
          0.14219772815704346,
          0.3559987246990204,
          -0.22999192774295807,
          0.14994078874588013,
          -0.020025495439767838,
          0.07228653877973557,
          0.1661166399717331,
          22.158226013183594,
          0.045134253799915314,
          0.6149020195007324,
          0.42216184735298157,
          -0.1329709142446518,
          0.4939659833908081,
          0.4295542240142822,
          2.1487953662872314,
          0.43500667810440063,
          -0.21730148792266846,
          -0.12642042338848114,
          -0.1568104475736618,
          -0.04838750511407852,
          0.0028755341190844774,
          4.067798137664795,
          0.1263875961303711,
          -0.36628371477127075,
          0.385969340801239,
          1.3744113445281982,
          0.07659181952476501,
          -0.45476192235946655,
          -0.2051597237586975,
          -0.13098403811454773,
          3.9394402503967285,
          0.010239491239190102,
          -0.19489383697509766,
          0.14966605603694916,
          0.3400168716907501,
          0.12024692445993423,
          0.5106959939002991,
          0.13568629324436188,
          -0.12172933667898178,
          0.20627038180828094,
          0.13687287271022797,
          0.25436264276504517,
          -0.08150552213191986,
          -0.5634442567825317,
          0.2388710081577301,
          0.40383702516555786,
          -0.22588631510734558,
          0.5098865032196045,
          0.2600916028022766,
          -0.1627865433692932,
          -0.4870980978012085,
          0.16275416314601898,
          0.6701586842536926,
          0.22088825702667236,
          0.22972384095191956,
          0.2327481210231781,
          0.27719151973724365,
          0.11616508662700653,
          -0.024686137214303017,
          0.008014262653887272,
          0.2939252555370331,
          -0.2618384063243866,
          0.7628539204597473,
          0.5475990176200867,
          0.2895468771457672,
          -0.03566259518265724,
          0.08996618539094925,
          -0.050399817526340485,
          -0.11208350956439972,
          0.6396343111991882,
          0.38221845030784607,
          8.58094310760498,
          0.21139241755008698,
          -1.2614277601242065,
          0.0032216471154242754,
          -0.9020125269889832,
          0.004570001270622015,
          0.7093350291252136,
          1.6430070400238037,
          -0.020991884171962738,
          0.24225032329559326,
          0.24120528995990753,
          0.6545411348342896,
          0.1618831753730774,
          -0.17158840596675873,
          3.929041624069214,
          0.07292413711547852,
          -0.4174887537956238,
          -0.027510283514857292,
          0.39276039600372314,
          1.3065252304077148,
          -0.7351084351539612,
          -0.03007178008556366,
          0.03792464733123779,
          8.808817863464355,
          -0.3583073019981384,
          0.24116356670856476,
          -0.3973640501499176,
          0.22333718836307526,
          -0.18113914132118225,
          0.09014677256345749,
          0.041457973420619965,
          0.31904828548431396,
          0.19046996533870697,
          0.4491988718509674,
          -0.11854051053524017,
          0.15357115864753723,
          0.6413012146949768,
          -0.1645275354385376,
          -0.4244527816772461,
